3072 30 10 0.1000 50 50 100
0.361363
-0.355208
0.141459
-0.194290
-0.207674
-0.486310
-0.394784
-0.354704
-0.021730
-0.333426
0.312350
1.535053
0.159336
-0.005877
0.054926
-0.600796
2.198486
0.953112
0.231404
2.269696
0.133210
-0.002563
0.105224
0.171277
0.128338
-0.593120
0.039887
0.258505
0.120572
0.121937
0.092780
1.505259
0.181836
0.614890
0.223834
0.301427
-0.094704
0.199177
0.030494
0.122661
0.536212
-0.403729
0.156285
-0.575808
0.019784
-0.365937
0.600278
-0.129903
0.447632
-1.024406
0.821383
-0.969114
0.890150
0.508513
0.111919
0.514120
0.629637
-0.397395
0.224602
1.016312
0.205654
0.277556
0.813200
-0.173048
0.686371
-0.259620
0.081630
0.233387
-0.029453
0.454156
0.656015
-0.701367
0.147268
0.695686
0.595766
0.174889
0.553242
0.013666
0.569886
0.789562
0.451365
-0.547715
0.534239
0.703100
-0.089107
0.198697
-0.647548
-0.643721
0.941801
-0.318987
0.940525
0.252518
-0.658825
0.910931
-0.757021
0.199259
-0.284556
0.276845
-0.205439
0.310037
0.402767
-0.038649
0.865036
-0.719381
0.693882
-0.473819
0.054157
0.502641
-0.013779
-0.052386
0.678817
0.679943
-0.164581
-0.564628
-0.272718
-0.925849
-0.239141
0.985775
-0.907816
0.436766
0.979563
0.222362
0.564743
0.118352
0.818706
-0.187164
0.136103
-0.721501
0.024195
-0.345224
0.004170
0.767938
0.433029
-0.225530
-0.369345
-0.005002
0.471932
-0.754099
0.622476
-0.196196
0.519525
0.353475
-0.276714
-0.704526
-0.346195
0.775060
-0.960438
-0.715581
-0.255738
0.457126
-0.175828
0.799009
0.958655
-0.005522
-0.882438
-0.000569
-1.021187
0.012002
0.646645
0.516206
0.365493
-0.144588
-0.963035
-0.770341
0.010954
-0.234766
0.752258
-0.212422
0.891477
0.956708
0.085344
0.398168
-0.736961
0.669972
0.579774
-0.644534
-0.526327
-0.578262
-0.837332
-0.699791
0.214873
1.039236
0.366855
0.401810
-0.120941
0.293810
-0.067237
-0.117674
-0.406398
0.240446
0.823771
0.023409
-0.735034
-0.206529
0.089038
-0.726394
0.425679
-0.639478
0.828006
-0.703903
-0.076647
0.350991
0.703608
-0.035660
-0.257016
-0.412495
0.852235
0.118661
0.270138
0.627004
0.101815
1.076535
0.986066
-0.408669
0.456401
-0.185935
-0.608154
-0.242767
-0.777590
0.437230
0.547220
0.115451
0.270836
0.823291
-0.273944
0.377305
-0.716621
-0.847308
0.889379
-0.627127
0.166919
0.717343
0.053423
-0.450097
0.753901
-0.837334
0.700667
-0.745440
-0.846485
0.794910
-0.248449
0.402168
0.699988
0.341130
-0.451039
-0.499624
-0.315048
-0.425819
0.187288
0.168275
-0.813517
0.432951
0.608657
0.453190
0.983540
-0.131847
0.145773
-0.070520
-0.152528
0.717785
-0.418874
0.915168
-0.861955
0.423286
0.272331
-0.259500
-0.931036
0.333700
-0.308707
-0.516158
0.711887
0.051598
-0.336955
-0.520547
0.127413
-0.771934
0.241401
0.432718
0.967552
0.537720
0.085295
0.062453
-0.498699
0.007227
0.689236
-0.703820
-1.052853
-0.038310
-0.320008
-0.197455
0.866597
-0.175252
0.261173
-0.708188
0.379878
-0.240136
-0.426573
-0.529438
-0.007172
0.577289
0.945961
-0.404598
-0.471777
0.974917
0.418110
0.885859
0.718708
-0.233064
-0.579290
0.675329
-0.328856
0.826744
0.846834
0.204675
0.028668
-0.522565
-1.016059
0.669528
-0.781258
0.089241
-0.429437
0.442264
0.435731
0.730943
-0.827480
-0.600196
0.055798
-0.058437
-0.557114
0.584111
0.395010
0.955141
0.598062
0.370154
0.759002
0.162304
0.739947
0.604496
0.451669
-0.569179
0.980600
-0.090999
-0.974913
-0.413056
-0.470563
0.124652
0.586178
-0.768391
-0.359170
0.167281
-0.865624
-0.573510
0.471650
0.714978
0.936046
-0.364869
-0.926686
-0.435072
-0.798996
0.813593
-0.409155
0.740662
0.548099
0.635037
0.695478
-0.017849
-0.508758
-0.002640
-0.340641
-0.979303
-0.922081
-0.789806
-0.191915
-0.954935
-0.518134
0.314956
0.058750
-0.594500
-0.784275
0.420624
0.882092
0.238657
-0.647774
-0.812566
0.361606
-0.666234
0.174325
0.410688
0.667879
-0.919816
-0.711428
-0.701287
0.916742
-0.924838
-0.559078
1.038559
-0.303218
-0.229645
-0.290335
0.007909
-0.578844
-0.175338
0.926659
0.398623
-0.194555
-0.830767
0.285162
0.940104
-0.482807
0.936664
0.553614
-0.177331
-0.013505
0.024948
0.304447
0.089295
-0.139898
-0.656596
0.208522
0.974954
-0.086534
-0.056986
-0.886140
-0.561156
0.855607
0.993461
-0.638904
-0.225927
0.485945
-0.138424
0.599549
-0.133314
-0.300941
-0.493601
0.541836
0.205254
-0.296536
-0.566955
0.297093
-0.144901
0.069064
-0.551567
-0.287231
0.142873
0.431265
0.045798
0.783808
0.296442
-0.727156
0.277819
0.002883
0.923884
-0.715834
0.909947
0.273615
0.633754
-0.205364
0.060382
-0.904284
0.701021
0.683133
0.819392
0.129211
-0.060631
0.777485
0.613058
-0.228667
0.666281
0.380766
0.308982
-0.804207
0.742517
-0.850587
-0.805788
-0.545082
-0.688902
0.143243
-0.624190
0.713304
0.147067
-0.863067
0.418465
-0.494478
-0.954302
-0.836754
1.078741
-0.720536
-0.109555
-0.930900
-0.632062
0.827696
0.566835
0.029247
0.656376
0.438020
-0.755577
0.158637
0.044423
-0.271201
-0.459446
-0.789919
0.520000
-0.670704
0.096451
-0.484533
0.178873
-0.941897
0.784586
0.124581
0.853816
0.642880
0.149617
0.076353
-0.783844
-0.047353
0.942136
-1.058744
0.100577
-0.957784
-0.944977
-0.993190
0.398502
0.096311
-0.252645
-0.364766
-0.982159
0.035285
0.484373
-0.388163
-0.570001
0.531682
-0.797044
-0.674156
-0.629249
-0.524455
-0.313979
-0.281492
-0.888553
0.687267
0.482765
0.188572
-0.304544
0.976220
-0.304960
0.927131
-0.601049
-0.873035
0.979449
0.576761
0.545752
-0.004486
0.719070
-0.172946
-0.473384
-0.189736
0.553106
-0.988623
0.762437
-0.715920
-0.537609
0.829372
-0.416631
-0.046679
0.473007
0.479247
-1.064313
-0.628385
0.260359
-0.271876
-0.640499
0.298754
0.107670
-0.190398
-0.302684
0.183232
0.068301
0.433298
-0.849511
0.805774
-0.573312
-0.613607
0.756466
0.028918
-0.848125
-0.540912
-0.267832
-0.305863
0.494404
0.610400
-0.253730
-0.202239
0.435211
0.811208
0.913817
-0.238133
0.206477
-0.035943
-0.341888
-0.475899
-0.073888
-0.451605
0.570027
-0.334982
0.285003
-0.073448
0.824148
-0.862856
0.664473
0.639103
0.646287
0.873367
-0.138936
0.020918
0.497010
-0.897690
-0.230317
-0.082711
0.586812
0.888728
0.619651
-0.345568
-0.534716
0.090416
-0.919662
0.592311
-0.251999
0.240182
0.041601
-0.705878
-0.076115
-0.868441
-0.487230
-0.973238
-0.532875
0.098843
-0.496290
-0.310993
-0.592584
-0.435933
-0.098636
0.971669
0.248164
0.321676
-0.867986
0.788005
0.948433
-0.226231
-0.577223
-0.973344
-0.000588
-0.340792
-0.241853
-0.613868
0.091762
-0.419237
0.066741
-0.670535
-0.927829
0.774546
-0.659586
-0.218058
0.411684
-0.480430
0.943015
0.838935
0.393645
0.199483
0.700642
-0.957620
0.167261
0.766783
-0.740730
-0.119206
0.576442
0.582816
-0.377907
-0.782173
-0.537438
-0.363543
-0.609941
0.801507
0.399186
-0.763905
-0.648842
-0.959564
0.389829
0.325141
-0.577747
0.818365
0.693155
0.571804
-0.563597
-0.358526
-0.351960
0.267689
0.027675
0.431592
-0.235435
0.237466
0.824506
0.710837
-0.414202
0.858808
0.218741
-0.546202
0.194181
0.001396
-0.805676
-0.017075
0.205422
0.211031
-0.145522
0.772031
-0.202859
0.695566
-0.831119
-0.696103
0.228539
0.668447
0.580875
0.860791
0.830657
0.553320
-0.512618
0.609547
0.599725
-0.071071
-0.381061
-0.535476
0.000350
-0.286457
-0.240147
0.776682
-0.305372
-0.883185
-0.255263
0.111163
-0.596447
-0.168142
0.351273
-0.593959
-0.121842
-0.790784
-0.720616
-0.884531
-0.383864
0.508419
0.355499
-0.404966
-0.846115
0.340251
0.511167
-0.889469
0.575229
-0.813164
-0.138601
-0.936309
-0.371002
0.985756
0.750399
-0.557176
0.492920
-0.334164
0.004042
-0.270905
-0.136452
-0.200530
-0.095691
0.187604
-0.074929
0.140003
0.382434
0.764292
-0.799967
0.739608
0.747717
-0.742624
-0.077474
-0.899140
-0.324470
-0.695080
0.488993
0.258974
0.963962
-0.266376
1.029196
0.211763
-0.134483
-0.170388
-0.094647
0.538730
0.099610
0.654028
0.743174
-0.541627
-0.513095
0.252395
0.655672
0.369637
0.678740
0.421805
0.522738
0.145845
0.340996
0.896645
0.520422
-0.904618
-0.877233
0.838535
-0.087739
0.341319
1.225358
-0.586908
-0.422211
-0.313245
-0.408038
-0.648027
0.306265
-0.459791
-0.597902
-0.242273
-0.242627
-0.101435
0.760137
-0.024277
0.129565
-1.022309
0.042411
-0.066732
0.957299
0.369628
-0.907970
0.319934
-0.838205
-0.871104
0.442751
0.172580
0.564769
0.840092
-0.280717
-0.799457
-0.486072
-0.820045
-0.368522
0.254110
-0.407345
-0.483197
-0.184555
-0.709530
0.913118
-0.297883
-0.541832
-0.888122
0.817077
0.423973
0.458479
0.629154
0.835829
0.897436
0.509793
-0.203684
-0.056008
0.623326
0.302147
-0.162157
-0.279770
-0.169014
-0.944427
0.174755
-0.382103
-0.449427
-0.119547
0.651387
-0.060755
-0.112798
0.860143
-0.072122
0.419424
-0.147182
-0.340697
-0.235074
0.052735
0.218529
0.961890
-0.825618
0.037729
-0.268305
0.380103
-0.774235
-0.226069
0.693272
0.770812
0.395510
0.270983
-0.466695
-0.715732
0.641002
0.367954
0.367611
0.220379
-0.813993
0.051991
-0.730210
0.999116
-0.703101
0.441656
0.203238
0.322961
-0.458873
0.656108
-0.692867
-0.258591
-0.947565
0.082119
-0.086905
-0.656479
-0.241420
-0.727680
-0.949358
-0.892068
-0.005695
-0.134545
0.734235
0.321469
0.138856
-0.343379
-0.828358
-0.743452
0.103674
1.025019
-0.474069
1.161642
0.260659
0.167738
-0.780105
0.958079
0.333603
-0.462907
0.478746
-0.134681
0.187109
-0.147053
-0.623977
0.564778
0.999574
0.317961
-0.976178
-0.767018
0.600862
-0.738866
-0.804664
-0.235346
-0.290062
-0.828026
0.682759
0.800475
-0.322850
0.163921
-0.004756
0.978266
0.283836
0.802228
-0.818989
0.912505
0.347463
0.591982
0.245421
0.781671
0.392647
0.505041
0.455109
-0.788911
-0.437478
-0.049341
-0.010047
0.319261
-0.145176
0.772401
0.469476
0.659544
0.690137
0.291422
0.573837
0.269060
0.481305
0.445448
0.055621
-0.641905
0.059364
0.567838
-0.125627
0.813154
0.127926
0.124338
-0.622961
0.672546
-0.855541
0.416020
-0.956802
0.678328
-0.848574
0.436993
0.406451
0.402795
-0.762720
-0.499115
-0.141382
0.437840
0.387713
0.065376
0.258432
0.389021
-0.895283
0.860409
-0.523005
-0.357106
0.194763
0.778561
-0.196035
0.575125
-0.125255
0.707722
0.032384
0.587488
-0.920031
-0.221928
-0.868289
0.058935
0.923850
-0.463993
-0.730855
0.915188
0.597121
-0.040935
1.006108
-0.839155
0.126412
-0.769893
-0.898032
0.958499
0.450304
0.069938
0.051823
0.765467
0.748094
0.084510
0.966693
0.484075
-0.311715
-0.158626
0.087046
-0.224805
-0.119883
-0.609906
0.443262
1.027075
0.783567
0.675252
0.012819
-0.340482
-0.336935
0.129810
-0.589771
-0.082619
-0.218021
-0.077667
0.351937
-0.397361
-0.689016
1.046993
-0.935384
-0.243153
0.603576
-0.455704
-0.417211
0.163398
0.315220
0.278952
0.105265
0.080690
0.669102
1.154980
0.792046
-0.103461
0.253485
0.889904
-0.416741
-0.417020
0.751341
0.337262
0.397678
0.070113
0.498035
-0.267826
-0.517687
1.065568
0.551875
0.438468
-0.055365
-0.392925
-0.440816
-0.173502
-0.109398
0.699439
-0.087299
0.410273
-0.958390
-0.555198
0.801146
-0.256538
0.653064
1.131892
1.015278
-0.495428
0.417939
-0.460975
0.510779
0.163961
-0.882722
0.286845
0.190616
0.571396
-0.578512
0.189205
-0.002947
0.521837
0.554085
0.200678
0.624253
0.789322
0.461914
-0.862584
0.785437
-0.505915
-0.597828
-1.079074
-0.414555
-0.976313
-0.825372
0.002815
-0.688247
-0.255939
0.479915
0.319255
0.122108
0.266043
-0.509627
0.949696
0.715056
0.297956
0.087265
0.028467
0.433602
-0.827049
0.815364
-0.305957
0.812734
0.164435
-0.669690
1.186063
0.690616
-0.360085
-0.497594
1.006214
0.008133
0.186517
0.176253
0.364796
-0.610936
-0.559055
-0.705445
-0.234660
-0.943381
-0.766395
0.409070
-0.650416
-0.270458
-0.411957
-0.747064
-0.912898
-0.267699
-0.390732
-0.974204
-1.014293
0.689642
0.367310
-0.333469
-0.956040
0.814144
0.431490
-0.559549
0.031124
0.108703
-0.353677
0.794920
-0.581876
-0.649073
-0.744254
0.957532
1.064626
-0.843473
0.346141
0.395172
-0.763460
-0.921246
0.049560
0.586093
-0.035429
-0.524467
0.127269
-0.789569
-0.550595
0.036598
-0.369039
-0.064209
-0.939008
-0.405064
-0.449362
-0.315843
-0.499236
0.715014
0.569250
-0.420952
0.557906
0.823249
-0.889801
0.890171
-0.753324
0.999642
0.823731
-0.539012
0.972568
0.452519
-0.126688
0.047880
0.059210
0.171484
0.616337
0.059597
0.269396
0.802230
-0.174786
0.906355
0.719931
0.415092
-0.797368
0.020373
-0.112629
0.957151
1.210353
-0.383173
-0.738846
-0.222680
-0.554528
0.917540
0.114514
-0.819667
0.799452
-0.850077
0.628357
-0.999068
1.132217
-0.241847
-0.312743
-0.192152
0.654548
-0.181768
0.727592
-0.430382
-0.429116
-0.272116
-0.596776
-0.883789
-0.305118
-0.382473
0.759087
0.458707
0.662795
-0.156765
0.094938
0.927495
0.826887
0.795629
0.022797
0.972486
0.296103
-0.119636
-0.579639
-0.679133
-0.183295
-1.014339
0.721334
0.096067
-0.350239
-0.901569
0.857025
-0.955703
-0.624985
-0.581990
-0.451444
-0.363462
1.245577
0.670699
0.410630
0.085971
0.700954
-0.821744
0.250803
-0.334574
0.177650
0.962579
-0.207035
-0.383702
0.195108
-0.797948
0.225517
0.328442
-0.098621
-0.655533
1.003338
-0.480141
0.012416
-0.284745
-0.067978
0.096837
-0.877576
-0.156766
0.816126
-0.052171
-0.380586
-0.404714
-0.231347
-0.257573
-0.774735
0.640930
-0.551780
-0.687209
0.279921
-0.427784
0.202071
-0.632039
-0.119707
0.376445
-0.546236
-0.256079
-0.445478
0.159972
-0.586108
0.037672
-0.462876
0.526747
-0.492610
-0.569979
-0.227227
0.842890
-0.715743
-0.941656
-0.516749
-0.874917
-0.462793
0.027493
-0.347015
-0.388303
0.279738
0.356896
0.224460
-0.493715
-0.817761
0.126814
0.600855
0.107079
-0.771933
0.269391
0.141370
-0.351713
-0.504792
0.977347
0.013351
-0.070662
0.637008
-0.187194
0.986875
-0.378005
0.330173
-0.882403
-0.347801
0.729684
-0.678719
0.653696
-0.582812
-0.620239
-0.038349
0.327758
0.605583
-0.400974
-0.923699
0.159956
-0.259083
-0.432689
-0.029329
0.943507
0.318580
0.893344
0.830656
-0.352201
0.545809
-0.118517
0.852853
0.365745
-0.875432
-0.943593
0.240229
-0.476715
0.099352
0.341749
-0.202696
-0.279850
-0.888795
-0.103621
-0.930111
-0.931849
-0.532467
-0.813053
-0.197525
0.165408
-0.250600
0.411900
0.536049
-0.408595
-0.342018
-0.684389
-0.718537
0.099554
-0.130625
-0.017869
-0.634063
-0.086187
0.657392
0.861516
0.949269
-0.259946
0.102652
0.950895
0.731882
0.256071
0.809482
0.367220
-0.029376
0.502304
-0.089624
0.625495
-0.795300
-0.206348
-0.891826
-0.827068
-0.161262
-1.080134
-0.046717
-0.601400
0.964734
-0.205220
-0.120534
0.799324
-0.320278
-0.404698
-1.132420
-0.384999
0.896292
0.690308
-0.401263
-0.275857
-0.859433
1.007289
-0.398959
0.343364
0.238773
0.147076
-0.328613
0.453461
0.538808
0.763329
0.621514
-0.740948
-0.799976
-0.280434
-0.827461
-1.105137
0.362943
0.115759
1.011687
0.151993
-0.459940
0.643969
0.784330
0.592113
-0.834585
0.049685
0.920241
-0.405293
0.501872
-0.944183
0.397646
0.131639
0.399726
-0.126804
-0.517043
-0.836341
0.098779
0.271944
0.893937
-0.536967
0.633090
-0.213279
0.380022
0.047333
0.658444
-1.067538
-0.633281
-0.540163
0.965395
0.061235
-0.964312
-0.697363
-0.246635
-0.228625
-0.672594
0.415128
-0.518837
0.404606
-0.421112
-0.777524
-0.818207
0.706130
0.611805
0.765734
-0.858867
0.073070
0.102209
-0.420499
0.906162
0.872779
-0.411853
0.289667
-0.511737
-0.144804
-0.686357
-0.233161
0.626807
-0.900435
-0.665015
-0.800536
-0.591416
0.386809
-0.676972
0.214120
0.551537
0.669070
0.503970
0.704077
0.768051
0.358707
-0.901722
0.320409
0.063614
-0.397108
0.521370
-0.663916
-0.380828
0.166612
-0.683870
-0.263668
0.331053
0.493914
-0.777629
-0.896173
-0.279966
-0.109845
0.894658
-0.125651
0.313831
-0.677668
0.467951
-0.513744
-0.128381
-0.563559
0.496532
-0.883075
-0.890283
-0.338119
-0.290783
-0.691462
0.788290
0.512588
-0.952026
-0.642519
0.555525
0.259880
-0.082747
-0.520140
-0.170705
0.171145
0.539919
0.616904
0.842251
0.481499
0.145976
-1.108439
0.983685
-0.337847
0.536459
-0.838630
0.193105
-0.045065
-0.189628
-0.042442
-0.126080
0.867262
0.497774
0.461961
-0.067151
0.280276
0.737628
-0.608127
-0.933307
-0.132007
-0.000897
-0.647487
0.726107
0.824505
-0.951135
-0.262408
-0.084195
-0.573386
0.354598
-0.005919
-0.126699
-0.916615
1.113581
0.781975
0.480929
-0.772266
-0.686372
0.408119
0.071739
0.096997
-0.844750
-0.777298
-0.674534
-0.580889
0.270040
0.229704
0.625254
0.830933
0.052176
-0.262502
-0.387853
-0.865243
-0.436377
-0.875422
0.630522
-0.802333
0.844919
0.026669
-0.470973
-0.832633
0.752749
0.207607
-0.511910
-0.124797
0.032771
0.111048
-0.252062
-0.930577
0.974037
0.381065
-0.484819
-0.551826
-0.924383
0.761137
-0.534535
0.733754
-0.368005
0.430948
0.087402
0.803363
-0.363857
-1.031698
0.381546
-0.798825
0.387599
0.694980
0.054019
0.783510
-0.937580
0.235363
0.652555
-0.196508
1.035274
0.024363
-0.049487
-0.675988
-0.869143
0.616957
0.191514
0.420151
0.074411
0.950503
-0.386713
-0.333037
0.467321
-0.180618
0.257553
0.020677
-0.696439
-0.209272
0.549450
0.194184
0.791077
0.714952
-0.629672
-0.343522
0.574439
0.385672
-0.283697
-0.245929
-0.592803
-0.647349
-0.537995
0.950422
-0.622389
-0.417583
-1.015912
-0.705388
0.932432
0.973141
0.175484
-0.748882
0.913511
0.327527
0.626509
0.171741
0.793203
0.006453
-0.762873
0.615766
0.904343
-0.694700
0.721151
0.630729
-0.966446
0.551430
0.486104
-0.023019
0.244379
0.418291
0.218782
-0.690281
0.251528
0.949281
1.007847
0.831979
0.722412
0.853480
0.060210
-0.571197
0.484333
0.003471
0.219938
-0.013473
-0.746389
0.404447
0.544977
0.044694
0.343327
-0.949218
-0.571807
-0.127746
0.993201
0.542074
-0.042869
-0.248639
0.824409
0.992068
-0.200980
-0.259998
0.498095
-0.144292
0.359723
0.591422
0.670010
0.111349
0.523418
0.464802
-0.417997
-0.884257
-0.332920
-0.195256
0.365570
-0.246877
0.113403
-0.134922
1.264012
-0.413387
0.496451
0.950484
1.017867
-0.442507
0.503634
0.043043
-0.047594
-1.016618
0.391612
0.680393
-0.225054
0.144853
0.997220
-0.673015
0.898132
0.582035
0.901523
0.715263
-0.355847
-0.480241
-0.342132
0.258620
-0.025791
0.627553
0.427691
0.173438
0.049893
-0.053595
0.834319
-0.689773
-0.514959
0.307701
0.662735
0.069695
-0.589138
0.400682
0.523830
-0.330423
0.164984
-0.899277
0.362726
-0.471139
0.175077
-0.357417
0.733423
-0.347114
-0.708787
-0.547402
0.187704
-0.316863
-0.882124
0.308935
-0.724554
0.864659
-0.144065
0.388380
0.870171
0.554705
0.869903
-0.142267
-0.721194
0.835651
-0.415404
-0.367278
0.311894
-0.530442
0.559248
0.199327
0.754886
0.446686
0.351491
0.259337
0.605866
-0.517526
0.395665
-0.131876
-0.333206
0.535241
-0.837424
0.936997
0.281124
-0.636068
0.785198
0.307470
0.497221
-0.657562
-0.002099
0.147241
0.090910
0.897074
1.008306
-0.708428
0.351558
0.287601
0.929082
0.325568
0.867039
0.875133
0.569857
0.890748
-0.265402
0.401105
-0.002150
-0.400563
0.667759
-0.065850
-0.248396
-0.551831
-0.940672
0.318761
0.360949
0.224381
0.320225
-0.932255
-0.237461
0.760360
-0.275056
-0.553019
0.462551
0.226717
-0.504401
-0.908635
0.095321
-1.017848
0.425062
-0.255417
0.850392
-0.918947
0.722316
-0.602295
0.734455
-0.960068
-0.401201
0.570376
-0.038267
-0.047236
-0.242853
-0.187356
0.343995
0.452585
-0.730464
0.811301
-0.950672
0.059709
0.197229
0.764829
0.777190
0.099511
0.085228
-0.097887
-0.697269
0.660651
-0.355385
-0.629406
-0.100914
0.883832
-0.156012
-0.772505
-0.485449
0.410432
-0.188409
0.750727
-0.297245
0.545722
-0.207230
-0.708772
0.605191
-0.088812
-0.822506
0.172938
0.647045
0.122086
-0.353847
0.619172
0.142252
0.110506
-0.633589
0.248399
0.305710
-0.022069
-0.518733
-0.938827
-0.034635
0.009742
-0.659374
0.716284
-0.140739
0.170054
0.679539
-0.775906
0.511633
0.990850
-0.616637
0.841551
-0.675316
-0.171337
-0.370985
0.516905
0.095487
-0.987887
-0.926272
0.509716
-0.711113
-0.822724
-0.490780
-0.169663
0.359883
0.929024
0.185666
0.930559
-0.548880
-0.894443
0.828875
-0.995575
0.018118
0.681718
0.255995
-0.323020
-0.629678
-0.307868
-0.649823
0.869309
0.930720
0.052335
0.225719
0.942365
0.538332
-0.521786
0.316098
0.921206
0.221676
0.553757
0.602465
0.664431
0.392306
-0.788237
-0.155712
-0.462109
-0.176311
-0.511798
0.779353
-0.932788
-0.155265
0.871004
0.804137
0.332557
0.114487
-0.077494
-0.094040
0.332682
-0.785224
0.904963
0.570682
-0.417528
0.182398
0.217931
0.917102
-0.969896
0.408013
0.665947
0.643809
-0.217619
-0.944587
-0.249939
-0.482095
-0.580430
0.027858
-0.937319
0.719734
0.879525
-0.724635
-0.598048
0.248610
-1.015424
-0.055974
-0.155414
-0.279449
0.546991
0.504928
-0.811516
-0.192178
0.625199
-0.110496
0.044916
0.203579
0.832658
-0.652018
-0.609808
0.952228
0.408050
0.682122
0.258047
-0.704785
0.073574
-0.902278
-0.130747
0.938084
-0.239509
-0.595158
-0.629071
0.254367
-0.467540
-0.293133
0.218331
-0.529712
0.005763
0.724029
0.863901
-0.378346
0.429419
-0.152145
0.927913
0.318435
-0.846570
0.987885
0.351753
-0.434334
0.961360
-0.686547
0.889566
0.987707
-0.687441
0.332326
-0.864764
-0.494645
-0.449764
0.555159
0.196709
-0.515366
-0.281153
0.468934
0.126576
0.541319
0.542784
0.596400
-0.111404
0.553678
0.007392
0.746049
0.710756
-1.008383
0.289136
0.720569
0.236226
-0.679384
-0.880806
-0.251749
0.260272
0.169442
-0.490862
-0.621426
0.558191
-0.788701
0.208149
-0.641706
0.036573
0.580507
-0.099687
1.044938
0.633248
0.573238
-0.394928
0.688110
-0.735068
-0.025664
0.667527
-0.386726
-0.047237
1.279434
0.986956
-0.194571
0.028223
0.652793
-0.979422
-0.263411
-0.012134
0.143810
-0.204093
0.825694
0.901319
-0.227695
0.584748
0.041287
-0.824597
0.106194
0.003933
0.757470
0.695349
0.879178
0.664934
-0.756465
-0.677514
0.736831
-0.019732
-0.090796
-0.728538
0.839847
-0.034792
-0.002671
-0.978064
-0.623047
0.873380
-0.130382
0.621112
0.283011
0.945670
1.135165
0.565309
-0.565923
0.359086
-0.798470
-0.764975
-1.062526
0.041018
-0.918716
-0.740690
0.332006
-0.678353
0.534693
0.847203
0.671996
-0.016982
0.650619
-0.024466
-0.637417
0.827886
-0.166671
-0.565411
-0.663698
-0.391821
-0.416752
-0.272057
-0.065353
-0.842371
-0.412483
-0.103915
0.968061
-0.711873
-0.760692
-0.240895
-0.750368
-0.262134
-0.897625
-0.743219
-0.595108
-0.225904
-0.034948
-0.883640
0.134678
0.997389
0.210577
-0.518213
0.701125
0.616368
-0.645615
0.870656
-0.529744
-0.799066
-0.666697
0.684530
0.206424
-0.775255
-0.000095
-0.384745
-0.777969
0.124365
0.556662
-0.158093
0.800966
0.751842
0.725040
0.856834
-0.321846
0.715372
-0.092015
-0.592352
-0.223172
0.298269
0.168025
-0.603910
-0.657747
-0.008699
0.413581
-0.924185
0.876923
0.104340
-0.645659
-0.128178
0.121674
-0.702782
-0.109070
0.490902
0.081025
-1.132341
-0.054750
-0.201726
1.305444
-0.094082
0.124436
0.857966
-0.636241
0.428136
0.049423
0.288395
-0.546228
-0.940738
-0.383140
0.094741
0.545555
-0.672804
0.127107
0.044118
0.193189
-0.986309
-0.193729
0.425487
-0.026777
-0.402581
0.670561
0.431763
-0.033396
0.565115
0.135719
-1.275073
-0.462332
-0.901815
1.254046
0.494183
-0.753591
0.930683
0.295950
-0.362156
0.502999
-0.429815
0.647934
0.583984
-0.609154
0.778994
-0.518539
0.379359
0.650028
-0.121468
0.169071
-0.096152
-0.715239
0.380030
0.082585
-0.692503
0.943211
0.751380
0.707292
-0.560011
0.525945
-0.843743
0.019115
0.016268
0.967401
0.522771
-0.490366
0.431282
-0.787046
-0.137754
-0.030198
0.502311
-0.652434
-0.133811
-0.058548
0.451083
0.946397
-0.639119
-0.380914
0.935388
0.934501
0.491711
0.186151
-0.105193
0.187073
0.321828
-0.718174
0.475755
-0.644183
-0.906192
0.752821
0.560783
0.270964
-0.299415
0.589987
0.510176
0.268308
-0.493402
1.020610
-0.447370
-0.555587
-0.119731
0.935811
0.024336
0.429748
0.112266
0.477964
-0.750423
-0.511897
-0.048020
0.308694
0.501032
0.662591
0.645088
-0.892564
0.691762
-0.112813
0.196889
-0.228498
-0.159525
-0.894549
0.134881
0.859133
-0.039096
1.344230
-0.034470
-0.947033
-0.143589
0.030633
0.647486
-0.243568
-0.030021
-0.335122
-0.426892
0.408054
0.983118
0.032821
0.565551
-0.739931
-0.620172
0.264329
-0.958344
1.003297
-0.413484
0.388609
0.649739
0.452048
-0.296679
0.797118
-0.235416
0.056065
-1.111581
0.500194
-0.307459
-0.204716
-0.503137
0.857902
0.996713
-0.763754
0.598247
-0.392370
0.297849
0.637522
0.660352
-0.815286
-0.098343
0.178985
0.547439
-0.588596
-0.560853
-0.872272
-0.188553
-0.572980
0.313084
-0.271053
-0.870531
0.989995
-0.622901
0.179592
-0.932309
1.020060
-0.492198
0.074723
-0.774476
-0.154535
0.346331
0.569025
-0.070633
0.957879
0.923035
0.341928
0.081688
0.600847
0.751936
0.184735
-0.005290
0.792710
-0.618816
-0.935360
-0.908920
0.425822
0.675393
0.980395
-0.731479
0.982077
0.671200
0.411299
-0.715093
-0.365476
-0.316487
-0.765483
0.266137
0.023266
-0.577733
0.560200
0.703716
-0.347698
0.030129
0.842825
0.255307
0.309386
-0.959681
-0.310412
-0.975800
0.182656
-0.634304
-0.076304
0.627434
-0.940548
0.559205
0.261919
0.486534
0.571080
0.181033
0.347245
-0.106488
0.186573
-0.696205
0.724944
0.992498
0.778076
0.395119
0.772787
0.030179
-0.574118
-0.385081
-0.381579
0.295214
0.031881
-0.140098
-0.613899
-0.260015
-0.051108
0.301054
0.472217
0.855207
0.063128
-0.848748
-0.106095
-0.183865
0.021538
-0.224050
0.429775
0.375245
0.940384
-0.491608
0.849302
0.612663
0.088993
0.092303
-0.547290
0.621911
-0.266834
0.397081
1.113088
0.339220
-0.771596
-0.794472
-0.071633
-0.230669
-0.541450
0.400247
-0.275611
0.977348
-0.230952
-0.326743
-0.519970
0.042191
0.099206
0.671799
-0.792725
-0.462495
-0.206171
-0.688743
-0.945206
0.915492
-0.410402
-0.770173
0.723820
-0.940018
0.008790
0.157533
-0.591662
-0.072028
1.240012
0.519168
-0.826336
0.555185
-0.533941
-0.056575
-0.222243
0.547235
-0.201990
0.392386
-0.473089
0.353248
1.014015
0.026797
-0.067710
-0.982228
0.946507
-0.894804
-0.528305
0.403346
0.758409
0.424287
0.372990
0.285212
-0.483238
0.201602
-0.841600
-1.171851
0.816969
0.291298
0.277662
-0.791161
-0.458256
0.027207
0.500303
-0.473942
0.365700
-0.407023
0.889337
0.178668
0.185282
-0.231668
0.328064
0.288376
-0.861822
0.947458
0.445597
-0.362291
0.939103
-0.463669
0.596763
-0.797149
0.369430
0.532728
-0.361954
-0.242434
0.094185
-0.412641
1.127912
-0.785072
0.700209
-0.926575
0.739698
-0.870735
0.315907
-0.195098
-1.225186
0.865006
-0.703051
0.022313
0.199069
0.837271
0.952311
-0.363027
0.835762
-0.300856
-0.114450
-0.557526
-0.407028
0.850127
0.167979
0.373079
0.363158
0.384340
0.802604
0.234601
0.690397
-0.300905
1.048203
0.414640
-0.648803
0.281895
-0.028883
0.534828
-0.296124
-0.047048
-1.108147
-0.349866
-0.012793
0.976973
0.607995
-0.710206
-0.714359
-0.198222
-0.854487
0.058442
1.035808
0.861101
0.060941
-0.538530
0.330420
0.169094
1.020531
-0.210951
0.454719
-0.240595
-0.915552
-0.527290
-0.586701
0.030195
0.526378
0.443907
-0.747996
-0.120652
0.131369
-0.753578
-0.842327
0.874133
0.579352
0.923597
0.837937
-0.610408
-0.057977
-0.866079
0.495730
-0.492891
-0.792271
0.788631
-0.791656
-0.715004
-0.637352
0.553551
0.112984
-0.129322
-0.181751
0.262071
-0.527585
-0.786861
-0.530260
0.222806
0.408992
0.809705
-0.042912
-0.105595
0.302248
0.408543
-0.230824
0.303061
-0.744333
-0.092147
0.567173
-0.350161
0.476894
0.457588
-0.756451
0.802373
-0.526893
-0.703120
-0.982729
-0.040123
0.021274
0.871152
-0.825860
-0.491837
-0.367198
0.088819
-0.233755
-0.784429
0.695132
-0.677224
-0.193434
0.947261
0.214351
-0.823844
0.909377
0.180893
-0.095623
0.666349
0.452239
-0.755858
0.326572
0.751940
-0.190719
0.469052
1.028171
-0.075190
-0.774146
-0.499314
-0.457900
-0.733853
-0.078429
-0.340477
-0.510123
0.481822
0.714005
-0.483760
-0.600536
0.407865
-0.321805
0.469693
0.329202
0.720484
-0.282694
-0.204949
0.324861
0.093059
-1.132187
0.343137
-0.405550
-0.879246
0.310692
-0.242567
1.169098
-0.357084
-0.611606
0.772401
0.091360
0.341025
0.231749
0.830292
0.133690
0.571983
0.418132
0.464751
0.689464
-0.738801
-0.369410
0.785541
0.849891
-0.014147
1.057722
0.482994
-1.018271
-0.483820
0.013143
0.531765
-0.601145
0.208039
-0.648364
0.341728
0.696039
-0.757419
0.342729
-0.076334
0.772163
-0.939670
-0.719322
-0.418204
0.109109
0.171889
0.974816
-0.729839
0.448511
-0.771041
0.680420
-0.455161
0.272306
-0.826084
-0.812487
-0.754582
0.093148
0.559924
0.464100
-0.910823
-0.500958
0.698002
0.537465
0.418586
-0.517323
-0.099875
-0.557255
-0.261705
-0.922166
-0.602529
0.444637
-0.158079
-0.275699
-0.589242
-0.559100
-0.177545
0.704148
0.689434
0.279846
-0.365244
-0.256303
-0.547307
-0.011486
-0.878659
-0.619785
-0.970279
0.234635
-0.979981
-0.179239
0.680901
0.526010
-0.633494
-0.173813
0.171648
-0.110709
0.193546
0.132582
0.506806
0.000134
0.513316
-0.226925
0.221662
-0.508233
0.708509
0.594030
-0.339269
-0.260657
0.267332
1.056138
0.596853
0.831470
0.298865
0.126584
-0.166513
0.620446
-0.087391
-0.540304
0.340389
-0.787499
0.274526
-0.504335
-0.803357
0.140138
0.008268
-0.632752
-0.068959
-0.407593
-0.417351
-0.141159
0.935953
0.741532
0.588699
0.076009
-0.171899
-0.657589
0.548600
0.875908
0.928252
0.209204
-0.280700
0.223843
0.893404
-0.209279
-0.679479
0.287968
-0.477415
0.712140
-0.928261
-0.078429
0.814869
0.247680
-0.249210
0.060126
-0.256594
0.808132
-0.567540
0.400561
0.198086
0.838869
-0.231546
-0.941377
-0.599901
0.875534
-0.903392
0.392251
-0.280382
-0.399597
0.688367
-0.173497
0.240197
0.126478
-0.386239
-0.333505
-0.249957
-0.165307
-0.918631
0.411939
0.189768
0.749043
-0.832057
0.943560
0.774104
0.681747
-0.007211
-0.189724
0.887346
-0.579094
-0.113908
-0.380542
0.716220
-0.733798
0.432192
-0.153477
0.133995
-0.514511
-0.203453
-0.451026
-0.277116
0.607781
-0.711143
-0.657750
0.000261
-0.412536
0.415858
0.533842
0.605876
0.305998
-0.081591
-0.479410
-0.349768
-0.949707
0.745888
0.676567
-0.221341
0.134883
-0.944099
0.614546
-0.933568
-0.499442
-0.388532
-0.096975
0.210871
0.441944
0.044444
0.394986
0.387168
0.135858
-0.016419
0.862906
0.867542
0.220293
-0.890568
-0.911905
0.251576
-0.494530
-0.590735
0.510925
-0.899946
-0.394058
0.351002
-0.515629
-0.629438
0.005501
-0.308795
-0.183915
-0.815934
-0.040017
0.723861
0.279813
-0.565417
0.592580
-0.743974
-0.267227
-0.746469
-0.324021
-0.871119
0.642726
0.925118
0.275896
0.822755
0.692363
0.122132
-0.149437
-0.963151
-0.959868
0.715332
0.293735
-0.303747
0.251890
-0.124576
-0.589032
0.025194
0.663346
0.062726
-0.934354
0.909802
-0.667947
0.987884
0.916429
-0.168758
0.417275
-0.512016
0.736357
-0.476181
0.397712
-0.395594
-0.558240
-0.597013
-0.098804
0.715160
-0.367014
0.333599
-0.804544
-0.541182
-0.043409
0.313532
0.112449
-0.783369
-0.018872
0.466497
0.885878
-0.910325
-0.785734
-0.010725
0.871686
0.290909
-0.380059
-0.330915
-0.803940
-0.685172
-0.967280
0.068667
0.597967
0.430468
0.761073
0.771548
-0.237179
-0.169771
1.096171
-0.350432
0.184095
0.015310
0.045922
-0.672390
0.797785
-0.053938
1.067121
-0.597795
-0.812710
-0.846970
-0.246905
-0.503816
-0.111799
0.873501
0.432590
-0.008867
0.299173
0.354735
0.417143
-0.838364
0.918583
-0.495420
0.820540
-0.611915
0.772564
0.180201
0.677289
0.477609
0.214007
0.114793
-0.561410
0.537807
0.185394
-1.131362
0.280451
0.953688
-0.542033
0.976120
0.651611
0.810840
0.657243
-0.471915
-1.060453
-0.576871
0.463217
0.154274
-0.219632
-0.594883
0.630286
-0.728568
-0.212120
0.946949
0.513506
-0.369481
-0.575418
-0.148123
0.413709
1.013246
-0.664760
0.311749
0.746198
-0.310536
-0.284700
0.074929
-0.665219
-0.935162
1.194490
-0.537280
-0.811994
0.551584
0.813761
0.313966
0.573196
0.678643
-0.734986
0.361099
-0.048285
-0.986131
0.614549
0.773954
-0.308049
0.245901
-0.795919
-0.486290
0.115701
-0.186359
0.426758
0.888662
0.062134
-0.733256
-0.261888
-0.088359
-0.617612
-0.935870
0.357709
0.506436
0.499031
-0.926466
-0.285310
-0.850645
-0.820224
0.766380
0.739015
-0.989671
0.774790
-0.312590
0.596293
-0.807864
-0.888985
-0.412015
-0.776959
-0.045814
-0.273226
-1.060428
-0.560444
-0.771416
0.010312
0.846413
0.659028
0.855645
0.489784
-0.280557
-1.005153
0.543017
0.348834
-0.757052
1.274890
-0.407374
-0.900774
0.004614
0.520890
0.084619
0.816600
0.323068
-0.916456
-0.020302
0.780048
0.289941
0.466902
-0.198969
0.010968
-0.846880
-0.736892
-0.841079
-0.266558
-0.381824
-0.089541
-0.606370
1.062064
0.878603
0.766508
0.016428
0.267579
-0.053771
1.038597
-0.296624
-0.274858
-0.913135
0.737914
0.497640
-0.784647
-0.265134
-1.108345
-0.669725
0.658381
0.221328
-0.352103
-0.014367
-0.684176
0.458756
0.695610
0.268089
0.175668
0.216539
0.630137
-1.037709
-0.609146
-0.817593
-0.820339
-0.817942
-0.454576
0.089867
-0.689393
-0.012701
0.507676
-0.911657
0.922043
-0.424414
-0.378099
-0.657315
-0.709625
0.164853
-0.940937
-0.628944
-0.749636
-0.551994
0.832832
-0.728525
0.025187
-0.470594
-0.791748
-0.362556
0.443672
-0.124270
0.011746
-0.772484
0.062701
-0.819947
0.982871
-0.396543
-0.751775
0.207243
0.476421
0.094478
0.816289
-0.044327
0.088492
0.272278
-0.151651
-0.612398
-0.872003
0.579179
-0.626784
0.029069
-0.916399
0.867422
-0.470422
0.493201
0.183140
-0.876912
0.904790
-0.794565
-0.919294
0.805993
0.476506
0.654244
0.755033
-0.414293
0.877405
0.473929
-0.666882
-0.862325
0.626481
-0.043217
-0.732253
-0.589130
0.049932
-0.757732
-0.129258
-0.019698
0.712967
0.056913
-0.529286
0.523149
0.386758
0.076800
-0.851282
-0.760621
-1.025185
-0.147619
-0.306570
-0.782358
0.920379
-0.714819
-0.671237
0.809194
0.212855
0.244960
0.798440
-0.746996
-0.281294
-0.752954
-0.495450
-0.173388
-0.186067
-0.329608
1.264654
0.768159
0.855321
0.151041
-0.734258
-0.357162
0.086314
-0.322165
-0.167688
0.987442
1.003497
-0.337542
0.704568
-0.239757
-0.011480
-0.453323
-0.016501
-0.535831
-0.038616
0.178493
-0.786729
-0.366371
-0.271251
-0.644427
0.718952
0.272702
-0.529141
-0.220011
-0.270464
0.427322
0.570945
-0.743283
-0.326679
-0.974076
-0.598394
0.212418
-0.806271
0.213589
0.390751
0.814640
-0.577036
-0.204566
-0.308055
0.345387
-0.810939
-0.875476
0.867879
-1.002263
-0.724111
0.872086
-0.174808
-0.032024
0.179527
0.387526
0.787662
0.418299
0.988206
-0.577798
0.202453
-0.218952
-0.558470
0.241605
0.211450
-0.303160
0.967771
-0.596373
-0.311271
0.116847
0.756876
-0.349147
-0.310828
0.323477
0.822331
0.092045
-0.240003
0.881468
0.514134
-0.919948
0.893274
-0.168873
0.303941
-0.110657
0.591989
-0.589924
-0.336760
0.478575
-0.626586
-0.628821
0.215965
0.446823
-0.507963
0.228169
0.887696
0.614561
-0.267927
0.321799
-0.866376
-0.885549
-0.646729
-0.517567
-0.149675
-0.337571
-0.979410
0.357473
0.743365
0.240368
-0.004013
-0.643279
-0.805634
-0.581113
-0.109855
0.192091
-0.371455
0.111929
0.774859
0.641306
0.929226
-0.215258
-0.410981
-0.661493
1.013165
0.464580
-0.255443
0.496425
0.418581
-0.138374
-0.517459
-0.220251
0.479285
0.765098
-0.413971
0.018820
0.300930
0.375485
0.422160
0.219562
0.072570
0.635429
-0.627515
0.188937
0.822475
0.394923
-0.749765
-0.559554
0.946002
0.853497
0.737453
-0.021087
0.353039
0.332684
-0.372442
0.606067
0.351595
-0.658328
0.719031
0.877968
-0.482467
0.021930
-0.465369
0.600605
0.924188
-0.904811
0.484097
-0.615128
1.003331
0.144239
0.308452
0.264167
-0.179136
-0.566086
0.365960
-0.688948
0.923766
-0.431538
0.741131
0.041374
0.478642
-0.241126
-0.783544
-0.070765
1.204182
-0.545706
0.782329
-0.998289
-0.575462
0.007482
-0.896496
0.341429
0.750018
-0.851713
0.653975
0.991054
-0.912863
-0.034155
0.258596
-0.653299
-0.842750
-0.838936
-0.533335
0.026960
0.175517
0.800960
-0.852138
0.297759
0.956078
0.513751
0.671493
0.194826
0.576078
0.832022
0.338404
-0.526804
-0.026750
-0.903733
-0.084254
-0.675770
0.387285
0.794594
-0.961763
0.092037
-0.205513
-0.837444
1.083423
0.080172
0.134001
0.073435
-0.406129
0.004189
0.330120
0.464408
-0.797497
-0.794785
-0.465465
-0.594203
-0.769603
-0.548203
-0.211221
-0.527360
-0.845407
0.546077
-0.344234
-0.876333
-0.037802
0.290129
-0.429283
0.480930
0.408985
0.548038
0.884193
-0.666916
0.381518
0.623796
-0.129567
-0.704692
0.000263
0.690747
0.977987
0.696003
-0.853230
-0.955042
0.770535
0.279700
1.007664
-0.492256
-0.256945
-0.284070
0.613400
-0.733304
0.499443
0.001381
0.127736
-0.293410
-0.567347
0.140518
-0.926327
0.433832
0.002155
-0.758825
0.211941
-0.265633
0.262581
-0.547750
0.635619
0.474823
0.819348
0.175523
-0.100765
-0.623166
0.229028
0.837364
-0.388005
-0.581965
0.220776
-0.830991
-0.277062
-0.622188
-0.137309
-0.674244
0.362143
-0.509303
-0.078674
-0.342830
-0.249224
-0.416557
0.911059
0.436408
-0.149756
-0.433233
0.007826
-0.648784
1.016776
0.639784
-0.497219
-0.568075
0.935554
0.327648
0.164457
-0.170141
-0.849577
0.316484
-0.336913
-0.201366
-0.067261
-0.425046
0.046368
-0.370116
0.116954
0.159046
0.227862
-0.263145
-0.509423
0.221005
0.290525
-0.553892
0.676619
0.116988
0.132421
0.745071
-0.225981
1.019161
-0.797457
-0.877304
0.914930
0.472516
0.224840
-0.045515
-0.428399
0.556581
-0.429427
-0.106086
0.296939
-0.771570
0.118294
0.077234
-0.998619
-0.948451
-0.877807
-1.037492
0.352616
-0.671771
-0.502129
0.413374
-0.409124
0.689167
-0.028651
0.810644
0.069414
-0.450330
0.754995
0.716256
-0.299781
0.125622
0.659393
-0.799128
0.507418
0.700835
0.468007
-0.277206
0.772369
0.488780
0.010326
0.765074
0.045702
-0.667842
0.065228
-0.759021
0.011763
0.248322
0.992264
0.507324
0.628892
0.633056
-0.441624
0.692292
0.882928
0.003673
-1.002311
0.280225
-0.747817
-0.215123
-0.785815
0.758854
0.216898
-0.770032
-0.172415
0.188483
-0.179127
0.258270
-0.245204
0.441260
-0.848918
0.386816
-0.601551
0.991815
0.775857
0.899962
-0.769453
-0.741649
-0.093430
-0.587011
-0.612851
-0.867432
-0.207732
0.844824
0.301985
-0.060111
-0.136513
-0.545758
-0.004641
-0.480734
0.282140
0.741155
-0.598567
0.500104
-0.073531
-0.597394
0.315144
-0.914266
-0.754290
-0.903243
-0.152076
0.928561
0.800194
0.130535
0.848793
-0.169660
0.085748
-0.425967
0.933870
-0.742303
0.024347
0.760694
-0.419750
-0.871544
0.689714
0.140379
0.578862
0.101720
0.100114
-0.861326
0.523700
-0.423028
-0.576794
0.243551
-0.253699
0.654297
-0.206226
0.847720
0.598175
-0.373989
-0.032000
0.366606
-0.389988
-0.435133
0.520264
0.763989
-0.243810
0.143896
0.387810
0.994312
0.927717
0.503332
-0.257344
-0.961333
-0.370278
0.464084
-0.294746
0.931710
0.090955
0.389719
0.551039
-0.152088
0.054211
-0.236804
-0.458045
0.148700
-0.046069
0.443403
1.005389
-0.067937
0.062145
-0.181296
-0.470707
0.502607
0.465711
-0.096956
-0.241088
-1.013961
-0.252319
0.584698
0.855466
0.940380
0.627197
-0.462796
0.220824
-0.604569
-0.036932
-0.138690
0.505570
-0.590607
-0.560743
-0.311404
-0.102848
-0.877139
0.874972
0.465162
-0.073290
-0.585311
0.046066
-0.490090
-0.136120
0.603260
-0.545633
0.385552
-0.276174
0.730784
-0.869380
-0.675195
0.355098
0.869437
0.835052
-0.661371
-0.254417
0.978937
0.862744
-0.536761
-0.080197
0.426736
-0.608327
-0.387156
0.406644
0.806304
-0.080522
-0.939714
0.731674
0.407925
-0.151807
0.172606
-0.306172
0.262708
-0.333713
-0.680154
-0.202878
-0.153224
0.082468
-0.512073
0.087054
-0.678107
1.077593
-0.470940
0.220279
-0.257612
0.775282
-0.582111
-0.667005
0.091897
0.566127
-0.308400
-0.284617
-0.495327
0.589617
0.938532
1.205565
0.934835
-0.281943
-0.111597
-0.378102
0.329748
-0.965506
0.510631
0.276615
-0.339868
0.668931
-0.164160
0.112873
0.354020
-0.260438
-0.945279
-0.191222
0.310292
-0.054041
-0.388406
-0.035219
-0.401857
0.334666
-0.895214
0.152908
0.960778
-0.719104
0.038897
0.230890
-0.347869
-0.253671
0.164139
0.296913
0.684646
-0.542066
-0.335902
-0.238363
0.408847
0.474531
0.933179
-0.674903
0.135397
-0.014267
0.371521
0.394595
-0.173145
-0.375354
0.677563
0.175515
0.177360
0.571793
-0.898275
0.160975
0.132239
0.318818
0.349656
0.501009
-0.233146
0.517107
0.386742
-0.047300
0.303817
-0.399525
0.167695
-0.334476
-0.308915
0.490539
-0.295050
0.138202
-0.596716
0.730625
-0.538095
-0.171867
-0.155613
0.636457
-0.944488
0.060053
-0.410982
1.028800
-0.265642
0.853613
0.587205
0.571431
-0.592028
-1.040530
0.046128
0.998573
0.197962
0.705882
0.577553
-0.108527
-0.899042
0.200976
-0.909639
-0.552670
-0.845654
0.032226
0.644035
0.477998
-0.252467
0.666875
-0.699831
-0.794785
0.083577
-0.336927
0.036969
-0.156001
0.142452
-0.274047
0.928465
-0.180766
-0.615177
0.173884
0.028948
-0.098807
-0.044814
-0.265307
-0.603904
-0.171722
0.312269
0.849354
-0.355116
0.011247
0.216542
-0.757009
-0.021538
0.960340
0.870992
-0.348169
-0.541944
0.607670
0.905608
0.305834
0.008032
-0.530817
0.031170
-0.744140
0.577176
-0.005714
-0.332064
-0.047662
-0.501397
0.592480
-0.552801
-1.058263
0.754029
0.373710
0.645123
-0.894641
-0.057220
-0.761267
0.631100
0.877355
-0.920172
-0.612188
0.063919
-0.388779
0.011833
-0.640528
0.729052
1.006005
-0.394980
-0.807478
-0.042847
-0.621441
0.664203
-0.289641
-0.447189
0.655637
-0.346157
0.039814
-0.545673
-0.149587
-0.652150
-0.854430
-0.105859
1.002250
0.566919
-0.259760
-0.945847
0.360342
-0.700730
-0.951443
0.276687
0.736000
-0.929194
-0.048223
0.219256
-0.805434
-0.192967
0.426288
0.166220
-0.786812
0.467533
0.104945
-0.658722
0.729169
-0.021784
1.140918
0.294708
-0.440382
0.892776
0.575480
0.008187
0.451668
-0.018189
-0.659069
0.736094
0.672081
0.087598
0.233404
0.042200
-0.684598
0.101050
0.602683
-0.260686
0.401802
0.779805
0.561537
-0.880222
0.371231
-0.325067
0.591220
-0.395139
0.636725
0.429673
0.958463
0.335775
1.002594
-0.494789
0.769615
0.420704
-0.018959
0.916355
0.307627
0.077256
0.178295
0.803015
0.207619
0.680646
-0.282887
0.685971
0.317079
-0.615096
-0.718417
-0.855733
-0.091812
-0.449744
0.507788
0.841867
-0.332868
-0.026672
0.370775
-0.631393
0.399763
-0.876827
0.925783
0.587088
-0.260626
0.801923
-0.104027
0.526735
-0.831146
-0.410632
0.092964
0.497174
-0.429500
0.784445
-0.625078
0.227499
-0.288197
0.730260
-0.767019
-0.652924
-0.585959
0.499478
-0.427186
-0.748254
-0.323912
-0.735285
-0.697312
0.834432
-0.070883
-0.673550
-0.697606
0.492510
-0.056845
0.859376
1.046049
-0.841156
0.623189
0.316209
0.718554
0.086399
-0.056967
-0.751866
-0.233692
-0.300038
0.975974
-0.756051
-1.029742
0.666476
-0.523406
-0.520370
0.481768
0.561731
0.612547
-0.611822
0.681917
-0.723652
-0.239658
0.723598
0.217129
-0.924450
1.068695
-0.292505
0.528667
0.163027
-0.475271
-0.920500
-0.644699
0.833905
0.356095
0.625271
0.695019
-0.941741
0.944247
-0.443071
0.305460
0.602645
-0.564149
0.751343
0.505435
-0.354436
0.363550
-0.036607
0.895297
-0.656456
0.813518
0.023788
0.064741
-0.929998
-0.897122
1.010431
0.681621
-0.790468
0.713367
-0.160536
0.743766
0.091690
0.574102
0.270409
0.129280
0.349310
-0.283370
-0.723687
0.323291
-0.377743
-0.605956
0.780670
-0.947049
-0.275068
-0.887769
-0.880474
-0.034337
0.804395
-0.671855
-0.658087
-0.214482
0.703296
-0.230418
-0.127472
0.588529
-0.558087
0.874041
0.046102
0.798539
-0.751417
0.616165
0.153653
0.250593
-0.399792
-0.368797
0.635486
-0.338813
-0.306450
-0.487452
-0.046411
-0.958754
0.070346
-0.265441
-0.454519
-0.186856
-0.803831
0.468495
0.296890
-0.971296
-0.490309
-0.221528
-0.157052
0.937871
0.421118
0.120014
0.266716
0.335674
-0.757814
-0.664318
-0.382181
1.031780
0.535977
-0.590343
0.858920
0.739016
0.190543
0.011737
-0.716469
0.586939
-0.868728
-0.920162
-0.902784
-0.960890
0.513310
-0.211789
-0.834008
-0.515716
0.822902
-0.087989
0.053780
-0.958616
-0.666358
0.488991
0.128536
0.658763
-0.723007
0.469942
-0.732753
-0.981887
0.176337
0.807643
0.150512
0.558609
-0.925326
-0.106987
-0.750326
-0.545622
-0.194787
0.686239
0.361489
0.411891
-0.426045
-0.156585
-0.065803
0.149556
-0.749644
-0.968089
-0.617229
0.138776
0.948324
0.185350
-0.083768
0.537159
-0.049500
-0.384955
-0.491863
-0.184900
0.337504
0.177671
-0.650960
0.654077
-0.844143
-0.176520
0.330632
0.586420
-0.105617
0.440719
0.713297
0.835162
0.758006
-0.579331
0.338706
-0.533336
0.398698
0.391396
-0.492095
-0.225085
-1.030975
-0.859672
0.690379
-0.646951
-0.937357
-0.322726
-0.145328
0.727900
-0.143315
-0.618338
0.056354
0.583183
0.615603
-0.370071
-0.955944
0.205978
-0.722902
-0.217358
-0.723039
0.191191
-0.648216
-0.635389
-0.756707
-0.224468
0.323588
-0.746195
-0.065350
0.873003
-0.286612
-0.325241
0.346609
-0.436772
0.492132
0.537104
0.098997
0.747949
0.099678
-1.016031
1.009966
-0.672456
0.515019
-0.132959
0.358639
0.874726
0.597910
0.524701
0.140065
-0.739079
0.475131
0.412046
-0.110079
-0.450971
0.951544
-0.833523
0.295453
-0.558686
0.199331
-0.879404
-0.596774
-0.652653
-0.631691
0.943529
-0.891680
0.662084
-0.372003
-0.366409
0.777264
-0.123666
-0.946310
-0.646574
-0.584881
0.469422
-0.175505
0.265402
0.218549
0.571805
-0.817949
-0.337869
-0.770655
0.413789
-0.842589
0.358769
-0.224572
0.957978
-0.365256
-0.237106
0.236186
-0.062901
-0.167900
-0.970373
0.601986
-0.442001
0.667207
-0.825596
-0.098554
-0.729298
-0.099471
0.499572
-0.467189
-0.497686
-0.344743
0.349037
-0.548464
0.222271
-0.808895
0.431926
-0.909470
-0.269286
0.546669
-0.422339
0.421616
-0.587458
0.158786
0.515773
-0.119818
0.068021
-0.287649
0.132910
-0.324599
-0.568228
0.201093
0.762282
-0.168566
-0.064225
0.289701
0.798446
-0.899688
-0.102586
-0.268521
1.011697
-0.603258
-0.495462
0.342839
-0.460369
0.435964
0.881380
0.290529
-0.513715
-0.765298
-0.621016
-0.943824
-0.138544
0.460954
-0.574425
-0.039674
-0.292248
-0.156341
0.445516
-0.501696
-0.824856
-0.058924
0.746551
0.814962
0.802997
-0.780283
-0.366462
-0.367459
0.959297
-0.404458
-0.061477
-0.965198
-0.180320
0.185137
0.255567
-0.540984
0.913439
0.898238
0.685125
0.153448
-1.003795
0.317445
0.693796
-0.798641
-0.778274
0.821702
-0.108623
-0.403120
-0.586675
-0.109228
0.154475
-0.284640
-0.706200
0.506185
-0.521013
0.897968
0.982277
-0.622174
-0.815978
-0.979250
-0.929161
-0.407861
-0.365717
-0.037885
-0.434343
-0.589074
0.814774
-0.709066
-0.140546
-0.493482
-0.370800
-0.981561
-0.408239
-0.406381
-0.590854
-0.269878
0.864439
0.521683
0.645366
-0.321138
0.667146
-0.959965
-0.514338
-0.929865
0.870170
0.713264
-0.499535
-0.424349
0.112915
0.494075
0.662578
-0.267346
-0.237128
-0.904981
0.388946
0.191943
0.911772
-0.219844
-0.454354
0.788197
0.107962
-0.095955
-0.321070
-0.060666
-0.030743
-0.822755
0.779162
0.018209
0.383210
-0.183429
0.538876
-0.200832
0.074243
0.701443
0.032795
0.621779
0.807319
-0.332224
-0.689614
0.159044
-0.425149
-0.240815
0.793307
-0.883190
-0.383033
-0.116526
0.196320
0.330162
0.012197
0.188930
0.395102
-0.545396
-0.384086
-0.075900
0.851856
-0.462895
-0.437160
-0.626159
-0.619685
-0.432003
0.927657
0.618739
-0.759041
-0.336664
-0.943895
0.506334
-0.312681
-0.325278
0.417184
-0.832714
0.343655
0.262625
0.390383
0.982858
1.031306
-0.051065
-0.035859
-0.356471
-0.025215
-0.060035
-0.968261
-0.793570
-0.068622
-0.602832
1.039622
-0.012883
-0.552147
-0.556450
-0.469749
0.582974
-0.605798
-0.973604
-0.019646
-0.810253
0.630008
-0.878536
0.008463
0.318424
-0.380460
-0.977530
0.106157
0.160438
-0.496332
0.583276
-0.307971
-0.438028
0.877552
0.248706
-0.288323
-0.187464
-0.529523
0.393740
0.738365
0.473113
0.486752
-0.118194
1.009269
0.118384
0.557144
0.849392
0.408560
0.446337
0.572466
-0.410830
0.587479
0.031890
0.521946
0.117449
0.295333
-0.838671
-0.746690
-0.978080
-0.841172
0.894914
-0.283292
0.349640
-0.524343
-0.768094
0.295803
-0.124828
-0.751088
0.208350
0.285544
-0.805683
-0.249183
-0.717035
0.212692
-0.315627
-0.723387
-0.262256
-0.413643
0.597783
-0.924253
-0.213671
-0.633988
-0.752611
0.792532
-0.307029
-0.904482
-0.225296
-0.691797
-0.916082
-0.400232
-0.650879
-0.298549
-0.816103
-0.605799
-0.282636
0.759252
-0.913352
-1.024657
-0.702203
1.000548
0.839682
0.687854
-0.775688
1.223030
0.962196
-0.839020
0.340607
0.145818
-0.049867
0.262871
-0.567941
-0.536330
0.768313
0.345026
-0.599476
-0.768753
-0.068520
0.401385
-0.015557
-0.575506
0.485375
-0.346126
0.249423
0.249504
-0.511556
-0.112404
-0.960197
-0.556268
-0.069400
-0.051462
0.516391
0.547896
-0.876677
0.257614
0.514534
-0.602062
-0.180251
-0.157978
-0.833441
0.762107
0.526960
-0.178536
-0.182572
0.009225
0.536460
-0.779785
-0.934188
-0.546641
-0.932208
0.725973
0.014706
0.754396
0.309783
0.782634
0.379727
0.780028
0.092535
0.209716
-0.203302
-0.256651
-0.303359
0.024709
0.719676
0.420657
-0.783173
-0.329232
-0.468316
0.858658
-0.582955
-0.853558
0.119043
0.137221
0.746881
0.318498
0.478726
0.175850
0.107317
0.361010
-0.794103
-0.160349
0.892827
0.992318
0.503784
-0.686874
-0.093813
-0.545794
0.571016
-0.666343
-0.075211
-0.730674
-0.084640
-0.099100
0.943667
-0.517476
-0.815947
-0.738520
0.503848
-0.271152
0.447828
0.484714
-0.020940
0.917772
0.090396
0.150248
0.325863
-0.725875
0.627296
0.395151
-0.131060
1.057398
0.184774
1.067929
0.557442
0.567819
-0.659701
0.019004
-0.505934
0.155648
-0.131009
0.604464
-0.443190
0.723396
0.317470
0.105534
0.007566
-0.055318
-0.235394
-0.669043
0.083597
0.714616
-0.164691
0.953843
0.822780
0.067303
0.671813
-0.879985
-0.151848
0.860705
0.885669
0.146623
-0.608450
-0.670249
0.701361
-0.331911
-0.817809
0.107469
-0.423032
0.550848
-0.294531
1.000785
-0.924043
0.419506
-0.898065
0.694786
0.884204
-1.005442
0.284136
-0.147261
-0.058853
-0.743191
-0.903338
-0.327341
-0.021459
0.641380
0.376308
-0.630015
-0.579178
0.025648
-0.564968
-0.195772
0.045795
-0.230297
-0.928583
0.933887
0.333869
0.241377
0.385380
-0.185409
-0.400747
0.101571
0.842146
0.301130
-0.755528
0.943332
0.071455
0.501642
-0.425479
-0.932163
-0.421405
-0.438933
-0.854875
-0.808135
-0.558968
-0.722808
-0.085140
-0.419123
0.190038
0.110537
0.068860
0.827201
0.127465
0.551229
-0.388000
0.049923
-0.078756
-0.760911
-0.674895
0.350105
-0.162948
0.354648
0.086908
-0.272390
-0.496942
-0.794074
-0.150558
-0.782158
-0.678722
-0.900613
-0.724341
-0.452805
0.624258
-0.520746
-0.908458
-0.618174
-0.783822
-0.435500
-0.249183
-0.117207
-0.865862
-0.914919
0.141764
0.366243
-0.016049
0.344446
0.260999
0.305344
-0.134151
-0.672483
-0.342691
0.261726
-0.336233
0.091464
0.203324
-0.600332
-0.561581
0.651152
-0.311451
-0.632438
-1.083293
-0.815102
0.609081
-0.189572
-0.056667
-0.498842
0.111296
0.678564
0.766520
-0.773173
-0.952894
0.112114
-0.933219
0.241488
-0.039667
-0.874177
0.415693
0.039410
0.234258
0.354744
-0.344319
0.894906
0.880924
-0.465131
-0.301334
0.107119
0.776832
0.139374
0.160206
-0.256348
-1.010368
-0.255094
0.946788
-0.165277
0.258608
0.040127
-0.046231
0.445705
0.483601
0.679267
0.154824
0.212801
0.566690
0.210612
0.511082
-0.237759
0.138545
0.648466
0.964617
-0.506480
-0.514906
0.693959
0.983007
0.445465
0.956603
0.924735
-0.479667
0.513648
0.866550
-0.541976
0.619298
-0.259026
-0.962118
-0.851686
-0.945865
0.394313
-0.095407
-0.298982
-0.351845
0.690852
0.603823
-0.760437
-0.065626
-0.373592
0.000002
0.243800
-0.625290
-0.162930
0.253119
0.323618
-0.588935
-0.899020
-0.976530
-0.139836
0.478461
0.847510
0.496823
-0.228101
0.878714
0.666876
0.371477
0.440803
0.529077
0.805999
-0.563950
0.687306
-0.623708
-0.838559
-0.138183
-0.259382
-0.612694
-0.295774
0.630181
-0.147304
-0.341343
-0.106337
0.728754
1.014717
-0.305110
0.222390
0.449696
-0.516094
0.594982
-0.055607
-0.024407
0.004862
0.116255
-0.222736
0.359581
-0.764951
0.118294
0.898945
-0.419272
-0.718274
0.403140
0.836306
0.499103
0.905918
-0.629285
0.605702
-0.160895
-0.001964
-0.113401
1.035671
0.820828
-0.540889
0.494900
-0.227855
0.288837
0.731018
-0.555148
-0.160887
-0.951292
-0.329661
-0.636315
0.490385
-0.569233
0.293913
-0.084791
-0.394189
-0.037107
1.004777
-0.453050
0.814684
-0.559186
0.779976
-0.311589
-0.756074
-0.144991
-0.652039
-0.786229
-0.017031
-0.185592
0.339365
0.822736
0.227545
-0.328827
-0.075628
0.304322
0.613949
0.141675
-0.425077
-0.689021
-0.838641
-0.018028
0.442226
-0.850839
0.592602
0.963997
0.111093
0.003828
0.727417
-0.948947
0.654303
-0.939426
0.396947
0.642519
0.645184
0.359585
0.466618
0.192634
-1.041127
-0.238698
-0.268547
-0.020701
0.406180
-0.847702
-0.628193
0.363688
0.626658
0.484372
0.871937
-0.637161
0.186818
0.582411
0.629588
-0.584284
-0.945986
-0.640040
-0.568136
-0.859635
0.149731
-0.189117
0.530423
0.854753
0.288516
0.998160
0.436671
0.169919
0.960492
-0.944776
0.867887
0.678988
1.115865
-0.552399
-0.131109
0.413673
-0.241834
0.204270
-0.770128
0.921656
-0.176091
0.980535
0.635715
-0.792953
-0.139254
0.235992
-0.972513
-0.870382
0.014139
0.168653
-0.597483
0.562935
-0.385504
0.340704
-0.182332
-0.164905
0.579443
0.902307
-0.505289
-0.497873
-0.903845
0.566448
-0.447900
0.758233
0.466010
0.507398
-0.775414
0.037545
0.759814
0.590380
-0.143629
-0.470409
0.034570
-0.393950
-0.761301
0.012300
-0.623504
0.166099
-0.685734
-1.105679
-0.958702
0.880505
0.357560
0.531639
-0.137975
-0.737848
-0.320323
-0.852118
-0.630199
-0.651750
-0.439269
0.068237
0.101779
0.233540
0.248765
0.819145
-0.852484
-0.581971
0.389450
0.568016
-0.098587
-0.978259
-0.040644
-0.836310
-0.764145
0.276381
0.320364
0.962506
0.550460
0.646334
0.239267
-0.371085
-0.348296
0.770624
0.487920
0.707629
-0.468349
-0.902637
-0.371780
-0.051409
0.291658
-0.706848
-0.173124
-0.364301
-0.416497
0.264931
-0.750713
0.633189
-0.481744
0.355608
-0.943958
0.129966
0.248505
-0.139686
0.428606
-0.010837
-0.383055
1.036271
0.204010
-1.076788
0.879533
0.284421
-0.559555
0.829567
0.743991
-0.227976
0.122060
-0.458980
-0.306459
-1.242985
0.036190
-0.074254
1.045562
-0.723517
-0.660357
0.877817
-0.108848
-0.361353
-0.602867
0.307133
0.007596
0.182469
-0.259040
-0.836663
0.863944
0.603551
0.741518
1.006255
-0.567040
-0.015583
0.539491
-0.237300
0.429383
0.464123
-0.284007
-0.178183
0.083120
0.010082
-0.100730
-0.884032
-0.367691
0.197512
0.798104
-0.351582
0.225479
-0.488290
0.450912
0.689970
-0.879498
-0.517845
-0.717587
-0.748677
-0.815484
-0.770942
0.924343
0.421934
-0.892909
0.604707
-0.855018
0.463174
-0.458054
-0.595166
0.568913
0.873708
-0.201395
-0.790856
-0.231064
-0.481576
-0.730026
0.685448
0.392856
-0.824087
-0.264224
-0.774527
0.501045
0.410105
-0.501296
-0.316360
-0.562136
0.591853
0.697511
0.769102
-0.828741
0.713543
0.242498
0.602906
-0.401494
-0.740091
-0.809830
-0.593747
-0.303404
-0.975091
-0.812405
0.518090
0.271736
-0.193742
0.690888
0.830037
-0.452818
-0.138890
-0.535896
0.446524
0.422361
-0.025579
0.776338
0.028109
1.005628
0.267905
0.557728
0.733279
-0.769582
0.092203
0.883052
0.692235
0.617712
-0.072177
0.772151
-0.203036
0.605793
0.370051
0.963947
0.417407
0.804737
-0.341007
0.667093
-0.777318
-0.337466
0.407952
-0.401581
-0.054727
0.901046
-0.726782
-0.667738
-0.162412
-0.167193
0.587738
-0.943658
-0.739979
0.325253
0.508312
0.868199
-0.196806
0.742662
-0.091478
-0.369150
0.948407
0.729887
-0.266428
0.855332
-0.165485
-0.983496
-0.883825
0.325174
0.813109
0.564037
-0.257893
-0.891503
-0.430576
0.413128
-0.644953
-0.477623
0.192462
1.047286
-0.169465
-0.477032
0.889290
0.405722
0.760374
-0.082618
-0.052522
-0.047223
-0.455048
0.154377
0.337595
-0.043909
0.922252
0.809945
-0.774256
-0.835476
0.542064
-0.571807
-0.732607
-0.891739
0.045794
0.673459
0.244622
0.294869
-0.419244
-0.759497
0.002952
0.497225
-0.564429
0.771131
-0.483812
0.730845
-0.913605
1.021089
0.210269
-0.419934
0.213068
-0.661257
-0.777366
0.445864
-0.347406
0.124344
-0.002365
-0.017241
0.272348
-0.142527
-0.645991
0.153158
-0.063983
-0.042053
-0.798429
0.603675
0.712780
-0.946111
-0.082442
-0.230001
-0.826898
0.118379
-0.677920
-0.532321
0.244922
-0.925818
0.394706
-0.533770
0.799371
-0.120247
0.739777
-0.857747
-0.276168
0.114884
0.766484
-0.152661
-0.579491
-0.383777
-0.532589
0.343415
-0.658545
0.562007
-0.524068
0.391070
0.238479
0.342628
0.559840
-0.949484
0.027859
-0.664624
-0.041436
0.219381
0.300115
1.138438
0.336578
-0.762456
0.687458
0.872183
0.388415
0.374536
-0.439536
-0.033817
-0.820917
0.567455
-0.908517
0.298708
-0.287295
-0.181318
0.674215
1.009517
-0.671199
0.861162
0.156726
-0.077022
-0.859542
0.412211
-0.917687
-0.554017
-0.915655
0.889257
-0.188804
0.415077
0.817249
-0.193925
-0.384765
-0.473529
0.145556
-0.771279
0.136658
0.820000
0.929268
-0.932126
-0.949901
0.669059
0.626681
0.527126
0.475712
0.965044
0.794428
0.950482
-0.087823
0.720292
-0.314059
0.068600
0.780431
-0.873291
0.486900
-0.647984
-0.260090
-0.120139
-0.417709
0.594706
0.422352
0.844308
0.148432
-0.836682
0.186318
0.761756
-0.098880
-0.543663
-0.272499
-0.826994
0.490246
-0.081678
0.296262
-0.234750
-0.698974
-0.283950
-0.370756
-0.214103
0.739994
0.111218
-0.279543
0.447333
-0.478396
-0.742107
-0.782184
-0.219274
0.180528
-0.254358
0.523645
0.678461
-0.627344
-0.143402
-0.026325
-0.167009
-0.045231
0.042274
0.502950
-0.137940
-0.952052
0.332628
0.479578
0.740199
-0.845612
0.909927
-0.619129
0.861386
0.175332
-0.432499
0.097952
0.368801
-0.352657
-0.845673
-0.382952
0.521560
-0.779257
-0.581596
-0.580236
0.075493
-0.574973
-0.594478
-0.566507
0.257024
-0.733511
-0.325446
-0.318181
0.991434
1.026243
0.733589
-0.404873
-0.274875
0.972308
0.462733
-0.589372
0.666890
0.923201
-0.307736
-0.675978
-0.022817
0.761312
-0.201720
-0.539632
-0.844682
-0.462815
0.877953
-0.814891
-0.507563
0.553032
0.611624
-0.053131
-0.651558
-0.846290
-0.047183
-0.698942
-0.456673
0.125113
-0.716791
-0.376244
-1.037783
-0.134751
-0.912907
0.652395
0.792932
0.410459
-0.761003
0.067195
0.821902
0.066526
0.954764
-0.359890
0.916488
0.355284
0.811592
-0.121814
-0.157701
0.439072
0.019926
0.666066
-0.104224
-0.035639
-0.679325
0.900983
0.327299
0.745962
0.035611
0.214666
-0.325213
0.106138
-0.475357
0.484731
0.268148
0.562387
-0.416910
0.148332
0.561060
-0.251424
-0.294131
0.482062
0.235603
-0.723337
0.468744
0.601332
0.892577
0.546976
0.938299
-0.073708
0.969687
0.078690
-0.132175
-0.112350
-0.474670
-0.220357
0.645117
-0.660401
-0.298234
-0.345838
-0.023284
-0.286033
0.150432
-0.681032
-0.419388
0.192496
0.135355
0.530551
0.019995
-0.063554
-0.399007
0.316076
0.945853
0.742338
-0.951080
-0.789451
0.491930
-0.192843
0.883751
-0.204448
-0.391029
-0.770918
-0.074892
-0.430712
-0.640943
-0.481665
0.025273
-0.014085
0.457325
-0.216097
0.534005
-0.448491
0.307413
-0.751276
-0.831708
-0.874317
-0.001146
-0.693196
0.652633
-0.483895
-0.187523
0.544177
-0.843267
-0.431495
-0.019435
-0.782149
-0.168100
-0.638514
-0.833490
0.559516
0.587260
-0.534462
0.906793
0.418821
0.235795
0.987750
0.594639
0.199793
0.059626
0.520524
-0.973697
-0.499021
-0.009944
-0.774500
0.835417
-0.177274
0.276666
-1.007013
0.400520
-0.798785
-0.952954
-0.504564
0.595105
-0.755889
-0.335917
0.707007
-0.109018
-0.213215
-0.437549
-0.239909
0.354146
-0.458653
-0.246786
-0.983244
0.925696
-0.649972
0.132112
0.111824
-0.052529
0.781707
-0.426963
-0.461563
0.395463
0.381107
0.125649
0.606122
-0.186578
0.856796
0.367956
-0.307869
-0.341452
0.994029
0.468524
-0.866294
-0.823785
0.075508
0.235061
0.978717
0.983988
0.477520
0.566186
-0.370950
0.157973
-0.045595
0.344330
-0.884482
0.210932
-0.752416
0.756431
-0.656210
0.591028
-0.307945
0.267504
-0.610434
-0.887657
-0.676270
0.943552
0.972690
0.254720
-0.857851
-0.062287
-0.036051
0.367399
0.895135
-0.557445
-0.422125
-0.286487
-0.139775
-0.135517
0.006974
0.442511
-0.966664
0.418620
-0.593617
-0.350541
0.468796
-0.306402
0.384130
0.311275
-0.296506
-0.512197
-0.253372
-0.197811
-0.745771
-0.080032
-0.164411
-0.699710
-0.978448
-0.679158
-0.757875
0.175617
-0.035845
0.151523
0.535909
0.321615
0.948078
-0.089985
1.081828
0.702008
-0.778015
0.846097
0.495301
-0.124464
-0.254267
-0.384091
0.115340
0.154120
0.600469
-0.954683
-0.194222
-0.662839
-0.918493
0.394851
-0.473111
0.583118
0.897667
0.239797
0.941475
0.932099
-0.071899
0.873812
-0.205210
0.160191
0.029410
-0.291442
0.348969
-0.521229
-0.155645
-0.031630
-0.296582
-0.229140
-0.414419
0.588898
0.151322
-0.071346
0.932946
0.890436
-0.333008
-0.188554
-0.459298
0.356269
-0.355156
0.863684
0.959077
0.558602
0.442434
-0.538750
0.412482
-0.312197
-0.139800
0.806880
-0.277511
-0.933108
-0.129182
0.425284
0.846994
-0.397323
-0.320070
0.555455
-0.245633
-0.097089
0.045711
0.363060
-0.215720
-0.006299
0.639131
1.296938
0.690341
0.058543
-0.699031
-0.722976
-0.298304
-0.467720
0.870928
-0.265353
-0.491171
-0.393236
-0.104691
0.018946
-0.474685
-0.510747
-0.582350
0.288697
0.829675
0.225156
0.682517
0.896418
-0.641311
-0.017553
0.505027
0.625832
0.514121
0.507383
0.492460
-0.468555
0.552836
-0.183273
-0.919407
-0.646599
-0.375566
0.433765
1.005128
0.660808
0.559543
-0.242875
-0.415819
0.027441
0.848882
0.196990
0.874327
-0.355101
-0.310073
-0.903221
0.809421
0.248040
-0.898290
-0.786602
0.409734
-0.038250
-0.656106
0.850258
-0.105203
-0.302305
0.572543
-1.053005
0.143064
0.264814
-0.806095
-0.242643
0.321055
0.776862
0.030884
0.491064
-0.526110
0.766231
0.184992
-0.830504
-0.783565
0.772882
-0.141118
-0.261555
-0.122183
-0.393315
-0.843015
0.773304
-0.120737
-0.367376
-0.081663
1.216270
-0.902628
-0.934586
0.220175
0.096836
-0.886259
-0.840745
-0.962777
-0.250865
0.128489
-0.541381
0.727977
0.917558
-0.616796
-0.983228
0.371654
-0.753654
0.490227
-0.415930
-0.515032
0.086818
-0.410723
0.883923
0.602697
0.764015
-0.839984
-0.044779
0.925172
0.419685
-0.706544
0.466616
-0.410277
0.443359
0.530319
-0.451133
-0.595267
-0.820195
0.202627
-0.146210
-0.200672
0.147650
-0.538779
-0.338347
0.460382
-0.699885
-0.924651
-0.624619
-0.673108
0.904084
0.456472
-0.044590
0.872842
0.832178
-0.413487
-0.692099
-0.431386
0.744103
0.672507
-0.645458
-0.392419
-0.236295
-0.425394
-0.577868
-0.466743
-0.438173
0.383638
-0.719885
0.706052
-0.075778
0.325504
-0.069562
0.403667
0.697352
0.212434
0.187541
0.921274
-0.817565
0.765213
-0.047195
-0.659655
0.705409
-0.016008
-0.867374
-0.834321
-0.925942
0.216786
0.274490
-0.541250
-0.928721
-0.221974
0.353199
-0.031393
0.531846
-0.124665
-0.427448
-0.166307
-1.085714
-0.680387
0.359238
0.997554
-0.724609
-0.895771
0.442599
-0.748393
0.026728
-0.148550
0.399007
-0.793189
-0.856129
0.595723
0.125899
0.033929
-0.807487
-0.969258
0.436360
0.226754
0.278689
0.438067
-0.667446
-0.353364
1.164352
0.046045
-0.905488
-0.444568
0.346148
-0.281985
-0.839313
-0.345226
-0.125793
-0.503417
-0.687869
0.163184
-0.649329
-0.139431
0.012433
-0.444007
-0.521716
-0.106551
0.268264
-0.963376
0.716522
0.992882
-0.899016
0.143400
0.610964
0.830669
-0.713111
-1.011800
0.975756
-0.039265
1.094863
-0.000458
0.366378
-0.278684
-0.162049
0.806270
-0.469452
-0.950698
-0.553925
0.738082
0.259366
-0.105330
0.515028
0.549723
0.329827
0.801589
0.503921
-0.442087
0.480002
0.493235
-0.806752
0.069066
-1.053586
0.092123
0.911804
0.488719
-0.758841
0.741423
0.588613
-0.559444
-0.665462
-0.819579
0.790522
-0.775427
0.115924
0.222217
0.019628
-0.707982
1.069432
-0.192371
0.385638
0.226266
-0.518956
-0.545131
-0.995575
-0.341775
1.020620
0.508933
0.762084
0.937152
0.604349
0.488555
-0.096895
0.947274
0.271605
0.207685
0.556567
0.607567
0.705496
0.789480
0.668289
0.688088
0.129103
-0.633887
0.504467
-0.979370
0.147551
0.286438
0.334901
0.795612
-0.199291
0.491412
-0.542998
0.112256
-0.687784
-0.738754
0.884428
0.919176
-0.592182
-0.226692
-0.684296
-0.207968
0.051091
-0.363362
0.558017
-1.071795
0.097374
0.130614
-0.506680
-0.550114
0.008380
-0.619736
-0.580536
0.770093
0.298489
-0.042376
0.153294
0.490259
-0.418525
-0.342218
-0.474680
0.982921
0.262199
-0.909332
0.624105
-0.543696
0.591343
-0.702585
0.737795
0.162419
-0.477550
0.762330
0.003277
-0.089388
-0.144959
-0.064821
0.958977
0.755343
0.524298
0.349387
-0.291961
0.519000
0.534980
-0.607581
-0.749500
-0.904290
-0.273098
-0.590746
0.516562
-0.111957
-0.976935
0.130206
0.734987
-0.399040
-0.127504
-0.198929
-0.532744
0.146422
0.495291
0.098787
-0.112986
0.054616
-0.922220
0.667522
-0.201821
0.510301
-0.200868
0.815261
0.343797
0.082066
-0.462446
-0.747390
-0.799454
0.087322
-0.626554
-0.627624
-0.335526
0.560369
0.049716
-0.218096
0.474196
0.434923
0.697932
-0.658313
0.729508
0.883860
-0.749200
0.104705
0.148218
-0.792575
-0.347886
-0.679431
-0.701661
-0.631345
-0.928585
-1.025307
0.182152
-0.883749
0.821552
-0.559609
0.325860
0.639386
0.976683
0.214400
0.491653
0.416095
-0.033639
0.226487
-0.553021
0.208163
-0.399129
0.391125
0.432021
0.970922
0.342601
0.618549
-0.968438
-0.659030
0.481307
0.301114
0.484903
1.038139
-1.102619
-0.275931
-0.514624
-0.131207
-0.252637
0.650259
0.301332
-0.388518
0.464819
0.662770
-0.069657
0.618242
0.998565
-0.596469
0.372427
0.218224
0.386403
-0.254246
-0.727454
-0.845668
-0.955274
-0.744839
-0.515502
0.180156
-0.881529
0.606170
0.601011
-0.705400
0.087942
0.428503
-0.098562
0.396486
-1.029189
-0.007252
-0.875164
0.623818
0.989512
-0.125499
0.984616
0.428682
-0.904857
0.426534
0.669822
0.636041
0.719208
-0.310600
0.694778
-0.072689
-0.784140
-0.245876
-0.781716
0.152122
-1.042246
0.248706
-0.890736
-0.504771
0.432443
-0.148122
0.808852
0.466056
0.640073
-0.545980
0.749499
-0.933765
-0.902879
-0.973358
-0.872946
0.759395
0.031579
-0.882966
0.860229
-0.746095
-0.160543
-1.183340
-0.143710
0.544429
0.067831
0.313263
0.132902
-0.616036
0.241821
-0.403501
0.807165
-0.723924
0.267745
-0.803247
-0.410353
0.835361
-0.429109
-0.198873
-1.009605
0.270793
-0.163739
-0.382526
0.623875
-0.690394
0.097176
0.795834
0.873254
0.592346
-0.298147
-0.624172
0.161199
-0.480580
-0.035260
-0.380838
-0.690668
0.450503
0.670642
0.809417
0.601854
1.003861
-0.431724
0.911967
0.233368
0.298853
0.231765
0.581964
-0.366724
-0.513252
-0.378782
0.002730
-0.725147
-0.494241
-0.248755
-0.686430
-0.906228
-0.172492
0.066222
0.766400
0.504159
-0.164396
0.284259
-0.161052
-0.608750
-0.378304
-0.156412
0.573813
-0.978419
0.639504
-0.200777
0.889010
-0.681967
0.168509
0.877779
-0.983809
0.177115
0.537885
-0.258325
-0.361409
0.066329
-0.080094
-0.565435
-0.288212
-0.544516
0.798646
-0.504588
0.679907
-0.349865
-0.224101
-0.467596
0.126179
-0.260620
0.657479
0.114456
-0.314261
1.037424
-0.599638
-0.760095
0.163773
0.956406
0.599960
0.901142
0.336287
0.154107
-0.212412
-0.389214
0.377463
-0.119397
0.892501
-0.511277
-0.274257
0.954360
-0.022387
0.511331
0.220369
-0.132607
-0.902800
-0.440971
-0.205153
0.480451
0.092446
-0.706628
0.428307
-0.209187
-0.006669
-0.032749
0.990612
0.177347
-0.191651
-0.029706
0.658979
0.310144
0.097288
0.838008
-0.479257
0.076764
0.813433
-0.285957
-0.537010
0.172291
0.962671
0.805551
-0.887761
0.238790
-0.060527
-0.199642
0.199642
-0.024335
0.851284
0.133106
0.695606
0.505225
0.128658
-0.732567
-0.055041
0.460525
0.262331
-0.936481
0.248741
-0.458927
0.837758
0.195461
0.809145
-0.020678
-0.781576
0.712141
0.666245
0.358839
0.308226
0.112229
-0.327273
-0.559371
-1.050272
0.090713
-0.007390
-0.167108
-0.347827
0.840813
-0.605780
-0.548569
-0.501420
0.019851
-0.344510
-0.138266
-0.666352
0.792533
-0.415348
-0.933099
-0.089604
-0.714242
0.625162
-0.813091
-0.785186
0.988370
-0.396208
0.062632
0.932286
0.539749
0.510434
0.003051
-0.016473
0.888091
0.148723
0.956780
0.312744
0.410282
0.858105
-0.324848
-0.780321
-0.336513
-0.750033
0.368134
-0.505380
-0.246192
-0.389713
0.796468
0.697186
-0.859051
-0.471651
-0.372655
-0.984869
0.583745
-0.875542
-0.321084
-0.715977
0.247597
0.352795
0.008064
0.294722
-0.778622
0.081984
-0.295796
-0.059743
-0.820085
-0.323979
0.428162
0.799227
-0.497729
0.428418
0.241409
0.571456
0.042318
-0.205833
0.224866
0.748126
0.257859
0.766341
0.570670
-0.806388
-0.853841
0.313979
-0.460550
-0.965471
-0.058310
0.586944
-0.368449
0.159461
0.663145
0.797173
-0.575578
0.855651
0.037190
-0.445597
-0.356742
-0.252754
-0.945130
0.395726
-0.328258
-0.697592
-0.695660
-0.635313
-0.011262
0.206009
0.028828
-0.833703
-0.218705
0.108454
-0.565399
0.290572
0.984406
-0.669361
-0.309072
0.440777
-0.817841
-0.458743
0.494157
0.728117
-0.649814
0.770132
-0.966160
0.436929
-0.339033
0.025098
-0.276259
-0.253437
-0.465817
0.928652
-0.142169
0.708627
-0.215984
0.421572
0.975369
0.574512
-0.868434
0.380656
1.107932
0.456091
-0.549216
0.471466
0.532029
-0.211718
-0.255124
0.439979
0.873754
0.790297
0.066411
0.131913
0.874753
0.385407
-0.950058
-0.479291
0.195236
-0.708485
-0.474185
-0.740709
-0.732302
0.961370
0.778595
0.656264
0.601061
-0.610867
0.916230
0.044064
0.527543
0.240260
0.184886
-0.893608
0.710283
0.273963
-0.937279
-0.613463
0.355172
-1.010970
-0.311594
0.408474
1.085097
-0.759528
-0.610517
0.617531
0.576161
-0.140643
-0.278729
-0.580685
0.243427
-0.373713
0.335628
-0.452679
0.789321
0.256176
-0.818048
0.079593
0.468049
-0.001408
-0.977529
0.358613
0.821877
-0.074808
-0.589148
-0.429548
0.208524
0.787040
0.180796
-0.784203
0.214892
-0.773914
0.314028
0.526094
0.057815
0.026846
-0.477869
-0.742344
0.753782
-0.749095
-0.475375
-0.328023
0.416654
-0.382201
0.450251
0.538688
0.519080
-0.056282
0.689250
-0.692257
-1.109210
-0.692445
0.590286
0.943420
-0.585479
0.722290
0.186863
0.944310
0.879099
0.554481
0.868106
0.273054
-0.103642
-0.800086
0.262143
0.884727
0.823757
-0.401100
0.763308
0.644516
0.686910
0.284534
0.515227
-0.254616
0.092092
0.910643
0.059640
0.383006
-0.806336
-0.106843
-1.118428
-0.225834
1.182414
-0.060511
-0.263835
0.242091
-0.748247
-0.430442
-0.282513
0.915906
-0.778119
0.126318
0.207143
-0.156756
-0.359554
0.521516
0.008924
-0.325834
0.456388
-0.636556
0.526823
0.073756
-0.428013
0.877152
0.316837
-0.652910
0.519177
0.872031
-0.247809
0.470607
-0.954523
0.050855
0.851799
-0.077564
-0.927335
0.254177
-0.285076
0.615387
0.780204
-0.228716
0.541763
-0.223591
-0.474441
0.285180
-0.714051
-0.096524
-0.544722
0.214241
0.440081
0.407986
0.492150
-0.928893
-0.004086
0.135472
-0.294768
-0.860930
0.479606
-0.608164
0.978319
0.454144
-1.107953
-0.205628
-0.284219
-0.617272
0.653462
0.631982
-0.166516
-0.457197
-0.791081
0.537281
-0.862345
0.754352
-0.152961
0.397969
-0.602647
-0.018260
0.909192
1.024542
-0.371215
-0.516813
-0.227092
0.687965
0.895318
-0.853755
1.363306
0.691030
0.500463
0.430301
0.041748
-0.748142
0.115051
0.810340
-0.203429
-0.875454
0.735128
0.783976
-0.840852
-0.821653
0.548191
-0.148576
-0.484438
-0.094173
-0.976370
-0.737403
-0.996336
-0.530410
0.667157
0.590299
-0.029121
0.018360
0.838166
-0.846659
0.064485
-0.459169
0.437651
-0.736731
-0.659554
-0.717967
0.721157
0.069921
-0.938727
0.110213
-0.515071
0.426609
-0.220375
0.909382
-0.209494
-0.461293
-0.269820
0.908611
-0.344292
0.897814
0.898347
-0.939849
0.060204
-0.822637
0.222548
-0.263356
0.055517
0.554594
0.175328
-0.966610
-0.923017
-0.043615
-0.244330
0.037128
-0.672656
0.690821
-0.100242
-0.753283
-0.359759
-0.500520
0.870354
0.493065
-0.054865
-0.393842
0.643120
0.692854
0.501568
-0.635448
-0.926749
-0.497880
0.886858
0.252310
-0.338656
0.696515
-0.621680
-0.257457
-0.544474
-0.958403
-0.919946
0.578312
0.681016
-0.223638
1.176658
0.769920
0.582287
-0.166369
0.642310
0.331043
0.108218
-0.361107
0.063237
-0.325641
-0.105759
-0.991189
0.681281
-0.703314
0.400285
0.610007
-0.635790
0.045679
0.142955
-0.715541
-1.065108
0.017821
0.941625
0.576406
-0.628874
0.495297
0.944356
-0.376335
-0.931763
0.332791
-0.439841
-0.350700
0.012624
0.848878
-0.208566
0.656875
-0.759539
0.913964
0.843964
-0.448817
-0.927202
-0.452699
0.400081
-0.466521
0.605578
-0.114892
0.976114
0.384972
-0.061967
-0.782273
0.150126
-0.858464
-0.561580
-0.861291
0.917675
-0.091499
0.807579
-0.814855
0.009045
-0.081667
1.065756
0.694696
-0.521500
-0.824266
-0.669843
0.279750
0.151011
0.022856
-0.374707
-0.420442
0.381976
0.403881
-0.291778
-0.074095
0.457804
0.516420
-0.138567
-0.903036
0.166714
0.331352
0.717441
0.734605
-0.474820
0.522424
-0.387825
-0.420054
-0.782575
0.676398
0.620307
0.703216
0.718737
0.398708
0.027650
-0.550849
-0.425719
0.065655
0.368312
0.965349
0.831005
0.741531
0.654600
-0.505230
-0.688396
0.954547
0.286403
0.549402
-0.549803
0.966914
0.670053
0.083210
0.006697
-0.119576
0.804072
-0.470683
0.600631
0.406083
-0.617532
0.225618
-0.900443
0.939536
-0.116500
-0.105202
0.095650
-0.880704
1.166406
-0.096748
0.332408
0.109933
0.261217
0.961251
0.496336
0.345622
-0.747990
-0.456389
-0.670449
-0.716611
0.660584
-0.204632
-0.046123
-0.962331
0.270123
-0.153991
-0.953442
-0.164596
-0.477766
-0.577224
-0.369051
0.743212
0.483682
-0.082016
0.913114
-0.982379
0.774327
0.437848
1.105569
-0.096299
-0.144213
0.344127
1.002620
-0.802524
0.322762
-0.613858
-0.502695
0.747571
0.190575
-0.676168
0.492325
0.093501
-0.628410
0.654954
0.219012
-0.189454
0.074105
-0.405104
-0.611719
-0.257430
-0.819149
0.371883
0.885106
0.765062
-0.279098
-0.934502
-0.829129
0.609681
-0.647611
0.408056
-1.024664
-0.573821
-0.429132
-0.883894
0.480811
0.518586
0.928748
-0.476308
-0.713677
0.859105
0.784860
0.793263
0.705571
0.077359
0.461124
0.109674
0.402705
-0.114924
0.363553
0.021644
0.641381
-0.524187
0.582148
-0.275332
0.333912
0.401430
-0.344942
-0.054182
1.055525
-0.045947
0.172515
0.737880
1.162252
0.003081
0.476670
0.464681
-0.426994
0.283739
0.143991
-0.553606
0.076226
-0.535125
0.920255
-0.432874
0.307654
-0.474727
0.365052
0.464957
0.530631
-0.242529
0.365574
0.785094
0.350758
0.473857
0.506279
0.329543
-0.652217
-0.593190
-0.886277
0.210275
0.477999
0.945529
-0.256861
-0.577289
-0.049601
-0.624296
-0.148688
0.486286
0.052708
-0.065856
0.078706
0.918259
0.085874
-0.401401
0.016647
-0.181220
-0.548324
0.542717
0.066584
0.344613
-0.480158
-0.967577
0.210371
-0.622541
0.410838
0.795968
-0.899224
0.940209
0.397992
-0.540635
0.670435
-0.263879
1.138644
0.199874
-0.340015
0.131676
-0.884211
0.393406
-0.931006
0.913320
-0.556797
-0.314958
0.065328
-0.103971
0.217070
0.986092
0.573318
-0.119037
-0.163659
-0.369835
0.295619
-0.237260
0.005197
-0.316047
0.633208
-0.801252
-0.439235
-0.098133
0.415016
-0.511644
-0.946225
0.762103
0.429811
0.558450
-0.608011
-0.150187
-0.562760
-0.659222
-0.763434
0.859270
0.218348
0.412371
-0.037386
0.062929
0.049853
-0.559127
-0.909285
0.364332
0.508491
-0.991917
-0.168263
-0.057652
-0.636708
-0.414972
0.699898
-0.587576
-0.293943
0.678983
-0.904550
-0.731436
-0.593989
0.388934
-0.112860
0.237463
-0.097629
0.303463
-0.587874
0.028291
-0.008664
0.222528
0.369388
0.897884
-0.408514
0.679072
-0.094685
0.045497
-0.205889
-0.483152
0.919422
0.133714
0.886039
0.416369
0.581842
-0.608680
0.920063
0.560279
0.038150
-0.522704
0.471729
-1.068010
0.413028
-0.615701
0.903709
0.395736
0.824683
-0.577341
0.375011
0.499848
0.752421
0.909022
0.931179
0.491874
-0.580239
0.098673
-0.637956
0.398708
0.795854
-0.054058
-0.739897
0.110080
-0.857379
-0.640429
0.846215
-0.825169
-0.641769
-0.406609
-0.462250
0.735112
0.796250
0.307897
1.052755
0.397281
-0.522510
0.333802
-0.308792
-0.522241
0.929564
-0.942300
0.149671
-0.702917
-0.577838
-0.195054
-0.316145
0.256724
0.883717
-0.106999
0.299851
0.741350
-0.721787
0.799125
-0.777296
-0.560468
-0.176683
-1.023856
1.092642
-0.141672
-0.753855
0.405335
-0.667928
-1.271434
-0.135594
0.059266
0.364573
-0.096013
-0.993963
0.595905
0.226838
0.882845
-0.385464
-0.010791
-0.711343
-0.735271
-0.223908
0.475772
-0.384553
-0.529583
-0.206228
-0.196494
0.626227
-1.046682
0.076370
-0.900845
-0.938596
-0.928684
-0.732083
-0.081471
0.587232
0.004503
-0.778733
0.461001
0.290131
0.454373
-0.296471
0.548696
0.059349
-0.887142
0.036862
0.715246
0.090119
0.637862
0.422289
0.070949
-0.451292
-0.591604
-0.432696
-0.778615
0.225720
-0.274111
-0.467126
0.799363
0.391975
-0.855470
0.513025
0.651865
0.562065
-0.704851
0.761039
0.194503
0.598441
-0.107510
0.356127
0.650183
-0.709403
0.162938
-0.561259
0.661864
-0.747504
0.202527
-0.598528
0.282309
0.681524
-0.284769
0.697583
-0.671982
-0.303481
0.911873
0.901142
0.988417
0.185714
0.064961
0.987326
-0.773254
-0.572806
0.305972
-0.386491
-0.590477
-0.731179
-0.583067
0.020651
-1.139844
-0.890831
0.960750
0.747078
0.573303
-0.600975
0.267369
0.596645
-0.594905
-0.375884
0.354933
-0.242331
-0.406167
-0.448254
0.456635
0.669799
0.124692
0.064186
-0.038659
-0.885090
-0.853772
0.786812
0.482195
0.710494
-0.860143
0.312524
-0.178369
0.933305
-0.527145
0.619491
-0.672345
1.011123
-0.671058
0.744430
0.470195
0.291626
0.783699
-0.499388
0.467638
-0.126950
0.763930
-0.954116
-0.382825
-0.046226
0.115617
0.554966
-0.510120
-0.809684
-0.591281
0.868175
0.843175
0.925018
-0.495009
0.608141
-0.869983
-0.924701
0.538380
-0.523135
-0.415566
-0.240512
0.643398
-0.384018
0.501617
0.926729
0.285018
-0.855175
0.814870
0.099950
0.148321
-0.208766
0.096959
-0.279514
-0.935538
0.454263
-0.622388
-0.396019
0.033026
-0.549263
0.406110
0.504794
0.030792
-0.661379
-0.876189
0.619858
-0.898126
0.343751
-0.052465
0.741791
-0.303230
0.847003
0.377214
0.525369
-1.004649
0.468648
-0.337654
-0.299078
0.049219
0.407242
-0.960991
0.258303
-0.555153
0.371433
0.531276
0.230734
-0.513213
0.629583
-0.858988
0.065141
0.959532
-0.687256
0.272214
-0.162979
-0.553248
-0.254851
0.484201
0.262851
-0.274786
0.618825
-0.082622
0.244876
0.744939
-0.061719
-0.891248
0.969626
0.153815
0.723292
-0.347489
0.366469
0.305850
0.710368
-0.549444
1.004116
0.428569
0.691654
0.294773
0.834193
0.937551
-0.044650
-0.948124
-0.076502
-0.528034
0.402089
0.710773
-0.683123
0.954103
-0.387323
-0.314302
0.099657
0.576264
0.112162
-0.278966
-0.475955
-0.406140
1.103812
-0.434987
-0.174182
0.245957
-0.429039
-0.240933
0.364471
0.447283
0.235328
0.254234
0.789373
0.433012
-0.701047
-0.311615
-1.103786
0.457205
0.181062
-0.970784
0.431179
-0.816185
-0.999226
-0.181152
-0.696977
0.192305
-0.507414
-0.775631
0.961392
0.594821
0.000407
0.888950
1.089194
-0.286556
0.295395
0.464689
-0.535480
-0.766002
0.538916
0.846801
1.025094
-0.946679
0.470451
0.453413
0.103609
-0.013745
0.797455
-0.419791
-0.101499
0.805862
0.617349
-0.357558
-0.915148
0.127346
1.018510
0.844255
-0.087037
0.603924
0.075417
-0.621349
0.702125
0.926854
0.716198
-0.951185
-0.270659
-0.106825
0.348808
-0.949735
-0.415341
0.641112
0.775437
0.459152
0.178495
-0.538886
-0.484104
0.482246
-0.805485
-0.186706
-0.864661
-1.046983
0.727475
0.232827
0.745944
0.916045
0.277454
0.518981
-0.551757
0.038066
0.652625
-0.727535
0.610557
0.322297
0.835549
-0.917747
0.600643
0.813739
0.627108
-0.309942
0.969096
0.644903
-0.393987
0.757720
0.611119
-0.954948
0.594190
0.821982
-0.154828
0.741646
-0.840490
-0.284193
-0.876364
-0.062264
0.433456
0.582029
1.299634
-0.560757
-0.882905
0.502594
0.651181
0.800232
-0.845174
0.764813
0.253097
0.460581
-0.529828
0.406994
0.345741
-0.897397
-0.580608
0.231038
0.380076
-0.150320
0.422819
-0.344419
0.859414
-0.441596
-1.098231
-0.373329
-0.862084
0.495379
0.478697
-0.815484
0.770866
0.939641
0.366956
0.859790
0.175941
0.219552
0.411399
0.090567
-0.576453
0.410600
0.509269
0.668951
-0.110309
-0.520035
-0.632298
0.614687
-0.588260
0.023664
0.870660
-0.467756
0.408824
0.398644
-0.328175
0.441672
-0.698480
-0.301039
-1.012140
0.529654
-0.117331
0.201085
-0.823414
-0.210520
0.623955
0.824101
0.657112
-0.379824
-0.252290
0.398796
0.643614
0.348833
0.620554
-0.360555
-0.364970
0.672854
-0.364449
-0.772056
-0.371657
-0.029335
0.346306
0.701971
-0.998413
0.531366
-0.293931
0.714034
0.396776
-0.275139
0.810878
-0.900665
0.888503
-0.431565
-0.865565
0.878177
0.719473
0.105785
-0.861705
-0.137019
-0.373518
0.540692
0.483740
-0.663778
-0.230240
0.996463
-0.491634
-0.906462
-0.200570
0.894558
-0.417519
0.219290
0.936180
0.078717
-0.673986
-0.968545
-0.011798
0.550080
-0.051479
0.800034
0.294840
-0.127986
0.421658
-0.241430
0.911115
-0.380022
0.392866
0.501568
0.046384
-0.042644
-0.539680
-0.129350
-1.085913
-0.551066
0.702979
-0.736030
-0.021026
0.235773
0.698315
0.061410
0.655231
-0.240117
0.273491
-0.164154
-0.874311
-0.976361
0.479498
0.004465
0.786449
-0.748519
0.571988
0.445240
0.015770
-0.408657
-0.294867
-0.904782
-0.245223
-0.010510
-1.015264
-0.340000
0.578431
-0.240061
0.589232
-1.048373
-0.870413
0.111929
-0.022877
0.730961
-0.028554
-0.603456
-0.846502
0.382715
0.074644
-0.007944
-0.837479
0.319814
-0.668470
0.499086
0.497198
0.847479
-0.009467
0.188433
0.036684
0.779072
-0.306715
0.101121
0.248834
0.482484
0.599783
-0.792008
0.863987
-0.151248
-1.213534
0.217860
0.881107
-0.669430
-0.155957
0.422105
-0.813455
0.372996
0.123019
-0.997014
-0.770344
0.420247
0.188600
-0.746373
-0.369841
-0.179458
-0.940173
1.017833
-0.611991
-0.936466
-0.295116
0.374236
-0.282713
1.039798
-0.120993
0.957644
-0.971477
-0.429942
1.109683
-0.503158
0.579361
-0.083758
-0.272023
0.049313
0.692840
0.280389
0.898935
-0.820925
0.135449
0.052966
-0.693886
-0.960491
-1.106380
-0.768479
0.446197
0.750955
0.475221
-0.816727
0.230760
0.838912
0.087709
-0.178867
-0.249715
-0.685221
0.467706
-0.693745
-0.626507
-0.383210
0.383918
0.124302
0.658212
0.514066
-0.589802
0.373897
-0.626765
0.750259
0.179469
0.895938
0.304236
-0.954542
0.014380
-0.511952
-0.022373
-0.834837
-0.528436
0.568314
-0.392712
0.546793
-0.630060
-0.277830
-0.613657
-0.493141
0.019599
0.222023
1.405903
-0.080135
-0.206581
0.559752
1.193544
0.906150
-1.171263
-0.771103
0.375102
0.626419
-0.203443
-0.671342
-0.297613
0.725473
-0.901458
0.382521
-0.302253
-0.246432
-0.412786
-0.452591
0.360227
0.790752
-0.419570
-0.791857
-0.658981
-0.037213
-0.275383
-0.939444
-0.064972
0.047535
-0.389341
-0.729714
0.704941
0.390381
0.294380
-0.103388
-0.897995
0.377337
1.117538
0.358759
-0.048097
0.963594
-0.785469
-0.964854
0.379149
-0.500243
-0.858819
0.479256
0.012886
0.413945
-0.320501
-0.136173
-0.362771
0.092469
-0.474971
0.612587
0.679835
0.180768
0.230900
-0.068490
-0.467168
0.569249
-0.687892
-0.237925
-0.249395
0.520753
-0.663150
0.494277
-0.584553
0.553427
0.428409
0.009117
0.117606
0.551104
-0.378019
-0.393783
-0.384907
-0.654214
-0.216689
0.467477
0.598015
1.050637
-0.083633
-0.247215
-0.127343
-0.884075
0.040667
-0.905207
-0.062836
0.103728
1.263730
-0.266564
0.925254
0.631177
-0.460676
-0.028736
0.314714
-0.438700
0.068024
-0.216796
0.337220
0.161551
-0.161359
0.193901
0.705689
0.776927
0.522046
-0.377359
-0.961601
0.136135
0.140673
-0.890943
-0.599074
0.291553
-0.949198
0.073262
-0.493616
0.083600
-0.690078
-0.899973
-0.431667
0.357595
0.194784
0.532343
0.090677
0.822561
0.024472
0.257938
-0.363078
0.074597
0.952161
-0.552633
0.327652
0.305500
0.618377
0.833243
0.658056
-0.240084
0.936106
-0.064366
0.130795
0.655211
-0.093683
-0.418395
-0.476980
-0.323752
-0.579589
-0.333871
0.116438
0.261472
0.575699
0.041672
0.087699
0.772041
-0.844669
0.546572
-1.070098
-0.662343
-0.510694
0.227547
-0.250604
0.521822
-0.529405
0.923216
-0.796870
-0.320126
-0.664182
0.730572
-0.203618
-0.273509
-0.244854
-0.896342
0.043509
-0.589538
-0.502596
-0.886330
0.933817
-0.758134
0.087286
-0.088576
0.942446
0.009211
0.769127
-0.682052
0.761103
0.812154
0.327385
0.422273
1.161154
-0.074444
0.935373
0.242617
0.013029
0.587289
-0.441394
0.041507
0.965275
-0.594164
0.995543
-0.419270
0.296831
-0.075375
0.912078
-0.905798
0.042693
-1.017167
-0.063843
-0.975101
-0.464752
0.708240
0.613977
-0.320360
0.502535
0.440298
-0.287656
-0.710043
-1.060088
0.261395
0.632640
-0.038828
-0.133628
0.275105
-0.611779
0.497844
-0.746946
-0.496094
0.164643
0.533022
-0.514981
0.567122
-0.648065
-0.142508
-0.199126
-0.753619
0.386011
0.376148
-0.141783
0.427803
-0.727861
0.764198
-0.620008
-0.338560
0.131519
-0.765450
0.890354
0.517309
0.604587
-0.436548
-0.426248
0.638829
-0.612793
0.185785
-0.038733
-0.824635
0.022029
0.686388
-0.730233
0.409906
0.549223
-0.394951
0.677312
-0.597348
0.508428
-0.556355
0.650543
-0.185800
0.887361
0.717394
0.240155
0.230008
0.238752
0.055564
-0.642791
-0.688439
0.625889
0.534015
-0.051524
-0.656704
0.707132
-0.782398
0.706873
-0.248470
0.692654
-0.219666
-0.228092
-0.874553
-0.079761
0.437504
-0.464692
-0.237360
0.332692
-0.692695
-0.149417
-0.733876
0.477665
0.755362
0.003151
-0.665274
0.066911
-0.803056
0.435160
0.011926
0.902052
0.661807
-0.759329
-0.253058
-0.763268
-0.671103
0.292723
0.748463
-0.572229
0.593348
-0.954808
-0.660682
-0.379721
0.436212
-0.443860
-0.992139
-0.022358
0.264594
0.425047
0.864920
0.342692
-0.818478
0.335976
0.639989
-0.632630
0.187021
-0.938249
-0.989712
-0.376062
0.198463
0.411310
0.547381
-0.597512
0.662283
0.306042
0.556474
-0.584635
0.923590
-0.865232
0.079438
0.183975
0.197208
-0.032167
0.560397
0.775050
0.473342
-0.389449
0.089998
0.668177
-0.939769
-0.848701
-0.635791
0.250490
-0.731111
0.072918
0.093448
0.043832
0.919895
0.321003
0.963829
0.384889
-0.607792
-0.332427
0.222340
-0.345165
-0.586633
-0.411219
0.480895
-0.577060
0.821927
0.990575
0.112291
-0.185184
0.929752
-0.854100
0.897422
0.580269
0.386208
0.707494
-0.399928
-0.868602
0.484296
-1.013173
0.613905
-0.693442
0.893064
-0.965094
0.053787
0.589649
0.372974
-0.838888
-0.842227
-0.759018
-1.043457
0.770916
0.525745
1.048812
-0.972010
0.683858
-0.245444
0.023148
-0.933383
-0.948827
0.307304
0.481158
0.007093
0.000407
-0.642079
-0.365592
-0.351002
-0.155768
-0.407209
0.857837
-0.804650
0.846167
0.013332
-0.759515
0.518438
-0.095675
-0.614967
0.166248
-0.682776
0.377902
0.205500
-0.643630
-0.081432
0.569962
-0.468100
0.887461
0.031037
-0.205974
-0.044744
-0.375715
0.161086
-0.400874
0.110108
0.714290
-0.348944
0.169988
-0.779206
0.021178
0.441188
-0.844183
0.278144
-0.111935
-0.294645
0.174924
-0.563356
0.794356
0.343367
0.617470
-0.600401
0.373929
-0.871948
-0.433383
-0.027594
-0.258364
-0.003282
-0.574244
0.344209
0.300831
0.619685
0.182040
0.006661
0.476029
-0.393716
-0.886187
0.351539
0.616265
0.080705
0.254739
-0.658621
-0.240771
0.429659
0.729430
0.947910
-0.640260
-0.898333
-0.104317
-0.194215
0.707393
0.565950
-0.638110
0.364237
-0.466955
-0.930927
-0.557671
-0.788636
0.045775
0.971740
0.602279
0.966795
0.127819
0.530309
1.010324
0.270916
-0.710864
-0.412298
1.081618
0.742625
0.334324
-0.037882
0.962502
-0.859098
-0.961493
-0.796225
-0.895419
-0.490519
0.746228
0.422244
-0.903037
-0.517605
0.101922
-0.577100
1.047199
-0.697933
0.433646
0.910968
0.245395
-0.395285
-0.549602
0.382893
-1.126993
0.307054
0.777119
-0.279566
-0.720413
-0.750821
0.607623
-0.868238
0.725832
-0.593650
-0.905500
-0.770930
0.525912
0.857730
0.439655
-0.531040
0.156821
-0.754253
0.906095
0.392973
0.830262
-1.016467
-0.352042
-0.772339
0.799193
0.369815
0.936470
0.403320
-0.580004
-0.821662
-0.803656
-0.274658
0.225145
-0.100940
-0.578901
-0.321348
0.099319
-0.465860
0.473305
0.939977
0.595517
0.480165
0.188853
-0.149457
0.679594
-0.770189
-0.382473
0.111653
0.520113
-0.789966
0.454802
-0.034641
0.226354
0.436703
0.671794
0.009440
-0.683763
-0.965407
0.250021
0.497654
0.693443
0.851251
-0.717640
0.972129
1.069533
0.316060
-0.255454
0.535290
-0.980220
-0.679181
-0.864983
-0.449450
0.672941
-0.618832
-0.904838
0.346257
0.249942
-0.931580
-0.275507
-0.393570
0.339088
-0.311715
0.263512
-0.778237
0.398431
0.397060
0.614324
-0.538596
-0.400463
-0.482403
0.654911
-0.782277
-0.592802
-0.106134
-0.920804
0.394878
0.761371
0.966021
-0.471481
0.663108
-0.985233
0.038950
0.031312
0.498956
0.713876
-0.832926
-0.608001
0.806276
-0.564568
-0.492700
-0.219296
0.540133
-0.277197
-0.733399
-0.022604
-0.675439
0.133864
0.789114
-0.397936
-0.737629
-0.173178
-0.559393
0.499765
0.467024
0.243917
0.657375
-0.248032
-0.260312
0.738786
0.437259
-1.021004
0.155202
0.262050
-0.265676
0.740029
-0.789622
0.919599
0.712427
-0.851438
-0.869281
0.429872
0.018694
0.374293
0.604273
0.595560
-0.314657
0.568020
0.390198
-0.061697
-0.498354
-0.458929
0.486569
-0.852574
-0.593345
-0.388776
0.874725
0.492087
0.122733
0.385604
0.994771
-0.786490
-0.879006
-0.854114
-0.010037
0.722716
-0.829457
-0.056341
0.193734
-0.170830
0.697394
0.056090
-0.167972
0.558377
-0.366766
0.528508
-0.779396
-0.471255
-0.193679
0.082065
-0.871419
0.417033
-0.115146
0.338590
0.003621
0.152380
0.941929
-0.782912
-0.102024
0.270447
-0.310769
-0.191118
-0.894478
0.978158
0.942172
0.923023
0.719490
0.838795
0.288672
0.588306
-0.638414
-0.066745
-0.444900
-0.442916
0.858517
0.199597
-0.984681
-0.495377
-0.059228
0.934845
-0.623236
-0.902345
0.326361
0.474777
-0.628896
-0.495431
0.090059
0.561320
-0.058251
0.247153
0.802999
0.863420
0.310520
0.375188
-0.269586
0.588984
-0.639479
0.808298
-0.344146
0.786991
-0.004151
1.009645
0.489808
0.288769
0.084184
-0.680202
0.405683
0.513291
-0.984249
0.680682
0.479078
0.038976
-0.148054
-0.389027
0.027750
-1.068822
0.675018
-0.354790
-0.367352
0.234417
-0.507014
-0.012147
0.415583
1.001138
-0.985720
-0.027032
0.156043
0.976231
-0.073532
0.278966
-0.497164
0.290702
0.037862
-0.493454
0.789764
-0.480488
-0.440053
0.055035
-0.167315
-0.010300
-0.157601
-1.116937
-0.809629
-0.902899
0.833754
-0.011327
0.064903
-1.016412
-0.108588
-0.818677
-0.399111
0.781063
-0.161314
0.229979
0.419238
0.462435
0.353407
0.003060
0.124276
0.653790
0.251206
0.197750
1.211675
-0.829438
-0.482223
-0.744284
0.566889
-0.705650
-0.958014
-0.279102
-0.852700
0.466416
0.965897
-0.767545
0.432275
-0.908365
0.580197
0.426989
0.575320
0.775066
0.305798
-0.618248
-0.587189
0.918297
-1.009987
-0.878014
-0.604424
-0.297430
-0.356329
-0.760006
-0.550650
0.174491
-0.598949
0.289014
-1.029505
0.804799
-0.280802
-0.466570
0.810486
-0.875529
0.823829
0.663472
0.282500
-0.914369
-0.317654
-0.070029
-0.259181
-1.040573
1.063687
-0.947524
0.791698
-0.016297
0.960109
0.579532
-0.399969
0.360263
0.465773
1.219875
0.437438
-0.762562
0.533788
0.698733
1.365274
0.568872
-0.946565
0.694624
0.287509
-0.015271
0.019163
0.006354
0.458845
0.757184
-0.664545
-0.887308
-0.030834
0.198547
0.176685
-1.241812
-0.476938
0.823641
0.421907
-0.660966
-0.905475
-0.815123
-0.440957
0.001775
-0.856748
1.320356
0.399638
-1.010333
-0.111136
-0.339988
0.948877
-0.977561
0.870826
-0.285038
0.097470
-0.718781
0.015754
0.630341
-0.170561
-0.545256
0.775273
-0.029414
-0.949645
0.770391
0.537587
0.208152
-0.812747
-0.964696
-0.439465
0.458579
-0.417510
0.103758
-0.775737
-0.578365
-0.764762
0.300233
-0.532590
-0.213556
-0.012039
0.264730
1.319238
0.337536
-0.276288
0.172039
0.915756
0.561485
0.553624
-0.456741
0.853490
0.320563
0.416288
-0.121110
0.921854
0.344486
0.883505
0.432478
-0.767945
0.713192
0.957172
0.829324
-0.395965
0.897323
-0.391836
-0.704078
-0.768634
0.341633
0.497085
-0.748301
0.081864
0.968883
-0.144187
-0.287298
-0.875464
0.547012
-0.845457
0.255934
0.360350
0.225600
0.170669
-0.752357
0.922885
-0.114320
0.272383
0.852865
-0.029479
0.253458
-0.483459
-0.089377
-0.494831
-0.893731
-0.775778
-0.184493
0.892815
-0.045638
0.356285
0.893640
-0.815475
0.918749
0.862145
0.022589
0.138648
0.500562
-0.751766
0.336877
-0.672264
0.770454
-0.182751
0.283622
0.930517
-0.846356
-0.507529
0.819529
0.237099
-0.341993
-0.475108
0.092725
0.749577
0.434934
0.133428
0.890000
0.076654
-0.841971
-0.597514
0.061564
-0.734400
0.889805
-0.037041
-0.885127
-0.800263
0.517931
1.014357
0.411996
-0.333854
0.116346
0.090839
0.947982
0.835927
-0.416262
-0.559155
-0.957546
0.637693
0.798338
-0.000074
0.130272
0.016689
-1.230296
0.979228
-0.451602
0.615782
-0.861967
0.236331
-0.901863
0.158309
-0.131365
0.007083
-0.551560
-0.892460
-0.022577
-0.868604
-0.105754
1.154952
-0.018379
0.221022
0.405610
0.646426
0.167951
-0.340007
0.443179
-0.707629
0.034015
-0.123987
-0.016436
-1.009330
0.974498
-0.916803
-0.243842
0.334952
-0.727931
0.920815
0.086579
0.119190
-0.647517
0.081825
0.459190
0.335556
1.035659
-0.381524
0.307455
-0.087797
0.671375
0.803637
-1.167301
-0.165270
0.194760
-0.008546
-0.956000
0.343974
-0.858823
-0.377215
0.787342
0.060847
0.954737
-0.036865
0.461308
-0.256045
0.119023
0.481735
0.247258
-0.396542
0.744268
0.776806
0.737749
0.955837
0.479767
0.113517
0.093001
-0.889966
0.368064
-0.936190
0.968961
0.266965
0.232721
-0.359295
0.772658
0.743850
-0.841722
0.377227
-0.109856
0.334514
0.703270
-1.002394
0.661084
0.411353
-0.795918
0.452761
-0.351374
0.474554
-0.386987
-0.797303
0.042194
0.907109
0.976030
-0.665080
0.918770
0.410859
-0.010632
-0.867092
0.168632
-0.913465
-0.686111
-0.731925
-0.399516
-0.090479
-0.552909
-0.673969
0.412318
0.209239
-0.351994
-0.456115
0.314611
0.185431
0.052112
-0.832711
-0.381195
-0.711063
-0.585144
0.537255
0.460376
-0.617626
-0.892931
0.885673
0.367582
0.591381
-0.645388
-0.950074
-0.657373
-0.659577
-0.198419
-0.836035
0.686685
-0.724281
0.689028
-0.295895
-0.446505
-0.366890
-0.054892
-0.094466
0.367384
-0.777096
0.013011
0.141759
-0.412935
0.105289
0.553997
0.317878
-0.647881
0.329533
0.722233
0.182768
-0.742235
0.011575
0.117982
0.040755
0.131435
-0.507357
0.066371
-0.472330
0.763707
-0.536271
-0.396546
0.006345
0.671008
0.591167
0.708119
-0.075320
0.119373
-0.404813
0.935347
-0.759276
0.222840
0.667407
0.087060
0.287597
-0.609578
-0.626559
1.255788
0.515279
0.697887
-0.872870
-0.322355
0.277167
-0.627643
-0.027762
-0.480135
-0.934398
-0.720991
0.015534
-0.764077
0.626130
-0.283561
-0.304769
-0.071670
0.608834
0.407667
-0.642123
0.426381
0.414252
0.396165
-0.648989
-0.728933
0.763271
0.004728
0.988721
-0.624655
0.804764
-0.653869
0.464718
0.438261
0.880664
-0.481781
0.775307
0.692899
-0.124158
0.780423
0.365535
0.425630
-0.874117
0.719326
0.522599
0.766660
-1.023055
-0.002497
-0.619003
0.014871
-0.004265
0.645839
0.676865
-0.849780
0.325128
-0.279236
0.447971
0.543503
0.818251
-0.337445
-0.149798
0.570529
0.621655
-0.001732
-0.869015
0.566852
-0.244922
-0.981160
0.174080
-0.042685
-0.425938
-0.475780
0.424515
0.955849
0.081998
0.892771
-0.950702
-0.464681
-0.651790
-0.640763
-0.590136
-0.354520
0.015819
0.184128
0.716351
0.895518
0.591341
-0.843210
-0.482046
-0.314352
0.878719
-0.303228
-0.905888
0.504141
0.438159
0.642715
0.891369
-0.171632
0.471235
-0.753976
-0.819721
0.903784
0.173768
-0.032005
-0.410323
-0.827036
-0.851399
0.286697
0.859596
1.149795
0.759233
0.522341
0.585280
0.532008
-0.834678
0.570083
0.237224
-0.446901
-0.565973
0.967937
0.169276
0.481542
0.237871
0.426391
-0.713947
0.417993
0.493272
0.962837
0.292874
0.306445
0.026397
-0.238406
-0.047328
0.479070
0.586921
0.036326
0.542696
-0.745043
0.354703
-0.031698
0.810677
-0.146688
0.158840
0.994630
-0.237720
0.227697
-0.129162
-0.916684
0.803798
0.012249
-0.438814
-0.335519
-0.185224
-0.942315
-0.945211
-0.653673
0.157511
0.377766
-0.173615
-0.391731
-0.403784
-0.431458
0.491683
-0.936994
0.119334
-0.725136
-1.039898
0.711599
-0.794748
-0.613336
0.245991
-0.734142
0.915894
-0.812789
-0.601267
-0.353975
-0.661900
-0.960258
-0.181197
0.891453
-0.583977
-0.245260
0.377588
-0.178892
0.970655
0.213075
-0.968076
-0.315465
-0.249025
-0.771759
-0.583313
-0.652587
0.966895
0.162382
0.758544
-0.869331
-1.056842
-0.422543
-0.927602
0.830095
0.895174
0.141522
-0.619119
-0.574743
0.504332
0.117876
0.880323
0.692166
0.679666
0.614383
-0.908920
0.004623
0.530188
0.756202
0.766728
-0.178876
-0.191780
0.155135
-0.515544
0.997271
0.425362
-0.785778
0.374682
0.160159
-0.035634
-0.726884
-0.955816
-0.258891
0.837098
-0.423793
0.305521
-0.853948
-0.325800
-0.687792
-0.434266
0.634661
-0.610690
0.269937
-0.494779
0.101033
0.957926
-0.386307
-0.121543
-0.524948
-0.969539
0.253387
-0.466806
-0.334308
-0.095668
0.087288
-0.440726
1.023234
-0.124918
-0.898590
-0.143852
0.758773
-0.714403
0.707896
0.373135
-0.726235
0.376098
-0.950675
-0.433198
0.018694
-0.785039
-0.352301
-0.901572
-0.599353
0.909743
-0.373402
0.052170
0.593470
0.669369
0.551185
0.728074
-0.388048
0.054495
-0.689394
-0.673958
-0.293895
0.664213
0.419996
-0.379505
-0.196447
-0.388607
0.044167
0.136155
0.215697
0.652789
0.191624
-0.785841
0.211437
-0.833991
-0.347340
-0.983537
0.534487
0.228402
-0.454408
0.867559
-0.558779
-0.723066
0.798904
0.882324
0.959873
-0.224909
0.317150
-1.011316
0.756165
-0.092243
-0.736392
-0.293438
-0.554003
0.716875
-0.517042
0.946042
0.102397
-0.392048
0.926270
0.837335
0.389626
-0.123349
0.434591
-0.500133
0.046780
-1.013749
1.012511
-0.536169
0.786042
-0.801313
0.068863
-0.843538
-0.750977
-0.647431
0.984663
-0.381313
0.344642
-0.626994
0.788802
-0.154586
0.020614
0.039971
0.595157
-0.003756
-0.584023
0.244180
-0.763140
0.511727
0.706478
0.080009
-0.086191
-0.884453
-0.662465
-0.454081
-0.210509
-0.247731
-0.305791
0.111156
-0.837629
-0.589282
0.666338
0.662194
0.218004
-0.665234
0.183082
-0.231427
0.291273
-0.852026
-0.477443
0.429677
-0.932953
0.783182
-0.525356
0.954252
-0.532467
-0.568308
0.088536
-0.046236
-0.226115
-0.733392
-0.634907
0.405688
-0.306945
-0.786112
0.329955
-0.614118
-0.766018
0.506108
0.647158
0.145261
0.568279
-0.673838
-1.090003
0.406447
0.231034
0.870788
0.656429
0.255764
-0.069220
-0.157184
-0.653413
-0.101276
0.288292
0.369507
-0.239198
-0.803460
0.111692
0.848050
-0.558155
-0.890104
-0.889103
-0.563333
-0.726399
-0.479666
-0.165755
-0.598737
-0.884896
0.452463
0.444715
0.271974
-0.677372
0.428744
-0.302729
-0.447043
0.540018
-0.534758
0.120869
-0.552114
0.039517
0.766753
-0.185434
0.039945
-0.091338
-0.997708
0.414748
-0.627001
0.225048
0.162192
-0.984625
0.671027
0.314211
0.384513
-0.682820
-0.748879
-0.170387
-0.613916
-0.945447
-0.556458
0.361138
-0.577712
0.286605
-0.669240
-0.026515
1.041356
0.565923
0.449219
-0.276876
-0.871043
0.527400
0.162580
0.783908
0.277148
0.645721
0.194839
-0.663079
0.671069
-0.581300
-0.466671
-0.855990
0.936409
0.523367
-0.127321
-0.050099
0.654832
0.987558
0.211571
-0.379739
0.977309
-0.222036
0.509462
-1.012387
0.947969
0.635009
0.745641
0.635002
0.637181
0.442082
-0.107174
0.594875
-0.523169
0.473499
0.763561
0.642584
0.330079
-0.370735
0.814091
-0.437200
0.872421
0.359031
-0.881176
-0.922865
-0.514084
0.856502
0.451330
-0.925418
0.881815
0.011856
-0.576637
0.491605
-0.864225
0.026638
-0.764778
-0.532577
0.594304
-0.214603
-0.592320
0.287931
0.252453
0.392578
0.675916
-0.519863
-0.080149
1.463021
0.181341
-0.510180
-0.673273
1.111605
0.541002
0.515833
0.284182
-0.711252
-0.297715
0.104701
0.795063
0.516392
0.160932
0.073385
-0.926668
-0.682616
0.073264
0.615150
0.488260
0.897970
0.073637
-0.781792
-0.819857
-0.637196
-0.942982
-0.013447
0.556814
-0.043894
-0.267490
1.160106
0.379026
0.575342
0.162111
0.894453
0.476975
-0.625700
-0.801809
-0.623166
0.329308
-0.806832
0.116013
-0.281421
0.209248
0.251117
-0.384057
0.198622
0.814526
0.638376
-0.082228
-1.092376
0.319773
-0.478580
-0.476513
0.903317
-0.542329
0.599073
0.483433
0.264179
-0.432372
0.142054
-0.785118
0.560156
0.141900
-0.617163
0.242019
-0.952781
0.463200
-0.073051
-0.769234
0.812770
-0.830188
-0.017031
-0.709978
-0.802385
-0.803064
-0.849675
0.358697
-0.105669
-0.607212
-0.208737
-0.299197
-0.850364
0.494383
0.438024
-0.630489
0.467356
-0.751998
0.120723
-0.016380
-0.390233
0.212708
-0.815601
-0.270645
1.126788
1.250949
0.546824
-0.660871
-0.219008
0.658002
-0.131706
0.220247
-0.655136
-0.242592
-0.270531
0.542079
0.625142
-0.289457
-0.690744
-0.191056
0.390342
0.369894
0.180629
0.164478
1.025903
-0.384197
0.965141
-0.228522
0.527523
0.687970
0.153968
0.746178
0.041476
0.467316
-0.474743
-0.031187
-0.285913
-0.380283
0.470752
0.891822
0.972218
-0.087648
0.830269
-0.181560
-0.242248
-0.079371
0.089127
0.450799
-0.309474
-0.287144
-1.053188
-0.734177
0.570277
0.164590
0.027875
0.130056
0.537419
-1.023074
0.094055
0.032072
0.547605
0.845640
-0.511414
-0.217550
0.409573
0.309725
-0.606816
-0.963956
1.003015
0.959292
-0.021818
0.328031
-0.965818
-0.476022
-1.056989
-0.071728
0.177492
0.200990
0.190719
0.127060
-0.820892
0.036080
0.653555
0.642109
-0.682959
0.833687
0.706285
-0.626641
-0.178511
-0.267898
-0.171588
-0.229204
-0.939706
0.334024
-0.520190
0.034911
0.518929
-0.408147
1.036086
-0.559816
0.541231
-0.965796
-0.724465
-0.051007
0.554807
0.444359
0.809133
-0.768044
0.190098
0.141528
-0.678758
0.799528
-0.159026
0.885183
0.051770
0.771075
-0.130903
0.337050
0.344443
0.118764
0.974543
0.350879
-1.018130
0.068293
1.025219
0.634114
-0.244901
-0.317007
-0.107620
0.206597
-0.756201
0.507220
0.753981
-0.011328
0.473135
-0.576223
-0.554090
0.258932
0.113193
-0.843782
0.343546
0.704044
-0.777903
-0.500204
-0.301370
0.474743
-0.611291
0.401822
0.912502
-0.720647
1.353061
-0.640636
0.908684
-0.610980
-0.033873
0.006124
-0.860456
-0.058094
-0.238966
-0.608713
-1.003274
-0.981785
-0.230160
0.428553
0.045054
0.836516
-0.240406
0.678895
0.840736
-0.709322
-0.576681
0.955371
-0.982727
0.150592
0.859267
0.516803
-0.278411
-0.034196
0.755968
-0.528845
0.691400
0.814391
0.132832
-0.591061
0.486160
0.857537
-0.779105
0.634816
-0.832933
-0.838345
-0.725376
-0.084172
0.971829
0.357860
-1.080505
-0.363492
0.706751
-0.498660
0.547130
-0.462818
-0.340309
-0.117797
-0.871913
-0.606389
0.574002
-0.055930
-0.921122
0.388981
0.755711
0.010322
-0.250235
-0.650266
-0.990658
0.335391
0.431161
-0.541298
0.393113
0.422507
-0.262916
-0.779997
0.671962
0.348853
-0.723986
0.653227
-0.654087
-0.757395
0.500912
-0.822582
0.863302
-0.932330
0.838749
-0.604304
0.376895
0.361188
0.577130
-0.250435
0.556798
-0.426656
-0.254882
0.320461
0.940792
-0.853915
-0.306062
0.274338
-0.164091
0.709039
0.525933
0.461936
0.597113
0.135504
-0.490779
-0.195528
0.435038
-0.296717
-0.038128
0.679744
0.672660
-0.434618
0.567520
-0.796402
-0.138614
0.548168
-0.067830
0.883833
-0.272285
0.250695
0.181179
-0.613625
-0.174569
0.581680
-0.090436
0.928388
0.592193
-0.031247
0.618258
-0.116172
0.690522
0.364093
0.914628
0.615041
-0.608197
-0.087734
-0.006638
0.066386
0.425672
0.081417
0.320172
0.979498
-0.514345
-0.133684
-0.409070
-0.414649
-0.637823
-0.732154
0.379102
0.884646
-0.587647
0.798242
-0.161884
0.106377
-0.397383
0.267790
-0.690863
-0.091799
-0.991394
-0.148644
0.101133
0.457863
1.032799
0.174929
0.263839
-0.594115
-0.508646
0.474226
0.039715
0.772444
-0.570997
-0.038838
-0.767755
-0.945527
1.080750
-0.388485
0.982528
-0.326065
-0.659539
-0.999337
-0.973351
0.598463
0.045502
-0.743562
0.406622
-0.507711
-0.364449
-0.974128
0.180130
0.706949
-0.230363
-0.646568
-0.756996
-0.354134
0.737950
-0.934621
0.244773
0.317121
-0.402366
0.920179
-0.914998
0.068336
0.517150
-0.457401
-0.525747
-0.252980
-0.385101
-0.431308
-0.803869
-0.252949
0.275696
-0.482256
0.350479
-0.386473
-0.510071
-0.560631
-0.956602
-0.080809
-0.206160
0.505126
0.943244
0.795481
0.526486
0.103016
0.591401
0.418719
-0.123824
0.041970
-0.004853
-0.370600
0.894431
0.729555
0.846211
0.902433
0.889994
-0.491911
0.268759
0.303915
-0.794588
-0.780301
-0.261000
-0.532286
-0.570141
-0.414193
-1.045751
-0.693721
-0.539127
-0.867457
0.568616
0.717820
-0.166669
-0.172851
0.614617
0.815687
-0.243733
0.112689
0.799717
0.990960
-0.091758
0.614486
