3072 30 10 0.0010 50 50 100
0.018018
0.074819
0.001631
-0.189624
-0.071433
-0.341319
0.055550
-0.112849
0.011649
-0.118423
0.099278
0.126868
0.098440
0.090346
0.114626
0.083913
0.092579
0.090962
0.081242
0.098946
0.098521
0.098115
0.091833
0.086994
0.090503
0.094453
0.127094
0.103330
0.103313
0.088005
0.097135
0.091637
0.097963
0.099097
0.105067
0.102907
0.102826
0.122772
0.099676
0.101793
0.156093
0.838384
0.698620
0.618643
-0.073031
0.047951
-0.914738
-0.642814
-0.515919
0.539312
-0.996568
-0.909471
0.321152
-0.843511
0.800481
-0.148388
-0.261610
-0.809926
-0.073986
0.517014
0.507955
-0.174095
-0.134892
-0.405056
0.351372
0.887497
-0.369386
-0.671897
0.610004
-0.372913
-0.510287
-0.028815
0.551779
-0.722280
-0.703381
-0.467222
0.252806
0.354496
-0.142954
0.927523
-0.248519
-0.450883
0.035941
-0.112436
-0.589865
-0.172855
-0.683673
-0.317462
-0.903796
-0.986498
0.476387
0.400533
-0.433755
-0.000548
-0.956382
-0.600707
0.578791
0.955533
-0.353359
0.092938
0.407318
0.869827
-0.359060
-0.174810
-0.385916
-0.928167
0.221087
0.818773
0.318926
-0.734622
-0.977943
-0.449776
-0.666192
0.349582
0.345152
0.971413
-0.835559
0.048984
0.434164
-0.949692
0.118186
0.160836
0.944250
-0.281066
0.270028
0.172207
0.650155
-0.821059
-0.818689
0.835433
-0.812634
0.934630
0.549982
0.904116
-0.352708
0.137984
-0.471936
-0.559200
-0.151435
0.058138
0.503955
-0.455817
0.276097
0.296179
0.165173
-0.456352
0.981781
0.813481
-0.755945
0.081060
-0.120971
0.565514
0.667517
-0.442501
-0.125711
0.376363
-0.174398
0.833153
0.666480
-0.619727
-0.758085
-0.462508
-0.028340
-0.906250
-0.378346
0.686805
-0.336270
-0.611404
0.621787
0.214268
0.808200
-0.068217
0.048969
0.906231
0.970486
0.391940
-0.370380
-0.972451
0.399589
0.337484
-0.143312
0.583850
-0.510213
-0.638773
0.849514
0.373391
-0.730072
-0.338533
-0.091243
0.594583
-0.305034
-0.602464
0.633109
-0.607545
-0.116706
-0.123846
0.194711
-0.054520
-0.099798
0.729598
0.857087
-0.708089
-0.700696
-0.736196
0.917498
-0.055708
-0.131195
0.010782
0.857785
-0.302270
0.879123
0.989683
0.132468
-0.262032
0.464542
-0.755480
0.662686
0.580521
-0.933843
-0.586365
0.135907
0.005659
0.441493
0.700182
-0.069782
-0.356642
0.737282
0.338524
-0.820886
-0.476238
0.654127
0.258060
-0.982706
-0.087082
-0.639802
-0.510992
-0.483808
0.259482
-0.022507
-0.246782
0.696128
0.296093
-0.714490
0.975972
-0.472085
0.526960
-0.721229
-0.103825
0.971537
-0.239865
0.873440
0.026893
-0.634240
0.175085
0.621819
-0.328007
-0.905245
-0.185601
0.765223
-0.990070
0.454798
-0.118622
-0.793973
0.981999
-0.888216
-0.133635
-0.145603
0.043189
-0.131052
0.850020
0.937081
-0.157289
0.487892
0.909946
-0.720639
0.447996
-0.921968
0.305489
-0.045676
-0.207783
-0.451906
-0.665801
0.524507
0.274080
-0.547402
0.587470
0.026609
0.392488
-0.000995
0.301461
-0.795401
0.093130
0.034004
0.496725
-0.489868
-0.589065
0.218497
0.975271
-0.275471
-0.937517
-0.778232
-0.162185
-0.236110
0.913336
0.279873
0.907842
0.371827
0.549124
-0.747923
-0.911704
-0.553795
0.322544
-0.960925
0.264203
0.380728
0.143998
-0.456324
0.437713
0.311472
-0.089969
0.258250
-0.820441
-0.998123
-0.879692
0.058016
0.032634
0.306527
-0.573870
0.758191
0.959297
0.756157
0.093200
-0.783861
-0.446476
0.883607
-0.732168
0.741330
0.364396
-0.431794
0.268562
-0.409578
0.148489
0.030208
-0.757104
0.255654
0.523566
-0.237424
-0.852068
0.077304
-0.829117
-0.315693
-0.183254
0.643219
0.337036
-0.347462
-0.368386
0.157651
-0.414309
0.189170
-0.727502
-0.823267
0.848937
0.826720
-0.572229
0.183394
0.128805
0.866453
-0.956954
0.744390
-0.415319
0.674532
-0.153780
-0.569830
-0.829183
0.643238
0.425097
-0.677245
0.600901
-0.104162
0.079056
-0.299657
-0.464987
-0.786336
-0.355629
-0.115869
0.200933
0.038878
0.640880
-0.743147
-0.041085
0.140686
-0.138679
0.490153
0.557588
0.047565
-0.308982
0.603136
0.999214
0.731444
-0.749150
0.443272
0.972871
0.375790
0.098058
-0.807014
0.942623
0.052613
-0.651411
0.270177
0.061878
-0.463679
-0.907519
0.003430
0.171650
0.114995
0.032872
-0.700310
0.025135
0.841237
0.870322
-0.888371
-0.533025
-0.672913
0.492185
0.260299
0.000015
0.159811
0.822472
-0.535457
0.107065
-0.383190
0.817607
0.154833
-0.301388
0.060986
-0.303488
-0.911983
-0.928288
0.127223
-0.692502
-0.228308
0.262521
0.632014
0.632566
0.120745
0.990737
0.682873
0.072418
0.108555
0.790378
-0.658068
0.586279
-0.395506
0.989833
0.741727
0.011115
0.529104
-0.183283
-0.924901
-0.771215
0.285574
0.682589
0.580081
-0.384766
-0.474584
0.091632
0.003978
-0.002911
-0.785622
-0.215418
-0.386122
-0.595058
0.821356
0.520714
0.898774
-0.835330
0.743488
-0.330864
0.174592
-0.374470
0.285186
0.344000
-0.633794
0.979932
0.801695
-0.445676
-0.837871
0.134227
-0.591197
0.828103
-0.283767
0.070803
-0.911001
0.277431
-0.793540
-0.429215
0.530253
0.920701
0.416493
0.111223
-0.626856
0.825046
0.076841
-0.240568
0.065177
-0.494226
-0.460299
0.197202
-0.607391
0.705304
-0.676853
-0.360648
0.520257
-0.787174
-0.581972
-0.883047
-0.403035
-0.096220
-0.792704
-0.763512
-0.732908
-0.168573
-0.809408
0.131331
-0.114442
-0.142930
-0.498767
-0.854070
0.852054
-0.997194
0.384335
0.783890
0.584637
0.763918
0.084731
0.488243
-0.542063
-0.450393
0.173994
-0.047184
-0.975644
0.823766
-0.051963
0.631872
-0.713123
-0.906035
0.174125
-0.189131
0.243433
0.595345
0.415726
-0.901433
0.975049
0.131278
0.039097
-0.493315
0.101254
0.905949
0.334764
0.276094
-0.941946
0.820247
-0.546221
-0.539323
-0.547525
-0.965412
0.985455
-0.989904
0.146868
-0.729905
-0.460334
0.699881
-0.349991
0.216656
0.528690
-0.900190
-0.187468
-0.451379
-0.659549
0.319550
-0.019626
-0.663405
0.711594
0.148982
0.395897
0.246415
0.697260
-0.223159
-0.925778
0.527937
-0.357738
0.270768
0.014135
-0.931602
-0.924612
-0.270903
-0.801905
-0.690453
0.422465
-0.007915
-0.416193
0.005524
-0.363920
0.420371
-0.454558
-0.830032
0.282984
0.175177
0.294620
-0.621568
-0.197658
0.558203
0.876174
0.296225
-0.728721
-0.199227
-0.077900
0.193535
-0.476312
0.983587
-0.342616
-0.405703
-0.120114
-0.873351
0.982640
-0.852372
0.116476
0.437611
0.808886
-0.916403
0.330729
-0.141524
0.880545
0.369554
0.133907
-0.231857
-0.560755
0.775641
-0.072720
0.918402
-0.160230
-0.181440
0.717018
-0.928504
-0.579554
0.478068
0.127840
0.672831
0.857173
-0.673127
0.262197
0.480237
-0.017802
-0.937482
0.235735
0.167679
-0.737761
-0.378311
-0.822325
0.408801
0.044302
-0.650217
0.368963
-0.112728
-0.164494
-0.993235
-0.529901
0.404500
0.315374
-0.094425
-0.648673
0.462362
-0.235871
-0.808414
0.310927
-0.777370
-0.645023
0.789305
0.962344
-0.466466
-0.042728
-0.269393
0.382190
-0.039677
0.230897
-0.883924
-0.962620
-0.550467
0.405433
0.898829
0.713854
-0.860337
-0.056136
0.130308
0.883446
-0.318239
-0.827275
-0.606535
0.940765
-0.997989
-0.644991
-0.291113
0.437145
-0.229940
0.233226
-0.091753
-0.825741
0.693697
-0.049282
0.636570
0.615765
0.448738
-0.095885
-0.399568
-0.765960
0.831119
0.969516
0.052857
0.202550
-0.633397
0.912488
0.255911
-0.591615
-0.233196
0.071543
-0.969742
0.831423
-0.325362
0.471686
-0.091582
-0.203871
0.940079
-0.183186
-0.425022
-0.008096
0.807928
0.900701
0.771602
0.038339
-0.922730
-0.270299
-0.085555
-0.073769
-0.372503
-0.260118
-0.628482
0.036111
-0.841747
0.960156
-0.714962
-0.485169
0.495976
0.692402
-0.606516
0.163385
-0.153262
-0.530239
-0.471128
0.067366
0.030905
0.784879
0.350691
-0.200046
-0.554617
0.353860
-0.824481
-0.451200
0.968739
-0.848035
0.172613
-0.294666
0.068629
-0.483643
0.711179
0.844672
0.055094
-0.953854
-0.005578
0.986084
0.239335
-0.871614
0.941980
-0.061860
-0.804316
0.141791
0.484242
-0.675541
0.374457
-0.665787
0.676055
-0.051201
0.082304
-0.543589
0.227001
-0.011256
0.865097
0.655361
0.353766
0.670841
-0.851078
-0.236846
0.405109
-0.882851
0.774530
-0.317542
0.839181
-0.592388
0.824530
-0.655258
0.046243
0.319441
0.345338
-0.619889
0.865998
-0.098068
0.185217
-0.487131
0.628202
-0.205839
-0.024473
0.742447
-0.514111
0.315887
-0.447034
-0.162142
-0.700771
-0.987868
0.676073
0.099423
0.873158
0.948312
-0.927255
-0.250726
-0.790303
0.777980
-0.224061
0.907418
0.123096
-0.350999
0.709977
-0.710995
0.756618
0.309648
0.072456
0.087240
-0.029324
0.730811
-0.826638
0.465719
-0.839628
0.186129
-0.618140
-0.598550
0.499739
-0.289964
-0.361778
0.879765
0.712053
0.193837
0.151458
-0.608485
-0.190941
-0.455451
-0.905764
0.094792
0.986183
-0.342380
-0.594287
0.544850
0.042420
-0.963686
-0.308927
-0.953198
-0.170952
0.852336
-0.114879
-0.442802
0.980259
-0.488296
-0.578690
0.036629
0.886154
0.523939
0.635462
-0.673082
-0.585119
-0.806862
0.223797
0.032944
-0.722763
0.461047
-0.904056
-0.109741
-1.003970
0.984897
-0.908140
-0.811087
0.688231
0.156320
0.044494
0.484944
0.786240
-0.496505
0.373343
0.649994
-0.446243
0.497439
-0.515419
-0.344234
0.992231
0.510310
-0.816978
-0.112803
0.456396
-0.709833
-0.972963
0.448637
-0.687141
-0.609046
0.130893
-0.301023
-0.146811
-0.160143
-0.505782
-0.979118
-0.946730
-0.124385
0.133294
-0.137725
-0.302323
-0.165633
-0.619137
-0.955434
-0.997995
-0.236631
0.143707
0.320018
0.981365
-0.352285
-0.837778
0.493396
-0.368171
-0.828682
0.654659
0.179863
0.963512
-0.610981
-0.329290
-0.986126
0.032432
0.530328
-0.980131
-0.938660
-0.767667
-0.545313
0.866424
0.732840
-0.402061
-0.223050
0.725212
0.160499
0.715925
-0.046065
0.847440
-0.812499
-0.826707
-0.776010
-0.909878
-0.369524
0.579623
0.388571
-0.257539
0.837643
0.909476
-0.981051
0.929952
-0.137986
-0.118093
0.548923
-0.994926
0.176034
-0.920660
0.334569
-0.334935
-0.228922
0.370922
-0.392645
0.202170
0.669809
-0.579056
0.821588
-0.304003
-0.870464
0.433291
0.441286
-0.496183
0.012646
-0.237405
-0.760688
0.000030
-0.626598
-0.092699
-0.434225
-0.895648
-0.262189
0.927234
-0.133679
0.893236
0.289844
-0.896121
0.465264
-0.319257
0.391567
-0.070433
-0.125523
-0.423968
0.728976
0.819699
0.819361
-0.946430
0.763382
0.912120
-0.975026
0.160942
0.058008
-0.168377
0.695355
-0.676691
-0.235438
-0.622815
-0.587697
0.034673
-0.239453
0.960321
-0.038179
0.925361
-0.242292
-0.478614
0.325410
0.446321
-0.555486
0.127090
0.059320
-0.213623
-0.483028
0.762283
-0.097295
0.059869
-0.912907
0.802720
-0.303663
-0.879058
0.512523
-0.021379
0.851905
0.963554
0.697879
-0.230251
0.401504
0.904518
-0.253762
0.598380
-0.836607
0.173593
0.055201
-0.188732
-0.930414
0.800244
0.605060
0.995462
0.938734
0.825839
0.605887
-0.175993
-0.262544
-0.250101
0.656087
0.768026
0.899995
0.155144
0.038910
-0.421626
-0.017896
-0.048078
0.326507
-0.305269
0.194325
0.636166
0.354590
0.710693
-0.824872
-0.779567
-0.751655
-0.731576
0.612741
-0.959686
-1.003269
0.684089
-0.265558
-0.309286
0.319333
-0.677581
0.644924
0.809770
0.035462
0.750196
-0.453034
-0.761433
-0.584815
-0.273529
0.322525
-0.529691
0.782116
0.838660
0.428341
0.650904
-0.929926
-0.132019
-0.100928
-0.080886
0.440879
-0.264258
0.538084
0.472258
0.968567
0.452470
-0.519773
0.989152
0.985638
0.580606
0.611607
-0.573401
-0.731071
-0.510038
-0.465931
0.401665
0.096886
-0.419650
-0.434541
0.616744
-0.909158
0.687041
-0.924161
0.271838
-0.850396
0.875534
0.780267
-0.257103
0.594743
-0.074915
0.603998
0.756823
0.332877
0.516301
-0.398008
-0.371595
-0.396920
-0.816013
0.304551
-0.260600
0.018522
-0.079084
0.672907
0.626319
0.035466
-0.988815
0.437683
-0.603848
-0.597947
-0.733096
0.525631
-0.831833
0.586768
0.835042
0.980333
0.269846
0.067189
0.353851
-0.994347
-0.260759
-0.266968
-0.716693
0.509964
0.927972
0.229413
-0.027874
0.446086
-0.553373
0.022732
-0.318113
-0.072909
0.516520
-0.558934
0.731589
0.410498
-0.184867
-0.779728
0.225026
-0.976632
-0.846160
0.281887
-0.343536
0.494361
-0.135815
0.932361
0.127075
-0.825822
-0.557222
0.077922
-0.403840
0.714480
0.021162
0.214847
-0.873155
0.974558
0.106929
0.635329
0.509446
0.197011
0.941982
0.278458
0.508046
0.017702
-0.867609
-0.437294
-0.040157
0.629205
0.797590
0.648891
0.338805
-0.769082
-0.957794
0.617921
0.610120
0.247520
0.992609
-0.787333
-0.309838
-0.950705
-0.201458
-0.240153
-0.935761
-0.967820
0.618689
-0.876288
-0.840288
-0.908044
0.649713
0.389202
0.455866
0.351171
-0.443968
-0.422794
0.434073
0.529928
-0.064135
0.993560
0.813033
-0.000986
-0.680936
0.849762
-0.459626
0.038528
0.952687
-0.390867
0.440190
-0.921919
-0.243484
-0.030814
0.555065
-0.185649
0.648934
0.828988
-0.690749
-0.249387
-0.111824
-0.748995
-0.136357
0.086562
0.947624
-0.903482
0.112265
0.102215
0.802371
0.057269
0.242981
0.783871
0.268537
-0.972081
-0.983630
0.152591
-0.712207
0.791472
0.532697
0.709203
0.884214
-0.044254
-0.417910
0.627024
-0.806503
0.191016
0.278141
0.680966
0.634115
0.834544
0.685249
0.259275
0.298315
-0.045657
-0.710134
-0.551742
0.055733
-0.440015
0.460747
0.307484
-0.765451
-0.904219
0.516533
0.949188
-0.641107
0.625521
-0.739814
-0.355538
0.347617
-0.854160
0.386852
0.546199
-0.174801
0.334766
0.793209
0.161977
-0.062246
0.225561
-0.852045
0.367763
0.345236
-0.072849
-0.333057
0.360811
0.985021
0.998563
0.540603
0.770137
-0.506575
-0.948611
-0.815716
0.524635
0.229728
-0.899649
-0.483127
-0.935852
0.537733
0.410162
-0.530678
-0.369574
0.748830
-0.630046
-0.439867
-0.680635
0.531495
-0.875114
0.380675
0.386585
-0.276796
-0.146031
-0.616945
0.707953
0.273312
-0.528039
-0.441557
-0.328940
0.714772
0.051663
-0.443419
0.158117
0.402377
-0.767991
0.926793
-0.868009
-0.250852
0.701322
0.477090
0.043800
-0.019247
0.817023
0.869083
0.831778
-0.006792
-0.127987
-0.908717
0.735751
0.989670
-0.997403
-0.213513
0.653507
-0.044845
0.202841
-0.242310
-0.476049
0.516888
-0.426173
-0.453205
-0.163186
-0.491724
-0.825036
-0.673453
-0.352784
0.592158
0.122119
0.820710
-0.250671
-0.915649
-0.877666
0.833998
-0.680635
0.767938
-0.620812
-0.372111
0.396436
-0.483578
0.358193
0.093557
0.132694
-0.596800
0.863941
-0.864798
-0.017028
0.348760
-0.396191
-0.440152
-0.974829
0.139594
-0.561138
0.463610
0.435404
0.657250
-0.851736
-0.568092
-0.796116
0.386288
-0.860598
0.889816
-0.227337
0.662873
-0.674210
-0.811589
-0.181955
0.514730
-0.318504
0.651313
-0.318483
0.345052
-0.061606
0.975982
0.508415
-0.857826
0.766689
-0.381567
0.449089
-0.715931
0.426746
0.627021
-0.712531
0.507090
-0.166819
0.765000
0.356645
0.973006
-0.572511
-0.500112
0.107004
-0.383696
-0.839029
-0.132741
0.814430
-0.038473
-0.550849
-0.475145
0.445627
-0.099693
-0.993065
-0.018676
-0.704901
0.008376
-0.516940
0.018591
-0.689887
-0.430443
-0.352479
0.431731
0.982965
-0.658641
-0.272044
-0.913040
0.873432
0.090496
-0.514651
-0.509361
0.594382
-0.194562
0.298468
-0.411742
0.140018
0.272878
0.280552
0.525754
0.098127
-0.351748
0.372611
0.141620
-0.755549
-0.778244
-0.359086
-0.724033
-0.599851
0.943269
-0.251344
0.636246
-0.577630
0.745943
-0.024797
-0.662020
0.123255
-0.177518
0.688543
0.556355
0.901955
0.407119
-0.066029
0.914214
0.349176
-0.931699
0.141027
-0.034974
0.130981
0.085903
0.231184
0.203961
0.654274
0.046698
-0.897808
-0.098106
0.654719
0.418887
-0.920929
-0.831849
0.012700
0.660183
-0.928507
-0.054129
0.220427
-0.520162
-0.173230
0.583295
-0.686455
0.303221
-0.155844
0.337971
-0.081161
-0.360234
-0.465390
-0.490696
-0.425683
0.845416
-0.339131
-0.315090
0.472753
0.046379
-0.366040
-0.770917
0.527576
0.318801
-0.224282
-0.823278
-0.925565
0.293384
-0.753018
-0.333773
-0.212905
0.216244
0.892638
0.309571
-0.381195
-0.721051
0.445798
-0.748550
-0.274984
0.083465
-0.807201
-0.337619
0.824916
-0.067547
0.987930
0.079895
-0.853773
-0.691833
-0.371697
-0.322547
0.227453
-0.192924
0.889114
-0.370452
0.890312
0.330919
-0.729437
-0.849580
0.712082
0.606905
0.280007
-0.851108
0.965118
-0.440417
0.201140
0.195618
-0.106579
-0.257549
0.339327
0.621055
0.988637
-0.760261
0.754590
-0.976025
-0.655932
0.207051
-0.214964
-0.854782
-0.677187
0.084876
-0.803694
0.500501
0.598155
0.334882
-0.402662
0.152333
-0.585132
-0.340336
0.182980
0.326307
0.561414
-0.162365
0.766723
-0.637198
0.013337
-0.476929
0.839348
0.445204
-0.053741
-0.349055
0.770559
-0.171326
-0.705063
0.900797
-0.843161
-0.113579
0.083953
0.668704
-0.528201
1.000127
-0.592856
-0.710377
-0.131414
0.614120
-0.847499
-0.569131
0.887979
-0.468490
-0.012022
0.565966
0.712475
-0.794041
0.025232
-0.766155
0.116455
0.180894
-0.821663
0.019072
0.161403
0.543280
0.332102
0.950466
-0.674285
-0.694765
-0.353140
0.069663
-0.704904
0.983744
-0.216961
0.803278
-0.868601
-0.896756
-0.848981
-0.662706
0.987860
0.628048
0.658494
0.686723
0.223728
-0.108512
0.406626
-0.559356
-0.157755
0.796843
-0.285138
0.526451
0.189691
-0.240055
0.975321
0.196910
-0.188904
-0.378317
-0.234930
0.060203
0.889245
0.439858
-0.852182
0.051391
-0.896100
0.760738
0.370060
0.724178
-0.657235
-0.647102
-0.871176
0.041500
-0.888980
-0.517715
-0.827891
0.866052
-0.385694
-0.576911
-0.643407
-0.645612
0.258824
0.961564
0.976894
-0.799734
-0.804274
-0.964468
0.642762
-0.854954
0.061873
0.864741
-0.338476
-0.770101
0.472798
-0.226691
0.775367
-0.675847
-0.245933
0.099722
0.130885
-0.833501
-0.333429
-0.354506
0.121851
-0.063839
-0.195651
-0.715090
0.533787
0.063112
-0.537246
-0.137053
0.664684
0.815038
-0.119344
-0.344281
0.304541
-0.743499
-0.757590
-0.824238
0.603764
0.855743
-0.317690
0.112810
0.602317
0.676319
-0.395838
0.160606
-0.935769
-0.465585
0.830701
0.567791
0.493146
-0.966128
0.847014
0.409074
-0.492192
0.622791
0.202934
0.471941
-0.030460
0.923011
-0.329188
0.442916
0.342938
0.341626
-0.257376
0.879470
-0.829371
-0.120723
0.437336
-0.143501
-0.858186
0.676481
-0.419883
0.604031
-0.039041
-0.576230
-0.967932
0.935669
0.129938
-0.742624
-0.127917
0.142487
0.068467
0.085081
0.201747
-0.762698
-0.774778
-0.702380
-0.643421
0.256435
-0.380286
0.667621
0.972042
-0.440623
0.625962
0.951652
-0.816637
-0.308823
-0.003475
0.111331
0.287877
-0.113871
0.383846
-0.442338
-0.857791
1.002491
-0.410536
-0.108119
-0.498103
-0.692091
-0.920145
-0.050423
0.514761
0.987642
-0.107022
-0.015895
-0.106359
-0.228912
0.869710
-0.904778
-0.232155
-0.498866
-0.584125
-0.156766
-0.164976
0.215912
0.551596
-0.726040
-0.642765
0.637176
0.101508
0.839834
-0.190199
0.023117
-0.068126
-0.388494
0.239862
0.455431
0.919644
-0.057183
-0.200599
0.766251
0.745061
0.332451
0.879021
-0.927768
0.770127
-0.428178
0.524537
0.324608
-0.434727
-0.218512
0.037897
0.011628
-0.963492
0.132651
-0.786995
0.200261
-0.257876
0.041485
0.679001
0.211287
0.486628
0.932424
-0.337025
-0.644542
-0.602774
0.672344
0.662982
-0.931800
-0.751857
-0.788975
0.803031
-0.011726
-0.477191
0.957904
-0.839105
0.809568
-0.092157
0.856255
0.630860
0.883377
-0.052760
-0.878211
0.513698
0.653581
0.339283
0.799473
-0.387213
0.235872
-0.348274
-0.707270
-0.599698
0.349962
0.453286
-0.878394
0.479454
0.986634
-0.381519
0.911738
0.923918
-0.862268
-0.136840
-0.961397
0.124766
-0.196244
0.621042
-0.724041
-0.728682
-0.649943
-0.457761
0.751754
0.546252
0.084872
-0.077475
0.942356
-0.306405
0.726431
-0.118164
-0.278621
0.109560
0.583977
-0.221353
-0.056719
0.700789
0.758060
-0.005051
-0.681557
0.834234
0.012409
-0.083524
-0.859698
-0.759727
-0.205958
-0.904808
0.204067
0.177736
-0.193799
0.576584
-0.946447
-0.890278
0.223892
0.893008
0.720940
0.266860
0.443642
0.044354
-0.889139
0.123468
0.721422
0.796482
0.630900
0.869756
0.711717
0.768180
0.305404
0.520155
-0.978403
0.375001
0.683786
0.346475
-0.368945
0.076833
-0.500935
-0.192461
-0.118875
0.002649
-0.428926
-0.472064
-0.341161
-0.105621
0.070909
-0.898417
-0.538679
0.973938
0.110443
0.482044
-0.103503
0.204522
-0.964016
0.231644
-0.836488
-0.029591
0.823064
-0.660125
0.086789
0.564698
-0.418692
-0.045605
-0.521145
0.188635
0.160580
0.869068
0.764229
-0.267687
-0.646782
0.870451
0.494477
0.988644
-0.403226
-0.784592
-0.653846
0.865994
0.735296
0.243279
0.556126
0.782978
0.851748
-0.209024
-0.375355
-0.282791
0.454483
0.568118
0.323199
-0.559580
0.316801
-0.427648
-0.192066
0.335805
0.974944
0.394482
0.946546
0.685671
0.224392
-0.244734
-0.878737
0.759573
-0.818846
0.247544
-0.339394
-0.776773
-0.716011
0.321934
-0.501295
-0.369235
-0.689727
-0.965607
-0.608130
-0.211756
-0.247111
0.676096
0.402487
-0.378635
0.885622
-0.989686
-0.927348
0.240817
0.582173
-0.635886
-0.928369
0.005212
-0.585719
0.674470
0.700282
0.690610
0.044738
-0.176111
-0.659774
0.856623
-0.470622
-0.696093
0.008907
-0.047073
-0.417667
0.846726
0.906003
0.148152
0.034860
-0.877804
0.725269
0.030309
0.821546
0.580084
-0.826777
0.032391
-0.374823
0.154418
-0.306407
-0.119776
-0.966863
-0.095403
-0.783290
-0.260999
0.909821
0.586805
-0.618939
0.746119
-0.039499
0.206818
-0.250692
0.329107
-0.426004
0.819393
0.908770
0.028849
0.029960
0.836551
-0.053350
-0.903418
-0.371959
0.462450
-0.864914
-0.802327
0.099159
0.729271
-0.851351
-0.569187
0.066086
0.506788
0.668103
-0.140942
-0.553206
0.211428
0.425748
-0.073184
0.596433
-0.335875
0.293747
-0.827880
-0.518429
-0.367464
-0.757104
0.057573
0.147531
0.445384
-0.415599
-0.016835
0.211842
0.413909
-0.330189
0.816865
-0.806642
-0.305716
-0.862744
-0.342046
-0.695861
-0.575949
0.678931
0.452681
-0.075342
-0.111185
0.657501
-0.077403
-0.693519
0.433208
0.235694
-0.476653
0.332342
-0.100096
0.692951
-0.044949
0.327807
-0.120805
0.730871
0.250607
-0.295977
0.485932
-0.298476
0.471034
-0.750264
-0.491532
-0.259806
0.624337
-0.619469
0.720881
-0.622717
0.935244
0.518205
0.882004
0.779568
-0.347995
-0.368088
0.680184
-0.760326
0.477276
0.186897
-0.208929
-0.340495
0.683235
0.478812
-0.174796
0.112695
0.903860
0.434169
-0.503872
0.998251
-0.768422
0.172121
0.236911
0.391455
-0.805103
0.958451
-0.086298
0.834191
-0.074193
-0.373692
-0.487607
-0.497764
-0.150291
-0.819291
0.501266
0.482250
0.540783
-0.616623
-0.009202
0.609971
0.563007
-0.312194
0.140902
0.115015
-0.379862
-0.392467
-0.507767
0.796720
0.437119
0.191439
-0.027398
0.892143
-0.618819
0.656861
0.998243
0.029293
0.602245
-0.660720
-0.050318
-0.513716
0.861478
0.446910
-0.415593
-0.114841
0.400036
0.211243
0.575115
0.976541
-0.551304
-0.610248
-0.950051
-0.193418
-0.961295
0.434888
-0.346401
0.666619
0.460494
0.102290
-0.090300
-0.074876
0.063102
-0.389622
-0.417494
-0.002467
0.830974
-0.387818
-0.723430
0.662528
0.993814
0.550163
0.460148
-0.607932
-0.041662
0.451061
-0.519208
0.757678
0.594297
0.346171
0.698357
0.398016
0.781835
0.915946
0.288936
-0.624112
-0.920286
-0.200259
0.450590
-0.592387
-0.831645
0.587125
-0.668940
-0.522002
0.396146
0.270261
-0.033426
-0.892362
0.675650
0.229355
-0.827215
-0.627532
-0.241755
-0.938284
0.086325
0.909026
-0.875314
-0.539163
-0.918032
-0.141158
-0.575264
-0.340121
0.463239
-0.296964
0.307093
0.670702
-0.725918
-0.872472
-0.078929
0.452794
0.640748
0.509315
-0.741586
-0.446840
0.788939
-0.040755
-0.189384
-0.617921
-0.561413
0.739998
-0.075576
-0.697091
-0.824604
0.187886
-0.315678
0.033719
0.623108
0.882027
0.584249
0.358768
0.918876
0.716767
-0.137803
-0.688632
0.118872
-0.289696
-0.813901
0.103647
-0.659747
-0.195742
-0.809361
-0.330916
-0.580910
0.224213
-0.560079
0.022904
0.353612
-0.571797
0.926095
-0.841912
0.532141
0.280773
0.459464
-0.125425
-0.840758
0.024578
0.627070
-0.048645
0.609952
-0.911403
0.115081
-0.983435
-0.945213
-0.411507
-0.643396
0.582989
-0.554222
-0.557814
0.454002
0.634315
0.303958
-0.470077
0.913121
0.029252
0.146294
0.728255
0.983154
-0.294599
-0.450634
-0.377167
-0.570532
-0.718242
0.416718
0.745180
0.461686
0.971795
-0.117218
0.747881
0.425661
0.841896
-0.858071
0.801402
0.703077
-0.778488
-0.485534
-0.711300
-0.681849
0.551912
0.393623
0.660062
-0.020841
0.061533
-0.329407
-0.551519
0.521868
-0.524426
-0.356377
0.326356
0.504855
-0.158145
0.096758
0.015157
-0.246871
0.060095
0.615707
0.550829
0.132859
-0.310200
0.552025
0.619055
0.762205
0.929771
0.634061
0.246151
0.923021
-0.847255
-0.710633
-0.173480
-0.929261
0.359416
-0.768381
-0.701556
-0.905985
-0.790864
0.988294
0.960326
0.983669
0.625503
0.066032
-0.482581
0.438081
0.060962
0.824036
0.064102
-0.752812
0.000204
0.020584
-0.041599
0.589546
-0.567276
0.341261
-0.379869
-0.056924
-0.780290
0.545777
0.170665
0.448292
-0.056605
0.625145
-0.408657
-0.453777
-0.783151
-0.882878
0.371023
-0.542077
0.575114
-0.214238
0.211306
0.114858
0.715032
-0.260378
-0.043954
-0.089859
0.350845
0.659044
-0.379285
0.941068
-0.118666
0.023958
0.869153
0.908835
-0.767235
0.400191
-0.448901
-0.305990
0.085553
-0.250226
0.014870
0.115110
0.337233
-0.604139
-0.743824
0.533954
-0.737959
0.082150
-0.350292
-0.730089
-0.366173
0.273452
0.704591
0.708947
-0.371794
-0.110754
0.519159
-0.082661
-0.830467
-0.463145
0.124806
0.908315
0.389819
0.104175
0.436716
0.672079
0.574128
0.359651
0.362425
0.434959
0.073924
0.392086
-0.717404
-0.162028
0.935830
-0.737864
0.612338
0.023205
-0.118264
-0.661592
-0.465475
0.014803
-0.827515
-0.860871
-0.910401
-0.930889
-0.541787
0.972078
-0.558004
0.418596
0.858861
-0.413827
-0.609450
0.410637
0.202506
0.248593
-0.954893
0.265441
-0.771975
-0.623327
-0.145113
-0.328803
-0.344497
-0.748763
0.581891
-0.183074
0.521096
-0.506208
-0.920402
0.696861
0.547921
0.515687
0.154130
0.556526
0.841567
-0.430496
0.466440
0.547220
-0.694619
0.606857
-0.494337
-0.838523
-0.459550
0.608377
0.184501
-0.234503
-0.881680
0.336479
-0.136375
0.065331
-0.776120
0.736049
0.220632
0.619682
0.874192
0.332223
0.603957
0.387145
0.047954
0.388897
-0.359087
-0.148582
-0.555579
-0.772626
0.408837
-0.419684
-0.826624
0.350760
0.770260
0.485048
-0.924562
0.049602
0.034984
0.346727
-0.817570
-0.976495
-0.148862
-0.071277
-0.364170
0.070327
-0.961854
-0.557830
-0.104976
0.922821
-0.673220
0.817889
-0.852889
0.922031
0.466951
0.491961
-0.999504
0.308521
0.334950
-0.383000
0.491792
0.253326
0.491039
-0.219143
0.710812
0.888346
-0.228776
-0.186857
-0.228717
-0.268739
0.649146
0.222179
0.157131
0.691077
0.811589
-0.909316
0.494510
-0.879750
0.627174
0.865095
-0.402987
-0.510566
-0.515327
-0.622975
-0.781839
0.578909
-0.588297
0.379343
-0.277732
-0.966389
0.517684
0.040733
-0.584193
-0.235018
0.755509
-0.460233
0.656116
0.047441
0.305052
-0.897506
-0.709150
0.937467
-0.638797
0.821048
0.619351
-0.721878
-0.052611
0.259134
-0.880245
0.984715
-0.553587
-0.146586
-0.444366
-0.400451
0.924687
0.990584
-0.849778
-0.057569
0.688857
-0.441084
-0.915763
0.915217
0.627948
0.808932
-0.790991
-0.125968
0.408327
0.485165
0.633715
0.813865
0.468220
0.378662
-0.983713
-0.792760
-0.163431
0.802111
0.957104
0.863206
-0.011706
0.303797
-0.121015
-0.516848
0.716392
0.371671
-0.477948
-0.601030
-0.739265
-0.868792
0.717621
-0.609859
0.433909
-0.771419
0.058308
-0.731954
-0.473255
-0.724994
0.331942
0.375705
-0.239745
-0.964746
0.920830
0.960012
-0.844366
-0.890820
-0.384058
0.229791
-0.355264
0.278918
0.349341
-0.595842
-0.323001
0.809668
-0.902921
-0.751581
-0.226940
-0.543056
-0.908616
0.044101
0.585790
0.580236
0.582973
0.800122
-0.110505
-0.271275
-0.317960
-0.834917
0.798272
0.010188
-0.598018
-0.087031
0.279589
-0.051564
-0.324863
0.925561
0.451075
-0.121422
0.507672
0.482727
-0.290487
-0.746648
-0.882455
0.462438
-0.253440
0.374289
0.650546
-0.644373
0.374315
-0.997487
-0.990266
-0.716692
0.493719
-0.768385
-0.826665
0.355093
0.648405
0.969989
0.101313
0.477023
-0.625399
0.452942
-0.145861
0.782759
-0.842192
-0.928251
0.445101
0.201289
0.238963
0.584832
0.463089
-0.377692
0.281824
-0.227064
-0.242084
0.295937
-0.316711
0.747845
0.681801
-0.159515
-0.392222
0.024294
-0.240574
-0.990076
-0.051284
0.514670
0.455978
0.705461
-0.130256
-0.559006
0.272961
-0.399517
0.744198
-0.270881
-0.312515
0.193103
-0.022381
-0.378364
0.769792
-0.301005
-0.349932
0.948161
0.207287
-0.464314
0.101190
0.513423
0.547599
0.343874
-0.615056
0.741241
-0.984470
0.457315
0.289202
-0.939830
0.214237
-0.471902
0.056466
0.752696
-0.784274
-0.794764
0.119306
0.416261
0.507975
-0.766312
-0.024417
-0.872619
-0.514834
-0.502785
-0.531841
0.223492
-0.894426
0.271065
0.029579
-0.867042
-0.274807
-0.331272
-0.399716
0.930656
-0.297023
0.412044
0.385104
-0.434332
0.833783
0.567649
-0.091631
0.589707
-0.658147
0.500098
0.610008
-0.218221
0.053991
-0.312743
0.939614
-0.919548
-0.975073
0.410080
0.394143
-0.260591
0.673166
-0.161558
-0.594671
0.838411
-0.467880
0.967334
0.058472
0.304461
-0.853511
-0.706140
0.820616
-0.961805
0.809338
-0.544867
-0.345365
0.163719
-0.287689
-0.705557
-0.715060
-0.587075
0.937523
-0.895059
-0.221080
-0.293799
0.547441
-0.578036
-0.729646
0.801997
-0.648302
0.697542
-0.273094
-0.255639
0.498892
0.334976
-0.635940
0.090145
-0.245686
0.840900
0.003911
-0.810582
-0.675873
-0.574044
-0.945694
-0.763327
0.643355
-0.106949
-0.154749
-0.572277
-0.672492
0.634952
0.977967
0.363616
-0.519696
0.578527
-0.111140
0.645887
-0.076024
-0.732438
-0.478716
0.081598
-0.483684
0.728400
-0.396744
0.625031
0.178695
0.571958
-0.467022
-0.138141
-0.400880
0.219098
-0.405134
0.771090
0.236969
0.683912
-0.103428
0.807760
0.541431
0.463744
0.352899
0.234779
-0.114531
0.693082
0.011006
0.702893
-0.054529
0.030448
0.852434
0.104614
-0.056256
0.388053
-0.494028
0.554933
0.632240
0.830188
0.975783
-0.961914
-0.933441
0.696877
0.250957
0.604437
-0.716012
-0.250105
-0.786554
0.613122
0.372163
-0.998172
-0.755386
-0.366392
-0.173609
0.526456
-0.420836
0.855936
0.110406
0.740812
-0.762708
0.116727
-0.289904
0.906221
0.940351
-0.997279
0.714296
0.273995
0.893442
-0.693718
-0.546290
-0.096197
0.881297
-0.090233
0.370917
0.598080
-0.836050
-0.122538
0.769249
-0.289908
-0.398278
-0.153443
0.392974
0.318074
-0.925113
-0.905674
-0.329821
0.767449
0.212258
-0.922282
0.943828
-0.893958
0.276430
0.798517
-0.558592
-0.966853
0.388516
-0.282943
0.130994
0.965476
-0.822168
0.748790
0.965699
0.723349
-0.191654
0.874191
-0.864889
0.652503
-0.479101
-0.963434
-0.180612
0.915754
0.729998
0.685582
-0.330190
-0.044315
0.549482
-0.313651
-1.002056
0.375453
0.495595
-0.119617
0.501290
-0.368167
-0.247594
0.856498
0.249047
-0.593661
0.694729
0.488595
-0.376337
-0.164279
0.313860
0.215019
-0.596062
0.461873
0.256678
0.546313
0.700426
0.036249
-0.227191
0.955747
-0.275969
0.934565
-0.490410
0.650486
-0.027331
0.970678
0.299515
0.283793
0.374664
-0.973042
0.734511
-0.514848
0.243827
0.097456
-0.120955
-0.207827
-0.401179
0.723216
-0.972005
0.724072
0.093855
0.386123
0.502201
-0.201326
-0.058426
0.876173
-0.254247
0.805705
-0.181363
0.224495
0.848954
-0.719381
0.830149
0.370798
-0.615303
-0.092768
0.322995
0.215480
-0.784279
-0.803315
-0.448141
-0.175165
-0.423247
0.681313
0.190799
-0.474293
-0.852897
-0.311348
0.723127
0.878520
-1.004157
0.249238
-0.870204
-0.397211
-0.010796
0.450814
-0.317033
-0.021137
-0.829551
-0.875517
-0.996959
-0.731008
-0.165334
0.178583
-0.118017
0.498443
-0.885156
-0.260054
0.968438
-0.069559
-0.495398
0.332089
-0.341440
0.345091
-0.140045
-0.596050
-0.157265
-0.489785
0.080549
-0.552630
0.398683
-0.289793
-0.154806
0.703759
-0.838937
-0.497894
-0.064144
-0.259025
0.547117
-0.622352
0.973620
-0.636043
-0.346540
-0.122402
-0.560113
-0.654708
-0.075287
0.948217
0.445135
0.214534
-0.179691
-0.151189
-0.185075
-0.068817
0.269870
-0.232123
-0.686366
-0.459597
0.299202
-0.679873
0.821500
0.228868
0.055439
0.667024
0.500477
-0.779398
-0.888378
-0.252134
-0.532467
-0.480169
-0.681869
-0.474019
0.654334
0.137799
0.646302
0.586655
-0.455495
0.701568
0.636068
0.018288
0.425066
0.098849
0.126589
-0.600498
0.419088
-0.946169
-0.186306
0.168025
-0.737743
0.781321
0.106495
-0.709296
0.979944
0.594219
-0.000580
0.965014
0.822810
0.340309
0.985959
-0.465962
0.970202
0.151903
0.329335
0.825417
0.595838
0.554182
0.911138
-0.041398
-0.834551
0.236842
-0.291382
-0.203198
-0.585013
-0.116549
-0.117548
0.050271
-0.561900
0.268326
0.932003
0.793359
-0.038067
-0.352047
-0.397520
-0.016973
0.351990
0.921510
-0.862531
-0.118986
-0.173493
0.495904
-0.849614
0.297751
0.676276
0.293270
-0.040269
0.893025
0.762681
-0.508751
-0.897744
-0.143093
-0.345350
-0.287965
-0.710633
-0.159707
0.515371
0.924499
0.969415
-0.457978
0.461889
-0.069006
0.887652
0.325495
0.613832
-0.880343
-0.976932
-0.674826
0.284874
0.261171
-0.236534
0.965760
-0.274395
0.209578
0.259434
0.904961
-0.583792
-0.254316
-0.992738
0.893532
0.267835
-0.055433
-0.382787
-0.203087
-0.000090
0.640836
-0.225272
-0.496585
0.976712
0.473515
0.518941
-0.734297
-0.826078
0.109337
-0.557154
-0.430117
-0.254744
0.626447
0.510105
-0.625003
0.622719
0.923900
-0.123015
0.606691
-0.080294
0.720705
-0.700621
-0.531860
-0.612249
-0.777206
-0.401499
-0.348726
0.540052
-0.098986
0.527158
0.083127
0.395120
0.034742
-0.237535
0.731666
-0.821197
0.976411
0.254727
0.985239
-0.437091
-0.734231
-0.399129
-0.743753
-0.166727
-0.558251
-0.439284
-0.212185
-0.775281
-0.982841
-0.312598
0.522566
-0.786007
0.732970
-0.658728
-0.474180
-0.928557
-0.848293
0.539025
-0.884255
0.755160
0.281719
-0.863069
-0.744259
-1.000006
0.273881
0.205739
0.720726
-0.387003
0.611131
-0.382609
-0.044561
0.486524
-0.469414
-0.203361
0.029468
0.861859
0.119942
0.648931
0.305449
0.514592
0.149793
0.390296
-0.301985
-0.911046
-0.951482
-0.668921
0.713573
0.621197
-0.820688
-0.541311
0.836325
-0.483497
0.575315
-0.432991
-0.583675
-0.187831
0.244094
-0.657426
0.456201
0.062291
0.178098
-0.415267
0.289340
-0.911530
0.706551
-0.850564
-0.549749
0.123496
0.260676
-0.897662
0.941428
0.385775
0.285099
0.947952
-0.212592
0.339207
-0.157607
-0.896396
0.900972
-0.587977
0.811678
0.773566
-0.581062
0.968362
1.010398
-0.668796
-0.495284
-0.905384
0.021534
-0.087445
-0.884812
0.753595
0.025471
-0.506557
-0.948457
0.734887
-0.901570
0.509156
-0.421973
0.441806
0.174122
0.068974
-0.505697
-0.380480
-0.581773
0.446067
-0.703827
0.095348
0.746153
0.145734
0.525027
-0.486162
0.961343
0.224704
-0.163378
-0.423025
0.639243
0.935851
-0.690036
0.845692
0.228309
-0.121730
-0.677964
-0.027899
-0.839492
-0.084176
-0.124782
0.042437
0.181442
0.708635
0.114469
-0.641522
0.292022
0.724782
-0.056704
-0.435723
0.500913
0.138074
0.124292
0.093824
-0.457667
-0.212864
-0.547237
0.672788
-0.817564
-0.240730
-0.602011
0.691649
-0.955728
0.689890
-0.955832
-0.453313
-0.770333
-0.665624
-0.535144
-0.381234
0.818464
-0.739061
-0.782165
-0.509300
0.424686
-0.060140
-0.768067
-0.391138
0.941450
0.076114
-0.174517
-0.997911
0.237195
0.753902
-0.371201
-0.831963
0.200787
0.640719
0.537594
0.878713
-0.546677
0.611594
-0.478699
-0.673651
-0.566470
0.173672
-0.208217
-0.578903
-0.301939
-0.206198
-0.707431
0.561991
-0.258138
-0.415692
-0.250601
0.360525
-0.254697
0.080970
0.753325
0.213062
-0.790750
-0.401611
0.951477
0.173296
0.000242
-0.670523
0.892136
-0.953251
-0.306175
-0.266630
-0.205132
0.090063
0.376390
-0.286641
-0.571179
-0.856174
0.827364
0.627356
-0.214794
-0.380297
0.097702
-0.098876
-0.940576
0.118808
0.877371
-0.377867
0.351266
0.639976
-0.845347
-0.526410
0.476895
-0.659728
0.684517
-0.338206
-0.432741
0.137110
-0.798453
0.886836
-0.700982
0.220935
0.619663
-0.636369
0.500920
0.680727
-0.738547
0.534965
-0.779730
-0.892944
0.603744
0.003197
0.288761
-0.577279
0.441462
0.475336
0.097777
0.044173
-0.082117
0.912745
-0.907470
0.444502
-0.635773
0.192907
0.729386
0.310242
-0.706098
0.338713
-0.970396
-0.013016
-0.303949
-0.890372
-0.898062
0.040505
0.960240
0.718239
-0.506251
-0.138954
-0.211123
-0.274401
-0.602961
1.004972
0.161991
0.920231
0.939261
-0.012799
0.469968
0.865335
0.681090
-0.146192
0.676945
0.995649
-0.668132
0.166944
0.478131
0.313459
0.874138
0.517934
0.042404
0.516176
-0.135121
0.347758
-0.894466
-0.502130
-0.408499
-0.343448
-0.569400
-0.746308
0.424995
-0.475249
0.543927
-0.033862
-0.386792
0.796844
-0.607037
-0.366273
0.659407
0.800504
0.653412
-0.212745
-0.655063
-0.589461
-0.442718
0.975824
0.515322
-0.678598
-1.001427
0.678382
0.172845
-0.118446
0.910822
-0.877154
-0.155703
-0.025259
-0.335151
-0.755230
-0.946146
0.742433
0.478799
-0.672381
-0.123576
0.162308
-0.762281
0.451105
0.874028
-0.626950
0.862289
0.470828
-0.330183
-0.644462
-0.709735
0.200839
-0.380760
-0.640157
-0.754771
0.806248
0.694357
0.332438
-0.206207
0.111788
-0.291983
0.590920
0.875841
-0.352980
0.783398
-0.190563
0.218315
-0.468428
-0.899685
0.065571
0.862477
-0.095128
0.025564
-0.468918
0.318394
-0.394251
0.912096
0.111163
-0.619922
-0.525246
0.314070
-0.001943
0.836841
-0.317567
0.135847
-0.168877
-0.008791
-0.764587
-0.793528
-0.786467
-0.207132
0.617690
0.418296
0.488124
-0.526572
0.937569
-0.110972
0.441129
-0.146789
0.135217
-0.388460
0.330609
0.186142
-0.785156
0.842401
0.012270
0.842413
0.224776
0.959928
-0.460515
-0.929212
-0.111411
0.657604
-0.586129
0.689207
-0.583093
0.485801
-0.657665
0.347237
0.127797
0.132221
0.454129
-0.664542
0.444075
0.351735
0.714019
-0.782482
0.332287
-0.297309
0.313029
0.727823
0.206848
0.132369
-0.685841
0.210104
0.486674
0.869351
0.082545
-0.609141
0.356772
-0.380895
-0.273230
-0.735167
0.932863
0.241092
0.387624
-0.968920
0.621752
-0.053759
0.627001
-0.704341
-0.630546
0.694816
-0.193685
-0.074255
0.854570
-0.039036
0.170653
-0.964518
-0.428235
0.674107
-0.613387
-0.771266
0.711197
-0.792617
-0.239792
-0.552800
0.623365
0.110874
-0.643379
0.047217
-0.050214
-0.481954
0.715545
0.490285
0.612159
0.343878
0.390535
-0.483351
-0.223776
-0.892214
0.854340
-0.919035
0.763496
-0.086771
-0.578386
-0.703748
0.271798
0.401665
0.669600
-0.002188
-0.669098
-0.489845
0.470755
-0.810820
-0.716201
-0.980649
0.354117
-0.460998
-0.166660
-0.229918
-0.462624
-0.189768
0.671887
-0.572829
0.416290
-0.335061
-0.804772
0.552555
-0.798420
-0.907704
-0.170743
0.246378
-0.789397
0.542906
-0.746981
-0.185839
-0.079656
0.644904
-0.683026
-0.293611
0.682682
-0.828895
-0.978648
-0.537843
-0.449302
0.828322
0.858292
-0.131355
-0.827180
-0.667506
0.497176
-0.793159
-0.279417
0.424348
-0.153787
0.040404
-0.241349
-0.016493
-0.928264
0.280421
-0.856455
-0.635265
0.033057
-0.602898
0.759807
-0.668669
-0.912317
-0.987974
0.769709
-0.874708
-0.214809
-0.390985
-0.934690
-0.838931
-0.233280
-0.305399
-0.546116
0.647358
-0.581211
0.902901
0.376639
0.985818
-0.422312
0.676470
0.204103
-0.566432
-0.341008
0.011897
0.812808
0.100538
-0.280870
0.720290
-0.488595
0.241947
0.326702
0.996594
-0.117803
-0.930655
0.186452
0.786860
-0.910443
0.438900
-0.726962
-0.926042
-0.764573
0.067791
-0.803761
0.000702
0.845763
0.989630
0.458006
0.660382
0.444297
0.015954
0.136704
0.518173
0.629679
0.166061
0.539401
0.056827
0.497352
0.609331
-0.660601
-0.043716
0.264300
0.572380
0.973484
0.613147
-0.226501
-0.366340
-0.296972
0.833804
0.012950
-0.674064
0.787292
-0.900330
0.506599
0.096222
0.559481
-0.224456
-0.376702
0.348614
-0.777291
-0.514218
0.788183
0.257542
-0.071112
0.527299
-0.441515
-0.586386
0.903128
0.315790
0.791162
0.722016
-0.337673
-0.438350
0.521299
-0.104805
-0.855113
0.267899
0.208989
-0.797733
0.737512
0.036861
-0.657179
0.881644
0.883795
0.701414
-0.688465
-0.635415
0.124472
-0.713677
-0.991897
-0.726630
0.172914
-0.022907
-0.213075
-0.930429
-0.421081
0.968814
-0.336250
0.132868
0.689780
-0.531269
-0.661540
0.206844
0.388638
-0.747264
0.775871
-0.076202
-0.954239
0.221160
0.320533
0.302501
-0.610672
0.444656
0.032427
0.919357
0.339690
-0.180794
0.529862
0.939854
0.030044
0.181933
0.239363
0.031343
-0.802664
0.626615
-0.437689
-0.740119
0.771074
-0.772160
0.622671
0.619634
0.754081
0.848102
0.332224
0.616751
-0.589083
-0.154882
-0.261820
0.242896
-0.087065
0.319208
0.958020
-0.204247
-0.147346
-0.484463
0.843531
-0.416492
0.931327
0.552645
-0.027922
-0.272484
0.485329
-0.028360
0.293177
0.524019
0.657173
0.573592
-0.797655
-0.019883
0.830116
-0.360380
-0.594476
0.423004
-0.637039
0.594984
0.323909
0.408419
-0.445801
0.107509
-0.440078
0.722102
0.044703
0.889708
-0.747034
0.194058
0.473875
-0.497308
-0.266305
-0.056713
-0.799173
0.292796
0.588021
-0.064093
0.193248
-0.064025
0.825337
0.739956
0.231850
0.570963
0.993223
-0.190696
-0.764206
0.680318
-0.144568
-0.513752
0.999538
0.237084
-0.290101
0.679130
-0.361494
0.537858
0.429429
0.742823
0.678942
-0.828864
-0.281106
0.012788
-0.574026
-0.996187
0.909554
0.232120
-0.270377
0.842661
-0.796993
-0.923674
-0.159186
-0.041260
0.777023
0.307209
-0.207956
-0.871857
0.139345
0.772179
-0.113559
0.314292
0.677832
0.289616
0.582364
0.005732
-0.698991
0.408199
-0.545526
-0.174580
-0.097211
0.677841
0.769144
-0.314962
0.802000
-0.170256
0.074516
0.065433
0.493972
-0.811578
0.700721
0.189538
-0.427795
-0.244986
-0.443900
0.395558
0.711848
-0.335802
0.445480
-0.691474
0.874095
0.482011
-0.700791
0.154337
0.535104
0.648731
-0.254494
0.760841
0.115827
0.226554
0.426104
-0.676238
-0.653954
-0.645050
-0.168992
-0.162059
-0.666425
-0.713302
0.990946
0.648393
-0.141382
0.187178
-0.400927
0.687505
0.075991
0.776123
0.493535
0.026179
0.223022
-0.968351
0.968830
-0.033643
0.359905
-0.817319
-0.475310
0.294009
-0.197976
-0.625558
0.756859
-0.964950
-0.163125
0.358298
-0.617578
-0.164863
-0.176275
0.541540
-0.692508
-0.246039
0.323384
-0.118962
-0.876418
-0.341304
-0.590631
0.548288
0.014101
-0.034316
0.836249
-0.927480
-0.200569
-0.051809
0.442999
-0.562621
-0.254393
-0.935648
0.759445
-0.605715
0.385510
-0.479081
-0.659804
0.227693
0.250483
-0.979483
-0.293515
0.218406
-0.328490
0.644792
-0.717237
-0.574962
0.898770
-0.553872
-0.923095
0.380920
0.316857
-0.872811
0.765307
-0.568072
0.676283
0.053410
0.137577
0.584288
-0.206663
0.776036
0.351587
-0.597278
0.231418
0.217627
0.651118
0.708812
0.417962
-0.443413
-0.487396
-0.657798
0.101718
0.733793
-0.811671
0.657596
0.350145
-0.107995
-0.667688
0.206565
0.630202
0.706353
0.419467
0.223908
0.001844
-0.096584
0.582350
0.685241
-0.230248
-0.926082
-0.120167
0.779138
-0.148542
0.614336
-0.262274
-0.569917
-0.063483
-0.486516
0.712429
-0.127605
-0.553507
-0.992692
-0.835571
0.713001
-0.568402
-0.637295
0.325798
-0.148372
0.319538
-0.449579
-0.887699
0.531227
0.114544
-0.356336
0.639752
-0.656788
-0.081390
-0.606767
-0.292468
-0.887171
-0.675171
-0.393503
-0.789948
0.643363
-0.771860
0.780230
0.673579
-0.368484
0.069970
0.377949
0.591447
-0.757872
0.926276
-0.200031
0.923649
-0.473642
-0.372835
0.362397
0.184410
0.432822
0.983748
0.199089
0.907444
-0.344187
0.838107
0.942407
-0.765500
0.229580
0.562298
0.108903
-0.779808
-0.470307
-0.656414
0.235281
0.377857
0.141747
-0.165831
0.779771
0.211330
-0.430762
0.314751
-0.057613
-0.695860
-0.274190
0.636443
-0.776171
-0.948587
-0.152324
-0.005721
0.459772
-0.444072
-0.727867
-0.271883
0.944901
-0.568240
0.947392
-0.522947
-0.252065
0.327464
0.200635
-0.178341
-0.747749
-0.028077
0.994428
-0.383360
-0.875637
-0.877087
-0.095833
-0.378749
-0.784673
-0.528342
-0.170103
0.437926
0.210067
-0.808173
0.756418
-0.834181
0.025902
-0.967564
-0.118076
-0.010443
-0.467296
-0.134016
0.246925
0.865659
0.157861
0.262353
0.773287
0.832510
-0.960201
-0.278070
-0.592949
-0.736221
-0.253133
0.523823
-0.832958
0.291378
-0.715935
0.680207
-0.822696
0.589095
0.334784
-0.376582
0.323728
0.386121
-0.552874
-0.963045
0.552939
0.342984
-0.939367
0.024293
0.135573
0.874774
-0.552329
0.984870
0.289574
-0.502998
0.191528
-0.216689
-0.691495
0.416933
0.057278
-0.545001
0.220063
0.212900
-0.988128
0.416295
0.986451
-0.360326
-0.462574
-0.254155
-0.784169
0.258547
-0.282051
0.160746
-0.261806
0.170371
-0.053093
-0.347251
0.405385
0.261791
0.197551
-0.839312
-0.909045
-0.830075
-0.342463
-0.491159
-0.029070
0.664457
0.304910
-0.221000
0.465572
0.961257
0.907566
0.078275
0.672189
-0.352239
0.691440
-0.093887
-0.938802
0.297961
0.513398
0.678824
0.140859
0.337248
-0.381004
-0.758118
0.709804
0.517139
-0.907674
0.970800
-0.432092
-0.520781
-0.280344
-0.365916
0.826475
-0.476539
0.300301
0.082310
-0.525164
0.515947
0.933844
0.529529
-0.422366
-0.637862
-0.454768
0.281189
0.236700
0.875777
0.633870
-0.573027
0.172256
-0.783934
0.578831
0.308134
0.790574
0.732130
0.708957
-0.085125
0.241696
-0.769868
-0.506704
0.404590
-0.851272
-0.053047
0.465095
0.416018
0.732451
0.219085
0.637636
-0.768367
-0.450514
0.040466
0.021214
0.062526
-0.566623
-0.032882
0.195227
-0.877470
0.190742
-0.728126
-0.535893
0.528496
-0.902459
0.414354
0.845272
0.905925
0.324704
0.415058
0.520041
-0.050537
-0.355716
-1.001679
-0.791502
-0.734722
0.933523
0.232777
-0.159836
-0.706063
0.427283
-0.346745
-0.967164
-0.546693
-0.917933
-0.367198
0.596120
-0.629023
0.572787
-0.910092
-0.456896
-0.298119
-0.481260
-0.357250
-0.178272
-0.945368
-0.896189
-0.626688
-0.767780
-0.484807
-0.045775
0.087434
0.589080
-0.936909
-0.435579
0.348302
0.743010
0.851573
-0.714615
0.209418
-0.494010
-0.278437
0.884954
-0.881845
0.138772
-0.204582
-0.645982
-0.475519
-0.178381
0.908629
0.899821
0.736161
-0.758524
-0.088370
-0.990389
0.414111
0.410589
0.116235
-0.804901
-0.587476
-0.553295
-0.632358
-0.300888
0.382201
0.788002
0.712560
0.665343
0.036750
-0.038981
0.142345
0.552468
-0.248043
0.711299
0.187668
-0.925067
0.029723
-0.126095
-0.676196
0.990232
0.136630
0.415414
0.986693
0.593147
0.789506
-0.519613
0.706461
-0.130404
0.157410
-0.312184
-0.575758
0.075677
0.475860
-0.478381
0.603223
-0.555653
0.833718
0.216972
-0.844834
-0.470312
-0.749939
-0.906848
-0.723379
0.709094
-0.268294
-0.093958
-0.048497
0.808183
0.745484
-0.338391
-0.057445
-0.512993
-0.034305
-0.095060
-0.624893
-0.150604
-0.063614
0.026801
0.001571
-0.045952
-0.379937
-0.928014
0.962091
0.701923
0.234760
0.105963
0.639895
-0.239522
0.881973
0.448999
0.289562
-0.183206
-0.667204
0.729880
0.422463
-0.117131
0.655067
-0.287404
0.574858
0.762275
0.557658
-0.997075
-0.055924
0.276720
-0.602359
-0.013265
0.487680
0.335751
-0.253764
-0.985986
-0.894692
-0.415396
0.236018
0.443022
-0.621208
-0.097315
0.022730
0.690120
-0.906064
-0.438398
0.220358
-0.109802
-0.108424
-0.116906
0.648915
-0.390316
-0.261650
0.661385
0.348493
-0.638546
-0.561923
-0.799251
-0.978579
0.642681
-0.033817
-0.302865
0.219744
-0.109648
0.561855
0.248826
0.329346
-0.200228
0.760055
-0.526970
-0.587555
0.160201
0.732251
0.493786
-0.942792
0.822637
-0.997798
0.894745
0.103839
-0.835090
0.853146
0.394000
0.031952
-0.061866
0.604361
0.635388
-0.250185
-0.790812
-0.778676
0.827199
-0.515188
0.340491
-0.505741
0.575440
-0.636795
0.538023
0.230725
-0.447351
0.173765
0.535283
-0.531312
0.277549
0.764469
0.081591
0.846740
0.588191
0.530648
-0.300959
0.923407
0.346926
0.552195
-0.268549
0.308231
-0.313920
-0.599890
0.236160
0.468515
0.514551
-0.320802
-0.656960
-0.607319
-0.593546
-0.622091
-0.187465
-0.043013
0.981946
0.885852
-0.729028
0.401646
0.990787
0.065214
-0.757844
-0.983333
-0.540929
0.812970
0.835593
-0.848906
-0.256641
0.941416
-0.398779
0.909217
0.560031
-0.942816
-0.278187
-0.727018
0.360156
-0.363725
-0.158812
-0.233086
0.689326
-0.709074
-0.406128
0.393250
0.389122
-0.528089
1.000025
-0.951805
-0.919554
0.985703
0.854932
-0.472575
-0.239975
0.874643
0.909624
0.259529
0.312632
-0.710661
0.773722
-0.718226
0.539445
-0.480527
-0.025033
0.702180
-0.250259
-0.477732
-0.606802
-0.280096
-0.133039
0.056353
-0.830882
0.227249
0.110108
-0.586721
0.614728
0.292353
-0.183348
-0.387862
-0.574676
0.754000
-0.912670
0.346821
0.978626
-0.363066
-0.927327
0.045820
-0.102228
-0.763454
-0.627679
0.710784
0.943160
0.759066
0.498640
0.612096
0.087325
0.157326
0.647429
-0.031217
-0.763995
-0.346461
-0.569048
-0.917830
0.377836
0.011290
0.977032
-0.842357
-0.250923
-0.666364
-0.871405
0.983800
-0.182225
0.066544
-0.252960
0.115993
0.504618
0.480101
0.603736
-0.004860
-0.427362
0.703193
-0.976866
-0.310250
0.381946
-0.171776
0.972015
-0.935865
-0.383442
-0.434017
0.253376
0.899131
0.623518
-0.725325
0.875895
0.317819
-0.635436
0.578740
-0.284037
0.652700
-0.402415
0.437716
0.523467
-0.027403
0.032161
-0.995018
0.948395
-0.560784
-0.062547
-0.678842
-0.041041
0.849026
0.396404
0.822867
-0.511671
-0.027205
0.182088
-0.679794
0.966252
0.643746
0.056317
-0.710189
-0.769083
0.775679
-0.747517
-0.754178
-0.468085
0.426242
-0.321672
-0.073205
0.777567
-0.882207
-0.767136
-0.045966
0.311499
0.619208
0.616246
-0.027400
-0.625145
-0.554461
-0.286445
-0.910102
-0.673922
0.227438
0.329140
0.111573
0.409935
0.628874
-0.524880
0.374706
-0.788263
0.974060
0.109615
-0.292064
-0.335527
-0.219278
-0.107132
0.304447
-0.736155
0.311910
0.661863
0.432244
-0.885054
0.111888
0.063763
-0.887222
0.148500
0.897216
0.294651
-0.900287
0.625013
-0.154862
-0.033659
0.067688
-0.640882
0.348468
0.032753
0.380315
-0.271922
-0.564824
0.315573
-0.131146
0.207251
0.427490
-0.069074
-0.144806
-0.537953
0.860956
-0.598802
-0.290453
0.904438
0.175062
-0.873156
-0.194695
-0.607547
0.168187
0.832707
0.753536
0.030931
-0.005999
0.440634
0.535648
-0.267343
0.950963
0.075724
0.510770
0.905735
-0.904439
0.985601
0.134393
0.075217
-0.121112
-0.473132
-0.421512
-0.633819
-0.419087
0.439542
-0.636952
-0.094241
-0.324099
-0.221510
0.856694
0.005958
-0.115688
0.708853
0.537989
-0.961905
-0.035248
0.104835
0.913760
-0.337186
-0.051372
-0.454496
-0.621789
0.788096
0.414906
-0.891448
-0.317409
0.679222
-0.936983
0.791724
-0.300229
-0.297992
-0.145250
0.883337
-0.866359
-0.835550
-0.171773
-0.550100
0.978677
0.201958
-0.236749
-0.675528
-0.363244
-0.848450
0.905848
-0.287796
0.164043
0.354769
-0.401374
0.887052
0.567348
-0.067164
-0.712866
-0.376999
0.358854
0.448889
-0.294049
-0.994443
-0.694731
0.366860
-0.006794
-0.961659
-0.344585
-0.721661
0.212543
0.199395
-0.037322
0.913077
-0.266243
0.247697
-0.709803
0.109189
-0.758725
0.288434
0.881381
-0.278697
0.053806
-0.146127
0.267832
0.633999
-0.001922
0.930179
-0.717944
0.193168
-0.103236
0.685769
-0.036430
-0.885741
0.931637
0.217361
-0.851064
-0.938866
0.406590
-0.483283
0.411108
-0.965419
-0.705611
0.449565
0.207472
0.855180
-0.893956
-0.617698
0.096777
0.026048
0.903816
0.629287
0.294025
0.190054
0.206805
0.599402
-0.968097
0.169247
0.848775
0.780391
0.194542
-0.479914
0.498598
0.075068
0.838202
0.518866
0.689742
0.382985
0.130776
-0.738852
0.907636
-0.249509
-0.852708
0.978577
-0.355666
-0.109840
-0.773722
0.268680
0.096712
-0.179307
0.428544
0.395257
-0.298327
-0.377966
0.079078
-0.141938
0.562966
-0.342670
0.137656
-0.848289
0.023038
0.093298
0.294106
0.538250
-0.629974
0.638511
-0.419063
-0.585747
-0.974733
0.701895
0.099220
0.568594
-0.705432
-0.641195
0.648542
-0.016863
-0.201205
-0.067680
-0.959729
0.758496
0.004838
-0.055518
0.766822
0.065863
0.812763
-0.429567
-0.842076
-0.087906
-0.523332
-0.300204
-0.746046
-0.415061
0.588432
0.892881
0.893742
0.891421
0.989954
-0.782152
0.796608
-0.016118
0.033014
-0.569274
0.078002
-0.593068
-0.704971
-0.007873
0.733512
0.716587
0.535734
-0.528974
-0.324141
-0.085409
0.051105
-0.665507
-0.228475
-0.333907
0.613333
-0.831237
-0.142899
-0.157329
0.619802
-0.543949
-0.826089
-0.156041
-0.190582
-0.039835
-0.655527
0.292106
0.762839
0.798469
-0.816432
0.294689
-0.696557
-0.974991
0.252402
0.736843
-0.492622
0.612317
0.931930
-0.174824
0.761998
0.737908
-0.638725
-0.137575
-0.199740
0.945864
0.823983
-0.837458
0.155700
0.809500
-0.572926
-0.364559
0.447679
0.578474
0.966486
-0.018077
0.241737
0.650298
-0.013872
-0.834739
0.929904
-0.114881
-0.585438
0.039684
-0.694827
0.653261
-0.673185
0.980302
0.035754
-0.740214
-0.801842
-0.865586
0.026697
0.562018
0.650104
-0.255346
-0.398827
-0.361105
0.020152
-0.348353
-0.118970
-0.642844
-0.544815
-0.137982
0.421270
-0.085018
0.378163
0.667772
0.458694
0.431344
0.981916
-0.640687
0.532875
-0.266402
-0.077955
0.913254
0.866670
-0.545987
0.110095
-0.273022
-0.463554
-0.679940
-0.516596
-0.327118
0.957826
0.774901
0.782937
-0.641630
0.365589
0.739664
0.702791
0.313423
0.499047
-0.751450
0.418348
-0.153454
0.164407
-0.515067
0.945096
0.044248
-0.402764
0.250056
0.859147
-0.909096
0.312345
0.477755
0.865057
-0.844201
0.833963
-0.901807
-0.898459
-0.848745
-0.260215
-0.372393
-0.318832
0.075131
-0.487550
-0.082922
-0.324276
-0.365820
-0.627592
-0.337950
0.028403
-0.296085
0.355822
-0.716379
-0.346903
-0.842570
0.242031
0.121728
-0.062301
-0.560337
0.882596
0.778936
0.433958
0.142574
0.541619
-0.548949
0.935962
1.002172
0.784225
0.932752
0.278453
-0.562594
-0.253562
0.508493
0.745998
0.163325
-0.345675
0.499357
-0.014299
0.788879
0.445075
0.303907
0.851212
-0.809714
-0.263605
-0.441848
0.841875
-0.011172
-0.205309
0.850593
-0.592608
0.570407
-0.011613
-0.073955
-0.364900
-0.067967
0.821727
-0.278515
0.536536
0.542863
0.249096
0.632544
-0.158003
0.638512
-0.938345
0.474778
0.084657
0.584556
0.137046
-0.568084
0.583840
-0.793817
-0.564967
0.862631
-0.757252
-0.587290
0.788436
0.504323
-0.773330
0.614466
-0.009839
0.129086
0.299277
0.577555
-0.398549
0.535775
-0.088881
-0.337577
-0.666115
-0.847654
0.639619
-0.812608
-0.194895
0.650524
0.174516
0.038719
-0.041668
-0.683051
0.903026
-0.484246
0.177373
-0.757132
-0.841672
-0.115882
-0.084050
0.263449
0.318638
0.497399
-0.811827
0.389072
0.181513
0.457078
-0.112426
-0.039653
-0.423195
0.025085
-0.649451
0.337842
-0.695171
-0.499041
-0.866753
0.057932
-0.806746
0.238158
0.549777
0.016336
0.445233
0.183542
0.322643
-0.305374
-0.141180
-0.410892
0.047615
-0.180040
-0.243513
0.882727
-0.454265
-0.168224
0.279310
-0.278676
0.407376
0.939854
-0.744554
0.043347
0.181213
-0.450086
-0.160372
0.192239
-0.774268
0.379989
-0.809429
-0.822573
-0.231237
0.779109
0.947861
0.899269
-0.079705
-0.224725
-0.795486
0.863276
-0.091712
-0.554434
-0.646848
0.936423
0.116665
0.921014
-0.437033
-0.902364
0.713558
0.583616
-0.743566
0.326337
-0.195463
-0.599182
0.522990
-0.386316
0.665692
0.105744
-0.720511
-0.866131
-0.611845
0.772178
0.963148
0.871824
0.640005
-0.267061
0.994727
-0.703643
-0.935161
0.288041
-0.550264
-0.498921
-0.207129
-0.541385
0.576980
-0.278114
0.782824
0.687883
0.876788
0.547983
-0.927074
0.616272
-0.872011
-0.348098
0.426132
-0.226112
0.918651
0.895122
-0.866893
-0.320120
-0.083748
0.209207
-0.262425
0.886468
0.256469
-0.850705
-0.199787
0.647362
0.534567
-0.047166
0.535712
-0.082862
0.529614
0.632379
-0.009358
-0.765164
0.168433
-0.649196
0.558924
0.124416
-0.498019
0.716141
0.851827
-0.046165
0.405181
0.766362
0.574987
0.310203
-0.717869
0.424672
0.110120
-0.326026
-0.599127
-0.826077
-0.833170
-0.472587
0.651567
-0.904588
-0.370035
0.574184
-0.673508
-0.775861
0.143352
0.967501
0.602355
0.684545
0.204320
0.885692
-0.435084
-0.707668
0.443991
-0.379064
0.013277
-0.975881
0.274721
0.697662
0.546321
0.496124
0.124158
0.757578
-0.518737
0.835913
-0.054302
-0.991422
-0.869114
-0.529552
0.731362
-0.858469
-0.635594
0.784736
0.267699
-0.574630
0.452249
-0.276706
0.630401
0.780382
-0.303826
-0.491746
0.249247
-0.010039
-0.308579
0.556306
0.018492
-0.106129
0.208988
-0.447249
0.978887
-0.043818
-0.584856
-0.194803
0.741777
-0.870839
0.433656
0.005237
-0.389211
-0.860815
0.769975
0.295773
0.393681
-0.759393
-0.465804
-0.705513
-0.667003
0.672223
0.490200
0.074189
-0.335212
-0.407870
0.227077
-0.862076
0.324419
0.935660
-0.374512
0.391192
-0.633397
-0.944383
-0.728011
-0.143555
0.570462
-0.224718
0.054742
0.307641
0.558210
0.610315
-0.553802
0.017736
-0.489616
0.505609
0.124389
0.114486
-0.885447
-0.357255
0.450821
-0.134414
-0.540042
0.673934
0.951251
0.925160
-0.233913
-0.943780
-0.061585
-0.921891
0.535336
0.625915
0.535112
-0.645686
0.181921
-0.767476
-0.470334
-0.766500
0.624532
-0.686863
0.865895
0.683086
0.598508
0.114343
-0.098295
0.527235
-0.158464
-0.625286
-0.069036
0.837688
-0.387312
0.615603
0.557360
0.810906
-0.242662
0.168387
0.810576
0.128130
0.233244
0.772865
-0.328594
0.346075
-0.935836
-0.463246
-0.947158
-0.578534
-0.932921
0.253969
0.785144
0.305087
-0.490377
-0.892292
0.851169
-0.489725
-0.164683
-0.982603
-0.730657
-0.272229
-0.119144
0.720092
-0.517145
-0.338977
0.000608
-0.940253
0.447529
-1.004811
0.524610
-0.286053
-0.896125
-0.221661
0.157934
0.447657
0.805096
-0.508081
0.139716
0.630342
0.490544
-0.151797
0.461143
-0.295293
0.238040
0.723586
0.379409
-0.017689
-0.727860
-0.608978
-0.383776
-0.024380
-0.794973
-0.429208
-0.239853
0.716767
-0.587632
-0.318949
-0.367366
0.280089
0.563379
-0.674437
0.669914
-0.189591
-0.497732
-0.206786
0.141476
0.391806
0.585116
-0.711259
0.890649
0.144637
-0.975958
-0.249883
0.410504
0.495076
-0.119585
0.848330
0.195305
0.351733
-0.174612
-0.885023
-0.390176
0.917971
-0.444955
-0.540957
0.354709
-0.501337
0.908003
-0.293946
-0.374426
0.215338
0.638507
-0.845005
-0.459309
-0.477746
0.027299
-0.714813
0.646324
-0.908882
0.860596
0.423259
0.121620
-0.088635
-0.170126
0.449719
-0.095419
-0.127324
-0.849520
0.452661
-0.497836
-0.432550
0.919459
0.389085
-0.784134
-0.530740
-0.108947
-0.569039
0.010521
-0.975673
0.788744
0.265968
-0.804577
0.367572
-0.276483
-0.684660
-0.849588
0.991708
0.424813
-0.671830
0.806217
0.262373
0.855883
-0.162811
0.568347
0.294321
-0.727815
-0.348831
-0.062843
0.759219
-0.140520
-0.453477
-0.823575
-0.413521
0.346555
-0.532157
-0.879800
-0.960970
-0.935485
0.521253
0.705448
-0.601449
-0.247874
-0.352114
-0.819712
-0.487177
-0.323352
-0.037103
-0.031461
0.183386
0.294509
-0.022068
0.518030
-0.337898
0.094192
-0.741228
0.523234
-0.183491
-0.574333
-0.032529
-0.766922
-0.169099
0.826418
0.631503
-0.602081
0.146478
0.319227
-0.689601
-0.131528
-0.572766
-0.496292
-0.386934
-0.515937
-0.464607
-0.139307
-0.638561
0.379425
-0.412724
-0.233512
-0.674975
0.951049
-0.403526
-0.414507
0.471132
-0.361580
-0.648889
-0.565355
-0.077126
-0.619917
0.916285
0.655278
-0.379259
-0.480273
-0.569121
0.984975
0.254508
-0.988009
-0.226551
0.751090
0.399491
0.348271
0.952269
-0.033254
-0.478357
0.458262
-0.022676
0.110359
-0.587667
-0.564202
-0.266234
0.041139
-0.157992
-0.406580
-0.522220
-0.437287
-0.655586
-0.011853
-0.857927
0.870684
-0.087860
-0.669021
0.338717
0.372054
-0.896412
-0.973790
-0.981916
0.584670
0.328789
0.156998
-0.339436
-0.499976
-0.519085
0.302311
-0.510745
-0.112838
-0.622869
0.074308
0.838705
-0.290053
-0.896591
-0.926365
0.945105
0.558453
0.271325
-0.170244
-0.828913
0.468384
-0.915820
0.297343
0.357160
0.283615
0.895826
-0.397434
0.790079
0.958651
0.875242
0.884759
0.083451
-0.868097
0.118019
0.633676
-0.186483
0.069641
0.839681
0.014201
-0.711175
0.364168
0.802088
-0.047686
0.317778
0.087735
-0.507223
-0.214747
-0.071890
-0.790014
-0.090854
-0.950998
-0.231495
0.130924
-0.579584
-0.692094
-0.777757
-0.288160
-0.847996
0.913335
0.814622
-0.640265
0.789991
-0.463423
-0.448474
0.823409
0.756434
-0.527553
0.147080
-0.385504
-0.023348
-0.646543
-0.911051
-0.723062
0.699376
0.612241
-0.538296
-0.505898
-0.353830
0.949702
-0.355034
0.205296
0.419668
0.856362
-0.631001
-0.262225
-0.617891
0.816489
-0.495523
0.553826
-0.786867
-0.336180
-0.976841
0.054856
-0.978082
0.195878
0.781908
-0.750984
-0.194206
0.530832
-0.953990
0.755431
-0.504802
0.856015
-0.570818
-0.546229
-0.003492
0.684146
0.413408
-0.226412
0.560792
-0.860942
-0.593644
-0.350670
-0.429624
-0.146872
-0.567043
-0.531775
0.704054
0.024128
0.448944
0.466096
-0.586174
-0.203635
0.956275
0.621891
0.463922
0.401674
-0.589207
-0.945356
-0.378991
0.792340
0.829528
0.703556
-0.601576
-0.246171
0.619396
0.978253
0.489950
-0.406691
0.729655
-0.770656
0.828140
0.085603
0.377973
0.009644
-0.055395
0.135731
-0.603283
-0.234693
-0.956950
-0.206274
-0.045613
-0.341470
0.635525
-0.934988
0.035108
0.897851
-0.192102
-0.779423
0.870166
-0.958540
-0.454291
0.461029
0.716495
-0.141131
-0.335938
0.082556
-0.864791
0.879013
0.031542
-0.841127
-0.391221
0.522238
-0.786013
-0.130061
-0.344514
0.091559
0.124846
0.229383
0.920562
0.345505
0.644233
-0.323754
0.053697
-0.697245
0.468178
0.894580
0.040396
-0.954943
-0.453360
0.631978
-0.859782
-0.719386
0.602083
-0.861404
0.168629
-0.345785
0.814843
0.524168
-0.362054
-0.577706
-0.637877
-0.120841
0.326546
0.979967
0.866241
-0.393861
-0.611885
-0.172039
-0.835873
0.388304
-0.085721
0.722368
-0.704784
-0.366178
-0.239138
-0.529574
0.050395
0.619213
-0.165834
-0.511860
-0.744344
0.994827
0.712188
-0.169127
0.015161
0.136429
0.106639
-0.403232
0.355293
-0.276559
-0.831954
-0.853075
0.556298
-0.876003
0.527130
-0.589165
-0.246363
-0.897018
-0.092180
0.501553
-0.741539
-0.650182
0.417261
0.479482
0.107880
0.439286
-0.962666
0.192838
0.490947
0.447736
0.265061
-0.896198
0.371657
0.216699
0.268621
0.115937
0.116026
0.433328
-0.506033
0.022227
-0.937764
0.340917
0.215262
-0.350161
-0.331517
0.131849
0.572692
0.879879
-0.426091
0.335386
-0.778931
-0.297902
-0.397196
0.977465
0.187419
-0.837303
-0.596782
0.063612
0.714204
-0.357778
-0.858137
0.590242
-0.138794
0.781629
-0.839703
-0.141337
-0.709093
0.459903
-0.874305
0.113131
0.161544
-0.073238
-0.061858
-0.772226
-0.405591
0.151117
-0.221489
-0.052119
0.704618
0.304034
0.029288
-0.995958
-0.085284
0.941890
0.032919
0.397639
0.172344
0.143170
0.160090
-0.882312
0.694848
-0.354689
0.918141
0.637670
0.779084
-0.379426
0.854747
0.861132
0.727826
-0.771006
-0.350914
0.432098
-0.579471
0.734574
-0.386628
0.807619
-0.822149
0.279700
-0.334705
-0.695801
0.509883
0.608743
-0.719778
0.742948
0.552120
0.881207
-0.803046
0.713730
0.500059
-0.909466
-0.116352
-0.423742
-0.793377
0.728093
-0.022157
0.443142
-0.946903
0.364884
0.689061
-0.281871
-0.794049
0.808422
0.832605
-0.396172
0.282146
0.243697
-0.203715
0.891485
-0.921047
0.870418
0.894964
0.345351
-0.237056
0.475759
0.227492
0.564051
0.321344
0.182577
0.174849
-0.984857
-0.575461
0.689172
0.816029
0.641325
0.351220
0.672866
0.108593
0.325465
0.472518
0.326471
0.963544
-0.938555
-0.063659
0.368400
0.582686
0.783358
-0.943686
-0.455337
-0.954365
-0.231988
0.804172
0.172668
-0.417140
-0.543784
-0.065412
-0.430941
-0.118955
-0.356218
-0.800626
0.809201
-0.693377
0.758953
-0.262514
0.898021
-0.116348
-0.406932
0.688414
-0.107206
0.846745
-0.202802
0.308163
-0.200673
-0.155079
0.366510
-0.375135
0.996715
0.593708
0.183536
0.798689
0.163167
-0.867686
-0.244486
-0.985265
0.749670
-0.324881
-0.218912
-0.265873
-0.307816
-0.565309
-0.078767
-0.892166
-0.187443
-0.463086
-0.441681
0.030274
0.882702
0.050247
-0.202892
0.591678
-0.050950
0.263965
-0.940927
0.569914
-0.495724
-0.300970
0.041412
0.284833
-0.435860
0.657123
-0.260992
0.887594
0.594746
0.905326
0.104589
-0.716393
-0.490789
0.124503
-0.929226
-0.505589
0.969281
0.979490
-0.466437
0.748768
-0.938281
-0.022497
0.130306
-0.841704
-0.391443
0.564537
-0.834579
0.369372
-0.276915
0.975150
-0.403545
-0.657835
0.139892
0.909302
-0.931852
-0.363115
-0.043280
-0.944940
0.478214
0.139126
-0.652146
0.743734
-0.649193
-0.703339
-0.146295
0.485571
0.920286
0.753780
-0.761693
-0.419526
0.870754
-0.077103
-0.083002
-0.716687
0.859876
0.518979
-0.072751
0.399255
0.725618
0.072076
0.768521
0.176093
0.045637
-0.720830
0.195400
-0.825633
-0.041837
0.819218
0.917199
-0.942731
0.948753
-0.472251
0.572769
-0.845280
0.267854
-0.724712
0.110792
-0.653569
0.280444
-0.761373
0.473645
-0.448228
-0.333874
-0.738747
0.733466
0.848433
0.985136
0.831015
-0.470235
-0.628881
-0.305697
-0.356166
0.484682
0.234916
-0.346910
0.711435
-0.426084
-0.470730
0.811203
-0.587640
0.988914
0.633468
0.132025
0.170804
-0.554567
0.238676
-0.873710
-0.279858
0.137359
-0.038559
-0.471090
-0.560127
-0.687985
0.496825
-0.397751
0.337592
-0.310555
0.743385
0.996319
-0.289497
-0.531294
0.142892
-0.432543
0.031984
0.815655
-0.512289
-0.689934
-0.774418
0.473676
-0.616598
0.521485
-0.303572
0.711674
0.941858
0.670764
-0.869890
-0.609131
0.165408
0.327476
-0.900104
-0.895192
0.711241
0.647354
-0.624662
-0.465603
0.404233
-0.899145
-0.905681
-0.707937
0.054004
0.096654
-0.303031
0.488864
0.247323
0.856876
-0.174805
0.887587
0.566292
-0.999947
-0.230539
0.548013
0.664628
-0.621664
-0.209280
0.556815
-0.798877
-0.563208
0.885099
-0.139558
0.278589
-0.702552
-0.785557
0.695363
0.784272
0.590124
-0.431062
0.021449
0.085086
-0.931766
0.619198
-0.473975
0.561938
0.871084
-0.848663
0.559678
-0.771695
0.485616
-0.303572
-0.507030
-0.056006
0.465211
-0.823318
0.171313
-0.511251
0.928346
0.664581
-0.941294
0.560218
0.705760
0.830525
-0.366001
0.775495
0.232521
0.753886
-0.952618
-0.833857
-0.217037
-0.852450
0.615572
0.367252
-0.743246
-0.595202
-0.190564
-0.042229
-0.220142
-0.210867
-0.195587
0.699518
0.915755
0.662676
0.078536
-0.870161
-0.056058
-0.001740
0.576939
-0.033864
-0.887988
-0.608972
-0.230364
0.031185
-0.709121
0.171943
-0.517621
0.877069
0.245250
0.705447
-0.796449
0.318030
1.000094
-0.175345
-0.456376
-0.584456
-0.929120
-0.225880
0.289640
-0.643672
0.274156
-0.850226
-0.567515
-0.994848
0.065382
-0.551788
0.726385
0.178136
-0.814452
0.742397
0.663753
-0.143311
-0.732511
0.912997
0.535408
0.621179
-0.621375
-0.343700
-0.555749
-0.737725
0.238155
-0.503755
0.081723
-0.716858
-0.300194
-0.222277
0.556939
-0.575717
-0.475084
0.938549
0.518246
0.343479
-0.822044
0.072816
0.867303
-0.309778
-0.421583
0.916728
-0.402777
-0.700666
-0.781104
0.631721
0.775070
0.320815
-0.663020
0.200319
0.902876
0.989871
-0.653492
-0.317155
-0.452178
-0.361979
0.025550
-0.908092
0.857820
0.012808
0.987788
-0.104608
-0.645741
0.027069
0.582039
-0.006054
0.936507
0.081578
-0.858319
-0.773790
-0.089018
-0.327895
0.392870
-0.883680
0.572577
0.340771
-0.030593
0.927369
0.902673
0.473361
-0.637965
0.311037
0.589438
0.433105
-0.666285
0.432279
-0.758065
0.088393
0.750874
-0.121770
0.789449
0.136054
-0.169716
-0.064434
0.718758
-0.642591
-0.837915
-0.778319
0.123197
-0.522697
0.518361
0.467149
-0.865681
-0.336642
-0.955167
0.632890
-0.681021
-0.679902
-0.963845
0.467069
-0.539623
0.414498
0.617212
-0.620016
-0.123032
0.166579
-0.701342
0.973257
0.915270
0.449006
-0.948500
-0.621004
-0.490409
0.701533
0.491647
-0.118217
-0.029691
0.034188
0.912474
0.043326
-0.597624
0.769795
0.053950
-0.577583
0.203001
-0.185748
-0.241861
0.837832
-0.452309
0.719855
0.034371
-0.387178
-0.624694
0.101927
0.034947
0.515896
-0.941024
0.027616
-0.241229
0.902934
0.366809
-0.157607
0.558385
-0.217364
-0.301098
0.035862
0.935758
0.436926
0.650958
-0.163923
0.570427
0.962767
0.663359
-0.382322
0.377143
0.460571
-0.681687
0.687049
-0.388739
-0.001885
-0.958688
-0.171830
-0.203167
-0.794643
-0.258990
-0.385268
0.190937
0.557288
-0.240053
0.393383
-0.993840
-0.771669
0.166903
-0.473579
0.371101
0.783054
0.800655
-0.255745
0.784787
-0.186971
-0.699789
-0.429133
0.255476
-0.931263
-0.480646
0.063779
-0.239003
0.143475
0.444766
0.496122
-0.213696
0.411581
-0.050911
-0.035193
-0.242741
-0.145752
-0.675242
0.435207
0.989142
0.890254
0.801488
0.205788
-0.592336
-0.529507
0.116305
-0.427750
-0.537574
-0.910348
0.044902
-0.810641
-0.719710
-0.621000
-0.801401
-0.494636
-1.002175
-0.296436
-0.057462
0.714517
-0.530979
-0.915050
0.402998
0.764968
-0.305220
-0.303172
0.299619
0.209785
-0.375834
-0.406279
-0.940569
0.464483
0.028335
-0.585245
0.619252
-0.715416
-0.548585
-0.394337
0.127705
-0.958087
-0.472137
0.714536
0.522283
0.429646
-0.722951
-0.701126
-0.109370
-0.309194
-0.360846
-0.642974
-0.619349
0.125379
0.922887
0.305186
0.830405
0.747794
0.130950
0.623904
0.186474
-0.200350
0.949082
0.157439
-0.327664
0.444060
0.236033
-0.941982
-0.021103
0.089330
-0.181526
0.452111
0.250897
-0.888779
-0.213337
-0.740780
0.245829
-0.844354
-0.219981
0.977997
-0.061774
-0.969262
-0.724129
-0.584859
0.339318
-0.303196
-0.399562
-0.485637
-0.741924
-0.734643
-0.601451
0.324595
0.974214
-0.228200
0.784034
0.860288
0.476864
0.472844
0.198416
-0.241976
-0.250655
-0.987598
-0.711571
0.946632
-0.668591
-0.751058
-0.916683
-0.428056
0.280474
0.156774
0.128644
0.114849
-0.019004
0.671103
-0.406854
-0.006176
0.671723
-0.742139
-0.337304
-0.415344
-0.830470
-0.432181
0.582884
0.591827
0.361142
-0.189775
-0.198218
-0.082137
-0.418045
0.170942
-0.598861
-0.033047
0.671827
0.679304
0.500824
-0.744257
0.130332
-0.102367
0.355245
-0.731869
0.190406
-0.982761
0.390164
-0.635806
-0.789732
0.413071
0.378506
0.847259
-0.997682
0.918154
0.008773
-0.432543
0.787420
-0.305473
-0.783716
-0.054893
-0.725366
-0.919165
-0.796452
-0.531127
-0.997448
0.156292
-0.040576
0.704567
0.388685
-0.289481
0.135897
-0.281727
-0.567567
-0.452431
-0.343579
0.736938
-0.483073
0.135697
-0.583835
0.767465
0.311641
-0.426944
0.198666
-0.253528
0.575710
0.378214
0.609840
-0.784972
0.680635
-0.539886
-0.087063
0.166331
0.775776
0.785314
-0.407085
0.825823
-0.810714
-0.303955
0.428168
-0.637660
-0.339951
-0.849572
0.769232
-0.626351
-0.764225
0.456743
-0.140221
-0.337699
-0.807900
0.844020
-0.004310
-0.847943
-0.314471
-0.612366
0.652221
-0.016033
0.350530
0.193014
0.196170
0.594297
-0.932188
0.025366
-0.772531
-0.319862
0.085695
-0.349353
0.125148
0.340675
0.024279
0.892742
-0.650587
0.819500
0.653540
0.497976
0.630543
-0.408827
-0.463822
-0.007882
0.071491
-0.486366
-0.506076
-0.825159
-0.321821
0.210966
-0.486549
0.354210
0.654934
-0.929550
0.588239
0.475821
-0.614969
0.459536
0.253213
0.629582
0.936553
-0.253748
0.111199
0.284523
0.882972
0.475742
-0.936171
-0.428648
-0.524062
0.299286
-0.663073
0.853114
-0.449605
-0.242461
-0.623238
0.555957
-0.698325
-0.435308
-0.276222
0.982131
0.674004
-0.961490
0.733578
0.927203
-0.003806
-0.471938
-0.401765
-0.286209
0.640507
0.660832
-0.942917
-0.349458
0.172700
-0.866671
0.516788
0.095897
-0.020945
-0.823579
-0.624418
-0.056504
0.538392
-0.500434
0.544625
0.102725
0.913933
0.271388
-0.018367
0.835987
0.664935
-0.745887
-0.614992
-0.416983
0.804533
0.994911
0.062287
-0.891435
-0.081760
-0.625443
0.162945
0.391257
-0.327657
-0.691563
0.040387
0.121212
0.062245
0.894577
0.582681
0.530260
-0.114455
-0.218983
-0.622844
-0.711817
0.028408
-0.094303
-0.561265
0.200409
0.484383
-0.400754
0.033275
0.671792
-0.974854
0.608607
0.797786
-0.730398
0.826173
-0.098764
0.408714
-0.867718
-0.659849
0.441871
0.563240
0.304867
0.924072
-0.325686
-0.315612
-0.370573
0.439795
-0.020807
-0.453514
-0.562244
0.507908
-0.615606
-0.407535
-0.006999
0.444600
0.886148
-0.142715
0.112089
-0.351685
-0.708597
-0.201637
0.725974
0.642967
-0.041706
-0.297472
0.397773
-0.630972
0.762623
0.193184
-0.961137
0.755901
0.949427
-0.023455
-0.109509
0.874553
-0.638720
0.267746
0.932379
0.371350
-0.673494
-0.041073
-0.082427
-0.806217
0.316516
-0.425470
0.619738
0.124178
0.983644
-0.621745
0.378914
-0.762892
-0.318131
-0.543623
0.857868
0.421963
-0.344641
0.220808
0.820084
-0.840220
0.016856
0.673499
0.016722
0.317179
-0.367536
-0.754583
0.353414
0.591805
-0.983150
-0.957354
0.158554
0.855250
0.005792
0.483170
0.666511
0.029433
0.738651
0.572741
-0.918328
0.578237
-0.933175
-0.117103
0.203855
0.444072
0.713988
-0.680647
0.957776
-0.042441
0.800814
-0.470027
0.903280
0.031473
-0.713091
0.434629
0.622155
-0.144679
0.716878
-0.264608
0.772144
0.778171
-0.573716
0.534628
0.187177
0.709225
-0.856156
-0.890522
-0.108811
0.676970
-0.318416
0.980620
0.192470
-0.478097
-0.418262
-0.501197
-0.264322
0.188920
-0.849888
0.089628
0.307633
-0.552739
0.317712
-0.558943
0.130935
0.759955
0.616458
-0.288765
0.195440
-0.230439
0.838903
-0.187718
-0.373340
0.993273
0.757421
0.823108
-0.737925
-0.672922
0.795939
0.761424
0.324465
-0.851132
-0.933389
0.832848
0.829136
-0.079204
0.937224
0.350366
-0.021433
0.944670
0.707633
0.537335
-0.901611
-0.781685
0.165236
0.368655
-0.819759
-0.335985
-0.839237
0.914355
-0.566732
0.072336
0.135583
-0.316297
-0.840223
0.736761
0.520060
-0.300367
-0.270320
0.955068
-0.151797
-0.963324
-0.373458
0.796836
0.320445
-0.552704
-0.732544
0.805071
0.287075
0.343035
-0.326490
0.792865
-0.970179
-0.496439
-0.461069
-0.380931
-0.639980
0.984921
0.141584
0.443267
0.595744
-0.415525
0.037257
-0.102908
0.523406
0.599091
-0.924122
0.967754
-0.153197
0.519179
0.908225
0.102635
-0.213128
-0.905771
0.176717
0.346611
0.026755
0.353959
-0.951576
-0.812129
0.750286
-0.643595
0.667263
0.006964
0.800029
-0.999014
-0.357394
-0.340545
0.030187
-0.243855
-0.151384
0.394165
-0.084072
-0.777512
-0.620051
0.336114
-0.751082
0.352630
0.912441
-0.693752
0.474357
0.926095
0.940336
-0.740278
0.111690
-0.576371
-0.399074
-0.818849
0.788827
-0.108142
0.978112
-0.327520
-0.596547
0.601666
0.466119
-0.195481
0.851156
0.215077
0.765817
0.403514
0.340867
0.656970
0.301158
0.668903
0.899913
0.932667
0.450316
0.889943
0.605870
-0.150287
-0.458608
-0.830950
-0.800576
0.696203
-0.334596
-0.067856
0.133761
0.793699
0.287884
0.971479
-0.842536
-0.816474
-0.165911
-0.882325
0.870771
-0.727556
0.880915
0.371772
-0.611080
0.318683
0.765993
-0.926059
-0.243595
0.431701
0.561575
-0.207952
0.494955
0.870206
-0.577976
-0.412210
0.243552
-0.256344
-0.160819
-0.869817
-0.146769
0.648398
-0.932255
-0.977309
-0.766625
-0.646123
-0.736803
-0.004554
-0.573434
-0.590466
0.353107
0.467542
0.620781
-0.645080
0.171273
0.706947
0.685808
-0.172808
-0.581327
-0.747551
-0.298989
0.890201
-0.346272
-0.821054
-0.547577
0.533188
-0.105531
-0.027209
0.786640
-0.697237
-0.301199
-0.632444
0.049116
-0.682528
-0.464847
0.249238
-0.628111
-0.856557
-0.814248
0.574665
-0.825127
-0.707344
-0.005571
0.073306
0.565263
-0.600948
0.157373
-0.041111
-0.929764
0.277919
0.821961
0.888914
-0.470425
0.275053
0.661052
0.234559
0.984117
0.384892
0.174044
-0.814991
0.199242
-0.559808
-0.954767
0.580078
-0.075079
0.100058
-0.296638
0.982337
-0.267971
0.798382
-0.570276
-0.503554
0.746515
-0.587315
0.113230
-0.375053
0.738645
0.889759
0.788506
0.603814
-0.917985
-0.322443
-0.470147
-0.805902
-0.838066
-0.080829
0.743584
0.625025
-0.233706
-0.139386
0.930788
0.699864
-0.248896
-0.850052
-0.906015
0.587774
-0.363185
-0.098717
-0.110926
-0.979655
0.567407
-0.555618
-0.344268
0.981765
-0.864891
-0.947589
-0.185679
0.014416
-0.944364
0.562816
0.471870
-0.898147
-0.456678
-0.347476
0.786212
-0.981115
0.242064
0.475149
-0.387261
0.615773
0.215881
0.679290
0.966625
0.860482
-0.985263
-0.018809
0.985975
0.916494
0.425033
-0.898111
0.352151
-0.282979
-0.509070
-0.243344
-0.091389
-0.320622
-0.380358
0.835620
-0.025988
-0.737157
0.882921
0.168730
-0.554641
0.408570
-0.693904
0.244410
-0.835157
0.736286
0.787477
0.005382
0.973384
-0.882799
-0.630677
-0.375338
0.614801
0.936479
0.475292
-0.611134
0.270256
0.529727
0.468838
-0.622220
-0.980930
-0.178872
-0.457698
0.179500
-0.874479
-0.976482
-0.157361
0.130808
0.207958
0.560213
0.543466
0.633277
-0.010432
0.153003
0.590516
-0.183910
0.821446
-0.640156
-0.610010
0.847681
0.154845
0.921421
-0.284523
0.045380
0.478699
0.507290
0.082984
0.581457
-0.141233
-0.135434
0.878589
0.178492
0.343479
0.104308
-0.636420
0.417696
0.638051
-0.623844
-0.525389
-0.360104
-0.519396
-0.286641
0.704846
-0.536705
0.939059
0.481735
0.593658
-0.491961
0.802037
-0.739069
-0.218415
0.613954
-0.931810
0.566042
0.254268
0.628729
-0.452231
-0.849686
0.357451
0.063264
0.687865
0.053419
-0.346131
-0.269227
-0.236009
-0.175821
-0.181240
0.435472
0.850509
0.709970
-0.943587
0.964239
0.501583
0.453370
0.790268
-0.871908
-0.479076
0.690535
0.553038
0.659688
-0.207639
0.431983
-0.974886
-0.852472
0.416527
0.755722
0.429493
-0.266869
0.751339
0.636129
-0.756122
-0.911288
-0.445833
-0.921455
0.026102
0.631191
0.771118
-0.395705
0.975945
-0.714011
-0.781388
0.618079
-0.443893
-0.099008
-0.606075
-0.489619
-0.009119
-0.766517
0.203427
0.609667
-0.749779
-0.476608
-0.201548
-0.703190
-0.422511
-0.556303
-0.742052
0.633166
-0.012425
0.516263
0.652767
-0.302019
0.862404
0.253868
0.950500
-0.021607
0.930158
0.977130
-0.007692
-0.117260
-0.776720
0.699576
0.657886
-0.068442
-0.924988
0.576399
0.369217
-0.841843
-0.728784
0.552390
-0.677051
0.920492
0.987422
-0.610378
0.629197
-0.070736
-0.658391
-0.382392
0.412112
0.583949
0.609602
-0.547035
0.484738
-0.107608
-0.749111
0.926314
-0.501711
0.209085
-0.960861
-0.035183
0.559807
0.453784
-0.610210
0.873812
-0.974708
0.271295
-0.816884
-0.540220
0.800616
0.715744
-0.809900
-0.464636
0.387132
-0.390753
-0.352668
-0.489279
-0.118191
0.292680
0.013471
-0.386117
-0.704855
-0.987279
0.687227
-0.993820
0.380441
-0.257196
-0.434380
0.093659
0.921677
-0.930143
-0.479593
0.899563
-0.927369
-0.831643
-0.012635
-0.713294
-0.121728
0.592103
0.349709
0.163173
0.627637
0.975505
0.175816
-0.427170
0.058294
0.856127
0.791210
0.986842
0.374047
0.940030
-0.982395
-0.873352
0.457503
0.363497
-0.543815
-0.358592
0.236221
0.106142
0.108626
0.509680
-0.211487
-0.154794
-0.140537
-0.558277
0.109223
0.659792
-0.170401
-0.803000
0.300541
-0.463348
0.395823
0.865344
0.832665
0.304980
-0.567146
0.201419
-0.902982
0.209094
0.818294
0.923008
0.931229
-0.983347
-0.747202
0.359452
-0.611151
0.124675
0.049187
-0.606531
-0.290954
-0.015842
-0.151474
-0.479084
0.448057
0.490911
0.302642
-0.532309
-0.348197
-0.331106
-0.560722
-0.873023
0.560207
-0.696264
-0.758806
0.345912
0.817031
-0.635174
0.555186
-0.463678
-0.737562
0.956932
0.920939
-0.470687
-0.887929
-0.162531
-0.092921
0.418204
0.271627
0.131915
-0.591658
-0.023328
-0.070402
-0.716463
-0.492428
0.697243
-0.326738
-0.878974
-0.255116
-0.060026
0.296712
-0.244610
0.343959
-0.036467
-0.408383
0.121815
0.614944
0.212951
-0.526911
-0.859438
-0.161979
-0.585948
-0.327398
0.662087
0.133532
-0.930944
0.081075
0.752894
-0.274965
0.061231
-0.197271
-0.801042
-0.160001
0.467606
-0.734347
-0.386835
-0.554625
0.475431
-0.532225
-0.815849
0.110896
-0.204929
-0.085943
0.291287
-0.107708
-0.372669
-0.328613
0.165484
-0.103448
0.118939
-0.356157
-0.469178
-0.583441
-0.049455
0.400098
0.174874
-0.407967
0.171693
0.038070
0.934810
-0.032789
-0.930763
0.356258
0.608899
-0.788367
0.170626
-0.373191
0.393688
0.492015
-0.862191
0.111131
-0.748009
-0.861354
0.022156
-0.297526
-0.350212
0.408520
-0.992091
-0.071919
0.475331
-0.778589
-0.895497
0.098115
-0.015193
-0.466410
-0.119141
0.844470
0.980927
-0.944327
0.516654
0.341825
0.987301
-0.371204
-0.439044
-0.520809
0.798011
-0.792297
-0.948540
-0.111135
-0.928138
0.240899
-0.035152
0.898702
0.483783
0.505910
0.773055
-0.453598
-0.894540
0.565091
-0.084945
-0.490968
0.847071
0.228777
-0.493356
-0.940567
-0.872146
0.124787
-0.459673
-0.925633
0.670764
-0.085428
0.783992
-0.420362
0.903910
-0.536501
0.705947
0.908685
0.766339
0.365340
0.646089
-0.865218
-0.008160
-0.138647
0.585304
0.576930
-0.365291
-0.228312
-0.555106
-0.643537
-0.750708
0.271769
0.256702
0.399232
-0.563267
0.214376
-0.483978
0.659606
0.717494
0.802768
-0.743680
0.626385
-0.578492
-0.929080
-0.496388
-0.638266
0.529004
-0.761577
-0.399982
0.766293
-0.048219
0.992706
0.610625
-0.503387
0.698998
0.185434
0.154568
0.585342
-0.326071
-0.609971
0.349592
0.706761
-0.132170
-0.367583
0.547798
0.326868
-0.723952
-0.539318
-0.088510
-0.230712
-0.433916
0.978764
0.158163
0.409787
-0.892662
-0.742365
0.042984
-0.133767
-0.409663
-0.943709
0.617967
0.613264
0.094962
-0.460706
0.997024
-0.351690
-0.062574
-0.978144
0.231184
0.158585
-0.440069
0.511209
-0.867167
0.492284
-0.580591
-0.124420
0.492536
0.801240
0.922627
-0.062174
0.376007
0.295556
0.367203
-0.347157
-0.520752
0.220089
-0.203408
-0.892526
-0.267299
0.661361
-0.509156
0.839582
-0.006796
-0.652684
0.423931
-0.811581
0.630647
0.632100
-0.867006
0.462187
0.511128
0.842377
-0.464566
0.889168
0.451029
-0.973842
0.849876
-0.840316
-0.018154
-0.730832
-0.271104
0.162862
-0.268064
-0.227220
0.947264
0.461610
0.030412
0.945911
0.509953
0.123887
-0.897702
-0.934541
-0.217645
0.673083
0.635789
-0.181433
0.882669
-0.045226
-0.534014
-0.409610
-0.760557
-0.424197
0.781277
-0.829775
0.508539
-0.521768
0.151606
-0.506019
-0.562007
0.743953
0.633940
0.510380
0.430340
-0.966152
0.592491
-0.700889
-0.660725
0.549760
-0.619630
0.277895
-0.275698
-0.189602
-0.198673
-0.965205
0.227157
0.087178
-0.642992
0.494210
0.162135
0.438951
0.968610
-0.322226
-0.225572
0.583120
0.349217
-0.274157
-0.423331
0.390572
0.655231
-0.779392
0.490913
0.759204
-0.314937
0.291593
0.275329
-0.589007
-0.561036
0.388260
0.675485
-0.319000
-0.517910
-0.161128
0.649652
-0.984434
0.646072
-0.862468
-0.874177
-0.007794
0.814742
0.904230
0.150806
0.185194
-0.602971
0.383354
-0.143435
0.780816
0.760792
0.430451
0.938041
0.331973
0.165944
0.627478
0.019287
0.891972
0.968748
0.439995
-0.901436
-0.210247
-0.819223
0.543126
-0.213579
0.304258
0.668581
-0.056185
0.019695
0.486038
0.324731
0.165493
0.594254
0.820636
0.573023
0.326801
0.473297
0.438701
0.624207
-0.608866
0.071998
-0.676518
0.417756
-0.651695
-0.001306
0.990125
-0.494599
0.654524
0.182705
0.587720
-0.501275
-0.006985
0.382188
-0.483594
0.676729
0.823659
0.536543
0.574593
0.593969
-0.495653
0.140764
0.032147
-0.800840
-0.838244
0.315711
-0.937632
-0.370843
0.787389
0.203999
-0.674728
-0.293733
0.681967
-0.684546
-0.203097
-0.477802
-0.644292
0.300927
0.438376
0.905119
0.412330
-0.526364
-0.082891
0.625500
0.929151
-0.477435
0.982080
-0.511791
0.124859
-0.010446
-0.146024
-0.114108
0.905636
-0.175897
0.615981
0.916532
0.286548
-0.289826
-0.179181
-0.392906
-0.434145
-0.856180
-0.748354
0.987218
-0.526812
0.217797
-0.614943
0.936724
0.873555
-0.747348
0.900701
-0.667922
0.077554
-0.795736
0.856127
-0.734309
0.548736
0.915452
0.498751
-0.849627
-0.462349
-0.782764
-0.605051
-0.395718
0.130496
-0.219336
0.907047
-0.645008
-0.994101
-0.188218
0.101770
0.043817
0.224273
-0.486540
0.506779
-0.193652
-0.563810
0.003297
0.347839
0.261585
0.524147
-0.362387
-0.861422
0.382574
0.242339
0.903803
0.872520
0.036646
0.435672
0.144628
-0.115851
0.877486
-0.514638
-0.233483
0.395001
0.315862
0.347269
0.014140
0.082888
-0.106684
0.852288
0.749125
-0.129038
-0.995620
-0.239797
-0.736948
-0.131293
0.578991
0.496240
-0.703693
0.362995
0.294479
-0.464051
-0.727734
-0.882449
-0.252382
-0.928690
0.042938
0.090810
0.816832
-0.304781
-0.205729
-0.499154
0.810516
-0.044492
0.573523
0.480079
0.703740
0.403730
0.613038
-0.834679
-0.357451
0.976984
-0.096704
-0.615405
0.853218
0.601168
-0.666681
-0.339170
-0.666264
-0.109450
0.059597
-0.787309
-0.898559
0.944250
-0.707254
-0.448739
-0.095178
-0.796419
0.913074
-0.665259
0.271161
0.685940
-0.399058
0.200228
0.447558
-0.761373
-0.817097
-0.965731
-0.714200
0.875463
0.053419
0.887720
-0.621837
-0.772872
-0.883791
-0.965063
0.403767
-0.434613
-0.365954
0.974569
0.683002
0.486243
-0.518836
0.714858
0.030401
0.488507
0.602522
0.901719
-0.939642
0.292867
-0.728474
-0.035805
-0.886821
0.994781
-0.601772
-0.436004
-0.342818
0.978938
0.826965
-0.581836
0.874943
-0.648098
-0.286115
-0.216111
-0.633887
0.080106
-0.281076
0.759437
0.511054
0.694221
0.749099
-0.261440
-0.784068
0.527139
0.006572
-0.440554
0.135878
-0.449342
-0.806524
0.781620
0.357788
-0.301968
-0.891112
-0.132706
0.304158
0.025287
-0.548393
0.955199
-0.716360
0.033351
0.979827
-0.187515
0.546442
-0.031700
0.278862
-0.713917
-0.308818
0.762365
-0.350010
0.665996
-0.627580
0.165117
0.355632
0.963648
0.618094
-0.547202
0.722393
0.163272
-0.602285
0.852435
0.042613
0.626198
0.761232
-0.313947
-0.243833
0.605855
-0.443758
-0.062429
0.446077
0.258215
-0.341725
0.026482
0.736401
-0.223423
-0.954611
-0.725015
-0.464268
0.277790
-0.348511
-0.252827
-0.605428
0.035802
0.684195
0.009973
0.468687
0.306218
-0.942631
-0.316876
-0.647923
-0.484597
-0.072410
0.036348
-0.147751
0.217235
-0.500901
0.896224
0.119903
-0.386636
-0.535327
-0.404743
-0.791175
0.599394
-0.658822
-0.282278
0.237028
-0.352581
-0.018392
0.234886
0.487131
0.118253
0.737296
-0.019144
0.736683
-0.220632
0.166472
-0.464429
0.503157
-0.677877
-0.898629
-0.113440
-0.862785
-0.104843
0.343707
0.317736
-0.389346
0.119588
0.574101
-0.775574
-0.340600
-0.445246
-0.451206
0.864986
0.107249
0.750600
0.770350
0.982931
-0.774194
0.053640
0.004532
-0.877133
0.593197
-0.734652
-0.443413
0.145366
0.762194
0.631819
-0.258149
-0.668950
-0.647889
0.888987
-0.513642
0.302973
0.191109
0.153850
0.891877
0.608833
0.560501
0.055501
0.013778
0.435124
-0.759157
0.136395
-0.025582
0.268927
0.191803
0.436555
0.150349
0.293288
0.483056
0.740201
0.678775
0.396565
0.290043
0.461451
0.056703
-0.280098
-0.906625
0.544951
0.112641
0.755364
-0.233479
-0.441287
-0.462361
-0.569343
0.672539
0.543526
0.872428
0.441116
-0.724304
-0.204460
-0.563581
0.522263
-0.274380
0.636098
0.579585
-0.541124
-0.378724
-0.541572
0.520774
-0.499919
-0.134240
0.773791
0.414131
-0.258249
-0.952412
0.272751
-0.359877
-0.578187
0.406446
-0.563433
-0.067525
-0.803553
-0.348947
-0.887520
0.779704
-0.234394
0.418347
-0.881329
0.702087
-0.928173
0.007580
-0.369602
-0.495712
-0.274288
-0.855765
-0.133388
-0.856433
-0.338067
0.150709
0.214616
-0.832239
-0.195327
-0.882657
-0.738729
-0.547344
-0.858732
0.758170
0.848162
0.568591
0.200164
0.754722
0.705150
-0.996877
-0.737491
0.599480
0.261661
-0.560102
0.809787
-0.609318
0.209756
-0.151749
-0.148263
-0.528921
-0.234344
-0.750244
0.556268
-0.766096
0.469553
-0.258303
0.526869
0.557693
-0.045552
0.236083
0.579527
0.874817
0.202437
0.724865
-0.327911
-0.744161
-0.243986
0.747765
-0.053948
-0.398898
0.404533
0.865185
-0.625375
0.555887
0.439792
0.239909
0.152876
-0.165754
-0.149029
0.693047
0.170184
0.766973
0.071147
0.018476
-0.677657
0.668447
-0.826384
0.645335
0.253365
0.810233
-0.868152
0.896374
0.830258
0.950988
0.867517
0.666896
-0.900803
-0.191051
0.304857
-0.904607
0.754817
0.938165
-0.483115
-0.361572
-0.478122
-0.490169
0.566865
0.625385
0.833362
0.138004
0.839044
-0.553557
0.498997
-0.539292
0.582173
0.317565
0.869323
-0.142574
0.692115
-0.442392
-0.682321
0.682862
-0.578657
-0.575247
-0.280878
0.189338
-0.751191
0.439918
-0.822873
-0.273350
0.005477
-0.119417
-0.118465
-0.501973
-0.831974
-0.589052
0.870835
-0.640226
-0.733320
-0.795415
-0.267675
-0.561495
0.002945
0.944440
0.616795
0.519592
-0.196601
0.360212
-0.404439
0.713515
-0.196399
-0.150261
0.167939
0.634491
-0.793673
0.388616
-0.925857
-0.272545
-0.909550
-0.906710
0.428468
0.573441
0.892994
0.395033
-0.683010
0.678026
-0.435361
-0.273922
-0.736202
-0.150208
-0.158592
0.838648
0.053426
0.180404
0.294459
-0.402292
-0.341213
0.129634
0.598232
-0.943497
0.199336
0.178908
0.845584
0.859888
-0.222067
0.310299
0.688517
0.308066
-0.499450
-0.526171
-0.068871
-0.467516
-0.116629
0.341549
0.555382
-0.051475
-0.791266
0.572751
-0.485120
0.676845
0.004095
0.162948
0.040996
-0.527045
-0.556956
0.700169
0.111490
0.169155
0.131510
-0.709085
-0.053418
-0.816258
-0.579085
0.749553
-0.890751
0.146593
0.924403
-0.808186
0.520427
0.074170
-0.191455
-0.607912
-0.737714
-0.240447
0.550951
-0.156962
-0.843099
0.042284
-0.188544
-0.569813
-0.225593
-0.927291
0.953067
-0.204128
0.824866
0.957787
-0.490910
-0.299534
-0.384935
0.835124
-0.703115
0.804606
0.284268
0.377520
0.828803
0.680856
0.571859
-0.648957
-0.626090
-0.880344
-0.783081
0.177856
-0.754023
-0.575568
-0.900871
-0.149033
-0.456730
0.933057
-0.054651
-0.061313
-0.667121
-0.395598
-0.728554
-0.783824
-0.095035
-0.059391
-0.478413
0.872618
-0.853774
-0.230821
-0.244037
-0.236580
0.854623
0.153257
-0.429388
-0.378200
-0.461328
-0.887948
-0.646695
-0.942994
0.934327
-0.406828
0.936368
-0.049176
-0.734640
-0.988686
-0.196895
0.531956
-0.164639
0.360714
0.856950
0.124679
-0.262870
0.255085
0.900473
0.255609
0.813734
-0.982691
0.369641
-0.648468
0.444635
0.281860
0.744379
-0.160117
-0.637755
0.358827
0.537404
-0.597410
0.222838
-0.614324
0.070814
-0.178470
0.744154
0.529018
0.579236
-0.457625
-0.629494
0.063480
0.679109
-0.821901
0.991795
0.544078
0.685065
0.618395
0.728282
-0.670940
-0.800622
0.396631
0.317918
-0.648482
-0.588017
-0.012117
-0.937427
-0.221269
-0.634293
0.214493
0.057422
0.171404
0.964327
0.976303
0.767137
0.206905
-0.861071
0.408312
-0.084245
0.498451
0.927799
-0.381667
-0.431077
0.316576
0.131890
0.888555
-0.592112
-0.097816
-0.181604
-0.020017
-0.737189
0.758853
-0.669253
-0.001935
-0.419495
-0.331443
0.447770
-0.942849
0.673085
-0.374859
-0.816292
0.200475
-0.187432
0.596263
-0.402552
-0.046885
-0.780068
-0.100327
-0.864129
0.027978
0.093916
-0.268005
0.621203
-0.812730
-0.941229
0.412754
-0.240119
0.222773
-0.969188
0.384805
0.797728
-0.865427
0.552576
-0.929786
-0.465754
0.401236
-0.342850
-0.637572
-0.338191
0.730136
0.916555
-0.869898
0.520610
0.607300
0.916157
-0.533720
0.991246
0.673569
0.576288
-0.309800
-0.106248
0.339339
-0.498964
0.442346
0.547188
0.106077
0.069948
-0.232585
0.122745
-0.059821
0.631031
0.147588
0.847282
-0.800128
-0.940711
-0.928404
-0.194105
0.469224
0.665678
0.675301
0.490725
0.514974
0.309150
0.508582
-0.931328
-0.722981
0.306514
0.331999
0.795644
-0.126916
-0.762444
-0.978017
-0.378757
-0.720312
0.881064
0.731774
-0.927411
0.012664
-0.890882
0.973620
0.790000
0.849065
-0.131905
0.235600
0.436519
-0.934739
-0.277686
-0.200708
-0.339591
-0.497429
0.044963
0.792892
-0.086838
-0.311064
0.203942
-0.835200
0.957271
0.354150
-0.992674
-0.125755
0.538392
0.685610
0.848652
0.152066
-0.164406
0.893774
0.355818
-0.435347
-0.920728
-0.088445
-0.083080
-0.781156
-0.909400
-0.619605
0.822408
0.097672
-0.725669
0.507187
0.135658
-0.410620
-0.222655
0.015636
0.660423
-0.743738
0.867550
-0.156997
0.438833
0.576694
-0.140176
-0.812648
0.285554
0.625330
0.348083
-0.167650
-0.683828
-0.894153
-0.708795
-0.260383
-0.478051
0.196821
-0.610220
-0.933364
-0.401673
0.865540
0.331284
0.247980
0.679569
-0.977708
-0.966444
-0.331159
-0.460092
0.831359
-0.711061
0.188676
0.067983
-0.115170
0.482102
0.923495
-0.646313
-0.492809
0.161698
0.384361
0.252618
-0.251885
0.043384
0.804772
0.550615
0.922220
-0.109395
0.203908
-0.582702
0.438303
0.556545
0.916477
-0.778289
-0.892961
-0.680659
-0.490001
-0.956683
0.833260
0.637930
0.895544
-0.783741
0.027196
-0.614368
-0.712218
-0.630396
0.778675
0.116095
0.870407
-0.134247
-0.921615
-0.042169
0.454860
0.280776
0.731725
-0.563746
-0.193904
0.704070
0.269872
-0.534715
-0.740840
-0.350935
0.263561
0.971930
-0.025681
-0.406709
0.304135
0.850652
0.316083
-0.628270
0.776811
0.042676
-0.690150
-0.434939
0.642222
-0.412761
-0.910674
0.532511
-0.661951
0.394508
-0.362889
0.455545
-0.034724
-0.461423
0.793489
0.322910
-0.348031
0.965018
0.781032
0.008991
0.771885
0.445432
-0.186391
0.567343
-0.920029
-0.475188
0.349290
0.496184
0.599892
0.083773
0.129668
-0.271822
0.503892
0.770658
-0.111100
0.272677
-0.169054
-0.928342
0.316822
0.658250
0.480864
-0.339148
0.374858
0.071041
0.330658
0.701855
0.483769
-0.694401
0.313981
0.239172
0.688325
0.200148
-0.894996
0.999453
-0.114831
-0.890328
0.812949
0.991800
-0.571754
-0.645182
0.587306
0.816166
-0.091354
-0.576987
0.812206
0.550083
-0.793475
-0.729676
0.458247
0.433132
0.142654
0.168637
-0.022087
0.288064
0.301019
1.000401
-0.441574
0.180309
0.812915
-0.829091
-0.297564
-0.187509
0.388990
-0.981681
-0.487689
-0.633176
-0.494276
-0.726538
-0.894266
0.222063
0.749673
-0.433930
0.314929
-0.345108
0.284781
-0.805863
0.524162
0.346597
-0.185201
-0.036535
-0.722711
-0.973414
-0.803462
-0.692003
0.475352
-0.825094
0.599569
-0.717633
-0.544267
-0.311285
0.038993
0.824004
-0.001303
0.019648
0.238986
-0.865999
0.118469
0.752885
0.082052
-0.400375
-0.528924
0.781614
-0.753772
0.913603
0.852968
0.427298
0.339667
-0.497027
-0.267990
0.419428
0.548225
-0.892933
-0.945149
0.390329
0.341680
-0.841154
-0.058657
0.041919
0.985084
0.223934
0.101073
-0.899121
0.522123
-0.684282
-0.778027
0.182277
-0.786685
-0.738216
0.592215
-0.781516
0.781456
0.372522
0.514698
-0.976585
0.668736
0.572167
-0.661345
0.311268
-0.147357
0.789875
0.069739
-0.366227
-0.015534
0.852296
-0.601542
0.466932
0.960667
-0.949057
-0.806159
0.045113
-0.306253
-0.960796
-0.017020
-0.468737
0.515823
0.096548
-0.348989
-0.033282
0.587871
0.367033
-0.636248
0.269770
-0.551606
-0.683736
0.178329
-0.422098
-0.896224
-0.676596
0.825818
0.975302
-0.978459
0.198634
-0.402680
0.944056
0.019787
0.481620
0.193430
0.213058
0.024844
0.373730
-0.305578
0.551660
-0.905617
-0.976842
-0.758400
0.877237
0.151322
-0.915386
-0.731517
0.176376
0.244967
-0.732529
-0.358089
0.417412
-0.803146
0.216647
-0.818769
0.476940
0.964865
-0.821205
-0.700749
0.182733
-0.682515
0.560744
-0.189407
-0.806151
0.899735
-0.293743
0.373571
0.876971
0.407982
-0.214766
-0.809727
-0.264520
0.518846
-0.605936
0.479709
-0.110755
0.433820
0.343379
-0.258583
-0.958195
-0.935906
0.315235
-0.116659
-0.153376
0.793976
0.967910
0.370140
-0.016650
0.037883
0.264412
-0.396466
0.742900
-1.000919
0.134555
0.725093
-0.812933
-0.960772
-0.236284
-0.110711
-0.246730
-0.075200
-0.114716
-0.114580
0.497686
-0.046282
0.087728
-0.161691
-0.429219
0.024563
-0.862148
0.122855
-0.722317
-0.163425
0.027698
0.275319
0.029556
0.456498
0.280100
-0.219474
-0.314726
0.662879
0.855604
0.434137
0.114240
-0.550822
-0.390336
0.468456
0.132683
-0.271760
-0.872097
-0.160153
0.724977
-0.025700
-0.643278
-0.690827
-0.402329
0.777028
0.172521
-0.942066
0.470327
0.623407
0.601830
0.544284
-0.523486
0.004194
-0.804514
0.120502
-0.836579
-0.875642
-0.472597
0.810521
0.765019
-0.846870
-0.184014
0.631082
0.359404
-0.067188
0.934238
0.192961
-0.695762
-0.251625
0.993986
-0.467738
-0.588653
0.755408
0.512168
0.042842
-0.730951
0.530679
0.288379
-0.063121
-0.705299
0.933919
-0.702191
-0.715108
0.296785
0.816586
-0.593146
0.824825
-0.178645
0.984868
0.603100
0.500927
-0.773157
-0.964751
-0.613671
-0.391709
-0.509772
-0.313390
-0.509218
-0.732767
-0.735942
-0.502474
0.500034
0.209558
0.539010
-0.747557
-0.208345
0.636508
-0.712541
-0.103504
0.605856
-0.161525
0.406053
0.234415
0.557634
-0.845542
0.095922
0.330907
-0.128221
0.882155
0.564523
0.335125
0.301901
-0.343857
0.006803
0.453525
0.108660
-0.295609
-0.548836
0.600491
0.709824
-0.775939
0.041794
0.923039
-0.804517
0.404092
0.012072
-0.988316
-0.736405
-0.520101
-0.879664
0.823077
0.667596
-0.330944
0.699366
-0.369738
-0.698252
-0.162979
0.294783
-0.483162
0.050582
0.000429
-0.593224
0.650008
-0.460751
-0.800638
-0.485395
0.867296
-0.501992
0.128554
0.755587
0.965435
0.493173
0.202768
-0.828688
0.176614
-0.217598
-0.662372
-0.293839
0.775530
0.838668
-0.295575
0.118162
0.796494
-0.947027
-0.541714
-0.958559
-0.747687
-0.517390
-0.868330
-0.205141
0.675580
-0.134498
0.307496
-0.728370
-0.400905
-0.529604
0.446178
0.323491
0.219805
-0.529644
0.314991
-0.172252
-0.256950
0.380695
-0.092488
0.601059
0.645368
-0.887001
0.566274
-0.746198
-0.572327
-0.776470
-0.727644
0.286400
-0.945432
-0.876415
-0.647307
-0.846468
-0.730943
0.503932
-0.139591
0.473821
0.587627
-0.069284
0.448922
-0.606436
0.082531
0.998810
0.646066
0.127170
0.020866
0.537094
-0.684120
-0.559218
0.701290
-0.089316
-0.900424
0.864486
-0.382858
-0.139741
-0.574817
-0.344437
0.101098
-0.393742
0.499343
-0.635704
0.513842
-0.335841
-0.000540
0.874259
0.936319
-0.684385
-0.789795
-0.448437
-0.402816
-0.457438
-0.885952
0.826729
-0.956467
-0.359987
-0.877843
-0.629899
-0.423401
-0.892623
-0.030374
-0.494100
0.049036
-0.696262
0.275077
0.098022
-0.850272
0.208447
-0.416739
0.943752
0.543435
0.015666
0.559904
0.945524
0.321535
0.127204
-0.584993
-0.097359
0.803728
-0.865519
0.612420
-0.936426
-0.363808
-0.614264
0.361784
0.716806
-0.473630
0.679799
0.807318
0.479507
0.957061
-0.256223
-0.122666
-0.297713
0.849000
0.024882
0.591529
0.646565
-0.763174
0.329016
-0.122132
-0.009956
-0.547537
-0.768611
-0.610746
0.589963
-0.622860
0.768847
-0.593779
-0.715620
0.509830
0.092641
0.245029
0.372302
-0.514194
-0.200013
0.094621
-0.265804
-0.434518
0.844230
-0.601466
0.114945
0.530188
0.162064
0.007335
-0.888432
0.910479
-0.817258
0.304345
0.103672
0.011361
0.431849
0.789537
-0.881370
0.671022
0.197166
-0.941750
-0.734312
0.912458
0.885005
-0.820605
0.819664
-0.784302
-0.891677
0.792364
0.052812
-0.396177
-0.081013
-0.040002
0.551823
0.411784
0.397327
0.653597
-0.726053
0.311536
0.469570
-0.620810
-0.077955
0.148977
0.139365
-0.595770
-0.580459
-0.004028
-0.855514
-0.265758
0.828541
-0.158304
-0.063433
-0.503761
0.338970
0.146985
-0.737054
0.137918
-0.485478
0.663242
-0.526364
-0.465061
0.740352
-0.631595
-0.411741
0.317235
-0.098779
-0.608597
-0.528607
-0.022547
0.833623
-0.180128
0.625750
0.785365
0.519952
0.490848
-0.065704
-0.080635
-0.075892
-0.461171
0.332486
0.201026
-0.508198
-0.692432
0.468595
0.776626
-0.349832
0.164715
-0.612339
0.246945
-0.307291
-0.061514
0.286755
-0.117945
-0.185934
0.579892
0.165164
-0.627174
-0.201274
0.851594
-0.409850
0.859157
-0.365914
0.436155
0.764924
0.342819
-0.372559
0.194604
0.579581
0.186289
-0.271001
0.916213
0.271971
0.112853
0.273916
-0.623226
-0.788262
-0.058240
-0.486980
0.907093
0.370949
-0.942955
0.031113
0.966603
-0.258070
-0.076057
-0.728832
0.948851
0.111633
-0.257126
0.879306
-0.245939
-0.914037
0.913603
-0.066383
-0.933755
-0.175682
0.050676
0.586511
0.293405
0.589336
0.553268
0.645566
-0.843855
0.317613
-0.768885
-0.895898
0.655748
0.266589
0.880808
0.260981
-0.588481
0.400361
0.719826
0.612689
-0.102249
-0.672705
0.677169
-0.939365
-0.178520
0.621314
-0.206214
-0.050059
0.032278
0.843449
0.486967
-0.518247
-0.590625
-0.445924
0.415532
-0.407388
-0.775380
0.023485
-0.225228
0.584992
0.220338
-0.908595
0.980108
-0.487044
-0.973471
0.615559
0.846858
0.099702
-0.963584
0.226236
0.707790
0.068683
0.323311
-0.249345
0.638807
0.021403
-0.183417
-0.292306
0.661310
0.827314
0.813030
0.429403
-0.131899
0.357124
0.425106
0.083050
-0.213835
0.879351
-0.728717
0.587239
-0.533986
-0.028294
0.211216
0.151175
0.807003
0.409801
-0.834666
0.696968
0.301249
0.522560
-0.064937
0.103796
0.303258
-0.605199
0.972243
-0.777229
-0.607615
0.538046
-0.751844
-0.270316
0.177969
-0.072678
0.040741
0.237044
0.110532
-0.098088
-0.345452
-0.072014
-0.170772
-0.497335
-0.831514
-0.778785
0.721180
-0.689203
-0.313611
0.408211
-0.089986
0.767361
-0.899549
-0.874396
0.922511
-0.890944
-0.859277
0.274736
0.691286
0.814481
-0.349627
0.469605
-0.858004
0.039732
-0.039571
-0.133664
-0.112858
-0.850970
-0.999367
0.865854
0.571029
-0.311341
0.106372
-0.173321
0.118897
-0.571606
-0.659833
-0.568525
-0.936391
0.161308
0.435284
-0.454808
0.720378
0.474557
0.567614
0.151050
-0.480554
0.071256
-0.500601
0.816021
-0.668047
-0.689475
-0.767790
-0.072693
0.117218
0.080034
-0.422131
0.252351
0.885864
0.097449
0.021661
0.842450
-0.584750
0.901470
0.401480
-0.096569
0.917006
-0.833467
0.334231
-0.959118
0.376405
0.620472
-0.382708
0.533159
0.439389
-0.114953
0.760141
-0.100250
-0.370209
0.245568
-0.154988
-0.877816
-0.113073
-0.718639
-0.763394
0.708102
0.534973
0.553936
-0.489898
0.245605
-0.649900
-0.433923
0.763460
0.108874
0.867392
-0.078449
0.331610
0.834206
0.468021
-0.883194
0.209477
0.304657
-0.120402
-0.598044
-0.169202
0.227911
-0.078386
0.306898
0.252651
-0.160423
-0.606779
0.061505
-0.806379
-0.848937
0.010023
0.266632
0.142657
0.307778
-0.830381
-0.710426
-0.873634
-0.662742
-0.764407
0.385386
0.264336
0.886508
-0.215261
0.026276
0.364463
-0.810935
-0.707836
-0.191321
-0.717711
0.452609
0.017207
-0.282310
-0.398965
0.160215
0.646983
-0.709252
-0.425958
-0.921287
-0.285369
0.000062
0.307419
0.219547
0.163621
0.578276
-0.792380
-0.943771
-0.782729
-0.053681
0.781503
0.980473
0.273126
-0.886681
-0.532038
-0.755550
-0.729457
0.383600
0.783181
0.619146
-0.902675
0.592171
-0.017906
0.318968
0.610864
-0.227603
-0.102496
0.805835
0.239960
-0.656618
-0.679048
-0.703399
-0.321103
0.700630
-0.897037
-0.046746
0.849979
-0.297792
0.039986
0.632816
-0.028763
-0.623585
0.036411
-0.452753
-0.980739
0.080748
0.034749
0.021064
0.761215
0.765935
-0.112135
-0.560586
0.482233
0.365212
0.110328
-0.103911
0.808037
0.527065
0.722413
0.377509
0.704182
0.874702
-0.910957
-0.665367
0.540109
0.817737
0.811291
0.962455
-0.233475
0.853556
-0.597497
-0.791441
-0.801909
-0.494416
-0.446075
0.006780
0.070700
-0.220057
0.017146
0.431128
0.862977
0.890375
0.804196
-0.472750
0.810247
0.687288
0.748585
-0.002349
-0.868167
0.930908
0.261850
-0.489048
-0.422664
-0.540838
-0.645305
0.390067
0.032496
-0.544440
0.136429
0.654787
-0.882108
-0.401800
-0.235484
-0.647974
-0.079396
-0.567072
-0.336146
0.745351
-0.513393
0.096045
-0.024622
0.900772
-0.163225
-0.449726
-0.543703
0.811796
0.337419
0.848131
0.855234
-0.148994
-0.439452
-0.510804
-0.651113
-0.961555
0.139294
0.188933
-0.693259
0.650168
0.468204
0.361971
-0.306518
0.456769
0.503279
0.863070
-0.538121
-0.237931
-0.773731
0.864968
-0.010718
-0.479562
-0.819669
0.492025
0.002285
-0.612586
-0.767722
-0.315997
0.932052
0.294912
0.207165
-0.470788
-0.998892
-0.562331
-0.194790
0.117469
0.179963
0.206495
0.987269
0.851958
-0.929680
-0.948870
-0.994973
-0.843852
0.593271
0.397733
0.988404
0.339310
-0.771407
-0.885957
-0.553740
0.126050
-0.040995
0.412857
-0.676161
-0.960353
-0.772560
0.085225
-0.176464
-0.093993
0.548696
0.406054
-0.277245
-0.064155
0.219198
0.110123
-0.611594
-0.626901
0.075682
0.072770
-0.414510
0.468570
-0.283168
0.588613
-0.774615
0.035462
-0.942061
-0.301278
-0.850195
-0.777706
0.476981
0.583611
-0.711044
0.890337
-0.651817
-0.491583
0.003069
-0.014679
-0.732962
0.770221
0.183017
0.946977
-0.759187
-0.984661
-0.791394
0.256481
0.543829
-0.735128
0.979870
-0.252717
-0.861311
0.948357
-0.743007
-0.914818
-0.399965
0.330967
0.670447
0.990767
-0.272769
-0.191475
-0.551942
0.112273
0.898978
0.065254
-0.897153
-0.707279
-0.046727
0.268118
0.547347
-0.717872
0.197342
0.270042
0.218447
0.908781
0.662828
0.187841
0.524578
0.371980
0.794598
-0.732765
0.447856
-0.001383
-0.607463
0.621290
0.566144
-0.399154
0.870691
0.021190
-0.024570
0.071325
-0.468727
0.322342
0.142826
-0.951868
-0.722999
0.224245
0.918780
-0.847334
-0.802812
-0.413364
-0.519150
0.976458
0.266622
0.572004
-0.337676
-0.962803
0.188173
0.728962
0.808087
-0.149070
-0.209942
-0.548069
0.049974
-0.621886
0.058734
0.289260
-0.798857
-0.063152
0.781430
-0.293948
0.046070
0.211218
0.165587
-0.659467
0.233063
-0.121284
-0.337220
0.941649
0.608281
-0.329486
0.147348
0.066271
-0.328898
0.420685
0.916677
0.889527
0.508096
0.638151
-0.508439
0.556473
0.452662
-0.408209
-0.204852
0.277392
-0.270225
0.314784
0.522137
0.811041
0.579752
0.857239
-0.419495
0.064258
-0.976255
-0.411002
0.749620
0.566809
0.650212
-0.753012
-0.031712
-0.337155
-0.011021
-0.007358
0.647754
0.286996
