3072 30 10 1.0000 20 20 100
-0.146527
-0.036951
-0.005535
-0.115612
-0.319391
-0.308767
-0.058689
0.164872
-0.252131
-0.149536
0.695298
0.179601
0.144301
0.183889
0.022465
0.086164
-0.303351
1.058635
0.086030
-0.957653
0.335042
0.073004
0.112080
0.100455
0.083122
0.118888
0.208620
0.057677
0.127112
0.174087
0.130184
0.489419
0.060400
0.024482
0.059852
0.159687
0.057409
0.043559
-0.158551
0.120561
-0.753021
0.444390
0.912264
-0.936175
-0.542270
0.688214
0.858638
-0.433547
0.497425
0.558868
-0.731440
-0.383220
0.062749
1.002250
0.433180
0.326027
-0.748529
-1.005481
-0.036150
-0.264563
-0.972346
-0.216774
0.504050
0.369266
0.445248
-0.411008
0.367814
0.514675
0.433518
0.578090
0.860108
0.285588
0.264398
0.232412
-0.380533
-0.270571
0.185147
0.620258
0.695433
0.278446
-0.731162
0.394389
0.482570
-0.252493
0.538609
0.148993
-0.503496
0.733987
-0.469667
0.711805
-0.295379
-0.394056
0.587763
-0.326546
0.608996
-0.549404
0.787125
0.699029
-0.508320
-0.666328
0.856099
-0.824089
0.812605
-0.227550
-0.510948
-0.713255
0.588152
0.247371
0.867828
0.909230
0.672877
0.269250
0.660210
0.811254
0.190830
-0.978302
-0.261909
0.725169
0.784562
0.464427
0.908621
0.488165
0.803726
-0.102883
0.893458
-0.716216
0.593401
0.837965
0.851370
0.259961
-0.519251
0.336949
0.426620
-0.783567
0.811510
0.739705
0.697835
0.781742
-0.448896
0.375483
-0.300660
0.916323
0.266350
0.563378
0.254533
-0.417346
-0.883207
0.511158
0.885687
-0.396099
-0.160404
-0.518115
-0.790189
-0.209078
0.914882
-0.621955
-0.311552
-0.302432
-0.709508
-0.161112
-0.490459
0.639120
-0.569033
-0.702537
0.161165
-0.432405
-0.546161
0.411999
-0.617910
0.885814
0.561710
-0.715294
-0.233601
-0.708019
-0.078791
0.748625
0.886697
0.549165
0.330187
-0.735577
-0.589760
-0.928101
0.354582
0.065660
0.687712
0.652081
0.359845
0.563539
0.044758
0.796097
0.383323
-0.044455
0.924539
0.525186
-0.892105
-0.402519
-0.840964
0.893776
0.604515
0.739753
-0.308519
0.927044
-0.893309
-0.872820
-0.637840
-0.680883
-0.488169
0.279691
0.028406
-0.279695
0.548238
-0.515565
-0.155190
0.961800
-0.054067
-0.661811
-0.035212
0.980859
-0.009881
-0.293925
-0.077571
-0.148884
0.311856
-0.758144
0.793408
-0.654919
-0.868699
0.078218
-0.058305
-0.812618
-0.889349
-0.282092
0.628572
0.056182
0.953329
-0.948209
0.141242
-0.054802
-0.769702
-0.910158
-0.619927
-0.963675
-0.095737
-0.229075
-0.002361
-0.992133
0.736901
0.504297
0.722164
0.841620
0.414344
0.285135
0.107241
-0.503580
-0.568508
-0.138706
0.162649
0.016747
0.177033
-0.772438
0.830824
0.558895
-0.464717
-0.761577
0.487269
0.406730
0.520610
0.968333
-0.132308
0.409699
0.254127
0.604434
-0.064700
0.374467
0.351118
-0.781143
-0.308229
0.177829
0.932951
0.246298
-0.552772
-0.794758
-0.420413
-0.204431
0.286015
0.373963
-0.367694
-0.075992
-0.769367
0.625096
-0.938963
-0.644614
-0.384294
0.538021
-0.076496
-0.639521
0.620613
-0.929463
0.759126
0.562782
0.636638
0.714028
0.390726
0.869202
0.980901
0.686626
-0.974173
-0.824835
1.039210
-0.039043
0.686580
-0.824188
0.620764
-0.102189
0.117768
-0.423977
0.723770
-0.595782
0.031049
-0.800149
0.186142
0.648375
0.078660
-0.517747
-0.947846
-0.389176
-0.830307
-0.093140
0.524993
-0.894196
0.724650
-1.050835
0.782937
-0.901252
-0.403259
-0.955357
-0.276610
0.083939
-0.365732
-0.643073
-0.173867
-0.563354
0.790010
0.027057
-0.682125
-0.400812
-0.272053
-0.065591
-0.267620
0.148559
-0.787626
0.981566
0.491031
0.063826
0.219041
-0.528409
0.265877
-0.333080
0.171491
0.691906
0.975000
-0.411149
0.156304
-0.626136
0.309028
-0.900672
0.912699
0.860176
-0.277895
0.468626
-0.933175
-0.069584
-0.677320
0.606966
-0.681587
0.539107
0.568442
0.088742
-0.433574
0.164979
0.316574
-0.706375
-0.110073
0.499716
0.326781
0.145537
-0.042966
0.657032
0.002497
0.972226
-0.875530
-0.074966
0.469214
0.773015
0.192296
0.515216
0.564805
-0.180212
-0.680322
0.930900
0.273952
0.195379
-0.626455
-0.488519
-0.752416
0.297672
-0.647624
-0.417724
-0.593849
-0.262189
0.001364
-0.442500
-0.317059
-0.162563
0.939605
-0.843219
0.040796
0.628267
-0.562052
0.797649
-0.625244
0.232486
-0.825396
-0.861023
0.899826
-0.853412
-0.436269
-0.875765
1.049591
-0.658137
-0.103934
0.664292
0.688698
-0.592224
0.773156
0.689844
0.668213
-0.035915
-0.364584
-0.855777
0.585004
0.669547
0.273993
-0.583821
-0.024988
-0.411589
-0.106501
0.744531
0.659206
0.288364
-0.829134
0.345257
-0.969764
-0.904281
0.740535
0.987112
-0.878286
-0.498909
0.825355
0.074486
0.035111
-0.157195
-0.853898
-0.449955
0.782759
-0.403500
0.730925
0.113786
-0.712395
-0.313747
0.767464
0.288166
-0.205511
0.553333
-0.942173
0.261479
0.673198
0.960694
0.287541
-0.949068
0.223777
0.691761
0.203294
-0.535789
0.790738
0.355835
0.581936
0.529718
-0.695455
-0.125017
0.291880
-0.346655
-0.552865
0.959515
-0.637704
-0.656331
0.393752
-0.652862
0.400306
1.007272
-0.281076
0.684702
0.700253
0.686914
-0.114307
0.590008
0.509024
-0.662487
0.043730
-0.528103
0.944556
-0.462234
-0.478909
-0.727233
0.397809
0.257584
-0.549743
-0.698162
-0.009940
0.390032
0.918998
0.458002
0.744232
-0.122835
-0.218852
-0.646542
0.037538
-0.379903
-0.973044
-0.646556
-0.112460
-0.863361
-0.631643
0.160804
-0.864133
-0.938192
-0.633011
0.293295
-0.062107
-0.950789
0.655334
0.157176
0.109596
0.044998
0.304805
0.808979
0.611799
0.934614
1.013711
-0.391713
-0.679542
0.173896
0.825825
0.900637
0.018337
0.227437
-0.436773
0.389774
0.265896
-0.387879
-0.036247
-0.334275
0.660504
-0.639075
0.384010
0.421599
0.218168
-0.315938
-0.092222
-0.522130
-0.356678
-0.709368
0.113343
0.549790
-0.113384
-0.908477
-0.729352
0.502036
-0.374558
0.053217
-0.000688
0.425753
-0.149807
-0.183182
0.087182
0.356668
-0.695266
0.039249
0.878221
0.437037
0.831152
-0.941545
-0.600960
0.089435
0.886623
0.382987
0.360050
-0.546019
-0.131698
1.000385
-0.147305
-0.819053
-0.770297
-0.229681
-0.747572
0.706321
-0.287355
-0.259230
-0.487840
0.063230
0.194951
0.604210
-0.145258
0.408163
0.803239
-0.103567
0.239796
0.728999
0.062286
0.505657
-1.092683
-0.068940
-0.752014
-0.599621
0.536243
-0.018748
0.222830
0.372266
0.300321
0.126816
0.978325
-0.851349
-0.334035
-0.087472
0.868527
0.673295
-0.354629
0.346330
0.779735
-0.313178
-0.495054
-0.811143
0.955112
-0.234359
0.911622
0.107757
0.568116
0.728672
-0.318696
0.535636
-1.078177
-0.389528
0.252089
-0.381618
-0.944680
-0.358681
0.951221
0.875087
-0.141503
-0.308290
0.099213
0.433386
-0.193420
-0.056763
0.619024
-0.212816
-0.971696
0.747161
0.058065
0.186078
-0.847943
0.593512
0.812159
0.700931
0.922837
-0.274696
-0.591005
0.240552
0.109083
-0.960749
0.097802
-0.465401
-0.848902
0.377116
-0.420130
0.276796
-0.761201
-0.181218
0.394107
-0.186091
-0.790682
0.632097
-0.430856
0.097278
0.386803
-0.896373
-0.285933
-0.887078
-0.457450
-0.056136
-0.456106
0.856393
0.063113
0.761633
-0.185660
-0.999335
-0.930077
0.025301
0.846178
-0.902887
0.468400
-0.071217
-0.778899
0.173907
-0.896300
0.148368
0.556358
-1.012438
0.618376
0.917905
0.706302
-0.492391
-0.811722
-0.539636
0.812762
0.895871
0.494931
0.866591
-0.825677
0.692190
0.727113
-0.256911
0.646371
0.201254
0.094874
0.834854
0.440367
-0.528518
0.621678
-0.462698
-0.408985
-0.492489
-0.948875
0.485484
-0.412329
0.350635
-0.434396
-0.679042
0.739632
0.084847
0.199593
0.791014
-0.653303
0.678966
-0.136243
-0.831013
-0.965017
-0.167055
-0.231030
-0.404651
-0.484665
0.165878
-0.438912
0.900221
-0.683164
0.095790
0.717429
-0.575825
-0.405392
-0.289114
-1.081325
0.650854
0.050524
0.119010
-0.417051
0.681530
0.974687
0.751004
-0.920189
-0.918613
0.248477
0.360244
0.920603
-0.148532
-0.672165
-0.396918
0.374136
0.580867
0.248307
0.084231
0.153660
0.928291
0.901468
0.842284
0.675943
0.654501
-0.477173
-0.808303
0.641605
-0.525586
0.170156
-0.468229
0.928918
0.446526
-0.260237
-0.177234
-0.396481
0.552943
0.462646
-0.555555
0.813903
-0.502904
0.346409
-0.120743
0.845824
-0.491595
0.000335
-0.794967
0.634163
0.608917
0.385513
0.886561
-0.943354
0.929849
-0.808179
-0.753766
0.700903
0.653933
0.867579
-0.743725
0.786476
0.963932
0.489581
-0.388760
-0.326421
0.570881
0.779547
0.256643
-0.177303
0.619661
0.780785
-0.640930
0.004124
0.891546
0.649705
-0.923039
0.686162
0.704693
-0.820235
0.594610
0.172542
-0.373896
-0.820546
-0.353609
-0.623328
-0.573453
-0.279139
-0.317827
0.155138
-0.391096
0.378999
-0.428678
0.051842
0.240633
0.229279
-0.439952
-0.243134
-0.316961
-0.768106
0.825040
-0.159378
-0.941238
-0.705022
-0.904837
0.435728
-0.242334
-0.543828
-0.130946
-0.428791
-0.488568
-0.464240
0.095067
-0.786599
0.664204
0.406444
0.353751
0.657122
-0.844742
0.587584
-0.575890
0.598266
0.552219
-0.335612
0.906978
-0.728465
0.610582
0.969115
-0.281601
0.685818
0.419177
0.884194
-0.775808
0.489877
0.547710
-0.727002
0.866953
0.866112
0.677359
-0.643131
-0.931440
0.832488
-0.644925
0.731200
-0.215395
0.235673
-0.411687
-0.397943
-0.446370
-0.144565
0.371064
-0.696102
0.716099
0.145408
0.200285
0.114583
-0.047109
0.929361
-0.487678
-0.704449
0.711550
0.560726
0.013747
-0.098264
0.876278
0.961520
-0.165729
-0.212641
-0.612734
-0.665524
-0.689302
-0.615378
0.066426
-0.123025
-0.851567
0.206470
-0.462069
0.190225
-0.009807
-0.333996
-0.189006
0.715685
-0.749031
-0.347674
-0.816857
-0.979515
0.707842
0.907105
0.091974
0.099006
0.030782
0.910855
-0.510542
0.925040
0.127704
0.390952
-0.827593
-0.652178
-0.220472
0.505986
0.514130
0.771661
0.633452
-0.008079
0.496499
-0.303150
-0.330982
0.701926
-0.910342
-0.588096
-0.716501
-1.016767
-0.020142
-0.116187
-0.087939
-0.145209
-0.442764
0.923882
-0.400993
0.204283
-0.540421
0.508101
0.313464
-0.320901
0.514587
0.953685
0.423053
-0.414230
0.416192
0.419100
-0.096795
-0.393983
-0.137702
0.293342
0.140084
-0.219653
-0.230042
-0.069913
0.511124
-0.852536
0.138161
-0.143308
-0.781326
-0.981363
-0.453792
-0.118539
0.736384
0.039334
-0.238799
-0.820727
-0.916104
0.136250
-0.936224
0.734766
-0.134929
0.999636
-0.657463
0.532964
0.385647
0.990352
0.811619
-0.398149
-0.296498
0.737918
-0.457333
0.689007
0.914278
-0.373171
-0.349675
0.930670
0.690369
0.663098
0.807117
-0.657730
0.874097
-0.951828
0.688095
0.802401
0.684294
-0.031703
0.210924
-0.086431
0.515249
0.533034
0.476910
-0.923972
0.111179
-0.295320
-0.127493
0.315508
-0.674494
0.565757
0.090539
0.049654
0.662332
0.176478
-0.667972
-0.694012
0.463905
0.244577
0.667183
0.709067
0.213224
0.902238
-0.192666
-0.668692
0.839971
0.254336
-0.706731
-0.438846
-0.826383
0.910540
0.063419
-0.248621
-0.895344
-0.387699
0.760795
-0.571151
0.115973
-0.800910
-0.912315
-0.413810
0.322724
-0.616138
0.760578
-0.477036
0.405444
0.579952
-0.868172
0.395080
-0.894394
-0.993123
0.234870
0.605914
0.878583
0.366230
-0.455258
0.772278
-0.021743
0.151442
-0.805780
0.445194
0.462143
-0.374597
0.267545
-0.031207
0.485597
-0.752567
-0.664029
0.993795
-0.473720
-0.551892
-0.616714
-0.531403
0.600906
-0.281806
0.331440
0.513413
0.444168
0.120522
-0.952480
-0.731566
-0.063885
-0.191763
0.221101
0.394016
0.156744
0.948353
-0.210662
-0.735740
0.551975
0.730030
-0.930942
0.910206
0.669643
-0.378888
-0.253859
0.336872
-0.461467
-0.132076
-0.482752
0.947484
0.056877
-0.345019
-0.306325
0.071156
-0.336175
-0.871327
-0.919225
0.651309
1.000229
0.698594
-0.898124
0.220721
-0.869120
0.057091
-0.157974
0.253515
0.707991
1.000277
0.452277
-0.974277
-0.195135
0.434061
-0.209125
0.661107
-0.039317
0.129329
0.426515
0.208526
-0.738261
-0.457450
0.029414
0.500461
0.215067
-0.373796
0.119885
0.384387
0.625161
0.933797
-0.900055
0.488588
0.161534
0.146066
0.438129
-0.410462
-0.689044
-0.460173
0.803271
0.192037
-0.400440
0.067245
0.633183
0.909446
0.808528
0.167006
0.340029
-0.457712
-0.892810
0.374477
-0.943002
-0.321937
0.951866
-0.016306
0.067161
-0.973193
-0.929966
-0.787536
0.461878
-0.212329
0.692299
-0.810923
-0.032358
0.002378
-0.620687
0.757790
-0.085838
-0.478034
0.759794
0.708407
-0.428012
0.032736
0.511932
-0.845045
-0.898920
-0.554918
0.155417
0.668447
-0.119803
-0.002341
0.969300
0.102412
-0.147354
0.037976
0.057039
-0.029939
-0.302164
0.146858
-0.606762
-0.921756
-0.227169
-0.596341
-0.546182
-0.407646
0.649523
0.630124
-0.597757
-0.341376
-0.373966
0.957012
0.422414
0.085294
0.353912
-0.273052
0.795540
-0.506154
-0.106776
-0.951001
0.280706
-0.926510
0.073828
0.843183
0.654042
0.259230
0.784346
0.417429
-0.458136
0.859368
0.143384
-0.468203
0.423117
-0.847406
-0.815067
-0.996505
0.221519
0.249236
-0.236235
0.531862
0.052785
0.247788
0.327481
0.069033
0.283906
-0.058444
-0.188624
0.005263
0.369276
0.305615
-0.412921
-0.528438
-0.576361
-0.624910
0.220094
-0.205081
0.366163
-0.671185
0.797516
0.411305
0.793411
-0.215961
0.446219
-1.051650
0.779040
0.815828
0.563935
-0.813060
-0.505815
0.384100
-0.492827
-0.148228
1.002224
-0.901944
0.797613
-0.354682
0.755432
-0.987116
0.233371
0.173363
-0.919322
0.183521
0.173731
-0.856913
-0.981286
0.380513
-0.365047
0.888827
0.316974
0.186592
0.483771
-0.682612
0.016681
0.283751
-0.896323
-0.098291
-0.283408
-0.579599
-0.746539
0.053748
-0.670873
0.018003
-0.028172
-0.687710
-1.044915
0.105246
-0.875135
-0.792765
0.020524
-0.173001
-0.683704
0.765565
-0.647675
-0.083420
0.992358
0.395023
-0.019625
-0.893777
-0.659791
0.085874
0.488999
-0.206521
-0.409354
-0.554318
0.554636
-0.003662
-0.963368
-0.445073
0.075832
0.359739
0.421292
0.471889
-0.852777
-0.802202
0.713305
0.185907
-0.059541
-0.574812
1.011917
0.260665
-0.534976
-0.605204
-0.604041
0.557112
0.865984
-0.827348
-0.904791
-0.159810
-0.492999
-0.449237
0.675818
-0.908402
-0.809619
0.017461
0.288127
0.472872
0.652140
-0.289504
0.825023
-0.913408
-0.307438
0.836552
0.200270
0.207685
-0.076175
-0.302087
0.297212
-0.024013
0.231561
-0.253081
-0.138118
-0.357370
0.667043
-1.020139
0.492330
-0.592920
0.305731
0.865552
-0.549110
0.790724
-0.843004
0.235534
0.362300
0.382201
0.179567
0.824473
0.507951
-0.542398
-0.468095
-0.947014
0.312232
-0.638742
0.510930
0.136120
-0.605031
-0.199336
0.118057
-0.419077
0.470632
-0.323977
0.263748
0.101062
0.062242
0.890568
0.391199
0.660031
-0.521972
-0.108103
-0.455108
0.741356
-0.676403
-0.466748
0.144158
0.094190
0.550986
-0.326671
0.386767
-0.148482
0.062511
0.237427
0.900946
0.541386
0.132829
0.409852
-0.277843
0.249369
-0.872009
0.238960
-0.958059
0.392543
0.208705
0.933414
-0.720942
0.911777
-0.184459
-0.414684
0.952288
0.224586
-0.478716
0.242354
0.235014
-0.886411
0.197652
-1.070258
-0.182885
-0.416405
0.321264
-0.318445
0.491853
-0.336846
-0.101258
0.952801
0.430118
-0.705638
0.495240
-0.582220
-0.860253
0.595213
-0.335242
0.621855
-0.939117
-0.165851
0.849612
-0.608263
0.587887
0.053022
0.720832
-0.667716
-0.334844
-0.169558
-0.781972
-0.563991
-0.216235
-0.729506
-0.227138
-0.619016
-0.657405
0.879867
-0.481836
0.446247
-0.999945
-0.558295
0.081876
0.497795
0.430752
0.251634
-0.963455
0.935022
0.276816
0.171103
-0.470096
0.611485
0.021391
-0.834903
0.018977
-0.215453
0.474199
0.917669
0.683794
0.721419
0.295641
-0.787304
-0.013891
0.835978
0.015805
0.117107
-0.318938
-0.013397
-0.040656
0.744958
-0.360845
-0.383204
1.009687
0.697447
-0.318423
0.361035
0.669849
0.500801
0.434461
0.724100
-0.726904
-0.055572
-0.896816
0.548001
0.046050
-0.725653
-0.155539
-0.122723
0.777231
-0.664347
0.253762
0.005433
-1.032333
0.502668
-0.768564
-0.441437
0.848310
-0.894165
0.514752
0.674045
0.721779
-0.966628
0.677734
0.024224
-0.666371
0.805030
-0.819000
-0.344940
1.006857
-0.091844
-0.708476
0.377882
0.317156
0.221158
0.477945
0.807909
0.491797
-0.877779
-0.612336
0.540616
0.220845
-0.316271
0.448964
0.645479
0.440505
-0.353657
-0.677740
-0.532481
0.276759
-0.068367
-0.009157
-0.001350
-0.322052
0.066279
-1.012612
0.582197
-0.001858
0.092219
0.403443
0.680350
-0.314196
-0.564711
-0.043185
-0.251738
0.926890
0.738804
0.031417
-0.372724
0.203815
-0.497506
0.825540
0.790559
0.707991
0.886204
0.377812
-0.224126
0.451600
-0.302699
-0.035695
-0.115164
-0.694541
0.787394
-0.638900
-0.967879
0.175242
-0.758155
-0.503884
-0.811177
-0.550679
0.169341
0.015264
-0.412319
0.327764
-0.184815
0.882763
-0.043116
-0.476714
-0.780068
-0.662810
0.583715
-0.792070
0.040826
0.718529
0.200566
-0.814427
-0.602160
-0.297248
-0.655744
-0.250895
-0.496522
-0.486294
0.123387
-0.794781
0.177264
0.459914
-0.587594
0.144277
0.641242
0.893843
-0.512352
-0.404482
0.597242
-0.596220
0.466575
0.364653
-0.547711
1.010277
0.125407
0.188585
-0.030162
-0.444309
-0.022099
0.457898
0.140475
-0.752882
0.596164
0.559546
-0.881558
-0.315946
-0.337065
0.602459
-0.069326
0.290273
-0.511018
-1.004129
-0.354985
-0.548610
0.526648
0.333157
0.893909
0.909233
0.504162
0.263394
-0.727079
-0.312438
-0.783065
0.398366
0.925313
-0.410348
0.268880
0.723793
0.944539
-0.283576
-0.483232
-0.898065
0.895683
-0.673178
-0.745732
0.281060
0.481004
-0.263328
-0.485328
-0.132093
-0.572179
-0.309143
0.462102
0.130256
-0.926599
0.159897
-0.421118
0.408284
-0.583289
-0.321457
-0.538508
-0.658716
-0.843610
0.954198
-0.715599
0.489285
-0.688879
0.424800
0.321478
0.560238
0.739134
0.887256
-0.397649
-0.382088
-0.781388
0.759549
-0.302913
0.770107
0.655594
-0.343476
0.447864
-1.054635
0.910579
0.659047
0.361978
0.122750
-0.560992
-0.721648
-0.642142
-0.844364
0.721110
0.873174
0.757721
0.673230
0.180648
0.473783
0.436011
0.073338
-0.062921
0.559927
-0.896911
-0.994650
0.390117
0.812493
-0.920598
-0.231185
-0.231473
-0.972691
-0.736552
0.673901
0.228698
-0.215842
0.098135
0.147189
-0.884695
-0.646827
0.681212
-0.364921
0.146168
-0.514518
0.275248
0.329983
-0.841633
0.047492
0.485349
-0.373774
-0.425700
-0.044055
-0.529674
-0.495770
-0.413227
-0.086492
0.132333
-0.894458
-0.115490
0.991069
0.303798
-0.396385
-0.604215
0.638272
0.046561
-0.288263
-0.039265
-0.701769
0.416511
0.778643
0.595383
-0.085554
-0.649074
-0.044535
0.661678
0.343095
0.121420
0.840840
0.184243
-0.841113
0.412432
-0.571383
-0.026314
0.359802
-1.092792
-0.034389
0.418756
0.487911
-0.328794
0.717142
0.781338
-0.119982
0.063854
-0.860979
-0.437093
0.129322
0.472150
0.251699
-0.676091
0.401690
0.741251
-0.720007
0.199759
-0.421446
-0.586463
0.326692
0.008285
1.016190
0.073832
-0.249853
-0.981156
-0.888251
0.187715
0.713191
-0.910554
0.593802
-0.301090
-0.387849
0.739324
-0.462406
1.008944
-0.497683
-0.308860
-0.925239
0.144935
0.769123
-0.797798
-0.270048
0.119455
-0.225544
0.418144
-0.199712
0.816063
-0.705342
0.259567
0.472623
-0.854784
-0.815887
0.621006
-0.854095
-0.160188
-0.805660
-0.688817
0.132246
-0.433468
0.114518
-0.180356
0.069329
-0.345650
-0.903924
0.363345
-0.365557
0.606455
0.825917
-0.122952
0.495621
0.743153
0.555932
0.637435
0.186488
-0.362913
0.469262
-0.605931
0.957740
-0.517664
0.872430
0.026351
0.423598
-0.353460
-0.669589
0.427649
0.864477
-0.945923
0.496058
-0.009346
-0.731671
0.311861
0.749727
-0.916513
0.392106
-0.206399
-0.887815
0.631374
0.672029
-0.312154
0.297572
-0.833451
-0.535758
0.150859
0.105458
-0.814549
-0.856642
-0.815755
0.037973
0.521540
-0.849634
0.740899
0.554700
0.011307
0.616984
0.822250
0.310159
-0.922177
-0.600714
0.755545
-0.788148
-0.050498
0.419192
-0.471613
-0.129134
0.422307
-0.633167
-0.319272
0.522345
-0.500514
-0.880977
0.319339
-0.151510
0.103356
-1.009126
-0.580823
-0.933707
0.273986
-0.289096
0.267575
0.693401
0.042117
0.451260
0.768527
-0.588350
-0.926926
0.002619
-0.521305
-0.568688
0.658968
-0.725138
0.827960
-0.177048
0.301328
-0.493946
-0.451079
0.085197
0.799710
-0.434958
0.265965
0.028827
0.774435
0.364696
0.978048
-0.228127
-0.170419
-0.735349
-0.830433
-0.725735
-0.615443
-0.425602
0.353621
-0.371527
0.440059
0.556494
0.551686
-0.132644
0.842997
-0.830580
0.202315
-0.569447
0.755806
-0.211447
-0.575466
0.621019
0.356329
0.033677
-0.490917
0.480842
0.320335
0.128180
0.709388
-0.222294
-0.101138
0.280430
0.773883
-0.738949
0.155180
0.430133
0.866300
0.992885
-0.068756
-0.527285
0.910576
0.557835
0.505966
-0.272460
0.069228
0.995873
-0.924518
0.641442
0.287587
0.335094
-0.060381
0.218839
0.071039
0.848786
0.122264
0.027550
0.963176
0.806483
-0.135741
0.681449
0.417124
0.058580
-0.639444
-0.040963
0.121397
0.418787
-0.187287
0.271068
-0.467434
-0.824955
-0.325869
-0.171719
-0.315509
-0.673645
0.949097
-0.356782
0.536262
-0.384012
-0.780188
0.014409
-0.851350
-0.593924
0.901819
-0.064206
0.978947
-0.317600
0.856808
0.075362
0.050198
0.303022
0.884932
0.343172
-0.678403
-0.747630
-0.103931
-0.189341
0.180467
0.955546
-0.335845
0.386193
-0.720188
0.813788
0.369651
1.006283
-0.686198
0.992332
-0.474520
0.761842
0.461839
0.341724
0.175332
0.288759
-0.172449
-0.362370
-0.333844
-0.067601
0.079343
0.134616
-0.068682
-0.489181
-0.210333
0.590258
0.314659
0.384682
0.217627
-0.819623
-0.020352
-0.222028
0.613717
0.318383
0.556550
0.085631
-0.211832
0.244821
-0.785671
0.138710
-0.933423
-0.551892
0.827640
-0.876562
0.342919
-0.857697
-0.579053
-0.040922
0.184395
-0.872464
-0.642687
-0.850952
-0.734818
-0.833702
-0.574941
0.873699
0.232175
0.603834
-0.185672
-0.712920
0.902427
-0.661162
-0.383316
0.161331
0.721280
0.165432
-0.335157
-0.423410
-0.656512
0.652312
0.095772
-0.801287
-0.878369
-0.939057
-0.874855
-0.422782
0.676484
0.578838
0.015003
0.095203
-0.201261
-0.202825
0.217044
0.010509
-0.665946
0.360496
0.360266
-0.978756
0.131507
0.912555
0.888194
-0.149269
-0.720732
0.658793
-0.031135
0.840297
0.631539
-0.214750
0.097990
-0.247430
0.174583
-0.038499
0.326468
0.342635
-0.688434
0.157867
-0.712066
-0.739577
0.531566
-0.739713
0.869174
0.563444
0.611589
0.739701
0.128510
-0.106080
0.395359
0.875515
-0.357397
0.582824
-0.749938
0.736373
0.461446
0.046732
-0.628055
-0.899119
-0.034795
-0.146771
0.255556
1.037432
-0.674550
-0.145442
-0.564484
-0.310599
0.619872
0.808333
-0.136692
-0.693994
0.239756
-0.375896
0.189783
0.465692
0.231782
-0.954391
-0.932990
0.144530
0.400945
0.662541
-0.499454
0.907668
0.584742
-0.890728
-0.096487
-0.514285
-1.014269
-0.405388
-0.903653
-0.597978
0.891030
-0.628499
-0.890151
-0.167459
-0.854047
0.281719
-0.801169
0.863615
0.618312
-0.261088
0.607450
-0.237246
-0.520319
-0.121556
-0.257981
0.668202
0.594022
-0.230030
-0.885063
0.586378
-0.357429
0.320077
-0.298219
0.414234
-0.463231
0.068694
0.491843
0.466661
1.071101
1.097235
-0.992753
-0.831372
0.500101
0.579775
-0.432145
0.075719
0.166608
0.717319
-0.730889
-0.340638
0.483660
-0.106773
-0.586171
0.124798
-0.515255
0.194169
0.639569
-0.463242
-0.053893
-0.750258
1.056608
-0.427381
0.512717
0.715640
-0.459048
-0.639923
0.419609
-0.418013
-0.675017
0.916820
0.720090
0.364680
-0.407460
0.650342
-0.288423
-0.466692
0.668949
0.643111
-0.064876
0.297327
-0.307615
0.326363
-0.229279
-0.474039
0.202580
-0.352205
0.382953
0.579513
0.853045
-0.746766
0.316242
0.024933
0.563918
-0.750578
0.733347
0.440834
0.018290
0.297373
0.928171
0.004095
-0.608007
0.617686
-1.085020
-0.143116
0.826486
0.833292
0.108925
0.537454
-0.118361
0.030780
-0.654736
-0.430912
-0.137977
-0.069918
0.587830
0.101634
-0.868894
-0.789059
-0.552898
-0.155495
0.565571
-0.380727
0.895832
-0.038470
0.391961
0.824588
-0.897022
-0.703501
0.067327
-0.006661
-0.801699
-0.669661
0.581243
0.573957
-0.063953
-0.940904
0.342842
0.227681
-0.229479
0.962095
0.347645
-0.021183
0.956488
0.824278
0.419492
-0.602090
0.628619
-0.775191
0.811618
0.486627
0.225557
0.290239
-0.113619
-0.823165
0.786073
-0.301819
-0.898751
0.190204
0.148044
-0.139050
-0.149274
0.325487
0.219683
0.262995
0.032121
0.243295
0.077414
0.992638
-0.755722
-0.086986
-0.765910
0.663281
0.059449
0.751052
-1.010546
-0.134358
-0.262141
-0.517811
-0.649775
0.655008
0.616616
-0.176507
-0.847925
0.377877
0.111286
-0.953274
0.055674
-0.089110
-0.354127
0.714187
0.023991
-0.805674
0.513612
0.216490
-0.118214
0.316849
0.864083
0.225960
0.076155
-0.645956
0.762912
0.394996
0.735231
0.483597
0.198116
0.464521
-0.089620
-0.200431
0.290183
-0.056864
0.682844
0.935611
0.629423
-0.852697
-0.723245
0.905094
-0.288578
-0.922446
-0.775134
-0.216719
-0.876249
0.199794
-0.322093
-0.717101
-0.687124
0.237610
-0.708886
0.997491
-0.368244
0.335294
-0.836348
0.796400
0.924736
-0.711550
0.425116
-0.948696
-0.884477
-0.970052
0.621621
-0.164462
-0.416916
-0.968929
-0.828509
-0.248962
-0.325172
0.755782
-0.173513
-0.012952
-0.521808
0.997060
0.062816
0.059180
0.816457
0.144774
-0.814200
0.341487
0.175709
0.751678
-0.412251
-0.631703
-0.744214
0.765048
0.900377
-0.316216
-0.352509
-0.797026
-0.467615
-0.592695
-0.862746
-0.054775
-0.654686
-0.172882
-0.603014
-0.392840
-0.927612
0.215629
0.608638
-0.336874
-0.017024
0.364796
-0.498658
-0.147270
0.064170
-0.495877
0.735838
0.575873
-0.226550
0.674282
0.056177
-0.207831
-0.052567
-0.044653
-0.463761
-0.486080
-0.557212
-0.738757
0.399196
-0.939077
0.246579
-0.307956
0.081577
0.289444
0.968537
-0.694600
0.020412
0.501559
-0.043118
-0.252624
-0.871120
-0.814634
0.577316
0.420870
0.407296
0.080612
-0.513648
-0.760713
0.819388
0.285279
0.431881
-1.005872
0.615773
-0.483330
0.139271
-0.796922
-0.769338
0.687593
-0.801695
-0.293629
-0.560343
0.705578
-0.469803
0.264106
-0.047192
-0.787505
0.925722
0.626147
0.165718
-0.632357
0.199150
-0.509181
0.216361
-0.625950
-0.879637
-0.282708
0.115511
-0.925056
-0.912628
0.080247
-0.736592
-0.476419
0.850275
0.039253
-0.468151
0.116551
0.951022
0.253855
0.168156
0.527075
-1.000621
-0.366879
-0.398638
-0.231331
-0.494024
0.777151
0.767106
0.009875
-0.056767
-0.909907
0.085902
-0.094931
0.434511
0.237315
0.823155
0.169179
-0.178540
0.415797
-0.426241
-0.991254
-0.685479
-0.042600
0.198333
-0.417277
-0.362754
0.620451
-0.801098
0.231607
0.201830
0.742779
0.870532
-0.441109
-0.089976
0.118759
-0.058841
-0.263588
-0.127039
-0.618621
-0.929479
0.804014
0.880140
-0.452748
0.031997
0.887618
-0.170282
-0.451012
-0.960105
0.317528
0.081619
0.920898
-0.292001
0.728164
-0.822317
-0.939725
-0.573934
-0.512695
0.861586
0.128761
-0.814867
0.651206
-0.499204
-0.792012
-0.679634
1.017849
0.020259
0.015276
-0.562896
0.611081
0.700716
0.281099
-0.959596
1.165543
-0.430703
0.088869
0.855160
-0.145999
-0.992806
-0.146225
-0.719038
-0.203066
-0.180002
0.631400
-0.422967
-0.089574
-0.586858
-0.103134
-0.648563
-0.295798
0.847574
0.106592
0.641794
0.302994
-0.388923
0.182162
0.174677
-0.515535
0.723439
0.199253
-0.118034
0.979818
-0.107475
0.750265
-0.658524
0.596302
-0.234363
-0.360489
-0.229293
0.495332
-0.788410
0.304281
0.256631
-0.108157
0.515051
0.709405
0.018208
-0.397042
0.615750
0.890166
0.109590
-0.135909
0.175168
-0.689568
0.142905
-0.958876
0.462506
-0.929975
-0.164284
-0.729939
-0.732343
-0.569220
-0.497088
0.806291
0.823684
0.100890
0.656913
-0.068529
0.967852
-0.875267
-0.440088
-0.202913
-0.160318
-0.260799
-0.678729
-0.694868
0.460475
0.244143
0.930701
-0.652642
-0.381978
-0.071927
-0.586029
0.775568
-0.065398
1.001307
0.188836
-0.359136
0.745761
-0.226834
0.287548
0.420907
1.005050
0.794625
-0.515048
-0.067576
0.790973
-0.302760
-0.816771
-0.461423
-0.990762
-0.065773
-0.886841
0.746228
0.562966
0.142701
-0.945737
0.513167
-0.445743
-0.507386
-0.102293
0.134123
0.480581
-0.676166
0.446803
-0.459362
0.636397
0.624783
-0.128113
-0.477901
-0.768981
-0.581113
-0.465187
0.651755
-0.539835
0.948142
0.019590
-0.794271
0.991483
-0.598405
-0.841515
-0.674173
-0.020749
0.213947
0.629755
0.857386
-0.087161
0.262469
0.777677
-0.193264
-0.969369
-0.305983
-0.589862
0.563992
-0.733559
-0.144414
0.193779
-0.386175
-0.667757
0.690216
0.011327
0.303053
-0.818852
1.046898
0.705884
-1.026632
-0.162057
0.058841
0.258176
-0.802318
0.915810
-0.457882
0.794939
-0.420880
0.735164
-0.966809
0.173899
0.159346
0.259574
-0.667775
0.835698
0.500977
-0.382805
0.784353
0.469123
0.690146
-0.469889
0.498781
0.603077
-0.743230
0.508187
-0.304620
0.781893
-0.470962
0.371750
-0.680671
0.776206
-0.726866
-0.224202
-0.279399
0.729211
-0.663866
0.734082
0.815817
0.217912
0.392499
-0.332549
-0.507563
-0.764378
0.890066
0.133093
0.261751
-0.392589
0.492742
0.140876
0.082485
0.067998
-0.303551
0.279122
-0.504547
-0.409654
0.253744
0.524494
-0.196435
-0.695518
0.802401
0.138698
-0.848113
-0.251547
0.058702
-0.933410
-0.468873
0.989120
-0.105208
0.476571
-0.474398
0.490441
0.748740
0.106634
-0.619810
-0.885015
0.781632
0.854374
-0.386430
0.506865
0.947325
-0.656238
0.804207
-0.492789
0.803270
0.769717
0.548483
0.744172
-0.251085
0.571794
-0.680033
0.672922
-0.914694
0.138842
-0.270139
0.644955
0.364401
0.145218
-0.006054
-0.837523
0.843035
0.785783
-0.936753
-0.431522
0.906307
0.574175
-0.522684
0.369661
0.142138
-0.008000
1.014428
0.840967
-0.954638
0.395911
0.770806
-0.097763
-0.256611
-0.459403
-0.632754
0.138481
-0.114758
0.555218
-0.140001
0.223118
0.500771
0.094747
-0.861051
-0.555936
-0.810997
-0.843401
-0.503325
-0.845920
0.861167
-0.210979
0.288578
-0.770239
-0.505385
0.891608
0.021713
-0.005076
0.428997
-0.578757
-0.204210
-0.664392
-0.586077
-0.951544
-0.072454
0.911456
-0.081319
0.236840
-0.315422
0.333277
0.636008
0.053386
0.793373
-0.286427
-0.849200
0.887234
-0.659632
0.213513
0.900365
-0.326404
-0.439538
-0.126857
0.123580
0.946850
-0.112581
-0.818146
-0.743882
-0.391510
0.367032
-0.088836
0.804598
0.300111
-0.686102
0.768020
-0.993813
-0.404026
0.668880
0.114510
-0.211124
0.569231
0.340071
0.737081
-0.696579
-0.491252
0.751096
0.374044
0.038126
0.363424
0.628240
0.801412
0.398106
-0.433897
0.169146
0.385022
0.514583
-0.229727
0.620252
1.022710
0.536331
-0.462451
-0.936251
0.008065
0.223947
0.543572
-0.916651
-0.104553
0.780828
-0.017481
-0.342129
0.663716
0.961201
-0.527897
-0.957046
0.816189
0.970469
-0.625691
-0.894328
0.954493
-0.666119
0.111480
0.059239
-0.415950
-0.443769
0.733836
0.722122
-0.188240
0.499925
0.479117
0.644638
-0.393139
0.909533
-0.496162
-0.846047
0.704612
0.921730
0.213216
0.262698
0.198601
-0.160590
0.120036
0.785999
0.851033
0.195147
0.698738
0.644531
-0.465349
0.746721
0.471415
-0.975221
0.631858
0.308368
0.375710
-0.801566
0.065308
0.369378
-0.860951
-0.804342
0.881662
0.148238
-0.856938
-0.116005
0.256371
-0.384141
-0.778499
-0.806124
-0.643815
0.140656
0.192636
0.599366
-0.615175
-0.122235
0.291593
0.435408
0.143259
0.277006
-0.753609
0.340929
0.703108
0.545131
-0.192132
-0.330742
-0.476217
-0.980362
0.297249
-0.626124
-0.357329
-0.116638
-0.872758
0.235151
-0.424923
0.374293
0.728490
-0.127600
0.929091
-0.154599
-0.637702
0.407162
0.404222
0.763967
-0.943960
0.280014
0.066424
-0.095346
0.170683
-0.834711
-0.452428
0.389004
-0.496875
-0.897941
-0.403428
0.080224
-0.682230
-0.807056
-0.033794
0.101943
0.246643
-0.293039
-0.618532
0.425601
-0.991511
-0.271535
0.821717
-0.309079
0.650621
-0.966122
0.306411
-0.230026
0.862995
-0.830480
0.412155
0.550962
0.571459
0.323212
-0.470775
-0.719213
-0.442143
-0.889000
0.880464
1.017350
0.602548
0.306455
-0.374108
0.409853
0.322749
0.593506
-0.912696
0.003827
-0.346816
0.382136
-0.180071
0.729805
-0.777189
-0.816635
-0.388877
-0.952033
0.126316
0.536743
0.788820
0.060667
-0.755211
-0.428171
-0.954560
-0.989241
-0.297495
0.454915
0.985519
-0.749327
-0.675637
-0.157079
-0.939401
0.534491
0.002282
0.718157
0.328840
0.795299
0.353586
-0.814376
-0.307777
0.287098
-0.706100
0.352190
-0.989535
0.378709
-0.690053
0.275017
0.487549
0.699251
-0.704572
-0.456710
0.459503
-0.234174
0.032618
-0.729803
-0.239343
0.887578
-0.542644
-0.958950
-0.263186
-0.488765
-0.014751
-0.351611
0.711215
-0.297837
0.173947
0.698490
-0.569422
0.416433
-0.333996
0.187103
0.486544
0.465720
0.856781
-0.751558
-0.291955
-0.272721
0.409608
0.372853
-0.804650
-0.109650
0.345065
0.554319
-0.749924
0.512119
-0.623872
0.371287
0.933480
-0.883273
-0.134115
-0.931050
0.805765
0.013436
0.242023
-0.423488
-0.165669
0.261859
0.727846
0.553913
0.341427
0.283741
-0.557261
-0.372616
0.787166
0.751125
0.399924
-0.335601
0.408376
0.223524
-0.109097
-0.333248
0.717227
0.756309
-0.193648
-0.922833
0.068558
-0.719182
0.784131
-0.921798
0.903704
-0.459084
0.291796
-0.671375
-0.210693
0.082164
-0.398419
-0.837997
-0.303502
0.060799
0.028167
-0.854563
0.644176
-0.271990
0.913082
0.792690
0.492091
0.896490
0.258011
0.016251
-0.278474
0.433732
0.380493
-0.163609
0.185268
0.171593
0.114561
-0.460420
0.321117
-0.396535
0.580369
1.011276
0.552277
0.811409
-0.471489
-0.972017
-0.660712
-0.080406
-0.094189
-0.392368
0.118925
-0.824158
0.722302
-0.963476
-0.167935
-0.434687
-0.409276
0.298308
0.183424
0.515996
0.163271
-0.126641
-0.691289
0.158500
-0.074136
0.374522
-0.128446
-0.470403
0.169135
0.220276
0.833456
-0.461025
0.860235
0.083185
-0.639043
-0.207734
-0.835713
-0.808884
0.617371
-0.319513
-0.076080
-0.943574
0.177561
-0.002600
-0.635627
0.832341
0.464570
0.783073
1.038926
0.809498
-0.195743
-0.964671
-0.842642
0.148937
-0.761065
0.281992
-0.042569
-0.415356
-0.875710
-0.881811
0.345180
-0.590560
0.116417
-0.864238
0.765134
-0.743209
0.110000
0.210815
-0.554317
-0.134239
0.694665
-0.940268
0.687739
-0.229619
0.447078
0.523667
0.326309
-0.912655
0.410245
0.014387
0.254688
-0.101513
0.695121
0.519194
0.988860
-0.437820
0.259036
0.641180
-0.875343
-0.409184
0.298575
0.925721
-0.485863
-0.828904
0.328116
0.848093
0.619416
-0.308707
-0.957860
0.492944
0.722044
-0.781714
-0.507885
-0.730625
-0.578850
-0.483019
-0.305460
-0.766351
-0.335133
-0.891881
-0.435355
-0.841030
0.668112
-0.186177
-0.530283
0.097677
0.074776
-0.282960
0.073442
-0.557407
1.020832
0.289973
-0.736301
0.435644
0.144121
0.135050
0.022771
-0.776578
-0.871459
0.654847
0.489797
-0.187168
-0.503453
0.186202
0.903899
-0.623025
-0.096416
-0.163458
0.031823
0.385478
-0.899898
0.202542
-1.024270
0.599587
-0.381149
-0.838981
0.714485
0.135771
0.435587
0.535307
0.299739
-0.858063
0.817879
-0.809391
0.181190
-0.862494
-0.698552
-0.331629
-0.974076
0.942772
0.898368
0.838506
0.698166
0.283213
1.001745
0.798228
0.896504
-0.690427
0.379676
-0.375329
-0.032872
-0.530921
-0.262698
-0.824957
-0.552782
-0.756079
-0.728737
0.243324
-0.083031
-0.720683
-0.578610
-0.244803
-0.875742
0.444663
0.915100
-0.382005
-0.029924
-0.788621
0.576159
-0.199681
0.887969
0.602357
-0.563648
0.321663
0.298261
-0.516235
0.079210
0.252106
-0.302686
-0.225319
0.366707
-0.242695
-0.782306
-0.692569
0.796192
0.837876
0.010091
0.786208
-0.880823
0.038610
0.269645
0.565511
-0.149461
0.564308
0.408273
-0.604624
0.326478
0.537066
-0.866431
-0.187860
0.687325
-0.177890
0.044162
0.023086
0.365266
0.031681
-0.362811
0.770522
0.613372
0.379794
0.394426
0.007685
-0.124924
-0.834833
0.448286
0.698204
0.156577
0.166263
-0.532851
0.477580
0.580188
-0.076019
0.334785
0.105289
0.038069
0.741220
-0.362874
0.721215
0.727819
-0.592650
-0.500548
0.534273
-0.303948
0.507494
-0.217577
-0.631855
-0.732500
0.470896
-0.242991
0.652277
-0.895620
-0.949404
0.526519
-0.844547
-0.496416
0.557895
0.666315
0.564842
-0.547100
0.039882
0.190773
-0.491588
-0.645947
-0.548757
-0.086672
0.784461
-0.699337
-0.503287
0.707168
-0.518745
0.623575
0.915446
-0.186951
-0.936188
0.380950
0.401641
0.196471
0.495951
0.101155
0.372553
0.142805
-0.105927
0.833687
0.728742
-0.386204
-0.653993
0.730092
0.683982
-0.284094
0.436586
0.963960
0.695164
0.706268
0.387769
-0.336057
-0.512514
-0.782084
0.579943
-0.849357
0.248759
-0.304860
0.712416
-0.127143
-0.426847
-0.377772
-0.294093
0.261739
-0.701910
0.702827
0.015685
-0.508526
-0.843202
-0.660841
0.252376
0.548266
-0.724528
0.978168
-0.150268
-0.615374
-0.974069
-0.323933
0.546274
0.255949
0.435826
-0.313297
-0.681766
0.143485
0.992787
0.083131
-0.121545
0.055130
-0.626199
-0.144683
-0.200881
0.891926
0.762597
-0.331944
-0.568485
-0.150702
-0.285775
-0.951806
0.626540
-0.831671
0.826915
0.198684
0.669650
0.195211
0.819068
0.288424
0.242860
0.314907
0.802853
0.901910
0.436850
0.279367
0.161358
-0.657426
0.347157
-0.142421
-0.909420
0.710803
0.047545
-0.720742
-0.908808
0.245144
0.611581
-0.407169
0.172696
-0.125146
-0.334936
0.015173
-0.753160
0.364624
-0.700497
0.711049
0.949168
0.369188
0.679127
0.365988
-0.395933
0.458134
0.432702
0.709769
-0.144269
0.441817
0.632964
0.734876
0.669625
0.569291
-0.936969
0.588616
0.436424
0.006135
0.574308
0.356672
-0.362163
0.443324
0.691338
0.588056
-0.626520
0.341115
0.209804
-1.056786
-0.188193
-0.808353
-0.303893
-0.984215
0.603925
0.193699
0.406397
-0.930596
0.731674
0.191864
0.725460
0.910846
-0.777698
-0.159393
0.913817
-0.756306
0.653505
0.557803
0.552612
0.213091
0.318800
-0.052665
0.435439
-0.836725
-0.788914
0.951490
0.741588
-0.305851
-0.028831
-0.663984
0.543376
0.470390
0.589397
-0.635749
0.268279
-0.941284
-0.813724
0.577292
-0.863549
0.373892
-0.668076
-0.580049
0.264179
0.075966
-0.533308
-0.666334
-0.196782
-0.964132
-0.639652
-0.079266
-0.646349
-0.771138
0.109636
0.935646
-0.181711
-0.439253
0.019875
-0.144438
-1.010508
0.173556
-0.246068
0.294214
0.595956
0.429558
-0.996899
-0.437296
0.769689
-0.805005
-0.548535
-0.245537
-0.442911
0.790651
-0.613104
0.350576
-0.405630
-0.243595
-0.974092
0.672030
0.041580
0.445962
-0.391772
-0.915226
-0.957516
-0.874821
0.882344
0.374874
0.340861
-0.576447
-0.404368
0.530846
-0.528502
0.567453
-0.725296
0.022595
0.973697
0.581715
0.652793
0.426920
-0.491043
0.871562
0.323011
-0.126474
0.518321
0.524206
-0.335806
-0.647978
0.598235
0.853412
0.376717
-0.278097
0.807812
0.846866
-0.640866
-0.147004
-0.818019
-0.448682
-0.802788
-0.704019
0.002539
-0.833907
-0.973346
0.718401
-0.973079
-0.451003
-0.890473
0.924147
0.917503
0.962425
-0.641035
0.731601
0.555092
0.874799
0.840355
-0.489878
0.836592
0.429586
0.987681
-0.599168
-0.023153
0.129017
-0.403369
0.914558
-0.772625
-0.449981
0.468705
0.506459
-0.535542
0.241490
-0.094305
-0.581617
-0.442398
-0.718921
0.680563
0.489393
0.599834
0.501414
0.280224
-0.198879
0.765316
-0.499110
-0.867544
0.915018
0.349386
0.108308
0.654747
0.563366
0.184727
0.305203
-0.910918
0.802011
-0.213941
0.157639
0.046980
0.082572
0.100237
-0.200323
0.776257
-0.988515
0.668881
0.563103
0.143610
0.704220
0.493885
-0.593270
-0.622151
0.897765
0.119045
-0.688488
-0.886607
0.192528
-0.346687
-0.821272
-0.505322
-0.632430
-0.753464
-0.767422
-0.682148
0.593739
-0.352851
0.669952
-0.872277
-0.138638
0.392127
-0.439415
-0.515387
-0.277591
0.517558
0.151831
0.402587
0.666395
0.728843
0.758343
-0.080479
0.080689
0.324830
0.572509
-0.123388
0.691310
-0.337372
0.512044
-0.959375
0.011992
-0.417064
-0.951988
-0.239368
-0.942930
0.981624
-0.267753
0.203611
0.634890
-0.519477
-0.382186
-0.658687
-0.573012
-0.332203
0.018631
1.020784
-0.540594
-0.046564
-0.268045
-0.593546
-0.078683
0.583049
0.369626
0.540462
0.508055
0.668962
0.303360
-0.440364
-0.289447
0.687691
0.400167
0.006858
-0.770713
-0.634527
-0.941622
-0.538810
-0.580604
-0.143092
0.093152
-0.591638
-0.009464
-0.770224
0.103883
-0.331903
0.082609
-0.546126
-0.718011
0.113639
0.227441
0.864487
0.033915
0.156465
-0.310524
0.167573
-0.589533
-0.383394
-0.158708
0.463215
0.297774
-0.671117
0.382188
-0.367553
-0.591029
0.057785
0.698944
-0.874730
0.356445
0.316664
-0.430232
-0.566608
0.156477
0.717884
0.480693
0.427605
0.344121
0.264284
-0.405384
-0.310804
-0.661923
-0.408330
-0.022525
-0.837470
0.402918
0.677643
0.616194
0.947541
-0.718119
-0.882486
0.962222
0.542402
-0.973096
0.244996
-0.869176
0.869013
0.549361
0.252339
0.284175
0.147056
0.904403
-0.666956
0.889592
-0.355488
0.675080
0.486837
-0.317769
-0.280679
-0.011674
-0.252513
-0.010672
-0.334716
-0.033741
-0.118930
0.161539
0.393277
0.883258
-0.825455
0.673783
0.241065
0.710469
-0.874483
0.374872
0.612020
0.541736
0.739256
0.659443
0.329851
0.572140
-0.309107
-0.079890
-0.201001
-0.141142
0.024615
-0.681043
0.717896
-0.810861
-0.073481
-0.740032
0.717964
0.097778
-0.950324
0.609674
-0.751072
0.645290
-0.583613
0.138009
0.767399
-0.905739
-0.883051
0.270138
0.020391
-0.875149
-0.334694
0.681028
-0.780200
-0.841368
-0.009703
0.799229
-0.435884
0.911682
0.746823
0.903580
-0.101519
0.215204
0.626925
-0.533358
-0.628112
0.027336
0.042988
-0.862319
-0.326433
-0.779076
0.222776
-0.676156
0.611526
0.744699
-0.852699
-0.655165
-0.250563
0.192778
0.436694
0.080477
0.487037
0.248040
0.732840
0.479680
0.046115
0.604727
-0.457376
-0.029143
-0.326215
0.558670
-0.171197
-0.412565
-0.870697
-0.600776
-0.777402
-0.697392
-0.204410
0.255894
0.254525
-0.580260
-0.153685
0.389370
0.584224
0.387782
0.840815
-0.605500
0.238540
-0.029565
-0.154372
-0.420020
-0.663806
0.024700
0.475871
0.418686
0.731119
0.320463
-0.642880
-0.853048
0.579046
0.921365
-0.313674
-0.830252
-0.651263
-0.104819
-0.599818
-0.971639
0.454123
0.358573
0.115728
-0.505209
0.146197
-0.317192
0.788430
-0.195260
-0.487196
0.467288
0.401710
0.592085
-0.322480
-0.108846
-0.095965
0.742015
-0.386653
-0.059467
0.210186
-0.050528
0.207766
0.832043
-0.512404
-0.605261
-0.450756
-1.002434
-0.743900
0.184606
0.026364
-0.071950
0.698468
-0.543428
0.065830
0.027800
-0.295826
-0.887908
-0.823066
-0.244309
0.081027
0.442419
-0.291551
0.633260
-0.210758
0.027058
0.817082
0.288186
-0.176140
0.058111
-0.148213
0.586170
-0.244966
0.706769
-0.436023
-0.939687
0.836042
0.835274
0.894623
-0.376639
-0.676136
-0.034529
0.324770
0.355485
-0.955613
0.385713
-0.654208
0.316833
0.916062
0.846015
-0.613927
0.341424
0.650151
-0.164768
0.276411
0.830394
0.689018
0.495488
0.549608
-0.997732
-0.301957
0.408505
0.737423
-0.292254
0.766881
0.511998
0.990357
-0.023195
0.847058
0.351235
0.508423
0.747368
0.384620
0.202829
-0.913864
-0.194591
-0.708134
0.937910
-0.561751
-0.930244
-0.270788
-0.826616
-0.478361
-0.591932
-0.306110
-0.366777
-0.870336
0.284936
-0.360444
-0.399415
-0.458163
0.330579
-0.247386
-0.482707
0.020800
-0.482541
0.123081
-0.993172
-0.238439
0.525806
0.411765
0.071992
0.306700
-0.084368
0.509287
0.337696
0.081542
0.796923
-0.188657
0.244826
-0.874228
-0.747429
0.008611
0.026981
-0.497621
-0.420830
-0.810682
0.282739
0.753860
0.915338
-0.911856
-0.729533
-0.239993
0.134307
-0.576052
0.109456
-0.232101
-0.513236
0.526900
0.003082
0.172160
-0.897738
0.789922
-1.091505
0.405455
0.814301
0.008562
0.955837
-0.286810
0.352473
-0.696891
-0.580194
0.950643
0.232764
0.477198
0.585946
-0.872536
-0.611723
-0.057687
-0.384539
0.264357
0.458357
-0.054696
0.741148
-0.590478
-0.207220
-0.292412
0.225123
0.163582
-0.153718
-0.081058
0.302143
-0.771089
0.515127
0.305271
-0.876596
0.224748
-0.766243
1.003997
0.188335
0.893439
0.249308
0.393738
-0.398931
-0.905660
0.258861
0.139836
-0.342830
0.888648
-0.157863
-0.889821
0.866659
-0.052474
-0.743417
0.927411
0.764959
0.967179
-0.203461
-0.857673
-0.610056
0.571686
-0.627745
0.248673
0.768953
-0.211438
0.735139
-0.892992
0.062183
-0.883287
0.715220
-0.179868
0.502350
-0.705231
0.567641
-0.986870
-0.310952
0.670301
-0.406307
0.968844
0.949408
-0.908665
1.018936
0.209101
-0.276604
0.833051
-0.979039
-0.938500
-0.793926
0.179433
0.235677
-0.600154
0.991233
0.119864
-0.922459
-0.417595
0.532297
0.083890
0.824192
0.132869
-0.537543
-0.620192
-0.573406
0.031020
-0.348550
0.868219
0.671412
-0.692053
0.715853
-0.890642
-0.085663
-0.065707
-0.690637
0.117213
-0.842813
0.771209
0.959012
0.354316
0.865996
0.478398
0.089018
0.450466
-0.831525
-1.062492
0.238240
-0.979525
0.841945
0.878351
0.151759
0.986042
-0.918893
0.441953
0.750654
-0.629846
-0.804130
0.654591
0.158804
-0.825539
-0.604101
-0.419650
-0.973893
0.078756
0.986266
-0.296489
-0.356173
0.366058
-0.089948
-0.395007
-0.564623
-0.442795
-0.446376
0.237679
-1.007749
0.590519
-0.112703
-0.908380
0.239719
0.768962
0.393517
-0.789581
0.082254
0.079644
-0.013399
0.036556
0.076378
0.484234
0.498543
0.272932
-0.022092
-0.800068
0.832386
-0.957060
-0.821608
-0.696513
0.204417
0.837035
0.325561
0.878795
-0.855840
0.955979
-0.563111
-0.531987
-0.470910
-0.451198
-0.396925
-0.313928
-0.221675
-0.716036
0.995838
0.091890
0.318027
0.124894
0.500301
-0.555502
-0.507178
0.236492
0.058200
0.747800
-0.866188
0.193768
-0.529893
0.608459
0.582842
-0.730027
-0.694553
-0.214713
-0.621821
-0.779174
0.385955
-0.818544
0.359295
-0.049842
0.639193
0.231365
0.018613
0.381857
-0.618321
0.613465
0.767363
-0.784438
0.010529
-0.366054
-0.213469
-0.373538
-0.017259
-0.183536
0.484337
-0.313702
0.787164
0.410898
-0.076916
0.675621
-0.185079
-0.869143
0.071094
0.307832
-0.990219
0.235304
-0.343062
-0.881624
-0.377838
-0.097942
0.947440
-0.015201
-0.119231
0.163668
-0.413926
0.127537
0.850814
-0.346681
0.479647
-0.585139
-0.125914
-0.458389
-0.184816
0.578325
0.212365
0.231179
0.052482
-0.494552
-0.272733
-0.506195
0.145038
-0.081204
0.258023
-0.054804
0.199623
-0.757181
0.884102
0.949071
0.988027
0.891469
-0.560293
-0.799720
-0.265642
0.150678
-0.545111
-0.384894
0.511568
0.863072
0.273934
0.275318
0.374209
0.699259
-0.755582
0.861222
-0.694849
-0.783918
-0.974496
0.619367
-0.884598
-0.028484
-0.243719
0.222520
-0.253953
0.927760
-0.474546
0.252340
-0.527410
0.868598
-0.806745
0.560412
-0.930509
-0.688517
0.412566
-0.739769
0.305895
-0.755127
0.409608
0.240846
0.501982
-0.099102
-0.685190
-0.740630
0.802286
-0.415863
-0.041307
-0.198006
0.422374
-0.892181
-0.042192
0.398223
0.531116
-0.256186
-0.746862
1.000239
0.483116
-0.956833
0.943959
-0.172718
0.569759
0.461952
-0.987321
-0.685205
0.417409
0.510523
-0.956337
-0.836993
0.223332
-0.041924
0.972848
0.595033
0.509097
-0.240859
-0.100403
0.230016
-0.623659
-0.349799
0.032257
0.358430
-0.727495
0.156629
0.414445
-0.648725
-0.969502
-0.909708
0.031369
0.877165
0.474226
-0.979668
0.802557
0.024869
0.801467
-0.013525
0.255032
-0.101823
0.929490
0.731461
-0.145176
-0.857331
-0.710514
0.093226
-0.676060
0.251633
-0.125179
-0.103453
0.313382
-0.121266
-0.607126
-0.871666
-0.537432
-0.225834
1.006730
-0.900940
0.052885
-0.983983
-0.698923
-0.469763
0.779203
0.458285
-0.358127
0.668297
0.457383
-0.738532
-0.692291
0.902402
-0.172726
-0.703840
-0.607063
-0.849944
-0.815375
0.131834
0.646347
1.008082
0.481250
0.277755
0.724717
0.316929
-0.401778
-0.911229
0.036058
-0.208381
0.087158
-0.977565
-0.681058
1.002165
0.910814
-0.309142
0.494943
-0.905353
0.830205
0.509678
-0.517275
0.887451
0.541424
-0.437658
0.956127
0.727866
0.310891
0.702396
0.148875
0.853762
-0.408103
-0.350722
0.399604
-0.440451
0.587081
0.359551
0.009731
0.942243
0.928069
0.567120
0.420018
-0.808145
-0.453029
0.588580
0.797415
0.466715
-0.518603
-0.284295
-0.826085
0.754613
0.564009
0.350307
0.667148
0.640197
0.097813
-0.144826
0.417798
-0.381750
-0.820360
-0.519200
-0.895814
-0.312978
0.415975
0.834658
0.698285
-0.663905
0.376461
-0.233636
-0.243008
0.758584
0.107496
0.965583
0.598024
0.429753
0.244879
0.256323
0.092320
0.964278
0.315130
-0.572941
0.049515
0.186821
0.577781
0.887393
-0.810310
0.373702
-0.920453
0.560309
-0.307249
-0.010167
-0.026498
0.773384
-0.906693
-0.429031
-0.985220
-0.532200
0.417923
0.213968
0.639904
0.073682
-0.092299
0.771745
-0.202345
0.683200
-0.619828
-0.423954
-0.582676
0.006180
-0.188560
0.768216
-0.058133
-0.682627
-0.778551
-0.581330
0.652940
-0.147555
-0.506033
-0.947428
-0.192078
-0.933525
-0.553351
0.899444
-0.721555
-0.176542
0.269603
-0.649929
-0.281340
-0.791903
-0.548473
-0.281558
-0.348698
-0.772250
-0.947171
-0.338145
-0.570204
-0.741317
-0.921194
-0.724311
-1.022463
-0.252293
0.525837
0.153707
0.502908
-0.887057
0.875960
0.687617
0.693168
0.195838
0.470762
-0.199547
-0.468450
0.138513
-0.150955
0.657152
0.460589
-0.771889
0.930444
-0.894567
-0.263823
0.105107
0.179134
-0.595910
-0.574245
0.611677
-0.449370
0.330633
-0.769756
-0.685663
0.476840
0.627299
0.670784
-0.102974
-0.363818
0.590031
-0.152636
-0.536427
0.586924
0.145934
-0.958256
-0.502696
0.534492
0.706067
-0.703987
0.760564
-0.862259
-0.996592
0.793319
0.731408
-0.572062
0.269457
0.441777
0.335262
0.117042
-0.236281
-0.579355
-0.547594
0.454137
-0.349242
-0.101922
-0.512524
-0.515059
-0.650496
0.863455
0.440033
0.558879
-0.172177
-0.443121
0.647698
0.494006
0.845992
-0.148665
0.682064
0.516370
-0.795457
-0.904494
0.466672
-0.678925
-0.727001
0.432777
0.247781
-0.465353
0.909696
1.009309
0.316928
-0.484845
-0.567562
-0.848422
0.061351
0.519640
-0.290538
-0.222004
-0.689708
-0.405628
0.196953
0.745096
0.600971
0.526645
-0.490586
-0.784134
-0.791326
-0.343110
0.509734
0.349173
0.892044
-0.083201
-0.780053
0.966399
0.748793
0.782216
0.375447
1.022823
0.689146
-0.926965
0.970569
0.716421
-0.693933
-0.728030
0.106764
0.023237
0.997723
-0.193766
-0.774436
0.714668
0.821901
0.321722
0.245001
-0.919476
0.264607
0.104288
0.764640
0.933803
-0.407455
-0.512861
-0.273247
0.599227
0.091391
-0.886874
0.781591
0.696918
-0.602382
-0.460812
0.335883
-0.916984
0.423480
0.771806
0.102337
-0.887680
0.135085
-0.292088
0.696948
-0.881942
0.380976
0.851335
-0.842196
0.305432
0.908720
-0.931448
0.748347
-0.880502
0.100910
-0.481950
-0.716991
-0.347347
-0.638521
0.550784
-0.236176
-0.987086
0.865144
-0.239617
-0.046810
0.244980
-0.355366
0.583521
0.296054
-0.196117
0.256594
-0.133212
0.260770
-0.491190
0.495667
0.742496
-0.878948
0.251993
0.913306
-0.029503
0.879526
-0.520500
-0.229719
-0.068068
0.543896
0.841038
0.237608
0.595555
0.717779
-0.708967
-0.710782
0.329852
-0.106908
0.595609
0.342495
-0.716155
-0.881577
-0.733756
0.158197
-0.684316
-0.232021
-0.736975
-0.007008
0.121945
-0.406027
0.770574
0.556616
-0.059811
0.123488
0.683304
0.248542
-0.631836
-0.587866
-0.167162
-0.453046
-0.674049
0.153391
0.754359
-0.551079
0.113584
0.232404
-0.178470
0.468286
-0.243546
-0.171957
0.123560
0.499853
0.408557
0.839776
-0.068849
0.092164
0.452654
-0.167271
-0.039081
1.121751
0.164991
-0.526833
-0.738299
0.864258
-0.566186
0.464272
0.361224
0.142282
0.915184
0.273374
-0.525870
-0.670007
0.322766
0.847860
0.203490
-0.399526
-0.584381
-0.176654
0.728958
0.457309
0.308672
-0.515906
-0.703531
0.866162
-0.330058
-0.624010
-0.428085
-0.900732
-0.539347
-0.206852
0.410198
0.698060
-1.090598
0.114565
0.150318
-0.093753
-0.350206
-0.508943
0.557694
0.475343
0.217011
-0.078322
-0.736774
0.487442
0.775118
-0.166303
-0.842237
-0.759277
0.200953
-0.595348
-0.111506
0.014219
0.648125
0.551572
0.752552
-0.664143
-0.948326
-0.647233
0.817346
0.719668
-0.481422
-0.040747
0.779412
-0.983297
-0.842501
0.286194
-0.069040
0.307738
0.295498
-0.653830
-0.483565
-0.416991
0.906817
-0.064826
0.462500
0.023659
-0.271742
-0.654290
-0.506889
0.295051
-0.783702
-0.605606
0.321049
0.774638
-0.880257
-0.652232
-0.965615
0.020611
0.527127
-0.672263
-0.089790
-1.017645
-0.368582
-0.804898
0.107073
-0.735958
-0.524428
-0.274564
-0.176416
0.421066
0.120901
0.904518
-0.858755
-0.340472
0.829077
0.696200
-0.312146
0.072045
0.849104
-0.248915
-0.772019
-0.871343
0.868046
0.685157
-0.075706
0.448511
0.371628
-0.006451
-0.905243
0.878685
-0.263436
0.039788
-0.742625
-0.800693
0.799766
0.676302
-0.028144
-0.334716
0.664721
0.178482
-0.917475
0.558839
-0.384934
0.427645
0.990135
0.777238
-0.881146
-0.800776
-0.422227
0.483843
-0.042567
0.450924
0.148706
0.644191
-0.921544
0.005178
-0.903060
-0.328931
0.859609
-0.866383
0.086683
-0.906516
0.612856
-0.961833
-0.273510
-0.776798
-0.426975
-0.519537
-0.671925
0.445056
0.391599
0.770582
-0.302265
-0.480288
0.546134
0.832375
-0.325038
0.695340
0.828229
-0.407181
0.070485
0.543380
0.355923
0.885205
0.099924
-0.779345
-0.488595
-0.465203
-0.820241
-1.100838
-0.984074
0.201683
-0.224356
-0.972281
0.865256
-0.831020
-0.927524
0.948260
0.344142
0.617963
0.860424
0.213341
0.284611
0.119101
0.356368
-0.609878
-0.303346
0.890760
0.358566
0.338400
1.015456
-0.114102
-0.933172
0.843951
0.369350
0.805396
-0.899866
0.954838
-0.656465
-0.778090
0.568556
-0.164567
-0.172928
0.624346
0.099627
0.102214
-0.078905
0.020674
-0.884154
0.088784
-0.578139
0.321521
-0.303750
-0.805778
-0.691108
0.799225
-0.890538
0.714787
-0.550836
0.252845
-0.508771
0.125911
0.261498
0.198655
-0.905378
-0.320789
0.235737
-0.653631
0.084230
-0.957000
-0.095648
-0.080004
-1.131563
-0.612724
-0.409700
0.000586
-0.574515
-0.455808
-0.533963
0.118431
0.740437
0.520432
-0.568888
-0.632866
-0.717279
-0.230050
-0.718107
0.027308
0.446987
0.890468
-0.582949
-0.757861
0.279548
-0.969157
0.849734
-0.957138
-0.715421
0.532282
0.869941
-0.523928
0.497589
0.828977
0.642275
-0.788092
0.064578
-0.887204
-0.395403
-0.489978
0.142202
-0.621809
0.815962
-0.633426
-0.046058
0.970726
0.814741
0.444254
0.202988
-0.166967
0.019717
-0.144126
0.502799
-0.467094
-0.052561
-0.726063
-0.674294
0.784703
0.417198
0.754788
0.796900
-0.354519
-0.144782
0.631101
0.730226
-0.676040
0.897113
-0.582991
0.401762
0.606397
0.846842
0.219219
0.957260
0.949115
0.215669
-0.810880
-0.221909
-0.798951
0.479533
0.084992
-0.369838
-0.916876
0.918083
0.592342
0.502087
0.222911
-0.578030
0.673388
0.019822
0.803445
0.256250
0.855712
0.782337
-0.299939
-0.242336
-0.421286
0.842096
-0.870332
0.842960
0.621451
0.096449
0.767714
-0.222336
-0.715734
-0.165543
0.777074
-0.653631
-0.506021
-0.630201
-0.403284
-0.480033
-0.688359
0.134244
-0.793779
0.269506
0.136464
0.438093
0.053891
-0.617072
-0.031232
-0.897504
0.217135
-0.888487
-0.553366
0.678454
0.488256
0.738597
0.191001
0.949901
-0.396447
0.255683
0.891332
-0.925958
0.316694
-0.947068
0.275053
-0.905809
0.255274
-0.727987
0.427647
0.169721
-0.509665
-0.304764
0.919236
-0.634846
0.637995
-0.931630
-0.053912
-0.877648
0.828164
0.797299
1.128963
0.872634
-0.446422
0.254088
-0.000147
-0.881718
0.518841
-0.219019
-0.715666
-0.194763
-0.553261
-0.893065
-0.377020
0.596258
-0.772070
0.282374
-0.196530
-0.083686
-0.501617
0.485589
-0.986286
-0.065272
-0.686529
0.741959
-0.597295
-0.571058
-0.891379
0.664068
-0.498938
-0.906961
1.156130
0.062945
-0.131627
-0.700058
-0.376805
-0.594354
0.985288
0.901968
0.467479
-0.777329
-0.932565
0.343483
0.484005
0.386050
-0.375522
0.923949
0.842367
0.493813
-0.574391
-0.006193
0.257715
0.773852
-0.399330
0.487264
-0.904749
0.830903
0.737221
-0.818378
0.540186
-0.442039
0.787171
0.898285
-0.503769
0.791144
0.723191
0.637021
-0.949199
-0.561590
-0.760391
0.317116
-0.281614
-0.579407
-0.346061
0.601903
0.143202
0.660683
-0.123970
0.111278
-0.423064
0.205466
-0.558033
0.330740
0.233200
-0.292583
-0.447203
0.547112
0.032446
0.804185
0.445175
-0.253251
-0.617910
0.655086
0.014617
0.032166
0.637949
-0.805664
-0.907539
-0.447484
0.445411
-0.884699
-0.803244
0.501039
0.269453
0.463157
0.152520
0.371657
0.503731
-0.614410
-0.558609
0.229329
0.167035
-0.552010
-0.963056
0.518037
0.959862
0.679443
-0.298012
-0.407339
-0.934729
0.697913
-0.401115
0.425005
-0.422205
0.373011
-0.999818
0.585504
0.208927
0.090192
-0.361162
0.811981
-0.272439
0.275377
0.651635
0.048483
-0.699341
0.522182
0.071249
0.900882
1.015773
0.088698
0.551814
0.376689
-0.420122
0.816434
-0.942514
-0.483323
-0.591421
-0.850828
0.153271
-0.420178
-0.419164
0.294691
0.195794
-0.176579
-0.343598
0.311798
-0.366846
-0.558735
0.662142
-0.655324
-0.560197
0.041793
0.986544
-0.729260
-0.546918
0.571464
-0.131487
0.002994
-0.613438
-0.573680
0.060357
0.112193
-0.282448
-1.007370
0.928148
0.635435
0.009430
0.600164
0.425959
0.809384
0.911993
0.698942
0.165827
-0.221128
0.207654
-0.981716
-0.804853
0.073649
0.970288
-0.759843
-0.620911
-0.221673
0.130461
-0.684351
-0.150267
-0.583179
-0.578560
0.003540
-0.866791
0.558237
-0.927121
-0.555998
0.229594
0.487798
-0.928265
0.430380
-0.140854
0.229804
0.329537
-0.507897
0.359470
-0.889421
-0.503602
0.634508
0.600772
-0.445278
0.840132
0.791715
-0.986001
0.076736
0.367113
-0.030866
-0.654792
-0.950233
-0.753829
-0.785987
-0.633174
0.691724
0.035987
-0.762423
0.309689
0.605556
0.647031
-0.640676
-0.297036
-0.148667
-0.111715
-0.959194
-0.730161
-0.059523
-0.557742
-0.568008
0.134116
-0.647269
-0.122258
0.165270
0.703339
0.113199
-0.787145
0.667852
0.901601
-0.459425
0.939641
0.682557
0.306147
-0.931501
-0.643882
-0.679269
0.048114
-0.122696
-0.861663
0.635034
-0.021025
-0.812380
0.087942
0.089633
0.683943
0.222672
-0.634967
-0.690829
0.547050
-0.364113
0.204183
-0.150105
0.762765
-0.420314
0.548707
0.154695
-0.200269
0.255039
-0.649498
-0.567721
-0.193083
0.965072
0.052797
0.857368
0.722075
0.395725
-0.424277
-0.270793
-0.530449
-0.814464
0.799885
0.169988
0.156841
-0.893325
0.688117
0.889892
0.256045
-0.111393
0.105050
0.277269
-0.734356
-0.844658
-0.031424
0.167946
0.019007
0.128964
0.247716
-0.959699
-0.446505
-0.296382
-0.003671
0.475625
0.087555
0.829756
-0.932973
-0.283164
-0.021298
-0.588345
-0.259635
0.235375
0.093256
-0.584943
-0.941589
0.009706
0.712596
-0.657942
-0.032289
-0.279381
0.102561
-0.679289
0.448349
0.805837
-0.623233
0.934777
0.011877
-0.124153
-0.836369
-0.307907
-0.877555
-0.168931
0.099707
0.132009
-0.324115
-0.471061
-0.050412
-0.945380
0.865741
-0.337326
-0.740789
0.519253
0.399947
-0.605276
0.496393
-0.089736
0.425032
-0.799109
-0.238097
0.035964
0.035245
0.774068
0.303944
0.694279
0.656665
-0.799017
-0.171503
0.750646
0.044268
0.082589
0.422952
-0.296993
0.439801
-0.499766
-0.517358
-0.640586
0.161134
0.053975
-0.583876
-0.057935
0.463646
0.204645
0.397208
0.340172
0.702044
0.647386
-0.185427
0.735527
-0.745805
-0.566480
-0.295512
0.437644
-0.564128
-0.544458
-0.743852
-0.721850
-0.922604
-0.285376
0.600442
-0.256764
0.134308
-0.368463
0.980145
0.728692
0.626885
-0.756470
0.941029
0.282366
0.334152
0.957910
0.884531
0.446498
-0.371938
0.045609
-0.208243
0.993733
0.553514
0.515170
0.971265
-0.896895
0.171950
0.569952
-0.912134
0.379607
-0.683378
-0.270606
0.607380
-0.597148
0.537042
-0.261141
-0.196733
0.731068
0.100182
0.435326
-0.767275
0.703559
-0.669810
0.224565
0.963902
0.679758
0.721224
0.789140
-0.162135
-0.913250
0.673874
0.668614
-0.505541
-0.545948
-0.052069
0.725867
-0.519525
0.599504
-0.142348
-0.695393
-0.047112
0.582985
-0.147935
-0.426787
0.434691
-0.756742
-0.006932
-0.845817
0.363234
0.876863
-0.920500
0.020148
0.469200
0.697778
0.857208
-0.470910
0.342922
0.054250
-0.227701
0.529754
0.429696
-0.588688
0.322935
-0.648812
0.565680
-0.713500
-0.204317
0.445837
0.211677
0.240780
0.367564
-0.669737
0.126122
-0.096280
0.350946
0.026621
0.269673
0.721824
-0.639232
0.608409
0.203429
0.593749
-0.375018
-0.449286
0.234209
-0.677806
-0.443411
0.991812
0.955294
0.715967
-0.339756
-0.129819
-0.947559
-0.274922
0.825313
0.910239
0.934995
0.168643
-0.742655
0.893986
-0.222367
-0.037723
-0.094816
0.609904
-0.867348
-0.603610
0.428605
-0.511188
1.020079
0.940404
-0.046657
-0.473759
0.633789
0.305335
0.563724
-0.380952
0.843551
-0.648050
-0.395365
0.998732
0.895883
-0.338737
-0.084098
0.345318
-0.563830
0.598974
0.849281
0.732375
0.251960
-0.956709
0.317436
0.265534
0.247073
0.705287
-0.187562
0.896050
-0.363401
0.398508
0.352474
-0.406774
0.538128
-0.822877
-0.488525
0.528638
0.593088
0.727671
0.603001
0.333298
0.336807
-0.250433
-0.097105
-0.942630
0.129344
-0.974055
0.461162
-0.896201
1.034426
-0.941403
0.126645
0.143972
0.318413
0.638342
0.638696
-0.446948
0.782865
0.579890
0.236430
0.407568
0.193455
-0.151217
0.065892
-0.132078
0.212283
0.268261
0.248486
-0.760435
-0.955271
-0.312932
-0.198644
0.011247
0.603243
0.630857
0.976946
-0.095572
-0.549817
-0.160471
0.405575
0.062040
-0.175539
0.191656
-0.508036
-0.690061
0.751760
-0.573582
0.599716
-0.621721
-0.941616
0.111693
0.759754
0.168839
-0.340491
0.047074
-0.123130
0.822454
-0.706211
-0.159812
-0.859048
0.675650
-0.635323
0.669834
0.755183
0.906471
-0.826110
0.435458
0.012190
-0.634558
0.752458
0.524745
-0.223877
0.361930
-0.835497
0.772422
0.545215
-0.936368
-0.099346
0.211884
-0.691203
-0.462452
0.180052
0.821863
-0.150271
-0.585055
0.365943
-0.119123
-0.585167
-0.900717
0.940076
1.056362
0.406209
0.357841
0.218695
0.983675
-0.513393
-0.295009
-0.305693
-0.372178
-0.826862
-0.672718
0.720214
0.509965
-1.004251
0.734048
-0.112898
-0.543952
0.629434
-0.668947
0.613860
-0.209549
0.910680
-0.907307
-0.318535
-0.671724
0.086763
0.049778
-0.041362
0.212036
-0.910335
-0.847505
0.652167
0.419789
-0.294014
0.668719
0.546549
-0.343257
0.897372
0.103275
-0.948396
0.805694
0.720169
-0.573688
-0.023714
-0.785884
0.543327
-0.351596
0.099858
0.161748
0.180290
-0.944210
0.676943
-0.468132
-0.265301
-0.309554
-0.838576
-0.049444
0.313979
-0.577684
-0.947666
0.868517
-0.785950
0.176932
-0.322787
0.305706
-0.016243
-0.925086
0.779716
0.020407
0.634267
-0.538068
-0.913538
-1.062061
0.572722
0.928357
0.882068
-0.191052
-0.820341
-0.739909
-0.674853
-0.692730
0.664229
0.003593
0.535073
0.124308
-0.617992
-0.844060
0.757527
-0.750078
0.793990
0.653930
-0.486353
0.893003
0.562047
0.322482
-0.356674
-0.342387
0.655289
-0.052074
0.637914
0.934273
-0.411672
0.548925
-0.046415
0.290460
0.342474
-0.041328
-0.591308
0.814262
0.940768
-0.434098
-0.033424
-0.781172
-0.852922
0.409367
0.444636
-0.963867
-0.466505
-0.702470
0.325970
0.735008
-0.091658
0.045673
-0.488800
-0.343352
-0.277834
0.156147
-0.549066
0.237467
-0.642729
0.364970
0.396360
0.099505
-0.006823
0.780074
0.520940
0.887568
0.893143
-0.769129
-0.208132
-0.399196
0.895548
0.055365
1.001654
0.644616
-0.589979
-0.955813
-0.257955
-0.348156
-0.516028
0.816828
-0.524717
-0.940981
0.020107
0.570881
-0.727799
0.888753
0.142200
-0.806766
-1.055548
0.647754
-0.956484
-0.661027
0.498195
0.900255
-0.431417
0.901147
-0.226667
0.407279
-0.788049
0.931737
-0.199712
0.043920
-0.418651
-0.512874
0.455338
-0.126019
-0.256384
0.507486
-0.362831
-0.241365
-0.512343
-0.200804
-0.166773
0.870714
0.571046
-0.305197
-0.592004
0.695974
-0.138936
-0.183762
0.611692
-0.009346
-0.594831
-0.408127
-0.686193
0.432196
-0.742906
-0.620278
0.442974
0.096682
-0.974826
-0.332812
-0.829019
-0.858650
-0.788327
-0.005961
-0.043807
-0.719566
-0.996997
0.936715
-0.375144
-0.345454
-0.409553
0.352926
-0.178265
0.267989
0.038274
0.563179
-0.566780
0.671283
-0.384334
-0.887959
0.590482
-0.992500
0.529845
0.015407
-0.318671
0.480452
0.952733
-0.270285
0.622570
0.787056
0.031567
0.691829
-0.892055
-0.623948
-0.531632
0.700893
-0.623906
0.054623
0.342858
0.365988
-0.372607
-0.411045
0.620334
-0.613361
-0.788477
-0.918119
0.091493
0.345416
0.528623
-0.737508
0.982396
0.393387
0.302446
-0.379017
-0.315197
0.378874
0.723200
-0.355459
0.167727
0.422457
0.573681
-0.586264
-0.406585
-0.662004
0.993326
0.373461
0.432153
0.660947
0.659934
-0.412093
-0.288157
-0.453572
-0.602634
0.937047
-0.749718
0.905617
-0.305242
0.591658
0.114287
-0.400816
0.952448
0.968124
-0.862802
-0.736122
-0.018878
0.912967
0.716813
0.326407
-0.143372
-0.511815
-0.289594
0.574160
0.200920
-0.134488
-0.503560
-0.957678
0.655472
0.165824
-0.526992
0.200732
0.207755
-0.368515
-0.193078
0.788141
-0.130477
0.019360
-0.232395
0.961543
0.772072
-0.277581
-0.303017
0.813805
0.924930
0.174466
0.732117
0.333804
0.953436
-0.118597
-0.759082
-0.272277
-0.023713
0.968322
0.896401
0.644688
0.770453
-0.296216
-0.273057
-0.005957
-0.006436
0.922511
0.814271
-0.560053
0.904500
-0.161813
-0.581519
0.547176
-0.014905
-0.668113
0.777672
-0.208277
0.443348
-0.316990
0.651999
0.788312
-0.911241
-0.858543
0.935250
-0.200185
-0.439794
-0.142864
0.364273
0.969246
-0.240722
0.608161
-0.663444
-0.811206
0.919396
-0.330466
0.489715
0.598445
0.461263
-0.951970
0.891140
0.194101
0.779866
-0.533182
1.020871
-0.573242
0.522489
0.741995
0.727286
0.653270
-0.231951
-0.219112
-0.834346
-0.066020
-0.148301
0.696034
-0.465693
-0.313837
-0.426994
-0.415608
-0.805219
0.170021
-0.756516
-0.697186
-0.451555
1.006095
-0.237855
0.019131
-0.501735
-0.506884
-0.465170
-0.946556
-0.005831
-0.538851
-0.814537
-0.542877
-0.677864
-0.290832
-0.618818
-0.312122
-0.013078
-0.374649
0.986643
0.289081
0.122232
-0.022635
0.058442
0.474892
-0.275272
0.323590
0.509330
0.707310
0.298875
-0.909606
0.831903
0.567428
0.711674
-0.138959
0.207387
0.694496
0.032057
0.200890
-0.853364
0.418465
0.475647
-0.437544
-0.100621
-0.667583
0.120126
-0.393670
-0.687971
-0.088236
0.876153
0.308082
0.972771
0.420793
-0.364976
-0.233814
0.436480
0.281074
0.319477
0.517178
-0.816460
-0.042115
0.787687
0.315532
0.047320
-0.787727
0.343170
0.264853
0.273064
0.033184
-0.684407
0.913844
-0.279217
-0.129263
0.604101
0.268746
-0.065610
0.982728
-0.137499
-0.185378
-0.409574
0.845208
0.632565
-0.354416
0.534673
0.448769
-0.534313
0.052344
-0.158066
-0.394787
0.824079
-0.964572
0.178516
-0.485313
0.133435
0.300381
0.596803
0.869877
0.132686
0.334054
0.931358
-0.920703
0.780919
0.335498
-0.024688
0.015674
-0.305617
0.331632
-0.936067
-0.460977
0.852277
-0.577652
-0.712328
0.366539
-0.245697
0.308968
0.347909
0.651213
0.964682
0.549189
0.776042
0.035192
-0.466003
0.263766
0.066010
-0.068271
-0.925352
0.016774
0.340872
0.667661
0.474383
-0.377885
-0.583350
-0.889666
0.564804
-0.413274
-0.939129
0.346360
-0.185053
-0.179933
0.522711
0.520745
0.135675
0.285723
-0.251562
-0.370792
0.309222
0.439712
0.007712
-0.833013
0.684899
0.738463
-0.041144
0.801121
-0.420998
-0.702375
-0.741657
0.152889
-0.402806
-0.829383
-0.267008
0.697206
1.008881
-0.749281
0.397355
0.787824
0.879031
0.335428
-0.752644
0.572644
-0.377018
-0.208118
0.765423
-0.387742
0.743545
-0.086782
0.313476
0.375342
-0.080864
-0.215876
-0.979951
0.611704
0.003310
0.476699
-0.222065
0.786126
0.747025
-0.725004
-0.910249
-0.774614
-0.316294
-0.766109
0.072826
-0.578906
0.741155
0.273560
-0.929294
0.005501
-0.880109
-0.509651
-0.219038
0.388067
-0.753025
-0.085301
-0.372462
-0.095848
0.258350
-0.994290
0.729085
-0.676207
0.196922
-0.676063
-0.035390
0.810235
-0.555522
-0.208235
0.536031
0.009708
0.670465
0.625121
-0.559476
0.195445
0.516949
0.215386
0.329617
0.860407
-0.485884
0.603925
-0.038983
-0.939042
0.371050
-0.894594
0.329751
0.155604
-0.211702
-0.154213
0.130908
-0.153265
0.797389
0.916100
0.504471
-0.816772
-0.586331
0.747395
0.081994
-0.337077
-0.692114
0.262910
0.586395
0.694487
0.699796
-0.391477
0.930785
-0.702500
0.341225
0.622643
0.394279
-0.269810
0.296358
-0.067249
-0.030444
0.990555
-0.706948
-0.351725
0.321228
-0.017448
0.227563
-0.322906
0.661485
0.616769
-0.615338
0.961042
0.232031
-0.056922
0.669343
0.844167
-0.193717
-0.120447
-0.061176
-0.463186
-0.402728
0.115401
-0.262653
-0.206035
0.434786
-0.864759
-0.194264
-0.549923
-0.438118
0.169986
0.506754
-0.958984
0.060262
0.097433
-0.022021
0.714283
-0.766373
-0.586660
-0.226471
-0.660474
-0.412403
0.631687
0.907200
-0.694429
-0.449863
0.333019
0.745299
-0.582301
0.487338
-0.142406
-0.673163
-0.779946
-0.798233
0.075172
-0.208290
-0.021214
-0.538031
0.553750
-0.521643
-0.843042
-0.745857
-0.290410
-0.648689
-0.286656
0.734414
0.592303
-0.489140
0.666150
0.699513
-0.336181
-0.723521
-0.008972
-0.528780
-0.041000
-0.199960
-0.361095
0.986510
0.898618
-0.791398
0.608309
-0.803569
0.046162
0.045748
-0.106986
0.684539
0.119934
0.035115
-0.901473
-0.054998
-0.743580
-0.719730
0.886158
0.394772
-0.405354
-0.185275
-0.185276
-0.098987
-1.009444
0.746099
0.326589
-0.011448
-0.420033
0.483646
0.596694
0.631706
0.023950
0.292103
0.841471
-0.726911
-0.119530
0.306471
-0.616480
0.826467
0.930198
-0.575992
-0.675601
0.870913
0.722487
-0.165528
0.066370
0.338526
-0.353771
-0.534645
0.571758
0.419809
0.561560
-0.584138
0.015224
0.261076
-0.855639
-0.764145
-0.793819
0.855911
-0.230313
0.295956
-0.737972
-0.856763
-0.880922
0.968715
-0.965183
-0.259027
-0.070863
-0.450186
-0.075697
-0.482471
-0.203661
-0.170525
0.671441
0.298221
-0.845763
-0.424313
0.908770
0.541480
-0.292809
-0.724938
-0.928883
-0.141346
-0.067406
-0.029804
0.464131
0.908791
-0.021846
-0.802065
0.687693
0.116173
-0.898852
-0.209249
0.129188
-0.743587
-0.568256
-0.701866
-0.040193
-0.764434
0.006779
-0.782116
-0.904696
0.254130
-0.262373
0.258184
0.031699
0.577869
0.969284
-0.526432
0.057557
-0.730898
0.046326
-0.672821
-0.513654
0.229243
-0.751453
-0.558375
-0.781171
-0.618636
0.322475
0.071962
0.345316
0.940648
-0.313806
-0.697509
0.300827
-0.287882
0.377821
-0.838369
0.317436
-0.908567
0.875333
0.814074
0.369629
0.140513
-0.125809
0.506395
0.215150
-0.974999
-0.576136
0.269966
0.160960
0.863061
-0.242826
-0.080001
-0.957897
0.792818
0.029312
0.499609
0.410972
-0.567144
-0.246501
-0.648552
0.561589
-0.334558
0.769064
-0.670616
0.303564
0.269022
0.814988
0.629570
-1.049223
-0.420486
-0.194175
0.998983
-0.964579
0.994790
0.986333
-0.114602
0.837503
-0.746036
-0.245989
0.644175
-0.280808
0.279241
0.855471
-0.475487
0.376922
0.856278
0.150258
0.328708
-0.447056
-0.167008
0.373877
0.186828
-0.315671
-0.908225
-0.967332
0.074122
-0.883944
0.724473
0.772997
0.194779
0.215051
-0.466675
-0.331608
0.368245
-0.829249
0.750750
-0.494626
0.870459
0.661953
-0.677078
-0.084449
-0.366754
0.633649
-0.170779
-0.444689
-0.288665
-0.837306
0.554963
0.296560
0.227637
0.289257
0.356837
-0.661001
0.052172
0.897541
0.620080
0.618058
0.549063
-1.053049
0.097396
0.331305
-0.531785
-0.472969
-0.911454
0.121960
0.400049
-0.319660
0.064793
-0.306236
0.301277
-0.740326
0.031763
-0.250351
-0.083815
-0.849482
0.252745
0.060681
-0.662498
-0.543877
0.663106
-0.402309
-0.104945
0.034187
0.799555
-0.038515
-0.856822
0.530681
-1.167386
-0.934239
-0.467186
-0.482132
-0.472957
-0.164923
-0.929710
0.388539
-0.885540
-0.850319
-0.145440
-0.643464
0.358442
-0.167425
-0.921522
0.587001
-0.674751
0.882853
-0.035421
1.120255
-0.314295
-0.082538
0.269597
-0.710666
-0.062919
-0.712141
-0.458427
0.479841
0.306119
-0.402772
-0.640061
0.369540
-0.748726
0.778215
-0.152877
-0.691503
-0.478018
-0.636264
-0.703623
-0.696856
-0.311708
0.971945
-0.697103
-0.139416
0.375234
0.734497
0.251638
-0.246171
-0.020020
-0.708004
0.872832
0.349566
-0.225917
0.001339
-0.426809
-0.235534
-0.944076
0.039388
-0.100996
-0.918635
-0.263698
-0.275046
0.935085
-0.799231
-0.279648
-0.288565
-0.976246
-0.063149
0.492811
0.363953
0.507550
0.953446
0.847023
-0.071732
0.971604
-0.186046
-0.636140
0.882181
-0.621838
0.211497
0.771882
-0.064895
-0.245569
-0.644768
-0.669516
-0.836440
0.445010
0.673428
0.531236
0.723410
-0.774017
-0.894236
0.582430
-0.770931
-0.972576
0.490051
-0.501373
0.390224
-0.943561
-0.466007
-0.023651
-0.366417
0.575436
0.232489
0.388248
-0.475832
0.579081
0.279352
-0.330625
-0.420074
0.055537
0.352938
-0.062517
-0.124980
0.189045
-0.095500
0.769080
-0.557403
0.668361
-0.869822
-0.219988
0.846523
-0.848296
-0.282023
0.634704
0.755089
-0.878543
0.729711
-0.320151
-0.912917
0.201001
0.205935
0.207645
-0.169476
-0.047748
-0.357226
0.013248
0.479254
0.864278
-0.550597
0.574192
-0.036174
0.930914
0.876235
-0.643641
0.689296
0.620048
0.156685
0.622363
-0.663884
-0.627135
0.609405
0.903498
-0.731547
-0.920739
0.274250
-0.857693
-0.243321
0.645018
0.794380
0.889477
-0.168141
-0.534394
0.809838
0.110027
-0.706378
-0.225644
-0.628983
-0.060371
0.046792
-0.498449
0.842824
0.211944
-0.748985
-0.692056
-0.212478
-0.979015
0.401680
-0.153010
-0.695657
0.162501
-0.896716
-0.707953
-0.575450
0.404651
0.845191
-0.374004
-0.802791
0.730617
-0.995979
0.937763
0.869877
-0.263630
1.018504
-0.310918
-0.269603
0.300209
0.253177
0.456318
0.085991
0.911718
0.918366
-0.388058
-0.215918
-0.887804
-0.783424
-0.445730
0.849425
-1.083299
0.099942
-0.706681
0.461220
0.738122
0.396922
-0.547123
0.087894
-0.330002
0.865532
0.800300
0.821726
1.010321
-0.427329
-0.263059
0.503929
-0.471649
0.373248
0.967550
0.750771
-0.598175
0.876017
0.244596
0.885387
-0.842648
0.240437
-0.966871
0.538907
0.324281
-0.741006
0.429674
-0.304126
0.773532
-0.635876
0.210737
0.285813
0.332673
-0.425883
-0.164654
-0.450349
0.225155
0.955740
0.760565
0.894445
0.552555
0.015393
0.173807
-0.136024
0.534944
0.649153
-0.295256
-0.089402
0.353285
-0.519552
-0.738626
-0.011990
0.032688
0.722891
0.397652
0.203463
0.294369
0.192535
0.683558
0.256717
0.538330
-0.793227
0.236988
0.280613
-0.817232
0.185149
0.320709
-0.689820
0.111895
-0.145122
-0.506488
-0.600509
-0.459679
0.469777
0.149259
-0.376630
-0.992210
0.733947
-0.860162
0.104284
-0.481108
0.009803
0.792315
0.938385
-0.683094
0.344934
-0.349763
-0.856366
-0.565138
-0.316436
0.103297
0.431253
-0.769293
-0.759788
-0.487668
-0.848893
-0.579386
0.246751
0.935576
-0.668800
-0.516130
0.861442
-0.129463
-0.050348
0.888348
0.925452
-0.863239
0.734676
0.322586
-0.685536
0.589193
0.035531
0.043459
0.866049
-0.664762
-0.569995
0.914239
-0.946091
-0.329473
0.683628
0.231768
-0.499838
-0.395134
-0.915646
-0.277682
0.121568
0.179540
-0.554936
0.888837
0.913196
0.683448
0.472517
0.630557
-0.493155
0.401653
0.010057
0.289991
0.945458
0.736043
-0.962436
0.227501
-0.186410
0.370902
-0.968018
-0.766057
0.504630
-0.126415
-0.484796
-0.040259
-0.658657
0.516257
-0.640847
-0.445381
-0.412298
-0.937124
0.280307
0.667079
0.130698
-0.641273
0.547676
-0.764706
0.385244
0.628438
-0.613983
-0.278519
-0.020145
0.142534
0.628945
-0.916881
-0.597026
-0.163598
0.376841
0.096036
-0.297232
-0.893743
0.059837
0.073338
-0.417505
0.716574
0.270465
-0.851295
0.589396
0.718478
-0.955805
0.953736
-0.224402
0.536546
0.240067
-0.897773
-0.901096
-0.259678
0.350366
0.109104
0.096287
-0.242628
0.824203
0.277907
-0.752593
-0.703676
-0.749574
-0.569037
0.708562
-0.239663
0.070504
0.360917
-0.809843
0.778780
-0.548244
-0.741372
-0.787452
0.416198
-0.032824
-0.898640
-0.208418
-0.806012
-0.385947
0.923618
0.516950
0.488963
-0.031078
-0.089257
0.785239
0.395251
-0.890473
-0.389559
-0.621350
0.373923
-0.121729
-0.892954
0.468583
0.366435
0.719910
-0.962387
0.390218
0.486454
-0.936532
-0.453378
0.507965
0.802461
-0.924982
-0.831288
0.329693
0.118504
-0.567654
0.163616
0.603448
0.052688
-0.702881
0.620660
0.336722
0.844764
0.153235
0.615544
-0.161478
-0.813699
-0.886392
0.389950
0.382679
-0.740252
0.149790
0.098224
0.937301
0.387144
0.322969
0.277225
0.512062
-0.821646
0.401809
-0.108492
0.020855
-0.044295
-0.488246
0.325692
0.727177
0.858193
-0.292412
0.475300
0.821428
0.809191
0.512772
-0.279718
0.990324
-0.661869
-0.791014
-0.720703
-0.207249
-0.550615
0.875629
0.683724
-0.021692
-0.808726
0.568503
-0.771963
-0.098891
0.648108
0.094624
-0.623151
0.688228
-1.044981
0.325611
-0.159877
0.430550
0.142040
0.954723
-0.670638
-0.162191
0.912659
0.550569
0.567483
0.366014
-0.632577
-0.448819
-0.950287
-0.865886
-0.405501
-0.005518
-0.224530
-0.545192
0.029974
-0.768275
0.079114
0.193570
-0.397464
0.485214
0.131504
-0.595856
0.150294
0.166351
-0.556791
-0.940113
0.077654
0.395284
-0.467909
-0.424114
0.628593
-0.113104
-0.319965
0.640421
-0.643024
-0.673106
0.484026
-0.033197
-0.882557
0.559242
0.753216
0.703657
0.959924
0.077370
0.365331
-0.423656
0.990022
0.368287
-0.212150
-0.384074
-0.438712
-0.342862
0.165276
0.100553
0.761441
0.557384
0.837706
0.346237
0.067706
0.788935
0.944647
-0.181527
-0.989304
-0.836696
-0.050096
-0.385572
0.416494
0.175517
0.716131
-0.357357
0.316170
0.831755
-0.473189
-0.633479
-0.637429
-0.022737
0.955766
-0.060828
0.527314
-0.193559
0.794185
0.728352
-0.973454
-0.504748
0.096904
0.405966
-0.066984
-0.318088
0.075495
-0.649445
-0.343766
0.580996
0.843016
0.334008
-0.890014
0.774048
0.644900
-0.313315
0.621534
-0.711962
0.751520
-0.799159
-0.295950
-0.834679
0.079620
0.193091
0.192991
0.228076
-0.460726
0.662187
-0.410447
-0.955065
0.410631
-0.938906
0.630836
-0.501418
0.195925
-0.786765
0.737285
0.855381
0.463561
0.615510
0.721657
-0.722928
-0.032666
-0.337740
0.594366
0.758737
0.473626
0.961772
-0.979709
-0.293020
0.446912
-0.214922
-0.053111
0.926363
0.727733
0.752262
-0.737954
-0.079418
-0.130133
-1.100459
0.770063
-0.987468
-0.520300
-0.786481
0.770237
0.119455
-0.998285
-0.138948
0.535264
0.076667
-0.891758
-0.689415
0.676196
0.194307
-0.374721
0.426220
-0.275514
0.252855
-0.680554
-0.677323
-0.937570
-0.653463
-0.711508
-0.284764
-0.199920
0.872331
-0.913548
0.943471
0.871526
-1.101860
-0.348319
0.201492
0.699557
0.415727
-0.123425
0.816107
0.949127
0.912440
-0.939179
0.795807
0.751672
-0.516402
-0.809352
-0.004544
0.654862
-0.905988
-0.498936
-0.165979
-0.277395
-0.536912
0.322015
-0.009029
-0.387661
0.169432
-0.863851
0.938458
0.439861
-0.540836
-0.036256
-0.240758
-0.393813
-0.982363
-0.371563
0.527177
0.709369
-0.635975
0.962494
0.643595
0.139952
-0.357439
-0.434244
-0.907099
-0.125344
0.154006
0.115228
0.310840
0.575396
-0.370279
0.468890
-0.326034
-0.582489
-0.515309
0.927238
0.822164
-0.380237
0.833237
-0.873776
0.382321
-0.927650
0.170549
-0.195254
-0.355932
-0.177816
-0.713660
-0.354118
0.418377
0.872047
-0.837722
0.911786
0.518074
0.837128
-0.604609
0.849176
0.812118
0.338302
0.623916
0.914943
0.127007
-0.070726
-0.868498
-0.595126
-0.642353
1.005799
-0.728916
0.345283
0.358688
0.225109
0.653465
-0.238729
0.783093
0.607852
-0.471355
0.311698
0.539959
0.534606
-0.049733
0.817474
-0.971219
0.488726
0.113949
0.199217
-0.534020
0.877885
0.228668
-0.802705
0.181507
-0.516055
-0.420564
-0.335778
0.359597
0.357276
0.590487
0.593342
-0.882511
0.872706
-0.075981
-0.067922
-0.651677
-0.441002
0.367668
-0.740230
0.420246
-0.864427
-0.334050
0.812818
-0.911483
-0.015986
-0.181143
0.874160
-0.799464
0.045293
-0.304923
0.773661
-0.921906
0.831329
-0.189224
0.925277
0.937234
0.631979
0.462644
-0.286566
-0.689997
-0.311151
0.612273
0.169379
-0.710950
0.911365
-0.732611
-0.399048
0.245347
0.098757
0.226896
-0.950059
-1.032491
0.565754
0.498227
-0.811087
-0.724319
0.290091
0.429635
-0.903412
0.289097
-0.624964
0.657581
0.348311
-0.573990
0.284778
0.792037
-0.957590
0.019523
0.106690
-0.031553
-0.078190
-0.953273
-0.591968
-0.436431
-0.503039
0.561648
-0.623471
-0.984313
0.796472
0.037460
-0.985980
-0.582766
0.897753
-0.930851
0.773610
-0.301840
0.693382
0.145745
0.330195
-0.065481
-0.609985
-0.095626
-0.390789
0.352489
0.483644
-0.216076
-0.683700
0.286267
-0.230749
0.467790
0.974269
-0.962930
0.778359
-0.543667
-0.734827
-0.091490
0.693881
0.462557
0.592646
-0.878294
0.435785
-0.649942
-0.980343
-0.586182
0.393232
0.399926
0.533366
-0.762950
0.369551
-0.665925
-0.870063
-0.341205
0.722988
-0.347066
-0.771396
0.065209
-0.550383
0.784569
0.727878
0.035680
0.121431
0.009294
-0.192080
0.094811
0.346071
0.322732
0.355227
-0.802195
-1.118053
0.739886
0.065856
-0.936180
-0.338233
0.191412
0.448145
0.896701
0.413370
-0.504638
0.626138
0.380598
-0.727451
0.252490
-0.717659
0.142175
-0.724183
-0.614457
-0.168189
-0.394390
0.776622
-0.538243
0.881205
-0.033733
-0.711442
0.637356
-0.258249
-0.924976
-0.792190
-0.884560
-0.443331
-0.310773
0.744022
-0.438760
-0.457521
-0.755184
-0.295891
-0.610962
0.024499
0.168638
-0.080375
-0.180225
0.609403
0.595399
-0.972311
0.720143
-0.853693
0.634814
-0.142657
0.339872
-0.078926
-0.369210
0.682124
0.132610
0.546501
-0.412026
-0.855512
0.498161
0.029445
-0.368810
-0.755569
-0.372775
0.216663
0.878329
-0.881622
0.795306
-0.787413
0.983318
0.297276
0.774469
-0.057007
-0.728793
0.193539
0.264761
0.673766
0.929459
0.502113
-0.065021
0.079981
-0.280955
-0.740207
0.764390
0.199240
0.227930
-0.262967
-0.420011
0.138991
0.528112
0.891430
-0.989631
0.345737
0.528235
0.651425
-1.024782
0.651479
-0.458043
-0.646850
0.022642
-0.653157
-0.080826
0.785096
0.378995
-0.530809
0.863350
0.026864
0.860293
-0.415233
-0.053624
0.129252
0.377168
0.037487
-0.476087
0.979774
0.372144
0.909205
0.177100
0.600870
0.239278
-0.167636
-0.874708
-0.223364
0.188486
-0.825705
-1.054863
-0.916587
0.631974
0.563298
-0.780140
-0.669504
-0.810870
-0.258529
0.888606
0.398928
0.191955
-0.637039
0.125583
-0.464046
-0.736197
-0.569681
-0.260210
-0.709385
-0.435926
0.490604
0.470472
-0.520899
-0.252555
-0.688421
-0.346524
0.282948
0.871284
-0.850606
0.524485
-0.938141
-0.386701
0.317638
-0.083644
0.218387
-0.406092
-0.483100
0.864616
-0.297001
-0.266960
0.175593
-0.743417
0.000667
0.080786
0.143814
0.232527
0.821305
0.784041
-0.553552
0.059771
0.982397
-0.165298
0.198054
0.217219
0.069406
0.778535
-0.770666
0.103222
0.236162
-0.062557
0.158798
-1.094437
-0.364108
0.070670
0.912923
-0.227137
1.000391
-0.291437
0.881628
0.341479
-0.636287
0.966679
0.556884
-0.514574
-0.965021
-0.911821
-0.371916
-0.246359
-0.747559
-0.584941
-0.049374
0.394551
-0.438728
0.561404
0.173213
-0.223463
0.721468
-0.527537
-0.825953
-0.417957
-0.698924
0.878629
-0.109414
0.614358
-0.295047
-0.888004
0.753772
0.752454
-0.628470
0.903927
0.549650
-0.104647
0.245879
-0.187081
-0.122323
-0.761657
0.013473
-0.102800
0.737202
0.278007
0.573612
-0.966526
-0.114609
-0.428788
-0.287352
-0.376560
0.834491
-0.570408
-0.990047
-0.105191
-0.553844
0.096945
0.822682
-0.673796
-0.947118
-0.213450
-0.158224
0.173345
-0.377690
0.394685
-0.516809
0.295299
-0.159434
-0.379283
0.686793
0.150089
-0.705212
-0.761295
0.155635
0.719039
-0.179046
0.986922
0.859668
0.850457
0.384028
0.690954
0.960917
-0.609966
-1.028372
0.700414
-1.179829
0.525093
0.461792
-0.359089
-0.581017
-0.765088
0.630733
0.031825
-0.491456
0.541201
0.267840
0.712075
-0.443522
-0.295052
0.156329
0.515729
-0.544405
0.798645
-0.800677
0.148151
-0.820994
-0.033051
0.777282
-0.117626
-0.235563
-0.455323
-0.774165
0.574333
-0.076150
-0.090264
0.076383
-0.524503
0.049929
0.377694
-0.927330
0.059545
-0.630344
-0.696937
-0.429564
0.320498
0.694231
-0.646332
0.569497
0.739405
0.804297
0.264320
-0.870023
-0.142369
-0.389132
-0.881073
-0.801280
0.658571
-0.313839
0.293583
-0.001132
-0.148281
-0.751308
-0.370839
-0.570186
0.715584
-0.568885
-0.615504
-0.375581
0.602087
0.335876
0.524322
-0.119854
-0.053054
-0.856785
-1.012618
-0.704283
-0.628473
0.881960
0.507642
0.299451
0.846343
0.453810
0.027907
-0.420958
-0.190913
-0.894449
-0.442690
-0.318560
-0.607571
0.177999
0.210498
0.126176
0.066368
-0.059045
0.429220
-0.178852
-0.403524
0.764630
0.157829
0.482877
-0.411022
-0.617814
1.022577
-0.960441
-0.355416
0.006432
-0.826171
-0.899580
0.338488
0.271261
0.431004
1.012171
0.543478
-1.001268
0.878670
0.558605
-0.638292
-0.697453
0.570406
-0.959378
-0.912758
0.545375
0.727563
-0.525905
-0.671746
-0.400907
-1.057544
-0.487016
-0.264076
0.003578
0.925819
0.623483
0.253050
0.809820
-0.371253
-0.115950
0.778254
-1.007380
0.560260
-0.033267
0.120206
1.029122
-0.368662
0.151017
0.181747
0.743035
0.124655
0.907017
-0.136344
-0.010146
0.963217
-0.851882
0.959641
-0.632348
-0.501008
-0.441844
0.027781
0.014869
-0.925798
-0.714383
-0.946045
0.256514
-0.765520
-0.572492
-0.027942
-0.372047
-0.876474
-0.312085
0.376927
-0.280942
-0.683835
-0.051192
-0.129455
-0.474936
0.896183
-0.682555
0.079795
-0.466981
-0.308838
0.762953
0.631867
-0.535858
-0.955386
0.321825
-0.405057
-0.966718
-0.161135
0.588633
0.857332
0.942320
0.669846
-0.972805
0.103976
0.060136
-0.079042
0.820394
0.853256
0.018039
-0.748432
-0.702014
0.867013
0.019446
0.362016
-0.340935
-0.859500
-0.732817
0.620463
-0.301382
1.005820
-0.163865
-0.952659
-0.178949
0.685636
-0.287845
-0.946977
-0.096836
0.706453
0.653049
0.491449
0.108428
-0.061885
-0.414922
-0.797844
-0.075689
-0.067520
-0.468669
-0.915300
-0.652502
0.370583
-0.506877
-0.566697
-0.096441
0.154097
-0.683016
-0.240751
0.243889
-0.402373
-0.102913
0.322228
-0.904793
-0.950389
0.854536
-0.366705
-0.829860
0.520807
0.795405
0.613024
0.103617
0.951849
-0.424338
0.036886
0.659559
0.062458
-0.764980
0.005746
0.099782
-0.774273
0.628260
0.132333
-0.931947
0.085830
0.923569
0.901418
0.781834
0.591742
0.611367
-0.713537
0.622355
-0.339974
-0.696296
0.480129
0.616452
0.246880
-0.579567
0.486027
-0.176851
0.244910
-0.131456
0.379500
0.694266
-0.250016
0.864492
0.603155
0.472695
-0.566426
0.315577
0.978757
0.657849
-0.928248
0.038047
-0.448771
0.981498
-0.672633
-0.496776
-0.496888
0.498354
-0.855744
-0.920237
0.802142
-0.578503
-0.545866
-0.580169
0.681238
0.573787
0.364376
0.157448
-0.358421
-0.125540
0.531094
-0.508557
-0.864089
0.175061
0.025460
0.435955
-0.444099
-0.675317
-0.833630
-0.490003
-0.176506
-0.478204
0.371306
-0.296270
0.337130
0.941540
0.651875
1.002413
0.583940
-0.127352
-0.613303
0.815202
0.337475
-0.823298
0.401024
-0.773581
-0.269079
-0.280213
0.105738
-0.668613
-0.441834
-0.972377
-0.387341
-0.530233
0.578162
-0.434141
0.238302
0.130734
-0.199458
0.767828
-0.645986
0.846309
0.689469
0.212734
-0.500601
-0.661111
-0.841530
-0.562607
0.072870
0.413067
0.648525
0.681817
0.887592
-0.792946
-0.024223
-0.390366
-0.345860
-0.750718
-0.438751
0.126520
0.415501
0.923181
-0.695615
-0.530575
0.621045
0.204410
0.281323
0.656024
0.761824
0.814620
0.729836
-0.825784
-0.615074
0.779797
0.760985
-0.355718
-0.448204
0.423988
0.536348
0.145898
0.132322
0.188761
0.552352
-0.345289
0.858051
-0.111536
0.590481
-0.951165
-0.372445
0.651644
0.172879
-0.679666
-0.147301
-0.037448
0.768836
0.528615
0.727835
0.019679
-0.408895
0.900694
0.810117
0.621375
0.449863
0.504414
0.011500
-0.587600
-0.416155
0.534896
-0.880970
0.820055
-0.478647
0.086639
-0.674762
0.278765
-0.388250
-0.682742
-0.728326
-0.386422
-0.770319
-0.268469
0.226025
-0.759340
-0.027878
0.921897
0.040445
0.324129
0.956888
0.881324
0.708830
-0.558434
0.672057
-0.705617
-0.067947
-0.548842
0.759859
0.510278
0.090715
-0.741494
-0.152099
-0.897179
0.205326
0.830152
-0.839069
-0.735228
0.514247
-0.783618
0.408853
0.968701
0.911133
-0.729728
0.830306
-0.272661
-0.215807
-0.740179
0.387050
-0.356739
0.092823
-0.486700
0.941275
0.871983
-0.055029
0.404200
0.468389
-0.855757
0.291774
0.576592
-0.400924
0.282429
0.455527
0.659117
-0.043464
0.245325
-0.681921
0.383059
-0.720373
-0.733084
0.984864
-0.340785
0.674296
0.423410
0.600175
-0.697197
-0.243616
0.989653
0.521973
0.905989
-0.871807
-0.811654
-0.605152
0.125196
-0.863096
-0.337209
-0.645254
0.821239
-0.342076
0.857052
-0.342402
0.492116
0.882675
0.795180
-0.094413
-0.328943
-0.603761
-0.068568
0.470962
-0.238122
-0.180413
0.561003
0.540184
0.924783
0.701510
-0.539722
0.312983
0.721500
-0.289445
-0.853756
-0.140877
0.844524
-0.120986
-0.269688
0.819281
0.333369
0.093629
-0.440953
-0.237611
-0.849897
-0.819619
0.557454
0.037650
0.163509
-0.708942
-0.418886
0.634621
0.508523
-0.311043
-0.016100
0.700957
-0.062613
0.736524
0.539590
0.619992
-0.628243
0.573678
0.670662
-0.624150
0.244179
0.799481
1.010943
-0.827193
0.595163
-0.759361
-0.624672
-0.429663
0.214576
0.660947
0.679248
-0.271425
-0.412490
-0.889282
0.359968
0.887257
-0.800033
-0.679322
-0.312103
0.451672
-0.600372
0.089722
-0.083219
-0.670699
0.255717
-0.748983
0.118951
0.512175
0.927254
-0.395297
0.710869
0.515294
-0.606845
-0.879700
-0.088333
-0.803971
0.942612
-0.308407
-0.805830
-1.007024
-0.466206
1.084988
-0.517478
-0.281149
0.254780
0.850678
0.163169
0.057823
0.355643
-0.227731
-0.472095
0.759049
-0.314376
-0.062945
-0.223349
0.230251
0.914047
-0.306972
0.846314
0.014188
0.354135
-0.060910
0.397240
0.233235
0.522752
-0.180727
-0.613505
0.618277
-0.811603
-0.234184
0.980696
0.082327
0.407963
0.765781
-0.040313
-0.470582
-0.807415
0.235197
-0.942274
0.728131
0.350404
-0.416499
-0.007645
-0.358545
-0.876638
-0.838614
-0.700246
0.139403
-0.056147
-0.963784
0.418996
-0.936000
-0.098082
-0.391534
-0.888922
0.601513
-0.454636
-0.339905
-0.242388
0.925629
-0.629749
-0.308048
0.469229
-0.854751
0.331502
0.959507
0.374778
0.581112
-0.552800
0.027209
0.793299
-0.676422
0.482677
-0.306400
-0.477903
-0.282043
-0.694264
0.418658
0.343147
0.922524
0.123736
-1.012693
-0.510656
0.375328
-0.694222
0.329456
-0.310046
-0.039323
0.864268
-0.182194
0.828910
-0.695724
-0.665463
0.567018
0.639648
-0.832175
0.866339
0.270581
0.004848
0.133417
-0.400163
-0.767026
-0.053511
0.124565
-0.213379
0.405510
-0.751345
0.528195
0.463860
0.864528
0.822014
0.686031
0.135307
-0.494772
-0.004626
-0.174830
-0.664553
-0.069895
-0.873152
0.392924
0.114752
0.133895
-0.485986
-0.148419
-0.844301
0.176517
0.650181
0.283434
-0.908565
-0.953054
0.344122
-0.258956
-0.520545
0.522610
0.372568
-0.128038
-0.467855
0.612956
0.574672
-0.877455
0.418771
0.588494
-0.036248
-0.541655
0.129936
-0.912273
-0.507824
-0.725149
0.120311
-0.003442
-0.007508
-0.140339
-0.303162
-0.244589
-0.517951
-0.884483
-0.858098
-0.915664
0.204467
-0.036405
-0.356691
0.754098
0.516781
-0.055537
0.066602
-0.793450
0.323514
0.429697
0.081265
-0.430632
0.013672
0.469645
0.632721
-0.943218
0.019179
-0.187449
-0.218084
-0.173788
-0.650203
-0.525799
-1.000348
0.172873
-0.085899
0.777855
0.522708
0.599634
0.683578
-0.337877
-0.563943
0.756103
-0.747499
0.320951
0.286401
-1.010310
0.481069
-0.948123
-0.654638
0.982130
0.867239
0.633324
0.262547
0.150624
0.354167
-0.414757
-0.011835
-0.496175
-0.595218
0.857969
-0.673640
-0.596857
-0.384957
0.604851
-0.867624
0.048997
0.795818
0.798333
0.676691
0.213723
0.632161
0.376083
-1.081464
-0.362339
-0.819288
0.082208
-0.987149
0.604011
-0.382497
0.666771
-0.975556
-0.122460
0.063613
-0.538036
0.414150
-0.935056
-0.538081
0.384769
0.721217
0.224255
0.666742
0.027203
0.910288
0.488148
0.855586
0.517626
0.581108
0.490046
-0.522680
0.596453
-0.699297
-0.640156
-1.050507
0.601080
-1.035362
-0.482353
0.671101
0.405879
0.501806
-0.457519
-0.609031
-0.274682
0.165365
0.756070
0.541756
0.238633
-0.227328
-0.375448
0.395208
0.375075
-0.801045
0.400820
-0.160277
0.448207
-0.131279
0.540552
-0.307748
-0.792202
0.831749
0.156716
0.472478
-0.240433
0.080806
-0.520124
-0.076569
-0.549595
0.609960
0.742312
0.015450
-0.739133
-0.432548
0.377430
-0.081803
-0.449543
-0.732198
0.082692
-0.497697
-0.270601
-0.867072
1.006644
-0.487997
-0.383932
0.210191
0.401816
-0.899605
0.408916
-0.815126
0.289515
-0.137042
-0.120408
-0.552682
0.473548
-0.788588
-0.294531
-0.274831
0.397766
0.531448
0.855129
0.446817
0.420947
-0.860696
-0.127434
-0.118969
-0.449588
0.265340
0.810662
0.141923
-0.384677
0.497600
-0.819475
-0.637246
-0.453155
-0.505006
0.780687
0.354729
0.981671
0.828427
0.202469
0.602468
-0.733816
-0.275940
0.854163
0.444099
-0.029624
-0.038764
-0.216485
0.029248
0.657374
-0.891143
-0.060244
-0.507406
-0.146595
-0.178782
0.893280
0.615784
0.127763
-0.371851
0.615205
0.104196
0.388265
-0.285908
0.577165
0.187608
-0.152193
0.911721
0.008122
-0.494282
0.033870
0.539207
0.068120
0.052045
0.191149
0.427305
0.357531
0.333916
0.499487
-0.661845
0.533809
-0.699339
-0.338158
-0.086222
-0.265185
-0.853114
0.284214
-0.455106
0.918847
-0.506158
-0.609482
-0.690856
0.672047
0.660815
-0.835186
0.872853
0.832451
0.727150
-0.437286
-0.815623
-0.855575
-0.898698
0.922552
-0.744740
-0.442762
-0.681901
0.569679
-0.401457
0.356099
-0.690835
-0.047928
0.378778
0.638877
-0.396316
-0.794181
-0.542376
0.826513
-0.850987
0.278416
-0.407894
-0.848741
0.057838
-0.766715
-0.676445
0.279658
0.633358
-0.153281
0.554167
0.436815
0.321732
0.706159
0.199772
-1.004273
-0.628955
-0.128025
-0.260910
0.319717
-0.160010
0.047369
-0.648187
-0.237961
-0.261307
0.493265
-0.847224
-0.047942
0.163351
0.470088
0.515426
-0.137586
-0.333467
-0.369757
-0.967887
0.466691
-0.550291
-0.914453
0.182572
0.246343
0.071295
0.397453
0.228349
-0.497586
-0.156185
-0.316754
-0.873122
-0.309550
-0.835020
-0.981142
-0.700843
0.530232
-0.328169
0.387277
-0.147320
-0.225238
-0.367386
0.048359
0.731656
0.662429
-0.298489
0.608614
-0.912327
-0.932185
-0.366075
-0.119544
0.049138
-0.651638
0.088857
0.580899
-0.748749
-0.194292
-0.389501
0.948740
0.654117
-0.402003
-0.627952
0.327109
-0.002084
0.369776
-0.869959
0.818995
-0.152362
0.569021
0.906972
0.351441
0.640750
-0.807060
-0.361013
-0.226333
-0.590753
0.744117
-0.835062
-0.629200
0.527256
-0.217078
-0.802018
0.064805
-0.219198
1.026743
-0.445083
-0.270735
0.402348
-0.460519
0.628680
0.816317
0.516441
-0.153392
-0.897209
-0.424492
-0.891846
0.062498
-0.787348
-0.076365
0.256128
0.175914
0.932111
-0.918900
-0.627092
-0.773357
0.492809
-0.068043
0.168881
0.101975
0.831265
-0.917637
-0.418204
0.939834
0.311719
-0.834618
0.059498
-0.340256
-0.238301
0.218265
-0.770628
-0.229568
-0.486767
0.737314
-0.868786
0.834257
-0.126818
-0.444071
-0.150296
-0.922324
-0.816077
0.198136
-0.823733
0.880240
-0.958486
-0.333377
-0.212855
0.245791
0.554850
0.937868
-0.043569
0.870428
-0.368053
-0.638013
0.484782
0.505036
0.572799
-0.862622
-0.854977
-0.858147
0.965084
0.346718
-0.994511
-0.994412
0.732822
-0.980982
-0.415537
0.593520
-0.207529
0.257936
-0.803638
-0.923126
0.231144
0.906567
-0.049998
0.208595
-0.804076
0.425877
-0.177437
-0.442875
-0.363080
-0.970352
-0.206905
0.347404
-0.526195
0.189386
0.529270
-0.282713
-0.022730
0.470400
0.134965
0.437638
0.632968
0.739565
-0.530415
0.599673
0.777762
-0.599787
0.961450
0.307499
-0.157640
-0.134928
0.775648
-0.711491
-0.180654
-0.115635
-0.644020
-0.799113
-0.421430
-0.985731
-0.952573
0.613094
-0.356355
-0.400263
-0.691176
0.983865
-0.530652
0.509185
0.703789
-0.500107
-0.844792
-0.029225
-0.846068
-1.035191
-0.082897
-0.784248
-0.780835
0.049220
-0.170589
0.045604
0.185673
-0.067165
-0.707679
-0.315469
0.178401
0.118625
-0.573919
0.114025
-0.057650
0.996109
-0.369985
-0.711612
-0.168203
0.780497
-0.287437
-0.255516
0.230968
-0.096307
-0.512092
-0.169798
-0.572999
-0.674647
-0.487868
-0.094311
0.958404
0.273636
-0.800556
-0.981599
0.879511
-0.167240
-0.455723
-0.437555
-0.288317
0.463363
0.182759
-0.467469
-0.009610
0.889301
0.588100
-0.278900
0.511823
-0.504356
0.853630
-0.010461
0.117126
-0.097033
-0.165205
-0.290689
-0.881614
0.966568
0.863933
-0.141347
-0.512972
-0.981154
-0.369547
0.682295
-0.743685
-0.339413
-0.098115
-0.670290
-0.596358
0.276532
-0.435448
-0.602526
-0.808123
0.266672
0.954190
-0.111342
-0.045562
0.621244
-0.719672
-0.239097
0.804765
-0.029308
0.214363
-0.373112
0.497448
0.410934
-0.704817
0.327722
0.647736
0.284264
0.160866
-0.674190
0.492436
0.105848
-0.738343
-0.405534
-0.857045
-0.525515
-0.084344
-0.992918
-0.570642
-0.432537
0.974144
-0.288098
-0.201055
0.983237
0.871269
-0.432829
-0.068391
0.667025
-0.759781
-0.580972
-0.259626
-0.485744
1.007257
-0.809212
0.780886
-0.431648
-0.073171
0.960699
-0.181225
0.739337
-0.473703
0.401348
-0.108273
0.834371
-0.735312
0.173188
-0.536040
0.307428
-0.095861
-0.335965
-0.328712
0.445037
0.596230
-0.308846
0.046124
-0.058108
-1.003250
0.256197
-0.098716
0.063502
-0.580284
-0.123942
-0.107252
0.177518
-0.333181
0.459810
0.786284
0.181074
-0.294355
0.530932
0.914479
-0.967748
0.140332
-0.981667
0.798437
0.766873
-0.126215
-0.963422
-0.044805
-0.725699
0.398905
0.174627
0.910208
0.480323
0.278528
-1.013208
-0.014286
-0.693953
-0.942474
-0.460079
0.627614
0.272198
-0.725772
0.294168
-0.279387
-0.798572
-0.831562
0.830146
-0.094502
0.493834
-0.688173
0.567319
0.526972
0.152778
-0.402025
0.403571
0.642278
-0.074900
0.068740
-0.653096
-0.469304
-0.209871
0.351829
-0.909959
0.445492
0.803347
0.900684
-0.286009
-0.073762
0.839420
-0.131674
-0.699274
0.320243
-0.117373
0.914517
-0.713894
-0.325645
-0.138916
-0.710196
0.865637
0.744735
-0.792668
-0.289635
-0.645840
0.887618
-0.258627
0.514362
0.414907
0.892731
0.220688
0.585434
-0.679970
0.544076
-0.992443
0.571915
-0.795638
-0.218562
-0.825758
0.004651
-0.106619
0.075019
-0.858505
-0.556429
-0.257834
0.340501
-0.679141
-0.828121
-0.254033
-0.356031
-0.512936
0.261641
-0.877310
-0.225455
0.190308
-0.817167
-0.840677
-0.816703
0.576708
0.400372
-0.404635
0.645044
-0.595803
-0.812958
0.566968
0.497945
-0.391534
0.140598
0.893714
0.530259
-1.009189
0.358077
0.159528
0.021718
-0.321613
-0.037028
0.324988
0.860330
-0.298907
-0.036583
0.114551
-0.308949
-0.472199
0.406577
-0.182560
-0.964228
0.738744
-0.756805
0.280799
-0.262866
0.976553
-0.545839
-0.018504
-0.487468
-0.559758
0.745053
0.633091
-0.010842
-0.540077
0.209066
0.115021
0.629584
0.264982
0.344759
0.368145
-0.131214
0.360566
-0.077429
0.850012
0.683554
0.445129
0.439672
-0.450805
-0.616447
-0.859584
0.772743
-0.121010
-0.892629
-0.289589
0.395635
-0.052121
-0.006122
0.089678
-0.144700
0.836903
-0.349054
0.595655
-0.463452
-0.427172
0.174761
0.931077
-0.492634
0.039909
-0.291415
0.561160
0.084824
-0.226118
-0.385785
0.483252
0.410622
-0.848394
0.620503
0.950942
0.643215
-0.595341
0.317199
0.307468
-0.149869
-0.220545
-0.001064
0.489280
0.923813
0.666460
-0.770351
0.259752
-0.614683
-0.880574
-0.277343
-0.898084
0.640910
-0.421677
0.889369
0.029868
0.320205
0.740316
-0.777794
-0.883341
0.753040
0.833009
0.492953
0.331520
-1.087239
-0.221298
-0.714497
0.114676
0.108744
-0.182780
0.584412
-0.230624
-0.812208
0.361738
-0.774187
0.344649
0.530076
-0.227479
-0.802538
0.888478
0.911483
0.677316
-0.152641
0.477209
0.410157
-0.362041
0.809345
-0.877538
0.064483
0.264768
-0.428871
-0.424375
-0.748303
-0.074052
0.395732
-0.832100
0.228251
0.674626
-0.293140
-0.252829
-0.097660
-0.666230
-0.981878
-0.652114
0.945392
0.569895
-0.568942
-0.199245
0.718885
-0.264209
-0.410930
-0.587374
-0.944657
0.483639
-0.511945
-0.568274
-0.677603
0.700468
-0.103916
0.577513
-0.331565
-0.112341
0.932853
0.378875
0.271627
-0.776542
-0.892293
-1.021179
-0.059626
0.287728
-0.504537
-0.724781
0.136198
-0.689044
-0.583419
0.285847
-0.768046
-0.764942
0.512859
-0.613333
-0.577222
0.721369
-0.481238
0.398555
-1.006870
0.526449
0.938706
0.704180
0.751764
0.952278
-0.804237
0.853987
0.605877
-0.713435
-0.400155
-0.391002
-0.690824
0.186397
0.184715
0.349973
-0.940366
-0.419533
0.942121
-0.681275
-0.441373
-0.884273
-0.931132
0.624726
0.804654
0.806735
-0.487596
0.508921
-0.394004
0.218990
-0.094237
-0.076122
-0.531073
0.013306
-0.028109
0.164087
-0.792522
-0.850213
-0.633561
0.246117
-0.842034
0.736730
-0.594999
-0.967787
0.061418
-0.097382
-0.853849
-0.915262
-0.381451
-0.627433
-0.596058
-0.846297
1.021137
0.256108
0.164495
-0.925885
0.362718
0.288596
-0.788515
0.859618
0.051291
0.587971
0.884588
0.180159
0.151593
-0.418903
0.232862
0.938827
0.421671
0.788654
-0.648290
-0.034619
-0.478705
0.072560
-0.564425
-0.356086
-0.241882
-0.145199
0.478617
0.383788
0.748751
-0.687567
-0.924173
0.282517
-0.260474
-0.576170
-0.940994
-0.496573
-0.458237
-0.901194
-0.421470
0.534734
0.411710
-0.543037
0.487435
0.256617
0.807793
-0.057565
-0.168940
0.864380
0.225453
-0.629835
-0.235343
-0.105713
-0.779034
-0.476221
0.548473
0.600115
-0.741383
-0.552312
-0.560795
-0.431253
-0.229825
-0.569856
-0.777114
-0.510656
-0.551183
0.624153
0.769922
-0.888647
-1.005073
0.661126
0.505020
0.822225
0.798633
-0.051625
-0.049167
-0.286158
0.237719
-0.231634
-0.303557
-0.402696
0.544153
-0.296015
-0.119903
-0.820256
-0.990001
-0.351892
-0.497074
0.083956
0.105108
-0.408718
-0.107655
0.221371
-0.065126
0.041051
0.973973
-0.304080
-0.037754
0.729751
0.782378
0.726843
-0.513875
-0.394500
-0.824911
0.928285
-0.375948
-0.826858
-0.017987
0.226395
0.490138
0.579368
-0.043602
-0.317391
-0.882704
-0.907834
-0.201744
0.331968
0.425858
-0.640335
0.632436
-0.284471
-0.270407
0.994102
0.883770
0.083154
-0.290836
0.074117
0.059220
0.813410
0.497662
-0.830248
-0.977464
-0.905613
0.003859
0.062397
0.683977
-0.090953
-0.702034
0.004889
0.373167
0.291704
0.250082
-0.187774
-0.376171
0.380995
-0.197919
-0.846353
-0.086744
0.470430
-0.759079
0.227276
0.720966
0.214102
0.260080
-0.515144
0.584230
0.488747
0.296324
-0.928182
0.096204
-0.033397
-0.198661
0.594171
-0.190382
0.776679
0.156385
-0.660627
-0.242243
-0.561733
-0.147632
-0.444390
-0.113895
0.375063
0.550118
0.225671
-0.398668
-0.343664
-0.793080
-0.570234
-0.865432
-0.980084
0.109336
-0.057646
-0.260681
0.332680
0.305859
-0.507784
-0.033270
-0.860880
0.184683
-0.469273
-0.124641
0.646615
0.200174
0.357422
-0.043341
0.289550
-0.829127
-0.637859
-0.443226
0.227783
0.021319
0.066821
-0.077259
-0.764835
-0.788776
0.863028
0.595375
-0.814472
0.170810
0.574164
0.655474
-0.692118
-0.553512
-0.433988
-0.496269
0.674234
0.490321
-0.048453
0.441883
0.573077
0.105717
-0.011855
-0.784778
-0.628850
0.230789
-0.523626
0.198133
-0.214863
-0.327972
0.416090
-0.902054
-1.011331
0.433567
-0.530405
0.960373
-0.413754
0.285212
-0.158421
-0.009779
0.383584
-0.032866
-0.772898
0.850299
-0.275457
0.494420
-0.714153
0.203522
-0.249319
-0.862082
0.159021
0.555978
0.730244
-0.526084
-0.376691
0.132671
-0.649396
-0.314803
0.608882
-0.817146
-0.066985
0.018930
-0.167498
0.770125
0.340330
0.491456
-0.941916
-0.673846
-0.036955
0.666427
-0.316926
0.224022
-0.449365
0.710977
0.787283
-0.648704
-0.856664
-0.719260
-0.803414
0.187621
0.082328
0.113506
-0.060248
-0.116052
0.602482
0.727724
0.511806
-0.687590
-0.921294
0.024899
0.813878
-0.927231
0.115299
-0.981573
-0.660369
0.978006
-0.302485
0.967863
-0.122727
-0.587860
-0.853173
0.580652
0.425454
0.243599
0.524984
-0.698774
0.426854
-0.595054
-0.618962
-0.606509
-0.565597
-0.560262
0.256109
0.589005
-0.852973
0.923068
-0.106617
-0.606571
0.015681
-0.816350
0.190318
-0.857885
0.804139
-0.891838
0.651117
-0.834132
-0.863944
0.029134
-0.318207
-0.365468
0.767610
-0.595186
-0.399085
0.308627
0.772746
0.157769
0.615059
-0.041334
0.891351
-0.716516
-0.540136
0.852627
-0.553283
0.536646
0.828531
0.738673
0.945271
0.312695
-1.014561
-0.593264
0.627985
0.277813
-1.000830
-0.960649
0.512057
0.179801
0.810152
-0.760903
-0.138472
0.139060
-0.567692
0.685089
0.741688
-0.417301
-0.550298
0.510917
0.100949
-0.426978
0.603261
0.666280
-0.858438
-0.437422
-0.132873
0.111329
0.354316
0.020721
-0.949793
-0.410830
-0.884370
0.477977
-0.374536
0.636471
0.182221
-0.597980
0.904207
-0.198932
0.271964
-0.606496
-0.532563
-0.561648
0.243182
-0.078857
-0.433122
-0.557267
0.213801
-0.060287
-0.757752
-0.757670
0.390608
-0.306840
-0.151057
-0.197988
0.197310
0.917535
0.075529
0.641378
0.622806
0.106763
-0.003494
-0.726860
0.557280
0.798481
0.596598
-0.368628
-0.102330
-0.716103
-0.983972
0.835861
-0.008735
0.791412
-0.593625
-0.441862
0.129516
0.308640
-0.689297
-0.684743
0.417587
0.995573
-0.676863
-0.625238
0.681782
0.200965
0.431374
0.118666
-0.413058
0.238492
-0.002034
-0.895142
-0.778532
-0.571782
0.820243
0.730701
-1.011076
0.678846
-0.821061
0.309930
-0.773635
-0.193638
-0.269315
0.377031
0.158542
0.636965
0.795570
0.074847
-0.898341
0.460621
-0.312779
-0.434913
-0.391470
-0.710579
-0.867516
-0.713525
0.930551
0.372934
-0.933916
0.286824
0.700934
-0.843363
0.374326
-0.351258
-0.086619
0.324932
0.278866
0.328297
0.258906
0.850982
