3072 30 10 0.1000 50 50 300
0.116842
-0.046797
-0.070038
-0.054447
-0.084721
-0.081451
-0.016980
0.080102
-0.325244
-0.075254
0.148927
0.071797
0.083196
0.040565
0.141529
0.110637
0.091788
0.118900
0.113147
0.125677
0.082608
0.115049
0.112752
0.079738
0.154731
0.125308
0.050812
0.026885
0.151005
0.128799
0.062098
0.052743
0.114226
0.080070
0.069126
0.093963
0.047449
0.070284
0.034649
0.108068
0.802818
0.749949
0.007309
-0.398957
-0.310953
-0.426878
-0.978494
-0.688270
0.532506
0.518399
0.079614
-0.875121
-0.032565
0.127329
-0.670741
0.662320
-0.100412
-0.509345
-0.877991
0.078562
-0.124845
0.465819
-0.430304
0.155802
0.339431
0.598693
-0.027362
0.096910
-0.500762
0.007150
-0.351688
0.279255
0.141265
0.550020
-0.214936
0.173656
0.975004
0.867650
-0.630479
-0.512572
0.507826
-0.452299
0.810814
-0.475526
-0.818986
0.226431
-0.717103
-0.286968
0.050659
0.092388
0.770445
0.761242
0.398687
0.619008
-0.376508
0.255733
0.897310
-0.183530
-0.937865
-0.677693
0.526211
-0.274329
-0.265912
0.956706
0.960964
0.780308
0.467562
0.381578
0.307582
0.833433
-0.578992
0.012154
0.304042
0.141886
0.158511
-0.421295
0.820383
-0.440520
-0.506062
1.010166
-0.296751
-0.791538
0.233123
0.174864
0.442359
0.253891
0.597639
-0.995222
0.850648
0.234711
0.449272
0.171731
-0.349548
0.356062
0.410205
0.876379
-0.564996
-0.743932
0.229027
0.811410
0.572490
0.238087
-0.918931
0.957829
-0.958004
0.157794
-0.628143
0.473346
0.551016
0.014257
0.574643
0.254687
-0.122959
-0.209918
-0.547097
0.856911
-0.937386
-0.403562
-0.129203
-0.567856
0.905755
0.415639
0.826718
-0.406954
0.114912
0.310793
0.938261
-0.573371
0.278587
0.206901
-0.937692
-0.964469
0.927634
-0.514825
-0.634601
-0.796372
-0.781619
0.430407
0.252587
-0.267048
0.189042
-0.818147
0.613801
0.820837
0.776330
-0.895539
-0.708173
-0.706290
0.000217
0.761402
0.688957
-0.101527
0.934022
0.136565
0.231428
0.284891
-0.006428
-0.297865
-0.298711
0.803948
0.315629
0.645845
0.797721
0.776105
0.944215
0.869020
-0.280825
-0.861423
0.836416
-0.962126
0.642950
0.501519
-0.228253
0.457117
0.567330
-0.213355
-0.541568
0.047593
0.770761
0.580452
-0.537121
0.271356
0.813530
0.471526
0.910171
0.080540
-0.692074
-0.511647
0.340551
0.557627
-0.861306
0.751640
0.889136
0.936125
-0.155956
-0.308674
-0.033092
0.627081
0.202761
0.183233
-0.050792
0.871716
0.649020
0.776564
0.728989
0.249036
-0.931754
0.752819
0.239089
-0.149199
-0.294483
0.910100
-0.438054
0.478389
0.048597
0.266422
0.972183
-0.524366
-0.703722
-0.596360
-0.818587
0.220838
-0.742041
-0.345731
0.140376
0.038249
-0.256468
0.204552
-0.870847
-0.172011
-0.231291
-0.478697
0.443022
0.257107
-0.344278
-0.120315
-0.700201
-0.581212
-0.942020
-0.398135
0.054999
0.234273
0.830379
-0.083370
0.558713
0.070849
-0.348927
0.405890
0.083453
0.093577
-0.398153
0.228289
-0.485179
-0.288525
0.043825
0.012220
-0.889662
-0.670461
0.891912
-0.140222
0.238993
0.716805
0.992131
0.677209
0.515718
-0.200123
-0.983995
0.809308
0.022048
0.269096
-0.969559
0.137946
0.402220
0.360895
-0.150493
-0.650263
0.344594
0.723641
-0.739522
-0.051001
0.588012
-0.514543
-0.686251
0.206159
-0.719252
0.033011
0.380712
-0.202368
0.940958
0.728428
-0.069694
0.465521
-0.068886
0.951555
0.868305
0.514720
-0.233300
-0.680380
-0.746261
0.051202
0.786404
-0.735644
-0.507170
-0.806475
-0.092905
-0.306580
-0.725193
0.278768
-0.306634
-0.874658
0.630554
0.256180
-0.637996
-0.607541
0.017682
0.810966
-0.336617
-0.164827
-0.128551
-0.008477
0.843843
0.051915
0.651069
-0.437886
-0.965934
0.612329
0.148671
-0.838938
0.794335
-0.428008
0.743658
-0.482597
-0.081492
-0.620762
-0.941530
-0.728682
-0.480588
-0.176615
-0.428661
-0.489298
-0.491370
0.134109
0.423784
-0.137893
0.525718
-0.677757
0.206055
0.708710
0.601997
-0.976801
-0.240847
-0.751443
-0.302579
-0.117103
-0.870837
-0.455012
-0.400777
-0.332106
-0.290153
0.238705
0.149176
0.760816
0.432223
0.665919
-0.657913
-0.312683
-0.316498
-0.888933
-0.095889
-0.698738
-0.525406
-0.178507
-0.509435
0.946688
-0.079037
0.800278
-0.742592
0.623991
0.851696
-0.367563
-0.187666
0.739291
0.867209
-0.135524
-0.979892
-0.448332
0.416486
0.901728
-0.393905
0.199351
-0.901028
-0.497977
0.138333
0.242190
-0.731764
0.719066
-0.717956
0.997286
0.955897
-0.378027
0.928629
-0.227214
-0.738163
0.751042
-0.444395
0.641085
-0.144864
-0.700020
0.358126
-0.128538
-0.162257
0.342776
-0.118328
-0.543472
-0.247036
-0.516866
-0.758083
-0.010080
-0.080666
-0.486540
-0.854631
0.309813
-0.483890
0.069910
-0.538215
-0.986111
0.257836
0.750735
0.586834
0.648549
-0.079311
-0.309459
-0.098881
0.541574
-0.894204
0.263277
-0.956603
-0.636541
-0.636315
0.588981
-0.253230
-0.879315
0.642267
-0.427563
0.433132
-0.660633
-0.385249
-0.615302
0.385219
-0.786090
0.098480
-0.665810
0.175309
-0.317148
-0.833026
0.165468
-0.192349
0.820042
-0.282184
-0.835192
0.797571
-0.188234
0.027509
0.288208
-0.630954
-0.929571
0.907491
0.002872
0.535948
-0.562684
-0.827325
-1.000859
0.308135
-0.635005
-0.627002
-0.278856
0.115215
0.046884
-0.095620
0.463437
0.971143
0.808463
0.531473
-0.459210
0.927334
-0.257042
0.871403
0.946770
0.535840
-0.041721
-0.892013
0.876568
0.752892
0.119543
-0.783038
-0.835890
0.596173
0.005504
0.505382
0.069291
0.247509
-0.317378
-0.024258
0.897055
-0.012325
-0.459411
-0.268264
0.416153
-0.988443
0.898891
0.227661
0.422612
0.666948
0.107036
-0.952529
-0.189103
0.527659
0.692064
0.822932
0.848231
-0.227810
0.903163
-0.249640
0.119345
0.955707
-0.271344
-0.879073
0.299774
1.002243
0.317457
-0.386262
0.255265
-0.795325
0.757383
-0.662629
-0.395515
-0.913205
0.820743
-0.807107
0.918429
-0.075978
0.174960
-0.045959
-0.935569
0.345634
0.639846
0.885027
-0.437341
-0.962078
-0.127357
0.251308
0.721885
0.333394
-0.799066
0.095188
0.252233
0.655070
-0.777821
0.498782
-0.465836
-0.996935
-0.617895
0.871841
-0.754269
0.570443
-0.272042
-0.693857
-0.534387
-1.009241
0.312418
-0.404738
0.442042
-0.345625
0.845397
-0.670475
0.429523
0.653815
0.290989
-0.189353
0.024793
-0.189185
0.012025
-0.536989
-0.929618
-0.638703
0.648101
-0.865631
0.142177
-0.134760
-0.278559
0.328448
-0.151449
-0.466449
0.943148
-0.699276
0.892033
-0.520054
-0.339723
-0.879459
0.749861
0.842264
0.690820
-0.833087
0.600445
-0.311106
0.108259
-0.787012
-0.055610
0.881208
0.198091
-0.941787
-0.203975
0.218277
0.434417
-0.272913
-0.253295
0.177620
-0.113252
-0.941274
-0.108599
0.584528
0.622484
0.536201
-0.841009
0.003130
-0.927848
0.298444
-0.350793
0.304801
-0.034353
-0.696440
-0.683615
0.438179
-0.342175
0.089048
0.028826
0.501107
0.950528
-0.610915
-0.460871
0.080193
-0.445122
-0.796219
0.776009
0.072794
0.107316
0.094004
-0.245560
-0.108357
-0.632886
0.554846
-0.810817
-0.321695
0.099032
0.043970
-0.859200
0.766205
0.162358
0.960884
-0.960607
-0.503993
-0.854576
0.745002
-0.776204
0.399578
0.765167
-0.225400
0.041485
0.987227
0.289484
0.060792
0.245995
-0.331742
0.190267
-0.487572
0.334241
0.384512
0.896266
0.711278
0.901471
0.855627
-0.194713
0.746811
0.755711
-0.897496
-0.639951
-0.881555
-0.422974
0.453846
-0.483150
-0.875154
-0.107589
0.143748
-0.108567
-0.115312
-0.383948
-0.304432
0.030159
-0.965070
-0.653853
-0.483134
0.649153
-0.454945
0.593974
-0.059370
0.319797
0.665523
0.841395
0.474311
0.375069
0.949092
-0.277684
-0.475577
-0.063157
0.655513
0.349038
-0.057976
-0.088163
0.522761
0.914070
0.771303
0.081329
0.921432
0.548437
0.008625
-0.019915
0.678385
0.653799
-0.889491
-0.839269
-0.196854
-0.762197
0.217727
0.582602
-0.749206
0.900959
-0.959931
-0.236075
0.560918
-0.151537
0.040559
-0.408027
-0.466061
0.772959
0.205829
0.046439
-0.856507
0.551888
0.566832
0.154926
-0.216653
-0.633373
0.422086
-0.049835
0.967177
0.118546
-0.488583
-0.364014
-0.988785
0.048681
0.064961
-0.112494
0.693354
0.824041
0.739546
0.187517
0.187452
0.696259
-0.653492
-0.132468
0.189848
-0.536130
-0.516523
0.296256
-0.302769
0.826287
-0.054105
0.977584
-0.254818
-0.096876
-0.740325
0.159950
-0.829069
-0.730385
-0.285937
-0.119236
0.747874
0.042191
-0.053755
0.217260
-0.002354
0.023624
-0.620992
-0.567736
0.894346
-0.894387
0.276442
-0.192250
0.266454
0.329257
-0.142929
0.777115
0.624122
-0.592088
-0.776953
-0.656996
-0.360539
-0.316184
-0.144229
0.989822
0.788831
-0.446322
0.256122
0.255764
-0.143021
-0.386469
-0.821971
0.064502
-0.909350
-0.680024
-0.155875
0.283406
-0.503360
-0.428905
-0.131817
-0.286562
-1.010914
0.521842
-0.872932
-0.501500
-0.303623
0.418481
0.377110
-0.413476
-0.343413
-0.430620
-0.657551
0.835827
-0.884349
0.987426
-0.600240
-0.082424
-0.923591
-0.856129
0.020253
-0.236226
-0.819114
0.161133
0.672733
0.311158
-0.075462
-0.522184
0.338186
0.299216
0.029950
0.128523
-0.838322
-0.375324
0.108209
-0.610655
-0.076135
0.360910
0.778391
0.869254
-0.744485
-0.605083
-0.867348
-0.817606
-0.195442
-0.705925
-0.874237
0.538018
0.880158
0.499946
-0.872077
-0.207129
-0.858463
0.891247
-0.687743
-0.007206
0.994619
0.604888
0.920794
-0.938756
-0.443885
0.269043
-0.578902
0.141165
0.649018
-0.297770
0.959110
0.485197
0.880186
-0.026825
0.713396
-0.237945
-0.568702
-0.706116
-0.034568
0.971229
0.057429
-0.133550
-0.529290
-0.677646
0.643372
-0.091684
0.321509
0.789641
0.535186
0.059236
-0.886223
0.116119
-0.722803
0.898856
-0.145969
0.819897
-0.559298
-0.089477
-0.851014
0.260354
-0.201917
-0.759450
0.927154
0.483762
-0.080411
-0.359227
-1.003191
-0.092910
0.365136
0.456726
0.891218
0.754219
0.034631
-0.939967
0.439371
-0.475362
-0.145468
0.068108
-0.892544
-0.965537
-0.885892
0.845224
-0.865462
-0.511820
-0.955373
-0.223638
0.037487
-0.635740
0.186080
-0.746300
0.190468
0.969705
0.143295
0.821058
-0.316989
0.203165
0.621393
0.383321
-0.354236
0.332802
-0.819876
-0.823443
0.925305
0.378713
0.822013
0.867006
-0.977787
0.061215
0.538923
0.330422
-0.305348
0.682038
0.015372
-0.685682
0.064997
-0.243177
-0.471007
0.237379
-0.873443
-0.152671
-0.384408
0.085593
-0.832819
0.566430
0.370437
-0.604917
-0.841014
0.978041
-0.931141
0.012002
0.612142
-0.183246
-0.064940
-0.225368
0.256850
-0.254680
0.345008
0.749063
0.338171
-0.217205
-0.654063
0.100350
0.944097
0.356597
0.323995
-0.805345
0.799663
0.676932
0.708599
0.419379
-0.559158
-0.038583
-0.099168
-0.284248
0.536526
-0.938709
0.813716
-0.912461
-0.080010
0.455302
0.659995
-0.954635
-0.762154
-0.924637
-0.365556
0.512738
-0.844845
0.979176
-0.954062
0.473673
-0.064537
0.274181
0.427290
-0.207678
-0.258223
0.231379
0.983217
-0.006330
0.786043
-0.430948
-0.225869
-0.978662
-0.410980
-0.146458
-0.585834
-0.618893
-0.510826
0.364050
0.097511
0.050259
0.464955
-0.805851
-0.476729
0.284290
0.302534
0.185102
-0.327971
0.236756
-0.272277
0.250503
0.229514
-0.713612
-0.844590
0.377686
-0.287814
-0.901947
-0.510011
0.215845
-0.601834
0.397605
0.714848
0.218172
-0.265260
0.331257
-0.986349
0.866087
0.625781
0.259741
-0.165937
-0.155004
-0.864095
-0.499876
-0.703150
0.917005
-0.157648
-0.402026
0.376818
0.909445
0.298664
0.535441
-0.747560
-0.085639
0.532965
-0.396114
-0.701986
-0.611097
-0.431503
-0.705027
-0.908911
0.338293
-0.872865
-0.895186
0.008453
-0.857792
-0.718321
-0.328229
0.941730
-0.524426
0.094631
-0.183814
-0.374741
-0.814734
0.119362
0.993733
0.105676
0.607192
0.611338
-0.152770
0.317870
-0.680621
-0.823281
-0.615285
-0.988876
0.256264
-0.104055
-0.742000
-0.331918
-0.964329
-0.207238
0.779433
0.062305
0.498918
-0.385436
-0.242750
-0.409475
0.299642
0.510503
0.736028
0.243333
0.736956
-0.237650
-0.338612
0.069355
0.166843
-0.442344
0.287674
-0.131119
-0.441882
-0.923377
-0.405639
0.090728
-0.775993
-0.319046
0.041750
-0.627158
0.293127
-0.105948
0.281027
0.099243
0.786438
-0.955424
0.732107
-0.341210
0.728303
-0.197319
-0.149187
-0.265260
-0.683742
-0.172498
-0.239928
0.358261
0.027675
-0.276027
0.943966
-0.958172
0.348247
-0.440665
0.974095
-0.939546
0.686234
-0.200714
0.038318
0.181141
0.226264
0.117029
0.775404
-0.011587
0.118435
-0.921031
-0.666727
0.562519
0.491403
0.903634
-0.270235
0.081627
-0.855950
-0.674905
-0.688501
-0.989179
0.532393
0.973520
0.018048
0.911121
0.314484
0.728180
-0.805936
-0.366831
-0.741908
0.252480
-0.377706
-0.194884
0.963417
0.237479
-0.329959
0.202458
-0.648561
0.879674
-0.708234
0.650501
-0.963725
0.599943
-0.392639
-0.787574
0.612297
0.016633
0.295167
0.179641
0.726799
0.550600
-0.758611
-0.587135
0.074193
-0.678272
-0.978436
0.877682
-0.978012
0.636897
0.543046
0.039914
0.938204
0.506906
0.958653
0.313271
-0.042342
-0.617673
-0.105516
-0.529311
-0.792438
-0.881586
0.499696
0.511988
-0.172631
0.181495
-0.141281
-0.836170
-0.105549
0.904690
-0.026421
-0.216927
-0.337116
-0.883588
-0.590937
0.188267
0.602359
-0.660356
0.375918
0.896923
-0.843428
0.548656
0.244913
-0.902510
0.370065
0.457358
-0.791092
0.629660
-0.318320
-0.039773
0.653853
0.358996
-0.470982
0.399655
0.650949
0.916318
0.261634
-0.675867
-0.936988
0.643131
-0.559097
0.480039
0.949853
0.199407
-0.921456
0.348416
-0.445751
-0.392202
-0.052832
-0.062251
-0.190836
0.062837
-0.068435
0.245773
0.870536
-0.859966
-0.518247
-0.727982
-0.290132
0.527041
0.617593
-0.223978
0.618670
0.707895
0.526539
0.047728
-0.484754
0.669971
0.426903
-0.919059
-0.821569
0.179806
-0.720105
-0.826157
-0.385984
0.702489
-0.609168
0.498398
-0.851014
0.578862
0.901721
-0.511621
-0.901239
-0.481340
0.662606
0.144781
-0.967727
0.177182
-0.601835
-0.890491
0.862277
-0.221058
-0.716043
-0.853105
-0.473550
0.809148
0.015701
-0.827606
0.523057
0.791644
0.715433
-0.138419
-0.835193
-0.114866
0.276779
-0.309609
-0.283314
0.450756
-0.725722
-0.173333
0.920044
-0.497459
0.643182
-0.980805
0.338267
0.833875
-0.778332
-0.258517
0.283986
-0.982728
-0.476250
-0.820072
-0.393182
-0.252451
0.113137
-0.185025
0.456376
0.584957
-0.464384
-0.565260
-0.069351
0.183708
0.241243
-0.332470
-0.405556
-0.153297
-0.272116
-0.147923
-0.375362
-0.591001
0.626126
0.086089
0.741186
0.207239
-0.644069
0.850917
-0.344063
0.702660
0.517081
0.985545
-0.505542
0.078538
-0.542321
0.762085
-0.948062
0.276383
-0.800761
0.312474
0.728472
-0.270564
-0.417040
0.896567
-0.639029
0.020362
-0.554905
0.723310
0.571487
0.500636
0.810539
0.329882
-0.097419
0.702431
-0.777875
0.278570
-0.533762
0.206349
0.446365
-0.390868
0.418063
0.418218
-0.655072
-0.747095
0.579263
-0.328340
-0.604404
-0.069797
0.078747
-0.540087
0.284500
0.404127
0.710110
0.964834
0.226897
-0.039922
0.300282
0.048535
0.509594
-0.855437
0.017260
0.078619
0.824275
-0.348860
-0.644780
-0.822249
-0.651551
0.540893
-0.342481
-0.588606
-0.212708
0.948627
0.635775
-0.426096
-0.026352
0.885451
-0.098560
0.678572
0.013875
0.409643
-0.846447
-0.256932
0.232209
-0.767589
0.726548
-0.194896
0.566760
0.180103
0.888699
0.866798
-0.291484
-0.440915
0.112078
-0.774427
0.699373
-0.192765
0.470768
0.085054
0.681802
-0.197929
-0.893929
-0.484604
-0.503740
0.466386
0.898403
-0.430190
-0.328711
-0.196462
-0.265809
-0.239742
0.120690
-0.309182
0.820350
0.867055
0.900068
0.910093
-0.676706
-0.866141
0.164724
0.569166
0.096058
-0.782805
-0.545653
0.259410
-0.421055
0.135540
0.584978
-0.420566
0.277923
-0.882036
0.227435
-0.307671
0.447233
0.234980
-0.230166
-0.901191
-0.528006
-0.298581
-0.165790
0.498881
0.585439
0.398389
-0.944124
0.709261
0.429932
0.322631
0.278859
0.058445
0.708916
-0.550056
0.036365
-0.145932
-0.333017
0.177610
0.276041
0.232020
0.807763
-0.765558
-0.710906
0.908091
-0.247003
0.176374
-0.038255
0.457403
-0.654198
0.750531
0.245052
-0.831677
-0.408690
0.578486
-0.664623
0.635017
-0.250118
0.165229
-0.549733
-0.356270
-0.611034
0.151354
-0.584766
0.021499
-0.450122
0.400215
-0.336807
-0.584775
0.673941
0.254096
-0.111554
0.557784
0.354113
-0.659398
0.422722
-0.354686
-0.272667
0.028041
0.531698
0.057487
0.792413
0.226029
0.143078
-0.335369
-0.306472
-0.673930
-0.946923
0.113020
0.397384
-0.010926
0.443939
-0.898513
0.147088
0.836637
0.454488
0.113986
-0.705749
-0.766793
0.713287
-0.001468
0.066518
-0.479857
-0.917675
0.333882
0.699005
0.359449
0.956926
0.304607
0.672495
0.642572
-0.293826
0.956584
-0.388499
-0.605295
0.998469
-0.313337
-0.970045
0.832246
-0.232807
-0.318699
0.199560
-0.647468
0.445004
0.903547
-0.689900
0.886061
0.689394
-0.155245
-0.169593
0.418391
-0.222889
0.720046
-0.957032
-0.000924
0.282742
-0.078772
0.217689
-0.830331
-0.516633
-0.311786
0.537609
-0.142143
0.712561
0.722749
0.785248
-0.368247
0.959840
-0.272699
0.249905
-0.937236
-0.553865
0.704553
0.171043
-0.457671
-0.964766
-0.540242
0.803772
0.762535
-0.833710
0.123106
0.880920
-0.186222
0.231105
-0.908266
-0.758192
-0.147398
-0.690857
-0.342491
0.262859
-0.920432
0.885365
0.727725
-0.680588
0.248053
-0.218695
0.304843
0.680919
-0.215396
-0.227483
-0.873615
-0.702646
-0.435645
0.139206
0.342041
0.277012
-0.420133
-0.894281
0.544310
-0.892527
0.612727
-0.022480
0.908078
-0.798052
-0.244440
-0.420029
-0.938733
-0.297279
-0.042692
0.576411
-0.577773
0.827468
0.862112
0.327400
-0.829990
0.487114
-0.038278
-0.207819
0.675081
-0.552663
0.863370
0.291771
-0.156946
0.548046
-0.281959
0.435225
-0.723049
-0.595942
0.749651
-0.432105
0.380909
0.199995
-0.458254
-0.381222
-0.223767
-0.367055
-0.377364
-0.365616
0.001567
-0.497931
0.329302
0.955131
-0.715169
0.838487
-0.936117
0.744819
0.420567
-0.541943
0.513786
-0.189581
-0.753214
0.387781
0.374572
0.095064
-0.585322
-0.818129
0.940775
0.937043
-0.551222
0.545634
0.849545
0.324622
-0.918190
0.387765
0.813163
-0.066558
-0.211069
0.858503
0.325530
0.079560
0.386023
0.894085
0.410932
0.632731
0.232443
-0.969323
0.376191
-0.669148
0.241092
0.457341
-0.080394
0.058638
-0.860022
0.343934
0.487276
0.457620
0.708426
-0.775250
0.775339
-0.772922
-0.336562
0.883167
-0.735307
-0.810544
0.580570
0.571283
-0.160929
-0.513531
-0.046363
0.045969
-0.755390
0.955327
-0.048384
-0.536450
-0.083410
0.931893
0.545254
-0.957933
0.245094
0.197999
-0.557527
-0.272676
-0.221318
0.195381
-0.125996
0.063695
0.617739
-0.954357
0.885987
0.523142
-0.503276
0.245104
0.389557
0.800227
0.661185
-0.278758
0.424330
-0.560495
0.426464
0.522665
-0.357017
-0.872513
-0.777094
-0.149528
0.596604
-0.661808
-0.670446
-0.354743
0.902438
0.598198
-0.684312
0.624631
-0.928223
-0.041262
0.418811
-0.182779
-0.357882
-0.010076
0.786133
-0.383715
0.595189
-0.955354
-0.891227
-0.538955
0.387214
0.164774
0.516913
0.239819
0.049225
0.386186
-0.860674
-0.524273
1.001970
-0.290568
-0.944006
0.594205
-0.041592
0.696530
0.979661
-0.440852
0.911710
0.313461
0.614908
0.867455
0.396596
0.347422
0.286367
0.247046
0.875745
0.205880
-0.199057
-0.108913
-0.342383
0.888668
0.349783
0.366346
0.728632
0.670650
-0.438046
-0.326945
0.475734
0.412167
-0.723886
-1.006335
-0.333217
0.184855
-0.498580
-0.102178
-0.264689
-0.177462
-0.782664
0.289248
-0.626698
-0.638026
0.512867
-0.970805
-0.388248
0.430726
-0.779677
0.671561
0.571004
-0.517422
0.878239
-0.869546
-0.639216
0.405466
-0.951583
-0.039686
-0.933681
0.251609
-0.167540
0.441058
0.154254
0.000762
0.124775
-0.894514
0.597511
0.432483
0.137321
-0.660218
0.030430
-0.547274
-0.215782
-0.954543
-0.019086
0.026520
0.563166
0.461855
-0.266058
-0.729015
0.184357
0.863493
-0.322240
-0.721314
0.314210
0.781468
-0.869708
-0.139655
-0.626717
-0.617673
-0.174578
-0.770432
0.843609
0.350337
0.585119
0.131391
-0.117564
0.212372
-0.943195
0.680932
-0.972256
-0.039611
-0.424956
-0.150547
-0.507037
-0.379151
-0.273797
1.000076
-0.939055
-0.511168
-0.013013
0.903011
-0.221535
-0.546198
-0.428438
0.604946
0.332484
-0.295696
-0.733084
0.854145
0.746770
0.519203
0.412289
0.929425
-0.989864
0.068895
-0.104143
0.055055
-0.863738
-0.069482
-0.127984
-0.921918
0.383881
0.266499
-0.961095
0.556457
0.962731
0.611876
0.512674
0.016550
0.404279
-0.631228
0.730812
-0.683816
0.160329
-0.935230
-0.878067
-0.258972
0.566771
-0.827139
-0.267939
0.572524
0.430394
-0.954618
-0.834088
-0.688995
-0.335087
0.891284
-0.701372
0.675642
-0.956418
-0.533919
-0.941138
-0.394707
0.300176
0.762657
0.784080
-0.518139
-0.075229
0.842402
-0.908072
0.459876
-0.398230
0.982554
0.186134
-0.184954
0.794877
0.056188
0.299700
-0.861095
0.837794
0.863498
-0.565292
-0.240350
0.843788
-0.837608
-0.885519
-0.412452
0.110690
0.056704
0.817814
0.205115
-0.187915
0.057185
0.198609
0.384194
-0.297167
-0.469884
-0.679856
0.285571
-0.449556
0.748130
0.163956
0.199175
0.814917
-0.848510
-0.950532
0.306762
0.816890
-0.715826
-0.152821
-0.676424
-0.608800
0.866688
0.232167
-0.300437
0.675255
-0.115352
-0.947358
0.619771
-0.320741
0.361461
-0.736620
-0.646938
-0.889361
-0.240263
-0.669397
0.305900
-0.357348
0.271666
0.707078
0.864401
0.443608
0.403713
0.703385
-0.099027
0.662122
-0.531817
-0.010589
0.563410
-0.100744
0.838709
-0.082539
0.336921
0.092755
-0.227074
-0.528066
-0.862878
0.573126
0.012499
-0.303431
0.180401
-0.412072
-0.900438
0.443615
0.574682
-0.354902
0.793961
-0.473719
-0.271252
-0.859132
0.942010
0.332116
0.436708
-0.257027
0.200751
0.667128
-0.898341
-0.117112
0.098127
-0.282035
0.875285
-0.056900
-0.612948
0.548776
-0.928988
0.688780
0.786489
0.014212
0.910985
0.893960
-0.566784
-0.467076
0.869309
-0.136237
0.026257
-0.576152
-0.727784
-0.069848
-0.211452
0.969316
-0.348988
0.155816
-0.360534
0.725269
0.435528
0.035570
0.157364
-0.031230
-0.731012
-0.081389
0.405459
0.501076
0.772136
0.389388
0.638406
-0.588873
-0.564076
-0.110980
0.426362
-0.931386
0.948334
-0.347523
-0.175454
-0.965549
0.412857
-0.339535
-0.676263
-0.156856
0.507757
0.533520
0.305682
0.559284
0.884914
0.052567
0.129697
-0.520032
0.101648
0.347458
0.418130
-0.287075
-0.104291
-0.767931
-0.537358
-0.659897
-0.247803
-0.022465
-0.086524
-0.132665
-0.536132
-0.678546
0.547236
-0.460051
0.234294
-0.236496
-0.942516
-0.977791
0.383754
0.037275
0.857689
0.833922
0.828997
-0.327775
-0.608550
-0.721953
-0.974576
-0.128430
0.531653
0.828997
-0.682639
-1.008804
-0.631209
0.956662
-0.620664
-0.588352
0.450536
-0.877369
-0.143976
-0.061633
0.411837
-0.759915
0.697739
-0.071171
0.012954
-0.934813
0.318977
-0.684332
-0.004631
0.881555
-0.554201
0.481077
0.336081
0.512785
-0.217186
0.948711
-0.443448
0.825955
-0.070197
0.197508
-0.530650
-0.265294
-0.984068
-0.594311
0.351259
-0.757328
0.833739
-0.806739
0.476960
-0.564086
0.735327
0.860881
-0.073086
-0.606771
0.705230
-0.606428
0.921946
-0.224834
0.117899
-0.053552
0.484341
-0.733517
-0.935247
0.323942
-0.623170
0.292363
-0.041002
-0.070544
-0.739327
-0.594456
-0.785804
0.513298
0.179952
0.632825
0.760140
0.858296
-0.094546
0.612148
0.049127
-0.235489
0.179059
-0.593442
0.434063
0.940405
0.631254
0.747965
0.760072
-0.641913
-0.815452
0.169474
0.548284
-0.527765
-0.883649
0.181241
-0.758021
0.471019
-0.671772
0.844256
0.358693
-0.579854
-0.912616
0.694578
-0.186328
0.260951
-0.019428
-0.968310
-0.101898
-1.006370
0.155695
0.429856
-0.709657
0.160771
0.608847
-0.220372
0.324283
-0.525450
0.564219
-0.014163
0.430417
0.478428
-0.536892
0.743034
-0.507468
0.852494
0.143348
-0.205811
0.233482
-0.129297
0.933821
0.447349
-0.303934
0.911518
-0.703765
-0.191834
-0.635436
-0.530717
0.543095
-0.135721
0.221439
0.313344
-0.229431
0.324258
-0.662856
0.617213
-0.703949
0.313205
0.473867
-0.635270
-0.248410
0.714251
0.068400
0.869133
0.757748
-0.366889
0.668430
0.906640
-0.293522
-0.150560
0.049618
0.435008
-0.894614
0.473260
-0.846426
-0.226120
-0.671306
0.107359
-0.753176
-0.949671
-0.785802
0.473114
0.650428
-0.238262
0.822100
-0.352465
0.407836
0.002611
-0.707015
0.518435
-0.435267
0.135877
-0.709831
-0.794105
-0.138526
0.532287
0.451948
-0.003967
-0.111695
-0.198438
-0.883566
-0.949953
0.777534
0.474789
-0.020709
-0.874973
-0.135723
0.763251
0.939252
-0.590357
-0.044649
0.056044
-0.668202
-0.749690
0.077893
-0.885632
0.695099
0.213741
0.237176
0.598135
-0.629288
-0.379540
0.772191
0.246004
0.178955
-0.437653
0.846942
-0.827037
-0.506896
0.318210
-0.752803
-0.711788
-0.775153
0.501325
-0.069368
-0.154208
0.136180
-0.855971
0.101744
0.338375
0.110572
-0.504201
-0.810726
-0.696544
-0.823035
-0.597779
-0.430457
-0.019877
-0.129239
-0.139644
-0.568184
0.386612
-0.260341
-0.730650
0.506936
-0.939207
-0.169090
0.731308
0.857423
0.210689
0.662002
-0.183525
0.168544
-0.193646
-0.027980
-0.927361
0.419532
0.607372
0.715176
-0.673041
-0.065336
-0.482012
0.602716
-0.834554
0.295080
0.579633
-0.738198
-0.730835
-0.178760
-0.004019
-0.603177
-0.270022
0.815229
0.814336
0.568334
0.533163
-0.689287
0.344088
-0.180659
-0.264306
-0.969578
-0.296630
-0.333609
-1.015589
0.312911
0.616871
0.796407
-0.663658
-0.014965
0.788894
0.838635
-0.084538
-0.017713
0.283525
-0.673633
0.721944
-0.222370
-0.415799
0.348722
-0.198697
-0.652080
0.144382
-0.590225
-0.940160
0.097716
0.195274
0.049190
0.198111
-0.935723
-0.299271
0.526623
-0.151043
0.937763
0.609204
0.917035
0.579068
0.319509
-0.305236
0.696864
-0.175984
0.566076
0.131932
0.305910
-0.572380
-0.805263
-0.180372
-0.388410
0.388682
0.871922
0.941355
-0.934569
-0.494866
0.149745
-0.213516
0.246787
0.423165
0.324556
0.082501
-0.983026
0.155705
0.486849
-0.248447
0.267233
0.224398
0.822386
0.155330
0.162298
-0.678156
-0.325460
0.062866
0.218462
-0.597095
-0.332829
0.468255
0.221443
-0.012738
-0.495522
-0.499922
0.443422
0.767476
-0.781043
-0.634009
0.573552
-0.339958
0.642926
0.230776
0.152417
0.756986
-0.636689
0.531910
0.911517
0.154996
0.218671
0.113636
-0.127263
-0.265155
-0.128951
-0.157598
0.581729
0.907943
0.313662
0.864182
0.141110
-0.788039
-0.614008
-0.623050
-0.272213
-0.117504
-0.261760
-0.940128
-0.307726
0.801800
-0.411848
-0.593914
0.419224
0.630723
-0.047168
-0.715054
-0.868337
0.189601
0.075483
-0.796885
-0.971610
0.275095
0.316450
-0.769486
0.459340
-0.124139
-0.283436
0.192433
-0.525088
-0.460857
0.861624
0.141329
-0.632686
0.645644
-0.647851
0.723871
0.421928
0.722222
0.335582
0.381087
0.090819
0.734809
-0.456994
0.125797
-0.920570
0.083844
0.965556
0.476869
0.620459
0.666415
0.076886
-0.890121
0.948487
-0.722958
0.747880
0.585745
0.605175
-0.692118
-0.077835
-0.535282
0.876059
0.522841
0.881209
0.073243
-0.862137
0.515754
-0.845127
-0.002697
0.762707
-0.247489
-0.232128
-0.897031
0.703140
-0.021574
-0.695581
-0.297355
0.306748
-0.996080
-0.344670
-0.456577
0.345587
-0.921525
-0.928710
0.946237
-0.625422
0.611361
-0.913434
-0.488114
0.960647
-0.637724
0.224484
-0.353210
-0.612157
0.730217
-0.027762
0.379622
-0.181681
0.333723
-0.093596
0.070109
0.790914
0.067946
-0.139576
0.398243
0.373186
0.827347
-0.245940
-0.716317
-0.171825
0.070563
0.188232
-0.163958
0.589282
-0.118540
-0.730694
-0.177192
0.164427
-0.941519
-0.815258
0.309911
0.988796
0.501069
0.214984
0.786437
0.208123
0.575612
0.849691
-0.673944
0.071780
0.610705
-0.677949
-0.782941
-0.228946
0.065003
0.744821
-0.385855
-0.751003
0.775675
0.221757
-0.884215
-0.603362
0.819538
-0.355636
0.762553
-0.510386
0.935505
-0.110333
0.273129
0.359810
0.786793
-0.163555
-0.284044
-0.842510
0.758333
-0.690816
-0.853541
0.397837
0.350882
-0.733810
0.801984
0.864354
0.715426
0.268207
0.923157
0.151889
0.270120
-0.837293
0.165708
-0.490041
0.724852
-0.093340
0.763416
0.528132
0.017191
-0.586944
-0.549738
0.219062
0.648734
-0.032265
0.388673
-0.830625
-0.363531
-0.793567
-0.521801
0.788867
-0.928772
0.539404
0.409241
0.954704
0.458724
0.512068
0.662866
0.830466
0.255972
0.808779
-0.158145
-0.654840
0.942677
0.831518
-0.347311
0.251260
0.508326
-0.075406
0.956409
-0.451407
-0.563861
0.296835
0.490800
-0.969753
-0.758073
-0.781542
0.635882
0.762909
-0.648745
-0.951975
-0.145126
-0.891066
0.782513
-0.024293
-0.322332
0.499588
-0.920640
-0.485027
-0.872696
0.389603
0.860465
0.709976
0.949530
0.106603
-0.624124
0.002625
-0.795345
0.693694
-0.783112
-0.012070
-0.183636
-0.263626
0.859172
0.518844
-0.416131
0.441963
-0.757570
-0.100388
0.971131
-0.257093
-0.346570
0.401781
0.809022
0.138146
-0.067375
-0.509863
0.896547
0.741180
0.253472
0.775955
-0.622548
-0.686967
-0.991348
0.299752
0.021117
-0.654674
0.287025
-0.357215
0.463191
-0.070469
-0.552199
0.343499
0.676832
0.467732
-0.025739
0.707422
0.573452
-0.635668
0.542116
0.038160
-0.106690
0.787410
0.110534
0.041429
0.498517
-0.756545
-0.131522
0.496157
-0.627784
0.353406
-0.603616
0.244199
-0.341092
0.549159
-0.269768
-0.525844
-0.047647
-0.983352
0.030961
-0.309933
0.820929
-0.512016
0.368781
0.785434
-0.500596
0.401119
-0.075359
0.413301
-0.650488
-0.457186
0.712146
0.780798
-0.708450
-0.737268
0.712308
-0.565704
-0.798350
0.979432
-0.660584
0.390562
0.111069
0.872050
0.488797
0.617548
0.456228
0.883463
-0.459991
-0.159856
0.780116
0.751358
-0.866371
-0.243645
-0.813709
0.768177
0.459737
-0.997915
-0.598353
0.898806
0.202557
0.946940
-0.457332
0.283536
-0.870023
0.099686
0.577424
0.672577
-0.386099
0.410269
0.127362
-0.478156
-0.692049
-0.545144
-0.510716
0.649995
-0.957019
0.466966
-0.739326
0.876376
0.320611
0.569630
-0.500748
0.071439
-0.453707
-0.331931
-0.376667
0.221231
0.349334
0.885114
0.472167
0.643064
-0.553309
0.864150
-0.563780
-0.563284
-0.223344
-0.120220
0.042381
0.102808
-0.187938
-0.993941
0.623235
0.367691
-0.034573
0.076369
-0.175544
-0.136144
0.703610
0.855626
0.008482
-0.181487
0.566308
0.655396
-0.630171
-0.714628
-0.490090
-0.977979
-0.264216
-0.886100
0.904155
0.296948
0.266535
0.695504
0.731493
0.815977
-0.270776
0.562728
0.090883
-0.668756
0.191455
0.015008
0.901068
-0.589387
-0.039133
0.691103
-0.198690
-0.039752
0.856137
-0.198664
-0.045263
-0.778404
-0.682228
0.543070
-0.429591
-0.054264
0.776214
-0.179635
0.074839
-0.073568
-0.417624
0.053954
0.674255
-0.284444
-0.654442
-0.842827
0.357282
-0.129006
0.287020
-0.806929
0.972439
-0.534735
-0.116435
0.383088
-0.610586
0.747209
0.280480
-0.815488
-0.129819
-0.651744
-0.003748
-0.788041
0.907836
-0.212651
-0.292518
0.679026
-0.218740
0.655048
0.109144
-0.529393
0.731108
0.901410
0.749878
0.691139
-0.831539
0.899540
0.178534
0.914489
-0.970128
0.184563
-0.092805
-0.476494
0.782439
0.548700
0.162271
0.402580
-0.423883
0.391206
0.632657
0.762962
-0.331751
0.828843
0.280063
0.168407
-0.392997
0.775369
-0.489369
-0.388359
-0.470580
-0.255204
0.423199
-0.504838
-0.333422
0.774683
-0.704150
0.908241
-0.477380
0.019580
-0.300519
0.074791
-0.798354
-0.660446
-0.285758
-0.242766
-0.890719
-0.153858
-0.049195
0.812912
0.960873
-0.549018
0.903714
0.034393
-0.005187
0.891124
0.347902
-0.626365
-0.311726
-0.414715
-0.210120
-0.239818
-0.922963
-0.742731
0.620758
0.324709
0.429408
-0.005279
0.975260
-0.382332
-0.626274
0.763611
-0.300083
0.149027
0.440438
0.225737
-0.265169
0.184109
0.320700
-0.016337
-0.612553
0.590580
-0.578115
-0.774888
0.617090
0.281728
-0.194013
-0.339062
-0.491419
-0.693742
0.412905
0.613338
-0.093762
-0.929272
-0.231811
-0.920330
-0.273880
-0.360536
0.222858
0.839149
-0.817037
0.020263
-0.262387
0.334942
-0.951103
-0.674562
0.600815
0.927008
0.243621
-0.073132
-0.106256
0.164262
0.749344
-0.692136
0.502773
-0.933076
0.222655
0.908232
0.626438
-0.906315
0.956038
0.940503
-0.253417
0.658179
0.300790
-0.308655
-0.124752
0.558542
-0.404275
0.631108
0.742917
0.505595
-0.355860
0.743985
0.601530
-0.375530
-0.510337
0.193184
0.122158
-0.966654
0.111397
-0.030427
0.164657
0.393229
-0.668264
0.321495
0.797841
0.820785
0.602579
-0.922679
0.524244
-0.322833
-0.229359
-0.889060
-0.686105
0.277030
0.141735
0.120466
0.700674
0.704693
-0.320218
-0.739299
-0.463310
0.635576
-0.843299
0.818405
0.823134
-0.612112
0.287550
0.247244
-0.811314
0.711028
0.109957
-0.384259
-0.366062
0.774486
-0.626164
-0.831430
-0.319856
-0.270505
0.381354
0.885857
-0.593535
-0.056623
0.568514
-0.516873
0.305694
0.384423
-0.725542
-0.760716
-0.438375
-0.060051
0.621191
0.972275
0.329191
-0.371416
0.295566
-0.963584
-0.972444
0.123570
0.060003
-0.776308
-0.860537
-0.332487
-0.769950
-0.668919
-0.198537
0.920589
-0.784748
0.867457
0.076138
-0.368005
-0.654068
0.936670
0.730211
0.309476
-0.031927
-0.310531
0.117868
-0.563484
-0.098260
0.401498
0.905770
0.482428
-0.867340
-0.342054
0.514226
0.314250
1.017083
0.579591
0.881673
-0.444711
-0.873385
0.074837
-0.474716
-0.239455
0.773991
0.065670
0.860875
0.614282
-0.230549
0.826730
-0.161664
-0.043885
-0.868832
-0.658279
0.052090
0.225734
0.523291
0.517040
0.387473
-0.692176
0.495589
0.624056
0.878429
0.057451
0.522232
0.107020
-0.840855
0.098022
0.276636
-0.870589
0.169416
-0.945860
-0.567019
-0.272395
0.757475
0.095936
-0.674368
0.423768
0.462400
0.510023
0.123931
-0.597874
0.618824
-0.414177
0.782140
0.119678
0.681511
-0.563739
0.189768
-0.249147
-0.246544
0.049410
0.735562
0.872810
-0.130235
0.450712
0.918208
-0.257694
-1.004142
0.589269
0.571173
-0.066707
-0.549743
-0.267394
0.628377
-0.942700
0.137920
0.629119
0.905872
0.401838
0.973842
-0.444702
0.807591
0.738327
-0.778196
0.532100
0.417557
-0.003910
-0.158123
-0.335526
0.176435
-0.515256
0.608042
0.041867
-0.315481
-0.010617
-0.489377
-0.981817
-0.974430
0.855276
-0.164015
-0.790859
0.970482
0.817589
0.382304
-0.368226
0.107718
-0.425459
0.950208
-0.291285
0.374018
0.527425
-0.276463
0.156568
0.564343
-0.603252
0.057185
0.766135
-0.362363
0.426320
-0.618491
0.310036
0.620536
0.498915
-0.919738
-0.872658
0.778649
-0.829207
0.699079
-0.429207
-0.148246
0.633717
0.515449
-0.552200
0.955624
0.766940
-0.684328
-0.407562
-0.363742
-0.228811
-0.145625
-0.659128
0.987902
0.282059
0.144079
-0.375678
-0.720258
0.728477
0.066063
0.346507
0.656570
-0.666881
-0.460042
-0.167605
-0.790844
0.749051
0.614720
0.166647
-0.627883
-0.612798
0.109779
-0.922321
-0.700220
0.434220
-0.831578
0.302212
0.728996
0.173126
0.472256
0.175687
-0.718066
-0.904583
-0.054618
0.274695
-0.496379
0.878921
-0.628943
-0.740572
0.951373
-0.316988
0.737633
-0.241211
0.875557
0.533559
0.751624
0.881698
-0.408871
-0.163400
-0.553399
-0.393722
-0.811575
0.051025
0.571377
0.393320
-0.133958
-0.750767
0.007386
-0.219602
0.870011
-0.407336
0.825567
0.619034
-0.347744
0.405201
-0.771245
-0.210620
-0.591649
-0.980786
0.500716
-0.435464
0.331345
0.440627
-0.758287
-0.299490
-0.365637
0.135847
-0.781302
-0.643463
-0.137672
0.480893
0.800164
-0.674110
0.806290
0.445312
-0.235483
0.182174
-0.848131
-0.192989
-0.051358
0.585683
0.034707
-0.340753
0.174460
0.765882
0.598421
-0.988551
0.023693
-0.861811
0.257496
0.670987
-0.097643
0.298400
0.952956
-0.679269
0.505064
-0.056255
0.021518
0.664106
-0.698680
-0.448110
-0.212220
-0.876231
-0.567844
0.488310
0.377835
0.820167
-0.443067
-0.453887
-0.465913
0.461653
0.500868
-0.308795
0.500562
-0.890865
0.202239
0.397407
0.557729
0.774160
-0.698246
-0.225677
-0.091865
0.305942
0.634407
-0.947049
-0.342872
0.211274
-0.411674
1.012681
-0.766459
-0.365711
-0.552467
0.202284
0.325233
-0.543907
-0.068854
0.927317
-0.568126
-0.524437
-0.393134
0.829987
0.657374
-0.832509
0.787046
0.298172
0.237993
-0.142079
0.146182
-0.774793
0.974167
-0.843260
-0.782723
0.080157
0.297202
0.089783
-0.455809
0.465790
-0.713691
0.759779
0.467790
0.223606
-0.762602
-0.042748
0.245434
0.011102
-0.252368
0.552075
-0.975272
0.503185
0.559392
0.167184
-0.973368
0.924324
-0.398287
0.776534
-0.968080
0.938360
-0.578428
-0.585797
0.157405
0.242510
-0.582216
-0.494158
-0.076680
-0.727426
0.225317
-0.453583
-0.352964
-0.479636
0.015339
-0.359471
-0.774933
-0.451524
-0.538123
0.726228
-0.054015
-0.410818
-0.753256
-0.106331
-0.084642
-0.755990
0.060927
-0.074381
0.691723
-0.616861
0.301382
0.049240
0.090161
0.934579
-0.699759
0.809529
0.859726
-0.939567
-0.334484
0.657328
-0.868572
0.682824
0.147946
0.376001
0.511478
0.618012
0.094685
0.126454
0.888390
0.333320
0.630695
0.630192
0.838512
-0.302617
-0.967729
0.471787
0.016773
0.383108
-0.022749
0.344626
0.380933
0.727095
0.648027
-0.817644
0.478466
-0.163844
0.211990
0.487928
0.041924
0.526429
-0.374559
0.642688
-0.580951
0.633940
-0.919111
0.115927
-0.782128
-0.437194
0.117532
-0.480557
-0.049154
-0.316257
0.057772
0.807303
0.421191
-0.429705
0.062074
0.823658
-0.151272
-0.322370
-0.468211
-0.359187
0.815378
0.242618
-0.419946
-0.314909
0.175151
-0.495883
0.821480
0.659674
0.377735
0.485724
-0.489538
0.837658
0.077761
-0.514828
-0.204893
0.195965
0.279439
0.968082
0.362462
-0.246932
0.278713
0.732226
0.429067
0.299819
-0.739506
-0.142178
0.302146
0.105347
-0.357738
0.362380
0.011581
-0.082185
0.388263
0.086496
-0.699584
0.899431
-0.748669
0.609042
0.968844
-0.834007
-0.714574
-0.774526
0.855368
-0.417708
-0.077133
0.977531
-0.795420
0.815991
-0.685947
0.873984
0.138656
0.485502
0.263115
-0.374345
-0.929924
0.587969
-0.455429
0.074553
0.961978
0.909178
-0.390067
-0.737127
0.157762
-0.691613
0.351041
-0.516508
-0.725120
0.810346
0.247006
0.618272
-0.538300
0.215887
-0.746068
-0.042642
-0.951207
0.863186
0.272264
-0.261303
-0.100468
-0.595237
-0.279090
0.073719
0.740545
-0.267502
-0.350415
-0.648074
0.481563
0.931087
-0.806231
-0.805510
-0.988909
0.839425
-0.401187
-0.669361
-0.039822
-0.534542
-0.687154
-0.322175
0.800845
-0.204332
-0.935969
-0.781841
-0.130787
-0.012399
0.687926
0.643435
0.696614
0.362902
-0.058531
0.849121
0.045163
0.814579
0.372613
0.290429
0.972674
-0.587702
-0.667019
0.846726
0.605786
0.944621
0.896921
-0.094212
0.764133
-0.216029
0.834706
0.654560
0.240848
0.607515
-0.529162
-0.154727
0.358280
0.138278
0.696011
-0.173069
0.480022
0.841784
-0.820234
-0.905160
-0.573299
0.952549
0.534281
-0.123176
-0.474626
-0.394356
0.857481
-0.487331
1.002200
-0.475176
-0.591033
0.369143
-0.157101
0.583830
0.684036
0.119651
-0.746152
-0.301964
-0.520568
-0.654288
-0.791009
-0.481464
0.576716
0.707460
-0.683545
-0.620163
0.281434
0.808136
-0.137455
-0.486516
0.784798
0.476471
0.518538
0.958228
-0.135659
-0.769433
0.532734
0.624428
-0.696663
0.711778
-0.488979
-0.715107
0.233123
0.894218
-0.268639
-0.134422
-0.713839
-0.183529
-0.697563
-0.251428
-0.020358
-0.961356
-0.713568
-0.842847
-0.848145
0.976882
-0.272305
0.306399
0.415611
-0.987237
-0.920513
0.179457
0.932133
-0.564576
0.571698
0.416910
-1.001521
-0.575628
0.033741
0.663766
0.778676
-0.885866
-0.900130
0.707902
-0.120382
-0.968247
-0.051006
-0.939645
-0.244562
-0.845546
0.486674
-0.722654
0.177435
0.004927
0.833984
-0.732144
0.836535
0.358269
-0.472658
0.873569
-0.707407
0.669057
0.477558
-0.620872
0.631196
-0.585411
0.437346
0.168486
-0.844038
0.163025
0.778790
-0.114500
-0.726598
0.742005
-0.211430
-0.511518
-0.756879
0.556914
-0.222716
-0.476909
-0.907851
-0.253544
0.496543
0.830513
0.072617
0.887871
0.928693
-0.305264
-0.789054
0.442023
-0.379449
0.251998
0.784582
-0.099503
0.016494
-0.031434
-0.878961
0.781046
0.782701
0.290767
0.574228
0.264790
0.568869
-0.271571
0.244031
0.420913
0.937550
0.370788
0.665434
-0.828618
-0.582124
-0.523148
0.262170
-0.602499
-0.700003
-0.471919
0.031374
-0.268874
-0.197081
0.341892
0.120480
-0.914835
0.872595
-0.035403
0.457735
0.837498
-0.831203
-0.459991
0.485292
-0.907985
0.806237
0.620447
-0.019995
-0.163948
-0.127941
-0.007558
0.125785
-0.922410
0.937382
-0.912110
-0.496511
-0.940679
0.001081
0.534420
0.435474
-0.582158
0.654509
-0.913888
-0.822762
-0.942695
-0.111493
-0.162668
0.918409
-0.519726
0.190241
-0.130432
-0.888647
-0.688263
-0.223399
-0.368116
0.661423
0.420784
-0.414935
-0.248025
-0.914401
0.256913
-0.393660
-0.940425
0.831117
0.568880
-0.336306
-0.824228
-0.175322
-0.153479
0.873223
0.167883
0.286679
0.568355
0.037085
0.348341
0.524020
0.417566
0.671093
-0.604993
0.779440
-0.415492
-0.814309
0.562276
0.061241
0.708152
-0.226106
-0.532658
0.448420
-0.682342
-0.728959
-0.286386
-0.911159
0.216491
0.673742
0.679876
-0.912812
-0.943069
-0.843520
0.791129
0.363181
0.967565
0.462451
0.417393
0.530614
-0.245483
-0.034761
-0.798473
0.723783
-0.198542
0.206561
-0.818076
0.683989
-0.852033
0.746640
-0.612878
0.132243
-0.775172
-0.161614
-0.567660
0.652420
-0.883977
-0.780849
0.232770
0.110425
-0.059292
0.272793
0.572925
0.509886
-0.385272
-0.136743
-0.732764
0.693301
-0.536057
-0.525491
0.124457
0.424291
-0.983417
-0.628604
-0.963269
0.793718
0.129148
0.073589
-0.449147
-0.807455
0.202894
0.142385
0.388063
-0.938498
-0.335647
0.469696
0.817602
-0.709661
0.169057
-0.937937
-0.436214
0.988876
-0.796346
-0.714745
0.452986
-0.953288
0.739413
0.636671
-0.030672
0.981204
0.917758
-0.620446
0.179022
-0.001044
0.021470
0.052332
0.592606
-0.102618
0.990235
0.407760
-0.475285
0.020095
-0.657793
0.431919
0.652344
0.786985
-0.742915
-0.444256
0.768295
-0.304262
0.544203
0.462591
0.386497
-0.488890
-0.433466
-0.604648
0.618930
0.908329
0.349998
-0.880609
-0.012718
-0.062477
0.966713
-0.320892
0.974870
0.859838
0.869121
-0.487406
0.524796
-0.615906
-0.001100
-0.270458
-0.859838
-0.871528
0.684954
-0.299289
0.030328
-0.838244
-0.478704
0.098687
0.569879
-0.339452
-0.759819
0.119486
0.331308
0.392414
-0.243542
0.638758
-0.594305
-0.020358
-0.861693
0.255795
0.973562
0.509677
0.546107
0.505015
0.808341
-0.400469
0.333662
-0.477462
0.027333
-0.628585
-0.818192
0.063812
0.859233
0.179831
-0.242396
0.996771
-0.464192
0.323442
0.141939
-0.781404
0.002827
0.837750
-0.906177
0.502095
-0.479630
0.969564
-0.212747
0.408748
-0.457349
-0.664706
0.121727
0.023456
0.904866
-0.170841
-0.258392
0.713745
0.150168
-0.667364
0.644867
0.940592
-0.057716
-0.344132
0.051998
-0.488622
-0.616948
0.672297
0.087385
-0.325603
-0.651725
0.415523
-0.881036
-0.286729
-0.634185
0.736716
0.732607
0.921949
-0.550099
0.536924
0.161502
0.003736
-0.856511
-0.950682
-0.275365
-0.002642
0.401923
0.276726
0.157055
0.067095
-0.437907
0.594982
-0.245534
0.987713
0.954486
-0.619001
0.862354
0.149429
0.792160
0.435802
0.418502
0.830962
0.116057
-0.871589
-0.163813
-1.006366
-0.607293
0.321375
-0.987929
0.453040
0.042932
0.577854
0.823761
-0.492568
-0.547053
0.692120
0.661842
-0.939025
0.487673
0.678067
0.142941
-0.303725
0.456349
0.024638
-0.357616
-0.589940
-0.663605
0.910310
-0.826014
-0.734674
0.520108
-0.043883
-0.901220
0.991799
0.251439
0.125127
-0.117057
0.091165
-0.029062
0.975268
-0.221022
0.974538
0.356683
-0.600235
0.785109
0.453397
-0.946830
-0.739269
-0.215924
-0.803709
0.372120
0.669428
-0.478573
0.026301
0.817443
0.960225
-0.104706
-0.413488
0.266898
0.904233
0.885981
0.916414
0.157990
0.058216
0.343512
0.202055
0.728903
-0.256077
0.246148
0.372227
0.489985
-0.264151
-0.846605
0.443394
0.427000
0.587712
0.815168
-0.684704
0.673985
-0.987389
-0.643398
-0.357624
0.828466
-0.665338
-0.862197
0.481622
-0.601525
-0.322798
0.571869
0.776125
-0.609358
-0.516945
0.344874
-0.226344
0.420349
0.666733
-0.144828
-0.540485
-0.803081
-0.772873
-0.274184
-0.198822
-0.686998
0.484893
0.769212
-0.933856
0.576403
-0.801463
0.878388
0.569654
-0.407775
0.459262
0.877837
0.238273
0.074262
-0.129383
-0.917613
-0.862070
-0.029799
0.800202
0.385411
-0.451359
0.835558
-0.410843
0.847020
-0.529048
-0.642354
-0.047223
0.513469
-0.989500
-0.276720
0.708735
0.293651
-0.157129
0.766405
0.284454
0.820837
0.693618
0.633617
-0.239598
0.026971
-0.051908
-0.470953
-0.811167
-0.653400
-0.164261
-0.483993
-0.536675
-0.255254
0.727071
0.869441
-0.715072
-0.559849
-0.711315
0.060202
-0.969537
0.126670
0.059423
0.501905
0.511814
-0.879141
-0.815582
-1.011376
0.904448
-0.503645
-0.135832
-0.672796
0.892203
0.580838
0.874875
-0.722682
0.408332
0.429528
-0.676293
0.977781
0.275305
-0.446415
0.194875
-0.084627
-0.907222
-0.945440
-0.702522
-0.989225
-0.919064
0.520559
-0.894046
0.845086
-0.865018
0.543081
0.490063
0.702283
-0.630341
0.356577
-0.398094
-0.015244
0.991079
-0.743495
-0.751145
0.214594
-0.742704
0.092126
-0.673193
-0.989315
0.192103
-0.185209
0.928544
-0.768865
-0.512675
0.761424
0.930505
0.470877
0.077589
0.869927
-0.521648
0.401465
-0.856602
-0.864606
-0.678322
0.837157
-0.854197
-0.758296
0.484703
0.681014
-0.945941
0.024506
0.848642
-0.130443
0.983810
-0.312840
0.378417
0.803319
-0.575660
-0.811168
0.610668
-0.457786
-0.658989
0.344200
-0.470546
-0.777916
0.200507
0.055474
0.903750
-0.562477
0.328058
-0.393181
0.722019
0.572010
-0.480920
0.434253
-0.072753
0.916610
0.479707
-0.459447
0.928035
0.620547
0.910349
0.528555
-0.555344
0.439273
0.228964
-0.658406
0.781285
0.969598
0.971431
0.482881
-0.119147
0.859248
0.210246
0.734328
-0.853546
0.646277
0.252163
-0.716837
0.619915
0.917439
0.114325
-0.042950
-0.601817
-0.118297
0.708054
0.010916
0.584339
0.083295
-0.774763
-0.503281
-0.303146
0.092827
0.167423
-0.226941
0.557326
-0.665643
0.966422
0.833944
-0.727301
-0.143620
-0.726396
0.115471
0.465060
0.904166
-0.263372
-0.024750
-0.899669
0.775224
-0.695383
-0.228460
0.638699
0.271141
0.422707
-0.509498
0.971504
-0.666389
0.844357
-0.243282
0.977260
0.987666
0.873436
-0.791566
0.265388
0.767687
0.372753
0.556867
0.032313
0.891099
-0.143548
-0.718755
-0.211759
0.424373
-0.765241
0.937390
0.899179
-0.810968
-0.606921
-0.292858
0.065731
-0.298105
0.874786
0.436341
-0.282584
-0.248600
-0.661744
0.193956
0.746952
0.501304
-0.493924
-0.431715
0.385506
-0.030567
-0.968489
0.822836
0.191092
-0.753653
-0.045144
0.744913
0.517819
-0.756807
0.545630
-0.473615
0.041014
0.188926
0.825756
-0.114406
-0.936502
-0.202110
-0.289112
0.992160
-0.542381
0.839638
0.131796
-0.737143
0.954000
-0.632345
-0.888389
0.920254
-0.400050
0.917903
0.547176
-0.070068
-0.157576
-0.523070
-0.171318
0.625121
0.520891
0.246637
0.082522
-0.525977
-0.113151
-0.816969
-0.708649
-0.713894
0.176523
-0.044551
-0.629035
-0.073059
-0.550091
0.064027
0.402707
0.889120
0.265886
-0.596636
0.241695
0.018644
0.157883
0.835841
-0.008386
-0.715836
0.468133
0.801092
-0.649859
0.023599
0.133514
-0.265986
-0.971956
-0.509898
-0.549059
-0.280400
-0.226685
-0.817878
0.729943
0.819887
0.478967
-0.399159
-0.779464
-0.658155
0.212641
-0.586032
0.756303
0.680593
-0.794517
-0.679477
0.685185
0.403218
0.726651
0.501407
-0.490531
0.663573
-0.537500
-0.950248
0.577730
0.572870
-0.677379
0.776213
-0.569778
0.532688
0.270262
-0.945925
0.935352
-0.327201
0.122390
0.951397
-0.010465
-0.171211
0.665369
0.151192
0.697629
0.978626
0.148707
0.275711
-0.694828
0.944434
-0.303935
0.331268
0.270702
0.644607
0.624919
0.656734
-0.042280
0.603308
-0.611409
0.463327
0.730923
-0.054873
-0.245613
-0.697231
-0.330002
0.034534
0.006827
0.612788
0.141245
-0.096190
0.192459
0.073784
0.557485
0.273357
-0.898438
0.899402
-0.477280
0.620400
0.518228
0.448383
-0.219008
0.306768
0.258598
-0.500612
0.185013
0.565749
-0.821835
0.694679
-0.139285
0.612442
0.982304
-0.782484
-0.403074
0.543004
0.179084
-0.882450
-0.534755
0.572443
-0.282885
-0.820671
-0.123873
0.677997
-0.466831
-0.059040
-0.660152
0.436023
0.846124
-0.232049
-0.563496
-0.308978
-0.893633
-0.035187
0.093051
0.863633
0.007016
-0.990191
-0.334107
0.450684
-0.362247
0.426486
0.293997
-0.261618
0.309204
0.431658
-0.120002
-0.818232
0.575410
-0.676686
-0.662828
0.682106
-0.057735
-0.037511
-0.472184
0.679397
-0.175041
0.615770
0.892741
0.509416
0.037984
-0.627000
-0.999872
0.177976
0.779947
-0.855245
-0.123243
0.669292
0.658802
0.080322
0.483403
0.994198
0.566308
-0.612059
0.776043
0.410638
0.466915
0.873640
0.404016
-0.494662
-0.225642
0.301009
0.671464
-0.617340
-0.667892
-0.091826
0.024540
-0.272624
0.944603
-0.547497
0.653049
0.726150
0.265221
-0.796455
-0.536535
-0.783692
0.882911
-0.179089
-0.312499
0.507063
-0.163596
-0.824730
-0.488052
-0.616149
0.554427
0.662328
-0.447292
0.783542
-0.260584
-0.221612
0.970659
0.657719
0.971771
0.450994
-0.769306
0.797148
-0.353300
-0.179597
0.329776
0.081093
-0.046493
-0.964000
-0.499000
0.325828
-0.385416
-0.927012
-0.267458
-0.479302
0.647576
0.383673
-0.231228
-0.220748
0.109131
0.241381
-0.037671
0.770001
0.626832
-0.417690
0.473457
-0.876688
0.068324
-0.890053
0.111581
-0.562042
0.640083
-0.507417
0.789898
-0.642948
-0.633947
0.123869
0.390482
-0.625448
0.557439
0.384321
-0.033830
-0.476253
0.602095
0.691237
-0.958935
0.419185
0.959841
-0.965931
0.275998
-0.174039
-0.733908
0.658565
0.578503
-0.506905
-0.070336
-0.311178
-0.715933
-0.122029
0.046159
-0.941032
0.990476
-0.383465
0.138560
0.062580
-0.486843
-0.911900
0.049863
0.253884
-0.096579
-0.259762
0.445726
-0.190206
-0.650215
-0.350204
0.786196
-0.581375
0.274575
-0.618413
0.790486
0.732642
-0.553183
0.210091
0.769938
-0.766401
-0.655495
0.486555
0.833869
0.682950
-0.042155
0.658233
-0.633590
0.785942
-0.711087
0.645618
0.040728
0.114556
-0.572533
0.227389
-0.248434
-0.281455
0.326337
0.354385
0.947388
-0.980284
0.023663
-0.622412
-0.833255
-0.585819
0.666749
-0.933497
0.553503
0.032532
0.990286
0.519245
-0.679346
-0.675871
0.610188
0.145120
0.804523
0.308183
0.025431
-0.980641
0.038633
-0.659122
-0.580396
0.437738
0.005706
-0.468492
0.746502
0.758789
-0.066188
-0.620698
-0.395962
0.961854
0.685516
0.731007
-0.241314
-0.540073
-0.562895
0.207866
0.066061
-0.857382
-0.872742
-0.065365
-0.067157
0.873713
-0.248419
-0.550510
-0.101696
0.563790
0.872187
0.654791
-0.713568
0.047989
0.550441
-0.497010
0.404122
0.896036
0.822408
-0.389944
0.399962
0.904707
0.697000
-0.696626
-0.452368
-0.639780
0.341514
0.899665
-0.500369
0.185944
0.198273
-0.692158
-0.623795
-0.647106
0.817577
0.921259
-0.621756
-0.180738
-0.428783
-0.330129
-0.752013
0.062858
0.020376
0.727078
0.381768
0.645977
0.868898
0.706095
0.116814
-0.607536
0.587081
0.898488
0.087571
0.433067
0.144060
-0.788796
-0.567842
-0.019576
-0.818598
0.819343
0.617963
-0.188788
-0.235214
0.318966
0.149424
-0.085217
-0.356824
-0.680720
-0.342031
-0.605356
0.040190
-0.731392
-0.798242
-0.586831
-0.099478
0.024016
0.785080
-0.690089
-0.850896
0.376576
-0.807053
-0.755727
0.923468
0.686462
0.419664
-0.007759
-0.543642
-0.475231
-0.401843
-0.496605
-0.459910
-0.099169
-0.834971
0.678946
-0.714407
-0.301163
-0.746747
0.276446
-0.635187
0.283234
-0.670971
0.205528
-0.107266
0.292260
0.361558
0.798003
-0.410080
-0.161846
-0.283929
-0.429207
-0.558932
0.727450
0.279977
-0.065647
-0.959461
-0.107869
-0.454737
-0.881487
-0.397507
0.162046
0.178126
0.084339
-0.693020
0.625480
0.368521
0.762498
0.735273
0.933865
-0.473000
0.789153
-0.069754
-0.745856
-0.967778
0.761299
-0.869160
-0.961995
0.643240
-0.678940
0.410914
-0.575446
-0.708521
0.038182
0.199237
-0.139567
-0.713367
-0.885654
-0.929644
0.561877
0.826897
0.883902
-0.865090
-0.758692
-0.505012
-0.587973
0.228285
0.941749
-0.884378
-0.078784
-0.451826
0.093860
-0.150287
-0.355031
-0.303442
-0.376917
0.497328
0.771200
0.161596
0.888567
-0.628505
0.988387
0.345209
-0.314697
0.105909
0.428473
0.217176
0.011299
-0.979256
-0.077879
-0.316011
-0.868507
-0.146669
-0.727359
-0.231829
-0.293686
0.889187
0.627508
0.671468
-0.098918
0.524953
-0.712376
-0.296161
0.774533
0.583970
0.591220
0.003980
0.948020
-0.192082
0.074940
-0.493516
-0.763321
0.880374
0.734968
-0.931077
-0.968658
-0.212675
-0.010073
-0.775257
0.338072
-0.486684
0.530387
-0.754602
-0.136496
0.909891
0.949218
-0.604950
0.003003
0.623089
0.864422
0.426470
-0.056849
0.488167
0.275059
0.538543
-0.600013
0.892925
0.749824
0.633462
0.977493
0.693696
-0.534626
0.059280
-0.789166
-0.816335
-0.802452
0.250179
-0.604882
0.830156
0.621208
-0.584235
-0.694919
0.340381
0.260890
-0.827382
0.431288
0.099668
0.797924
0.655542
-0.436289
0.757313
0.045948
-0.463478
0.250074
0.415293
0.902155
0.282492
-0.279692
0.550940
0.420385
-0.522243
0.085291
0.670391
0.707958
0.459514
0.347054
-0.580931
-0.989834
0.375876
0.002272
-0.671306
-0.433480
-0.789810
-0.444874
-0.296629
0.022542
-0.003368
-0.096087
0.174209
-0.218670
-0.292923
0.855501
0.679318
-0.117410
0.401369
0.684265
0.458395
0.173039
-0.359628
-0.388591
0.845211
-0.909706
0.519152
-0.480087
0.638049
-0.538424
-0.335523
0.213075
-0.248318
-0.535595
0.529751
0.136078
0.397114
0.859269
0.523031
0.178512
-0.959202
-0.134898
0.111854
0.954408
-0.722863
0.157491
-0.540937
-0.125132
0.680217
-0.517496
-0.338728
-0.397485
-0.173117
-0.794374
0.251834
0.009180
0.166135
-0.850447
-0.874254
0.369219
-0.130031
0.337080
0.384827
-0.783760
-0.957257
-0.907321
-0.044897
-0.229349
-0.128591
-0.306401
-0.051374
-0.139966
0.116971
-0.230298
-0.378378
0.620978
0.703539
-0.545997
0.930895
0.266736
-0.459958
0.962033
-0.277828
-0.887543
0.884600
0.446012
-0.450959
0.282286
0.002199
0.415567
0.143805
0.486010
-0.149744
-0.483082
0.306786
-0.653755
-0.845416
0.803461
-0.507055
-0.885459
0.812193
0.436848
-0.285818
-0.505703
-0.505628
-0.843943
0.729111
-0.482698
0.471144
0.292477
-0.085049
-0.773026
-0.582955
0.749115
-1.004876
-0.357315
0.773620
0.524148
-0.588593
-0.106108
0.749237
0.243404
-0.186283
-0.425862
-0.133643
-0.544156
0.505086
0.067868
-0.020479
-0.277848
0.508388
0.878467
0.160308
0.903086
0.465975
0.539259
-0.625379
0.691589
-0.024160
-0.842261
0.346476
-0.208975
0.827872
-0.418745
0.725634
-0.323453
-0.552750
-0.048807
0.647972
-0.417280
0.784816
0.287932
-0.211014
-0.616314
0.197387
0.541575
0.768551
-0.801636
0.227484
0.053577
-0.505929
-0.677656
0.354513
0.262572
-0.062529
-0.279596
0.504282
0.830774
0.271313
-0.660813
-0.699275
-0.926594
0.572793
-0.603616
-0.940561
-0.187920
-0.976227
0.232720
-0.283907
0.000019
-0.351403
0.791439
-0.267890
-0.189229
-0.318004
0.536059
0.830136
-0.812369
0.473937
-0.165927
-0.778843
-0.879934
-0.622618
-0.664362
0.873776
0.654767
-0.528159
-0.956392
0.337779
-0.833524
0.337610
0.837472
0.682091
0.158452
0.368120
0.743040
-0.201411
-0.985077
0.219723
-0.627003
0.414857
-0.053343
0.868262
0.847847
0.583147
0.487707
0.640945
-0.136909
-0.617675
0.948878
0.676882
-0.152738
0.156494
-0.082984
-0.445397
-0.123713
0.801219
-0.245514
-0.020237
0.964672
0.131210
0.341729
0.460547
0.731043
0.363413
-0.344878
0.082705
0.919151
-0.072513
0.392240
-0.290921
-0.117035
0.245795
-0.623453
0.147618
-0.388975
0.157974
0.637330
0.842535
-0.356993
-0.259565
0.343374
-0.034763
0.702220
0.237082
-0.373405
-0.059110
0.553986
0.299381
-0.301011
-0.183424
0.483924
0.972650
0.787632
-0.834308
-0.005621
-0.947922
0.886976
0.713319
0.916727
-0.514930
-0.345924
0.394649
0.833590
0.264766
-0.875928
-0.742723
-0.258744
-0.325035
0.603817
0.091096
-0.167096
0.269617
0.352467
0.342589
-0.293206
-0.582471
0.373637
-0.943268
0.075984
0.761484
0.511988
-0.429535
-0.523045
-0.856713
-0.136568
-0.517699
-0.622372
0.971260
0.712202
-0.608985
-0.793700
0.179425
0.258500
-0.494888
-0.955969
-0.565999
-0.775176
-0.394480
0.006183
-0.802715
-0.019758
0.480180
0.355454
-0.475864
0.680030
-0.586525
-0.922061
-0.634217
-0.047472
-0.288445
-0.693678
0.187490
0.921423
-0.303741
0.761504
0.285500
0.652143
0.403905
-0.351321
-0.869264
-0.448309
-0.654209
-0.634062
0.361813
-0.885874
0.769612
-0.768844
0.935559
0.105620
0.109762
0.121004
0.721324
-0.703895
-0.195356
-0.850170
0.098518
0.046466
-0.742172
0.945178
0.677001
0.055930
0.816734
-0.387372
-0.953300
0.178490
-0.840775
-0.157558
0.610204
-0.125758
0.443928
0.594577
-0.241673
0.245605
0.057623
0.003271
-0.478892
-0.072584
0.430457
-0.750555
-0.499526
-0.712211
-0.256548
0.728514
-0.725935
-0.974194
0.061714
-0.468783
0.923568
0.542841
0.571154
-0.192423
0.819460
0.558988
-0.396282
-0.772204
0.722680
-0.299060
0.503629
0.399580
0.468989
0.799111
0.498142
-0.673325
0.815259
1.003499
-0.848972
0.917124
-0.553759
-0.701055
0.428744
-0.315171
-0.188113
0.438444
0.263927
-0.812082
-0.019637
-0.385509
-0.097806
0.989577
-0.160571
-0.363932
0.302800
0.419428
-0.597027
0.527216
-0.191114
-0.880866
0.588462
0.376584
-0.449829
-0.649692
-0.965028
-0.213872
-0.259336
0.850443
0.640605
-0.098434
0.268462
0.253670
0.402295
0.490982
0.721132
0.273944
-0.495517
-0.301933
0.291671
0.332418
0.577149
0.096002
0.821968
-0.439520
0.185275
-0.843707
0.002598
-0.050480
-0.335872
0.031874
-0.956983
-0.603163
0.664670
0.039079
0.183696
0.662172
-0.117234
0.632112
0.978677
0.291548
0.529744
0.929689
0.545832
-0.545756
0.331249
0.411902
-0.026171
0.301506
0.119547
0.737427
0.075375
-0.106843
-0.763854
-0.932244
0.421650
0.963496
-0.166166
-0.882814
0.964815
-0.764162
0.487127
-0.965716
-0.048660
-0.691898
0.346987
0.421635
0.192198
0.895608
0.797623
0.554825
-0.761029
-0.280144
-0.970172
1.000375
0.908764
0.622062
0.754361
-0.614761
0.128099
-0.555845
0.948181
-0.072104
-0.775069
0.195485
-0.341375
-0.157616
0.929963
-0.239562
-0.462733
0.168317
0.519722
0.292871
-0.027942
0.275318
-0.401342
-0.959901
0.347567
-0.381102
-0.312849
-0.949393
-0.428919
0.061329
-0.353196
0.948534
0.052651
0.456389
0.550933
0.079408
0.181124
0.125901
-0.979137
0.181179
0.415368
-0.536977
-0.686712
0.595868
-0.159988
0.401075
0.482553
0.972614
0.901393
0.573297
0.278205
0.060870
-0.880860
0.651746
-0.287899
0.856707
0.077561
0.637976
0.895173
-0.825889
0.785583
0.005945
-0.016689
0.428214
-0.428226
0.566222
-0.322141
0.448782
0.217651
0.585273
-0.551020
-1.019155
-0.310014
-0.482138
0.199887
0.167236
-0.621678
-0.741427
0.287121
0.030479
0.754302
-0.926866
0.009226
-0.076314
0.633893
-0.876754
0.072935
0.409491
-0.915161
0.142015
-0.651449
0.000376
-0.721432
0.982501
0.051210
0.068919
-0.122911
0.384274
0.418660
0.284730
-0.574841
0.455273
0.321443
-0.591433
-0.814478
0.152469
0.330998
0.587966
0.814838
-0.120632
0.677208
-0.042191
0.667127
0.033596
-0.248814
0.016139
0.939872
-0.187214
0.375103
0.518057
-0.353369
-0.338710
-0.270486
-0.006416
-0.168014
0.861660
0.351764
0.471969
0.266931
0.613378
-0.179602
0.747329
-0.268884
-0.874122
0.775565
-0.343534
-0.826427
0.648531
0.913987
0.875097
0.994356
-0.896782
-0.973867
0.329669
0.152003
0.473046
-0.705464
-0.079849
-0.737411
-0.747432
-0.355157
0.307481
0.137539
-0.363441
-0.933732
0.997937
0.637603
0.680127
0.483567
0.480144
-0.634101
0.011916
0.887837
-0.430368
0.461782
0.417528
0.850497
-0.851792
0.627904
0.126615
0.680819
-0.115541
-0.911617
-0.267113
0.097006
0.348259
0.646235
-0.242408
-0.720164
0.282957
-0.406808
0.738704
0.797900
-0.641438
0.189035
0.864574
0.004816
-0.668303
0.193379
0.528019
-0.042298
0.821766
0.219128
-0.505107
0.926366
0.348335
-0.064449
0.661659
0.172279
0.488115
-0.616540
0.455679
0.322822
-0.837490
0.044658
-0.316521
0.447867
0.741525
0.697278
1.003786
0.782238
-0.475050
-0.553423
0.403131
-0.026270
-0.944053
-0.753785
0.461035
-0.455700
-0.657332
0.472881
0.860135
0.002439
0.928321
0.151933
0.631450
0.218083
0.136369
-0.681458
-0.651782
0.775955
-0.204669
0.725944
-0.576540
-0.481089
-0.005473
-0.676701
0.392903
0.768527
-0.536520
0.867446
0.981170
-0.510294
-0.804918
0.641758
0.491375
-0.047360
0.170375
0.880294
0.076302
0.891363
0.895558
-0.476924
0.033284
-0.202571
-0.128137
0.730334
-0.504852
-0.648522
0.203341
0.488911
-0.473458
-0.449892
0.171831
0.826564
-0.040359
-0.860349
0.720313
0.381185
0.727225
0.821285
0.847004
-0.569752
-0.909665
0.963330
0.656492
-0.402389
-0.589890
-0.465468
0.131186
0.971579
-0.498456
0.560034
-0.407181
0.875372
0.142287
-0.985739
0.259775
0.951173
-0.353593
-0.255770
0.631495
0.314243
0.775372
0.352447
-0.057400
-0.999713
0.191155
-0.995083
-0.574492
0.231120
-0.364015
-0.247575
0.818459
0.432602
0.934558
0.926104
-0.663354
-0.526260
-0.453196
-0.735472
0.163086
0.697289
-0.502745
-0.119915
-0.243016
-0.307911
-0.859038
0.300456
0.244773
-0.406472
-0.131934
0.617617
-0.093517
0.417015
-0.180465
-0.729326
-0.341418
0.542126
-0.190746
0.266950
-0.790108
-0.205694
-0.832743
-0.382339
0.735486
-0.697123
0.796095
0.093225
-0.934435
0.752851
-0.007838
0.879734
-0.832290
-0.340536
-0.493792
0.237281
-0.140142
0.862836
0.938324
-0.506958
0.095220
0.325967
-0.699379
-0.775573
-0.138591
-0.460991
0.739795
-0.982770
-0.409509
-0.182775
0.212968
0.379748
0.915351
0.853599
0.781096
0.562245
0.560819
-0.196883
-0.162804
0.970719
-0.963976
0.147101
0.328178
-0.787377
-0.419829
0.734971
0.857646
0.662968
0.462545
-0.169806
0.412280
0.155755
0.061118
-0.916226
-0.805796
0.856477
0.110579
0.475898
-0.459406
-0.734588
0.320355
0.121431
0.679271
-0.760283
-0.946232
-0.408474
-0.084221
-0.665507
0.640944
0.681022
0.739090
0.156658
0.035371
-0.083751
-0.428588
-0.889760
-0.823547
0.521988
-0.929933
-0.488482
0.616062
0.550151
0.521377
-0.377797
-0.151092
-0.282802
-0.618030
0.694270
0.984437
-0.835344
0.855385
-0.607146
-0.608092
-0.618620
0.216985
-0.730568
0.377055
-0.377398
0.009009
0.543219
0.065828
0.188424
0.060451
0.986330
0.698916
-0.976743
0.356293
0.877731
0.445512
0.110163
0.084619
-0.139204
-0.985498
0.683300
-0.210440
-0.265900
-0.507028
-0.911534
-0.148044
-0.170945
-0.725911
-0.749330
0.805772
-0.448012
-0.717454
-0.510574
0.365090
-0.030563
-0.578566
0.980707
-0.410509
-0.332692
0.326119
-0.965519
-0.802828
0.225765
-0.446923
-0.207695
-0.210401
0.622191
-0.711460
-0.686732
-0.871426
0.532002
0.514387
0.847321
-0.091984
-0.235144
0.901404
0.914461
-0.111338
-0.392253
0.663541
0.219805
0.708986
0.757131
-0.898752
0.390757
-0.824377
-0.519686
0.200112
-0.142872
-0.778442
0.878211
-0.093676
0.839852
0.246763
-0.187538
-0.682260
0.222343
-0.743403
0.056196
-0.854798
0.680048
-0.194518
-0.220440
-0.506156
0.094745
-0.723154
-0.404427
-0.751600
0.059009
0.502218
-0.623147
0.896224
-0.220663
-0.464276
0.522423
0.127002
-0.050896
-0.971113
0.047815
0.135728
0.404632
0.610075
-0.173062
-0.270720
-0.589257
-0.254659
-0.861604
-0.503784
0.200333
-1.034738
0.454345
-0.398891
0.276016
-0.374675
-0.311111
-0.513756
-0.183643
-0.096320
-0.197351
-0.229591
-0.236316
-0.445888
-0.372418
-0.497220
-0.308126
-0.467626
0.606676
0.487432
-0.013846
0.108840
-0.444303
-0.189298
0.436701
-0.010387
0.233390
-0.559377
-0.493064
0.000804
0.274935
0.543003
0.947360
-0.252571
0.016283
0.474798
-0.877296
0.883364
0.801944
-0.264936
0.115168
-0.953080
0.220879
-0.459947
0.337363
-1.024651
0.704249
-0.581611
0.264710
-0.164428
-0.017845
0.812507
-1.004934
0.162411
0.664409
0.305433
0.314464
-0.980571
-0.184786
0.870173
0.697584
-0.000232
-0.801863
-0.219159
-0.094985
0.863940
-0.957602
-0.361082
-0.852241
-0.231440
-0.323164
-0.459197
-0.204700
-0.645469
0.371885
0.136581
0.935487
0.568460
-0.003263
0.128286
0.621034
-0.338281
0.582081
-0.368434
-0.412924
0.503269
0.452642
0.459261
-0.545019
0.776566
-0.898348
0.469520
0.268343
0.292489
-0.369860
-0.333758
-0.385397
0.225374
0.471461
-0.794656
0.597824
0.056669
0.765707
-0.358887
-0.561812
-0.100909
0.812197
-0.737473
0.515043
-0.083861
-0.624339
-0.927009
-0.762344
0.139211
0.946446
-0.033274
-0.745034
0.657341
0.012497
0.432672
0.235497
0.286174
0.303155
-0.427280
-0.700749
0.966455
-0.967327
-0.807503
0.393902
0.976686
0.357922
0.785662
-0.255610
-0.054552
-0.868264
0.012704
-0.490766
0.838930
0.957176
-0.765268
0.672756
-0.830521
0.729728
0.946131
-0.453715
0.826440
-0.198063
-0.963184
0.622949
0.895877
-0.405412
-0.221202
-0.575811
0.058258
-0.717428
-0.020562
0.076676
-0.189289
-0.238393
-0.093858
-0.598071
-0.193523
0.932523
-0.271389
0.653029
0.098219
0.527793
-0.738191
0.742123
-0.999068
-0.342285
-1.003955
-0.203908
0.651816
-0.351586
-0.163560
-0.706737
0.716243
-0.776004
-0.835976
0.685652
-0.508338
-0.979807
0.054208
-0.713927
-0.842824
0.481853
0.871747
-0.436549
-0.647510
-0.015679
-0.573756
-0.793447
0.090981
0.548839
0.720779
-0.536631
-0.180973
0.824931
-0.463582
0.077803
-0.197928
-0.448635
0.058362
-0.759204
0.368280
0.444343
-0.052135
-0.702015
0.810198
0.704029
0.359733
0.406221
-0.909719
-0.072798
0.494160
-0.028676
0.697010
0.043948
-0.807475
0.644033
-0.118614
-0.553754
-0.540345
-0.703858
-0.734869
-0.781989
0.541213
0.650682
-0.004627
-0.025208
-0.397491
0.763410
-0.955144
0.440310
-0.210768
0.299560
-0.404303
-0.079535
-0.078723
0.056499
0.535524
-0.535294
0.131339
-0.783634
-0.635354
-0.546693
-0.437112
0.765021
0.856421
0.376938
0.848907
-0.842117
-0.006884
0.920644
0.049677
0.469916
0.134498
-0.987766
-0.482559
0.671443
-0.854747
0.865557
-0.566144
0.120415
0.864856
-0.498346
-0.680043
-0.064265
-0.502605
-0.838491
0.615180
-0.127506
0.639897
-0.020522
-0.386427
-0.120606
0.933430
-0.625534
-0.869314
-0.261117
-0.360176
-0.672350
-0.320990
-0.941768
-0.267675
0.108101
0.431254
-1.002643
-0.164071
0.885611
0.824992
0.326827
-0.813743
0.197895
0.794630
-0.822382
0.429235
0.137550
0.779421
0.137684
-0.618830
0.039462
0.444670
-0.411535
0.534445
-0.248223
0.903484
0.023806
0.584709
0.296901
-0.133574
-0.623722
-0.042566
-0.926952
-0.931181
-0.277869
0.683559
0.016487
-0.430724
-0.274740
-0.820325
0.537522
0.822407
0.553435
0.295808
0.200794
-0.392584
0.922108
0.850314
-0.120744
0.236225
-0.665190
-0.424428
0.301200
-0.104372
-0.930921
0.461380
0.427990
0.398531
-0.164028
0.568307
-0.061812
0.448714
0.042032
0.768207
0.174002
-0.017188
0.113566
-0.910571
0.930371
0.300898
0.633279
-0.375517
0.249077
-0.846520
0.372465
0.204425
-0.624789
-0.650785
-0.132928
0.189752
-0.712230
0.937943
-0.681201
0.693939
-0.613162
-0.684712
0.758091
-0.465887
-0.230265
0.933053
0.863694
0.988700
-0.819013
-0.906365
-0.380169
-0.628942
0.653298
0.514430
0.693704
-0.948069
-0.275552
0.501896
-0.886781
-0.586669
-0.417145
-0.338237
0.766757
-0.960254
-0.684217
-0.669536
-0.528793
-0.868299
0.376857
-0.089629
0.244340
-0.613798
-0.882451
-0.502425
0.221926
-0.335668
0.443150
-0.129059
-0.263439
-0.898638
-0.278554
0.457198
-0.601014
0.506912
0.421504
0.089308
0.721568
0.959796
-0.320838
-0.231112
0.347569
0.205756
-0.165371
-0.865613
0.488331
0.322613
0.482253
0.509215
-0.414038
-0.985371
-0.694410
0.119574
-0.217243
-0.196227
-0.581351
0.731159
-0.465111
0.503449
0.716736
0.663995
-0.832129
0.790108
-0.499082
0.029323
0.151832
-0.395640
-0.718588
-0.954654
-0.854426
0.532671
0.510976
0.504790
-0.754605
-0.672834
-0.080256
0.350433
-0.825254
0.928392
-0.039253
0.786928
0.078480
0.629230
0.889266
-0.612010
-0.300055
0.170919
0.643008
-0.800541
-0.133019
0.401368
0.667494
-0.057665
0.763576
-0.697711
-0.100444
0.016954
0.637655
0.772316
0.473917
-0.533262
-0.768656
-0.476438
0.923921
0.609000
0.108544
0.351874
0.837540
0.995461
0.181244
0.070778
0.702046
-0.062672
-0.942009
-0.899757
0.492128
0.882937
-0.621273
-0.532380
0.962968
-0.801002
0.842961
0.965591
-0.612932
-0.186744
0.461246
-0.227768
0.183604
0.941230
-0.729026
-0.578121
-0.562080
0.066699
0.917907
0.358478
0.143654
-0.594986
0.158709
0.419234
0.968206
0.237698
0.631102
0.311182
0.510664
-0.342589
-0.148714
-0.279076
0.987889
-0.338263
0.536496
0.189554
0.091844
-0.122933
0.817170
0.049366
-0.286796
-0.505640
0.719575
-0.630307
-0.014028
-0.813368
0.244109
-1.000794
0.070502
-0.979644
-0.293066
-0.231690
0.373458
0.636329
-0.942059
-0.877204
0.892438
-0.562040
-0.405332
0.910122
0.599987
-0.103411
-0.972551
0.377894
-0.484682
-0.882496
0.620325
0.712073
-0.530249
-0.085687
-0.535265
-0.403823
-0.026311
-0.267724
-0.221049
0.617716
-0.049308
0.978336
-0.226330
-0.551074
0.686536
0.733118
0.996838
-0.923245
-0.391533
-0.488380
-0.148649
0.826649
-0.790048
0.074301
0.924824
0.454357
0.596640
0.797292
-0.756208
-0.974163
-0.093473
-0.647918
-0.337649
-0.213475
-0.064176
-0.122250
-0.795705
0.094235
0.300085
-0.127411
-0.168648
0.679124
-0.705468
-0.557624
0.779124
0.455552
0.348343
-0.202091
0.166423
0.851797
-0.891617
0.256920
0.244586
0.598339
0.522604
-0.341703
-0.871447
-0.125725
-0.556474
0.402431
0.739397
-0.839018
-0.317504
-0.821326
-0.169080
-0.099926
0.110939
0.193159
0.174810
0.146155
0.086755
0.116980
-0.340903
-0.019447
-0.399981
-0.001739
0.727655
0.810293
-0.574446
0.779738
0.344079
-0.420769
0.082341
-0.444327
-0.779482
-0.580400
0.779369
-0.068820
-0.009348
-0.530049
0.594625
0.865162
0.141515
-0.211346
0.751352
0.425163
-0.518759
0.861926
-0.425378
0.699162
-0.814859
0.916074
0.797805
0.196861
0.388989
-0.457925
0.483017
-0.169169
0.539502
-0.445925
-0.533887
-0.765816
0.595323
0.797092
-0.596736
-0.340289
-0.688060
0.608238
-0.779709
-0.802813
0.446964
0.199302
0.105020
0.536359
0.591892
0.052582
-0.454809
0.188018
0.228093
-0.014065
-0.414267
0.497474
0.108499
-0.299977
-0.636411
0.594605
0.418521
-0.142696
0.461140
-0.020584
-0.673297
-0.340693
0.894869
0.091410
0.492679
0.582081
0.492369
0.456683
-0.904903
-0.711762
0.640379
-0.732606
0.878540
0.027341
-0.243614
-0.652027
0.576621
0.414277
-0.430861
-0.096713
-0.126572
-0.458286
-0.827218
-0.726705
0.880465
0.591335
0.872628
0.369359
-0.702533
0.923073
0.854286
-0.078617
0.591651
0.226843
-0.053898
-0.050647
0.251897
0.569084
-0.072118
-0.401433
0.070844
0.574416
-0.348802
0.496039
-0.539277
0.179057
0.317379
-0.935846
-0.779170
-0.352166
-0.705030
-0.169367
-0.737324
-0.258102
-0.778010
0.655641
-0.454330
0.285324
0.686171
0.502525
-0.590752
0.761471
-0.338273
0.604925
-0.665185
0.109031
0.591412
-0.423081
0.406881
-0.864066
-0.237947
-0.484457
-0.067393
0.610384
-0.742265
-0.050255
0.180696
0.396215
0.520966
0.541361
-0.037161
-0.190429
0.938443
0.895043
0.547082
0.873764
-0.548293
0.954964
0.150951
-0.580975
-0.683932
0.004674
-0.947564
1.003397
0.891522
-0.018577
-0.944561
-0.542299
0.990592
0.218145
-0.488600
-0.967775
0.467827
-0.496623
0.078721
-0.852160
0.907965
-0.135800
0.028242
0.159900
-0.460440
-0.131758
-0.106999
-0.111282
0.861205
0.709081
-0.792296
0.180955
0.608179
-0.878975
0.741589
-0.754784
0.547755
-0.060240
-0.971152
0.868494
-0.360476
-0.735655
0.475103
0.949836
0.500708
0.369742
-0.523830
0.125261
0.233655
0.019156
-0.262102
-0.554735
-0.704576
0.493501
0.295979
0.687667
-0.954124
0.813298
0.804355
-0.377151
-0.307548
0.561246
-0.553649
0.296873
0.334515
0.298896
-0.289056
0.369321
-0.673322
-0.638906
-0.783972
-0.276419
0.246560
-0.567840
-0.077095
-0.866651
0.805516
-0.833802
-0.529515
0.786807
0.657643
0.756752
-0.933159
-0.513984
0.681364
0.671511
-0.588487
0.349432
0.090207
0.865196
0.851289
-0.785736
-0.408199
-0.026510
0.381253
0.178741
-0.574692
0.262598
1.000229
-0.248378
0.898006
-0.481187
-0.479941
0.132427
0.184501
0.654649
0.637536
-0.043998
0.767456
-0.025843
0.293980
-0.007710
0.577323
-0.721042
-0.858656
0.424571
-0.800497
0.696627
0.779674
0.522522
-0.360917
0.273132
-0.636107
0.022930
0.506263
0.425445
0.979715
0.281575
0.039786
0.672199
-0.166701
0.111946
0.018929
-0.898860
0.353077
0.514629
-0.563370
0.549720
-0.633161
0.704033
-0.114504
0.949654
-0.520166
0.710577
-0.497509
-0.034979
0.069684
0.490232
-0.424351
0.955204
-0.126692
0.912292
0.611471
0.477499
-0.913307
-0.025216
-0.348720
-0.694212
0.690703
-0.488063
-0.260326
0.610745
-0.983571
0.658878
0.074099
0.617312
-0.628773
0.295934
0.039255
-0.038816
-0.870310
-0.233843
-0.093892
0.097612
-0.021623
-0.114994
-0.567110
-0.881736
0.816604
-0.879244
-0.367514
0.366026
-0.895807
0.223740
0.610806
0.510675
-0.905965
-0.379959
0.708579
0.450194
0.572634
-0.897851
-0.460924
0.171666
0.629524
0.667352
0.686641
0.595411
-0.977131
-0.753433
-0.179383
0.244379
0.783072
-0.471484
-0.678259
0.657665
0.014546
-0.437180
-0.687431
-0.154779
-0.094387
0.619305
-0.402608
0.795778
0.424181
0.264820
-0.389413
0.602670
0.151650
-0.739484
0.494631
-0.206173
0.038261
0.443391
-0.104194
-0.942462
-0.266418
-0.669140
-0.680566
-0.310244
0.367967
0.515155
0.404394
-0.044777
-0.297516
0.124364
0.984658
0.896548
0.497449
0.243568
-0.526251
0.600899
0.929137
0.575565
0.348390
-0.693187
-0.137893
0.532727
-0.318606
0.176376
-0.133532
0.313361
-0.914839
0.546344
0.275545
0.077351
0.520080
0.296539
-0.369300
-0.837845
0.322232
-0.441306
-0.976847
0.263664
-0.911982
0.059649
-0.479168
0.887360
-0.713778
0.827109
0.577061
0.205574
0.151797
0.729597
0.978300
-0.557622
0.575795
-0.336437
-0.030319
0.723070
0.957571
0.090071
-0.842705
-0.938969
0.087373
-0.682568
-0.171264
-0.956767
0.221877
-0.655619
0.724062
-0.077800
0.057083
0.902016
0.986980
-0.566565
0.328942
0.858496
0.286323
0.589396
0.519127
0.255221
0.139884
-0.051711
-0.093614
0.917607
-0.969201
-0.927216
0.709376
-0.808709
0.043804
0.660357
0.943515
-0.036022
-0.423726
-0.255658
0.844691
0.837274
-0.363733
0.286217
0.945268
0.551931
-0.011978
-0.581709
-0.186295
0.586866
0.159627
0.737700
0.387720
-0.260480
0.834239
0.932375
0.911419
-0.264234
-0.619062
-0.020858
0.383804
-0.803665
-0.436758
-0.228441
-0.407176
-0.186300
0.700526
-0.352385
-0.861189
0.002332
-1.007702
-0.046933
0.768271
-0.366827
0.638408
0.058767
-0.553908
-0.352750
0.155424
-0.618489
0.961908
-0.171984
0.174949
-0.123503
0.401225
-0.752995
0.673433
-0.155640
0.146174
0.221267
0.880908
0.826603
-0.719627
-0.990020
-0.805461
-0.115423
0.808679
0.469756
0.068220
0.613207
-1.009344
0.279361
-0.950183
-0.559598
-0.112927
-0.680992
0.389612
-0.581134
0.959532
-0.542084
-0.455841
-0.200211
-0.264541
-0.525838
0.015580
-0.519508
-0.959021
0.604131
-0.393287
0.523549
-0.710174
-0.189764
-0.540412
0.686390
0.092144
0.174870
0.634391
-0.071969
-0.326811
-0.634546
-0.870943
0.167625
-0.377296
0.769274
0.020881
-0.349000
0.354486
-0.450685
0.578004
0.941395
-0.682880
0.227919
-0.034035
0.974314
-0.014779
0.685474
0.531880
-0.382211
-0.239475
-0.727892
-0.991707
-0.692115
0.477775
0.035479
0.334491
0.925419
-0.043199
-0.879348
0.910349
0.685010
0.525348
-0.876123
0.509699
-1.002623
0.089972
0.211867
0.318703
-0.615345
0.350516
0.485966
-0.809848
-0.901614
-0.556093
0.681235
0.369906
0.110496
0.735060
0.670413
0.976917
0.852492
-0.549401
-0.496841
0.428428
-0.228377
0.072579
-0.192862
-0.372549
0.379820
1.003781
-0.560516
0.839215
0.443792
-0.817215
-0.072169
0.586951
0.516011
0.410239
0.381009
0.315103
-0.996950
0.014407
0.885623
0.214712
-0.331834
0.254432
0.474264
0.848641
0.358280
-0.215048
0.355119
0.442618
0.476799
0.105609
0.385336
0.536931
-0.041141
0.255360
-0.146093
-0.816716
-0.180489
0.127994
-0.510736
0.078610
-0.559837
0.300357
0.974977
-1.022562
-0.881272
-0.593063
0.846989
0.902970
0.414914
0.909023
0.620281
0.753291
-0.883392
-0.036735
-0.700949
0.527638
-0.719557
0.407331
-0.643410
-0.266499
-0.351041
0.348491
-0.975324
0.722605
-0.408610
0.524627
-0.506684
0.592101
0.034070
-0.811827
0.131696
-0.176684
-0.027369
0.741511
0.630125
-0.424242
0.209855
-0.578077
0.330383
-0.568475
0.520642
0.291276
0.168429
0.409207
0.621525
-0.448485
-0.745982
0.636682
0.981137
-0.777553
-0.193712
0.821842
0.628984
0.554624
0.969194
-0.575291
0.072394
0.110857
0.330254
0.789376
-0.694930
0.007291
0.102650
0.462688
0.552092
0.453385
-0.472592
0.169466
0.422835
-0.980920
-0.978905
0.352277
0.772232
0.661358
0.834422
0.572850
-0.329464
-0.320259
-0.677772
0.648634
-1.008488
1.004072
0.616396
-0.695102
-0.940280
0.750800
-0.418622
-0.305723
0.333106
0.389945
0.256859
0.450691
-0.372399
-0.711895
0.045652
-0.912629
-0.284110
-0.751665
-0.801236
0.541079
0.250138
-0.080440
0.646500
-0.558531
-0.422654
0.435220
0.829668
0.555264
-0.373306
0.584835
0.109592
0.809608
-0.881749
-0.654220
-0.733422
0.349214
-0.648964
-0.428532
0.433348
-0.337667
0.242754
0.270954
-0.601708
0.036021
0.758172
0.657684
0.317863
0.269153
0.985990
-0.080387
0.495376
-0.907168
-0.528030
0.952466
-0.478840
-0.097569
0.337655
-0.151379
-0.042434
-0.597108
0.000645
0.969606
0.960001
-0.430284
-0.446320
0.653087
-0.656032
-0.469280
-0.798996
0.703451
0.927096
-0.908076
0.940727
0.170558
-0.929954
-0.659668
0.063470
0.913549
-0.070628
0.942160
-0.146314
0.363683
0.754566
0.392896
-0.610299
0.075564
0.122208
-0.707440
-0.846845
-0.223217
-0.610287
0.831818
-0.667736
0.350506
0.166720
-0.215178
0.736456
-0.813071
0.446255
0.152552
0.723912
-0.789910
0.646914
-0.695813
0.133196
0.185906
-0.330517
0.291849
-0.495790
0.843673
-0.369112
-0.301569
-0.644780
-0.498226
0.189378
-0.150076
-0.246416
0.435127
-0.877879
0.113985
-0.028556
0.256680
0.694791
-0.230927
0.584779
-0.348590
-0.836889
-0.951783
0.234949
0.452933
-0.468435
0.371251
0.116489
0.573006
0.257016
0.157782
0.214724
-0.297148
0.845686
-0.631680
0.897782
-0.510549
-0.816628
-0.720902
0.835063
0.824703
0.586604
-0.547611
-0.443831
-0.715214
0.826530
0.842250
-0.151004
0.677222
-0.374922
-0.981996
-0.775183
-0.603730
0.125255
-0.724246
-0.171780
0.598520
-0.864521
-0.502925
0.465369
0.568462
0.352470
0.751685
0.095666
-0.567717
0.030279
-0.943916
-0.744586
0.446793
-0.727439
-0.494340
0.336761
0.266009
0.262586
-0.236951
-0.547691
0.657718
-0.112542
-0.394686
-0.959009
0.529719
-0.306056
-0.897079
-0.542987
-0.294018
-0.793685
-0.296800
0.577040
-0.242145
-0.943696
-0.437652
0.665172
0.555448
-0.109322
0.659288
-0.138376
0.280191
-0.034649
-0.355085
-0.682590
-0.041937
0.660319
0.257746
0.403095
0.242299
-0.190847
0.796462
0.430978
0.786028
0.660674
-0.035973
0.275853
-0.291025
0.204747
0.219676
0.216573
0.111498
0.701323
0.412378
0.094319
-0.501809
0.137749
-0.256034
-0.036285
-0.434727
-0.915298
-0.751366
-0.050627
-0.614177
-0.655881
0.715424
-0.583806
0.492848
0.798653
-0.148823
0.829424
0.725728
-0.159527
0.628576
0.637327
0.753280
0.389235
-0.917209
-0.149142
-0.542117
0.052659
-0.281607
0.668297
0.377031
0.235248
0.082143
-0.425045
-0.808319
-0.070522
0.850994
0.742499
-0.801364
0.302941
-0.020500
-0.534432
-0.812213
-0.005449
0.511105
0.554325
-0.442539
0.920552
-0.674210
-0.778709
-0.504692
-1.007686
0.667980
-0.537488
-0.891274
0.214597
0.450947
-0.752172
-0.107919
0.098219
0.247222
-0.754213
-0.047472
-0.915618
0.139898
-0.027532
-0.477680
0.247973
0.691092
-0.200179
-0.585977
0.585963
0.314289
0.090019
0.786027
-0.579373
0.791867
0.068325
-0.647258
0.408607
-0.188689
0.385019
-0.594787
0.115497
-0.566770
0.197414
0.328119
0.803069
-0.430168
-0.125104
0.598867
-0.394797
0.214333
0.621403
-0.705715
-0.962488
-0.963924
-0.974074
0.979621
0.336291
0.624346
0.570076
0.537831
-0.927460
0.740063
-0.972336
-0.781737
-0.214307
0.567918
0.016669
0.384310
0.082849
-0.356462
0.879331
0.245011
0.013203
0.337907
-0.490333
0.150362
0.095755
0.494327
0.684914
0.541749
-0.660843
-0.723213
-0.349478
0.266162
0.249495
-0.259840
0.346250
0.108007
-0.868371
-0.322721
-0.644459
0.481656
0.082116
0.847029
0.432617
0.384467
-0.090569
0.792083
0.578569
-0.189156
-0.867479
0.243429
-0.897525
0.380301
0.205205
-0.776377
-0.592264
-0.143995
-0.564182
-0.391132
-0.830771
-0.046253
0.975107
0.420633
0.685685
0.339351
0.545290
-0.060209
-0.387883
-0.462834
0.156794
0.542629
-0.959870
0.284565
-0.654943
-0.770368
-0.061719
-0.573420
0.926669
-0.009892
0.869451
-0.996234
-0.685811
-0.423609
-0.828908
-0.206267
0.959886
-0.690025
0.195881
0.105070
-0.215872
0.158276
0.009150
0.094898
0.892735
0.485746
0.952116
0.368471
0.064914
0.284496
-0.096004
0.870492
-0.892693
-0.899015
-0.558980
0.585151
-0.515200
-0.566351
-0.243770
0.673812
-0.049493
0.045551
0.522124
0.560989
-0.046445
-0.602224
-0.170088
-0.099629
0.026760
0.123472
-0.387848
0.111100
0.308510
-0.706141
0.560446
-0.708317
0.997963
-0.394768
0.556973
0.144412
0.017578
0.627633
0.134370
0.190625
-0.447291
-0.218590
-0.539105
0.042161
-0.896062
-0.577493
0.438930
-0.428380
-0.071761
-0.397616
0.343443
-0.363769
-0.957193
0.514266
0.010058
0.753093
-0.222905
0.844846
0.105862
-0.111245
0.852333
0.237048
-0.296290
0.675525
-0.843448
0.057911
0.184176
0.663695
-0.944742
0.512003
-0.656986
-0.760489
0.258769
-0.985557
0.618657
0.035368
-0.731998
-0.933127
0.316643
0.086521
0.855790
0.130619
0.806762
-0.256333
-0.761419
0.678742
0.408348
0.936994
-0.650864
-0.072132
-0.502648
-0.582885
-0.262787
0.175019
-0.149695
0.824686
-0.978298
-0.161304
0.775476
0.515837
0.622918
0.370373
-0.193732
-0.371973
-0.151915
0.821879
0.981126
-0.940634
-0.257656
0.767548
-0.214816
-0.788418
0.045344
0.588207
0.203621
-0.019839
-0.214422
0.253773
0.381029
-0.565033
0.812210
0.364592
-0.854632
0.968494
0.079834
-0.623620
-0.023141
0.358309
0.803313
-0.819969
-0.594068
0.977407
-0.276950
-0.452086
0.581406
-0.427007
-0.404755
-0.144444
-0.022817
0.964703
0.116337
-0.310891
0.742173
0.868047
-0.152800
0.935728
0.883475
-0.580004
-0.174607
0.246444
-0.815296
0.795090
-0.165562
-0.289232
-0.939739
-0.509583
-0.299504
-0.989955
-0.338721
0.131456
-0.020552
-0.741784
0.096436
-0.540294
0.302170
-0.554979
-0.901024
-0.628409
0.047785
0.275367
0.748957
-0.129097
-0.760376
0.026285
0.759659
0.573476
-0.063689
-0.706643
0.591878
0.953917
0.553481
-0.956292
-0.796511
-0.728320
0.849476
-0.768496
-0.584210
0.877240
-0.467132
0.113626
-0.539074
-0.221855
-0.842887
0.146750
-0.544656
0.311937
-0.441747
0.895916
-0.042491
0.327141
-0.538877
0.225496
0.486623
-0.541990
-0.687837
0.684058
-0.941049
-0.491385
-0.228290
-0.709654
0.794929
0.759859
0.693472
0.268827
-0.161111
-0.882870
0.043195
0.456469
0.828259
-0.378693
-0.715591
-0.227542
0.362368
-0.907920
-0.963855
0.601842
0.686913
0.336037
0.950556
0.503283
-0.455688
-0.488522
0.820052
-0.457039
0.804499
0.635970
-0.287456
-0.427496
-0.515835
-0.989606
-0.646312
-0.902246
0.240971
-0.073337
0.643814
0.010723
0.553879
-0.786600
-0.716395
0.421267
-0.507160
0.377359
-0.931910
0.108167
-0.712687
0.424502
-0.235061
0.686069
0.522217
0.498151
0.198798
-0.514282
-0.031261
-0.900045
-0.300325
0.760112
0.709884
-0.728631
0.963434
-0.159313
0.312278
0.696051
-0.381477
0.950822
-0.761934
-0.092809
0.913377
-0.818365
-0.510245
0.726908
-0.281887
0.612577
-0.703023
-0.085564
-0.038435
0.033022
0.197428
-0.623009
0.855524
-0.085770
0.955631
0.169733
-0.478031
0.228779
-0.367845
-0.849625
-0.020989
0.115574
0.451363
0.093829
-0.120745
0.228866
0.611640
-0.740710
0.761082
0.670965
0.657124
0.014266
-0.208687
0.911407
0.742743
-0.251085
-0.342799
0.051361
0.866131
-0.645494
-0.909060
-0.559188
0.033926
-0.560492
-0.851565
-0.945658
0.763083
0.858564
-0.097617
0.052080
0.017721
0.023198
-1.000903
-0.690628
0.917529
-0.631343
-0.894284
0.041578
-0.246141
-0.564559
0.964242
0.819790
-0.822402
-0.453527
0.222755
0.165051
0.522396
-0.933354
-0.237760
-0.027372
-0.032804
-0.786171
0.149944
0.551532
0.156800
0.340012
0.435876
0.908441
0.869248
-0.178969
-0.367190
0.338089
-0.791611
-0.055172
-0.159996
-0.193020
0.150343
-0.042433
0.235145
0.751414
0.438169
0.327289
-0.019382
-0.786449
-0.145904
-0.191477
-0.666373
0.306934
0.112761
0.703457
0.761282
-0.290464
-0.338249
-0.276488
-0.407864
-0.260176
0.180392
0.571719
0.784288
-0.627323
-0.337467
-0.184167
0.420887
0.608795
0.372588
0.585570
0.786809
0.373716
-0.037772
0.356715
0.891461
-0.864451
0.701901
-0.555168
0.762186
-0.963220
0.182159
0.172756
0.941209
-0.194381
-0.956210
0.621167
0.293989
-0.524942
-0.170873
-0.566011
0.463748
0.679591
0.261204
-0.493574
0.546789
0.909085
-0.499978
0.645092
-0.093411
-0.535491
0.626523
-0.890456
0.687106
-0.575324
-0.888161
-0.163807
-0.057357
0.184713
0.113566
0.805083
0.418991
0.852857
-0.521876
-0.384687
-0.954264
-0.449092
-0.558869
-0.031729
-0.674210
0.400711
-0.415065
0.917771
-0.813808
-0.421684
-0.736355
-0.353683
-0.740553
0.803021
-0.816107
0.146882
-0.394072
0.501769
0.424665
0.670896
-0.267809
0.822108
0.309604
0.532296
-0.110068
-0.838815
-0.798507
-0.974688
-0.100813
-0.324645
0.372852
-0.277767
-0.740756
-0.621661
0.620375
-0.239154
0.226634
-0.781994
0.427775
-0.614544
-0.006987
-0.895597
0.625575
-0.934654
-0.511886
0.575896
0.696533
-0.768401
-0.936558
0.554214
0.838016
0.399759
-0.237548
0.798206
-0.857190
-0.408812
-0.277071
-0.880558
0.394676
-0.291587
0.290363
-0.333267
0.885805
-0.339719
-0.945708
0.082558
0.118929
0.328566
0.102277
-0.249148
0.505710
-0.206699
0.662612
-0.946670
0.053564
-0.750272
-0.636241
0.368067
-0.290695
-0.103831
0.123331
0.483123
-0.541144
0.891288
-0.398221
-0.323205
-0.520473
-0.318339
0.087266
-0.362411
0.243819
-0.295385
-0.667698
-0.878814
-0.953812
-0.541489
0.155105
-0.026496
0.396597
-1.004415
0.323167
0.425296
-0.633864
0.413093
0.110341
0.076204
0.768550
0.917825
-0.055932
0.217624
0.394959
-0.191210
0.157887
-0.196076
0.432569
0.099136
-0.329579
-0.001267
-0.239250
-0.095270
0.476970
-0.040844
-0.769131
-0.766266
-0.690285
0.187555
0.584717
0.497196
-0.797727
0.469056
-0.034961
-0.838406
-0.966972
-0.890149
0.878928
0.641811
-0.377573
-0.922494
0.504367
0.859001
0.634999
-0.182805
0.833384
0.075928
-0.610316
0.356666
0.854029
-0.633055
-0.762192
-0.902843
-0.663361
0.543392
0.396517
0.828232
-0.969505
0.031663
-0.335409
-0.217414
0.931405
0.338789
-0.980291
0.414685
0.399543
0.028710
-0.951769
-0.519756
0.674802
0.180213
-0.781033
0.889683
-0.746454
-0.380168
0.927591
-0.388994
0.723374
-0.082059
0.976508
-0.397586
-0.039119
0.645206
0.327072
0.543695
-0.740054
0.141982
-0.354177
0.294873
0.490538
0.495022
0.667664
-0.512615
-0.056620
0.810062
0.884622
-0.192142
-0.989893
-0.705260
0.431130
0.731418
-0.303668
0.969257
0.856873
-0.749225
0.105782
0.161079
0.529568
-0.121673
-0.324082
-0.813857
-0.983776
0.857074
-0.360063
0.189434
0.118434
-0.153811
-0.809223
0.494438
-0.359351
-0.771211
-0.446368
0.372104
0.348364
0.053118
-0.951133
0.864285
-0.978482
-0.085421
0.674540
-0.134862
-0.764569
-0.478884
0.689313
0.050075
-0.678937
0.574506
-0.964740
-0.881592
-0.440165
-0.779879
-0.303323
0.217215
-0.600799
0.756743
-0.109465
0.760480
-0.974396
-0.350880
0.683828
0.961838
0.923819
0.931693
-0.883714
-0.852898
0.820633
0.762570
-0.407669
0.236026
-0.121740
-0.202986
0.007161
-0.364844
0.996068
0.651963
-0.196060
-0.036910
-0.422570
0.093469
-0.181472
0.219691
-0.722143
-0.902781
0.783678
-0.227662
0.003912
0.274481
0.302622
0.741920
-0.127244
0.914760
0.400543
0.958093
0.773435
0.234636
0.149027
-0.767376
-0.702382
0.950384
-0.918217
-0.118782
-0.719952
-0.141016
-0.197646
0.320327
-0.092051
0.979545
-0.440149
-0.974784
-0.420045
-0.812386
-0.270475
-0.433688
-0.182068
0.693806
0.722233
0.673664
0.542826
-0.664758
-0.236744
0.249545
-0.833459
0.107243
0.739165
-0.774262
0.088626
-0.139605
-0.944522
0.952270
-0.611714
0.522034
0.718769
-0.324000
-0.407241
0.003428
-0.200151
0.583405
0.693583
-0.717816
0.214960
0.933223
0.848577
0.868895
0.521592
-0.239572
-0.851018
0.413245
-0.256524
0.094570
0.707023
0.184540
0.528786
0.489309
0.062431
0.316779
0.743006
-0.191111
-0.148967
-0.134107
0.560355
-0.153894
-0.704366
0.052224
-0.226809
-0.836000
0.994481
-0.329187
-0.166954
0.994920
1.003386
-0.133395
-0.916711
-0.219084
-0.630781
-0.405112
0.323891
-0.356256
-0.675359
-0.430544
0.032644
0.840046
-0.104814
-0.045786
0.461051
0.136455
-0.292840
0.361511
0.815840
0.295188
-0.320556
-0.898926
0.454501
0.541356
-0.171552
-0.063443
-0.944350
-0.580531
-0.699527
-0.648059
0.894898
-0.573546
-0.613618
0.155662
-0.889379
0.667733
-0.832845
-0.171444
0.938562
0.341084
0.627930
-0.259437
0.162033
0.901781
0.709332
-0.575766
-0.165935
0.207514
0.763294
0.559198
0.589018
-0.842027
0.050867
-0.306696
-0.110275
0.148133
0.512313
-0.754125
0.495031
-0.586822
-0.285456
0.532432
0.732033
-0.747147
-0.792763
-0.707912
0.530544
-0.109733
0.355136
0.170565
0.358456
-0.715144
0.091799
0.152771
-0.802882
-0.832324
-0.865052
0.975405
-0.759207
-0.010930
-0.110102
-0.006894
-0.299381
-0.194526
-0.806031
-0.313519
0.318339
-0.956954
-0.595590
0.331152
0.869497
0.671199
-0.937237
0.718467
0.833760
0.417794
0.046808
-0.374944
0.195932
-0.383852
-0.677712
-0.916886
0.000335
-0.954533
0.119268
0.600717
0.199678
-0.752277
0.756726
-0.097498
-0.845572
-0.742596
-0.148001
0.846398
-0.339337
0.350897
0.900028
0.648222
0.909718
-0.026045
0.590066
-0.187478
0.124353
-0.050418
-0.821593
0.466962
0.758939
0.201827
0.702882
-0.494004
0.396632
-0.541345
0.539435
0.786124
0.522781
-0.798388
-0.646074
-0.669942
0.019401
0.675173
-0.608559
0.583475
-0.745385
0.083739
0.709138
-0.242624
0.047558
-0.560658
-0.417560
-0.344626
-0.483302
-0.901271
-0.040755
-0.805721
-0.498977
0.499421
-0.745234
-0.084899
0.122701
-0.518264
-0.714902
-0.350741
-0.449744
-0.882497
0.701544
0.564289
-0.782800
-0.660914
-1.032339
0.282797
0.849412
0.293281
-0.731166
-0.502722
0.403545
0.518886
0.232925
0.098176
-0.130901
0.180127
-0.054000
-0.163153
0.332974
-0.858212
-0.589505
0.558997
0.536112
0.471525
0.166088
-0.562810
-0.556220
-0.041060
0.060005
-0.963106
-0.372957
0.912893
0.384212
0.788659
-0.750827
0.466760
-0.290798
0.969774
0.301229
-0.720954
-0.751977
0.686244
0.361428
-0.366856
-0.862758
-0.191277
0.098614
0.515731
-0.257414
0.823357
0.857162
-0.156420
0.669658
0.785890
-0.061118
0.943509
0.683022
0.212586
-0.453672
0.058295
0.703596
0.529161
0.094322
0.319184
0.305461
-0.341448
-0.410233
0.866822
-0.275193
0.350057
0.628904
-0.934577
-0.742647
0.834681
0.047402
-0.617849
1.010824
0.045217
0.813217
0.765961
-0.014082
-0.925043
-0.056335
-0.367290
0.290795
0.347037
-0.834098
0.603780
0.447244
-0.150746
0.466906
-0.349150
-0.131948
-0.117293
-0.743259
0.702597
-0.113500
0.718679
-0.301720
-0.164316
-0.744626
0.923661
0.421180
-0.347318
-0.491648
-0.645331
0.385361
0.946239
0.737396
-0.312423
0.218898
-0.796836
-0.851795
-0.497345
-0.762409
-0.898463
-0.907167
0.957232
-0.845742
0.004117
0.380901
0.157997
-0.817854
0.448022
0.090918
-0.694560
0.884280
-0.184483
-0.924713
-0.542076
-0.167690
0.869252
-0.577763
0.736280
-0.854731
0.633552
-0.947553
0.419745
0.692287
0.152640
0.626321
-0.966100
0.947577
0.219290
-0.632929
-0.629896
0.178101
0.389595
-0.854679
0.729477
0.333496
-0.910446
0.048861
0.991217
-0.462908
-0.185405
-0.477391
0.781672
0.768414
0.426754
-0.618350
-0.335969
0.486101
-0.376436
-0.647411
-0.863116
-0.692456
-0.359750
-0.731729
-0.558101
0.502425
0.732112
-0.284133
-0.945695
0.171549
0.719486
0.412834
-0.453191
0.768979
-0.063546
0.130852
0.045912
-0.992911
0.011250
-0.800093
0.763341
0.395662
0.503614
0.853064
-0.396452
0.534561
0.146580
0.014300
0.238951
-0.947808
0.959898
-0.937846
0.763082
0.484430
0.571129
0.919602
0.249396
-0.281658
-0.185172
0.315930
-0.651495
0.206354
0.916060
0.602951
0.157380
0.002461
-0.273391
0.789667
0.917751
-0.999013
0.976257
0.665458
-0.022622
0.334190
0.770538
0.890054
0.294292
-0.496008
-0.319429
0.899939
-0.558128
-0.571023
0.993397
-0.100496
-0.189619
-0.147949
0.022176
0.489927
-0.447655
-0.038021
0.867753
-0.146669
0.397374
0.630157
-0.968530
0.440008
-0.520980
-0.300718
0.128188
0.861747
0.933584
-0.968510
-0.997975
0.307913
-0.325250
-0.090574
-0.375852
0.856578
0.351509
0.394882
0.143693
0.902507
-0.632932
0.271063
0.942701
-0.015903
-0.906836
0.387332
-0.572040
-0.750408
0.054099
-0.085708
-0.434416
0.360900
-0.243716
0.782863
-0.514676
0.967562
0.990156
0.207889
0.337327
-0.143001
0.046750
0.009924
-0.591697
-0.583312
-0.479570
-0.354172
0.139794
-0.837717
-0.224096
-0.523048
0.987786
-0.231001
-0.184038
0.406595
-0.086733
-0.620865
-0.561994
0.695523
-0.106200
0.385511
0.320032
-0.816495
0.558161
0.815548
-0.647030
0.387401
-0.311951
-0.838509
-0.431472
-0.255732
0.966422
-0.783207
-0.000562
-0.570495
0.565333
-0.000654
-0.180680
0.588891
0.687028
-0.374972
0.391792
-0.458880
0.030326
0.438754
-0.949290
-0.863316
-0.774675
-0.751986
0.566067
0.877823
0.476993
-0.279119
-0.312972
-0.386211
0.691714
0.039903
0.535015
0.439944
0.551716
-0.208927
0.748819
-0.472276
-0.303739
0.866741
-0.596521
0.322572
-0.250274
-0.954177
-0.570646
-0.225712
0.890522
0.007745
0.968168
0.019253
-0.103609
-0.042131
-0.653437
0.977386
0.554200
-0.578592
-0.062152
-0.878412
0.241334
0.099484
-0.069009
-0.107595
0.436520
-0.742873
0.583860
-0.822099
-0.843474
-0.913195
0.837596
0.270684
0.955275
0.302291
-0.852056
-0.172146
0.336200
0.614891
0.631942
0.744648
0.526287
-0.372281
-0.276826
-0.521839
-0.096599
-0.475370
-0.701281
-0.309964
0.923536
-0.134819
0.011314
0.215230
0.031847
-0.775930
-0.652258
-0.191923
0.543549
0.314850
0.255379
-0.662435
0.354894
0.601204
-0.604988
0.418009
-0.512214
-0.915602
0.557570
0.108573
-0.660389
0.772054
-0.320718
-0.432690
-0.240180
-0.948980
-0.925841
0.341760
-0.961753
0.083346
-0.648419
0.624109
0.937429
-0.504219
0.402161
0.274476
-0.700366
-0.708985
0.838510
0.425533
0.324016
-0.874361
-0.623584
-0.124840
0.672854
0.194175
-0.861891
0.925306
-0.165720
-0.285989
0.418608
0.735843
-0.639743
0.103861
-0.395452
0.749780
-0.164297
0.501006
-0.163200
0.416500
-0.429852
0.820511
0.612852
0.042570
-0.806023
0.804908
0.961331
0.174888
-0.795916
0.217572
0.765068
-0.227221
0.469942
0.834709
0.265726
0.438234
0.839975
0.903087
-0.437990
0.871550
-0.958818
-0.716075
0.539282
0.158432
0.459877
0.318886
-0.749182
-0.332308
-0.539511
0.231937
-0.377764
0.156512
0.337517
0.324098
-0.566679
0.468563
-0.202377
0.518458
-0.725782
-0.392612
0.334498
0.684033
0.633051
0.261166
-0.675844
-0.510935
-0.452562
0.038813
0.153128
-0.105717
0.282916
0.283697
-0.860719
-0.952495
0.525827
0.954309
-0.246172
-0.099947
0.352431
0.210058
0.700437
-0.104591
0.697602
0.685391
0.455327
0.375610
0.701899
0.575042
-0.136817
-0.792232
0.565043
-0.920962
0.652859
-0.936003
0.538077
0.724100
-0.963266
-0.068398
-0.667193
0.686396
-0.531136
-0.043639
-0.857558
-0.307566
-0.273628
-0.714162
-0.704915
-0.445930
-0.278254
-0.943496
-0.298338
0.062818
-0.005691
-0.716330
-0.852940
-0.126352
0.231191
0.278848
-0.751952
0.314743
-0.956259
-0.848784
0.708938
0.067131
0.478090
0.520356
-0.285233
0.196552
-0.767755
0.348914
-0.120078
0.423488
0.301495
0.078800
0.980963
-0.326534
0.273862
0.962167
0.845846
-0.993512
-0.478552
0.431282
-0.113819
-0.262820
-0.885492
0.294614
-0.041475
-0.295550
-0.618350
0.094339
-0.232025
0.180610
-0.949460
0.060183
0.618068
-0.387042
0.590099
-0.424063
-0.727408
0.065338
-0.582195
0.608075
0.510721
-0.368785
-0.855370
0.348454
0.297003
-0.516162
0.892451
0.139403
0.269955
-0.173020
0.963718
0.187340
0.760576
0.663489
0.541723
-0.253559
-0.020302
-0.291980
-0.118448
-0.431354
0.007435
0.262103
0.248680
-0.739854
0.291068
-0.634664
0.495831
-0.403102
-0.712110
-0.070618
0.333086
0.499156
-0.762512
0.818111
-0.847641
-0.450088
-0.892447
0.916741
-0.681410
-0.576486
0.683506
-0.904902
0.765176
-0.444894
-0.742465
-0.850862
0.180704
0.690147
0.227601
0.803440
0.221159
-0.900389
-0.956737
0.685927
0.872013
0.101481
-0.130238
0.884634
0.997131
-0.020169
-0.345148
0.768775
-0.377042
-0.447663
0.835287
-0.220399
-0.902170
-0.061212
-0.291206
0.475572
-0.156918
0.160033
-0.495525
-0.703778
0.071888
0.199190
0.927370
-0.051586
0.143017
-0.423769
-0.076524
0.322934
0.725415
-0.000971
0.352792
0.354800
0.123163
0.426753
-0.785329
-0.236021
-0.994347
-0.613307
0.973364
-0.773741
-0.280171
0.147724
-0.231321
-0.158660
-0.707693
-0.956028
0.740352
-0.502684
0.686885
-0.707755
0.006828
-0.053163
0.475362
-0.960629
-0.718030
-0.256972
0.423943
0.537830
-0.415368
0.463185
-0.218666
0.785867
0.228545
-0.165747
0.351711
-0.332639
0.443587
-0.863814
-0.123415
-0.872720
-0.847813
-0.403641
-0.676814
0.356339
-0.992604
-0.857401
-0.706104
0.593968
0.627679
-0.988928
-0.216521
-0.568547
-0.322721
0.166637
0.452144
0.539213
0.352687
-0.678984
-0.205362
-0.265573
0.927841
0.880939
-0.403376
0.023064
0.039669
-0.438648
-0.005036
-0.814177
-0.806437
0.235723
-0.640753
-0.514009
-0.700064
-0.287704
-0.518570
0.157174
-0.455104
-0.473034
-0.464566
0.666528
-0.025301
-0.271883
-0.722962
-0.445224
0.544622
0.974338
0.398304
0.797357
-0.160088
-0.785641
0.582619
0.100980
0.391101
-0.507832
0.245616
0.952245
0.637276
-0.130822
-0.870756
0.413529
-0.510603
0.011335
-0.392370
0.918284
0.081052
0.027605
0.888159
0.363544
0.336915
0.800808
0.010473
-0.693311
0.612951
0.666204
-0.926056
0.021178
-0.564065
-0.688750
0.299645
-0.479952
-0.044823
0.312580
-0.552925
-0.464354
-0.598053
-0.367432
0.840524
0.940986
0.196865
0.577819
0.061202
-0.472188
0.800476
-0.175989
-0.229124
-0.082845
0.791049
0.363584
0.996218
-0.926034
-0.684050
-0.580824
0.357046
0.484052
0.690771
-0.137030
-0.286645
-0.501988
0.210971
-0.281678
-0.466562
-0.455795
0.880380
-0.898193
-0.616244
-0.727342
-0.528062
-0.168514
-0.705014
-0.108390
-0.920472
-0.094956
0.921572
-0.407057
0.726614
0.578658
0.588165
-0.059444
0.409495
0.653208
-0.530250
0.943108
-0.117754
-0.373757
-1.000645
-0.560711
0.821869
-0.311521
-0.940399
0.745784
-0.694606
-0.806389
0.325466
-0.929830
-0.900757
0.686774
-0.101593
-0.479853
-0.832396
0.244938
-0.563012
0.225293
0.664253
0.272797
0.776753
-0.015889
0.851910
-0.814554
-0.906799
-0.599612
-0.327302
-0.362507
0.137611
-0.602214
-0.852718
0.098106
0.924554
-0.269221
-0.357988
0.894801
-0.589745
0.791733
-0.241659
0.362488
0.157682
-0.041804
-0.878471
0.570409
-0.021493
-0.281182
-0.766896
-0.827584
0.475159
0.695424
0.340835
-0.310392
0.836034
1.004514
0.031506
-0.823224
-0.125307
-0.764071
0.579533
0.298625
-0.289399
0.837413
0.037261
0.411673
-0.786047
-0.101843
0.325444
0.090816
-0.000223
0.353499
-0.932105
0.675504
-0.681172
-0.309310
0.356547
-0.041544
-0.661045
-0.389812
0.960950
0.012460
0.744586
-0.030861
0.415090
-0.939586
-0.577640
-0.494296
-0.511543
-0.331586
-0.163987
-0.076714
-0.116091
0.268702
0.700001
-0.213758
0.834897
0.550747
0.005672
0.126427
0.874966
-0.332475
-0.935055
0.799110
-0.314806
-0.100469
0.014231
-0.444962
0.036500
0.879852
0.249538
-0.619996
-0.776296
0.351251
0.397240
0.283850
-0.379961
0.378049
-0.059363
0.066506
0.335328
0.005702
0.605056
0.033230
-0.667390
0.096593
0.378426
0.113099
-0.599218
0.583727
-0.932491
0.415138
-0.408367
0.186615
-0.824985
-0.345819
0.279299
-0.812893
-0.990433
-0.961671
0.280718
-0.239884
-0.214084
-0.389317
-0.641232
-0.762177
0.790252
0.473120
-0.281866
0.827790
0.784399
-0.359178
-0.867820
0.624292
-0.485461
-0.465684
-0.019491
-0.613297
-0.453400
-0.984998
-0.285978
0.677925
0.029781
0.061710
-0.860020
-0.241157
0.035216
-0.857830
-0.734645
0.947597
0.227314
-0.601502
0.057705
-0.456836
0.382686
0.307841
0.850319
0.195942
-0.644955
0.810612
0.727615
-0.023764
-0.051554
-0.934140
0.937107
-0.986389
0.608494
-0.051308
0.571739
0.834653
0.417834
-0.428958
-0.911078
-0.807253
0.301194
-0.835470
-0.269312
0.171629
-0.036430
0.854653
-0.291821
0.287869
0.341464
-0.680157
-0.813723
-0.478382
0.831984
-0.079105
0.249656
-0.580605
-0.718171
-0.304544
-0.444509
-0.461507
-0.902718
0.246793
-0.547952
-0.754295
0.842408
0.457237
0.988564
-0.827420
-0.631811
0.169202
0.700433
0.416095
-0.551792
0.837831
-0.018201
0.955404
-0.982274
-0.295490
0.359351
-0.701065
0.160674
-0.248585
-0.407726
0.891928
-0.478203
0.500543
-0.053105
-0.702285
0.138497
-0.581356
-0.292113
0.439549
0.315524
0.625657
-0.303846
-0.303690
-0.421643
-0.549732
0.734595
0.138561
-0.867970
0.692738
-0.115796
0.585230
-0.310788
0.383694
-0.513620
-0.218177
0.995788
0.522776
-0.648702
-0.894294
-0.150054
-0.118411
-0.682911
-0.147125
0.268155
-0.737370
0.264797
0.658911
0.039779
0.567889
-0.754777
-0.911784
0.278235
-0.269309
0.156581
0.716597
0.782924
0.210181
-0.838786
0.358067
-0.236191
-0.141148
0.736610
-0.866897
0.532467
-0.557816
-0.005025
0.377321
-0.312342
0.438716
-0.224758
-0.693544
-0.588841
0.275251
-0.176717
-0.846114
-0.618806
-0.072265
-0.553995
0.125223
-0.611545
0.161565
0.794416
0.051662
-0.616892
-0.934416
-0.883097
-0.176225
-0.091747
-0.389696
0.740781
0.636195
0.796218
0.275888
-0.963883
0.523896
-0.890055
-0.393931
-0.893955
0.897597
0.166689
0.039285
0.520967
0.015354
0.891715
0.990090
-0.944837
0.467454
-0.932375
0.751695
-0.869659
-0.935293
-0.804770
-0.061640
0.767413
-0.556869
0.178243
0.527836
0.909228
-0.577095
-0.764757
-0.910551
0.697920
-0.040167
0.156439
0.643638
-0.314918
0.220883
-0.735019
0.443618
-0.583692
0.788308
0.001420
-0.418866
-0.883518
0.286979
0.870989
0.640608
-0.656604
-0.505446
-0.723046
-0.990199
0.099303
0.775390
-0.045194
0.528215
0.316666
-0.686435
0.403444
-0.148606
0.753998
0.729420
-0.519302
0.695217
-0.583033
0.894270
-0.467772
-0.581096
-0.202451
0.496275
-0.411906
-0.266281
-0.837239
0.519210
-0.267793
-0.365649
-0.163837
-0.055907
0.686839
-0.066666
0.011638
0.673698
-0.702653
0.008135
0.319606
-0.742401
-0.074527
0.485815
0.685664
-0.287614
-0.113121
0.500709
-0.599861
0.719789
-0.186243
0.204111
0.047703
0.461953
-0.634665
-0.054694
0.992949
-0.882563
0.449452
0.596198
-0.160418
-0.292651
-0.416858
0.557628
0.796757
0.524030
-0.263452
0.132022
-0.223709
0.877202
-0.788282
0.251995
0.859270
0.059594
-0.853144
0.670779
-0.360947
-0.467810
0.125875
-0.181265
-0.309120
0.665385
0.111551
-0.398923
-0.489230
0.858249
0.940454
-0.516240
-0.639608
-0.291635
-0.771537
0.857153
-0.257719
-0.971095
-0.457686
0.370437
-0.229736
0.490371
-0.434855
-0.695922
0.593117
-0.054437
0.686761
-1.007256
-0.562358
0.236097
0.491987
0.948856
-0.336690
-0.180883
0.691545
-0.884364
0.821837
0.355560
-0.958466
0.825890
0.878013
-0.445215
-0.397453
0.325558
0.476054
-0.954202
0.857274
-0.133169
0.854581
0.817873
0.940699
0.932387
-0.939941
0.650472
-0.518658
-0.858654
-0.433440
-0.776356
0.792023
0.711132
-0.677935
-0.732175
0.612593
-0.911027
0.826827
0.751673
0.260060
-0.516981
-0.828899
-0.064340
0.820664
0.357885
0.977967
-0.313389
-0.345174
-0.736240
0.265673
0.790449
-0.082460
0.451238
0.196221
0.204587
-0.734091
0.968794
-0.561964
0.722150
-0.867741
0.664676
-0.442636
-0.264056
0.066482
0.089047
-0.190340
-0.430241
0.869958
0.873670
-0.253981
0.968348
0.104341
0.310106
0.279121
-0.848799
-0.956153
0.812997
-0.825472
-0.580635
0.961632
-0.475608
-0.797604
-0.644776
0.770179
-0.102022
-0.883310
-0.889044
0.666233
-0.987497
-0.124949
-0.487063
-0.355658
-0.028504
-0.511458
0.981614
-0.014176
0.259720
0.196406
-0.622670
-0.547048
0.537222
-0.647155
-0.391904
0.417867
-0.617570
0.678877
-0.268440
0.018880
-0.779161
-0.159979
0.215212
0.553435
-0.348208
-0.977873
0.529781
0.439795
0.564908
-0.915151
-0.128990
-0.950010
-0.052012
0.102045
0.916990
-0.398399
0.463021
-0.709809
0.525955
0.530684
0.364243
0.958827
0.351355
0.291796
-0.846136
-0.734858
-0.267641
0.414539
0.292215
-0.295728
0.971507
-0.592282
-0.257733
-0.314068
-0.954421
-0.130881
0.610027
0.806986
-0.598998
-0.723502
-0.497487
-0.198557
0.758687
0.356229
-0.747768
-0.758219
-0.741702
-0.355904
-0.390203
-0.901466
-0.721894
0.438904
-0.899595
-0.225362
0.420044
-0.542763
-0.841775
-0.541245
0.366683
0.481407
-0.123123
0.185629
0.027922
-0.439313
0.352869
0.431125
0.813660
0.736174
0.575590
-0.675523
-0.325821
0.439773
0.658081
