3072 30 10 1.0000 200 200 100
-0.137067
-0.921993
-0.595961
-0.174561
-0.884589
-0.405235
-1.439311
-0.683476
0.557883
-0.611625
0.563768
3.272259
-3.293892
0.035862
4.459000
1.484057
-0.415053
2.505029
0.181657
0.171334
8.074393
-0.925746
0.191679
-3.002038
2.502392
0.310453
0.126242
0.309447
0.156656
0.163292
-2.522374
0.102424
-4.297722
-1.785547
0.769709
0.135431
3.620934
0.351769
0.214050
-0.047722
0.765117
-0.011831
0.764501
-0.085059
-0.820991
-0.239516
0.764325
0.719212
0.093325
0.907316
-1.471981
0.357852
0.752036
-0.838182
-0.014427
0.694787
0.985250
-0.215033
0.173260
-0.500802
0.246626
-0.635598
0.440768
-0.631737
-0.566924
0.911468
0.789473
0.215673
-0.872664
-1.005138
0.055966
0.982672
0.104250
-0.815209
-1.076398
-0.273710
-0.599172
0.711179
-0.219132
0.698592
0.348593
-0.096096
-0.988073
-0.552456
0.175439
-0.602499
-0.330293
-0.294412
0.336418
0.018779
0.191773
-0.900192
-0.286446
-0.911952
-0.062823
-0.483234
0.397975
-0.223238
-0.361901
0.070264
-0.117121
-0.673039
1.007748
-0.195214
0.356845
0.313993
-0.447152
1.000151
0.344351
-0.975882
0.544007
-0.489430
-0.931173
-0.922751
-0.178064
-0.247502
-0.030678
-0.925286
0.427241
0.705677
-0.278230
0.225229
0.545283
-0.515876
0.749120
-0.047555
0.835269
0.278210
0.386283
0.932971
0.555597
-0.153755
-0.105745
0.798772
-0.133781
0.654123
-0.830763
-0.564328
-0.456036
-0.971906
-0.904382
-0.083728
0.774441
-0.376556
0.934603
-0.633203
-0.206884
-0.997961
0.565500
0.388912
0.455897
-0.773135
0.497117
0.306025
0.579222
0.984475
0.041331
0.238737
-0.544110
-0.393843
0.591095
0.123543
1.152515
-1.000411
-0.799614
1.204496
-0.015026
-0.814413
0.599516
0.123851
-0.644641
-0.488624
-0.401925
-0.928215
0.525822
0.183382
-0.289124
0.949607
0.585711
0.612040
0.787686
-0.203106
-1.148365
0.454858
0.682351
0.252154
-0.188859
0.435271
-0.661842
-0.817502
0.400899
-0.178080
0.193380
0.136077
0.461023
-0.511903
0.071417
0.967771
0.677570
-0.858915
0.831364
-0.476004
-0.529174
-0.186540
0.395680
-1.023173
-0.453508
-0.163835
0.875809
-0.949880
-0.668245
-0.349654
-1.031906
1.007793
-0.238262
0.181675
-0.852776
-0.072011
-0.076697
-0.671880
0.786647
0.908125
-0.377455
0.531024
-0.999021
1.042699
0.183343
0.095719
0.608516
-0.947755
-0.533615
0.517358
0.708032
-0.007429
-0.395887
-0.083947
0.640891
0.588872
-0.722102
-0.990957
-0.076215
0.916583
-0.125946
1.055055
0.096551
0.249232
-0.714868
-0.633589
-0.442072
-0.886186
0.064809
-0.020590
-0.782986
0.969731
-0.435511
0.067547
0.968894
-1.031185
-0.607602
0.173059
0.022692
0.601500
0.364870
-0.857292
0.376931
-0.728371
-0.459502
-0.957409
-0.748681
0.022817
0.140738
-0.390377
-0.997280
0.531649
0.457033
-0.890546
0.844203
-0.451268
0.397567
-0.001881
-0.640740
0.284107
-0.051918
0.492813
-0.363134
0.782523
0.871117
0.407101
0.882631
-0.624965
0.115627
0.591445
0.427319
-0.265735
0.248108
0.675888
-0.576414
-0.468507
0.522407
-0.219461
0.436491
-1.045172
-1.040520
-0.539179
0.059222
0.246007
-0.204395
0.001311
-0.440824
-0.454899
0.403824
1.118690
0.782964
0.022267
-0.346659
0.014071
-0.626187
-0.427302
0.819553
0.583547
-0.094719
-0.016425
0.500864
0.401751
0.754973
-1.096992
-0.321307
-0.305267
0.003048
0.804657
0.044466
-1.028607
0.682747
-0.677354
-0.075200
0.520352
0.966538
0.792734
-0.290825
0.870805
-0.283106
0.238435
-0.950864
0.487746
-0.748685
-0.161494
0.725614
0.125836
0.016731
-0.326654
0.626322
0.434235
-0.630192
0.583530
-0.899524
-0.403243
0.076228
-0.957674
-0.198894
-0.869239
0.635035
0.319769
-0.292337
-0.637094
0.538930
-0.107288
0.381103
0.997632
-0.345514
-0.473789
0.111908
-0.737425
-0.722831
-0.083149
-0.833545
0.650053
-0.654903
-0.331948
0.650276
-0.067198
-0.398852
-0.425013
-0.201476
-0.892247
-0.940315
-0.624914
0.872534
-0.963192
0.365821
-1.053514
0.091165
0.498105
-0.714059
-0.377960
0.313874
0.464877
-0.290685
0.859047
0.253734
0.350268
-0.139044
-0.422584
-0.003277
-0.780952
-0.550599
0.378688
0.954002
-0.611907
-0.164749
0.305861
0.824284
-0.306400
0.271905
-0.884982
0.098812
0.484105
-0.158418
0.446588
0.458062
-0.283790
0.185013
-0.020634
-0.901799
0.340844
-0.173605
0.689966
0.935341
-0.977927
-0.917700
-0.063488
0.567570
-0.125498
0.029557
-0.424482
-0.086091
0.197074
-0.217584
0.354904
-0.229685
-0.750968
0.085155
0.852937
-0.204709
0.451538
-0.280633
0.023071
0.999013
-0.978044
0.426495
-0.035284
0.638053
0.321849
0.572867
0.751197
0.440149
-0.225371
-0.655042
-0.212389
0.700690
0.848291
0.585694
0.807939
-0.815346
-0.708393
-0.102307
0.536955
0.957373
-0.000412
0.304141
0.475063
0.720063
0.483892
0.705744
-1.155425
0.065375
-0.372883
-0.753199
0.253806
-0.052536
-0.612103
-0.191813
-0.539884
-0.375060
0.264418
-0.779431
-0.737606
-0.342005
-0.408301
-0.390025
-0.499919
0.384185
-0.152145
0.181649
0.597348
0.445021
-0.722100
0.245669
0.474042
0.407081
0.858160
0.057396
0.375843
0.371813
-0.305204
-0.255033
-0.871541
0.756881
-0.962806
-0.905719
0.897737
-0.755327
0.684620
0.619952
-0.674025
0.523493
-0.391877
-0.032438
0.183254
-0.116700
-0.313551
-0.462280
0.665343
-0.467067
0.252415
0.420421
0.066948
-0.686977
-0.949611
-0.364065
0.441755
-0.056494
-0.180749
-0.724639
-1.024446
0.471445
-0.658627
0.147828
-0.210118
-0.013947
-0.835521
-0.095694
-0.245927
-0.405125
-0.152154
-0.635460
-0.535535
1.022901
-0.556274
0.005413
-0.787525
0.880115
-0.708493
-0.541463
-0.646592
0.684992
-0.663875
1.057855
-0.442822
0.872896
-0.743873
-0.452848
0.993902
0.505170
-0.109138
0.706591
0.079875
0.291732
-0.894652
0.711603
-0.271564
0.698781
-0.086363
-0.141265
-1.061618
-0.305848
0.635701
0.955133
0.081921
-0.078676
0.565937
-0.504661
-0.921662
-0.328081
0.917921
0.106934
-0.506426
-0.185669
0.868969
0.100626
0.582732
0.571788
0.463810
0.672095
0.226838
-0.281178
0.416193
0.120668
-0.697317
0.570008
-0.445056
0.836058
-0.487655
0.526376
0.618609
-0.716606
-0.558724
-0.508689
-0.446106
0.992177
0.574835
0.612655
0.372067
-0.522325
-0.180777
-1.135863
-0.937147
-0.149705
0.393928
0.544900
0.096073
-0.172657
0.706636
0.819642
-0.273297
0.263624
0.008549
-0.058179
-0.453271
0.814900
0.318919
0.118719
-0.818418
0.052032
-0.437294
0.919961
-0.796308
0.726202
-0.984522
-0.925663
-0.272675
0.594524
0.669439
0.492679
0.598823
0.026660
0.865216
-0.441334
-0.977030
0.623250
-0.042992
0.821489
1.106590
-0.145598
0.155785
-0.262865
-0.299169
0.137598
0.270447
-0.002394
-0.959892
0.212940
0.385180
-0.526997
-0.136758
1.151249
-0.764475
0.204059
0.180938
0.655168
0.584977
0.259352
0.462551
0.450327
0.614735
0.234132
-0.789866
-0.473361
0.632688
-0.795807
0.437609
0.242190
0.160605
0.008803
-1.179358
0.447148
0.752646
-0.711417
0.404823
-0.649586
-0.883785
0.583982
0.958206
-0.895839
-0.824510
0.178733
-0.407809
0.907109
0.108024
-0.660396
-0.083269
-0.169441
-0.103606
-0.974933
0.212648
-0.048696
0.269629
-0.021498
-0.830943
0.796287
0.141975
-0.083892
-0.867054
-0.149972
0.609376
-0.647411
-0.904644
0.678236
0.177391
-0.466814
-0.587982
-0.413351
0.033763
-0.214884
0.731186
0.625173
0.879323
-0.267801
0.633744
0.660793
0.814260
0.349286
-0.076992
0.711162
0.877146
0.410570
-0.115938
0.845855
0.436415
-0.522567
-0.145359
0.899367
-0.010238
0.801356
0.590095
-1.155456
-0.967144
-0.308242
-1.002946
-0.254043
0.703054
-0.108959
0.487569
-1.042842
0.184020
0.556224
-0.030308
-0.589585
-0.850898
0.657452
0.250048
0.209418
0.399880
-0.531733
-0.764697
0.122593
0.416638
1.285915
-0.858044
0.942857
-0.423742
-0.583090
0.436058
-0.780897
-0.024513
-0.635626
-0.435213
-0.758861
0.693337
-0.342663
-0.278017
0.815313
-0.200027
0.389973
0.230815
-0.466477
-0.952713
0.327860
-0.210571
0.799301
-0.667447
0.789595
0.113318
-0.941943
0.523486
0.033861
0.472016
1.013649
0.298173
-0.075325
-0.589265
0.949236
0.120149
0.639308
-0.636094
0.223184
-0.192219
0.162222
-0.985671
-0.127482
0.596484
0.818986
-0.233632
0.821138
0.239556
1.057214
0.381966
-0.694417
0.719481
0.925129
0.148682
0.569919
1.043411
-0.086409
-0.319801
0.210807
0.293499
-0.479277
0.283906
-0.291545
0.749878
0.966434
0.306192
0.911362
-0.205829
0.613247
-0.716295
0.002423
0.533831
-0.207245
-0.195264
0.814091
0.137201
-1.057047
-0.685097
-1.020582
-0.338825
0.237362
-0.362943
-0.191772
-1.042555
0.373739
-0.390192
-0.977975
0.682885
0.021822
0.620538
-0.072944
1.384366
-0.631596
-0.754566
0.705104
0.978717
0.707090
-0.065713
-0.282040
0.466046
0.889541
-0.511643
-0.541661
-0.212501
0.028429
-0.451187
0.111027
-0.602922
-0.774980
0.192320
-0.123891
0.234421
-0.330947
0.340737
-0.070244
-0.016869
0.277319
-0.319773
0.400233
-0.456277
-0.833397
0.429158
0.605458
-0.709277
0.209957
0.362216
-0.605255
-0.714854
-0.115658
-0.303692
-0.731508
-0.715510
0.932301
0.634577
0.774387
0.806311
0.125325
0.776299
-0.067248
-0.047094
0.495050
-0.332955
-0.724304
0.574714
0.561656
-0.069891
0.260789
0.071126
-0.091282
0.376805
0.556646
0.086409
0.790231
-0.697189
-0.569790
0.458597
0.185577
-0.177016
0.940322
0.408121
0.182446
0.034405
-0.860176
0.118633
-0.207821
0.343847
0.303246
0.263724
0.786844
1.018663
0.666929
0.555772
0.600740
0.031804
0.535144
0.254252
-0.334308
0.021105
-0.402348
0.072463
0.526178
0.343601
0.512207
0.513306
-0.224899
-0.693687
0.528191
-0.336918
0.404886
0.119638
-0.090689
-0.992470
0.775278
0.780701
-0.638548
0.622103
0.733095
0.989520
-0.706935
0.274290
0.868823
-0.205222
0.932201
0.367093
0.568056
-0.208735
-0.899400
-0.003128
-0.490649
-0.363291
-0.438499
-0.905413
-0.892445
-0.787415
-0.891667
-0.395921
0.740030
0.428459
0.379130
0.144292
0.041617
0.059988
0.996203
-0.617070
0.272725
0.841407
0.228320
0.254474
-0.019955
0.514931
0.131809
-0.547845
0.387756
-0.698209
-0.002040
-0.172468
0.207847
0.588199
0.338967
-0.413124
0.263813
0.728557
0.774274
-0.877328
0.474477
0.602086
-0.199895
-0.586812
0.410633
-0.582074
-0.320725
-0.564062
-0.600257
-0.049031
-0.478800
0.268586
0.295547
-0.657399
-0.385817
-0.620327
0.600863
-0.897227
-0.950631
-0.725094
0.714676
-0.265376
-0.641556
0.103567
0.226208
-0.749699
-0.490906
0.503942
0.249104
-0.177049
0.635861
-0.714697
0.939911
-0.032102
0.144348
0.497148
1.001557
0.416759
0.126035
-0.395409
-0.310311
0.183401
-0.593768
0.746133
-0.618578
-0.023480
-0.559183
-0.685308
-0.287709
-0.036835
-0.596656
1.277590
-0.574764
0.631184
0.355911
1.074948
-0.748917
-0.438397
-0.398483
-0.536402
0.208503
-0.307200
-0.970602
0.188252
0.446478
-0.417058
0.899960
0.026607
-0.037864
0.542690
0.644521
-0.164582
-1.369305
-0.235876
0.540928
0.425810
0.599437
0.888393
0.208077
0.526872
0.927847
0.833054
0.163821
-0.634227
0.049330
-0.632471
1.186766
-1.012569
0.010736
0.190802
0.073913
0.469977
-0.008741
0.685639
-0.149778
0.560177
0.399893
-0.678364
-0.421478
-0.988951
0.882086
-0.697485
-1.232859
-0.374842
0.303847
-0.496676
-0.338299
-0.957510
0.410478
-0.285776
0.064208
0.329763
-0.422499
-0.823649
-0.151746
-0.612095
0.986551
-0.931355
-0.156686
-0.905547
-0.459681
1.120130
0.486952
1.086546
-0.420121
-0.206389
-0.861743
0.556092
0.464388
-0.283146
-0.471199
-0.758816
-0.641117
0.695977
-0.984216
-0.064991
-0.366279
0.720887
1.000002
-0.184988
0.519498
0.479250
0.910537
0.194535
-0.758592
-0.712623
0.106013
0.987545
-0.726009
-0.214846
-0.453133
0.822892
0.678853
-0.715400
0.559880
-0.007001
0.677219
0.462369
-0.312775
-0.787020
0.215694
-0.247846
0.814155
-0.060854
-0.895199
-0.740567
0.827352
0.426309
0.689414
-0.337906
0.289419
0.122085
-0.421515
-0.199161
0.153359
-0.127877
0.193320
-0.403574
-0.777957
-0.937979
0.394342
0.257222
-0.989774
0.047608
0.962104
0.743199
0.101803
0.296733
0.588791
0.109871
0.722820
0.808144
-0.047823
0.149652
-0.910602
0.934516
0.912292
0.154812
0.761413
0.082987
0.564790
-0.516549
0.140717
0.746808
-1.087067
-0.223228
-0.370985
-0.670517
-0.582955
0.747717
-0.286473
0.310302
0.879523
-0.146315
-0.108183
-0.264630
0.434253
0.876923
0.589381
0.345082
-0.643241
-0.222610
-0.274259
0.802320
-0.385556
0.271583
0.498596
0.093220
0.538520
0.181636
-0.920547
-0.074766
0.588904
-0.773958
0.366731
0.257153
0.102848
0.860117
-0.157305
-0.010745
0.315154
-0.223295
0.449190
-0.000983
0.404176
0.364126
0.388492
-0.134086
0.879745
0.004980
-0.711927
-0.201224
0.773883
-0.706918
0.323165
-0.818179
1.329962
0.944367
0.684849
0.223527
-0.523266
-0.002607
0.285765
0.575405
-0.205248
-0.199803
0.254547
-0.366196
0.860641
0.701634
0.227282
0.654391
0.994215
0.616009
0.108741
-0.313170
0.539517
0.140350
-0.814754
-0.359112
1.180696
0.648581
-0.701077
-0.817226
-0.690825
-0.628260
0.836751
-0.682129
0.435511
-0.938298
0.295989
-0.630787
-0.724002
-0.251657
-0.913627
0.086928
0.425009
0.911738
0.132531
-0.677373
0.349638
-0.390730
-0.857667
0.041040
0.026084
0.707838
-0.847659
-0.552020
0.024566
0.302466
-0.660348
-0.317472
-1.078149
-0.528598
0.180395
-0.445790
0.377368
0.551749
0.783847
0.233772
0.910374
0.511838
1.126785
-0.745517
-0.455768
-0.848842
-0.297107
0.453415
0.888570
-0.767199
0.869788
-0.370960
-0.885080
0.891462
0.366844
-1.066346
-0.557280
0.568103
-0.028676
-0.345955
-0.160727
0.019012
-0.894909
0.438462
-0.667695
-0.402444
0.567919
0.322617
-0.729669
-0.847302
-0.154811
-0.788444
0.598103
0.468259
0.282340
-0.941146
0.361600
-0.464121
0.819249
-0.845619
-0.503417
-0.350058
-0.874262
0.328598
-0.489814
-0.100422
0.500664
-0.473271
0.697546
0.011630
-0.301442
-0.076794
1.012114
1.032990
0.028578
0.697828
0.978405
0.213825
-0.487380
0.238871
0.094088
-0.852717
0.043684
-0.878201
0.453866
0.615880
-0.029886
0.918277
0.477560
-0.689449
-0.645321
-0.385973
0.853541
-0.127608
1.206141
0.388116
0.732972
-0.514009
-0.404777
0.391245
0.910203
-0.437517
0.906987
-0.572903
0.152521
-0.542115
1.126878
0.365493
0.394964
-0.574882
0.204645
-1.043932
-0.591567
0.690412
0.472713
0.984681
0.461175
-0.781293
0.697951
0.558309
1.083608
-0.505716
-0.755431
-0.784664
-0.614320
-0.262105
0.670251
-0.035929
0.193889
0.114541
0.565441
0.356231
-0.800561
-0.369563
1.010734
-0.211893
-0.695801
0.541165
0.296511
-0.979553
0.058599
-1.078637
0.291859
-0.165214
-0.825178
0.803007
0.149453
0.838554
0.637886
-0.550695
0.667915
0.707994
0.908498
0.897788
-0.372924
-0.877552
-0.147724
-0.421105
-0.592242
-0.589484
-0.076692
0.531034
-0.459777
0.455720
-0.916295
-0.714709
0.337492
0.817766
-0.822772
0.747908
0.551224
0.021796
0.606098
-0.479339
0.304715
0.951929
-0.472118
0.559169
-0.027855
-0.129822
-0.256887
0.691328
-0.399126
-0.640708
-0.641650
-0.995664
-0.929173
0.056777
-0.106125
0.982278
0.424772
0.669743
0.840570
0.739485
-0.637952
0.713957
-0.665852
-1.065717
-0.560470
-0.435481
0.608894
0.268383
-0.673629
0.435544
0.357252
0.462323
0.895180
0.509706
0.062940
-0.595775
-0.659226
-0.696060
-0.715920
0.606315
-0.276350
-0.512297
-0.744694
0.917425
-0.670902
-0.359922
-0.530172
-0.699817
-0.032781
0.426730
-0.335176
0.001319
0.940598
-0.762971
0.761395
0.949870
0.267122
0.359968
0.285082
0.441496
0.581538
-0.033079
-0.017359
0.410508
0.950191
-0.086765
0.086256
-0.468899
-0.351512
0.855538
-0.871606
-0.158734
-0.218511
-0.677466
0.645431
-0.950512
-0.167524
-0.916970
-0.126867
-1.145736
0.021309
0.156234
0.472348
-0.505270
0.209294
-0.072043
-0.701979
0.498539
-0.713286
0.730323
-0.863295
0.088373
-0.762001
-0.229560
-0.274268
-0.350806
-0.632174
-0.434841
-0.313951
0.651931
0.412408
-0.618248
0.345248
0.036377
0.029247
0.579395
0.069402
0.021477
-0.649379
0.007479
0.512016
0.813048
-0.353708
-0.936764
0.692322
0.449220
0.562457
0.094502
-0.111161
-0.670511
-1.088319
0.380911
0.574383
0.435300
-0.021446
0.847187
0.027381
0.367213
0.063518
0.512335
-0.589012
0.104461
-0.453078
0.384254
0.770653
0.062539
-0.428498
-0.025350
1.315302
0.391466
-0.755581
-0.867693
1.021238
-0.339729
-0.539244
0.518029
0.346152
0.629360
0.662887
0.705531
-0.807864
0.985994
0.590724
0.052996
-0.362585
-0.338322
0.376544
-0.430571
-0.196696
0.550065
0.066909
0.398375
0.807505
0.517882
-0.541237
-1.010523
-0.172673
0.499015
-0.411770
-0.045643
1.004105
-0.876056
1.106387
0.134469
-0.907488
0.649915
0.525547
-1.174793
-0.094529
-0.920261
0.595796
-0.699759
0.001915
0.540152
-0.139884
0.172306
-0.452096
-0.289635
0.257172
0.928593
-0.580339
-0.162398
0.219518
-0.099123
0.221918
0.705034
-0.522475
-0.634372
-0.238334
0.842277
-0.138546
1.013612
-1.140318
0.754238
-0.862542
-0.692368
0.641655
0.413446
0.339942
-0.199065
-0.186433
0.892145
-0.575154
-0.241077
-0.900903
0.427183
1.008930
-0.657987
0.542583
0.160942
-0.420273
0.042117
-0.684989
0.861419
0.469127
0.647843
1.043506
-0.597803
-0.432515
0.004340
0.904892
-0.323789
0.469438
0.022335
-0.656743
-0.473162
-0.550506
0.668932
-0.004235
0.423091
-0.014925
0.734333
0.646138
1.122135
0.526391
0.314143
0.952764
0.709250
0.163550
0.180656
0.489582
-0.176851
0.121482
0.229380
-0.712574
0.694408
-0.195240
0.159333
-0.634086
0.752073
-0.762109
-0.729571
-0.695928
-0.078015
-0.692249
0.740462
0.007033
-0.868233
0.812680
0.381672
0.151234
-0.521652
-0.484816
-0.065404
-0.099495
0.471286
-0.121778
0.934540
-0.167640
0.550177
-0.781276
-0.175203
-0.682814
-0.086401
-0.964231
-0.573539
-0.132882
0.779181
-0.613658
0.865606
-0.377275
-0.556159
0.080387
-0.705025
-0.974345
-0.559632
0.319055
-0.497413
0.094279
-0.740514
-0.920174
0.508638
-0.470362
0.981574
0.772376
-0.753396
0.310188
0.471270
0.835955
-0.328379
-0.627912
-0.494153
0.832305
0.799918
-0.327900
0.228082
-0.533325
0.193656
0.124342
0.484961
-0.292781
0.101026
0.481132
-0.980968
-0.374741
0.256860
0.129553
0.664421
0.217636
-0.116302
-0.261065
-0.591060
0.661532
1.057321
0.453720
0.883833
1.006923
0.770672
-0.610373
-0.197837
-0.123222
0.382161
-0.150301
0.545082
-0.221253
0.706327
-0.394853
-0.408921
0.749897
0.338058
-0.560632
-0.574380
0.163662
-0.704809
-0.211181
0.100827
0.409007
-0.486673
0.147692
-0.363444
-0.998803
-0.037228
1.174663
-0.110261
0.564500
0.075194
-0.593088
0.447507
0.924795
0.605057
-0.342332
0.009524
-0.409001
-0.806772
0.788280
0.304690
-0.532125
-0.231011
0.062740
0.662365
-0.871343
0.418070
-1.023704
0.336628
-0.300581
-0.309252
0.945492
1.162588
0.381512
-0.705278
-0.975753
-0.248840
0.002094
0.694758
-0.906136
0.555886
0.597428
0.188846
0.105920
-0.227181
0.701163
0.035061
-0.605526
0.676223
0.221569
0.527278
-0.780011
0.313065
0.172416
-0.337378
0.497342
0.141881
-0.145765
-0.794618
-0.810363
-0.930071
0.491358
0.516887
-0.043791
-0.894061
0.393539
0.367028
0.478629
0.215811
0.439855
-0.210184
0.533059
-1.000997
0.503921
-0.233932
0.429590
-0.734442
-0.693992
-0.002857
0.400936
-0.964091
-0.773025
-0.232997
0.706638
0.078707
-0.353862
0.321112
1.012682
0.542095
0.772625
-0.184843
0.996686
-0.392414
-0.721933
0.142007
0.597050
0.579817
-0.295587
-0.770243
-0.369267
-0.088493
-0.037127
-0.886943
0.966208
-0.562577
0.895198
0.680592
-0.167985
0.603898
-0.907826
-0.790382
0.943830
0.637492
0.896212
0.744443
-0.180233
-0.404362
1.198607
-0.000602
0.234798
-0.640305
0.539971
-0.312007
-0.191131
-0.281656
-0.132239
-0.082424
0.128096
-0.431444
0.893118
-0.960934
0.294616
-0.419697
0.994439
-1.003570
-0.385683
-0.458683
0.248444
-0.734691
0.914939
0.026067
0.025045
0.255288
-0.689973
0.661366
0.462340
-0.237457
0.946203
-0.263683
-0.829255
-0.352875
0.700969
0.208532
-0.093033
-0.513779
0.379408
0.541157
-0.596354
0.567748
-0.525476
0.563133
0.602261
0.577999
-0.326306
-0.217087
0.320848
0.158300
0.281475
-0.172698
-0.966602
-0.336182
-0.494554
0.823081
-1.103083
0.122664
-0.871293
-0.944596
-0.374485
-0.690589
-0.754019
0.121292
0.592707
0.197011
-0.710807
0.343784
0.746079
0.777017
-0.595039
0.637620
0.483627
-0.944948
0.826499
0.037179
0.079222
1.020364
0.448155
0.914074
0.037994
0.354898
0.678304
0.131562
0.442509
0.340017
-0.593191
-0.628025
-0.677229
-0.216637
0.083047
0.241414
0.459911
0.491155
0.876409
-0.732415
0.816326
-0.296943
-0.172095
0.537309
0.174484
0.209869
0.385078
0.587603
0.595969
-0.251682
0.070183
0.532039
-0.071454
-0.221663
0.698967
-0.156415
0.450104
0.592781
0.397864
0.478011
0.323298
0.676181
-0.014447
-1.001493
0.615846
-0.970649
-0.705989
-0.726451
0.556629
-0.705792
-0.052577
-0.276798
0.019325
0.145608
0.286713
-0.276674
0.534348
0.454726
1.346088
0.615081
-0.239387
0.857325
-0.473334
0.674840
-0.926030
0.020174
0.802711
0.495195
1.325240
0.222761
0.408357
0.629054
0.667896
0.415542
0.841574
0.388691
0.241624
-0.841243
0.068623
0.978958
-0.788353
0.973371
0.292067
0.197925
-0.088252
-0.718677
0.523431
-0.510119
-0.409489
-0.779141
0.514049
-0.325490
0.162047
0.950366
0.722099
-0.650780
-0.914087
-0.413607
0.863579
-0.369518
0.923332
0.390115
-0.173320
1.023183
0.356653
0.716982
0.348731
-0.515255
0.274081
0.310253
0.203590
-0.056708
0.315591
0.213036
-0.041427
0.444569
-0.693275
-0.969835
0.314785
-0.944564
0.554482
-0.170410
-0.542173
0.240815
0.259316
-0.056497
0.090560
-0.502431
0.423661
0.898718
0.265895
1.213860
0.676384
-0.423425
0.359482
-0.753008
-0.055450
0.763378
-0.186513
-0.772907
-0.665393
0.943372
0.668245
0.400518
0.486700
0.710360
0.097147
-0.586229
1.170241
-0.296938
0.637755
0.883098
-0.906450
-0.456365
0.407173
-0.645668
-0.810862
-0.528908
-0.621700
-0.691717
0.575781
-0.399098
0.482557
0.016612
0.074117
0.357970
-0.329091
0.527915
-0.191869
-0.376648
0.152752
-0.421247
-0.073656
-0.143129
0.785159
-0.319928
0.817872
0.820494
-0.313871
-0.177135
-0.489504
0.366151
-0.628210
-0.639095
-0.925182
-0.850721
0.992465
-0.598669
-0.373945
-0.368692
-0.827703
-1.070047
-0.719055
-0.035471
-0.135398
-0.391978
-0.216147
-0.793046
-0.878804
-0.133317
-0.348381
-0.442167
0.229203
0.526470
0.221665
0.553903
0.196737
0.217107
0.782335
-0.398262
-0.882605
-0.286683
0.414716
-0.483750
-0.781731
0.335604
-0.478365
0.354920
0.347677
-0.588473
-0.330323
0.086590
-0.047370
0.068204
-0.608051
-1.031497
-0.724758
-0.145277
0.904177
0.465651
-0.700289
-0.859547
0.586743
-0.047998
0.462927
-0.698265
-0.424943
0.927797
0.939963
0.159364
-0.167710
0.218083
0.153650
-0.160212
0.297878
-0.599419
0.286335
-0.634898
-0.787930
-0.177150
-0.324886
-0.717945
0.171683
0.253500
-0.500668
-0.546304
-0.188110
0.012647
0.785333
0.283857
-0.682714
0.589254
0.674555
0.600658
-0.793982
0.159350
0.837149
0.385952
0.826655
-0.847739
-0.712631
0.150377
0.063671
-0.712404
0.076538
-0.499063
-0.702484
0.469511
-0.001742
-0.644857
-0.408655
-0.473528
0.253755
0.286058
0.892035
0.264386
-0.902667
0.533452
-0.159370
0.231953
0.587301
-0.140770
-0.775969
0.453921
-0.712490
0.473708
-0.137654
-0.606393
-0.618537
0.807143
-0.877518
0.595431
-0.411729
-0.490087
-0.241236
0.059480
0.550017
0.578360
0.477141
0.635779
-0.562124
-0.563717
0.657075
0.939228
0.819520
-0.182297
0.253881
-0.759344
0.715516
0.713617
0.265832
-0.908919
0.258387
-0.459061
0.114251
0.144177
-0.031853
0.431198
-0.327357
-0.138091
0.103046
-0.893113
-0.889208
0.139881
-0.820418
0.555052
0.094645
-0.705367
-0.846611
-1.039765
-0.559875
-0.583646
0.379242
-0.839670
0.007086
0.731629
0.640841
0.624329
0.257591
-0.615974
0.973317
0.398007
0.359545
-0.385742
0.105558
0.028315
0.627587
0.678224
-0.424059
-0.419053
-0.231041
-0.649264
0.679812
-0.626045
0.293790
0.227749
-0.263401
0.845925
-1.107454
0.014237
-0.762518
0.549420
-0.148722
-0.976052
-0.214882
0.423783
-0.554283
0.461714
0.658365
0.155598
0.123117
-0.262461
-0.962546
0.360573
-0.382853
-1.083181
0.849335
0.371558
-0.412830
-0.467541
-0.727199
0.260781
-0.178294
0.739526
-0.694916
-0.198003
-0.345187
0.195534
0.527522
-0.507984
-0.308149
-0.309320
0.135715
0.689986
0.086522
0.067047
0.428753
-0.257551
0.619229
-0.038533
0.205649
-0.696734
0.267986
0.479194
-0.416715
-0.405724
0.770275
0.393418
-0.167960
-0.694477
0.135474
-0.660834
0.262493
-0.402030
-0.423440
0.264704
-0.088353
0.853293
0.411142
-1.012859
0.186757
0.590773
-0.236149
-0.909145
-0.633060
-0.414555
-0.119942
0.222886
0.544882
-0.950494
0.746477
-1.014349
-0.566988
0.413297
0.113372
0.241841
0.754803
-0.877188
0.171242
1.121926
0.124683
-0.239027
-0.579029
-0.441147
0.592900
-0.894770
-0.968357
-0.110495
-0.045293
0.813991
0.662217
-0.624170
0.678682
0.335627
0.535321
0.372625
-0.148579
-0.008528
-0.651391
-0.157127
0.747799
-0.951187
0.696951
0.109665
1.160758
0.362944
-0.792075
0.056926
0.492199
0.954004
0.700837
0.272971
0.584985
0.923133
0.173483
0.969489
-0.781303
-0.305344
-0.330671
0.935545
-0.453033
0.547989
-0.519194
-0.641616
0.700645
-0.477353
-0.797437
0.275861
0.746439
0.552170
0.898058
-0.826062
0.270198
-0.802488
0.980576
-0.388481
-0.640361
-0.554257
0.095374
-0.664690
0.204404
-0.929918
0.571220
-0.203172
-0.515778
-0.550757
0.907885
-1.023539
1.056584
0.790507
0.316914
0.136399
-0.600712
1.028357
-0.319415
0.316955
0.924595
0.143571
0.455663
0.242778
0.765861
-0.016798
-0.932665
-0.201313
0.403521
0.449684
-0.416248
-0.007784
0.890735
-0.725591
0.196578
0.752967
0.185607
0.579336
-0.224080
0.728928
-0.412761
-0.596822
-0.596553
-0.140902
1.063705
-0.506654
-0.078445
-0.236880
-0.454356
0.934112
-0.186017
0.621191
0.475404
-0.423691
-0.702596
-0.940129
0.662408
0.305078
0.467335
-0.314651
-0.373831
-0.458635
0.669530
0.697854
0.829405
-0.226878
0.591217
-0.721853
-0.683846
0.637777
-0.467783
-0.267830
0.409686
0.429142
0.295173
-0.914020
0.554201
0.495604
-0.312006
0.223475
-0.493272
0.472686
0.842645
-0.656493
0.563285
-0.034364
-0.486404
0.571228
0.515970
0.407244
0.567203
0.754543
0.224505
0.422210
0.368063
0.785500
-0.787259
0.464116
0.056513
-0.597630
0.694227
0.904574
-0.672364
-0.649403
-0.372255
0.335507
-0.586024
0.212588
-0.197103
-0.736550
0.753791
-0.624827
-0.530468
-1.234406
0.553600
-0.186425
-0.920358
0.030536
1.114241
0.547220
-0.646218
-0.689938
0.421229
-0.315987
-0.531516
-0.080671
-0.224575
-0.111010
0.006379
-0.457419
-0.982295
-0.396704
0.154916
0.008660
-1.370412
0.120735
-0.864663
0.550846
0.538423
-1.053826
0.667818
-0.350877
-0.265026
-0.289188
-0.368924
0.810786
-0.067839
-0.525279
-0.638559
0.482122
0.916350
-0.707026
0.538683
0.139687
-0.555286
-0.309716
0.466858
-0.410901
0.654996
-0.999946
0.080923
-0.615006
-0.539648
-0.175516
-1.122385
0.205061
-0.163755
-0.868333
0.404274
-0.905309
-0.444043
-0.487566
-0.400870
0.136748
-0.528739
0.470756
-0.270302
0.443379
-0.445439
0.614897
0.286090
0.126383
0.779926
-0.120608
0.038930
0.961436
-0.314803
-0.901944
-0.471183
0.618285
0.751686
-0.066318
-0.602998
0.902014
-0.981955
-0.762080
0.695337
0.704011
-0.111726
-0.456459
0.273135
0.133630
-0.152142
-0.297795
-1.056950
0.992541
0.682037
-0.664007
-0.656847
-0.949808
-0.983028
0.925153
0.373233
-0.310501
-0.975182
-0.052171
-0.292983
0.785303
-0.436307
0.671613
0.126569
0.848468
0.674818
0.761333
0.312370
-0.684067
0.348286
0.121820
1.072096
-0.684613
0.707759
0.754120
0.256070
-0.130636
-0.218854
0.058673
-0.926354
0.557647
0.436484
-0.044282
-0.449893
-0.629166
-0.323475
-0.295709
0.261078
1.245662
-0.628754
0.742533
0.158108
0.551484
-0.800930
0.917344
-0.453042
0.174325
-0.589085
0.009292
-0.770460
0.290140
0.136504
-1.006387
0.932969
-0.440199
0.566361
0.613417
-0.815272
-0.500065
0.754062
-0.793761
-0.481245
-0.627458
-0.911904
0.183325
0.182255
1.141693
-0.967087
0.883023
-0.497251
0.315195
0.926584
0.351276
0.284020
0.938328
-0.092484
-0.838996
0.237202
0.115252
-0.652007
-0.839300
-0.292500
-0.560378
-0.760143
0.017369
-0.194571
1.295644
1.017636
0.024102
0.035446
1.018240
0.107810
0.666438
0.216332
0.973400
0.879854
0.292458
0.286332
0.196309
-0.623318
0.309220
0.097557
-0.316872
0.346608
0.055944
-0.510772
-0.543913
-1.024337
0.942144
-0.340096
-0.732764
0.729300
0.902556
-0.683517
0.318652
-0.505367
0.369584
-0.123541
-0.156775
-0.269798
-0.770872
0.736271
-0.760719
-0.089193
-0.787009
-0.251075
-0.781220
-0.090588
0.533455
-0.003607
0.870714
0.823963
0.470391
0.944947
0.468393
0.350199
-0.875776
-0.011214
-0.072005
-0.509368
0.806373
1.118048
-0.098407
-0.365406
0.353789
-0.808136
-0.553620
0.500804
-0.508415
-0.122957
-0.579868
-0.418380
0.339283
0.168471
0.658484
0.821997
-0.682150
-0.120502
-0.053139
0.578548
-1.018003
0.968912
-0.894789
0.314931
0.602886
-0.910486
0.464968
0.760832
-0.837386
-0.461612
-0.264476
-0.118288
0.162590
-0.030925
-0.798260
0.661024
0.458463
0.027998
-0.849364
0.667097
0.601495
-0.007543
-0.225196
-0.303885
0.031733
-0.655343
0.182245
-0.604588
-1.054846
-0.286960
-0.616287
-0.284391
0.387032
0.517132
-0.369121
-0.718813
-0.520045
1.021105
-0.546526
-0.121830
-0.713093
-0.852345
-0.030197
0.799842
0.272188
-0.650850
0.367061
0.981778
0.269868
-0.063612
1.055541
0.708609
-0.216111
-0.060564
0.141979
0.345506
-0.213485
-0.608049
0.314646
0.945395
0.158430
0.667771
-0.549468
-0.575514
0.616269
0.153649
-0.175405
0.856897
0.968286
-0.810864
0.027379
0.281275
0.369816
0.981819
0.626907
0.241847
-0.134274
0.263903
-0.346145
-0.861023
0.009530
-0.126392
-0.100414
0.587704
-0.220270
-0.368054
-0.273783
0.064012
0.453002
-0.126607
-0.556482
-0.904221
1.077128
-0.728933
0.573402
-0.821315
0.519137
-0.094990
-0.561200
-0.278223
0.823259
-0.245315
0.273471
-0.835178
-0.688677
-0.610799
0.410494
0.579728
0.096236
-0.248454
-0.755747
0.514304
-0.642566
-0.512486
-0.730017
1.115401
0.965688
0.321119
0.153255
0.206470
0.982907
-0.523133
-0.707761
-0.053988
-0.988208
-0.986496
-0.016823
-0.791913
-0.137091
-0.567197
0.534143
0.088621
-0.539808
-0.571992
-0.397517
0.591996
-0.492817
-0.074517
0.026991
-0.247630
0.687806
-0.753457
0.935655
0.707615
-0.170814
-0.555831
-0.632681
-0.310735
0.901434
0.271773
-0.497118
0.363879
0.473420
-0.405878
-0.492369
-0.228322
0.930729
0.285337
-0.757040
0.186153
-0.870446
-0.663000
0.481404
-0.292830
-0.058437
0.044504
0.698993
-0.693382
0.675576
0.774520
-0.671925
0.917896
-0.068472
0.016946
-0.617917
0.613135
0.403484
0.097860
-0.002777
0.055159
-1.034130
0.473566
0.423961
-0.166680
0.074037
-0.078189
0.717320
0.815207
1.021746
0.523234
-0.649846
0.547255
0.723959
-0.488508
-0.291050
0.066611
0.338197
-0.911522
-0.111837
0.778609
0.113207
0.455002
0.058045
0.212460
-0.209064
0.158297
-0.765470
0.869787
1.019242
0.540378
0.327169
0.589998
0.020479
-0.198044
-0.876639
0.619145
-0.595853
0.455019
-0.263095
0.162815
-0.928120
0.494042
-0.724654
0.744765
0.552959
0.519775
0.688158
0.033219
-0.628569
-0.804656
0.478271
0.596176
0.418091
0.507549
-0.894047
0.145545
-0.403361
0.797000
-0.553937
-0.341924
0.343597
-0.875267
1.000689
0.105963
0.482862
0.097703
-0.132997
0.427614
-0.494336
0.376303
-0.429353
0.321886
-0.536544
0.195021
-0.714197
-0.526119
0.785231
-0.602569
0.702786
0.716221
-0.949872
-0.702678
-0.297032
-0.788269
0.779512
0.733355
-0.063385
-0.949256
0.032740
-0.455361
-0.691725
-0.188662
-0.804985
-0.550376
0.080559
0.560563
0.520201
0.461560
-0.903670
-0.071759
0.210720
0.962400
-0.052423
0.763519
0.748811
0.718471
-0.400491
0.979911
0.486978
-0.451546
0.068514
-0.375765
0.223084
-0.686868
0.347818
1.038680
-0.357258
-0.657890
-0.011675
0.301749
0.334023
-0.302171
-0.584840
0.911339
-0.135729
0.008831
-0.362260
-0.178456
1.139869
0.358575
-0.794518
0.887179
-0.539884
0.500222
-0.821447
0.504119
0.193898
0.214175
-0.850250
-0.598544
0.160714
-0.434267
-0.005369
0.028758
-0.212398
0.829980
0.079640
0.033307
-0.998607
-0.427375
-0.187639
0.665304
0.021942
0.810273
0.633071
1.130965
-0.361014
0.592692
-0.453826
1.010602
-0.931805
0.072209
0.141249
0.661827
0.030819
0.229592
-0.590008
-0.226333
0.531028
-0.118177
-0.874569
-0.305068
-0.622889
-0.696208
0.315332
0.139644
-0.741308
-0.559349
0.293615
-0.863619
0.795179
-0.224716
0.881678
0.467018
0.076605
-0.843839
0.273086
-0.789748
-0.555650
0.842815
0.387982
0.361891
0.415952
-0.605336
-0.589559
-0.674545
0.269017
0.820755
0.909700
-0.024104
0.064777
-0.546452
0.439073
0.512028
0.535694
0.829386
0.737497
0.146401
0.959032
0.135641
0.727434
0.084624
0.661087
0.280641
0.917705
-0.315112
0.749747
0.552458
1.015782
-0.306501
0.830782
-0.704296
0.327113
0.237415
-0.314966
0.046812
-0.589033
0.822850
0.041492
-0.479617
0.328892
-0.317149
-0.296375
-0.080230
0.183034
0.384361
0.364835
0.050937
-0.026419
0.410018
0.404039
0.493661
-0.507818
0.198092
0.410086
0.214540
0.281463
-0.209269
0.147371
-0.047830
0.676463
-0.082549
0.619544
0.025442
-0.587190
0.825404
0.078772
-0.182230
0.435600
0.306044
0.028996
-0.178515
-0.765561
0.161267
0.725803
-1.270691
0.104257
0.660614
0.592706
0.860177
-0.397160
-0.467467
-0.541274
0.872664
-0.992838
1.161197
-0.887170
0.803250
-0.015554
0.087927
0.897568
0.121460
-0.085175
-0.621968
-0.097246
-1.058912
0.413437
1.091188
0.082704
-0.581784
0.204911
0.749481
0.055941
0.048538
0.696171
0.180870
0.904120
-0.680274
-0.640252
0.663573
0.623400
-0.070202
-0.721274
-0.712366
-0.655187
0.534055
0.851272
-0.646515
-0.326609
0.890941
-0.680795
-0.745165
0.023949
0.904236
0.826430
-0.831293
0.448192
0.101853
0.988820
0.174495
-0.122467
0.476315
0.160133
0.731128
0.027913
0.151035
0.266950
-0.157457
-0.154188
-0.972916
0.973351
-0.459918
-0.702770
0.483362
0.929438
0.347394
0.532057
-0.292099
-0.857253
-0.640745
0.177144
-0.766999
-0.518965
-0.144471
0.177552
-0.784626
-1.023971
0.586194
0.763005
-0.956343
-0.562520
-0.418090
0.259275
0.169331
0.930283
-0.445207
0.058408
-0.869046
0.105826
0.318894
-0.993371
0.045437
-0.521840
-0.190214
0.430290
-0.709726
1.000773
-1.063484
-0.144933
0.531547
0.653797
-1.007522
-1.068389
0.368917
-0.882862
0.799414
-0.357005
1.038460
-0.896339
0.225038
-0.118226
0.587134
-0.718702
-0.368087
-0.076878
-0.616907
0.413712
0.238541
-0.088828
-0.349727
-0.391187
-0.583129
0.915674
0.934214
0.672439
-0.552337
0.690594
-1.236103
-0.521019
-0.576330
0.492250
-0.391017
0.614182
0.428984
-0.280924
-0.654733
-0.269086
-0.622336
0.353242
0.116995
0.190027
-0.350661
0.231189
-0.674628
-0.706404
1.033504
-0.888492
0.197234
-0.665339
0.059101
-0.709821
0.844524
-0.068725
0.847154
0.622110
-0.610534
0.748026
-0.306396
0.234234
0.258103
0.808970
0.278328
0.093987
0.779325
-0.617123
-0.448954
0.784179
-0.557147
0.524485
-0.399902
-0.804359
-0.713842
0.048310
0.204715
0.164838
-0.485706
-0.469606
0.871762
0.646473
0.637852
0.212332
-0.975830
-0.449061
0.318039
-0.991631
-0.577937
0.153595
-0.642193
0.527828
0.366049
0.237491
0.454449
-0.500953
0.392584
0.775008
-0.526011
0.011605
0.488248
-0.830738
-0.424040
-0.077712
0.603665
-0.463893
-0.776401
0.475178
0.513897
-0.120480
0.019192
0.103786
0.479501
0.094543
0.172662
0.505133
0.199337
0.693522
0.885607
-0.164583
0.092989
-0.164615
0.742770
-0.112414
-0.337006
-0.693112
-0.083285
-0.485756
0.810171
-0.891553
0.341537
-0.411422
-0.692463
0.300500
-0.047562
0.597224
-0.341965
-0.027665
-0.747979
-0.288761
0.941174
0.643744
0.411222
0.615944
-0.364169
0.612926
-0.105320
-0.883564
0.189694
0.532137
0.498542
0.890463
1.001079
0.330341
-0.802981
-0.543063
-0.467019
0.443587
-0.992373
0.540852
0.276755
-0.947903
0.267817
-0.640338
0.348030
-0.178346
0.678479
-0.356088
0.190972
0.626416
-0.851646
0.525790
-0.697755
0.078247
-0.528589
0.031738
0.953323
-0.141622
-0.368906
0.056179
-0.923134
-0.091319
-0.483650
-0.597548
1.064866
-0.623703
-0.705230
0.025099
-0.509158
-0.826254
0.106955
-0.836275
0.426335
-1.095089
0.612610
-0.187921
-0.744888
0.435571
-0.851684
-0.560412
0.410121
0.196188
0.880356
-0.810475
0.833313
0.097144
-0.370713
0.740943
0.127517
-0.574018
-0.153781
-0.614777
-0.337207
0.781674
-0.468926
-0.389838
-0.222672
-0.202386
-0.631501
0.643813
0.466348
0.151782
0.781715
-0.776432
-0.509229
0.644220
0.138214
-0.651276
0.028637
1.086332
0.826029
-0.097295
-1.055214
0.007573
-0.665148
0.762602
0.197099
-0.559005
-0.238780
-0.173014
0.400168
-0.535036
0.953750
-0.759781
-0.586383
-0.328861
-0.302303
-0.509773
-0.233706
-0.248428
-0.874037
0.716318
0.799256
0.137504
-0.014375
0.823961
0.558663
0.331517
-0.386272
0.329750
-0.159080
0.469463
-1.119703
0.319738
0.893280
0.633651
0.777412
0.897154
-0.299096
-0.463260
0.325947
0.482392
0.561677
-0.362381
-0.089821
0.865434
0.339828
0.258339
0.457863
0.078383
-0.669376
-0.088747
0.328330
0.621361
-0.205529
-1.006714
0.906747
0.455698
0.764857
-0.516036
-0.311958
0.740593
0.456883
0.618386
-0.109461
0.808478
-0.570754
0.552549
-0.109026
-0.533512
0.314966
0.896731
0.347931
-0.858663
-0.388975
-0.063719
-0.351782
-1.165025
0.302145
0.879171
0.717250
-0.779108
-0.743518
0.625840
0.826222
0.404596
0.123311
0.907828
0.791358
0.932861
0.235153
-0.187219
-0.111610
-1.020436
-0.711992
0.065947
0.259849
0.660289
-0.847764
0.363005
-0.376450
0.108781
0.087208
-0.697920
0.699137
-0.609958
-0.076952
0.435471
0.084130
0.596125
0.932567
-0.089234
0.863387
-0.800323
-0.224008
1.141677
0.835147
0.323466
-0.035607
0.724279
-0.873119
-0.211965
0.374106
0.861557
-0.792914
-0.854309
0.672654
0.389769
0.683738
-0.685702
-0.372767
1.022438
-0.296044
0.507314
0.073880
0.349819
0.875012
0.147396
0.488088
0.711625
0.265108
-0.837442
0.531987
-0.634411
-0.046671
1.187321
-0.478178
-0.162837
-0.120257
-0.075425
-0.698797
-0.599582
-0.561296
0.070533
-0.041927
-0.626891
0.114943
-0.400102
0.357719
0.264376
0.326861
0.825177
0.127832
-0.118162
1.212331
-0.443331
0.136262
-0.921149
-0.286736
0.653146
-0.191565
-0.042611
-0.330998
-0.078410
-0.138391
-0.828176
0.069560
0.607315
-1.052831
-0.818515
0.542544
0.817352
0.441240
0.778993
0.239995
-0.222849
0.653555
0.771015
-0.236586
0.816740
0.724902
-0.718732
-0.200376
-0.497227
0.156875
-0.661786
-0.375174
0.842497
0.411860
-0.130711
0.180433
-0.054759
0.062595
-0.693045
-0.904789
-0.212767
-0.063377
-0.069464
0.719766
-0.280617
0.879380
0.303543
0.256806
0.324511
0.455310
0.418575
0.068401
-0.715322
0.054235
0.857127
0.412415
-0.183035
-0.763602
-0.496899
-0.389697
1.023361
-0.318103
0.676068
0.617582
1.190739
-0.546575
0.598227
0.342863
1.141477
-0.429721
0.280935
0.013391
-0.417070
0.363666
1.034970
0.480833
0.933600
0.594394
0.874487
0.889616
0.478430
0.639667
0.743832
-0.218670
0.006294
0.269698
0.848461
0.726272
-0.453873
0.878498
0.542850
0.028535
-1.051048
0.702480
-1.064903
-0.528673
-0.458092
1.043225
-0.284149
0.962027
-0.374152
0.842310
-0.731188
-0.157146
0.018615
0.038799
0.808802
0.530077
-0.996801
-0.369821
-0.817031
0.130633
0.245793
0.294409
-0.494381
0.506220
-0.303474
0.213644
1.013258
0.602144
-0.691263
0.282604
0.632658
-0.054702
0.366344
0.089268
0.926873
0.111390
0.695945
-0.623065
-0.085732
-0.447062
0.645298
1.195010
-0.432682
0.986452
-0.366002
-0.599970
-0.507374
-0.420891
0.773603
0.479952
0.539954
-0.679048
0.144914
-0.483108
0.017177
-0.427330
0.408465
-0.184231
-0.377665
0.745495
0.084530
-0.202599
-0.730330
-0.648724
-0.694262
0.786430
-0.505309
-0.109965
-1.011239
0.658623
-0.517782
-0.556643
-0.032821
-0.826062
-0.675412
1.094150
-0.334849
0.568573
-0.241731
-0.714014
0.854960
-0.301816
-0.362182
0.363180
-1.030581
0.418256
0.674243
0.582048
0.763492
0.986203
-0.249597
0.324580
0.759372
0.004580
-0.501822
-0.795834
0.937034
-0.249083
-0.069680
-0.908846
-0.406301
-0.118859
-0.450224
0.731890
-0.067594
-0.282020
0.486375
0.096678
0.430342
0.951891
0.986116
0.218758
-0.059933
-0.220229
-0.655579
-0.468971
-0.330813
0.174598
-0.003135
0.932258
0.189965
-0.472917
0.401755
0.257222
-0.582914
-0.872210
-0.919015
-0.182820
0.180651
-0.132961
-0.417552
-0.412202
1.004654
0.788975
0.318603
0.479020
-0.528668
-0.370406
0.916213
-0.639119
0.567455
0.031423
0.830439
0.135108
-0.055434
-0.714517
0.852429
-0.062523
0.078198
-0.041052
-0.319818
0.066382
-0.325033
-0.592968
0.742226
-0.719724
-0.583253
0.700477
0.517388
-0.090625
-0.451312
0.536353
1.077487
-0.835942
-0.306110
-0.272627
-0.241716
-0.122172
-0.170628
-0.377653
-1.008969
-0.549034
0.787851
1.069153
0.524870
1.061246
-0.423393
-0.945198
-0.578757
-0.164715
-0.612879
0.392406
0.282837
-0.746588
-0.017717
0.370675
0.343480
0.792408
-0.115728
-0.726862
0.736937
0.359655
0.573784
0.290393
0.397434
0.497181
1.075078
-0.758909
0.686891
0.070343
0.515821
0.698445
0.615196
-0.011638
-0.641743
0.417808
-0.014037
0.795350
0.163007
0.120279
-0.461609
0.344053
0.101726
-0.658732
-0.308263
0.058400
0.362410
0.250864
-0.663338
-0.643101
0.608713
0.259553
-0.264782
-0.056555
0.320778
-0.655142
-0.416734
-0.431301
-0.563330
0.390167
0.777651
0.376660
-0.165651
0.266218
-0.683644
-0.705007
0.777489
0.242299
0.069096
0.713601
0.849594
0.257306
0.273349
0.082649
-0.428984
-0.367412
0.222819
-0.007918
0.296731
-0.019905
0.004259
-0.557467
-0.142215
-0.272688
0.316258
0.396118
-1.009689
-0.476902
0.780029
-0.352743
-0.850274
-0.138043
-0.518131
-0.368624
-0.533567
0.514771
-0.118250
-0.147655
-0.609778
-0.329824
-0.285325
-0.480379
-0.117906
0.511005
0.735867
-0.316818
0.068351
-0.010120
0.301423
0.116361
-0.932166
0.180959
-0.477824
-0.839355
-0.439135
-0.366926
0.650477
-0.485512
0.078687
0.962198
0.777138
-0.462943
0.189931
0.295427
-0.742517
-0.241782
0.041404
-0.087678
-0.844404
0.981852
0.073127
-0.383088
0.956880
-0.566224
0.369929
-1.054585
-0.435671
0.514749
0.578454
0.036672
0.707649
-0.318775
0.209848
0.630330
0.205245
-0.335485
-0.608254
-0.219197
0.682236
-0.831290
-0.597936
-0.512909
-0.850667
1.348064
-0.211365
-0.132888
-0.778186
0.196589
-1.052358
-0.898526
0.403661
0.401187
0.322882
0.655069
0.758055
-0.133722
-0.167601
0.102330
-0.308979
-0.658576
0.764188
-0.571225
0.112180
0.970654
-0.650601
0.529157
-0.146340
0.335797
-0.896499
-0.935794
-0.839140
-0.793108
-1.003640
1.158365
-0.682025
0.753426
-0.126136
0.293168
-0.611371
-0.779140
0.086557
-0.125344
0.386901
0.485184
-0.599323
-0.694332
-0.609752
0.846869
-0.737030
0.768773
0.077950
0.163489
0.432894
-0.213043
0.255897
-0.009805
-0.565287
-0.667011
0.100269
-0.059150
-0.603018
-0.559772
-1.041275
0.514603
0.176013
-0.863616
0.322395
0.100420
-0.427377
0.884523
0.543647
0.368654
-0.261188
0.779424
-0.857462
0.624161
0.830624
-0.976933
-0.578951
0.633787
-0.770433
-1.007175
0.101535
0.959985
-0.984433
-0.421333
-0.571638
0.093370
-0.454578
-0.449707
0.191186
-0.349710
-1.013753
-0.584141
-0.247042
0.870516
0.630925
-0.731440
0.614182
0.437313
-0.533803
0.008963
-0.347744
-0.227115
0.511948
0.447101
-0.246121
-0.614717
-0.549020
0.518281
0.536492
-0.359604
-0.115023
0.676000
-0.148655
0.278404
0.924618
-0.462177
-0.714289
0.840462
-0.111961
-0.325168
-0.784914
0.042213
0.090835
-0.624603
0.114332
-0.319372
0.895316
0.130552
-1.013555
-0.342951
0.769432
-0.357968
0.562479
0.730541
-0.871974
-0.975814
0.985701
0.141666
-0.852331
-0.470367
-0.312613
-0.363071
-0.071763
-1.174300
0.514993
-0.607723
-0.733619
-0.917433
-0.863323
-0.623645
0.998051
-0.307079
-0.230496
-0.300222
-0.298558
-0.179379
0.691631
0.203914
0.020720
0.372542
-0.644637
0.184739
-0.247202
-0.829890
-1.114388
0.509934
0.671695
0.255564
0.781584
0.218811
0.146749
-0.697182
-0.404523
0.062526
-0.005256
-0.535728
0.924158
0.196058
-0.569291
0.807726
-0.845545
-0.008811
0.244136
-0.452549
0.907106
0.413850
-0.656471
-0.465802
-0.679566
-0.642588
0.144281
0.075086
0.976412
-0.260125
-0.798725
0.171741
0.620987
-0.428002
-0.375654
0.837653
-0.050005
-0.706355
0.333412
-0.408841
0.161214
0.279365
0.505157
-0.727495
-0.828281
0.739050
-0.575731
-0.124217
0.447911
-0.052802
-0.287136
-0.939488
0.152276
-0.659148
0.820842
0.177571
-0.157938
0.958771
0.334521
-0.555694
0.272144
0.460527
0.026448
-0.852706
0.802886
-0.552129
0.038023
0.070915
-0.216961
-0.309631
0.492961
0.837612
-0.744384
0.290021
0.582608
0.640293
-0.645392
0.542134
-0.396685
0.015224
0.232858
-0.866401
0.826071
0.676961
-0.712739
-0.494028
0.044300
0.210363
-0.330920
0.467593
-0.284163
0.821364
0.409172
-0.752699
-0.506684
-0.847266
-0.380843
-0.923285
-0.254361
-1.006301
0.796002
-0.377437
-0.811243
-0.284028
0.843160
1.096735
-0.895714
0.802372
-0.809490
0.488267
0.947868
1.173404
-0.265143
0.451882
-0.071572
0.412263
-0.287813
0.452786
-0.859726
-0.433529
0.788926
0.774990
1.057895
0.518402
-0.371462
0.962280
-0.274252
0.250881
-0.230579
0.317068
0.817286
0.358742
-0.734818
-0.575963
0.943020
0.710412
-0.682796
-1.029742
-0.592966
0.346033
-0.599755
1.408375
0.282763
-0.558970
-0.314214
0.085967
-0.074409
0.607306
0.035043
-0.261557
-1.219623
-0.127388
-0.422288
0.825415
0.100559
0.998053
0.814657
0.557931
-0.318815
-0.809992
0.425290
0.496094
1.002322
0.230517
-0.872154
0.641914
0.849694
-0.491439
-0.920782
-0.529614
0.131676
-0.226657
-0.561845
0.454119
-0.374502
0.827215
-0.066573
-0.284216
0.396761
-1.014514
0.249463
-0.533735
-0.823573
-0.331480
0.319416
0.398200
0.627746
0.357773
0.630767
-0.501299
0.823396
-0.171786
-0.167891
-0.499834
0.475055
-0.664933
-0.373913
0.265018
-1.221619
0.980244
-0.929388
0.672092
0.103070
0.795359
-0.758436
0.664571
-0.761286
0.467662
-0.644578
0.083100
-0.057540
-0.828254
0.030364
-0.595809
0.319398
0.262044
0.992359
0.438417
-0.905455
0.513617
0.505573
-0.959962
0.715550
-0.449857
0.584127
0.678331
0.455687
-0.039911
-0.516014
0.835811
-0.794650
0.192346
0.274734
0.044206
0.018261
-0.963634
0.154625
0.252144
-0.150639
-1.078989
0.187906
0.336256
-0.200327
-0.270016
-0.407007
0.510675
0.273273
-0.313561
-0.747327
0.424446
0.659938
-0.495964
-0.369368
-0.070395
-0.954610
-1.045729
-0.512998
0.115937
0.860093
0.779887
0.740278
0.641819
0.033588
-0.920777
-0.246773
-0.233793
0.211197
-1.104514
-0.892095
0.592204
-0.309239
-0.935742
-0.413696
0.415138
0.297873
0.546441
-0.208476
-0.703859
-0.772847
-0.799794
0.692906
0.989292
0.432861
-0.639171
0.535911
0.437240
0.873887
-0.416085
0.276927
0.430905
0.782520
0.578389
-0.000825
0.660256
-0.024491
0.194203
-0.819106
-0.793611
0.429230
-0.192101
-0.491945
0.701924
-0.089833
-0.674737
-0.411396
0.565274
-0.034472
-0.464352
0.656268
0.153126
-0.691070
0.976109
0.794854
-0.153824
-0.509139
-0.042298
-0.780944
0.769741
-0.099058
-0.127912
-0.823019
0.189965
-0.141331
0.263522
0.540942
-0.767169
0.895449
-0.216628
0.759338
-0.450478
0.772442
-0.138783
-0.250135
-0.500792
-0.905586
0.547358
-0.523993
0.395131
-0.169935
-0.448194
0.445836
-0.963591
-0.550821
0.566172
-0.656008
0.784293
0.141199
-0.434113
-0.670989
-0.776371
-0.159929
-1.095024
0.903425
-0.675546
-0.391931
-0.041260
-0.396384
0.681523
-0.549253
-0.206293
0.039703
0.001101
-0.459898
0.989544
-0.641455
-0.718408
-0.868662
0.788350
-0.184967
-0.465617
0.367760
-0.837178
0.214205
0.537331
-0.247911
0.311108
-0.533273
-0.093403
0.875225
0.821899
-0.277913
-0.570436
0.400756
-0.408028
0.184252
-0.777206
-0.484637
-1.088721
0.102241
-0.122025
0.923418
-0.271154
0.358407
0.909157
-0.971549
-0.441368
0.528359
-0.533633
-0.902836
0.828116
-0.745569
0.571146
0.573747
-0.638582
0.865190
0.020829
0.096062
-0.363619
0.864364
-0.055639
-0.500585
-0.637457
0.455721
-0.284527
0.397418
-0.186179
0.969511
0.149662
-0.285035
0.732060
-0.809297
0.350456
-0.237687
-0.783561
0.563006
0.503295
0.950678
0.765711
0.346664
-0.586052
0.726364
0.782147
-0.909248
-0.593092
-0.160140
0.465551
0.094399
-0.107982
0.008064
0.894483
-0.096847
0.669335
-0.944590
0.902768
0.290087
-0.580768
-0.694651
-0.784393
-0.769705
-0.326225
1.063859
0.390689
1.137886
-0.555626
-0.525947
0.756929
0.644823
-0.660598
-0.253635
-0.648381
-1.080660
0.624107
0.577220
-0.186161
0.221464
-0.086307
-0.347214
-0.842130
-0.569188
0.864898
0.862640
-0.481093
-0.978466
0.264203
0.105138
-0.233925
-0.549565
0.363542
-0.060928
0.246622
0.106493
0.545656
0.274046
0.547687
0.193836
0.198777
0.139586
0.619715
-0.671423
0.784028
0.298255
-0.372546
-0.102467
0.748286
0.486845
-0.225892
0.532773
-0.716565
0.055924
-0.077087
-0.290225
0.055358
0.380924
-0.790774
-1.018727
0.607558
-0.495192
-0.262392
-0.638507
-0.605098
-0.198191
0.454712
-0.590967
0.864589
0.317938
0.063927
-0.263010
0.033159
0.295218
-0.442772
0.730419
-0.148002
0.198876
-0.294925
0.191264
0.384662
1.071703
0.285556
0.584627
0.047920
0.040691
-0.674001
-0.668346
-0.582564
0.094620
0.530805
0.192657
-0.011974
0.181300
1.127238
0.020918
0.380453
-0.164048
0.759108
-0.677119
-0.050306
0.205493
0.575039
-0.688122
0.059674
0.446006
-0.253085
0.672278
0.341880
0.066928
0.340611
0.460505
-0.022271
0.493518
0.772304
-0.088960
-0.307786
-0.534638
0.579679
-0.645014
-0.450576
-0.485685
-0.895042
0.380813
-0.839137
-0.193142
0.027891
-1.099909
-0.208212
-0.476928
-0.787267
0.241195
0.366840
-0.606328
1.135886
0.584776
-0.980667
-0.867981
0.696945
0.586549
0.527019
-0.636969
-0.040765
0.671933
-0.161823
-0.471763
-1.342492
0.154416
0.532736
0.660564
0.984119
-0.220431
-0.656436
-0.447275
0.861732
-1.042466
0.467553
0.133915
-0.386073
-0.974668
-1.080080
-0.096285
-0.714667
-0.469729
-0.336360
0.757151
-0.203214
0.918817
-0.047978
0.536913
-0.160485
0.197309
0.643422
0.660367
-0.794322
-0.552318
0.270718
0.912283
-0.665812
-0.384826
0.054229
-0.256987
-1.153750
-0.973442
-0.103691
0.317383
0.676749
0.354544
0.465962
-0.694139
0.500468
0.176775
0.720019
0.307201
-0.902598
0.934136
-0.530694
0.409025
-0.056565
0.217571
-0.143497
0.527707
-0.294875
0.146619
0.924433
0.832476
0.066106
-0.090264
-0.187485
0.838272
0.455750
-0.694845
0.853903
-0.280633
-0.425166
-0.735537
0.312330
0.485567
-0.110997
-0.208908
0.795357
-0.069895
0.459962
-0.559264
-0.010560
-0.365877
-0.973640
0.884281
-0.286549
-0.979085
0.114152
0.679425
0.906329
0.140449
-0.069544
0.413697
-0.718059
-0.439634
-0.383120
-0.703893
0.745292
0.436679
-0.634188
-0.505660
-0.202365
0.446613
-0.848531
-0.663747
0.940966
0.758668
-0.673896
-0.019807
-0.655786
0.267302
-0.897925
0.557358
0.361978
0.726361
0.606980
0.242539
0.606516
-0.733278
-0.215145
0.513041
0.218454
-0.604204
-0.100322
-0.114612
0.670949
0.373073
0.487844
0.105179
0.673367
-0.230257
-0.349985
0.264824
0.529457
0.521956
0.059819
-0.680857
-0.123095
0.633736
-0.097645
-0.595813
0.444110
-0.362694
-0.278142
0.425318
0.692960
0.174976
0.641499
-0.020092
-0.538526
-0.636102
-0.848050
-0.124912
-0.038493
-0.515648
-0.474539
-0.691694
0.495615
-0.534337
-0.100102
0.507115
-0.366468
-0.608824
0.367819
-0.215578
0.674880
0.014250
-0.881714
-0.116558
-0.369596
-0.394523
0.438822
-0.183491
-1.018206
0.286036
0.262439
0.358484
0.279947
0.260561
0.211914
0.513844
-0.026681
0.855142
-0.034615
-0.046984
0.783258
-0.556956
-0.729028
0.482941
0.945258
-0.370474
0.597060
0.267829
0.092536
-0.158956
-0.023657
-0.942660
0.954402
-0.793993
0.744873
0.004656
-0.342165
-0.238121
0.594886
-0.749754
-0.715061
-0.262694
0.436697
-0.815104
0.067626
-0.613079
0.856122
0.841964
0.333721
-0.816261
-0.198627
-0.819222
1.082463
0.080292
0.231754
-0.299455
0.077171
-0.878893
0.830007
0.531128
0.260004
-0.570062
-0.688455
-0.159372
0.071162
-0.690563
-0.608544
-0.993900
0.580381
0.294248
0.828792
-0.116848
0.024789
-0.066024
-0.197847
0.387967
-0.185470
-0.943155
-0.662757
0.677759
0.052807
0.352733
0.322245
0.511442
0.331613
-0.267594
-0.675584
-0.462931
-0.832225
-0.975084
-0.533340
0.353250
0.182645
-0.073289
-0.914032
-0.631532
0.537457
-0.627272
-0.958187
-0.246336
-0.545027
-0.757770
0.423539
-1.029395
0.903166
0.061642
-0.144483
-0.523256
0.026468
-0.277202
-0.846614
0.577470
-0.450251
-1.029317
0.240471
-0.155986
-1.325134
0.510666
-0.509206
0.246011
-0.368238
-0.767803
0.335446
-1.063688
-0.897817
0.998145
0.121931
-0.892751
0.966383
-0.545653
0.531566
0.578257
0.475891
-0.161475
0.523881
-0.252169
-0.736701
0.333949
0.173061
-0.019187
0.030895
-0.376639
0.392394
-0.307474
-0.107384
0.387846
-0.531897
0.178603
0.495127
-0.486692
0.566708
0.071877
-0.923900
-1.220912
-0.723723
-0.943535
-1.028563
-0.474718
0.130682
0.864508
-0.899377
0.797715
-0.148313
-0.453644
0.121215
-0.681874
-0.849950
-0.224244
-0.606554
-0.068175
0.556483
0.752603
0.270662
0.012631
-0.317332
0.232512
0.416169
0.133781
-0.634470
-0.440121
-0.149118
-0.059934
-0.697640
-0.436564
0.373848
0.646441
-0.413950
-0.112493
-0.681502
0.992428
0.429026
-0.077694
0.339823
-0.526783
-0.782097
0.134265
-0.030805
-0.587732
-0.614543
0.858558
-0.000605
0.338871
0.687841
0.868077
0.409987
-0.711513
0.048796
-0.979722
0.458963
0.016044
-0.218343
0.302332
-0.664444
-0.349033
0.296757
0.091960
0.280992
-0.531784
0.746451
0.328680
0.953784
0.285370
0.339029
-0.511228
0.120038
-0.459599
0.338571
0.778137
-0.282574
-1.119545
-0.171627
-0.615265
-0.799049
-0.219819
0.953059
-0.038601
-0.856149
-0.593840
0.175839
0.389893
0.749997
0.951933
1.000135
-0.598762
-0.907338
0.078883
0.412089
0.055871
-0.329971
0.903306
0.806932
0.371611
-0.631783
0.636628
0.740916
0.388946
-0.242499
-0.641026
-0.384213
0.788074
0.161888
-0.601694
0.588562
0.519152
-0.265215
0.303787
0.175771
-0.713652
0.291671
0.250955
-0.303856
-0.980025
-0.541704
-0.071192
-0.204188
0.696037
-0.224564
0.217014
0.274363
0.587121
-0.189562
0.837589
0.323511
-0.079929
0.985531
0.675123
0.782934
-0.121009
0.462838
-1.137092
-0.605300
0.109530
0.112198
-0.170504
-0.347889
-0.197417
-0.135588
0.524880
-0.558936
0.024606
0.235531
-0.901141
-0.305587
0.316329
-0.445041
-0.070390
-0.098752
-0.144637
-0.165691
0.489692
0.456178
0.508686
-0.128848
0.639956
-0.892053
-0.495046
0.052740
-0.845336
1.391544
-0.807257
0.851342
-0.917692
-0.719189
0.110457
0.453408
-0.293183
0.402821
0.252515
-0.532371
-0.170288
0.227836
0.403283
0.596850
0.415688
0.348773
-0.486936
-0.572759
0.424580
0.804419
-0.592034
-0.222891
-0.499963
-0.226826
0.838156
0.796949
0.322515
0.253556
-0.302557
1.059776
0.662596
0.633797
0.012460
-0.581098
-1.071827
0.602010
-0.796840
1.041018
-1.159586
-0.985377
-0.116869
-0.888373
-0.517408
-0.265238
-0.946383
0.037103
1.182865
0.443789
-0.473356
-0.038914
1.110355
-0.574726
-0.197418
-0.530364
0.489362
0.022350
-0.200549
0.725901
-0.554387
-0.423346
0.365589
0.542438
0.866770
-0.139677
0.048927
-0.730055
0.777598
0.129636
0.549274
0.489519
-0.110793
-0.018948
-0.353111
0.431491
-0.971065
-0.553789
-0.117028
0.539780
-0.032997
-0.871860
0.514473
-0.823748
-0.405950
-0.548339
0.454271
0.047593
0.478579
0.251311
0.096253
-0.788650
-0.412633
-0.469465
0.027738
-0.706064
-0.703305
0.356567
0.139655
0.279305
0.130391
0.598994
-0.104546
-0.071177
0.237798
-0.449504
0.741209
-0.389728
0.506856
0.084288
-0.010288
0.921967
-0.815629
0.359731
-0.876531
0.245145
-0.843196
-0.442221
0.259314
0.697891
0.547462
0.146138
-0.442203
-0.831998
-0.954999
-0.465258
-0.383641
0.464504
-0.808521
0.194148
0.183603
0.507362
0.001311
-0.765597
-0.365537
-0.322182
-0.137817
0.127530
-0.097484
-0.155235
0.098355
0.210905
-0.734238
-0.780065
0.157862
-0.036015
-0.411724
-1.047239
0.538827
0.597645
0.655757
0.633111
-0.143843
0.624008
-0.618421
0.795842
0.750494
-0.780091
0.074514
0.633009
-0.719289
0.132051
0.351688
0.299435
0.112513
-0.433017
0.479680
-0.020294
-0.218323
-0.549289
0.702355
0.542366
-0.223533
-0.219578
-0.358117
0.500684
-0.746653
0.177209
0.178196
-0.161024
0.516937
0.700267
0.155522
-0.237838
-0.920993
0.263660
-0.516158
0.026415
-0.236845
-0.015478
0.247328
-0.981546
0.104887
0.722049
0.645352
0.844102
0.609783
0.039654
1.131022
-0.268233
-0.291582
0.566097
0.078465
0.227713
-0.834657
-0.638104
-0.906141
-0.686536
-0.148101
0.319164
0.108161
0.605818
0.779958
-0.355833
-0.277995
0.007443
0.540114
0.341345
-0.450017
-0.164465
-0.343825
0.351157
-0.943909
-0.202785
-0.238800
1.129273
0.070030
0.145502
-0.777667
-0.638000
-0.580777
-0.475203
-0.344382
-0.221333
0.417941
-0.463275
-0.566557
-0.017706
-0.144598
-0.164885
0.925037
-0.339045
-0.292809
0.378982
0.778842
0.961979
0.396261
-0.420720
0.071263
-0.126989
-0.161663
-1.100721
0.436484
-0.990025
0.335650
0.859723
0.363544
-0.902276
-0.661625
-0.928917
-0.149198
0.864280
0.409967
0.313254
0.571851
-0.075267
0.292889
0.305528
0.032600
-0.472673
-0.314455
1.145405
0.051400
0.620321
0.088558
-0.088650
0.151894
0.598442
-0.172943
-0.099570
0.633921
0.181868
-0.208936
0.422573
-0.677217
-0.569481
-0.604482
-0.528839
-0.446940
-0.578304
0.978409
-0.776665
-0.676972
0.896900
0.076533
0.270032
1.012527
-0.148440
-0.907762
-0.607924
-0.099809
0.381711
-0.239634
-0.570727
0.199392
-0.441012
0.721298
-0.708676
-0.608782
0.280328
0.739570
-0.280820
0.048879
-0.051960
-0.273040
-0.035840
1.303156
-0.798501
0.306882
-0.238775
-0.750036
0.987414
-0.826563
0.477876
-0.711880
0.255502
-0.770907
0.367035
-0.306295
0.754609
0.785823
1.056823
-0.396632
-0.077121
-0.592918
0.949567
-0.655923
0.016427
-0.903696
-0.381876
-0.066906
-0.706251
-0.206542
-0.941756
0.054423
-0.813916
0.507568
0.925237
-0.506987
-0.601883
-0.189333
0.419863
0.574294
0.915311
-0.988785
0.899036
-0.652101
-0.726203
-0.085210
0.882831
0.249915
0.211864
0.133404
0.419657
-0.215651
-0.868694
-0.704417
0.481116
-0.568782
-0.796426
-1.002883
0.754333
0.589602
0.178968
0.825540
-0.889874
0.419164
-0.314257
0.058979
-0.858730
-0.815531
-0.749481
0.712930
0.544806
0.537722
0.963001
0.042317
-0.449670
0.828052
-0.078918
0.273816
-0.914380
0.192937
0.446542
-0.775251
-0.157409
0.383591
0.309486
-0.794027
0.094888
0.434832
0.821564
0.362026
-0.646666
-0.648296
-0.090087
1.347738
-0.189724
1.010857
0.964750
0.875021
-0.617384
0.692068
0.018404
-0.943272
1.303602
0.193310
-1.270705
0.700564
0.429398
0.862614
0.823543
-0.504377
-0.422241
0.461385
1.036467
0.576334
-0.404453
-0.447900
0.472896
0.247372
0.011104
-1.108424
0.499854
-0.281317
-0.330813
-0.044386
0.355836
-0.026127
0.847078
0.913244
-0.594553
-0.035932
0.367296
0.646271
0.574904
-0.235753
-0.672895
0.428448
-0.698463
0.215080
-0.337258
0.596598
-0.971004
-0.359853
0.365938
0.785621
-0.198094
-0.338902
-0.752655
0.133056
0.246813
-0.152714
-0.283037
-0.980383
0.067584
0.004287
-0.921373
-0.374948
-0.723325
0.463811
-0.280675
-0.573124
0.308578
-0.778727
0.882562
-0.612904
0.311208
0.329374
0.389663
-0.290906
0.230500
-0.143945
-0.155471
0.154823
-0.542318
-0.902411
-1.167816
0.120412
0.241162
-0.631597
0.996533
0.508092
-0.352070
-0.105468
0.719244
0.665642
-0.254231
0.834029
0.794604
-0.090554
-0.603843
-0.313686
-0.147789
-0.564348
-0.423873
0.756560
-0.510412
0.330205
0.481698
0.742196
0.286501
0.974000
-0.378365
1.049541
0.586583
-0.930582
0.406816
-0.224574
0.903870
0.612627
-0.725590
-0.345314
0.209923
0.921224
0.418619
-0.673497
-0.617876
0.538175
0.554718
-0.953554
0.661681
0.535331
-0.115861
-0.826667
0.662831
-0.968971
-0.738618
-0.061243
0.817836
-0.405401
-1.290670
0.898656
0.196249
0.658207
0.279619
1.137262
-0.187939
-0.191957
0.261093
-0.187897
0.579847
0.247447
0.854122
-0.660132
0.077208
-0.275776
-0.856696
0.218718
-0.284727
0.704174
-0.526587
0.193629
-0.062663
-0.236719
-0.429463
-0.253812
0.575220
-0.420998
0.286954
0.713627
-0.362735
-0.264074
0.483262
-0.066997
0.800754
0.409313
-0.245765
-0.808977
-0.327239
-0.438413
-0.840417
-0.918713
0.509425
0.697074
0.825455
0.477580
0.141120
-0.225090
0.347830
-0.025493
0.254839
0.788716
-0.386174
-0.152148
-0.431699
0.538628
-0.505390
0.666947
0.129587
-0.493300
-1.124793
-0.474422
0.551884
-0.393912
-0.587055
-0.115384
0.599479
0.446441
0.254997
0.164836
0.007182
0.230748
0.978839
-0.881264
-0.187218
0.203599
0.266094
-0.352817
-0.499792
-0.561534
0.464833
0.865872
-0.294968
-0.168093
0.843560
-0.575513
0.761200
0.101759
-0.496288
-0.735165
0.362046
-0.179797
0.870467
-0.770393
0.033116
0.134403
0.322297
0.702534
0.014894
-0.374004
-0.309343
0.969191
-0.268858
0.675805
-0.194009
-0.572389
-0.906686
0.965794
0.642496
0.447910
-0.445460
0.502801
-0.295822
-0.555701
-0.613238
-0.537697
-0.280533
0.040420
0.805527
0.253208
-0.358025
-0.144972
0.146493
-0.476572
-0.060108
-0.928379
1.129659
0.984804
-0.080292
-1.021640
-0.669438
-0.557766
0.888349
-0.225011
-0.298500
-0.223025
0.712809
0.722979
0.045334
-1.066639
-0.198505
-0.169137
0.071178
0.647880
-0.194393
-0.105779
-0.222275
-0.957981
0.743106
-0.466711
0.494476
-0.858388
0.529790
-0.330211
-0.115585
-0.432175
1.382285
-0.841309
-1.116621
-0.572404
-0.115970
-0.568757
0.940087
0.244628
0.008003
0.335624
-0.109050
0.445205
1.000569
-0.471905
-0.313868
-0.254245
-0.626641
-0.623504
0.428146
-0.646442
-0.082963
-0.451395
0.088934
0.092194
0.362247
0.559870
0.198084
0.883494
0.790301
-0.411806
0.330555
0.628875
-0.671687
-0.661207
-0.358427
0.750370
0.947385
0.431874
0.624250
-0.890556
-0.560834
-0.717655
-0.920394
0.866827
0.449755
0.358971
0.832695
0.380777
0.584998
0.047966
1.000239
-0.945251
0.219226
-0.507214
-1.073551
0.238218
-0.094391
-0.554224
-0.229967
0.760824
-0.053173
0.759430
0.483828
0.297920
0.326100
0.060664
-0.467773
0.030558
0.653192
0.133667
0.705159
0.409489
0.034813
-0.041283
-0.030381
0.075928
-0.379499
0.704352
0.521842
-0.171786
-0.531138
-0.918811
0.011078
-0.727349
0.346409
-0.618474
-0.581626
-0.062059
0.800771
-0.452703
0.400279
-0.543167
0.668281
0.410082
-0.627217
0.187442
-0.699804
0.431933
-0.803928
0.006809
-0.009969
-0.808267
-0.037813
-0.057769
0.820892
-0.224662
0.968538
-0.264479
0.680268
-0.281158
0.751092
-0.688719
-0.672558
0.648424
-0.040810
0.224119
0.287908
0.882848
-0.694375
-0.759020
0.184929
0.467657
0.508276
-1.287055
0.095565
0.998998
-0.478950
1.004641
-0.170804
0.584716
-0.019848
-0.310789
-0.354963
0.057231
-0.794728
0.989824
-0.182722
-0.677314
-0.275711
0.730012
-0.725919
0.376749
0.473630
0.333348
0.253772
-0.075229
-0.491211
-0.242058
-0.440860
-0.319412
1.145866
-0.020039
-0.492103
-1.077058
0.517325
0.265190
-0.250504
-0.125081
-0.755512
-0.714070
-0.968059
-0.712181
0.482967
0.693552
0.009082
0.517065
-0.306531
-0.702478
-0.492681
0.165088
0.045998
-1.360656
-0.543384
-0.467296
-0.065590
-1.149140
0.571740
0.746095
-0.480696
0.129584
0.835701
0.087368
0.367911
0.102264
0.197121
1.211309
0.445679
0.635693
0.064299
0.092038
0.980075
-0.842957
1.190914
-0.071005
0.047636
0.726762
0.654327
0.930451
-0.060648
-0.065838
0.142281
0.513321
-0.907051
0.503933
0.150202
-0.087294
0.629865
0.511851
0.146416
-0.410921
-0.051047
-0.036195
-0.201125
0.892974
0.418692
0.023514
-0.392030
0.659622
-0.514300
0.026249
-0.142417
0.643222
-0.272900
-0.749017
-0.918650
0.579272
-0.444615
0.284596
-0.805869
0.017933
0.971189
-0.432160
0.503726
-0.156105
0.059183
-0.612815
-0.171720
-0.628374
-0.408114
-0.784671
-0.200080
0.712362
-0.984457
0.918478
-0.292124
-0.584165
-0.872268
-0.215072
-0.425257
0.043779
0.888840
0.226667
0.844571
0.132198
-0.210471
-1.012963
0.456742
0.621699
-0.568594
-0.499524
-0.024270
0.073602
-0.644515
-0.672411
-0.597533
-0.233238
0.620065
-0.381716
0.067163
0.252779
-0.971796
-0.550212
-0.160933
-0.291527
-0.222664
-0.924686
-0.859366
-0.015534
0.833885
0.759342
1.012128
-0.137572
0.781038
0.051828
-0.540725
-0.704952
0.527250
0.569289
0.848728
-0.729864
0.186981
0.729406
0.319262
-0.367053
0.345361
-0.580572
-0.408505
1.034526
0.074517
-1.080367
-0.189073
0.855843
-0.475224
-1.005023
-0.904588
1.232544
0.007427
-0.441417
0.009184
-0.688630
0.103834
0.823808
-0.678328
0.606227
-0.484990
0.979567
-0.167820
0.170124
0.189576
-0.061843
0.804871
-0.827789
0.901958
-0.249877
0.208928
0.300637
-0.941254
-0.237519
0.732736
0.606429
0.678783
0.198503
1.021837
-1.052996
-0.023932
-0.101463
-0.136629
0.708531
0.678579
0.579013
-0.802776
0.908089
1.197147
-0.857702
-0.094470
-0.514854
0.512887
-0.819490
1.094093
-0.058866
-0.530159
0.695108
-0.071090
-0.013802
0.016996
-0.035564
-0.688373
-0.085909
0.519739
0.206863
-0.531079
-0.731552
-0.549484
-0.521259
0.481231
-0.832821
-0.212715
-0.815902
-0.547564
-0.138056
0.004831
-0.478794
0.865203
0.620924
-0.163553
-0.396648
-0.703942
-0.055567
0.126961
-0.971445
-0.508098
0.267903
-0.363955
-0.650771
0.279433
0.185634
-0.188434
-0.123840
-0.857881
0.121194
0.735640
-0.026605
0.410627
-0.335283
0.557620
-0.733984
0.300717
0.276304
0.028337
0.842003
0.504481
0.434328
0.820596
0.469797
-0.504227
0.259972
0.076572
-0.301356
0.576191
-0.849163
0.362616
-0.802082
0.904989
0.391288
-0.898046
-0.110670
-0.747497
-0.480046
0.653393
-0.152463
-0.718073
0.256350
0.280311
-0.975975
0.223576
-0.934395
0.920687
-0.603285
-0.027043
0.205579
0.696044
0.397538
0.151855
-1.006721
0.506471
0.431964
0.880778
0.955151
0.764671
-0.090670
0.313686
0.464097
0.905285
-0.795572
-0.519090
-0.178383
0.501425
-0.035984
-0.380423
-0.300247
-1.107812
0.496516
0.411073
0.396212
0.133315
0.073301
0.878306
-0.288458
-0.721108
-0.294956
-0.959667
0.678429
0.995614
-0.682308
-0.305616
0.099710
0.377569
-0.257222
0.272480
-0.764821
0.582578
0.590561
0.002621
-0.592820
-0.373898
-0.725451
-0.738164
-0.609142
0.874417
-0.512149
-0.435181
0.636388
-0.015149
-0.223323
-0.657561
1.125343
-0.286796
-0.594782
-0.491737
0.825797
0.453418
0.834065
-0.207137
0.141200
-0.531994
-0.126306
0.266279
-0.258032
1.006634
-0.425731
0.535598
-0.234555
-0.721000
-0.551125
-0.269371
0.371222
-0.021524
-0.364878
-0.510519
-0.129831
-0.061228
0.320600
-0.412436
0.406348
0.208196
0.784654
0.418615
0.150443
-0.258923
-0.271300
0.772501
0.068095
0.003034
-0.081083
0.687735
-0.754814
0.911033
0.608739
0.213385
-0.704822
-0.599838
0.409393
-0.674545
-0.007530
0.620052
-0.476580
-0.704999
-0.378544
-0.880009
-0.251828
-0.584426
-0.890653
-0.730142
0.904809
-0.105163
-0.616539
0.651100
0.969487
-0.490031
0.530085
-0.175529
-0.654531
-0.164325
-0.778702
-0.650258
0.223490
0.151811
0.753829
0.286891
-0.053472
-0.795308
-0.057604
-0.154726
0.283614
-0.389550
0.434624
0.646484
0.455561
-0.127414
-0.227790
-0.374281
-0.033849
-0.272199
-0.865021
0.791065
-0.199873
0.393548
-0.096739
-1.019007
1.184994
0.560411
-0.708608
-0.281722
-0.004346
0.302299
0.794892
-0.480867
-0.072539
-0.101140
-0.125513
-0.271341
0.593954
0.193067
0.513803
0.704965
-0.721558
-0.522020
0.054022
-0.406423
-0.430128
-0.884551
0.916591
-0.532557
0.594879
0.389552
0.209326
-0.910381
-0.204580
0.612701
0.194330
-0.416456
0.688180
0.894559
-1.040694
-0.497689
-0.438495
-0.460353
0.530697
0.900231
0.010026
-0.192217
-0.647406
0.715143
-0.519133
0.021504
-0.517695
0.016812
0.430375
0.152340
0.259398
-0.153240
-0.063528
-0.792982
-0.096419
0.263726
-0.632775
-0.061017
-0.388973
-0.426782
1.216487
0.998366
1.070281
-1.152289
0.604281
-0.237333
0.802748
0.340583
-0.747107
0.184428
-0.159151
0.933363
0.491962
0.049564
0.519289
-0.583210
-0.016452
-0.928347
-0.360874
0.407244
0.478181
0.577180
-0.987601
-0.290363
-0.590342
-0.685134
0.488057
-0.678658
0.656288
-0.150529
0.804164
-0.397335
-0.122765
0.444338
0.237636
-0.038049
-0.710889
-0.679269
-0.739308
0.601809
0.839134
-0.165373
-0.383641
-0.281389
0.491309
0.228830
-0.786770
0.116502
0.445858
-0.159871
0.280763
-0.888353
-0.690122
-0.178878
-0.222419
0.191555
-0.371488
0.436325
0.989841
0.464466
1.031680
0.433020
-0.662397
0.063484
0.815437
-0.709579
-1.039303
-0.528994
-0.529069
0.379104
-0.884228
0.008501
-0.374414
0.492843
0.678307
0.487861
0.223563
0.884632
0.834371
-0.645364
-0.553155
0.199971
0.219728
-0.286389
-0.233088
-0.222092
0.559254
-0.281505
-0.051719
0.319743
0.065149
0.257310
-0.190461
0.469766
0.270888
-0.049284
0.563338
-0.669244
-0.373934
0.268312
1.013689
0.765212
-0.011895
0.368636
-0.447090
0.057040
-0.448053
0.290266
-0.778775
0.759786
-0.652110
-0.381611
0.229002
0.845457
-0.724122
0.003438
0.281264
0.436939
0.541037
0.971436
0.266129
-0.649565
0.461267
0.669250
0.752775
0.037859
0.355263
-0.937933
0.321400
-0.482345
-0.418651
-0.413884
-0.112681
-0.170492
-0.295109
0.880376
0.180841
-0.556378
-0.641629
-0.968277
0.277565
-0.419632
0.971761
0.020353
1.147207
-0.620380
-1.205845
-0.852656
0.854597
-0.460162
0.320023
0.396011
-0.250368
-0.656123
0.557605
0.408556
-0.423228
0.787304
-1.004893
0.296338
-0.942279
0.331298
0.998074
0.281802
0.963727
0.340009
0.479334
0.005346
1.012368
-0.520333
0.302307
0.687362
0.309756
0.206037
-0.087372
-0.643484
0.204644
0.135627
0.684355
0.581031
-0.146698
-0.558107
0.441405
1.025095
-0.402215
0.205853
-0.924524
0.827830
0.866355
0.969090
0.475070
0.657636
-0.681589
-0.444460
-0.773250
-0.025336
-0.530212
-0.824501
0.524888
1.082480
-0.605878
0.586784
-0.949599
-0.300925
0.264224
0.286421
0.388977
0.824242
0.439411
1.164912
-0.605772
0.231989
-0.924185
0.221556
0.355624
0.145079
-0.732887
0.077805
-0.888258
1.148615
0.547302
-0.198846
-0.633052
-0.061910
0.699319
0.297220
0.742182
0.487345
-0.922908
1.031252
-1.524466
-0.755121
0.928855
-0.692906
-0.083487
0.673016
-0.366930
-0.278502
-0.229674
1.034942
0.938610
-0.249766
0.445007
-0.140304
-1.025234
0.841879
0.764843
0.878380
-0.057073
0.035146
0.103076
0.506786
0.793465
0.602290
-0.362217
-0.669708
-0.354385
-0.228298
0.534515
0.112347
0.153292
-0.372191
-0.129415
0.332687
-0.461664
-0.122806
-0.388059
-0.735310
-0.885476
0.458148
0.000207
-0.490625
0.078420
0.882940
-0.534866
0.665567
0.850872
0.502146
0.269439
0.912870
0.770018
0.320706
-0.091408
0.937633
0.029373
-0.808159
0.543847
-0.480568
0.088671
-0.754724
-0.609487
-0.693675
-0.717684
-0.002570
0.143390
-0.882163
0.050058
0.546888
0.266236
0.970259
-1.085498
-0.551371
-0.231549
0.471276
-0.581890
-0.831007
0.305554
-0.941702
-0.901783
0.545047
0.657057
-0.600871
-0.052767
0.649367
0.723512
-0.987332
0.240636
-0.194596
-0.172315
0.648690
0.784865
0.748561
0.945964
-0.969178
0.302773
0.766072
-0.713974
0.691797
0.525305
0.077813
-0.121481
-0.372893
-0.326059
1.032221
0.432540
-0.228207
-0.301941
0.588946
-0.760715
-0.340497
0.897258
0.442724
0.547365
0.219457
-0.103443
-0.015403
0.925214
0.037137
0.730236
-0.547242
1.229072
0.014214
-0.095768
0.611581
0.206911
0.608492
-0.950360
-0.010488
-0.753942
-0.214803
0.238467
-0.753153
0.391077
0.466476
0.372543
0.849327
0.645404
-0.269423
0.543670
-0.503949
-0.141546
-0.937834
-0.355389
-1.028123
-0.078104
0.691397
-0.095202
-0.538946
-0.928797
-0.751261
0.512027
0.671069
0.292181
-0.290480
-1.003075
-0.201674
-0.378485
0.416253
-0.412262
-0.760398
0.262670
0.070031
0.877960
-0.308944
0.451942
-0.511177
0.061626
0.164429
-0.919131
0.729746
-0.702251
0.373798
-0.379246
0.623973
-0.530646
0.273790
-0.656690
-0.464932
-1.050068
0.430811
0.302250
1.046199
0.975504
-0.751988
0.477322
0.276031
-0.429031
-0.708507
0.049962
0.881400
-0.866569
-0.195724
-0.767678
-0.004392
0.512257
0.565787
1.073862
-0.823627
0.631844
-0.924541
0.782769
0.021711
0.393714
0.338277
-0.058016
-1.317772
-0.040891
0.426120
0.127500
-0.752049
-0.412647
0.841532
-0.905246
-0.987796
-0.250997
0.302606
0.902581
0.661497
0.554010
0.374026
-0.921583
-0.194455
0.920728
0.274325
0.752209
-0.596092
0.498160
0.588000
-0.767366
-1.272342
-0.306112
0.515691
0.797178
-0.560368
0.545465
0.615022
0.489243
-0.264625
-0.415721
-0.612851
-0.363793
0.877159
-0.658876
0.252846
0.537437
-0.973123
0.233942
-0.550050
0.797100
-0.329620
-0.766428
-0.754436
-0.169544
0.101790
-0.795291
-0.491005
-0.764658
-0.767515
-0.847312
0.345697
-0.227894
-0.873997
-0.372729
0.127203
-0.502368
0.013526
-1.070248
-0.849296
0.921679
0.452019
0.980102
0.008193
-0.139242
-0.348640
-0.123646
0.684562
-0.546097
-0.246138
0.840021
-1.092222
-0.655528
-0.939374
0.607321
0.009671
-0.502873
0.558105
0.443346
-0.897363
0.290764
-0.565924
-0.428404
-0.009311
-0.083454
0.364418
0.170035
0.015700
-0.586922
-0.483698
-0.272422
0.203963
0.041714
-0.371586
-0.216438
-0.203570
-0.978725
0.914501
0.207105
1.008636
-0.765385
0.363821
0.084684
-0.116158
-0.142474
-0.611402
-0.331543
0.698160
0.323967
0.117588
-0.226346
-0.252277
-0.317069
0.057551
0.679631
0.281046
0.577399
0.762695
0.785903
0.490109
0.578560
-0.805617
0.971231
-0.296334
-0.771142
-0.590818
-0.450818
0.807182
0.151179
-0.506550
0.378541
0.149306
-0.461696
0.482672
0.321341
0.814160
0.500131
-0.500486
-0.058612
0.493981
0.906041
0.211526
0.747116
0.295189
0.840446
0.846128
0.347850
0.085725
-0.064462
-0.372708
0.177828
-0.578524
0.094438
-0.639683
0.089902
0.460011
-0.109216
0.649873
-0.280916
-0.878392
0.686477
-0.325890
-0.977707
0.422246
-1.249267
0.585320
0.891184
-0.898966
-0.408280
-0.209276
0.568479
1.184670
-0.369718
0.116625
0.432176
-0.813795
-0.011390
-1.245263
0.630280
-0.369967
0.353567
-0.514030
-0.679996
-1.043492
0.285173
0.167403
-0.931965
-0.097673
0.059018
-0.214304
-0.954529
0.446180
-0.546800
-0.903952
-0.277379
1.119563
-0.077052
1.015283
-0.008146
-0.449098
0.588304
-0.219631
0.081047
0.975929
-0.080629
-0.614690
0.022227
0.211343
0.078049
0.719388
-0.270295
0.458967
0.815705
0.632329
-0.128006
-0.375337
-0.915131
-0.091283
0.201272
0.553178
-0.550975
0.632392
0.593147
0.457964
0.808197
-0.077835
-0.220478
0.645657
0.397755
0.601781
-0.943121
0.791460
0.402348
0.478540
0.012835
-0.601366
-0.707020
-0.722844
-0.148319
0.527238
0.229889
0.728806
-1.211599
1.031434
-0.404406
-0.113587
0.418939
0.727457
-0.062857
-0.591733
0.421696
1.214905
-0.874473
0.100027
0.119633
-0.134793
0.387130
0.512594
0.775403
-0.098288
-0.484748
0.548432
-0.478435
-1.103710
-1.001950
-0.043951
-0.960571
-0.304774
0.870092
0.571964
0.428297
-0.582871
-0.891343
-0.611735
0.914328
-0.678823
0.173082
0.867422
-0.601175
0.745655
-0.734248
0.830990
-0.283402
0.606438
0.977832
0.834818
-0.811165
0.632220
-0.735430
0.544294
-0.795583
-1.089537
-0.688964
-0.447422
0.065216
-0.077046
0.728734
-0.248961
-0.055265
0.988249
-0.387644
-0.163774
-0.218952
0.009455
0.495207
-0.145508
0.313443
-0.691327
0.102465
-0.234228
-0.421539
0.045010
-0.970297
1.010628
-0.233296
-0.940182
-0.392311
0.942459
-0.812195
-0.443843
-0.314987
-0.431608
-0.158069
0.355787
-0.445038
-0.714420
-0.582101
0.825777
-0.272093
-0.708492
0.150792
-0.854363
-0.586471
-0.082058
0.355381
0.522560
0.064106
-0.737166
0.294741
0.474990
-0.023101
0.992656
0.766043
-0.261190
0.458886
-0.485145
-0.834432
-0.790253
0.080737
0.593913
0.453798
-0.663814
0.214570
-1.161127
-0.099239
-0.526019
-0.094284
0.354296
-0.398192
0.254345
0.095502
-0.346170
0.444646
0.053399
0.566068
-0.643475
0.465726
0.726420
-0.167440
-0.634956
-0.192291
0.642850
0.820290
0.591043
0.778884
-0.178329
-0.030342
0.630389
1.008175
-0.706495
0.419136
0.795530
-0.635650
-0.259474
1.373260
-0.881605
0.342713
-0.080846
-0.378674
-0.387411
0.593345
0.844786
-0.084526
0.527130
-0.110701
-0.481511
-0.047092
-0.242199
0.315379
0.879233
0.765590
-0.413915
0.772313
-0.418311
-0.389419
-0.035753
-0.207022
0.098733
0.761001
-0.611814
-0.332803
-0.177883
-0.426276
-0.923360
-0.563151
0.116588
-0.871290
0.046722
-0.292064
0.117402
-0.395505
0.916618
0.192539
-0.445550
-0.689127
-0.735038
-0.653149
0.639853
-0.464970
-0.545131
0.965667
-0.727640
0.284971
0.001502
-0.630960
0.434506
0.705572
0.288127
-0.135344
-0.967799
0.030205
-0.099066
0.469476
-0.631592
0.853610
0.002721
0.639727
0.211200
-0.330778
0.376556
0.893559
0.955481
-0.789709
0.464722
0.829261
0.401846
0.825008
-0.620929
-0.573921
0.610514
0.589376
-0.922924
-0.405915
-0.011562
-0.305739
-0.199073
0.294652
0.299089
0.774515
-0.644093
0.110716
0.310948
0.421678
0.135867
0.359771
-0.276076
0.516724
-0.127108
-0.822010
0.732335
-0.287345
0.328592
0.372538
0.313757
0.068991
-0.722495
-0.428405
-0.777212
-0.649178
-0.588966
-0.484307
0.642847
0.898907
0.562718
-0.722385
0.632584
-0.472338
0.652358
0.832795
-0.118356
-0.257062
-0.666131
0.453500
-0.012202
-0.516316
-0.743928
-0.605595
0.778203
-0.712403
0.670296
-0.540659
0.633596
1.047032
-0.371717
0.487818
-0.688732
0.376464
-0.679919
-0.116712
0.813827
0.705607
0.246840
-0.320938
-0.155914
0.041867
-0.978490
0.385569
0.123498
0.480216
0.360215
-0.644928
-0.595743
-0.600336
0.082723
0.540675
0.957242
0.395881
0.789301
0.473018
0.574435
1.050623
0.132886
0.252705
0.726134
-0.351883
0.508026
0.088843
0.004578
0.869782
-0.337724
-0.658396
0.838377
0.375942
-0.524236
-0.242389
-1.206350
0.894528
-0.532142
-0.117153
0.136548
0.047811
-0.253058
-0.148110
-0.434275
0.051467
0.562622
0.442193
-0.116888
-0.692326
0.435893
0.824950
0.811623
0.153308
-0.703641
-0.514870
-0.499238
-0.540523
-0.172205
0.208402
-0.019855
-0.092698
0.743459
-0.521920
0.293479
-0.693582
0.841989
-0.821144
0.499694
0.001376
-0.118538
0.495915
-0.016892
-0.724001
-0.046088
-0.181749
-1.007962
1.066771
-0.963383
-0.950911
-0.421277
-0.380207
0.172384
-0.965589
-0.189674
0.084330
0.065034
-0.848526
0.940969
0.314322
0.446838
0.840569
-0.174849
-0.535777
-0.316066
-0.010805
-0.370099
-1.105634
-0.118676
0.253108
-0.624791
-0.201217
0.146629
0.078905
-1.193478
-0.087888
-0.090607
-0.611424
-1.239593
-0.269069
0.491317
0.613390
-0.121425
-1.136188
1.042821
-0.004973
-0.727495
-0.193040
0.425010
-0.040089
-0.603773
-0.655161
-0.782538
0.262312
-0.664060
0.671431
-0.586459
-0.290115
-0.224829
-0.312184
0.717974
-0.710063
-0.642627
0.825618
-0.374655
0.339590
-0.463737
0.264451
0.206610
-0.325200
-0.889188
-0.618525
0.694505
-0.678814
-0.502469
-0.683327
-0.846204
-0.819189
0.079855
-0.401884
-0.426854
-0.016927
-0.849611
0.118430
0.752037
1.021595
0.516030
0.306724
-0.360626
-0.671400
0.514944
0.219598
-0.038058
-0.798433
0.692204
-0.462929
0.187558
-0.484190
0.901584
-0.903265
0.844573
0.690350
0.948425
0.108305
-0.929648
-0.350208
0.017791
-0.681283
0.420164
-0.084592
0.737559
-0.510845
0.679519
-0.230098
-0.498134
0.218994
-0.284329
0.942120
-0.173331
-0.148991
0.265688
-0.976823
-1.290752
-0.391410
-0.328818
-0.585187
0.896879
-0.925536
-0.446205
0.517585
-0.403035
0.802287
-0.711564
-0.747216
0.578603
-0.731504
-0.183831
-0.455172
0.833302
-0.613636
-0.514734
0.316051
0.525812
-0.763412
0.824864
0.728130
0.919928
-1.166913
0.498628
-0.714104
-0.905430
0.649109
0.051922
0.696601
1.035586
0.178633
0.929597
0.003097
-0.187459
-0.829132
0.754552
1.019792
0.621975
-0.275698
-0.496675
0.531062
-0.164625
-0.889197
0.592180
-0.280034
-0.892751
0.863423
-0.093605
-0.138956
-0.357131
-0.464944
0.489682
0.030376
0.317480
0.791839
0.710817
-0.334270
-0.910993
0.834487
-0.605790
0.289975
0.125318
-0.575969
-0.062473
0.897674
-0.452088
-0.420021
0.157220
-0.906287
0.174579
0.455903
0.058729
-1.105602
0.405745
0.231469
0.962629
-0.130915
-0.148136
0.064176
0.634418
-0.386259
0.107268
0.945884
0.041128
-0.700741
-0.345853
0.217158
-0.266843
-0.839551
0.488910
-0.711432
-0.680085
0.908346
-0.723832
0.631190
-0.062934
0.866151
-0.535968
-0.017785
-0.781436
0.007429
0.047683
0.567279
0.965696
-0.365640
0.304711
-0.832773
0.336641
0.293181
-0.088229
0.413488
0.651448
-0.328135
0.307049
0.407132
0.980296
0.562009
-1.307987
-0.308961
0.450974
0.879793
0.963366
-0.264475
0.320861
0.154867
0.687233
0.645246
0.544343
0.875936
0.745502
0.973552
-0.257675
-0.852437
-0.566318
-0.918284
0.094773
0.743981
0.084028
-0.118801
-0.082342
0.984315
1.132362
-0.713663
0.510337
0.454531
0.625794
-1.011649
-0.611449
0.523214
0.814895
0.615792
-0.174200
-0.597994
-1.334007
-0.871637
-0.778234
-0.152137
-0.120089
0.234597
-0.633202
-0.538997
-0.362169
-0.594508
0.472298
0.494141
0.659053
0.957521
0.411002
0.191998
-0.026488
-0.687370
-0.203224
0.284936
0.367154
0.224074
0.061961
-0.625163
0.377366
0.525039
-0.700861
0.858960
-0.870293
-0.339817
0.471660
-0.833421
0.105152
0.767399
0.956562
0.592945
-0.792974
0.177152
-0.846595
-0.686332
-1.152789
-0.358059
-0.544633
0.229779
0.125506
0.523916
-0.010650
0.027836
0.810546
-0.049511
-0.352176
0.448835
0.917419
0.121214
-1.263263
0.602711
-1.081727
0.364429
0.137025
0.321919
-0.407707
-0.564142
-0.731428
-0.777338
0.532576
-0.519134
0.982433
0.803242
0.275321
-0.107545
0.316063
1.046190
-0.395496
-0.105353
-1.054957
-1.285720
0.516783
-0.247036
-0.432783
0.255290
0.384994
-0.296350
-0.029028
-0.693886
0.541618
-0.507586
-0.016384
0.043840
-0.060081
-0.087858
-1.290456
-0.818898
-0.858180
0.719461
0.357162
-0.102764
0.706749
0.449827
0.010045
-1.056497
-0.073374
-0.216869
0.580896
0.966569
0.606881
-0.400390
-0.097701
-0.179711
-0.101893
-0.226726
0.849065
0.667795
0.605085
-0.767416
-0.639654
-0.063009
1.013508
0.814885
-0.638053
-0.642912
-0.288870
-0.607428
-0.388402
-0.682875
0.112240
0.241156
-0.448786
0.032388
-0.059990
-0.746401
0.493790
0.446109
-0.859307
0.846788
-0.341987
-0.793353
-0.774604
-0.204044
1.060789
-0.823198
0.255262
0.246236
0.496339
0.039577
0.025221
0.663911
0.057423
0.329104
-0.608783
-0.789649
0.013172
0.019678
-0.077830
-0.290643
0.760706
0.217972
-0.526197
-0.577165
0.023551
-1.144483
0.677211
-0.264727
-0.458220
-0.378530
0.722913
-0.032064
0.668871
-0.076456
-0.433347
-0.227354
0.549944
0.390754
-0.607041
0.861877
-1.208862
0.010069
-0.663838
0.968389
0.450027
0.206532
-0.754527
-0.766002
0.189066
0.756413
0.215675
-0.121067
-0.191256
-0.256238
0.466094
-0.340770
-0.574448
0.801907
-0.780553
-0.789830
0.442885
0.274079
0.585075
0.043197
0.272675
-0.564851
0.579179
-0.646402
-0.637053
-0.329293
0.796664
-0.902251
1.029146
0.541358
0.854582
-0.014171
0.091739
-0.879602
0.625815
-0.262462
-0.658638
-0.483272
0.743093
0.010850
0.311038
-0.386310
0.949364
-0.185003
0.437310
-0.520814
-0.400654
0.464743
0.092647
-0.942013
0.184803
-0.879521
-0.415368
0.949949
0.686266
0.514515
-0.674793
-0.884870
0.912025
-0.367840
-0.505142
-0.742052
-1.066382
-0.662540
0.001022
0.979321
0.091777
-1.218872
-0.342090
-0.566686
-0.606626
-0.614037
0.205191
0.602585
-0.194612
0.624809
0.632251
-0.371127
0.263623
-0.203498
-0.125569
-0.802381
0.305726
0.506066
0.979159
-0.335815
-0.499842
0.697730
0.107329
0.333286
-0.398980
-0.001711
-1.294113
0.779028
0.577956
-0.152625
-1.199940
-0.028393
0.098571
-0.332938
-0.077824
-0.178210
0.057681
0.212817
0.221917
-0.400260
-0.797738
-0.645397
-0.555612
0.901950
0.339188
0.015322
0.034006
0.779907
-0.902221
0.191900
0.366473
0.160095
0.621538
-0.638191
-0.820059
0.788846
0.727267
-0.634054
0.122419
-0.264454
-0.842969
0.619896
0.794314
0.496300
0.296370
-0.447443
0.819953
-0.517704
-0.160152
0.364741
-0.075190
0.589394
0.383795
0.418172
0.242386
1.201115
-0.280955
-0.972951
0.734869
-0.864700
-1.317912
-0.699113
0.963837
-0.604165
-0.261161
0.480137
0.372194
-0.969158
0.836125
-0.371963
-0.129988
-0.162773
-0.460277
-0.215454
0.090178
0.716236
-0.478213
0.433655
-0.303809
0.989615
0.289449
-0.448306
-0.333321
-0.204217
-0.440305
-0.650044
-0.908968
-1.046511
-0.851477
-0.690965
0.100713
-0.158009
0.941449
0.453856
-0.220209
-0.650648
1.115417
-0.407485
0.610686
0.569740
0.001468
0.660321
0.029645
0.965609
0.765239
0.300589
0.659043
-0.333391
0.902002
-0.917644
0.799762
1.108464
-0.496625
0.391603
0.348738
0.513252
-0.542277
-0.789119
-0.576553
-0.102618
-0.104681
0.061424
0.199191
0.591918
-0.512723
0.332622
0.285152
0.677653
-0.761755
0.809237
-0.464144
-0.295387
-0.346263
-0.105280
1.109428
0.644181
0.468541
-0.584012
-0.213073
0.315646
-0.301970
-0.674765
0.417609
0.048514
-0.430514
0.701293
0.974755
0.982714
-0.325293
0.717126
0.182409
0.674253
0.015623
-0.502089
-0.529691
0.238285
-0.241036
0.881633
0.653801
0.169189
0.745957
-0.020884
-0.200467
0.741974
0.389239
-0.006426
-0.538596
-0.274998
0.646676
0.000894
-0.173050
-0.254043
-0.410104
0.244866
0.185329
-0.976605
-0.522962
-0.199807
0.791605
0.474734
0.765269
0.418744
0.182902
-0.397464
0.282519
0.645085
-0.879969
-0.459668
0.181708
-0.816931
0.373914
-0.009411
0.523219
-0.465858
-0.610864
-0.511249
0.383141
0.610922
0.325356
-0.369681
-0.017638
-0.368733
-0.195705
0.351257
-0.266281
-0.484006
-0.626515
0.789668
0.341715
0.659334
-0.603492
0.988282
-0.827565
0.702415
-0.425953
0.194810
0.407135
0.280093
-0.619757
-0.360064
-0.258221
-0.621554
0.231351
-0.742147
0.638607
0.156020
0.181020
0.866586
0.178812
-0.945403
-0.579545
0.245033
0.026578
-0.337517
-0.664136
-0.981092
0.773796
0.597963
-0.235533
0.823413
0.851772
-0.155156
0.677489
1.009751
0.337456
0.400034
0.708695
0.448028
-0.168050
0.761383
-0.196507
0.606309
0.178146
-0.010362
0.154947
-0.605281
-0.153694
0.681706
0.163143
-0.639877
0.219834
0.437612
-0.510795
-0.254826
0.476266
-0.490531
-0.150549
0.147448
-0.626853
0.111058
-0.943486
0.293921
0.138053
0.076308
0.103488
0.372667
0.382111
-0.193230
0.458041
-0.062869
-0.562286
0.803928
0.160369
0.962734
-0.102859
-1.139814
-0.195919
-0.871770
0.785328
-0.058699
0.484163
0.693803
0.847871
0.436663
-0.187065
-0.663340
-0.066449
-0.419380
-0.366470
0.754942
-0.825973
0.396586
-0.094762
-0.514228
-0.561814
0.633726
0.162002
-0.066075
1.010794
-0.130969
-1.019562
-0.755818
-0.688906
0.586417
1.059834
-0.666421
0.769636
-0.053678
0.790602
0.988396
-0.127072
0.949029
0.372357
1.053442
-0.923793
-0.863694
-0.046483
-0.798696
-0.235316
-0.212639
0.090237
1.015307
-0.428179
0.513651
-0.601477
0.260557
0.842609
0.010246
-0.316055
0.364183
0.348796
-0.418920
-1.045137
0.394165
-0.453509
0.911797
1.051021
-0.227652
0.299449
0.554368
0.635074
1.056146
0.267300
0.812580
-0.523896
0.520734
-0.476635
-0.300487
0.644270
-0.371303
-0.596094
-0.168699
-0.805174
-0.754667
0.391251
0.265095
0.495440
-0.116706
0.285430
0.920272
0.813381
1.094748
-0.627045
0.224622
-0.794558
0.781171
-0.306274
-0.427656
-0.568732
-0.728600
-0.096755
-0.005967
0.430213
1.093561
-0.397382
0.373650
-0.341855
0.996576
-0.926724
0.733433
-0.226020
-0.678701
0.080464
0.376402
-0.477120
-0.356498
-0.453061
0.281425
0.063670
0.656381
0.494184
0.165760
0.694973
0.568898
0.189864
0.709957
1.036757
0.501210
-0.264635
0.987905
-0.100528
-0.535015
0.745088
0.489069
-0.311485
0.754998
0.374627
-0.910391
0.548822
0.115102
-0.697809
0.293225
0.311348
0.541675
-1.088764
-0.319707
0.696549
-0.805790
-0.712001
0.155882
-0.474537
1.090072
0.006350
-0.846794
0.806576
0.714094
0.920388
-0.139882
0.400404
0.483333
-0.021244
-0.545670
0.310289
-0.517044
-0.380648
-0.066258
0.785006
-0.845136
0.543331
-0.122986
-0.714992
-0.582791
0.373498
-0.005358
-0.927423
-0.490112
-1.143962
0.591224
0.915906
0.767428
-0.341891
-0.656563
-0.228952
-0.690447
0.342000
-0.090746
-0.713760
-0.249026
0.086149
-0.843598
1.105172
0.427500
0.733758
-0.287186
-0.336582
-0.649467
-0.278985
0.117848
-0.322771
0.644908
-0.277668
0.669568
0.490701
-0.611967
0.068406
-0.968052
-1.103782
1.046287
-0.858870
-0.021003
0.274021
-0.752177
1.050238
0.957271
0.243098
0.814547
0.376205
-0.238217
-0.112641
0.083753
0.720553
-0.890743
0.128618
0.452653
-0.455578
0.999420
-0.534236
-0.470830
0.569577
0.029056
-0.100201
-0.551828
-0.522151
0.797175
0.323366
-0.648761
0.422727
-0.271847
-0.277101
-0.021954
-0.847965
0.198200
0.793162
-0.688382
-0.693961
-0.468456
0.780751
0.226499
-0.452185
0.647017
0.712869
-0.349476
-0.088117
0.728767
0.891090
0.459004
-0.666447
0.609572
-0.683471
0.414420
0.369862
-0.466240
0.394116
0.085193
-0.594152
0.464108
0.242646
0.744755
0.749245
1.023034
-0.124414
0.441105
0.647834
-0.301650
0.941016
0.747646
-0.849476
-0.593053
0.822443
-0.787770
-0.757190
0.876684
-0.753724
0.920388
1.126370
0.778803
0.432798
-0.338838
0.230377
0.235126
0.170433
-0.452611
-0.351344
-0.311691
0.474037
0.311264
-0.760725
0.197790
0.494186
0.586572
0.936108
0.011900
-0.350687
0.112045
0.918596
-0.660619
0.092729
0.175884
-0.877488
-0.359168
0.106341
0.389519
-0.132955
-0.954306
0.122469
-0.827573
-0.424150
-0.846727
-0.638544
-0.913269
-1.192147
0.440251
-0.621172
0.780127
-0.510399
-0.402662
-0.432627
-0.778655
-0.748288
0.456152
0.409369
0.574449
-0.408839
0.770582
-0.629632
0.871733
0.699683
0.242949
1.022015
0.276591
0.377549
-0.679270
-0.329389
-0.081915
0.576646
-0.255554
0.047612
-0.140621
-0.231243
-0.046077
-0.109373
-0.213344
0.246860
0.756030
0.126048
-0.122092
-0.160697
0.688053
0.745904
-0.707095
-0.130334
0.500026
0.380311
-0.735724
0.275908
-0.741538
-0.752109
0.438321
-0.826052
0.117442
0.612103
0.222759
0.300784
-0.516290
-0.359224
0.445285
-0.798430
0.851230
-0.358763
-0.592597
-0.010555
-0.457864
-0.438852
-0.402740
0.434063
-0.470050
-1.376077
0.467370
-0.254635
-0.743721
0.425659
0.918544
0.663207
0.640030
-0.330996
0.712818
0.193671
0.769947
-0.528189
-0.801810
0.484985
-0.512945
0.714111
-0.172546
1.366125
0.758766
-0.337486
-0.423410
0.798316
-0.213309
-0.208438
-0.235327
0.856839
0.051008
-0.029586
-0.751599
-0.174567
0.074820
0.316687
0.250755
0.214925
-0.060070
0.913494
0.437191
-0.236795
0.735652
0.487279
-0.108928
0.177129
0.786064
-1.170323
0.231336
-0.038077
0.402735
0.291621
-0.100902
0.940994
-0.362137
-0.833671
0.884790
-0.773452
-0.576419
0.429147
0.208123
-0.827128
-0.067385
-0.742581
-0.135213
0.490143
1.086326
-0.090312
-0.215066
0.369661
-0.663659
-0.893036
0.258017
0.145057
0.123374
-0.451647
-0.581372
0.424143
-0.313059
0.254599
-0.614387
-0.474912
0.569809
-0.822306
-0.194083
-0.628490
0.958627
-1.503359
-0.801296
-0.188632
-0.367445
-0.580409
0.907419
-0.033348
-0.455320
-0.253563
-0.386655
-0.387944
0.345823
-0.292264
-0.252106
0.375980
-0.336673
-0.319488
0.590535
-0.964773
0.538936
0.096418
-0.541570
0.209274
-0.082365
1.508133
-0.659121
0.088470
0.032179
-0.778588
1.006619
-0.925639
-0.439627
0.818748
-0.543839
-0.698943
-0.399508
-1.688959
0.564896
-0.635812
-0.443959
-0.964418
0.185175
-0.352777
-0.573745
-0.398897
-0.240628
0.187069
0.785619
-0.109191
0.598624
-0.277531
-0.371360
-0.893596
-0.081961
0.502264
0.820895
-0.874666
0.342015
0.170569
0.255443
-0.791803
0.295135
0.731291
0.095083
-0.840045
0.698229
-0.161982
-0.385828
0.861464
0.239848
-0.572469
-0.462921
-0.366215
-0.296487
-0.479276
-0.226942
0.934025
-0.085920
0.583037
0.859286
1.095018
0.607014
-0.056632
-0.380827
0.562685
0.546697
-0.172752
-0.878718
-0.482958
-0.761916
-0.911706
0.213231
0.121074
0.127817
0.426126
1.015782
-0.933262
-0.883704
-0.762433
-0.792131
0.823195
0.964495
-0.915588
-0.346356
0.149521
-0.192806
-0.399353
-0.039436
0.251026
-0.586552
0.119726
-0.892343
-0.454662
0.091258
0.574514
-0.384004
0.839474
0.807452
0.018663
0.635406
0.337796
0.417239
0.708948
-0.743393
-0.522458
0.878349
-0.932423
-0.688419
-0.288593
-0.712920
-0.011653
0.298605
-1.018942
-0.786782
-0.402542
-0.013323
0.298975
0.269766
-0.121646
0.094346
1.106800
0.391961
0.528554
-0.071990
0.452770
0.873612
-0.275781
-0.636488
-0.074935
-0.874812
-0.687594
-0.902314
0.401752
1.260439
0.273540
-0.986276
0.259288
-0.913126
0.322288
-0.568765
-0.104716
0.790086
-0.644698
-0.348773
-0.983564
-0.394124
0.400744
-0.559183
-0.482193
-0.131140
0.580150
-0.741778
-0.145459
0.241843
0.437835
-1.052148
0.515261
-0.646833
0.551810
-0.959439
0.950264
-0.410237
-0.006553
0.379564
-0.817681
0.380277
-0.729663
-0.034857
-0.304252
0.568343
0.566480
-0.667377
0.768916
-0.989565
0.045313
0.035695
-0.265567
-0.456184
-0.337710
-0.679986
0.442264
-0.390286
0.800051
-0.509425
-0.387442
-0.356256
-0.106069
0.547124
0.751912
-0.852064
-0.292833
0.914156
0.499569
-0.549879
0.880973
-0.402506
-1.426925
-0.933808
-0.758468
-0.180330
0.223619
-0.226158
0.770123
0.609467
0.168590
0.452507
-0.925367
-0.477426
-0.542362
-0.361461
-0.246176
0.523200
-0.745062
-0.597482
-0.155056
0.906783
-0.233472
-0.656728
-0.311680
-0.853243
0.533581
-0.659624
-0.599900
-0.130324
-0.764804
0.643911
-0.353923
0.538946
0.186803
0.664583
-0.516061
-0.504815
1.031010
0.349381
0.333384
0.111457
0.381689
0.742049
-0.669813
0.790196
-0.363172
-0.772203
-0.627301
0.532474
0.720532
0.300905
-0.797730
0.262292
0.877843
-0.230410
0.385786
0.135759
-0.428175
0.352793
0.455663
-0.726772
-0.648307
0.650328
-0.668556
0.766410
0.197859
0.449871
-0.352421
-0.467478
0.205275
0.033754
0.542365
-0.437508
0.303950
1.014676
0.366487
-0.895392
0.206839
-0.760822
0.824360
-0.778998
0.590552
0.579720
-0.484146
-0.693841
0.341986
-0.429428
-0.266850
0.454045
-0.973696
-0.500554
0.354765
0.569401
0.748910
0.063516
-0.230415
0.102828
0.279202
-0.251682
0.299123
1.063596
0.145845
-0.194842
0.845180
-0.649856
0.247041
-0.182713
0.834244
-0.364619
-0.001698
0.032306
0.678607
0.191617
0.783655
-0.685284
-1.162505
-0.218708
0.814828
-0.582200
-0.313313
-0.031488
-0.163402
-0.474747
0.938302
-1.006427
-0.744815
0.151426
-0.353019
-1.004195
-1.077436
-0.551305
-0.558925
0.332029
-0.175654
-0.880884
-0.287321
-0.736881
-0.609218
-0.195245
0.734681
-0.042076
0.920388
-0.314015
0.097877
-0.181251
-1.137861
0.880365
0.826553
-0.165034
-0.194711
0.993167
1.068988
0.869435
-0.596250
-0.728100
0.850283
0.883539
-0.556371
0.623772
0.253720
-0.032618
-0.842136
-0.471681
-0.364346
-0.773042
0.506776
0.553661
-0.336923
0.243686
-0.903446
0.535733
0.124060
0.787206
-0.123871
-0.447120
-0.933861
-0.898395
0.717527
-0.454093
1.002294
0.883114
0.070413
0.413182
0.218042
-0.536801
-0.199908
-0.375142
0.270562
0.686684
-0.099392
0.086402
0.671959
0.241977
-0.475012
-0.118735
-0.667928
0.693491
0.599256
-0.866681
-0.545393
-0.652040
-0.018699
-0.742359
-0.879121
-0.930424
0.466776
-0.814259
0.791720
0.542086
-0.287512
-0.208774
1.043088
-0.031497
-0.773203
-0.397242
-1.046744
0.370634
-0.252194
-0.272989
0.402400
-0.361007
-0.118867
0.737918
0.893075
-0.921658
0.348017
0.084120
-0.423605
0.382018
-0.570883
-0.839706
-0.741671
-0.295140
-0.937507
-0.400661
0.319476
0.311333
-0.353842
-0.525668
0.488244
0.974687
-0.338658
0.945527
0.719942
0.635679
-0.354943
0.231383
0.283097
-0.502467
0.450741
0.448852
0.041026
0.615335
-0.395473
0.688525
-0.201833
-0.961891
-0.740734
0.143293
0.467494
-0.336854
0.203423
0.604910
-0.163457
-0.819207
-0.430534
-0.348333
0.324753
-0.518694
-0.779381
-0.553922
0.525856
-0.737428
-0.890501
0.519116
0.031984
-0.258558
0.969747
0.880489
-0.792092
0.079916
-0.518861
0.893760
-0.719813
-0.512182
0.385362
1.069247
-0.423992
-0.348131
-0.858474
-0.568178
-0.098658
-0.829143
0.849926
0.311791
-0.294195
-0.523709
0.023421
-0.313471
0.528988
-0.119927
-0.182392
0.431354
-0.102365
0.366227
0.561961
0.832617
0.111523
0.589702
0.043634
-0.834842
0.111259
0.280355
0.634216
0.628415
0.545341
0.023488
-0.789625
-0.842360
-0.661810
0.283228
-0.429323
0.729210
-0.726884
0.229353
0.482903
-0.603127
0.272930
-1.227244
-0.342857
-0.776065
-0.085356
-0.468420
-0.539929
-0.063398
-0.375938
-0.599100
0.436847
0.168152
-0.030470
-0.589517
0.161268
0.583361
0.144018
-0.964333
0.339150
1.189780
0.094524
-0.760842
0.337127
0.353364
-0.903256
-0.387613
0.745086
-0.700599
1.305837
-0.865967
-0.320853
-0.247716
1.001872
0.338769
-0.774169
0.150333
-0.403296
-0.507022
-0.754572
-0.602928
0.936802
0.627903
-0.817301
-0.223348
-0.073858
0.774572
-0.585504
0.260900
0.919698
0.270507
0.453812
-0.531362
-0.608826
0.317053
0.580144
0.751668
0.804409
0.487104
-0.707147
0.695068
-0.627719
-0.614087
-0.209620
0.536762
0.472734
0.185397
-0.960109
1.006756
-0.599945
0.019115
0.029413
0.896565
0.105559
-0.650939
-0.279633
-0.647417
0.696644
0.595432
-0.441547
0.531239
0.182873
0.979472
-0.414995
0.455478
0.270201
-0.167633
0.009149
-0.942985
0.332137
0.938425
0.306140
-0.016344
0.719344
-0.602351
0.561905
0.841459
0.947089
0.732127
0.399908
-0.371656
-0.884060
-0.755256
0.578861
0.836525
-0.107788
0.457253
-0.019655
0.965288
-0.763507
0.090223
0.532666
-0.634285
1.207884
-1.125968
0.055911
-0.513312
-0.776144
-0.191937
0.241544
0.988805
1.364544
0.165837
0.096937
0.662479
-0.544567
-0.483750
0.004920
0.274185
-0.509035
-0.823101
-1.031761
-0.115434
0.097782
-0.606545
0.153714
-0.762822
0.825255
-0.831487
-0.602867
-0.852074
0.017142
1.091214
-0.432151
-0.740569
-0.890698
0.970179
-0.498116
0.893680
0.409890
-0.315812
-0.064344
0.049139
-0.076450
-0.219026
-0.305064
0.433487
0.717779
0.912258
0.795261
0.777974
0.980387
0.578660
-0.946868
-0.413181
-0.221095
-0.398438
-0.570148
0.656806
-0.107427
0.777879
-0.788588
-0.086260
0.521211
0.162413
-0.556206
-0.791569
0.157096
-0.727807
0.572809
-0.709371
-0.129141
0.275461
-0.842207
0.658219
0.104262
-0.851623
-0.340385
0.792644
-0.258834
-0.411723
-0.400778
0.029008
-0.567708
-0.572012
0.321362
-0.677856
-0.925939
-0.103674
0.861011
0.106875
0.425874
0.010781
0.528229
0.834199
-0.152872
-0.969927
-0.861239
-0.141109
0.854995
-0.269547
0.697241
-0.470983
-0.770613
0.259903
-0.947309
-0.335207
-0.565646
0.275919
-0.089283
0.552221
0.285835
0.582636
-0.790382
-0.357240
-0.126532
-0.768691
-0.378091
-0.080073
-0.229535
0.636353
-0.693743
-0.205743
0.138689
0.791421
0.197179
-0.146994
0.966273
0.840010
-0.045789
0.244951
-0.481913
0.388374
-0.539480
-0.216907
-1.188455
0.943720
-0.686684
0.260447
-0.434254
0.331890
0.663423
-0.573431
-0.646589
-0.836877
-1.026370
-0.252450
0.757547
0.299765
-0.891173
0.857905
0.363270
-0.031620
0.436879
-0.846425
0.155086
0.786554
0.119400
-0.732143
0.316529
-0.373311
0.977888
0.234433
0.569132
-0.558164
-0.547672
0.680581
0.171043
0.173500
-0.013446
-1.088601
-0.646745
-0.390879
-0.842309
1.016463
-1.008441
0.733500
-0.166453
-0.681512
-0.745962
0.241340
-0.761076
-0.179658
0.870310
-0.516178
-0.585460
-0.931139
0.220746
0.118900
-1.226630
-0.182546
1.003037
-0.543810
-0.201890
0.143415
-0.866738
0.558032
-0.498709
-0.669293
-0.300543
0.445166
0.247033
-0.508454
-0.665229
-0.600975
0.858893
1.248141
0.747204
-0.597548
-0.162881
-0.948488
0.184949
-0.411811
0.948796
0.473689
0.757228
0.202642
0.022687
-0.247308
-0.148441
0.397302
-0.024201
0.335851
0.055368
-0.181648
-1.217915
0.007027
0.866940
0.069382
-0.503243
-0.738988
0.381719
0.224681
-0.834972
-0.136367
0.856128
0.371057
-0.211941
0.926127
0.062847
0.917431
0.670957
0.000611
-0.661395
0.383145
-0.377191
-0.087830
0.981994
-0.751910
-0.769730
-0.794729
0.111372
-0.692468
0.423960
0.938494
-0.485827
0.458388
-0.497136
0.338914
-0.523380
0.806968
-0.897286
-0.389012
-0.331991
-0.134569
-0.492232
-0.500586
-0.654613
0.583812
-1.085833
-0.325431
-0.411040
0.268407
0.057970
-0.580730
0.674169
0.008999
0.698730
-0.452274
-1.192869
0.985788
0.540991
0.727863
0.212220
-0.654835
-0.438512
0.660478
0.207246
-0.584226
0.488611
0.459470
0.347370
0.019496
-0.519641
-1.062832
-0.350522
-0.685342
-0.511667
-0.685882
0.392237
-0.950188
-0.741023
0.505686
-0.355204
0.446995
0.482320
0.187148
-0.220104
0.743417
-0.044915
0.679067
-0.600966
0.265332
0.603146
0.168345
-0.010359
-0.476508
0.973571
-0.225038
-0.236136
0.801536
0.177347
0.420614
0.571030
-0.964233
0.095186
0.189083
-0.294060
0.698298
0.412240
0.231828
0.273759
-0.881857
1.068518
-0.142508
-0.653354
0.295089
0.377396
-0.817013
-0.924338
-0.804869
-0.132611
-0.504952
-0.326776
-0.344197
-0.740790
0.189082
0.096918
0.391637
0.787215
-0.437675
-0.603883
0.755283
-0.414029
0.313507
0.388318
0.358145
0.313459
0.130544
-0.334762
0.017361
-0.391772
-0.778144
0.016855
-0.971251
-0.866108
0.423027
-0.265274
0.451259
-0.131784
0.554068
-0.273029
0.049434
0.299076
0.118747
-0.171135
-0.104495
0.392552
0.055253
0.473164
0.143878
-0.521462
-0.577158
-0.390274
-0.799144
-0.355453
-0.103445
-0.879890
0.151105
-0.220486
-0.260510
0.742455
-0.936389
0.424174
0.261777
-0.449494
-0.553272
0.328927
-0.891061
-0.446122
0.347476
-0.616862
0.929252
-0.366729
0.260611
0.386647
0.530177
0.673314
-0.362435
-0.626370
-0.389740
-0.458523
0.572053
-0.202056
0.460360
0.764725
-0.444623
-0.002432
-0.223905
0.435414
0.582213
-0.329514
-0.305423
-0.133778
0.239028
-0.780418
-1.059753
-0.591902
0.806548
0.448285
-0.826451
0.355746
0.364676
-0.942690
0.908612
-0.081006
0.244320
-0.463302
0.587264
-0.322841
0.645830
-0.495276
0.632193
-0.219284
-0.810115
-0.748051
-0.517744
0.803344
0.897341
0.126082
-0.722196
0.982950
-0.832423
1.171547
-0.720535
0.568455
0.282257
-0.923100
0.160082
-0.009634
0.569459
0.313115
0.460990
0.148063
-0.612181
-0.102729
-0.224418
0.431069
-0.591179
-0.243260
0.162872
-0.730751
0.663228
0.756044
0.431896
-0.190287
-0.361669
-0.734416
0.367709
0.419347
-0.550354
0.421732
0.054081
-0.172962
-0.607767
0.355460
-1.072679
0.221399
0.133116
-0.924932
-0.614631
0.931482
0.337298
0.892724
-0.118582
-0.421682
0.806153
0.394163
0.651796
-0.604815
-0.110199
-0.080141
0.504930
0.394287
-0.020927
0.059940
0.561521
-0.454176
-0.771773
0.025477
-0.943069
0.739275
-0.405024
1.300628
-1.067570
-0.551088
-0.247100
0.987323
0.077687
-0.738574
0.629434
1.078209
-0.779720
-0.430152
-0.687706
-1.255028
0.709274
0.347097
0.863502
0.527111
0.030971
0.103914
-0.292083
-0.817349
-0.397593
0.781832
0.020979
0.718945
-0.781783
0.850675
-0.591133
-0.344434
0.213541
0.433285
0.283416
-0.768068
0.633751
-0.774740
0.604260
-0.741568
0.441789
0.254270
1.038583
-0.419392
0.661398
-1.343068
-0.349045
-0.583668
0.124256
0.156341
-0.572984
0.986925
-0.941740
-0.354305
0.628521
-0.947122
-0.543741
0.765441
0.496067
0.234716
-0.802601
0.522333
0.041376
0.174283
0.618001
0.333411
-0.575546
0.593641
-0.344576
0.683078
-0.460052
0.694321
-0.567573
-0.769563
0.407631
-1.141156
0.004538
-0.547629
0.167930
-0.325282
-0.100249
0.021295
0.562343
-0.880450
0.247768
-0.757884
1.207082
0.011057
-0.951312
0.034316
0.106528
0.109510
0.530357
-0.701475
0.170841
-0.401803
0.041447
-0.477269
0.158142
0.130651
0.098909
-0.182632
-0.550042
-0.581429
0.403995
0.191775
0.346137
0.308675
-1.012385
0.155293
0.042454
-0.349767
0.647473
0.381145
-0.600385
0.608301
-0.714128
0.261093
0.851084
0.141572
0.165722
0.320890
-0.635664
-0.783830
0.356554
-0.348468
0.744676
-0.340649
0.701745
0.032798
0.026658
0.542325
1.127494
-0.740357
0.435490
-0.466132
0.391987
-0.016285
-0.830904
-0.587678
0.147250
1.068911
-0.456423
0.405012
0.740516
0.039496
0.125383
-0.450821
0.507966
-0.407585
-0.025809
0.114915
0.715130
-0.829513
0.258671
0.765482
-0.886764
0.460829
0.169683
-0.397048
-0.549326
-0.691670
0.123377
-0.124400
0.223924
-0.529608
-0.229187
-0.075748
-0.199174
-0.631814
0.284318
-0.150094
-0.816370
0.135362
0.521244
0.232364
0.243078
0.752105
-0.730708
0.866724
-0.262642
-0.721976
-0.989444
0.010073
0.504740
0.780640
0.709106
-0.816337
-0.095495
-0.169386
-0.128003
0.102345
-0.092776
0.907272
1.010584
-0.229114
0.537034
0.051247
-0.077068
0.876588
-0.138277
-0.850025
-0.586248
0.563063
-0.388975
-0.255839
-0.617165
-0.729777
-0.646802
-0.961821
-0.150400
-0.104017
-0.800336
0.374214
-0.550883
-0.684291
