3072 30 10 0.1000 200 200 20
-0.325404
-0.565319
-0.149564
-0.270138
-0.016179
-0.220237
-0.413579
0.192913
-0.028436
-0.542985
0.113586
-4.801222
0.037964
0.080910
0.075687
-1.504755
0.159225
-2.574008
-2.328602
0.136527
0.320577
-0.003666
0.042637
0.205470
0.089052
0.026025
3.777320
0.042873
-3.109181
-0.063223
0.077808
0.208522
-2.526736
-1.156351
0.160777
-0.006963
0.073609
-1.770929
0.163863
0.193580
0.704775
0.536044
-0.738895
-0.759906
0.011553
-0.124919
0.917543
-0.498872
-0.684952
0.045518
0.372138
0.876580
-0.363674
0.704753
-0.002088
0.021836
0.126212
0.819894
-0.166612
-0.758698
-0.429885
-0.371219
-0.161511
0.744401
0.818071
-0.386001
0.364530
-0.372634
-0.462513
-0.945489
-0.229983
0.770748
-0.333593
0.678560
0.835340
-1.415353
0.217229
0.184354
0.039698
-0.735270
0.131607
0.157803
0.574437
0.701914
0.771925
0.102391
0.025123
-0.127126
0.534204
-0.777713
-0.549726
-0.641075
0.339418
-0.945596
0.025798
-0.899896
0.545124
-0.041165
-0.947188
-0.511184
-0.972522
0.469870
0.457922
-0.038276
-0.065189
0.318492
0.367616
-0.663961
0.387524
0.286605
0.810434
-0.257380
-0.293223
-0.710076
0.789799
0.628496
0.978716
0.583602
0.230444
0.220374
0.767591
-0.838391
0.635996
0.264469
-0.634010
0.755440
-0.390613
-0.259979
-0.436202
0.932503
0.279519
0.735211
-0.883915
-0.320440
-0.842634
0.040256
-0.751467
0.580022
-1.221630
0.021876
0.219105
-0.744291
0.857258
-0.254183
-0.359152
-0.587453
0.755341
0.126957
-0.015227
-0.109017
0.851327
-0.622104
-0.910056
-0.238618
0.942431
0.497767
-0.669196
-0.380879
0.582697
1.014269
-0.639482
-0.139385
0.555205
-0.048979
0.288732
-1.212606
-0.580055
-0.607946
-0.342666
0.751683
0.826381
0.993560
-0.990400
0.052864
-0.929147
-0.325633
-0.311524
-0.315137
-0.416500
-0.079374
0.149262
-0.669814
0.378877
-0.390825
0.048252
-0.907555
-0.881092
-0.649110
-0.439114
0.341420
-0.633451
-0.128900
0.957404
-0.039164
-0.532557
0.314663
-0.735619
-0.044005
-1.021131
0.705328
0.000969
-0.121455
0.523563
0.122459
-0.568330
0.105050
-0.093146
0.091266
-0.363865
-0.777710
0.744075
-0.915077
0.333813
0.821794
-0.905794
-0.323572
-0.891327
-0.041478
-0.923517
0.358761
-0.307301
-0.498360
-0.589703
-0.238031
-0.446909
-0.914604
-0.673496
0.752736
0.172782
-0.913523
-0.908921
0.962732
0.603194
-0.515038
0.253327
0.149570
-0.659889
0.964192
1.161624
-0.487422
0.561303
-0.827984
0.038458
1.027655
-0.131729
0.562373
-0.734412
0.237261
0.021621
0.904196
-0.210828
-0.021482
0.730880
0.297825
0.136424
-0.894135
-0.482900
0.537411
-0.900194
-0.244153
0.556813
-0.079487
0.041620
0.723691
-0.035193
-0.273365
0.583196
-0.618961
-0.004624
0.657707
-0.180568
-0.619274
-0.820518
0.972414
-0.053949
-0.900865
0.577511
0.776012
0.132043
-0.007462
0.864047
0.645899
0.056485
0.845506
0.780120
0.713832
0.332752
-0.574567
-0.830538
-0.958579
0.961254
0.049595
0.009490
-0.550785
-1.000777
-0.966546
-0.319429
0.194095
-0.564148
0.680262
-0.480346
-0.609578
0.517842
-0.645281
-0.660029
0.236924
-0.220166
0.895251
-0.776553
-0.526615
-0.292394
0.719513
0.938506
0.457099
0.091767
-0.167488
-0.741579
0.678295
-1.235800
-0.980508
0.480620
-0.012825
-0.726571
-0.472939
-0.437697
0.314644
0.182441
-0.694206
1.000141
-0.735712
0.203675
0.784203
-0.789905
-0.865025
0.513608
0.611459
0.457404
0.247030
-0.456594
0.896777
-0.206596
-0.019173
-0.129578
0.409139
-0.569839
-0.387622
0.916279
0.101719
0.702222
0.936136
0.571756
0.462142
0.128884
-0.626639
-0.673653
-0.372287
-0.347180
-0.660988
0.820178
-0.817395
-0.864345
0.679224
-0.099816
0.877327
-0.301577
0.954366
0.384976
0.800813
0.505729
0.256916
0.335232
-0.932412
-0.235706
-0.183538
-0.872596
0.389916
0.750987
-0.317330
0.872039
0.192786
0.966952
-0.620741
0.330875
0.401605
0.192279
-0.077994
-0.069006
0.792481
0.172548
0.052319
0.262582
-0.135605
-0.667617
0.520316
-0.617046
-0.937734
0.184602
-0.104747
-0.204041
0.770394
0.703775
-0.642910
0.604133
-0.616731
-0.712835
-0.420763
-0.551448
0.307891
-0.360492
-0.091798
0.287708
0.825071
-0.903013
0.170821
0.801306
0.220202
0.008470
-0.942451
1.115675
-0.204002
-0.339680
-0.445887
0.408211
-0.059082
-0.585343
-0.215348
-0.380613
0.065844
0.212844
0.358060
-0.420663
0.060546
0.428640
-0.719542
0.462207
0.369393
-0.775038
-0.523770
0.177872
0.088633
-0.339137
0.300856
-0.328038
0.630620
0.017875
-0.786130
-0.024376
0.540189
-0.403638
-0.929787
-0.125855
0.485945
-0.019012
0.941638
0.388590
0.368550
0.355689
-0.248452
-0.596315
-0.803367
-0.246848
-0.223979
-0.624690
0.253168
-0.421684
-0.177460
0.812233
-0.072977
-0.466053
-0.240072
-0.055862
0.609823
0.564938
0.545982
-0.464647
-0.261405
0.782584
-0.133433
-0.799562
0.164026
-0.625623
0.212626
-0.031461
-0.140057
0.127738
-0.692281
-0.653369
-0.379781
-0.100894
-0.278238
-0.968461
-0.285658
0.349153
0.269453
0.755238
-0.092441
-0.363813
-0.744936
0.603282
0.311473
0.035626
0.892391
0.305669
-0.634440
-0.218508
-0.192218
0.435288
0.414422
-0.284799
-0.703072
-0.918019
0.468959
-1.038586
0.672755
-0.378682
0.508986
-0.890674
0.367784
0.476160
0.337374
-0.826782
-0.503319
0.859969
-0.266362
-0.132550
0.742080
-0.470730
-0.916393
0.700774
0.216947
0.109022
-0.003270
-0.334031
-0.964294
0.458438
-0.448822
-0.793795
-0.461598
-0.255712
-0.307951
-0.880284
0.358104
-0.325721
0.715933
0.276100
0.245883
0.045144
-0.256132
-0.088117
0.833483
-0.241481
-0.395967
0.003016
0.084300
-0.122160
0.536343
-0.283427
-0.668537
-0.085452
0.235861
0.347200
0.883722
-0.883197
-0.615516
-0.145806
-0.525314
-0.366014
0.866657
0.402388
-0.710661
-0.722817
-0.562259
0.604674
0.851560
0.010214
-0.700992
0.962412
-0.489744
0.399911
0.508773
-0.458052
-0.513185
-0.185144
0.128863
-0.255113
0.343304
0.913363
0.656117
0.708465
0.775392
-0.594048
0.603264
0.531922
0.725384
0.636365
0.137645
0.393412
-0.298980
-0.253864
-0.528357
0.453176
-0.485372
0.421323
0.113360
0.597713
0.607163
-0.748744
0.628476
0.611956
-0.153519
0.919179
0.615333
-0.382535
-0.314270
-0.816533
0.769740
-0.111145
0.610881
0.270645
0.368510
-0.404855
0.768294
0.922101
-0.387264
-0.540363
-0.453949
0.014411
-0.829662
0.339571
-0.414873
0.559576
0.895262
0.179173
0.266370
0.323450
-0.762300
-0.868087
-0.067419
-0.149946
0.617505
-0.906365
0.756215
-0.768884
0.506958
0.044846
-1.131350
0.299154
-0.648139
-0.446103
0.663395
-0.064287
0.904781
0.254334
0.679396
-0.602220
-0.051631
-0.309252
0.147337
0.365894
0.859071
0.522121
-0.260471
-0.799262
-0.360650
-0.411666
-0.953050
0.147046
0.485342
-0.392686
-0.331494
0.906916
0.053875
-0.890226
0.421687
-0.953961
-0.658694
-0.073099
-0.608385
0.600929
-0.044742
-0.075936
-0.036477
-0.719233
0.537866
0.380966
-0.527766
-0.122429
0.173025
0.585894
-0.288512
0.384926
-0.583496
-0.257278
0.082106
0.728823
0.168143
0.186695
-0.580451
-0.632194
0.769337
0.488509
-0.062022
-0.153949
-0.292153
-0.758438
-0.118915
0.037301
0.865872
0.535557
-0.891612
0.025507
-0.774549
0.520440
-0.091697
-0.699603
-0.834873
0.389730
-0.850267
0.622249
-0.637361
-0.660781
-0.684440
-0.429710
0.638066
-0.100433
0.400279
0.250460
0.244905
0.962931
0.558027
-0.899764
0.433763
-0.134199
0.887724
-0.032116
-0.829096
-0.113565
0.427749
0.050259
-0.064099
0.758063
-0.293595
-0.172757
0.317270
-0.849746
-0.052771
0.237017
-0.020930
-0.066857
-0.650898
0.509438
0.359465
-0.754621
1.084683
-0.310565
0.817651
-0.078778
-0.198735
0.340751
-0.042578
0.892961
1.074951
0.730914
-0.821858
-0.049385
0.435338
0.379720
0.707131
-0.116868
0.741866
-0.767440
-0.243182
-0.263181
0.246900
-0.965600
0.310099
0.416180
0.887054
1.033039
0.390780
-0.600415
-0.113719
0.027833
-0.024008
0.139135
0.447591
0.544315
0.565461
0.034777
0.988384
-0.874217
-0.884412
-0.697868
-0.719608
0.298075
-0.554260
0.469634
0.881639
0.337616
0.358743
-0.112532
0.593496
0.742256
-0.136673
0.661418
0.329395
-0.439016
0.208179
-0.045543
0.861364
-0.934689
-0.402494
0.646371
0.827492
-0.637423
0.929613
-0.846476
0.128145
0.146855
-0.413348
0.673796
0.944511
-0.659739
0.714694
0.004380
-0.035896
-0.928529
0.547515
0.195268
-0.240029
0.608407
-0.000918
0.542898
-0.530178
-0.667552
0.868231
0.719943
0.024229
-0.542203
-1.144413
-0.854872
0.853055
-0.669595
0.643434
-0.374875
0.390931
0.550772
-0.052076
-0.513519
0.581075
-0.426495
-0.455571
0.255687
-0.504349
0.465029
-0.346797
0.227050
-0.240576
0.218979
0.244069
0.213873
0.566540
-0.314193
-0.464126
-0.259443
0.619763
0.812538
-0.720672
-0.528548
-0.861472
0.283905
-0.106539
-0.244234
0.293652
-0.685588
-0.847444
-0.744850
0.884638
-0.599625
-0.767968
-0.636234
0.746808
-0.218539
0.598938
0.535052
0.695868
-0.406382
-0.891380
0.206646
-0.769622
0.956688
0.018910
-0.283363
0.300785
0.648904
0.336938
0.483795
0.163178
-0.248252
-0.711992
-0.414916
0.666137
0.076539
-0.349299
0.442001
0.276730
0.097137
0.510315
-0.050272
0.887571
-0.132002
-0.198702
0.445090
-0.929984
0.207919
0.058843
0.520222
-0.407308
-0.570723
0.119396
-0.644431
0.186498
-0.351539
-0.137917
0.404710
-0.483879
0.383491
-0.127758
-0.188357
-0.476691
0.759189
0.010467
-0.681196
-0.405770
0.602781
-0.309899
0.969372
-0.593027
0.233599
0.262715
-0.013943
0.776539
0.827720
0.174248
0.041206
0.253214
-0.928391
-0.175026
-0.728519
-0.580917
0.122035
-0.818833
-0.015580
0.963889
-0.810742
-0.243441
-0.373403
0.631617
-0.449901
0.169518
-0.394954
-0.339824
0.131323
-0.630219
-0.361133
0.110011
-0.023942
-0.414654
0.768698
-0.220719
0.506152
-0.605586
-0.242665
-0.949916
0.687554
-0.908298
0.914422
-0.045111
-0.141754
0.449063
0.613537
-0.616481
0.727228
-0.578186
-0.502803
-0.081528
-0.733583
-0.162447
0.703252
-0.207302
-0.403729
0.954457
0.020110
0.003761
0.029801
-0.633597
0.072506
-0.413859
0.243344
-0.176590
-0.985725
-0.533694
0.619523
0.068207
0.097413
0.311472
0.498103
0.385706
-0.167206
0.100912
0.826203
1.044330
-0.485871
-0.530799
-0.590405
-0.836614
0.443229
0.336463
-0.162391
0.205920
-0.132103
-0.735511
-0.718456
-0.059260
0.787776
-0.306858
0.586307
-0.289419
-0.107083
-0.764894
0.351779
-0.662954
-0.301370
0.580337
0.872657
-0.385722
0.094317
-0.634424
0.045101
0.944582
0.261302
0.533992
0.649262
0.912697
-0.309982
-0.065875
0.022122
-0.869915
-0.497703
0.375236
-0.591106
0.104729
-0.560439
0.042716
-0.264578
0.687726
0.792919
0.685652
-0.162072
-0.522911
-0.081993
-0.773389
0.127520
-0.338785
-0.660047
0.642282
-0.077601
-0.273132
0.305625
0.975728
0.128571
-0.942741
0.133886
-0.457548
-1.014976
0.516888
-0.381622
0.400390
0.527126
-0.115773
0.985996
-0.078544
-0.568385
0.235858
-0.788306
-0.559208
0.834000
0.846689
0.676135
0.717171
0.788451
0.168751
-0.551665
-0.577977
0.923475
0.508068
-0.775860
0.673989
0.097587
-0.115892
0.349378
0.937853
0.289036
0.514734
-0.263877
-0.895851
-0.337489
0.359199
-0.355276
0.868839
0.231016
0.752445
0.518859
0.642500
0.464729
0.707938
-0.662268
0.254145
-0.054389
0.627173
0.201682
0.152136
-0.502741
0.683163
0.921669
0.095336
0.431867
0.405024
-0.465239
0.392815
0.475697
0.966015
-0.373771
0.874877
-0.383440
0.843999
1.113935
0.950694
-0.659674
0.427738
0.836767
0.056745
-0.631301
0.291920
0.138670
-1.020873
0.133027
-0.012014
0.717183
0.915089
0.872861
0.173159
-0.245080
-0.827269
0.944051
-0.046342
0.689331
0.920189
-0.904523
0.214810
-0.901473
-0.474959
0.282948
-0.748616
0.873984
-0.813113
0.677709
0.106484
0.522022
-0.207705
0.606753
0.516360
-0.624665
-0.578173
0.049461
-0.391566
0.890935
0.336652
0.890618
0.088723
0.764146
-0.544297
0.291620
-0.034944
0.599358
0.444633
-0.746639
-0.274273
0.685926
-0.954383
-0.830679
-0.563776
0.618549
0.352319
-1.029763
-0.057839
-0.353159
-0.387986
-0.791158
-0.411910
-0.399056
-0.127232
0.276604
0.741131
-0.893510
0.172679
-0.950091
-0.759304
0.255022
0.944011
0.100450
-0.283597
-0.213453
0.278748
-0.004683
-0.342338
-0.757662
-0.815201
-0.715022
-0.146116
-0.833070
-0.129958
0.511186
-0.816693
0.308002
-0.795066
1.065040
0.692085
0.298039
0.064431
-0.022912
-0.369796
1.053709
-0.013673
0.881900
0.732402
-0.937331
-0.714259
-0.475792
0.788864
-0.734103
0.665456
-0.904081
0.368369
0.327328
-0.485115
0.520129
-0.666015
0.801256
0.998933
0.491058
-0.538949
0.149451
0.774682
0.467934
0.286510
1.012095
0.940201
0.448923
0.553245
0.931757
0.636091
0.080942
0.395396
0.811179
0.430377
-0.811601
-0.322937
-0.633190
-0.713930
-0.456977
0.636664
0.031832
0.437391
0.297810
0.762049
-0.509650
0.582838
0.966028
-0.370868
0.149061
-0.688877
0.509915
0.020172
0.355959
0.705762
-0.655539
-0.165727
1.068269
-0.421198
-0.528254
-0.891723
-0.880281
0.995485
-0.468348
-0.275304
-0.473293
0.002272
-0.836740
-0.119862
-0.796314
0.364510
-0.685981
0.724815
0.336942
0.182888
-0.668502
0.122205
-0.831924
-0.477995
0.668556
0.461808
0.523053
-0.544743
0.286144
-0.597242
0.793677
-0.073423
0.078739
0.591080
0.581661
-0.407532
0.576187
-0.435118
-0.329028
-0.413140
0.809785
-0.826056
-0.315013
-0.598902
0.886220
0.335393
-0.178896
0.157977
0.984545
-0.599191
0.026493
-0.423529
0.509387
0.272559
-0.384236
-0.091802
-0.681724
-0.443179
0.296778
-0.528592
-0.704650
0.726052
0.412600
-0.596874
-0.438198
0.861983
-0.406898
-0.712860
0.646619
0.347967
-0.077518
0.934051
0.825664
0.429697
-0.302732
-0.733480
0.659647
0.018367
0.150825
-0.414452
0.744310
-0.045879
0.953920
0.417469
0.043424
0.773839
-0.773088
0.988770
-0.715087
-0.442310
-0.479124
-0.452320
0.383095
0.901934
-0.959612
-0.073226
-0.186889
-0.528470
-0.031792
0.030659
0.172506
0.650797
-0.600377
0.470694
0.448858
0.781206
-0.374548
-0.098183
0.733771
-0.324346
0.965055
0.248432
-0.701073
0.802336
-0.431245
0.187949
0.067273
0.103255
0.347411
0.862139
0.058316
-0.276894
-0.094618
0.948808
0.861612
0.669354
-0.594167
0.335943
-0.462789
-0.134846
-0.334803
-0.559692
-0.685612
0.940975
0.273574
0.512306
-0.727572
-0.666731
0.187085
-0.440660
0.872916
1.083643
0.668113
0.688330
0.273917
0.652327
0.180417
0.691985
0.791794
0.223030
0.752733
-0.167596
-0.046389
0.388588
-0.036988
-0.505149
-0.247677
0.266498
0.000571
-0.760733
-0.744798
-0.528343
-0.668919
0.646794
-0.423832
-0.003863
-0.133193
-0.979215
0.861900
-0.653590
0.305813
-0.889912
-0.366456
0.558631
0.243337
-0.258149
-0.143880
-0.339303
-0.922127
0.131069
0.454953
-0.756705
-0.342906
0.030950
-0.579836
-0.975975
0.767047
-0.701726
0.079968
-0.881968
-0.348728
-0.149475
-0.922859
-0.773025
-0.356377
0.343575
0.690094
0.322877
0.619940
-1.110379
-0.546365
-0.347496
0.369689
0.694456
0.730277
0.949628
0.554772
1.002786
-0.679468
-0.377451
1.084057
0.524220
-0.087548
0.094902
0.535345
0.938331
-0.521040
-0.588254
-0.404444
0.909096
0.576366
0.629856
0.094660
0.297349
-0.630052
0.180645
0.777209
-0.798665
0.647129
0.058546
0.620925
-0.019533
0.331951
0.816273
0.851369
-0.169994
0.456762
-0.440892
0.050679
-0.132722
0.163737
0.194918
0.938072
-1.113621
-0.367840
-0.886926
-0.018643
-0.139862
-0.743926
0.628988
-0.104177
-0.008473
0.672239
-0.868621
-0.509234
0.379570
0.225453
-0.894477
0.428304
-0.818956
-0.283400
0.322307
-0.369955
0.729610
-0.262585
-0.897484
0.839245
-0.542180
0.146130
-0.434620
-0.463624
-0.402295
-0.593855
0.220477
-0.892540
0.936463
0.667229
0.039982
0.665529
-0.606735
-0.611667
-0.069405
0.159564
0.093576
-0.310898
-0.242440
0.876727
-0.439086
0.745793
-0.886112
-0.148906
0.894654
0.829451
-0.753934
-0.090662
0.767816
0.789905
-0.952167
-0.014652
-0.906430
0.330791
-0.594571
0.456486
0.465687
0.592259
-0.785717
-0.529403
-0.785744
0.252586
-0.296710
-0.447075
0.724104
-0.942820
-0.904411
0.600951
0.419882
-0.538879
0.950082
0.545542
-0.848088
-0.406288
-0.104328
-1.033420
-0.057404
-0.107981
-0.641586
0.467979
-0.278574
-0.580233
-0.409860
-0.686260
0.272018
0.009005
-0.126442
-0.270107
-0.638535
-0.101068
1.021962
0.907410
0.569150
0.241315
0.470068
0.231420
-0.210365
-0.166003
0.379967
0.470474
0.732233
0.402214
0.004172
0.388627
0.312520
-0.236969
-0.227784
-0.966555
-0.181320
-0.558531
0.919533
0.308547
-0.315081
0.091017
0.210159
0.941076
-0.025402
-0.026140
0.833022
0.804495
-0.295596
-0.715028
0.343189
0.938426
0.432267
-0.107657
0.310307
-0.378689
-0.587318
-0.397317
0.163345
0.307594
0.378190
-0.405944
-0.495988
0.007088
-0.003164
0.944218
0.029373
-0.112498
0.620588
0.581953
-0.400725
0.767117
-0.770231
0.485219
-0.641852
-0.487548
0.384489
-0.864624
-0.361247
0.421319
-0.512696
-0.228113
-0.763038
0.510424
-0.314592
-0.969495
-0.561748
0.332963
-0.879835
-0.475286
1.209105
-0.803596
-0.355510
0.029742
0.848109
0.774667
-0.201141
-0.887257
-0.739953
-0.374977
0.237512
-0.661448
-0.610117
0.630078
0.333123
-0.546171
0.156484
-0.157752
0.704764
0.490788
-0.800601
-0.679353
1.022365
-0.495664
-0.075459
-0.630999
0.438921
0.435897
0.800744
-0.596894
0.163960
0.094534
0.147854
0.299700
0.826402
-0.238193
0.400843
0.356690
0.594307
-0.080578
-0.408582
-0.501857
0.592611
0.313632
0.733979
0.590147
0.933866
0.808792
-0.253336
0.832094
0.274346
-0.862465
-0.190736
-0.680787
0.234098
0.916236
0.782201
0.851302
-0.341513
0.412438
1.157992
-0.194121
0.434468
-0.553448
-0.839122
-0.734220
-0.729927
-0.116851
-0.236036
-0.337904
0.658897
0.873906
-0.024941
0.291928
-1.133945
-0.934764
-0.163809
-0.567381
0.145410
0.188444
0.760302
-0.170637
-0.788417
-0.632758
0.616644
-0.446753
-0.521102
0.062520
-0.236517
0.343093
-0.811483
-0.862522
-0.160533
-0.604142
0.159341
-0.497295
0.680288
0.707981
0.450890
-0.575093
0.488240
0.879155
0.591290
1.115745
0.745354
-0.274527
-0.887849
0.948575
0.845889
0.072493
0.804730
0.644183
0.757082
0.464279
0.949088
-0.601106
-0.674867
0.455257
0.614816
-0.403692
0.221771
0.580200
-1.033476
0.131222
-0.548324
0.915387
-0.919857
-0.283218
-0.272214
-0.057901
0.787604
0.831899
-0.247277
0.386322
-0.566899
-0.982642
0.925385
-0.442604
0.221647
0.197901
0.082360
-0.606044
0.249814
0.111998
-0.845413
-0.690062
0.466960
0.046301
-0.427387
0.579605
0.729150
0.464821
0.826916
-0.024501
-0.892587
0.888695
0.280818
0.334683
-0.270405
0.249656
0.961802
0.117238
-0.171701
-0.292507
0.430157
-0.169826
-0.217733
-0.750423
0.154382
0.951116
0.774758
0.795225
0.733202
0.567301
-0.874691
0.129759
-0.710987
0.311122
0.373338
-0.253111
-0.255061
0.873664
0.385596
-0.983905
-0.491323
0.977988
-0.621576
-0.022357
-0.169398
-0.321733
0.438431
-0.401815
0.594477
0.658453
-0.135055
-0.880015
0.708537
0.367781
0.043483
0.356608
0.837486
-0.671897
0.612292
0.617486
-0.796477
0.570636
-0.971281
-0.498346
-0.266521
-0.539496
-0.036576
0.681520
1.032093
0.331023
0.399076
0.619742
0.804943
-0.158069
0.052775
-0.387845
0.132836
-0.533473
-0.356902
0.583458
-0.233591
-0.175863
-0.760088
-0.623209
-0.166284
-0.858631
-0.485321
-0.598294
0.456783
-0.327590
0.119488
0.752455
0.531641
-0.280223
0.924104
-0.360384
-0.263533
-0.159171
-0.936953
0.090317
-0.072050
0.102399
-0.228077
-0.403125
-0.694964
0.404007
-0.952639
0.780632
-0.362020
-0.913445
-0.200283
1.004579
-0.900262
0.182213
0.798493
-0.585285
-0.050296
0.468374
-0.069714
0.613195
0.860129
-0.533674
-0.141452
0.534573
0.408382
-0.740562
-0.906791
-0.117354
0.821524
0.567334
0.412875
0.557994
-0.869092
0.528441
0.071050
0.156812
-0.244909
0.275235
0.586279
0.631341
-0.695702
-0.759754
0.151902
0.953814
-0.664592
0.418304
0.787744
-0.750084
-0.122922
-0.230076
0.968425
-0.186588
-0.173851
0.709176
0.704183
-0.880763
-0.385755
0.673870
-0.832085
-0.927232
-0.637423
-0.289550
0.637408
0.540599
-0.646908
0.441865
0.787641
0.960877
-0.737173
0.252415
0.767471
-0.017098
0.509734
-0.073467
1.000166
-0.094456
-0.111063
-0.911040
0.238093
0.185101
-0.836198
0.919238
-0.502764
-0.210305
-0.545610
-0.766077
-0.607356
0.855150
-0.317973
0.774225
-0.269366
0.419635
-0.475491
-0.395578
0.233234
0.950001
0.354319
0.373084
0.142966
0.723133
0.828808
-0.584316
0.423870
-0.214745
1.029746
-0.720994
0.887535
0.135641
0.251190
0.793148
0.732096
-0.437375
-0.318725
-0.953758
0.160885
-0.173843
-0.579889
0.178008
0.960361
0.300608
-0.923861
-0.125781
0.147701
-0.031196
-0.770474
0.899811
0.332098
-0.259964
0.094729
-0.188256
-0.437902
-0.383960
0.460740
0.013065
0.812627
0.477083
0.765883
-0.965191
0.451840
0.371211
0.241843
0.788489
-0.093371
0.713017
0.309953
-0.589243
-0.878324
-0.578570
0.797397
-0.168962
0.401818
-0.835370
-0.928923
-0.179925
1.002073
-0.930397
0.255556
0.170357
-0.594872
-0.408680
-0.598476
-0.778541
0.416972
0.811615
-0.452241
0.116022
-0.178624
-0.364866
-0.356520
0.676961
-0.178702
-0.356151
0.655284
0.148561
-0.527309
-0.817014
0.092706
-0.879826
-0.724265
-0.559524
-0.578358
-1.038998
-0.614753
-0.618421
0.774345
0.559072
-0.230875
0.370003
0.230729
-0.471524
0.446241
-0.171006
-0.782428
-0.415294
0.830497
-0.688506
-0.996920
0.236900
1.111085
-0.379724
0.035447
-0.171878
-0.250369
0.479415
0.629793
0.887029
0.251637
-0.780526
0.879178
0.106934
-0.015283
0.121358
-0.247930
-0.671965
-0.509376
0.429374
-0.852505
-0.295850
-0.101161
-0.345529
-0.927609
0.727604
0.836873
-0.314666
0.317378
0.132516
0.330958
-0.522509
-0.338150
-0.529726
0.725617
0.184861
0.008066
0.536759
0.034578
0.343396
0.346169
-0.347639
0.958028
0.320698
0.605749
0.113166
-0.531102
-0.403982
0.962361
-0.658522
-0.799686
0.256529
0.675330
0.670762
0.855911
-0.265036
-0.938746
0.619230
-0.519670
-0.908752
0.518892
0.202789
-0.087717
0.719842
0.540874
-0.795561
0.617942
-0.781974
0.644510
-0.553432
0.154477
-0.566288
0.766440
-0.005366
0.794181
-0.199968
-0.236062
-0.249244
-0.138568
-0.782880
-0.758338
0.172292
0.897546
0.691616
-0.232019
0.290368
-0.884132
-0.357304
0.762767
0.696698
-0.759106
-0.053971
-0.570026
-0.951842
0.451140
0.829108
0.539688
-0.267050
-0.411343
0.587988
-0.682678
0.388496
-0.211934
0.479073
-0.156113
-0.863971
-0.050070
-0.615614
-0.893293
-1.048544
-0.545015
0.217940
0.422790
0.337958
0.074763
0.482910
0.017733
-0.040004
-0.400789
-0.958747
-0.459272
-0.683886
-0.662620
-0.071093
-0.520748
0.436228
0.191847
-0.646429
-0.921653
0.151535
-0.584593
-0.467251
-0.329996
-0.086245
-0.531862
0.903702
0.748249
0.826617
0.228914
-0.445542
0.185100
0.385376
-0.799909
0.277127
0.514157
0.768457
-0.262722
0.282392
0.113706
0.269351
-0.803866
0.459709
1.011756
0.866346
0.619094
-0.805172
0.186668
0.494708
-0.402766
0.991800
-0.789594
0.279415
0.496982
-0.892839
0.337461
0.187855
-0.633568
-0.244042
-0.931204
0.712777
0.177646
-0.149785
0.052048
0.724207
0.298452
0.974795
0.879083
0.399936
-0.758417
-0.744144
-0.442620
-0.667614
-0.590371
0.863795
-0.317532
-0.628027
0.226963
0.662361
-0.482229
-0.470253
0.232062
0.181885
0.571838
-0.197720
-0.090625
-0.554756
-0.054855
-0.626176
-0.036617
-0.381628
-0.726104
0.233610
-0.845896
-0.770942
-0.028710
0.215219
0.987942
0.068963
-0.362579
0.661615
-0.666817
0.982153
-0.907118
-0.798084
-0.099603
0.877733
0.675858
-0.513395
0.547497
-0.019573
0.551855
-0.890523
-0.135350
0.348272
0.465827
0.926225
-0.188090
-0.097640
1.027602
0.053040
0.639932
-1.073267
-0.310694
1.047157
0.432225
-0.734673
0.981922
0.892049
0.868066
0.530778
-0.964013
0.359818
0.432694
0.895900
-0.667729
0.540980
-0.260068
0.252445
0.239918
0.556683
0.395601
0.431425
0.121140
-0.108261
0.839857
0.839144
-0.723099
0.789098
0.340582
0.222164
-0.667240
-0.653922
0.565910
0.726493
-0.275532
0.595425
0.482516
0.642681
0.520963
-0.238889
0.879885
0.826284
0.301714
0.106190
0.686610
0.758273
-0.437133
-0.781749
-0.029311
-0.919700
0.080036
-0.301285
1.019902
0.598398
-0.161647
0.953966
0.528236
0.194755
-0.163772
-0.429892
-0.494853
-0.883194
0.973451
-0.441885
0.275709
-0.012185
-0.581544
0.703130
0.548180
0.734075
0.207533
-0.702158
0.807013
1.010047
0.457693
-0.653811
-0.234136
0.568702
-0.826377
-0.511536
-0.256097
-0.560105
-0.241807
0.317357
-0.585593
0.720270
-0.619163
0.316475
-0.455268
-0.301110
-0.297571
-0.326503
-0.554626
0.823541
-0.073661
-0.370953
0.536621
-0.596803
0.601311
-0.217003
-0.510908
0.520598
0.026820
0.008443
-0.291015
0.541104
-0.624664
0.041870
0.746775
-0.562738
-0.001510
0.510019
-0.769830
-0.199142
-0.382311
0.693328
0.501642
-0.296004
0.809897
0.531486
0.307282
0.000122
0.920479
0.351400
0.446995
-0.398384
0.055791
-0.651251
-0.174352
-0.492403
-0.320930
-0.184885
0.457221
0.657177
-0.004467
0.136000
-0.650872
-0.032676
0.679905
0.663695
0.580499
0.304655
0.720044
0.830861
-0.499081
0.760287
-0.904950
0.373039
0.787691
0.207757
-0.848745
-0.258162
-0.900499
-0.114019
-0.046196
0.700537
-0.353490
0.179207
0.829182
-0.337205
0.416584
-0.204359
-0.206762
0.882541
0.692461
0.484659
-0.129591
-0.921424
0.516138
0.511552
0.714606
0.222102
-0.837383
0.366757
0.151975
0.451809
-0.218082
-0.074960
-0.551964
-0.400439
-0.179714
-0.397273
-0.757303
0.227763
0.175526
0.291097
0.207844
-0.121648
0.316958
0.468726
-0.029665
-0.861922
-0.775346
-0.793394
-0.076128
0.311681
0.148691
0.790828
0.948514
0.932919
-0.098620
0.202897
-0.510055
-0.409285
0.190810
-0.920012
0.707461
-0.766939
0.226600
0.279413
0.122048
0.697583
0.160782
-0.024403
-0.921745
-0.006669
-0.759785
-0.645691
1.064965
0.558948
-0.756457
-0.000530
-0.611908
-0.628855
-0.178330
-0.269847
0.651291
0.906659
-0.902630
-0.491027
0.064567
-0.244521
-0.575424
0.281055
0.400452
-0.897245
-0.728187
0.099108
-0.585188
0.668137
0.705180
0.176398
0.812682
0.361287
0.304222
-0.642548
0.822341
1.009967
0.897816
-0.011236
0.725099
-0.774332
-0.476812
0.287971
-0.047407
0.424962
-0.228248
-0.707886
-0.503365
-0.027454
0.506857
-0.183131
-0.746804
0.842743
0.649951
0.823740
0.034665
-0.600094
-0.014000
-0.591142
0.680184
0.021411
0.123246
0.450241
-0.111020
-0.703892
-0.511297
0.085281
0.911432
-0.339511
0.240718
0.802395
-0.290357
1.008261
0.898775
0.250388
-0.041522
-0.266822
-0.356588
-0.374570
-0.006684
-0.613181
-0.894132
-1.018900
-0.400681
-0.933400
0.881310
0.435174
0.516475
-1.126232
0.064117
0.293164
0.757811
-0.311718
0.305552
0.904105
-0.528020
-0.128929
0.106310
-0.214993
0.878063
0.620915
1.098055
-0.338690
-0.070941
-0.673807
0.808986
-0.771863
-0.283076
-0.568186
-0.212764
0.457126
0.263216
-0.387723
-0.562916
0.215083
-0.399935
-0.078924
-0.826212
0.397999
-0.857798
1.055723
0.837812
-0.187197
0.088438
0.389891
-0.296750
0.837192
-0.348327
-0.953507
-0.483364
0.647375
0.958969
-0.929767
-0.599737
0.334292
0.519832
-0.136149
-0.432794
-0.955882
-0.562508
0.270429
0.764456
0.352756
-0.881692
-1.005375
-0.578756
-0.612113
-0.106423
0.361390
-0.583956
0.241100
0.383177
0.928063
-0.582430
-0.991856
-0.047281
1.143847
0.843385
-0.158536
0.745742
0.837339
0.564534
0.518625
-0.107193
0.085151
0.789755
0.860162
-1.012436
-0.179378
0.438149
0.568027
0.239263
0.038942
0.404093
0.444524
-0.778607
0.272747
0.012203
-0.464901
-0.868406
0.180643
0.938366
-0.230245
0.516811
0.619368
-0.485892
0.136366
0.098201
-0.405651
0.789446
-0.187086
0.069073
0.401596
0.558396
-0.905095
0.465665
-0.815205
0.393024
-0.535730
0.421848
0.492096
-0.519471
-0.514440
0.145418
0.358124
-0.829099
-0.724994
-0.758545
-1.026689
0.360521
-0.180917
-0.776532
0.049964
0.184365
-0.878184
0.187093
0.978732
0.213904
-0.515775
0.010333
-0.999856
-0.411523
1.005916
0.948606
-0.062002
0.185085
0.725298
-0.993630
-0.334161
-0.548456
-0.443932
-0.052682
-0.259367
0.762434
0.575905
0.675892
-0.654316
-0.592920
0.221109
0.524646
-0.134010
0.008871
-0.181821
-0.902966
-0.252291
0.818008
-0.915106
1.127930
-0.929593
0.315050
0.733011
-0.689621
0.607164
0.745954
-0.423181
0.328475
0.007074
0.301267
-0.042972
-0.807070
-0.630014
0.639238
0.090129
0.001927
0.561560
-0.055012
0.299375
-0.610157
-0.468696
-0.399139
-0.205944
-0.465151
0.392590
0.328254
0.081995
0.376633
-0.180000
0.538076
0.280982
0.615504
0.236077
1.079894
-0.133816
0.866437
-0.013636
-0.574770
0.760063
-0.024512
0.866263
-1.091549
0.087125
-0.764978
-1.023474
-0.402740
-0.800499
-0.181453
-0.674868
-0.007357
0.076040
0.721309
1.206481
-0.742698
0.565494
-0.133554
0.482006
0.055167
-0.008056
-0.500714
0.779845
0.291050
-0.973763
0.009449
0.165405
-0.257491
0.195481
0.419042
-0.015479
0.960717
0.897286
0.739474
0.902666
-0.259127
-0.901414
-0.485257
0.795347
0.583423
0.871260
-0.916375
-0.213644
-0.478753
0.467829
-0.880410
-0.838908
0.553623
0.378269
0.520248
0.222028
0.630437
-0.629599
-0.612896
0.509333
-0.698766
0.703044
0.886585
-0.706156
-0.976742
0.718839
0.183797
-0.757782
-0.150810
-0.080482
0.229577
-0.719513
0.631378
-0.921179
0.384137
-0.568506
-0.568466
-0.324190
0.961686
-0.787509
0.623848
0.180783
-0.832639
-0.379957
0.412042
-0.596592
0.351381
0.423853
-0.297082
0.928410
0.446625
0.375446
0.829012
-0.512846
0.401544
-0.080893
0.609324
0.002679
-0.074870
0.708550
0.861690
0.190720
0.480254
0.344569
-0.924805
-0.920955
0.851566
-0.332313
-0.249868
1.030898
0.335358
-1.000390
-0.522224
0.367964
-0.183918
0.273159
-0.215180
0.269724
0.571863
0.311742
-0.357176
-0.756860
-0.927350
-0.447010
0.244253
-0.276575
-0.621358
0.452612
-0.034136
-0.669252
-0.466649
-0.032092
-0.985837
0.028736
0.609944
-0.929911
-0.713250
-0.046236
-0.006317
0.740260
0.318869
0.775879
0.168193
-0.536694
0.790611
-0.915806
1.032026
0.821242
0.193913
0.401106
-0.043091
-0.042310
0.740288
0.226126
-0.680595
0.073194
0.439137
0.770026
-0.278711
-0.931823
-0.530570
0.047683
0.492474
-0.886382
0.746682
-0.401862
-0.094179
-0.161660
0.238249
-0.004889
-0.512298
-0.250196
-0.393671
0.610090
0.485836
1.046129
-0.448309
-0.032782
0.954565
0.817687
0.397376
-0.177684
-0.919687
0.824019
-0.297124
-0.505253
-0.723568
-0.553944
0.329019
-0.844279
-0.571983
-0.528378
0.271072
0.613361
-0.572045
0.500182
-0.370097
0.806150
0.210753
0.064328
-0.151388
0.524675
-0.196251
0.969699
-0.986097
-0.799515
-0.021586
-0.937272
-0.342397
0.336452
-0.058979
-0.163229
-0.098702
-0.703714
-0.236794
-0.764288
0.464880
-0.832699
0.572815
0.527759
0.185674
-0.985773
-0.230711
0.721563
-0.198371
0.505998
0.968494
-0.572527
0.858186
-0.335426
0.924300
-0.621568
-0.518569
0.497905
0.831553
1.064039
-0.574332
0.911115
-0.166012
0.773566
-0.392068
-0.020042
0.634007
-0.327675
-0.474674
-0.882505
-0.418780
-0.547633
-0.259360
-0.035915
-0.185486
-0.446281
-0.904364
0.515272
-0.714763
0.967624
0.196110
-0.783262
-0.785383
-0.799475
-0.664976
-0.724173
-0.104339
-0.423260
0.750871
-0.613631
0.737662
-0.592825
0.545852
-0.457396
0.417326
-0.257248
-0.898866
-0.265858
-0.833328
-0.565793
-0.858260
-0.052835
0.309594
-1.007172
-0.547606
-0.130179
-0.325147
0.087127
0.235325
0.167312
-0.343391
-0.164550
-0.116456
0.764285
-0.647353
0.304952
0.325186
-0.595628
-0.749907
0.479870
-0.686396
-0.408087
0.838741
0.982538
-0.472780
0.824000
0.827220
0.608344
-0.623821
-0.062929
0.697995
-0.436866
-0.649977
0.494406
0.556377
-0.213946
-0.432793
-0.565847
-0.752196
-0.541250
0.439967
-0.372705
-0.429795
-0.278750
-0.927315
0.077248
-0.845705
0.018780
0.030392
1.011138
0.942413
-0.490223
0.767762
-0.747972
1.053942
0.310630
0.792612
0.132383
-0.864171
-0.207212
-0.142971
0.170379
-0.755198
-0.438640
-0.524646
0.877184
0.604666
-0.057666
0.697558
-0.895024
0.806948
-0.357319
-0.850744
-0.018355
-0.804131
0.666189
-0.177761
-0.435217
0.483650
0.298664
-0.150554
0.255688
-0.238040
-0.978574
-0.465090
-0.034454
0.309604
0.928421
-0.312983
-0.972162
0.003977
0.379958
0.440477
0.722871
0.089810
0.278997
-0.597299
0.400426
0.598257
0.395723
0.470174
-1.021707
-0.998395
-0.495751
-0.929228
-0.408843
-0.678875
-0.012470
0.503306
0.816389
-0.867035
0.747541
0.699201
0.423096
0.211404
-0.390510
0.361224
-0.842491
-0.930728
-0.851192
-0.040965
0.150805
-0.875555
-0.313501
-0.477035
0.080571
-0.543259
-0.614837
-0.175007
-0.181793
0.240264
-0.053873
-0.639477
0.782829
0.577261
0.935283
0.232124
-0.617511
0.223007
-0.787395
-0.369762
-0.822154
0.253385
0.594027
-0.476106
-0.971276
-0.627109
-0.209972
-0.328707
-0.448844
0.806577
-0.024338
-0.606276
-0.566646
0.844605
0.669401
0.774545
-0.208732
-0.231962
0.270129
-0.476004
0.171612
0.795351
-0.528919
0.425118
-0.254930
-0.928710
-0.910588
-0.379427
0.864683
-0.771158
-0.662541
-0.568414
-0.974603
-0.713442
-0.485887
0.984354
-0.162086
0.592086
0.373004
0.475764
-0.690973
0.746888
-0.886267
0.219611
-0.661294
-0.946170
0.756989
-0.834205
-0.247444
0.828174
0.706235
-0.044753
-0.243602
-0.864219
-0.488310
-0.885545
0.507878
0.781454
-0.817482
-0.897595
-0.514738
0.229316
0.724447
-0.772534
-0.252426
0.226529
-0.374201
-0.200625
0.308348
-0.890947
-0.629749
-0.547635
-0.290822
0.233069
-0.358408
0.237399
-0.429045
-0.356500
-0.812173
0.788984
0.030565
-0.860585
0.483440
-0.303169
-0.597971
-0.221669
-0.779620
0.891385
0.052438
-0.346031
0.986853
-0.364823
0.972030
0.647981
-0.373189
-0.974350
-0.901581
-0.401318
-0.203375
-0.454435
0.081595
-0.027498
-0.484694
0.421713
0.672867
0.025750
-0.075076
0.286646
0.484005
-0.834080
0.342526
-0.911176
-0.322805
-0.554691
-0.074113
-0.527720
-0.563390
0.011301
0.212199
0.373825
-0.778069
0.781648
0.579458
0.271536
-0.702230
-0.097980
-0.366111
0.536371
0.106947
0.294112
0.567412
-0.440219
-0.946254
0.600266
-0.250465
0.319640
0.904280
-0.710706
-0.400899
0.511772
0.263667
-0.861174
-0.859905
-0.997514
0.076162
-0.365646
-0.800029
0.639596
-0.530227
-0.007048
-0.350596
0.626785
0.492975
0.914380
0.904629
-0.558957
-0.676059
0.268229
0.566975
0.546096
0.041767
0.360036
-0.587555
0.162233
0.810938
0.169003
-0.282147
-0.295243
-0.641339
0.761291
-0.827528
-0.754607
0.181431
-0.773513
-0.114944
0.635579
-0.684001
-0.627273
0.931223
-0.962704
0.545087
-0.826953
-0.613091
-0.699996
-0.889583
-0.918591
0.113153
0.329054
-0.048114
-0.569804
0.443140
-0.084163
0.463265
-0.546357
0.318739
-0.888717
-0.379438
0.803496
-0.986942
-0.259315
-0.377739
-0.012662
0.718354
-0.014071
-0.057596
-0.296498
-0.471946
0.967468
0.265179
0.219382
-0.043046
0.613553
0.283890
-0.532124
0.434794
-0.195546
1.015491
-0.718368
-0.660260
-0.301267
0.053491
0.185771
0.339123
-0.226669
-0.267084
-0.420582
0.441741
-0.470049
-0.820976
-0.810949
0.779542
0.450870
-1.021620
-0.739116
-0.367778
-0.060250
0.951206
0.538870
0.506956
-0.359897
0.391916
0.462635
-0.505377
-0.242615
0.871397
-0.659508
0.605498
-1.174478
-0.691806
-0.463884
-0.910246
0.609268
0.150074
-0.221675
0.232722
-0.411209
-0.458631
-0.817010
0.957602
0.745610
0.379232
-0.257094
-0.771988
0.391165
-0.043693
0.574097
0.349861
0.812131
-0.113624
-1.004110
-0.690242
-0.020793
-0.512431
-0.215033
0.953721
0.670474
0.562434
-0.830321
-0.632407
0.494805
0.426242
-0.669170
0.660894
0.184443
0.280071
0.525100
0.517610
0.450375
-0.685870
-0.440886
0.091610
-0.402496
-0.304080
-0.952129
0.015322
-0.621896
-0.710649
0.973146
-0.309470
0.203447
-0.548406
0.189188
0.939142
-0.326519
-0.148890
0.932015
0.669793
-0.253069
0.502333
-0.902334
-0.236675
0.288597
-0.100119
0.907577
0.744009
0.709189
0.658145
0.735106
-0.883914
0.151329
-0.964669
0.326680
1.148070
-0.184495
-0.088399
0.216577
-0.571021
0.186718
-0.437157
0.572471
0.295317
0.701406
-0.841619
-0.522458
0.032186
-0.373553
0.938337
0.129498
0.692413
-0.373497
0.735028
-0.587458
-0.553104
-0.370898
0.829221
-0.529569
-0.589404
-0.964767
-0.462835
0.296171
-0.353979
-0.522756
0.584415
-0.502185
-0.853805
-0.380488
-0.724108
-0.009906
0.638911
0.655119
0.881317
-0.985336
-0.456719
0.131533
0.082384
-0.717188
0.976537
0.336622
0.468066
0.254958
-0.710280
0.234619
-0.649300
-0.841661
-0.688614
0.486406
0.479985
-0.549263
0.964017
0.899894
0.730343
0.857203
-0.611846
-0.710870
-0.409737
0.751196
0.184170
-0.278895
-0.307480
0.664793
-0.614284
-0.353033
0.757889
0.265383
0.434388
-0.215865
-0.545095
-0.991673
0.297161
-0.152071
0.432418
0.333452
0.854808
0.560857
0.865811
-0.349661
-0.392614
0.713993
-0.244619
0.093190
-0.730926
-0.642838
0.575806
0.917750
-0.132987
-0.871684
-0.237631
0.069547
-0.089618
0.751775
0.115021
-0.798981
0.763049
-0.813430
-0.343292
0.229855
0.015664
0.038843
-0.807076
-0.350116
-0.047036
-0.080175
-0.829595
0.885467
0.606036
0.521658
0.080134
-0.956160
-0.621804
0.139087
0.096060
-0.542403
-0.425972
-0.671938
-0.342547
0.267818
-0.248479
-0.261888
0.606734
-0.465441
-0.177923
0.372330
0.904601
-0.963701
0.361363
0.552617
-0.988866
0.037981
0.767497
0.314713
-0.071400
-0.591329
0.902294
-0.253244
-0.208227
0.003067
-0.488205
-0.161819
0.238322
-0.486999
-0.292151
-0.597231
0.238503
0.678096
0.265026
-0.772571
-0.064814
0.802408
-0.105592
-0.304064
-0.517401
-0.295639
0.725290
0.645180
0.818099
-0.888522
0.947255
-0.181833
0.845070
-0.931824
0.214054
0.244808
0.750696
0.282036
-0.174808
0.443535
0.220742
0.343422
0.153501
-0.237020
-0.927599
0.220187
-0.316141
0.693124
-0.993374
-0.776773
0.646780
-0.066729
-0.206244
-0.484503
-0.705397
-0.133970
-0.176141
-0.845032
0.808043
0.571989
0.918690
0.536197
-0.976519
-0.765283
-0.003994
-0.508674
-0.852221
-0.063772
0.415084
0.375588
-0.098294
-0.522755
0.644850
-0.182968
0.356361
0.599551
-0.379072
0.804726
0.740348
0.237258
0.885458
-0.118538
0.638120
0.373426
0.891066
-0.740157
0.169895
-0.607194
-0.735918
0.064789
0.666432
0.169615
0.277228
0.698319
-0.474972
-0.366683
0.245222
-0.583813
0.477402
0.577464
-0.802284
-0.804911
-0.212523
0.125373
0.383877
-0.520049
-0.256475
-0.631907
0.135222
0.688573
0.907754
0.640855
-0.677557
0.451310
0.190221
-0.225926
-0.198636
0.966761
-0.443111
-0.739752
0.812820
-0.010610
-0.971347
-0.229797
0.581271
-0.792926
-0.490967
0.044678
0.216179
0.744050
-0.814762
0.216480
0.507676
0.803409
0.381695
0.544648
0.549566
-0.417345
-0.075248
-0.477106
0.259644
-0.618943
-0.168815
0.055483
0.593027
-0.660338
-0.171792
-0.436303
0.646817
-0.671366
-0.729628
0.500041
-0.397760
0.022464
-0.430761
0.128775
-0.654182
0.476243
-0.424078
-0.063311
-0.207487
-0.702647
-0.178141
-0.592971
0.084600
-0.710041
0.076874
0.407757
0.657986
-0.122179
-0.549031
-0.272000
-0.827785
0.391127
0.141347
-0.417088
-0.214556
-0.041766
0.570511
0.645227
-0.431275
0.040636
0.699552
-0.180759
-0.119567
0.178356
-0.356833
-0.030146
0.078157
0.389125
-0.940841
-0.753872
0.941412
0.281200
0.243283
0.557555
-0.355824
0.050014
-1.000860
-0.017673
0.849090
0.072797
0.738821
-0.632325
-0.044941
0.889899
-0.772925
0.630639
0.777920
-0.956507
0.554522
0.429144
0.831984
-0.918439
-0.116738
0.637137
0.390699
-0.544468
0.029549
-0.601462
0.274343
-0.433702
-0.828785
1.024604
0.294424
-0.395771
-0.125256
0.163608
-0.195702
0.629165
0.763179
0.489050
0.810862
-0.732693
-0.509375
0.958397
0.825336
0.811933
-0.062175
1.009384
0.795372
0.014200
0.574060
0.982446
0.919320
0.071843
-0.140625
-0.741144
-0.339429
0.223722
-0.189671
0.108230
-0.359325
-0.701421
-0.837545
0.621814
-0.675492
-0.547200
-0.224979
0.173538
0.890869
0.950508
0.263990
0.133193
-0.174175
0.040727
-0.939817
0.092735
-0.629907
-0.400230
-0.628110
-0.272668
0.024602
0.662824
-0.326609
0.570363
0.913103
-0.626994
-0.070287
-0.616156
-0.450091
0.725926
0.750594
-0.753057
-0.740310
0.712044
-0.864900
0.949272
-0.270912
0.521525
0.135948
-0.462219
-0.190557
-0.464278
-0.386224
0.944975
0.256841
0.646044
-0.635070
0.489634
-0.172620
-0.388444
0.193387
0.105748
-0.219656
0.255962
-0.591964
0.285341
-0.629447
0.785091
0.707167
-0.183859
-0.272581
0.492042
0.989627
0.624944
0.782179
-0.904698
-0.270593
-0.487143
-0.551313
0.746350
-0.599387
0.455756
0.101409
-0.088957
0.593087
-0.090136
-0.907294
-0.544507
0.291788
0.367265
-0.797689
-0.805058
-0.680024
-0.612548
0.040522
-0.986094
-0.175336
0.031177
-0.857511
-0.804393
0.333789
0.392692
0.095787
0.485925
0.262177
0.527925
0.582657
-0.548689
0.698785
-0.056867
-0.526242
-0.559166
-0.836473
0.499213
-0.295333
-0.688660
-0.637264
-0.341870
0.609122
0.602513
-0.689412
-0.198867
0.353904
-0.565014
-0.411597
-0.536963
-0.070879
0.572093
-0.292269
-0.919199
-0.028061
-0.110790
-0.374136
-0.273515
-0.548450
-0.667222
0.361301
-0.239291
0.620496
-0.818527
-0.444920
-0.187969
-0.303950
-0.882906
0.636191
-0.197923
0.839484
-0.713123
0.791050
0.142554
-0.685915
-0.442939
-0.499135
-0.608729
0.596643
-0.424216
0.556419
-0.340082
-0.812204
-0.948789
-0.345959
-0.255759
-0.443336
-0.857594
1.007446
-0.101314
0.071399
-0.387927
-0.500528
-0.523253
0.041426
0.400317
1.015533
-0.757766
-0.735410
1.422516
0.262887
0.600411
0.916432
0.077371
-0.828353
0.132485
0.025115
0.055637
-0.900797
-0.017641
0.641401
-0.368412
0.727363
0.078575
-0.298477
0.574699
0.796321
0.023155
0.016370
-0.592362
0.805688
0.479169
0.677561
-0.266144
-0.444139
0.504891
-0.683330
0.037883
0.949770
1.304912
0.531738
0.661017
0.678469
-0.450774
-0.850634
-0.438876
-0.389667
0.232207
1.006478
1.270797
-0.197461
-0.644872
0.109183
-0.880026
-0.860715
0.339730
-0.408002
0.500786
0.679518
0.073785
-0.032145
0.698618
0.490726
0.167878
-0.692769
-0.500752
0.625057
0.704641
0.782912
0.864691
-0.489925
1.006185
-0.935589
-0.721690
0.887311
0.177635
0.725933
0.764663
0.586830
0.569587
0.769387
0.718598
-0.575025
0.220290
-0.849508
-0.959723
-0.858674
-0.526935
0.319109
-0.202704
-0.418897
-0.094053
0.058618
-0.474067
-0.244497
0.205733
0.303794
-0.675203
-0.895684
0.000685
-0.838122
-0.179823
-0.761938
0.158793
-0.284000
-0.839181
-0.151884
-0.383209
-0.111652
-0.324678
0.963810
-0.494629
0.382696
-0.758830
0.862551
0.688842
-0.315526
0.910128
0.461095
-0.210292
0.064427
-0.077821
-0.250071
-0.298103
-0.512980
-0.808470
0.847308
0.223733
0.342064
-0.832610
-0.305148
-0.106154
0.795636
-0.378461
-0.644741
-0.631486
0.853073
0.297324
-0.463800
-0.000454
0.694133
0.815788
0.696014
-0.114006
-0.794383
0.565208
-0.435717
-0.372778
0.271746
-0.827415
0.631761
0.569063
0.905324
0.095099
0.143081
-0.089884
-0.212156
0.861510
-0.177799
-0.312414
-0.551674
-0.082779
0.729745
0.020464
0.089275
-0.489749
-0.342415
-0.099811
-0.892196
0.739356
0.194435
0.887004
0.148864
-0.922120
0.508048
-0.668449
-0.914247
0.678107
0.546023
0.180477
0.623924
-0.250256
-0.077351
0.504358
0.659955
-0.484483
-0.407191
0.223662
0.727102
-0.488268
-0.959589
-0.914270
0.192120
-0.479226
0.035472
-0.851655
-0.516453
0.733930
0.727626
0.995629
0.294131
-0.309127
-0.391538
-0.122308
-0.369064
-0.149605
0.217799
-0.074050
-0.286336
-0.088629
0.171705
-0.717457
-0.891178
0.210062
0.456262
-0.582994
-0.618393
0.909314
0.291890
-0.821805
0.324269
-0.727349
0.098270
-0.926751
-0.439956
-0.705914
0.632139
-0.744611
-0.669837
0.698834
0.759396
-0.158115
-0.165214
-0.961083
-0.800734
0.147321
-0.766351
-0.733391
0.283495
-0.038768
1.037278
0.533900
0.090469
-0.070701
0.564650
-0.079169
-0.589916
-0.456899
-0.770926
0.738159
0.306914
-0.059900
0.279573
0.424997
-0.586930
0.873173
-0.420057
0.687859
-0.249671
0.905538
0.107526
-0.574226
-0.053412
0.268131
-0.493671
-0.125902
-0.631249
0.096590
0.451726
-0.020301
0.405379
-0.420582
-0.879581
-0.539690
-0.491640
0.104083
-0.158253
0.107317
-0.710578
-0.323047
-0.064884
0.273703
0.540911
-0.272670
-0.103169
0.678865
-0.438187
0.917799
-0.691903
0.532549
-0.412162
-0.534201
0.206229
0.863576
0.147900
0.093807
0.743104
-0.259961
-0.241895
-0.902879
0.853562
-1.030263
-0.257253
-0.846270
0.032041
0.365146
-0.784706
0.932282
0.525926
0.724968
-0.572855
0.735369
-0.922312
0.428419
0.663123
0.689838
0.212057
-0.296087
0.398858
0.825239
0.347624
0.763817
0.883086
0.268344
-0.176674
0.309310
0.650690
0.517672
-0.528167
0.057276
-0.094881
0.447325
-0.377752
0.409230
0.368846
-0.824717
0.312167
-0.684962
-0.510879
0.788738
0.667204
0.683810
-0.870418
0.778099
-0.376082
-0.535316
-0.763745
-1.124056
-0.027913
-1.048365
-0.317887
0.487707
0.303477
-0.939067
0.169913
-0.338585
0.595722
0.391270
0.389003
-0.193468
-0.510664
-0.352991
0.935576
0.030732
0.177577
0.540797
-0.616278
-0.067726
0.278819
-0.177784
-0.394075
-0.252217
-0.723278
0.514910
0.972911
-0.718818
-0.100294
-0.417913
0.876028
0.368350
-0.065223
0.415990
0.720011
0.149837
-0.465658
0.165044
-0.877048
-0.548385
-0.073377
-0.893740
-0.105361
-0.262880
-0.696341
-0.760512
0.004555
0.178724
-0.777569
-0.581395
0.673721
-0.630508
0.330271
0.645750
0.187713
-0.570409
-0.055398
0.055349
-0.974719
-0.191540
0.562967
0.214410
-0.277525
0.107080
0.162989
0.427079
0.012182
-0.636735
-0.293413
-0.636649
0.888931
0.922133
-0.668181
0.168406
0.132868
-0.645542
0.553220
0.531758
-0.930860
-0.431320
-0.646049
0.155407
-0.294028
-0.626008
-0.825594
0.328203
-0.597484
-0.355846
-0.633267
0.773975
0.773900
-0.583112
-0.586961
-0.571496
0.446270
-0.939548
-0.874797
-0.044024
-0.794974
-0.947499
-0.499095
0.814528
0.065067
-0.643570
-0.943432
-0.561006
0.552166
0.943292
0.518557
0.797224
-0.057583
-0.642595
-0.180957
-0.095646
0.946794
-0.765610
-0.275948
0.570918
-0.651142
-0.311738
0.707128
0.345650
0.695419
0.292357
-0.781895
-0.788471
-0.388812
-0.030067
-0.321518
-0.094172
-0.130738
0.078758
0.341034
-0.096332
0.978955
-0.074081
-0.435326
-0.399174
0.091039
-0.688144
0.542134
-0.846267
0.912756
0.374069
0.443265
0.101817
-0.578034
-0.155518
-0.359958
0.663313
-0.766822
-0.151198
-0.218743
-0.272069
0.182546
-0.290310
-0.203962
-0.081066
-0.229639
-0.253802
1.077943
0.473482
-0.318866
-0.262681
0.590618
0.744232
-0.199645
0.795220
0.901746
0.417129
0.699104
-0.485262
-0.316413
0.447803
-0.873078
1.005728
0.117411
0.976102
-0.873112
-0.165867
0.828732
-0.560838
-0.930926
0.910952
0.300021
-0.839900
0.266066
0.207424
-0.907389
-0.618480
-0.569751
0.317618
-0.827982
-0.156067
-0.798860
0.788580
-0.740739
-0.027954
0.366447
-0.617648
0.014208
0.490827
-0.803649
0.950523
0.230262
-0.380507
-0.646067
0.426410
0.182251
-0.870227
0.812741
0.533690
0.394496
0.558024
-0.794221
-0.630805
-0.982463
-0.312629
-0.572176
0.052433
0.684204
-0.741795
0.639967
0.023252
-0.036831
-0.297460
0.479050
0.671988
-0.683403
-0.907320
0.150163
0.463440
0.278702
0.686230
-0.621564
-0.564494
-0.016760
0.491606
-0.959205
-0.457292
-0.039144
-0.933935
-0.395189
-0.891626
-0.475229
-0.765408
0.562358
1.012976
-0.892214
0.788976
-0.261920
-0.733776
-0.737307
0.867988
-0.844499
-0.560649
0.392692
1.061279
-0.956737
-0.631511
-0.749212
-0.734258
-0.009562
0.931203
0.641939
0.744452
0.277521
0.532290
-0.485192
0.607660
0.762726
0.226315
0.674249
-0.782416
0.576320
0.208221
0.143641
0.163331
0.804600
-0.403757
1.182381
-0.306570
0.430527
0.774740
-0.247775
-0.396590
0.668921
-0.220119
-0.340705
-0.918996
-0.240047
0.517168
-0.196797
1.014778
0.305383
0.008124
-0.017962
0.925865
-0.149342
-0.570583
0.379575
0.140541
0.283569
-0.714860
-0.181604
-0.834059
0.756423
-0.946057
-0.782771
0.229113
0.406169
-0.308898
0.729349
-0.832652
-0.186606
-0.845643
0.367458
-0.741277
-0.176808
0.557721
-0.623501
0.719318
0.932593
-0.280062
0.721183
0.594035
0.819670
0.353009
-0.582942
-0.785497
0.082754
-0.071414
0.094779
-0.567274
0.568128
0.260269
-0.491818
0.151031
0.852169
0.079851
-0.636641
-0.796682
-0.008830
0.183584
0.335158
-0.008687
0.131429
-0.391942
0.712621
-0.009351
-0.500161
-0.755158
-0.873917
0.527090
-0.408546
-0.675205
-0.376874
0.823097
0.067621
-0.393288
-0.868038
0.308147
0.825733
0.879761
0.993947
-0.287084
-0.236219
-0.771077
0.610344
-0.433193
-0.187679
-0.744557
-0.115704
-0.606153
0.017842
0.462759
-0.278693
0.574047
-0.617610
-0.498697
-0.268895
0.455803
0.281847
-0.564363
0.073528
0.910649
-0.801672
0.831277
-0.094759
0.690957
-0.964657
-0.783105
-0.519405
-0.848847
-0.607759
0.707597
0.639259
0.539221
-0.196036
-0.974224
0.015188
-0.716761
-0.235740
-0.611058
0.202945
0.607690
0.819825
-0.093656
-0.301434
0.969789
0.559311
-0.807263
-0.308291
1.022750
-0.103680
-0.023860
-0.823182
0.232901
-0.303289
0.444768
0.411997
-0.782666
1.276787
-0.885068
-0.738743
-0.277492
-0.969302
0.905684
0.091022
0.278807
0.479020
0.162074
0.237694
0.795068
0.651555
-0.648608
0.382774
-0.720190
-0.089316
-0.404127
-0.311930
-0.644285
-0.843825
-0.120767
-0.844332
0.541998
-0.710285
-0.206113
-0.180772
-0.625780
0.841489
-0.371506
0.094271
0.454501
0.624317
0.038542
0.483140
-0.687474
0.704293
-0.982860
0.880877
0.341475
-0.093431
0.754421
-0.330320
-0.011539
0.437716
0.614078
-0.376773
-0.526121
-0.863471
0.173047
-0.293815
-0.833232
-0.169729
0.490397
0.138347
-0.313166
-0.566052
0.551121
0.061535
-0.026141
-0.341841
0.798999
0.695093
0.719822
0.509528
0.049102
-0.390559
-0.065837
-0.427165
0.368732
0.337081
-0.397440
0.835482
0.342156
-0.207628
-0.650674
0.396114
0.443231
-0.103181
1.059113
0.518454
-0.848267
-0.303122
-0.424655
0.107009
0.823871
0.505161
-0.227437
0.637761
-0.841745
0.159500
0.585716
0.914326
0.043287
0.853064
-0.724457
-0.857203
-0.273106
-0.544325
0.037330
0.976524
-0.547134
-0.842944
0.391389
-0.186225
0.282742
-0.094859
0.046323
0.212914
-0.490701
-0.932703
0.239988
-0.933151
-0.443195
-0.045084
0.133310
0.482659
0.345246
0.579791
0.270570
1.054608
0.380780
0.227205
0.055313
0.161071
0.779305
-0.709924
-0.347693
-0.937578
0.461212
-0.748279
0.178433
0.509842
0.890846
0.311510
0.156019
-0.240031
-0.304119
0.056922
-0.085863
-0.852434
0.755612
-0.032635
0.135679
0.988914
-0.952125
-0.798929
0.714425
0.343003
-0.415144
-0.613286
0.328684
-0.849368
0.207616
0.497862
-0.693436
-0.023093
-0.236837
0.092937
-0.045182
0.770693
-0.349902
0.974810
-0.164588
0.245798
0.192357
0.289604
0.321278
0.095011
-0.768475
0.077767
0.505925
0.578635
-0.823383
0.550463
-0.872481
-0.338051
0.384175
-0.786750
0.333074
1.228472
-0.245774
-1.026652
0.223490
-0.073860
0.034424
-0.408068
0.607062
0.243910
-0.784028
-0.800954
0.365610
-0.018476
-0.495946
0.797744
0.834206
0.615538
-0.821837
0.403201
0.960075
0.011854
-0.198349
-0.546752
0.448359
-0.318909
-0.820816
-0.320443
0.404483
0.639613
0.179564
0.321484
-0.023060
-0.080882
-0.269296
0.376786
-0.503877
-0.731314
-0.215424
-0.699571
0.164207
0.161218
0.906537
-0.963589
0.637573
0.667006
0.106642
0.255133
-0.408358
-0.358315
-0.171650
0.597951
0.063421
-0.283547
-0.651116
-0.429462
0.286990
0.584028
-0.000203
0.886759
-0.373223
-0.107766
0.497634
0.765234
-0.279300
0.602332
0.526276
-0.877091
-0.970975
0.487505
-0.050561
-0.226400
0.436918
0.740767
-0.817150
0.534659
0.141472
-0.123821
-0.594117
-0.301688
0.441067
-0.577530
-0.979852
0.437320
0.032916
-0.741293
0.774997
0.619286
0.189152
-0.892638
0.470600
-0.145879
-0.060233
-0.514935
0.119467
0.704986
-0.925662
0.818485
-0.855908
-0.265817
-0.556315
0.773732
-0.202469
0.108527
0.772366
0.314852
1.043594
0.208134
-0.053651
-0.746210
0.898324
-0.228529
0.688108
-0.397690
-0.708578
0.704017
0.630039
0.219145
0.243143
0.975135
1.108364
0.217514
0.207933
-0.267173
0.757773
-0.023673
0.974087
0.873255
-0.009406
0.114943
-0.045001
-0.425144
0.909237
-0.782217
-0.410373
-0.154674
0.222848
-0.734019
0.156263
-0.009759
-0.362878
0.485756
0.358328
-0.899219
-0.195890
-0.287423
-0.254602
0.479668
-0.435169
-0.360648
-0.345566
0.237779
0.154992
-0.337208
-0.599759
0.908437
-0.610129
0.038467
0.340908
0.627215
0.425269
-0.313969
0.401537
0.019418
-0.502050
-0.560802
-0.718740
0.846220
0.743950
-0.724647
-1.066630
-0.152537
-0.629553
0.676882
-0.731634
0.531613
-0.902752
-0.372616
-0.426151
0.549169
1.089112
0.240108
-0.947160
-0.309183
-0.864206
-0.542025
-0.552843
0.102489
0.389570
-1.218618
0.358973
0.692349
-0.447594
-0.056106
-0.155196
-0.086595
-0.769303
-0.003692
-0.596640
0.007731
-0.071376
-0.587147
-0.747059
-0.335562
-0.747942
0.606041
0.112677
-0.499737
0.296661
0.279984
0.637545
-0.579895
-0.933383
-1.053468
-0.175216
-0.277493
-0.884825
-0.136141
0.046253
-0.857384
0.269732
0.421247
-0.858384
-0.228569
0.470099
-0.016611
-0.702959
-0.373014
-0.730114
0.156879
0.218966
-0.643918
0.453786
-0.605307
-0.312819
0.295125
0.403739
0.078939
0.263033
-0.007424
0.293400
-0.698515
-0.614182
0.096278
-0.170151
0.274847
-0.506572
0.894879
0.623839
-0.250810
0.103866
0.234929
0.466009
-0.148218
0.334409
-0.796955
0.226033
-0.872657
-0.792276
0.868550
0.578331
-0.357573
-0.411102
-0.137881
0.413926
0.684462
0.812275
0.270433
-0.857872
0.815086
0.383553
-0.729497
0.886206
-0.593698
0.074668
0.768276
-0.249820
-0.149668
0.396279
0.653957
-0.910766
0.113725
-0.010865
0.651574
0.954268
0.459782
0.622433
-0.315610
-0.336090
0.668474
-0.341839
0.349387
-0.252674
0.847061
-0.077626
0.339503
0.658619
0.944560
0.342020
0.460619
-0.389082
-0.163704
-0.923624
0.576773
0.950369
0.333683
0.864047
-0.576222
-0.932192
0.132796
-0.537852
0.346480
-0.197658
-0.546826
0.156386
-0.964900
0.358425
0.819656
-0.120472
0.776193
-0.931020
0.311994
-0.278668
-0.262547
0.233895
-0.574929
0.170835
0.034593
0.069175
-0.194190
0.763120
-0.423185
0.280968
0.133104
1.053260
-0.061110
0.169839
-0.493482
-0.588544
-0.689966
0.559169
0.782043
-0.321905
0.482246
-0.522883
-0.447836
-0.802059
0.814900
-0.917723
0.385424
0.307822
-0.126051
0.178146
0.425979
-0.444786
-0.363175
0.566852
-0.759341
-0.845940
0.144940
-0.553196
-0.486931
-0.052478
0.001253
0.783322
-0.001927
0.635053
-0.160689
0.216472
-0.597822
0.761371
-0.028794
-0.549665
0.073006
-0.393719
0.621232
0.114416
0.243618
0.848574
0.266999
0.092623
0.012192
-0.729321
-0.451449
0.664708
-0.242981
-0.413217
0.167113
-0.629015
0.207163
0.750001
-0.335790
-0.918535
0.087529
0.973600
-0.034549
0.030139
-0.402214
0.708115
0.720337
-0.875803
0.379278
-0.033557
-0.429499
-0.095278
0.296644
0.232139
0.291431
-0.752906
-0.497611
0.014221
-0.631605
1.002796
-0.816498
-0.441173
0.961568
0.079072
-0.971122
-0.034857
-0.319908
0.528024
-0.569126
0.966952
0.201031
-0.627442
0.072133
-0.471508
0.346017
-0.595163
-0.342841
-0.337683
0.223628
-0.200832
-0.354494
-0.951077
-0.015813
0.299014
-0.741867
-0.673117
-0.024691
1.107948
0.366671
-0.714762
0.030232
0.034497
0.398691
0.405858
0.074486
-0.585964
0.038139
0.145007
0.869007
0.513802
-0.729812
-0.119129
-0.891556
0.279368
0.555243
-0.203411
0.828466
0.764900
-0.828791
0.180876
0.999674
0.778882
1.080271
0.537347
0.062697
-0.076319
-0.262378
-0.619848
-0.985052
-0.126478
-0.937304
-0.622826
-0.235777
0.510990
0.592978
-0.543803
0.062475
0.935378
0.546574
0.646135
0.243986
-0.924535
-0.631728
0.386840
-0.990717
0.407893
-0.146877
0.747145
0.488724
0.139204
0.009426
-0.949581
0.911631
0.096562
0.612914
0.687034
-0.352308
0.449298
-0.962997
-0.238450
0.353608
-0.272219
0.155728
-0.228889
0.720709
-0.960605
0.327801
-0.002141
0.223042
-0.832186
-1.038943
0.361343
-0.865418
0.624263
-0.319724
-0.663725
0.271351
0.326218
0.516899
1.048190
-0.931929
-0.724299
0.643343
0.967906
0.216882
-0.824707
0.972111
0.241195
0.785975
-0.821746
0.647055
0.367608
0.213885
-0.439439
-0.844750
0.730616
0.038452
-0.447564
0.317656
-0.522685
0.545333
-0.773188
-0.931770
-0.348327
-0.031616
-0.266617
0.493650
0.585033
0.656129
0.036771
-0.548655
0.041944
0.607335
0.452751
-0.743491
-0.082428
0.054916
-0.189332
-0.439168
0.074466
-0.807725
0.627579
0.466662
0.454807
-0.298054
-0.748718
0.722119
-0.131559
0.764934
0.658488
-0.286599
0.011584
0.763255
-0.822322
0.390085
-0.656133
-0.901551
0.352660
-0.872463
-0.408391
-0.468184
-0.492514
0.148638
-0.635572
0.490472
0.545058
0.873558
0.900217
-0.154449
0.305479
0.509642
0.804435
0.040688
-0.842914
-0.267115
-0.372999
-0.870315
0.313028
0.504951
0.549109
0.697272
-0.583703
0.009127
-0.530314
0.095740
0.016355
-0.608329
0.493690
-0.925676
-0.072949
-0.771581
0.099592
1.000341
-0.812874
-0.650303
0.844878
0.898269
0.169713
0.690189
-0.659350
0.134200
-0.160516
-0.586198
-0.759956
0.391015
0.824944
-0.345319
0.529199
-0.568810
0.316144
-0.800221
0.475499
-0.359309
-0.605302
0.537154
-0.293149
1.013340
-0.669272
-0.789553
-0.970497
0.841162
-0.932791
-0.138688
-0.318609
0.505689
-0.601142
-0.498515
-0.688380
0.661982
-0.191435
-0.430644
-0.549003
0.456784
-0.343049
-0.041327
-0.207205
-0.372923
0.475532
-0.943511
-0.435649
-0.244526
0.298360
-0.144839
0.403009
-0.899615
0.721045
0.860683
-0.168397
-0.798263
0.875943
0.578780
0.495159
0.156303
-0.908144
-0.476424
-0.445527
0.157005
0.116468
-0.404850
-0.211335
0.315285
0.107923
0.700842
-0.340555
-0.536054
-1.035938
0.113817
0.368279
0.075852
0.170599
-0.424909
-0.830070
-0.518317
-0.780079
-0.231029
0.961840
-0.416446
-0.621183
0.750713
0.818573
0.625564
0.242968
0.381218
-0.918711
-0.544123
-0.267423
0.184633
-1.040114
0.854362
0.435935
0.359046
-0.031004
-0.192533
-0.698999
-0.521738
-0.036053
0.658432
0.215488
0.294608
-0.128577
-0.492052
-0.002732
0.656025
-0.775693
0.061559
0.924492
0.260983
-0.964833
-0.551769
0.817369
-0.471942
-0.264383
-0.057820
0.505390
-0.215271
-0.174388
0.018252
-1.197952
0.921649
0.071824
-0.092231
-0.555389
-0.089414
0.353410
-0.769326
-0.678831
0.467552
-0.179915
0.011625
0.416971
0.597940
0.794129
0.600136
0.479912
-0.362863
-0.092733
-0.177113
-0.185625
0.550973
-0.374496
0.029205
0.536805
-0.388298
0.103089
0.723153
0.091527
-0.912699
0.519600
0.294787
0.560582
0.298199
0.794026
-0.064787
-0.703966
0.999700
0.040785
0.778469
-0.038562
-0.328249
0.136606
0.358501
-0.800526
0.893028
0.191379
0.414362
-1.002371
0.191730
-0.959936
0.873179
0.265609
0.451914
-0.237425
0.300613
1.057988
0.925712
0.109211
-0.278955
-0.242002
0.158098
-0.279474
-0.424556
-0.040415
-0.761627
0.076581
0.492872
0.069880
-0.091978
0.346567
0.457019
0.640000
0.303499
0.718085
-0.534650
0.427665
-0.077796
0.429483
0.872975
0.495805
0.552944
-0.052465
-0.195822
0.660941
1.022691
-0.052168
-0.179144
0.908677
0.613969
1.007577
-0.051971
-0.782661
0.660679
-0.382560
0.255191
0.320847
-0.279738
-0.441025
-0.094855
-0.618014
0.171351
0.044346
0.004520
0.431953
0.325171
0.871974
-0.694779
0.794563
-0.461056
0.886640
-0.730379
0.772123
0.943731
-0.980840
-0.428679
1.000253
0.300097
-0.237586
0.292551
0.711271
-0.976395
0.895342
0.011360
-0.492148
0.058819
-0.965487
-0.450081
-0.099577
0.517593
-1.010008
0.285711
0.366021
-0.307592
-0.605947
-0.336506
-0.188733
0.485584
-0.229626
0.152343
0.537985
-0.250126
-0.624181
0.430948
0.455058
-0.647843
0.218745
-0.215949
0.201710
-0.202684
-0.353249
-0.063459
0.510157
0.605115
-0.411728
0.495340
-0.234456
0.143934
0.516187
0.487411
0.765874
0.488751
-0.877021
-0.867270
0.865997
0.728562
-0.029535
0.110447
0.272662
-0.039311
-0.429968
-0.461097
0.024088
-0.110778
0.466293
-0.260430
-0.284241
-0.267315
0.159204
-0.203048
0.735311
-0.578297
-0.761664
0.050790
-0.478721
-0.220801
0.837154
-0.914091
-0.168860
0.800564
-0.359810
0.487391
0.679518
-0.348760
0.788694
-0.792633
0.702410
0.332301
-0.721135
0.358501
-0.959674
0.427196
0.087826
0.327432
-0.464719
0.635931
0.928143
0.383893
-0.722683
0.756829
-1.062701
0.643022
0.530346
0.196857
0.883538
-0.267481
-0.014637
0.536339
-0.878869
-0.090895
-0.458264
-0.575872
-0.400567
-0.435881
-0.669918
0.799195
0.371062
0.004552
0.736097
-0.876723
0.131568
0.963443
-0.249223
-0.805961
-0.926369
-0.618393
-0.775721
0.307987
0.112000
-0.323734
-0.794618
-0.534557
0.228020
-0.395899
-0.133474
-0.113448
-0.435876
0.009257
-0.483532
-0.504657
-0.859608
-0.607338
0.995146
-0.995735
-0.330268
0.056295
-0.067928
0.222741
0.197167
0.285973
-0.747894
-0.242549
-0.758644
0.251195
-0.542063
-0.316948
-0.519625
0.515981
-0.517376
-0.742959
-0.491184
-0.828138
0.172294
0.932415
-0.707173
0.064947
0.638799
-0.149459
-0.081301
-0.920990
-0.433874
0.467112
0.806211
0.056227
-0.589855
0.803530
0.561324
-0.350661
0.368760
-1.204153
-0.313411
0.270950
-0.584758
-0.089209
-0.381581
-0.103409
-0.420133
0.595999
0.553979
-0.681104
-0.457032
0.291928
0.612095
0.023167
-0.839891
0.698901
-0.645073
-0.262287
-0.394210
0.279430
-0.677172
-0.393057
0.511735
-1.028038
0.851474
-0.803380
-0.063525
-0.345478
0.084863
-0.047661
-0.879804
-0.112481
0.654384
0.785252
-0.550294
0.753543
-0.431453
0.767816
-0.537994
0.306054
0.171859
-0.525611
-0.847045
0.860951
-0.477697
-0.465971
0.350809
0.061935
0.346874
-0.606836
-0.506797
-0.148665
-0.192463
-0.229276
0.845460
0.292098
0.945927
0.292498
0.440006
-1.009203
0.423194
-0.518285
0.006847
-0.461412
0.195128
0.617754
-0.224698
-0.185840
0.276076
-0.727940
0.270181
-0.763520
0.007219
-0.519874
-0.776932
0.790208
0.482885
0.730375
0.886064
0.317234
-0.005731
0.498260
0.331769
0.634587
0.927493
-0.452611
-0.836431
0.732037
0.573120
0.033820
0.285764
0.580032
-0.072254
-0.862062
0.403568
0.097720
0.716401
0.754224
0.507941
0.857123
-0.556605
-0.432584
0.040832
-0.559188
-0.139022
-0.935045
0.400309
-0.189467
-0.173538
-0.656501
-0.485930
-0.882151
0.815614
-0.144192
0.470540
-0.508799
0.328088
0.230082
-0.715970
-0.732255
-0.914439
0.860768
-0.976477
0.219676
0.487243
-0.839089
0.376765
-0.357564
0.296196
0.788396
0.574128
-0.216400
-0.254027
-0.658170
0.115639
-0.019271
-0.006316
0.361997
-0.180290
0.608658
0.949656
-0.130393
0.447348
-0.935075
-0.471219
-0.679073
1.005673
-0.378269
-0.598162
-0.903422
0.339991
0.346500
-0.414479
-0.528626
-0.037916
-0.317036
-0.736567
0.181953
-0.822963
-0.294314
0.419291
-0.834143
0.541226
-0.026698
0.127786
-0.001085
-0.116573
-0.114107
-0.157945
0.384097
-0.268938
0.669378
0.990295
0.145491
-0.468354
0.014476
0.305219
0.075214
0.711360
0.514988
0.844721
-0.511786
-0.166430
-0.114014
-0.291937
-0.629572
0.570483
0.109709
-0.832496
0.079046
0.194060
0.361797
-0.742894
0.105412
-0.317085
-0.297563
0.144903
0.075951
0.042143
-0.488730
-0.285130
-0.279012
0.899774
0.107075
0.360939
0.427744
-0.445453
-0.409567
-0.054229
0.096992
0.655784
0.154060
0.152797
0.779947
-0.172909
-0.090153
-0.888384
-0.416711
0.869164
0.025619
-0.803801
0.832924
-0.764653
-0.555050
-0.102683
0.407216
-0.884342
-0.904790
-0.346153
0.178743
0.552392
0.378022
-0.767829
-0.565550
0.570117
0.455330
0.987642
-0.783784
0.433246
0.012083
0.741334
0.585468
0.589383
0.088517
-0.857166
-0.099299
0.564848
0.647887
0.868216
-0.590039
-0.841643
0.470647
0.191573
0.150038
0.425149
-0.738867
0.883829
-0.233339
0.268120
-0.149704
0.892584
-0.786703
-0.281728
-0.618194
0.787248
-0.745772
0.095651
0.192665
0.441069
0.783041
0.824212
-0.310027
0.484562
-0.837935
-0.949901
-0.485347
-0.467436
-0.530802
0.289979
0.881803
-0.328518
0.920787
-0.050950
-0.956814
-0.083387
-0.865544
-0.045036
-0.660838
0.610157
-0.623279
-0.885738
0.316361
-0.926000
-0.353240
0.822479
-0.818394
1.007679
0.092292
-0.220562
-0.349693
-0.423534
0.675502
0.060144
0.172724
0.219509
-0.507340
-0.820930
0.121069
0.043933
0.871787
0.121452
0.129314
-0.451073
-0.404515
-0.001047
0.724116
0.157868
0.407522
-0.346102
0.238443
0.545653
0.724222
0.303196
-0.017417
0.741494
-0.912227
0.622469
0.340534
-0.499357
-0.047813
-0.692280
-0.563611
-0.306874
0.284837
0.258086
0.335464
0.596829
-0.869713
0.371986
-0.005552
0.099572
0.506293
0.280863
-0.053526
0.518607
-0.919808
-0.712064
-0.739543
-0.699654
0.971102
0.063781
0.416608
0.892767
0.249174
0.848827
0.286036
-0.631223
0.339090
-0.309197
0.098245
0.481235
0.474639
0.536287
0.332965
-0.572272
0.924791
-0.027420
0.745645
0.923527
-0.373597
-0.321747
-0.115779
0.435930
-0.747486
-0.333675
0.924688
0.537235
-0.426948
0.058236
-0.226845
0.056729
-0.272026
-0.060440
0.619818
-0.565671
-0.364070
0.544866
-0.643626
-0.335891
-0.751092
0.559635
-0.029742
-0.413233
0.900258
-0.730355
0.829382
0.260521
0.956141
-1.014282
0.149030
-0.449712
0.333538
-0.111649
-0.441620
-0.249631
-0.268107
-0.028484
-0.866746
-0.248001
-0.252063
-0.690080
-0.872529
-1.004927
-0.047480
-0.898574
-0.410577
-0.113812
-0.658355
0.298327
-0.016961
0.731704
-0.974639
0.472870
0.354127
-0.304854
-0.396617
-0.570477
0.478862
-0.199847
-0.765043
0.202416
0.181414
0.756678
-0.185116
-0.532425
0.046857
0.555414
0.275331
0.450814
0.846540
-0.339289
-0.125981
0.929238
0.908945
0.449068
0.105961
-0.462556
-0.507988
0.155014
-0.635960
0.286018
0.569588
-0.038439
0.593279
0.172843
-0.428437
0.337588
0.988646
-0.604462
0.055909
0.361911
0.453455
0.348094
0.369842
-0.058374
0.645663
0.090834
-0.427185
-0.597228
-0.002934
-0.450871
-0.089975
-0.816800
-0.764194
0.909682
0.006283
-0.567267
0.863085
0.497549
-0.400239
0.900845
0.952488
-0.177534
0.080289
-0.887954
0.034977
-0.498115
1.025042
0.574875
-0.854363
0.073942
0.979687
0.445533
-0.876383
-0.381915
-0.063476
-0.738292
-0.130665
1.170812
0.121320
0.853285
0.432125
0.234173
-0.713332
-0.031256
0.475103
1.004155
-0.476322
-0.017959
-0.743622
0.251200
0.514745
-0.626747
0.622145
0.169062
0.865395
-0.211678
-0.658953
0.084335
-0.564193
-0.462227
0.687849
0.495771
0.940848
-0.122313
-0.630190
-0.572256
-0.233640
-0.236684
-0.750184
-0.315249
0.439506
-0.401520
0.543929
0.857683
-0.210256
-0.806102
-0.342140
0.993134
-0.620047
-0.249957
-1.035436
-0.814043
-0.061175
0.267358
0.297409
-0.339634
-0.178817
0.710289
0.413041
-0.471313
0.362425
0.122216
-0.125934
-0.135304
0.254403
-0.459338
-0.191074
0.103485
0.764986
-0.989582
0.260824
-0.104118
-0.400367
0.932406
-0.864660
-0.097215
0.443003
-0.649402
-0.073370
-0.767383
0.648525
0.467416
0.309529
-0.357109
0.381303
0.277735
-0.074074
0.973403
-0.983779
1.122383
0.720930
-0.927121
-0.190514
0.443850
0.136171
0.979270
-0.654785
-0.031452
-0.577976
-0.629939
-0.288443
-0.056030
0.134842
-0.765065
0.501104
-0.648592
-0.195084
0.307611
-1.005084
-0.904839
0.591137
0.205034
0.503081
0.159616
0.745448
0.290279
-0.134053
-0.005009
-0.901092
0.952450
0.681292
0.089292
0.216495
-0.346258
0.026284
-0.047965
-0.432754
0.050064
-0.117278
-0.938313
0.012891
-0.721553
-0.025590
-0.058384
0.425887
0.032960
-0.241932
0.938246
0.848592
0.601376
0.645031
-0.195866
0.414164
-0.413236
-0.023184
0.410050
-0.841751
-0.713291
-0.512368
-0.942643
0.193220
0.541075
0.289710
0.004873
0.954301
-0.850930
-0.107868
0.034772
-0.147032
0.694166
-0.502339
0.903992
0.790381
0.288941
-0.796732
-0.600534
-0.420389
0.246520
0.300049
-0.292469
-0.142668
0.188677
-0.046164
0.568256
0.101174
-0.667280
0.938279
-0.492330
-0.579969
0.527579
-0.264814
-0.850555
0.818726
0.299801
0.548606
-0.849763
0.065283
0.142291
-0.407445
0.766517
-0.194032
0.818053
-0.167645
-0.977322
-0.056201
-0.261549
0.248733
0.969360
-0.559592
-0.730209
0.347846
0.034950
-0.138489
0.628942
-0.164966
-0.074821
-0.120576
0.038776
0.242900
-0.729728
-0.719792
-0.888736
-0.303877
0.666083
-0.990057
-0.324824
0.792709
0.208039
0.065896
-0.198313
0.168862
-0.906903
-0.901753
-0.415273
0.911399
0.645308
-0.900811
0.109628
0.831378
-0.695743
1.113418
-0.962679
0.963900
-0.222476
-0.640803
0.588880
-0.637697
0.748432
-0.723359
0.311732
-0.041893
-0.298320
-0.811265
0.910564
0.431267
0.708783
-0.146769
0.154103
0.300101
0.006704
-0.715299
-0.120767
0.827964
-0.088626
0.329137
-0.708045
-0.661756
0.323690
-0.744561
0.147331
0.848330
0.471797
-0.529926
-0.922632
-0.747473
0.328542
0.098254
-0.422124
0.819960
-0.526534
-0.374482
-0.768932
0.299452
-0.572255
-0.919819
0.324813
0.536192
-0.138646
0.340227
0.091712
0.234656
-0.330024
-1.015578
0.416569
0.903374
-0.146990
0.774471
0.685559
0.556312
-0.475084
0.468548
0.025440
0.563858
-0.824551
0.177933
0.634293
0.904869
-0.885128
-0.865926
-0.060717
0.764995
-0.454261
-0.045599
-0.203290
0.164843
0.606069
-0.533764
0.505872
-0.196925
0.738878
-0.595712
-0.366378
-0.501813
0.811568
-0.568206
0.591440
0.769025
0.391490
-0.415077
0.289673
-0.902517
-0.214144
0.193299
1.007987
0.835463
-0.264465
-0.152990
0.895512
0.935954
-0.766718
0.461331
-0.713732
0.760789
-0.260400
0.620562
-0.358153
0.781547
0.385229
0.931674
0.687796
-0.261475
0.719397
0.820457
-1.008989
0.732517
-0.762974
0.397045
0.465598
0.247083
0.308901
-0.232865
0.550606
0.843432
-0.257018
-0.449422
-0.084017
0.303012
0.186301
-0.986002
-0.881544
-0.550317
0.066222
0.483978
-0.572944
-0.482026
-0.900541
0.363898
0.858300
0.596955
0.250413
-0.345714
-0.118697
-0.319731
0.764497
-0.606750
0.202940
0.004285
-0.129600
0.782835
-0.194722
-0.700164
0.931789
0.429374
-0.696505
-0.156662
-0.587085
0.929944
0.291554
-0.585108
0.843127
0.281362
0.604097
-0.676115
-0.752673
-0.855102
-0.150485
0.362025
1.043171
0.052613
0.026603
0.921371
-0.304676
-0.840376
0.706946
-0.699908
0.302523
-0.128172
0.729200
-0.589895
0.851378
0.677706
0.462567
-0.642315
-0.479162
0.557410
1.204668
0.262247
-0.843556
0.530226
0.824922
-0.421517
0.037176
-0.829326
-0.287225
0.048004
-0.121983
0.356515
1.008212
0.785642
0.794553
-0.674941
-0.280986
-0.353936
0.266174
-0.126664
0.925491
-0.841935
0.727698
-0.001441
-0.799563
-0.594558
0.463785
0.889975
-0.926027
-0.790728
-0.374702
0.338079
0.846638
0.629559
0.234797
0.824782
-0.497667
0.932839
-0.350918
-0.891854
-0.875222
-0.655229
-0.841127
0.245157
-0.424474
0.167381
-0.521486
-0.788485
0.397058
0.378921
-0.439113
-0.891452
-0.687232
0.413376
-0.363779
-0.647231
-0.768491
0.977216
-0.182574
0.926710
0.259140
-0.882619
0.073229
0.771059
0.776852
0.035221
0.150115
-0.054405
-0.073285
-0.340897
-0.675475
-0.483287
0.088318
-0.018198
-0.904795
-0.369051
-0.122651
-0.405445
0.190417
-0.005331
0.242855
0.372129
-0.914700
-0.010528
0.659619
-0.277249
-0.660077
0.224983
0.276458
0.799867
0.174217
0.707444
0.473801
0.169462
0.065404
-0.112300
0.195021
-0.576709
-0.608550
-0.810961
-0.958790
-0.710610
0.640797
0.409675
0.044672
0.421758
0.039854
0.480049
-0.699469
0.500384
0.047536
-0.087312
-0.147733
-0.782655
-0.551613
0.811581
-0.720836
0.038823
0.920776
-0.764079
1.059313
0.963409
0.124860
-0.786370
0.270341
-0.015912
-0.006563
0.876206
0.553291
-0.827760
0.265646
-0.645843
-0.245293
-0.721075
-0.400997
0.596865
-0.617277
0.142801
0.710611
-0.009577
0.266672
0.268792
-0.892015
-1.001867
0.646493
0.244432
-0.371359
-0.017920
-0.071635
-0.293580
-0.444195
0.349032
-0.912889
-0.793836
0.036174
0.043055
0.635643
0.428528
-1.151491
0.820099
-0.710222
0.038870
-0.011684
0.639688
0.710970
-0.654834
0.192518
-0.237642
-0.562976
-0.215425
-0.555150
0.372864
-0.178925
-0.053094
0.494486
0.121577
-0.221335
0.484598
0.046679
0.350547
0.849337
0.220763
0.283349
0.839273
-0.693274
0.866357
-0.563222
-0.221998
-1.180635
0.471638
-1.021543
-0.222837
-0.416028
0.632127
0.961451
-0.764468
0.403804
0.846860
-0.846810
0.384941
0.190825
0.136532
0.000774
-0.452863
-0.455786
0.550498
-0.694647
0.620108
0.528421
0.800133
-0.132775
-0.793813
0.086774
-0.771235
0.320695
-0.579735
0.853111
0.306116
-1.279350
-0.256819
-0.458714
-0.889655
-0.255274
0.377799
0.283033
-1.008444
0.516618
-0.043734
0.084992
0.349987
-0.637151
-0.078178
-0.055735
-0.687291
-0.313903
-0.255674
0.575579
0.896999
0.178150
-0.425911
0.561168
-0.394613
-1.000096
-0.007993
-0.313908
-0.797258
1.012840
-0.247835
-1.143308
-0.069026
-0.211703
-0.110877
0.914784
0.787313
-0.169702
-0.529567
0.796028
-0.240223
-0.517705
-0.528460
-0.772515
-0.629346
0.833950
-0.035637
0.026215
0.666977
0.524410
0.560043
0.388801
-0.166619
-0.867982
0.711464
0.841628
0.494257
-0.947069
-0.087551
-0.303352
0.841365
-1.115888
0.891406
-0.214388
-0.517289
0.046892
0.256533
0.407504
0.616081
-0.199393
-1.078253
-0.925087
-0.468934
-0.152016
0.490093
0.630855
0.429613
-0.659043
0.268883
0.541557
-0.568402
0.642439
-0.039092
-0.885404
-0.245185
-0.628685
-0.262936
-0.267672
0.653302
-0.670894
-0.275782
-1.251999
0.470626
0.883027
-0.815110
0.035600
-0.110664
0.771858
0.471415
0.401260
0.131144
0.183375
0.049262
-0.724168
0.559554
-0.448167
0.693625
0.404846
-0.858736
-0.207835
0.867362
0.319424
0.177286
-0.394308
0.711681
0.494837
-0.292415
-0.911237
-0.041017
-0.777780
0.231607
0.550284
0.911700
0.973680
0.427452
0.198294
-0.468469
0.339442
-0.977348
-0.649495
-0.231049
0.095867
0.663900
0.498419
-0.646862
-0.863288
0.143501
-0.147098
-0.425932
-1.220863
0.579481
-0.220936
0.151576
0.308448
-0.589336
-0.180650
-0.779836
-1.073139
0.341586
-0.119348
0.196391
-0.205590
-0.667373
0.857238
0.554481
1.002063
0.356426
0.905673
0.868098
-0.925201
0.389597
0.995216
-0.893315
-0.323213
-0.113134
-0.767709
0.486244
0.764794
-0.682764
-0.071218
-0.169454
0.013983
-0.258827
0.337257
0.978906
-0.456516
0.543084
0.367300
-0.601933
0.594199
-0.151943
-0.490511
-0.274850
0.559282
0.261578
0.744463
0.312713
-0.266952
-1.287561
0.276275
-0.243974
0.174483
0.154593
-0.338087
0.138914
0.595151
-0.453436
0.276531
-0.621981
-0.069983
-0.455517
-0.601932
-0.624599
-0.801634
-0.860934
-0.712831
0.856070
0.714304
0.433857
0.218563
0.081774
0.426671
-0.361406
0.426130
-0.571772
-0.711280
0.861337
-0.617526
0.494887
0.437085
0.769354
-0.003852
0.989264
-0.747692
-0.616301
0.842983
1.082021
-0.382886
-0.602133
0.162746
0.712921
-0.070915
0.093496
-0.738976
-0.644748
-0.614624
0.893427
-0.767131
0.837901
-0.404511
0.237664
0.107721
0.668649
0.343275
0.429917
0.609373
0.056959
0.641514
0.091075
-0.981016
0.686513
-0.839329
-0.477839
0.972703
-0.354410
-0.380493
0.445804
0.017656
-0.631816
0.076361
0.494317
-0.866267
-0.705914
-0.573704
0.889980
-0.981059
-0.641234
-0.608553
-0.281109
-0.638409
0.095603
-0.290401
0.678184
0.499274
0.810832
0.273569
-0.698169
0.911679
-0.551642
-0.598332
-0.425928
-0.207027
-0.643932
0.902427
-0.219248
0.114755
-0.238777
-0.888090
0.036964
0.476560
-0.763512
-0.512048
0.470011
-0.691426
-0.307435
-0.919578
-0.448257
-1.304560
-0.458628
0.972764
-0.059148
-0.718272
-0.703655
-0.735591
-0.243158
0.813999
-0.617239
0.584089
-0.435009
0.622862
-0.627372
-0.838463
-0.588846
0.719838
-0.538989
0.636668
0.137479
-0.097290
0.146194
0.158246
-0.064532
1.029973
-0.455594
0.967999
-0.166277
0.909981
0.933216
-0.932197
-0.431148
0.483640
0.540236
0.094839
0.033007
0.859871
0.754327
-0.804624
0.468678
-0.522839
-0.012696
0.368180
0.612869
-0.003113
0.892143
0.900575
-0.289940
-0.582264
0.528648
0.629601
-0.410565
0.330100
0.002386
0.691956
-0.413971
-0.273825
0.896950
0.087383
-0.015527
-0.271836
-0.281442
-0.081992
0.899049
-0.797402
-0.698417
0.741992
-0.062568
-0.420591
0.095736
0.741915
0.767184
0.488019
0.078044
0.198159
-0.734373
-0.899866
0.972761
0.197905
-0.283108
0.580185
-0.345353
-0.831364
-0.167913
0.461771
0.495656
1.228264
0.027726
0.306997
0.235485
0.826237
0.091335
0.110833
-0.577708
-0.707644
0.248661
0.219363
-0.804349
1.224258
-0.435537
0.907624
-0.994159
0.232035
0.330475
0.269811
0.088047
-0.516658
0.961835
-0.114454
0.429642
-0.715119
-0.127926
0.031179
0.949782
0.897188
-0.812540
0.311392
0.448675
0.552186
-0.924164
0.556898
0.703053
-0.596437
0.312789
-0.846097
0.215113
-0.648300
-0.048933
-0.856806
0.563986
-0.558837
0.188748
0.022783
-0.007942
0.170325
-0.844040
0.440801
1.073242
-0.556967
-0.989560
-0.987347
0.830096
0.025651
-0.299728
0.307851
-0.281518
0.981655
0.271767
-0.089759
0.313828
0.649109
0.656533
-0.813751
-0.484786
0.206034
0.986566
-0.732745
-0.493921
0.166514
-0.818758
-0.054281
-0.776434
0.903226
-0.573354
0.852545
-0.486705
-0.093657
-0.712992
0.419185
0.250119
-0.124319
0.773411
0.861377
-0.042284
0.395809
0.647516
-0.588515
0.748221
0.235005
-0.710380
0.700255
-0.969774
-0.348497
-0.113676
-0.502536
0.124726
-0.868430
-0.503089
-0.718848
0.177657
0.506274
-0.306111
-0.315288
-0.626803
-0.560551
-0.986737
-0.068430
0.703547
-0.685323
-0.099044
-0.480404
-0.246929
-0.272418
0.206200
-0.730883
-0.830538
-0.428328
0.038379
-0.889137
-0.291981
-0.024151
0.130239
-0.886861
0.886983
-0.362849
-0.396427
0.259532
0.810682
-0.057532
0.570811
0.539462
-0.319217
-0.435015
-0.495619
0.965413
-0.919680
-0.231457
-0.958020
0.740270
-0.681359
0.323771
-0.790547
0.558071
-0.972189
-0.900304
-0.427331
-0.625283
-0.274361
-0.384316
0.910506
-0.904137
-0.399086
0.575483
0.896455
-0.121114
-0.501930
-0.066786
-0.360496
-0.535445
-0.115867
-0.774829
0.570275
0.263773
0.363597
-0.001148
0.916032
-0.783273
-0.583415
-0.231233
0.700211
-0.851834
-0.315875
0.310558
-0.235735
0.915793
0.076197
0.859986
0.598606
0.554125
0.331974
0.711244
0.821268
-0.796924
-0.918111
-0.076105
0.438456
-0.499710
0.013988
1.011191
-0.206066
0.159247
-0.547212
0.504467
-0.248547
0.692984
0.781059
-0.114642
1.042125
0.892164
-0.144734
0.693647
0.312163
-0.340672
-0.141783
-0.851348
0.154620
-0.045160
0.168845
0.265477
-0.320794
0.161784
0.643902
0.278873
-0.841346
0.717468
-0.174564
-0.381482
-0.445269
-0.222579
-0.185240
-0.050731
-0.352423
0.852337
0.791977
0.549064
-0.073625
-0.650114
-0.778983
0.850802
-0.166867
-0.675896
-0.765116
0.862620
0.223250
0.566438
-0.589452
-0.643264
0.462843
-0.317975
0.928917
0.411228
0.705220
0.753711
-0.923613
-0.624917
-0.009183
0.217963
-0.556068
0.416080
-0.032191
-0.494839
-0.873764
-0.063618
-0.343227
-0.026480
0.291306
-0.128883
-0.325998
-0.085334
0.691962
-0.347323
0.908222
-0.216224
0.888994
0.421506
0.056447
0.916126
0.234510
-0.735516
-0.559929
-0.700783
0.092664
0.894098
-0.283553
0.061950
0.566250
0.610075
-0.995344
0.605531
-0.761953
0.082312
0.149867
-0.024453
0.411708
0.752001
0.642298
0.796497
-0.357052
-0.854621
-0.650526
-0.317573
0.557059
0.325875
0.143101
-0.778918
0.562013
-0.436997
0.110987
0.077886
0.814547
0.706478
-0.678153
-0.295190
0.004730
0.296456
0.053593
0.856143
-0.658072
-0.285689
0.444313
0.655051
-0.634016
-0.500707
-0.785073
0.526173
-0.091386
-0.284131
-0.644922
0.938679
-0.555252
-0.289440
0.882431
-0.592492
-0.686117
-0.210413
0.746465
0.368769
-0.644232
-0.969910
0.121306
-0.259270
0.951925
-0.275209
-0.361839
0.471088
-1.001506
-0.161091
0.158143
0.429241
0.073278
-0.256240
-0.078094
-0.779025
0.514810
-0.999012
0.445673
0.441138
-0.123617
0.843990
-0.523618
0.380337
0.014851
0.673653
-0.410904
0.214072
0.782065
0.244271
-0.026365
-0.894385
0.367786
-0.355572
0.465783
-0.880728
0.308974
-0.067202
0.335743
-0.913451
-0.424673
-0.373948
-0.935360
-0.556561
0.093267
0.274125
0.982521
-0.496083
0.906830
-0.929940
-0.051434
-0.116974
0.547413
-0.888572
0.108785
-0.401074
-0.073808
-0.042141
0.714820
-0.452287
-0.872272
-0.031081
-0.105569
-0.183121
-0.009545
0.236066
0.166827
-1.107226
-0.906998
0.538518
0.377656
0.344807
0.927900
0.529593
-0.636253
-0.431773
0.774954
0.092967
0.687148
-0.951649
0.100623
0.395206
0.205561
-0.024196
0.863555
1.060684
0.442410
0.248214
-0.797877
-0.503965
0.035432
-0.208459
-0.468090
-0.499499
0.956618
0.971393
0.471262
0.358797
0.297258
-0.154565
-0.866996
0.274856
0.664971
-0.022519
0.226969
-0.165863
0.423369
-0.207835
-0.074706
0.423024
-0.107125
-0.433486
0.269875
0.351895
-0.340109
-0.196972
0.081574
0.326600
0.655830
0.406519
0.471032
-0.452331
-0.764515
-0.276523
0.274059
-0.386297
0.103404
-0.151468
-0.581460
0.180337
0.527646
0.722381
-0.684006
-0.599180
-0.494750
-0.052796
-0.894715
0.959415
0.308860
0.888552
0.130665
0.603472
-0.191142
-0.877586
0.032334
-1.079504
0.896715
0.365888
-0.789908
-0.422669
-0.555417
0.747350
-0.600548
-0.907670
-0.701300
-0.267335
-1.009802
0.366808
0.790971
-0.659351
-1.001235
0.188270
-0.012856
-0.469480
-1.091088
0.573125
-0.772543
0.849882
-0.982080
-0.282173
0.371236
0.863165
-1.051570
-0.540864
0.290332
0.789652
0.896457
-0.479186
0.032471
0.411524
-0.611759
0.227855
0.523491
-0.096930
0.572192
-0.097453
-0.520202
-0.781741
-0.583585
-0.240660
0.046687
0.444906
0.339229
-0.633549
-0.428561
0.271109
0.660609
0.775729
-0.970903
0.215963
-0.111920
-0.745458
-0.472363
-0.121950
-0.863808
-0.465689
0.018659
0.080039
0.659120
-0.084429
-0.867379
0.781766
-0.694761
-0.233292
-0.579166
0.378837
0.455310
-0.220533
0.394678
0.258856
0.825997
-0.317137
-0.033533
-0.050128
-1.149829
-0.230004
0.570591
0.695698
0.318303
-0.369867
-0.062207
-0.007825
-0.405994
-0.081002
-0.411913
-0.421715
-0.682273
-0.440976
0.646804
0.765830
0.102032
0.945557
-0.597207
-0.590076
0.498972
0.594719
0.258483
-0.721165
-0.026417
0.651778
0.254176
-0.579369
-0.473034
-0.709689
0.043549
-0.243767
-0.443373
-0.345730
-0.380907
0.953771
-0.648599
-0.156735
-0.370911
0.621072
0.927201
0.207448
-0.521001
-0.267125
0.171345
-0.983194
0.565752
0.752529
-0.750673
-0.183130
1.044488
-0.291845
0.574262
-0.342123
0.843392
0.473533
0.732671
0.455970
0.245955
0.572446
-0.439251
-0.702501
-0.769146
-0.123076
-0.332678
0.030302
0.340998
-0.313578
0.924803
0.403152
1.037884
0.138313
0.333423
-0.626978
-0.281598
-0.722126
-0.439306
-0.854814
-0.939335
-0.844953
0.265764
0.048139
0.800681
-0.242196
0.311641
-0.715191
0.320821
-0.157181
-0.679936
0.661769
-0.034265
-0.733381
0.730907
-0.606922
0.216401
0.067686
-0.008976
-0.363729
-0.049527
0.344581
1.013060
-0.811805
-0.515721
-0.836973
-0.795472
-1.074949
0.270309
-0.638220
-0.070923
0.743223
-0.150979
-0.197028
0.703564
-0.711754
0.475783
0.684030
-0.315016
0.057805
0.158597
0.279414
0.028364
-0.778875
-0.064712
-0.352699
0.716068
0.411838
0.077658
0.883188
-0.782529
0.504490
0.031171
-0.202601
0.323860
-0.656670
0.580611
-0.672435
-0.617417
0.797210
-0.262889
-0.984534
0.424095
-0.719525
0.644967
0.495673
-0.494543
0.834543
0.011649
0.747606
0.444487
-0.202044
0.259762
-0.645107
-1.004484
-0.130631
0.879453
1.024305
-0.580893
-0.760238
-0.966528
0.000379
0.002640
0.340499
-0.247888
0.274519
0.503854
-0.655881
0.464340
0.395252
0.030921
-0.138811
-0.758643
-0.228737
0.368959
-1.156486
-0.782908
-0.165559
-0.984165
-0.652386
-0.519091
0.069521
-1.073842
0.520376
0.467291
0.729791
0.906721
0.504572
0.942237
0.659850
-0.850849
0.888107
-0.139996
-0.442658
-0.812498
0.022791
0.677427
0.417706
-0.026409
0.495216
-0.668153
0.837978
0.199007
-0.943891
0.817865
0.757125
0.142249
0.177260
0.299782
0.600484
-0.950485
0.579537
-1.180614
0.865674
0.616374
-0.641188
0.003152
-0.099720
-0.334144
0.095267
-0.351130
-0.335371
0.514637
0.010456
-0.548875
-0.844472
-0.286157
-0.938696
0.049190
-0.907504
-0.967605
-0.466053
-0.132359
0.816620
0.369694
-0.391376
-0.995615
0.019448
-0.703521
-0.289730
-0.169179
-0.674378
0.676769
0.816721
0.705292
-0.675035
0.690507
0.688158
0.396589
-0.274635
-0.364712
0.279971
0.247544
0.559152
-0.083998
-0.393551
0.032624
-0.792603
0.401962
0.452913
-0.035489
0.174820
-0.734829
0.483767
0.328342
0.486578
0.584298
-0.562440
-0.813268
0.452678
0.209929
0.022683
-0.364215
0.079071
0.068056
0.511921
-0.815717
0.274211
0.012517
0.909183
1.245246
0.600435
-0.615626
0.503053
0.305384
-0.756832
-0.881299
-0.037760
0.032795
-0.105589
0.568835
0.604753
-0.273817
0.283677
-0.875759
0.477465
0.238803
-0.421656
0.804078
0.472851
-0.770778
-0.492269
-0.361317
-0.102262
-0.387836
0.360922
-0.443446
0.067821
0.702517
-0.560836
-0.440051
-0.267719
-0.043056
-0.677205
0.576764
0.614977
0.681955
0.168325
1.006644
0.838958
0.407240
-0.963687
-0.088599
-0.275389
0.302165
0.470683
-0.016176
0.285595
0.272265
-0.209401
-0.781722
0.194714
-0.283728
-0.147059
-0.158599
0.731007
-0.609673
0.503390
0.412122
-0.023615
0.052572
-0.849501
0.304265
0.984451
0.244914
0.692284
0.825308
-0.032542
0.134956
-0.445696
0.422207
-0.132195
-0.931375
-0.272813
-0.459594
0.644911
0.620688
0.312602
0.198850
0.160582
0.627800
-0.389778
0.176349
-0.692676
0.184960
-0.169042
0.924035
0.554622
-0.422992
-0.507794
0.851813
-0.380731
-0.354997
0.016138
-0.647393
0.397504
-0.115765
0.144806
0.607603
-0.094265
0.283282
0.552772
0.019423
-0.826515
-0.221652
0.155434
-0.466078
0.927031
-0.937499
-0.133338
0.800055
0.708612
-0.264643
-0.431570
-0.089771
-0.994948
0.287389
0.216870
0.537254
0.501333
-0.635929
-0.479933
1.052074
0.985835
0.672872
-0.150967
-1.003307
-0.074968
-0.709394
0.369192
-0.951147
-0.083926
-0.813528
0.811117
-0.929691
-0.624470
-0.038891
0.901475
-0.344172
-1.034341
0.517991
-0.208337
-0.325607
-0.456571
-0.649614
0.060128
-0.566077
-0.419515
1.026806
-0.620307
-0.592765
0.749103
-0.035327
-0.318954
-0.201674
0.972642
-1.061205
-0.118008
-0.183477
0.529478
0.965017
0.639109
0.511666
-0.176337
0.653046
0.459636
-0.021593
-0.635807
-0.473104
-1.018955
-0.930957
0.310593
0.438109
-0.320385
-0.164008
-0.557175
-0.241984
-0.696436
0.648919
-0.378063
0.696544
-0.155050
0.539887
0.219826
-0.347167
-0.614481
0.428265
1.117955
-0.550293
-0.770714
0.208696
-0.182414
0.718579
0.030687
-0.762180
0.596295
0.784959
-0.617116
0.456744
0.327921
-0.681938
0.208540
0.196228
-0.282910
-0.295751
-0.735709
-0.319430
-0.805595
-0.545372
-0.621486
-0.660271
-0.704180
-0.635994
-0.843158
0.372419
0.868931
0.364138
-0.624882
0.074151
-0.467461
-0.646305
0.104965
-0.800005
0.827757
0.929989
0.317340
-0.585294
-0.405554
0.162836
0.075483
0.615006
0.765872
0.199415
-0.624254
0.839296
0.926995
0.746717
0.616532
0.298393
-0.488531
0.277207
-0.344331
0.185970
0.655519
-0.929329
-0.808006
0.165212
-0.337187
0.352250
0.438400
-0.155460
0.183887
0.118658
0.743783
-0.708951
0.835210
-0.390268
-0.296544
-0.997138
-0.261432
-0.607123
-0.319396
-0.105830
-0.510445
-0.594719
0.070977
0.230818
-0.404200
-0.634551
0.598585
0.773569
-0.148878
-1.110915
-0.081248
0.271900
-0.254996
0.523813
1.115415
-0.141132
-0.061268
-0.281401
-0.637640
0.315801
-0.922396
-0.131199
-0.427297
-0.531707
-0.193143
0.610349
0.367525
0.575133
0.120272
0.660813
0.197653
-0.957036
0.746843
-0.369590
-0.082668
0.579964
-0.220155
0.148473
-0.080291
-0.502812
-0.777683
0.335392
0.073871
-0.381665
0.240720
-0.452755
0.487149
-0.884276
-0.945434
-0.469003
0.132305
-0.730096
-0.649992
0.733054
-0.320898
0.596920
0.619699
-0.666862
-0.986864
0.971420
0.413029
0.880404
0.581578
0.319452
0.314108
-0.425962
-0.414353
0.055626
-0.667811
0.194103
0.118131
-0.761211
0.567549
0.779710
-0.230197
0.997040
0.898831
0.094972
-0.752117
-0.812989
-0.405317
0.830944
0.859280
-0.694038
0.134994
-0.826030
0.519676
-0.267118
-0.452616
0.715966
0.931566
-0.552201
-0.422636
-0.064089
-0.686750
-0.623228
-0.509833
0.935444
-0.834460
-0.633422
-0.077141
-0.703734
0.742339
-0.677572
0.830440
-0.496117
0.198985
0.622041
0.446264
0.528713
-0.228475
0.199095
0.056548
-0.326924
-0.565067
0.310908
-0.177210
-0.873341
-0.679371
-0.685604
0.077773
-0.683818
0.293420
0.210673
0.364474
-0.278710
0.580490
0.919130
-0.681074
-1.026851
-0.433540
0.191794
0.007336
-0.242812
0.530186
-0.810178
0.170297
0.247816
-0.818164
0.162380
0.606636
0.506054
0.539762
-0.814516
-0.633868
-0.697968
0.498696
-0.534439
-0.367819
-0.135444
0.731749
0.250538
-0.138178
-0.257198
-0.744009
0.835772
-0.027386
-0.780925
0.382466
0.763082
-0.448786
0.707392
0.788327
-0.662892
0.375886
0.759563
0.293729
0.628864
-0.517173
-0.683154
-0.076692
0.516511
0.319029
-0.183891
-0.199319
0.280687
-0.377453
-0.472065
-0.770655
-1.031273
0.750708
-0.682657
-0.166952
-0.215976
0.860641
-0.107318
-0.176411
0.391916
-0.098450
-0.688462
0.462176
-0.747496
-0.608713
0.724308
0.656585
0.962838
-0.450806
0.864380
-0.950259
-0.106554
-0.428517
-0.597462
-1.353459
-0.926786
-0.442967
-0.550138
-0.360041
0.520046
-0.269556
0.416318
-0.348744
0.790061
0.764173
-0.440029
-0.114820
0.928019
-0.151997
0.523786
-0.748471
-0.708313
0.367075
-0.260472
0.435128
0.899761
-0.790567
-0.434911
0.663321
0.054444
-0.021825
-0.798800
0.449117
0.493306
0.234378
-0.895256
0.408211
-0.108687
0.667139
-0.855958
0.783881
-1.167797
-0.261867
-0.434917
0.545636
0.669112
0.508414
-0.821662
0.412605
-0.067730
-0.882339
-0.162173
1.072788
-0.841905
0.536038
0.535824
-0.700184
-0.868975
-0.996288
-0.796874
-0.423355
-0.764571
0.290706
0.877701
-0.419924
-0.462369
-0.060703
-0.317294
-0.039023
0.824237
0.866835
-0.571487
-0.488096
0.340188
-0.046307
0.055642
-0.012354
0.162143
0.667236
0.144192
-0.104266
0.323474
0.090912
-0.518103
0.849370
-0.381000
-0.997413
-0.321065
0.170882
0.249970
-0.197332
-0.306481
0.692102
0.172861
0.610571
0.352608
-0.355380
0.003251
-0.199756
0.088268
-0.451790
0.041025
0.935302
-0.804679
0.313578
0.068930
-0.512253
-0.366542
0.934552
-0.560936
-0.310994
0.525678
0.646202
-0.339079
0.363760
0.489675
0.141417
0.832063
-0.936269
-0.893088
0.256639
-0.549342
0.955867
-0.545327
-0.730076
-0.182112
0.686007
-0.179545
-0.147353
-0.578043
-0.491506
0.631304
0.073449
0.694112
0.858979
-0.845354
0.472974
-0.065008
-0.041347
-1.039719
-0.827209
-1.133733
0.528607
0.008329
0.291535
-0.729180
-0.215779
0.129091
-0.836345
-0.807356
-0.991495
0.994103
-0.330942
0.938186
-0.616427
0.830785
-0.650998
-0.708458
-0.343197
0.086982
-0.165654
-1.126299
0.488172
0.585769
-0.882568
-0.694431
-0.510250
0.694215
-0.047221
-0.956105
-0.951759
-0.023149
-1.000785
-0.630643
-0.812549
0.578979
-0.633827
-0.404056
-0.618508
-0.704554
0.151380
0.104040
-0.309775
0.673171
0.233416
-0.392337
0.806708
-0.427638
-0.078134
-0.242623
-0.439850
-0.240200
-0.727027
-0.986303
0.673117
0.693801
-0.586426
-0.112924
0.170721
-1.360163
0.703313
-0.756544
-0.528235
-0.750363
0.899382
-0.319508
0.225933
-0.285113
-0.322259
0.360386
-1.380398
0.468716
-0.870493
-0.504806
0.114809
0.742015
0.307759
0.241799
0.380848
-0.713974
-0.837567
0.354563
-0.295103
-0.199504
-0.846769
-0.784897
-0.273681
-0.143749
-0.202064
-0.754493
0.922884
0.704933
0.348252
0.792098
-0.701913
-0.998380
-1.104997
0.185698
-0.673436
0.214390
-0.969132
-0.549428
0.114509
-0.048404
0.584707
0.780260
0.857215
-0.267822
0.419511
-0.274353
-0.488466
-0.171736
0.807377
0.125898
-0.093581
0.872476
0.173806
0.412214
0.073018
-0.288408
0.986578
-0.636758
-0.898018
0.046494
-0.199007
-0.254722
0.119488
-0.340130
0.777453
-0.033197
-0.805453
-0.235227
0.183869
-0.647083
-0.432609
0.606486
0.739773
0.065907
0.185993
0.909171
-0.528090
0.375150
-0.637661
0.457404
0.805437
0.884057
1.027549
-0.731254
0.949481
-0.641574
0.034841
-0.225210
0.600347
-0.630615
-0.711415
0.600317
0.573014
0.480388
0.202446
0.954737
-0.939788
-0.617040
-0.333438
0.892687
-1.362576
-0.213239
-0.858272
-0.042331
-0.002014
0.438966
-0.324737
-0.892065
0.447528
0.859825
-0.390985
0.314502
0.589920
-0.429412
-0.700826
-0.669437
-0.595248
0.471891
-0.220509
0.997024
0.598586
0.057948
-0.877680
-0.846570
0.069163
0.858895
-0.550046
0.668915
0.174360
0.355762
-0.548938
-0.653200
-0.799067
-0.015942
1.314901
-0.303548
-0.447633
0.532255
-0.412920
0.533683
0.200065
-0.191661
0.841972
-0.721506
0.736989
-0.184707
0.039042
-0.713625
-0.813245
0.049017
-0.796713
-0.360580
-0.611866
0.073453
-0.036666
-0.380669
0.257484
-0.780902
-0.688122
-0.917753
0.032114
-0.102066
0.436933
0.937874
0.619991
0.376262
-0.135644
-0.575253
-0.880800
0.703213
0.148598
-0.187354
0.950300
0.341266
0.715623
0.525914
-0.348488
0.135699
-0.759811
0.842699
0.115614
-0.735878
-0.664505
-0.458866
-0.145025
-0.320426
0.666295
-0.364905
-0.591165
-0.507208
-1.194185
-0.059221
-0.228170
0.403203
-0.051885
-0.824105
0.790417
0.357978
0.913047
0.533284
-0.151316
0.243511
0.342965
-0.732448
0.554827
-0.435749
-0.763626
0.996847
-1.021339
0.748487
0.971012
0.654593
0.503673
-0.874472
0.855598
-0.495973
-0.749622
-0.076442
0.450173
-0.037146
-0.619412
0.569006
0.772202
-0.022446
0.538423
0.653243
0.203363
-1.027094
0.542822
-0.308889
-0.112550
0.344007
-0.770898
-0.631746
-0.117460
-0.519224
-0.874120
-0.366657
0.270588
0.955243
0.859142
0.375181
-0.247474
0.303199
0.798271
-0.309949
0.597606
-0.150715
-0.903091
0.319047
0.637480
-0.327855
0.502751
0.218678
0.117081
-0.543720
0.145020
0.086091
0.942177
0.707934
0.261079
-0.511811
-0.038439
-0.668221
-0.873634
-0.309463
-0.331262
-0.012306
0.879880
-0.254329
0.055961
-0.113790
-0.117648
0.810889
-0.660975
-0.532400
-0.545102
0.779582
0.512760
-0.515463
-0.167836
-0.254877
0.061955
0.476553
-0.257909
0.397657
0.453484
-0.275143
-0.538751
-0.012496
-0.893072
0.981977
-0.371092
-0.092819
-0.571496
-0.317144
-0.319933
0.652206
0.642083
0.324722
0.421811
0.494027
-0.184680
-0.471712
0.302353
-0.713261
0.635493
1.001519
0.745646
-0.886953
-0.777018
0.197178
0.109302
0.690144
0.911406
-0.429076
0.888132
-0.484287
0.367915
-0.339225
0.152978
0.090344
0.800286
-0.181660
0.990877
-0.657210
0.342016
0.360289
0.690653
0.765634
-0.298626
0.947999
-0.672410
0.323636
0.051604
0.480527
-0.864849
-0.524609
0.013493
-0.861079
-0.070819
0.561419
0.438479
0.354285
0.067809
0.384950
0.714661
0.468010
-0.358112
0.700671
0.737665
-0.908520
0.362107
-0.231712
0.248590
-0.379453
0.386170
-0.293100
-0.873614
-0.399775
0.031160
0.755776
0.218153
0.386974
-0.567751
-0.224618
0.511904
0.873067
0.641914
-0.779360
-0.305709
-0.337914
-0.867340
0.685761
-0.421439
0.013755
0.555777
-0.825823
0.485896
-0.622034
-0.539995
-0.165436
0.800708
0.240913
0.999368
-0.586442
0.551637
-0.327025
-0.251734
-0.322065
-0.217943
-0.697652
0.973097
-0.657625
0.346671
0.282053
0.436471
0.731011
-0.470410
0.797239
0.573051
0.598522
0.419706
-0.371639
-0.495049
0.426544
0.173832
-0.154410
-0.158424
0.374784
0.622057
-0.908357
1.008891
0.379096
0.983065
-0.567696
0.571037
1.148631
0.246933
-0.786352
0.049969
0.012230
-0.247539
0.313173
0.111678
0.075076
-0.092234
0.060767
-0.567894
-0.661554
-0.034337
-0.905433
-0.321811
0.968985
-0.363637
-0.059392
0.117834
0.309607
-0.961004
0.439574
0.909041
-0.200511
0.020805
0.762067
0.145165
-0.289273
0.642753
-0.100396
-0.606486
-0.861677
-0.047054
0.608183
0.559509
-0.365899
0.058912
-0.378240
0.412770
0.348359
0.626871
-0.601267
0.980364
0.264900
0.199315
-0.267465
0.335012
0.522555
0.303197
0.545525
-0.576241
-0.740304
-0.440835
0.715507
-0.716662
-0.711283
0.368264
0.002240
-0.240107
0.002477
0.306000
-0.113868
0.194991
-0.497066
0.430718
-0.359139
-0.812651
-0.503274
0.052079
0.296327
-0.573524
0.453689
-0.727491
-0.342057
0.107675
0.436651
-0.148002
-0.037267
-0.472989
-0.361359
-0.930646
-0.744328
-0.728242
0.886449
-0.140544
-0.559849
-0.061994
0.168677
0.367748
-0.365427
0.869046
0.117659
0.644264
0.891284
-0.211445
0.995243
-0.575232
0.817244
0.791178
0.135209
-0.378933
-0.375965
-0.479964
0.443195
-0.011036
-0.313381
-0.435738
-0.201679
0.977437
-0.227780
0.446553
0.780714
-0.379415
-0.506675
0.895052
-0.364257
-0.722397
-0.319273
-0.842451
0.644197
-0.400546
0.397850
0.595709
0.803806
1.255048
-0.615984
0.333552
-0.047963
0.579883
0.222627
-0.836499
-0.504075
-0.340342
-0.932887
-0.262008
0.899457
0.282716
-0.678960
0.160841
1.002751
-0.593278
0.744370
0.783823
0.257552
-0.122964
-0.097072
-0.210642
0.552649
-0.819076
-0.011704
1.035530
-0.475734
0.284788
0.402743
0.323339
0.991703
-0.392195
-0.260636
-0.279470
0.876432
0.963943
-0.755113
-0.197217
0.130562
-0.183452
-0.655306
-0.282617
0.459263
0.160896
0.096467
-0.826809
0.737869
-0.500807
0.448906
-0.625601
0.751621
0.805567
-0.112103
0.746869
-0.823902
-0.177472
0.802292
-0.715352
0.963777
1.053712
-0.179637
0.643886
-0.575805
0.187576
-0.058707
0.184732
0.223176
-0.541733
-0.472413
0.441877
0.547248
-0.510635
0.425734
0.990183
0.514133
-0.450387
0.199568
-0.204366
-0.707904
-0.459771
-0.890708
-0.200009
-0.214078
0.969671
-0.108635
-0.693126
-0.709262
0.328406
-0.396679
0.171857
0.713300
-0.418845
0.260758
-0.782820
0.056403
-0.946752
-0.744691
-0.799451
0.082293
-0.847604
0.923278
-0.114149
0.404270
0.280100
0.203386
0.543783
0.228879
-0.060576
-0.681307
1.013268
0.526283
0.293489
-0.043205
0.931566
0.837149
-0.123629
0.604739
-0.374061
0.227309
0.064847
-0.389402
0.501504
0.359667
0.895765
-0.803080
-0.313071
-0.387318
0.057254
0.843089
-0.335012
0.955759
-0.199106
-0.879670
0.435539
0.068962
-0.876625
0.389197
-0.573853
-0.910677
0.425638
0.784278
-0.421546
0.067239
0.459699
-0.969883
-0.139640
-0.413459
0.604105
-0.511613
0.517108
-0.896709
0.959743
0.484269
-0.274998
-0.088354
0.640112
0.284217
0.285874
-0.642112
-0.365827
-0.951308
-0.306522
-0.815264
0.945269
-0.545165
-0.646094
0.142618
-0.754397
0.834340
-0.124098
-0.643852
0.774630
0.396148
-0.301772
-0.551919
-0.544824
-0.032447
-0.568993
-0.500608
0.477395
0.081774
-0.169658
0.249039
-0.066550
-0.524683
0.003467
-0.160113
-0.588630
0.913086
0.929855
-0.961477
-0.075122
0.519847
0.389594
0.579464
-0.159821
0.321493
0.355384
0.808533
0.954302
0.449214
-0.726370
-0.403940
0.013713
0.125131
-0.182061
-0.363862
-0.895466
-0.101106
-0.140829
-0.756056
0.351581
-0.135695
0.272317
-0.511286
-0.582427
0.731627
-0.203044
-0.428919
0.254894
0.737564
0.294388
0.451568
0.162968
-0.840324
-0.983872
-0.200440
0.274084
-0.924045
-0.270276
0.509443
-0.319289
-0.119013
-0.503738
1.049687
0.035219
0.619572
0.889481
-0.010660
0.812365
-0.132321
0.003309
0.011365
0.628364
0.794298
-0.932187
0.934583
0.535699
0.885479
-0.913906
-0.096051
-0.074438
-0.634073
0.220885
-0.401373
0.553282
-0.371278
-0.712521
-0.319192
-0.014097
0.490948
0.130389
0.064749
-0.498178
-0.268503
0.003787
0.601276
0.687840
0.200164
0.069379
0.798642
-0.047462
0.626341
0.656951
0.403262
-0.691163
-0.245809
-1.100904
-0.178427
-0.030525
-0.566358
1.104169
0.099841
0.790926
0.506940
-0.847876
-0.596233
-0.171525
-0.524408
0.106666
-0.634696
0.467133
-0.879646
0.732499
-0.764354
0.089732
-0.270273
-0.088320
-0.619142
-0.082089
0.553528
0.351231
-0.751321
-0.254400
0.071696
-0.173562
-0.051220
-0.111567
-0.632006
0.570624
-0.877554
1.119758
-0.496537
-0.447654
-0.240423
0.074562
0.846132
1.000161
-0.931634
0.474337
0.176259
0.715207
-1.043551
0.016168
0.275255
-0.177185
0.343563
-0.261512
-1.055024
-0.012580
0.343792
-0.998434
-0.735891
-0.249733
-0.578891
-0.495803
0.744587
0.255471
-0.673756
-0.714416
-0.463225
-0.286184
-0.895998
-0.059956
0.316922
-0.343263
-0.689901
-0.106140
0.351604
-0.925169
-0.856614
0.576062
-1.059886
0.042450
0.669558
-0.731509
-0.578838
-0.955019
0.344732
-0.557517
0.149130
0.483604
-0.996885
0.173433
1.037094
-0.621687
0.024011
-1.173224
0.813247
-0.771392
-0.880143
0.588508
-0.255049
0.483975
-0.524072
0.456106
-0.094501
0.930799
-0.508146
0.972582
-0.613052
0.018682
-0.477008
-0.508908
0.404725
-0.637391
-0.014858
0.826404
0.473109
0.010845
0.655187
0.187134
-0.333249
0.094483
0.199682
-0.300091
-0.478604
-0.819571
-0.072125
0.982826
0.068983
0.831752
-0.282216
-0.089114
0.506498
0.234688
-1.044585
-0.473081
-0.109563
0.001364
0.346440
-0.576464
-1.336982
-0.204465
0.341662
-0.432292
0.196994
0.008349
-0.024486
-0.319730
-0.280096
0.309771
-0.360928
-0.180890
-0.775261
0.972921
0.903030
-0.496538
0.231583
0.919631
0.527340
0.506859
0.900343
-0.254025
0.013033
-0.299684
-0.899085
0.733677
0.507047
0.886645
-0.473175
-0.023015
0.497508
0.369004
0.308842
-0.016147
-0.795474
-0.765807
-0.606761
-1.033746
0.232284
0.087801
0.953945
0.263038
-0.052157
-0.802318
0.549904
-1.105680
-0.337464
0.679711
-0.195626
0.318491
0.432332
0.366680
0.373405
0.663736
-0.600743
-0.994738
0.176215
-0.211092
-0.968256
0.420470
-0.844995
-0.932727
-0.506068
0.623044
-0.211093
0.406180
0.216465
-1.109829
-0.156487
-0.070840
0.634735
-0.006658
-0.419433
-0.408450
0.166846
0.394617
0.182972
-0.044983
0.183964
-0.235430
0.878735
-0.516747
-0.562096
-0.447267
0.410819
0.220834
0.933228
-0.148903
-0.035866
0.886171
0.081006
-0.561828
-0.555390
0.065487
-0.132390
0.216100
-0.252260
0.228113
-0.605675
0.292019
-0.701304
0.460001
0.476762
0.788579
-0.620464
0.207848
0.017900
0.987941
-0.643395
1.078306
-0.643061
-0.816121
-0.562619
0.768998
-0.621438
0.940656
-0.829102
0.666108
-0.286211
-0.639154
-0.662897
-0.955075
0.340939
0.374592
0.359715
0.414002
-0.677402
-0.520026
0.792537
0.554928
0.936603
0.392350
-0.876766
-0.246910
-0.706447
0.166740
-0.422989
0.595871
-0.202160
-0.423533
-0.866717
-0.338226
0.418968
1.012032
0.676130
-0.601721
-0.130222
0.455816
0.627476
0.067962
-0.885568
-0.510617
0.195693
-0.180641
-0.510162
0.311024
0.139411
-1.001962
0.725507
0.223977
-0.674220
0.760627
-0.639700
-0.817225
0.571118
-0.763050
0.376019
0.855765
0.468668
0.071808
0.604947
-0.080784
-0.540802
-0.658464
-0.991042
-0.050510
-0.290545
-0.828716
-0.553696
-0.211190
-0.438827
-0.694234
0.429813
-0.553749
0.565254
0.562473
-0.936020
-1.052939
-0.105136
-0.190161
-0.665892
0.328994
-0.941345
-0.929718
-0.723301
-0.798207
-0.102175
-0.295811
0.571673
1.268232
0.452479
0.209651
0.074433
0.803971
0.756265
-0.969924
-0.239688
-0.161263
-0.381202
0.838845
1.015096
-0.292035
-0.425793
0.020084
-0.035379
-0.786741
0.135650
-0.257738
-0.134670
0.804450
0.243083
-0.650730
-0.430890
-0.223590
-0.950749
0.400932
0.720389
0.520629
-0.012699
1.343215
0.322949
0.335045
-0.154101
0.596866
0.635365
-0.282541
0.145823
0.701159
-0.186130
0.823109
-0.510455
-0.684969
-0.988649
0.760303
0.668294
0.058369
0.456896
0.340089
-0.430686
-0.588345
-0.878160
0.118383
-0.896478
0.438682
-0.395813
-0.518397
-0.988322
-0.209132
0.597629
1.005912
0.330230
-0.383528
-0.457196
-0.722710
0.296487
-1.009619
-0.628451
0.344303
-1.084892
0.088517
0.068305
0.727046
-0.488666
-0.890719
-0.875727
-0.405482
0.732754
0.918388
-0.080180
0.559117
-0.086886
-0.282440
0.150592
0.954698
0.351702
0.256845
0.735926
-0.435038
0.558753
-0.351200
-0.771035
-0.616031
0.199270
-0.317307
-0.907126
0.758628
0.044757
0.730955
-0.571807
-0.696723
0.273096
-0.160071
0.438342
-0.320847
0.483967
-0.431908
-0.361590
-0.708434
-0.158549
0.696997
0.273916
0.734226
-0.406372
0.927648
-0.795448
-0.219664
-0.928914
-0.065711
0.725557
1.088751
0.235809
-0.130804
0.771260
-0.351395
0.393161
0.735570
0.138424
0.032957
-0.518539
0.289051
0.530297
0.080086
-0.206078
-0.668954
0.013554
-0.662563
-0.633425
0.283932
0.019610
-0.697828
0.022689
-0.987542
0.607526
-0.781049
-0.044434
-0.258717
-0.316039
-0.867039
0.079294
-0.184515
-0.268700
-0.751760
-0.430037
0.444144
0.097348
-0.219223
-0.775653
0.916964
0.624755
-0.028162
-0.176120
-0.106750
-0.356719
-0.039375
-0.213667
-0.890045
0.932396
-0.575131
-0.672957
-0.196269
-0.630006
-0.316688
0.821318
0.884261
-0.005386
-0.664595
-0.164987
-0.364056
0.543276
0.863020
-0.885377
0.273685
0.053656
0.338423
0.848201
0.323256
-0.252448
-0.452431
-0.608331
-0.733391
0.948028
-0.155637
0.864249
-0.252797
0.058125
0.326979
0.604796
-0.332956
-0.939609
-0.242638
-0.875790
-0.489612
0.544846
0.975196
0.367437
0.401771
0.875617
-0.225613
0.089381
0.874199
-0.921704
1.246366
-0.022532
-0.677326
-0.120026
0.824014
-0.733361
-0.537072
-0.175268
-0.769899
1.402829
-0.154327
-0.588868
-0.357409
-0.762700
-0.490638
0.018960
0.087750
-0.438456
0.752166
0.603973
1.357178
-0.767944
0.598209
-0.581979
0.769287
