3072 30 10 0.1000 200 200 300
-0.307162
0.138084
-0.201756
-0.030149
-0.264652
-0.054084
-0.063816
-0.188445
-0.191896
-0.133632
-0.125954
0.067403
0.165419
0.094535
0.093041
0.153300
0.134921
0.047753
0.120602
-0.063283
-0.346441
0.153837
0.161377
0.056715
0.083297
0.144419
0.049404
-0.033821
0.067333
0.053435
0.098884
0.088113
0.152020
0.029111
0.430981
0.222690
0.113922
0.071326
0.147653
0.148795
0.112500
-0.215135
0.709808
0.111980
-0.994004
-0.161661
0.647927
0.493784
0.715823
-0.584656
0.278109
0.094169
-0.499105
0.478875
-0.911092
0.448907
0.507301
-0.254869
-0.761974
-0.818201
0.490567
0.946841
0.280841
-0.530364
-0.083791
0.730527
0.404154
-0.775473
-0.353503
0.598186
0.385050
0.475333
-0.376362
-0.817253
0.426801
-0.836118
0.860176
-0.902507
-0.288370
-0.067122
0.918231
0.766659
0.664915
-0.256731
-0.277014
0.565060
0.403498
-0.761380
0.966871
0.345221
0.163780
-0.641245
0.482500
0.191669
-0.430029
-0.493484
0.954176
0.982274
0.767421
-0.667681
-0.242047
-0.675419
-0.497259
0.262696
-0.812480
0.657653
-0.638434
-0.878443
-0.477694
0.927439
-0.736468
0.583235
0.550286
-0.869230
-0.730447
-0.111526
0.467403
0.572006
-0.143658
0.882332
0.075245
0.926539
0.217368
-0.604276
0.742420
0.592308
0.704249
-0.647720
0.903103
0.791354
0.725131
-0.700701
-0.159374
0.924096
0.504526
-0.977147
0.858057
-0.188384
0.747444
-0.780061
0.066078
-0.497408
1.004765
-0.960777
0.375312
0.424441
0.579800
0.805627
-0.709790
0.380618
0.649101
-0.802693
0.081358
0.695554
0.356780
-0.691338
-0.561548
0.701334
0.286312
0.225193
0.938841
0.677575
0.716969
0.293199
-0.617440
-0.641610
-0.150151
-0.080152
-0.741781
0.021532
-0.274681
0.179003
0.014806
0.118678
0.884214
0.471386
0.460716
0.422186
-0.156850
-0.859157
0.220694
-0.979158
-0.572279
-0.295284
-0.499639
-0.402178
-0.056460
-0.949145
0.759496
-0.642206
0.088120
0.867336
-0.788629
0.187847
0.237598
0.764319
0.465133
-0.446360
0.111294
0.305213
0.301368
-0.216688
-0.063720
-0.804909
0.190321
-0.612192
-0.104082
-0.964064
0.650443
0.137449
0.805187
0.228986
0.452935
-0.980904
-0.612729
-0.330761
-0.836125
0.498163
-0.016272
-0.593501
-0.602477
0.476744
0.263283
-0.013851
-0.578787
-0.343151
-0.637811
0.529777
0.752852
-0.022966
0.952921
-0.180793
-0.796784
-0.720071
-0.058693
-0.487561
-0.248219
0.526287
0.820100
-0.229847
-0.127811
0.173492
0.840565
-0.810209
-0.263988
0.121592
0.774797
0.852376
0.783914
0.529566
-0.875317
0.838331
0.099943
0.242607
0.473196
0.595088
0.343131
0.732109
0.562278
-0.247429
0.833959
0.784455
-0.545154
0.511858
-0.419759
-0.742085
-0.732180
-0.434775
-0.476554
-0.528563
-0.594571
-0.799695
0.662738
0.301123
-0.261270
-0.575938
0.686920
0.324676
-0.870780
-0.696128
-0.205553
0.832600
0.667076
-0.690964
0.553022
-0.644750
0.501441
-0.167734
-0.222649
-0.839454
-0.123993
-0.088641
-0.537613
0.592282
-0.706568
0.907509
-0.189530
-0.451167
0.825565
0.506376
0.945819
0.093620
-0.913697
-0.177313
0.234317
0.204570
-0.309026
-0.089864
-0.286904
0.656678
0.296893
0.831336
0.044046
0.089777
-0.518164
-0.624310
-0.406972
-0.166040
-0.295660
0.628094
0.900818
0.315925
0.626588
0.069946
0.386246
0.988272
0.289898
-0.641649
0.447889
0.661434
0.706157
-0.986897
-0.684371
-0.095878
-0.635300
-0.468444
0.280699
0.759671
-0.320069
0.794563
-0.912817
0.210921
0.089442
0.714729
0.110875
0.659859
-0.075372
-0.261208
0.832726
0.738460
-0.043886
0.893546
0.283283
0.800575
0.782364
0.501647
-0.003230
0.035515
-0.786226
-0.077291
-0.356181
-0.183223
-0.985113
-1.001692
-0.792675
-0.283295
0.968419
0.357715
-0.176712
-0.447210
0.125480
-0.786229
0.577727
-0.411701
-0.845668
-0.275318
0.947621
-0.678100
0.391956
-0.635071
0.846832
-0.826106
-0.481527
-0.507824
-0.983004
0.222509
0.316682
-0.159081
-0.425921
-0.504162
-0.331309
-0.551318
-0.627774
-0.891182
-0.158397
-0.592853
0.922195
0.833492
0.299841
-0.450843
0.512570
-0.253650
0.646097
0.128825
0.567071
0.952983
-0.335690
0.545447
-0.465024
0.275863
0.129104
0.108903
0.812991
-0.938636
-0.835590
0.141289
-0.561406
-0.182023
-0.744709
0.798879
0.872435
-0.822792
0.704207
-0.200709
0.708461
-0.264058
-0.305634
-0.486139
0.709132
0.291799
-0.681366
-0.123471
-0.706595
0.882687
-0.149937
0.336186
0.232758
-0.334160
-0.448143
-1.053330
-0.826837
0.151199
0.237301
0.532943
-0.321785
1.001015
-0.778792
-0.048968
-0.420283
-0.345367
-0.017943
-0.004353
0.255165
-0.621088
-0.581335
0.710052
0.652453
0.867238
-0.960850
-0.333007
-0.566359
-0.898151
-0.804384
-0.546710
-0.409440
-0.314910
0.884775
0.165290
0.407229
0.358203
0.513836
0.386184
0.907861
0.823886
0.636382
0.601304
-0.787340
-0.065502
-0.108973
-0.162936
0.070668
0.365985
0.845331
-0.316672
0.595878
0.966636
-0.673192
-0.877845
0.406019
0.684007
0.066149
0.880868
0.912012
-0.111619
0.561580
0.092949
0.214333
0.452315
0.410381
0.197659
-0.997462
0.676852
0.149215
-0.635119
0.292271
-0.002749
0.135746
-0.651734
0.405782
-0.320078
-0.696688
-0.172812
-0.252856
-0.939024
-0.791625
0.531921
-0.833400
0.490403
-0.622555
-0.162256
0.126415
0.932179
0.883906
-0.746605
0.636396
-0.152361
0.736305
0.197383
-0.031246
-0.360996
0.140698
-0.444624
-0.198762
0.383239
0.090662
0.346578
0.044730
0.521746
-0.733735
0.870001
0.445926
0.851204
0.611553
-0.425177
0.753046
-0.170923
-0.278829
-0.819993
-0.676098
-0.937362
-0.796797
0.866343
0.509530
-0.366157
-0.763130
-0.211321
0.707615
-0.205950
-0.508766
0.863901
-0.533146
0.190797
-0.882789
0.934419
-0.869650
0.690391
0.382612
-0.229636
0.418293
-0.205927
0.387815
0.174128
0.392199
0.513719
0.994049
0.120136
-0.660191
-0.676628
0.524782
0.708811
-0.559539
0.390464
0.301899
0.707387
-0.286790
-0.561051
-0.360262
-0.608116
-0.230985
-0.580083
0.527904
-0.402178
-0.516626
-0.087332
0.849924
-0.689073
0.100504
0.794920
0.281505
0.905243
-0.079841
0.683436
-0.822149
-0.509064
0.041362
-0.196580
0.697906
0.832651
0.279542
-0.311257
0.075640
0.823402
-0.692876
0.461547
-0.394974
0.875360
-0.682288
-0.727838
0.567605
0.091412
0.627069
-0.802299
-0.090284
-0.059532
-0.329760
0.625438
-0.593296
-0.701112
-0.014123
0.882349
-0.621106
0.826976
-0.863611
-0.519654
0.349408
0.677646
0.639200
-0.700420
-0.645455
0.082080
0.144350
-0.609439
0.786630
-0.315960
-0.995560
1.002633
-0.135967
0.417591
-0.437875
0.030574
-0.168125
-0.628017
0.618717
-0.348192
0.250014
0.656565
0.354667
0.073999
0.676282
0.928376
-0.591814
0.190126
-0.963087
0.053128
-0.414421
-0.338951
0.471488
-0.339890
-0.718205
-0.665451
-0.376921
0.939477
-0.134312
-0.900065
-0.958225
0.358841
0.101623
-0.668373
0.771282
-0.907149
0.745937
-0.216763
0.814995
-0.216309
0.010442
0.182008
0.300829
-0.731078
-0.580582
0.093027
-0.418938
-0.147970
-0.746761
-0.028468
0.151788
1.030272
0.847654
-0.128243
0.975268
0.001153
-0.818447
0.076634
0.912066
0.002554
-0.850865
0.810501
0.787517
0.902095
-0.568343
-0.716779
-0.642803
-0.165113
0.171197
0.797214
0.461205
-0.932323
0.764885
-0.601479
0.593550
0.352728
0.998941
0.751931
0.179051
-0.954636
-0.027302
-0.011062
0.987808
-0.353675
0.448250
-0.482135
-0.073356
0.266785
-0.218821
0.401353
0.276314
0.864309
-0.955000
-0.781046
-0.536175
0.236901
0.277896
-0.421994
0.443410
-0.802886
0.410752
-0.546309
0.500304
-0.513195
0.298109
-0.741402
0.858358
0.749056
0.264803
0.120527
-0.742294
0.427238
0.561721
-0.181755
-0.259518
-0.218922
-0.646671
0.955474
0.051628
-0.949322
0.265942
-0.336817
0.581515
-1.000235
0.663337
-0.228691
0.330739
0.638398
0.487572
-0.495754
-0.890475
-0.952041
0.072197
0.559555
0.511970
-0.459217
-0.839707
-0.827610
0.795955
-0.655923
0.090689
-0.795271
-0.962384
0.383371
0.939184
0.106165
-0.437498
-0.459621
0.208371
-0.748220
-0.267208
-0.725479
-0.138000
-0.368430
-0.713260
-0.037869
0.270642
0.860857
0.614459
-0.016463
-0.583700
-0.190365
0.170916
0.595807
-0.001326
-0.720691
-0.328755
-0.874908
-0.269831
-0.378408
0.421923
-0.015276
-0.482275
-0.128238
-0.699879
-0.718524
0.293716
-0.281434
-0.398513
-0.848378
-0.091150
0.983116
0.715991
-0.641984
0.733453
0.824970
-0.503356
0.712723
0.801690
0.636001
0.908838
-0.256854
0.233882
0.520999
-0.616023
-0.814417
0.370527
-0.176884
-0.254497
-0.897339
0.528699
0.460231
0.690888
-0.716964
0.831682
0.058164
0.115644
-0.188649
0.501356
-0.370928
0.271349
-0.809135
-0.978098
0.606427
0.238516
-0.231902
0.181429
0.144429
-0.054193
0.784382
-0.452695
0.458443
-0.157215
-0.517013
-0.310138
0.227347
-0.961992
-0.500238
0.344151
-0.800601
-0.265582
0.336772
-0.893420
-0.415882
0.326439
0.996315
-0.624177
-0.877996
-0.502965
-0.330749
-0.709430
-0.032889
0.209242
-0.397562
0.508768
0.595464
-0.734825
0.653535
0.177304
-0.664663
-0.437546
-0.624583
-0.809500
-0.370188
-0.636486
0.166574
0.660461
0.619343
0.561347
0.563325
0.844809
0.262077
-0.103014
0.286657
0.073186
-0.570704
-0.945207
-0.655029
0.062540
0.564791
-0.055954
0.468632
-0.323029
0.118506
0.781960
-0.924808
0.779416
0.941843
-0.900902
-0.766861
0.259036
-0.355635
0.543465
-0.873723
-0.255680
0.250977
0.479395
-0.485536
0.023490
-0.627200
-0.801963
1.062052
-0.972735
-0.182013
0.994977
-0.949966
-0.813498
-0.921507
-0.943885
0.389147
0.065400
0.489629
0.888619
0.454793
-0.084665
0.655052
-0.579857
-0.271367
-0.673878
0.726904
0.349294
-0.440516
0.617512
0.223554
-0.628057
-0.128849
-0.515821
-0.620327
-0.553390
0.920065
-0.233212
0.265083
0.805421
0.934004
-0.434368
0.024871
-0.617431
0.725112
0.803452
0.624882
0.015549
-0.667300
0.703555
0.684783
-0.257995
0.915036
0.548661
0.479243
-0.914750
-1.023262
0.517862
-0.340749
-0.242118
-0.655292
0.605575
0.746993
0.215614
0.549218
-0.680556
-0.834349
0.291702
-0.680072
-0.128789
0.891527
0.812561
0.639556
-0.439491
-0.271527
-0.057719
0.203282
-0.062745
-0.693179
-0.524425
0.840651
0.011014
-0.175549
-0.663053
0.385019
-0.086929
-0.104359
0.329111
0.780412
0.929706
-0.735998
0.135654
-0.880651
-0.780444
0.099914
-0.698629
-0.425083
-0.474350
0.162764
0.918056
-0.774495
0.474290
-0.393705
0.506797
0.787700
0.662137
0.474148
0.433440
0.857134
-0.448720
-0.544727
-0.153137
-0.732716
-0.935530
-0.024384
-0.466648
0.283520
0.330756
-0.814513
-0.181602
-0.439013
0.731943
0.072801
0.073455
0.492605
0.072263
0.017861
-0.728804
0.128735
-0.247550
-0.893443
-0.003801
-0.552314
-0.748137
-0.383559
0.051165
-0.285805
0.585491
-0.951264
-0.197672
0.718378
-0.927837
-0.347685
-0.282271
0.654519
0.912695
0.228701
-0.693271
0.263460
-0.981362
-0.848544
0.754459
-0.087911
0.305083
0.008794
0.810462
-0.061514
-0.848440
-0.121516
0.203089
0.943924
-0.563966
-0.725690
-0.388009
-0.125508
-0.386793
0.148827
-0.003404
0.212060
-0.936658
0.015329
-0.793762
-0.490243
-0.879093
-0.472417
0.071810
0.084765
0.322371
-0.879507
-0.588083
0.197182
0.691258
0.793850
-0.121155
0.679553
0.573759
-0.271482
0.792584
-0.245749
0.869122
-0.929890
0.078990
0.780310
-0.344765
0.491925
-0.278683
0.089721
-0.943164
-0.479052
-0.809814
-0.002571
0.633207
-0.852691
-0.304169
-0.287577
0.928164
0.253259
0.377123
0.607331
0.042130
0.423047
0.273941
-0.713530
0.710386
-0.650850
0.588051
-0.123858
-0.462078
0.332928
-0.237904
0.074515
0.556977
-0.965770
-0.293055
-0.349113
0.541542
0.804061
0.948324
0.209092
-0.286858
0.318432
-0.199596
-0.171221
-0.046303
-0.984733
0.608900
-0.072273
0.335592
0.788234
-0.608107
0.039651
0.750873
0.091004
0.874052
-0.042339
-0.394358
0.771927
-0.020943
-0.754401
-0.554984
0.266993
-0.146185
-0.731258
0.124568
-0.764937
-0.459702
-0.549410
-0.082847
-0.620107
0.078693
0.439002
0.380542
0.406625
-0.834616
0.407298
-0.773435
-0.520015
0.040888
-0.541350
-0.652365
0.188267
-0.236196
0.067069
-0.457977
0.733001
-0.141387
-0.594517
0.721358
0.618932
0.652756
-0.956633
0.485658
0.988262
0.062644
0.019263
0.439588
0.604143
-0.876613
-0.246994
-0.387643
0.536093
0.190290
0.063094
0.785683
0.817002
0.531873
-0.846491
-0.589203
-0.411791
0.475129
-0.718891
-0.071665
0.617582
0.958539
0.427755
-0.244346
-0.193897
-0.709533
-0.454379
0.820422
0.108945
-0.583915
-0.948957
0.523967
0.907254
-0.587357
0.497871
0.416967
0.422805
0.721812
0.417403
-0.704975
-0.186916
-0.842690
1.004989
0.403399
0.825856
-0.042593
-0.605996
0.435855
0.580957
-0.834872
0.009882
-0.853627
-0.585793
0.093887
0.519806
-0.125491
-0.843181
0.272147
-0.682414
-0.451955
1.015968
0.403856
-0.732699
0.466325
-0.030321
0.002126
-0.512065
0.658831
-0.424303
-0.615472
0.753617
-0.081655
0.427134
0.638563
-0.084796
-0.728966
-0.030555
0.802656
-0.553570
-0.109941
0.303711
0.685870
0.512732
-0.740531
0.671378
-0.506750
-0.579987
0.324656
-0.622597
-0.778318
0.955264
0.150865
-0.972585
-0.459603
-0.359695
-0.351792
-0.830301
-0.007824
0.000224
0.915680
-0.448820
-0.497585
0.694860
-0.419004
-0.146860
0.284548
0.004050
0.616708
-0.150156
-0.598035
-0.402399
-0.653375
0.457806
0.141377
-0.200904
0.977864
0.251553
-0.659978
0.739809
0.224741
0.190027
-0.730554
0.896001
0.464197
0.285765
-0.007091
0.384383
-0.543832
-0.552508
0.435318
0.491149
0.607602
-0.032902
0.529222
-0.042972
-0.179458
0.375985
0.879727
-0.241780
-0.126488
-0.110750
0.831642
-0.689313
0.653122
0.385696
0.255915
-0.654186
-0.516464
0.135113
0.650629
-0.727894
-0.392181
0.218360
-0.634296
0.975922
0.687118
-0.052962
-0.852008
0.002042
-0.115674
-0.273506
-0.420184
0.031588
-0.541163
-0.134173
-0.007938
0.673473
0.303032
0.466997
-0.389903
-0.790554
0.932325
0.057503
-0.651836
-0.506937
0.395145
-0.343852
0.462475
-0.878691
-0.779166
0.481812
-0.327794
0.727097
0.935641
-0.414607
0.618407
-0.670484
0.358801
-0.712487
0.454523
0.428576
0.236233
-0.066620
0.058453
0.769153
-0.964697
-0.477802
0.687874
0.385464
-0.295557
0.640012
0.791450
-0.535384
-0.554718
0.879953
-0.210472
-0.421580
0.805053
-0.591876
0.087740
-0.540240
0.534893
-0.082366
0.817256
-0.843303
-0.151944
0.372656
-0.923646
0.507887
-0.933301
0.862904
-0.840914
0.836438
0.447657
-0.028839
0.020667
0.298568
0.260470
0.844522
0.850677
-0.861439
0.008338
0.362991
0.279423
-0.837428
-0.128555
-0.426347
-0.530799
-0.707625
-0.917869
-0.108491
-0.740892
-0.806191
0.314258
0.074155
0.637004
-0.975578
0.697830
0.371912
0.104736
0.576951
0.540627
-0.504275
0.055693
-0.940161
0.965119
0.014537
-0.160312
0.704344
0.707845
-0.169400
-0.132335
0.225571
0.605361
0.548640
-0.871100
-0.161368
-0.291577
0.845620
-0.978612
0.150648
0.448999
-0.903213
0.411763
-0.541228
0.743302
0.887211
0.004261
-0.891444
0.959030
-0.468104
-0.150805
0.869975
0.328056
0.655911
0.732022
0.799801
-0.840805
-0.095072
0.049041
-0.522883
-0.374681
0.714234
-0.601680
0.385728
-0.617000
0.138671
-0.240954
-0.192618
0.957014
-0.772525
0.239487
-0.518161
-0.901416
0.658722
-0.236103
0.389067
-0.434255
-0.072627
0.502699
0.727294
0.884399
-0.853752
-0.532115
-0.209966
-0.829534
0.529570
0.905396
0.605353
-0.928173
0.046804
-0.912965
0.702271
-0.414133
-0.402468
0.530214
0.725686
0.034999
-0.059939
0.895606
0.150548
0.656280
-0.380979
-0.533219
-0.541619
0.744400
0.620448
0.187463
-0.287348
0.734298
0.069186
-0.726591
0.814446
0.703274
0.972319
-0.740084
0.413435
0.137074
-0.740210
0.397532
-0.414817
0.019880
0.737120
0.409213
-0.152597
0.131650
0.451329
-0.904494
0.580063
-0.015469
-0.687072
-0.130746
-0.856879
-0.475231
0.464085
0.848885
-0.833084
-0.612857
0.639877
0.521943
-0.316060
0.096053
0.479106
0.073999
0.262674
-0.321985
0.786847
-0.520177
-0.710098
-0.974902
0.660882
-0.099721
0.771969
0.458855
0.755369
0.529476
0.820515
-0.209096
-0.742795
-0.345402
-0.484442
0.643102
-0.469796
0.280486
-0.229951
0.237752
0.231886
0.840263
-0.831909
-0.127726
-0.055528
0.409823
0.276657
-0.920744
0.114831
-0.050217
-0.465025
0.305707
-0.449628
-0.882376
0.441645
0.445231
0.578392
-0.346491
-0.087287
-0.111421
0.503367
1.007742
-0.016361
-0.142341
0.961947
-0.238883
-0.758817
0.440792
0.695107
-0.518675
0.598756
0.625567
-0.829952
-0.173718
-0.721568
-0.511576
-0.796943
0.608226
-0.608925
-0.222802
0.851795
0.681520
0.801038
0.819198
0.715539
-0.774522
0.213817
0.380599
0.147887
-0.161179
-0.459239
-0.577638
0.215014
0.178135
0.902578
0.003614
0.879757
-0.911041
-0.919517
0.890952
-0.335418
-0.009834
0.752759
-0.325272
-0.559078
-0.339554
0.559622
-0.720453
-1.020380
-0.357195
0.002665
-0.619938
-0.882359
-0.767585
-0.028814
-0.908731
0.341831
0.668537
-0.446869
0.139417
0.550248
0.006748
0.665175
-0.959490
-0.867397
0.270158
-0.286822
-0.810364
-0.995112
-0.881985
-0.870336
-0.125182
-0.692811
-0.923723
0.891534
-0.521916
-0.177570
-0.230608
0.174176
0.242684
0.791499
0.274341
-0.907153
0.838382
-0.689494
0.405530
0.195925
0.217401
0.110575
-0.911881
-0.636401
-0.697430
-0.441884
-0.670389
0.230848
0.452794
-0.628912
-0.278344
0.951330
0.138573
-0.474480
0.191793
0.953975
0.773677
0.555034
-0.794116
-0.866654
0.088212
-0.420116
-0.749754
-0.726359
0.340241
0.409158
0.099208
-0.313634
0.579080
0.773076
-0.540545
-0.086775
0.504125
-0.889963
-0.532640
0.496839
0.412211
-0.913141
-0.989932
-0.887308
0.427695
0.699478
0.739562
0.664961
0.181588
0.739107
0.376657
-0.805908
-0.420036
-0.220770
-0.063191
0.068865
-0.051284
-0.923121
-0.794321
-0.909004
-0.401745
-0.878764
-0.770192
-0.520633
0.707732
0.476436
0.801954
-0.054020
-0.272365
0.119455
0.351993
-0.099290
0.405834
-0.814253
0.325678
0.094025
-0.500796
-0.937909
-0.827222
-0.754990
-0.658148
0.649284
-0.540424
0.295091
0.350754
-0.452756
0.443946
0.475730
-0.450292
0.333537
-0.228434
-0.883782
0.102643
-0.007601
-0.341168
-0.124967
0.487383
-0.777141
-0.460833
0.879552
-0.781727
-0.199884
-0.837672
-0.977665
0.507229
0.908976
0.291070
0.812363
-0.496061
-0.176766
0.798053
-0.421095
-0.684476
-0.758496
-0.152432
0.298610
0.424709
0.384764
-0.890089
-0.026955
-0.312297
0.576587
0.819416
0.704100
-0.880502
0.594512
0.758352
-0.776491
0.301736
0.954414
0.808628
0.695863
-0.708466
-0.630193
0.566503
0.263462
-0.394793
0.614921
0.129087
0.082628
0.791395
0.942200
0.389579
0.560903
-0.593846
-0.273910
-0.670247
-0.830054
0.664072
0.460187
0.196896
0.828369
0.019173
-0.452311
0.640455
-0.788977
-0.271093
-0.412308
-0.300572
-0.461827
0.862195
-0.503686
0.299339
-0.849943
0.493820
0.607718
0.039168
-0.784205
0.754792
0.110242
0.046484
-0.178914
0.733780
0.629760
0.205088
0.451175
0.635211
-0.619559
-0.032831
-0.608765
0.694392
-0.767054
-0.363313
0.570745
-0.632991
0.786110
-0.857600
0.029943
0.867274
0.814827
0.333865
-0.093691
0.760556
0.362169
-0.625827
-0.552157
-0.981943
-0.829073
0.268113
-0.658151
-0.792018
0.921015
0.216942
0.868958
-0.212201
0.582049
-0.916507
-0.759989
-0.287877
-0.513769
0.944929
-0.714960
-0.754263
0.337372
0.489963
-0.216159
-0.055406
-0.874581
-0.918365
-0.772553
0.877494
0.271424
-0.312755
0.822300
-0.544477
0.006805
-0.082756
0.669958
-0.928198
0.784309
0.286484
-0.485008
-1.025972
-0.935316
0.072247
0.259451
-0.264948
-0.166349
-0.555494
-0.504426
0.079096
0.575891
0.398903
0.089898
0.800461
-0.008559
-0.403966
-0.323003
-0.743453
0.149036
-0.539974
-0.041053
-0.520881
0.680911
0.322013
-0.987091
0.771302
0.766395
-0.583828
0.835606
0.089852
0.436659
-0.160169
-0.940025
0.321026
-0.434160
0.506126
-0.956886
0.791268
-0.735641
-0.325324
-0.975439
0.337155
0.209888
0.701576
-0.657262
0.851089
0.347909
0.627375
-0.073711
-0.076347
0.448509
-0.710822
0.091057
-0.007104
0.139192
-0.483933
0.161463
0.795391
0.211164
0.418703
-0.703381
0.042785
-0.138243
-0.327556
-0.977918
-0.539072
-0.493220
-0.627182
-0.571474
0.425303
-0.090446
0.441006
-0.756321
-0.668574
0.693053
0.553755
-0.504316
-0.107208
-0.528711
-0.391141
0.720783
0.917312
0.978342
-0.019255
0.497935
0.639306
-0.516638
-0.312253
-0.482522
-0.621011
-0.905232
-0.838602
0.130660
-0.809427
0.106928
0.184089
-0.942653
0.509689
0.134600
-0.219107
0.934480
-0.230034
0.933426
0.796248
-0.971869
0.068327
-0.161754
-0.869407
0.097086
-0.115209
0.078973
0.572460
0.343974
0.650436
0.932339
-0.504819
-0.919485
0.437342
0.697272
0.545274
0.652171
0.499967
-0.095197
0.951541
-0.353399
-0.882150
-0.466927
0.411293
0.447739
-0.498708
0.104462
-0.241326
0.308234
-0.653251
0.543180
0.305745
0.110316
0.095853
0.822930
-0.135685
0.719839
-1.000835
0.638471
-0.709092
-0.584082
0.929973
0.095770
-0.293854
0.698510
-0.117850
-0.582099
-0.037210
-0.743127
-0.623796
-0.165276
0.909344
0.008054
-0.504494
0.054910
0.423387
-0.204069
0.833057
0.363952
0.177034
-0.962522
-0.304059
-0.745830
-0.189424
-0.230904
0.780078
0.933651
0.353010
0.333140
0.574415
-0.152594
0.751384
-0.791082
0.788705
-0.188958
-0.704460
0.437356
-0.231023
-0.735682
-0.803774
-0.518376
-0.368573
0.619444
-0.636516
-0.462063
0.719683
-0.167463
-0.026756
0.028888
-0.368511
0.042029
-0.870221
0.221595
-0.783087
0.049470
0.824440
0.455473
0.475562
-0.894719
-0.864652
0.244016
0.941025
0.069634
0.776230
0.430094
-0.901506
0.540663
0.994385
0.825416
-0.549299
-0.357537
0.233374
-0.586022
0.258677
-0.008789
0.825960
-0.896588
-0.494107
-0.500494
0.930856
0.589212
0.635246
0.363019
-0.650044
0.748935
0.593826
-0.945369
0.479810
0.254309
-0.777171
-0.300007
0.566034
-0.721186
-0.597145
-0.116666
0.641796
0.895229
-0.497789
0.906637
0.196055
0.968412
0.497227
0.003715
-0.240348
0.655195
0.396017
0.051230
0.899343
0.922916
0.756207
-0.668791
-0.569657
-0.614647
0.482662
0.228703
0.131197
-0.351125
0.611043
-0.803470
-0.302190
0.415035
0.492068
-0.276728
-0.984247
-0.523066
-0.007859
0.756485
-0.383654
-0.393783
-0.268458
-0.290923
0.247495
0.557727
0.876943
-0.163230
0.170321
-0.617172
-0.877047
-0.281721
-0.451852
0.514978
-0.039944
-0.708864
0.865306
-0.171285
1.001017
-0.082776
-0.791188
-0.296405
0.967890
0.725787
-0.084558
0.008733
0.981332
-0.648418
0.530297
0.670269
0.882457
0.373764
0.605799
-0.781097
0.578435
0.872894
0.751651
0.676362
0.563902
-0.997793
0.726474
-0.311368
0.285349
-0.518003
-0.076386
0.011004
0.278296
0.417516
0.138941
-0.591980
-0.255993
0.681700
-0.561565
0.124812
0.514694
-0.205461
-0.872505
-0.517145
0.662179
-0.393911
-0.552205
0.729349
0.205963
-1.023571
0.146126
0.270986
0.418604
-0.235653
0.000760
-0.384090
0.292721
0.882970
-0.860313
0.338908
-0.043722
0.769261
-0.297356
-0.183834
0.666616
-0.371406
-0.990548
-0.010426
-0.452734
-0.146723
0.297854
-0.087111
-0.944786
0.257117
0.901723
0.683036
-0.767839
0.628430
0.670416
-0.763654
-0.014542
-0.301345
0.679293
-0.873981
-0.962484
-0.850429
-0.500587
-0.145665
-0.503931
0.241474
0.306586
0.417641
-0.827976
0.434452
0.463576
-0.012973
0.971851
0.645211
-0.120185
0.755588
-0.566913
-0.047650
-0.765802
-0.279609
0.248439
-0.796822
0.345161
0.914116
-0.091327
0.333476
-0.584485
0.402281
0.439033
-0.070845
0.171755
-0.596908
0.755235
-0.077341
-0.913907
0.797968
-0.593408
-0.287012
0.871540
-0.441005
0.995394
0.790226
0.242066
0.363016
-0.273011
0.461907
0.977732
-0.113633
0.111931
0.570846
-0.310641
-0.568174
-0.325623
-0.827906
1.015017
-0.856244
-0.617892
0.154623
-0.334871
-0.361911
0.675174
-0.135048
0.164024
0.466131
-0.604760
-0.751937
-0.215629
0.514493
0.790113
0.287734
0.943963
0.431651
-0.464267
-0.023503
-0.718051
0.166803
0.963711
0.034361
0.063308
0.501824
0.889250
-0.837951
0.879460
-0.113031
-0.270317
0.564041
0.249822
-0.890123
0.939533
0.665552
0.464848
0.505954
-0.090334
0.727915
-0.202404
-0.526493
-0.923870
-0.715030
0.840093
0.390453
0.940355
-0.492336
-0.261608
0.354508
0.033317
0.813682
-0.704452
-0.795597
-0.256803
-0.621569
0.363918
-0.369975
-0.003404
0.483416
0.540884
-0.157154
0.898184
0.147964
-0.953867
-0.277541
-0.404247
-0.288871
-0.617791
0.165624
0.243898
-0.999254
0.212134
-0.228231
-0.527771
-0.648791
0.610147
0.809256
0.905073
0.417080
0.969160
-0.858727
0.194668
-0.769587
-0.849575
0.337056
-0.261420
0.700438
-0.288230
-0.371232
-0.001946
0.156603
0.895423
0.960442
-0.191668
0.116761
-0.426250
0.237696
0.002129
-0.502080
-0.293971
-0.242211
1.058347
1.063927
-0.501942
0.955216
-0.520156
-0.624460
-1.014927
0.210689
0.555880
0.987838
-0.534051
-0.135768
-0.023815
-0.229075
0.756169
-0.670048
-0.280512
0.148456
0.346306
-0.874445
-0.286809
0.172067
0.786885
0.793472
-0.432686
-0.712104
0.759282
0.030078
0.844432
-0.113262
-0.398424
-0.645322
0.665122
-0.621907
0.103139
0.889140
0.314692
-0.380071
-0.280816
-0.049527
-0.200880
-0.110403
0.429364
-0.724525
-0.158002
0.532127
0.021666
-0.180707
-0.693390
0.682987
0.515708
-0.025697
0.458634
0.958005
0.778130
-0.951558
-0.229863
0.752376
0.116358
0.568399
0.101942
-0.116443
-0.021325
-0.146011
0.183195
-0.001196
0.335089
0.697898
-0.099285
0.959735
0.682550
0.031473
-0.698343
0.142729
-0.765995
-0.336827
-0.837695
-0.221312
0.065760
0.149629
-0.358968
0.941545
0.355553
0.006582
0.412523
-0.582977
-0.607733
-0.939638
-0.629245
0.680141
0.929131
-0.595519
0.020280
-0.599334
-0.201347
-0.120977
-0.826884
-0.330737
0.666708
-0.287553
-0.104625
0.041317
-0.808380
0.083663
-0.239269
0.393561
0.251221
0.443270
0.221196
-0.040192
0.609686
0.049219
-0.370472
-0.949845
-0.474154
-0.735825
0.250902
0.776161
0.755280
0.186810
0.233449
-0.399428
-0.887728
-0.032036
-0.311404
0.704640
-0.571881
-0.199630
-0.907467
0.734242
-0.810200
-0.728381
0.418542
0.690192
-0.057608
-0.601657
1.012549
-0.338719
0.333369
0.034607
-0.347952
0.046754
0.108672
-0.378055
0.001814
-0.060503
0.235580
0.839142
0.213306
-0.538932
0.879139
-0.731531
0.919115
-0.390004
0.354352
-0.106600
0.471139
-0.204188
0.886231
-0.894260
-0.974888
0.251763
-0.456835
0.886839
-0.042692
0.609178
-0.935417
-0.338562
0.314823
0.416366
0.603717
0.893338
-0.275337
-0.410873
0.500738
0.709961
-0.987961
-0.730742
-0.895827
0.793860
-0.694627
0.549168
0.081656
-0.891165
-0.613196
0.331525
0.684009
0.438783
0.461442
0.427379
0.136099
-0.805101
-0.989850
0.069103
-0.705202
-0.994597
-0.024058
0.031854
-0.893081
-0.372919
0.905897
-0.110012
0.763325
-0.516172
0.090140
-0.776495
-0.730921
-0.252920
0.223660
-0.544439
1.064497
-0.698270
-0.709649
-0.116116
-0.684064
0.081049
-0.805236
-0.373694
-0.155400
0.281953
0.813853
-0.273599
-0.028680
0.014938
0.707084
0.790827
0.529362
-0.627500
0.906520
-0.288709
-0.673877
-0.550098
0.728224
0.163363
-0.438719
-0.843350
0.010787
-0.069730
-0.244024
0.145804
0.493940
-0.309842
-0.599469
0.152211
0.530294
-0.281784
-0.595457
0.935569
-0.825689
-0.600169
0.914946
0.946393
0.486007
0.749149
-0.612790
-0.009732
-0.848296
0.952777
-0.702053
-0.490176
0.688475
-0.519892
0.619652
0.624236
-0.387186
-0.589150
0.440348
0.939963
0.619203
-0.851942
-0.807564
-0.798669
-0.973420
0.627841
-0.416585
-0.865272
0.837340
0.807271
-0.645861
-0.321139
-0.826877
0.335851
-0.781636
0.724854
0.541713
0.217779
-0.169800
0.216328
-0.518609
0.744424
0.220827
0.076618
0.111029
-0.654721
-0.233764
-0.621761
0.957972
-0.737840
0.649995
0.505508
-0.817759
-0.174626
-0.462883
0.009335
-0.064077
0.588370
-0.574968
0.896185
0.261325
-0.800431
-0.262342
0.924725
0.752446
-0.147928
-0.297989
-0.464403
-0.905375
0.719270
0.133048
-0.003830
0.927265
0.999646
-0.114175
0.334946
-0.446896
-0.812843
-0.815626
-0.018987
0.027706
-0.831101
-0.411779
1.014370
-0.390008
-0.659481
0.909334
0.421191
-0.660477
0.700077
0.772510
-0.139552
0.052235
-0.572659
-0.773723
0.304315
-0.826847
0.909900
0.551987
-0.381204
0.691140
0.747859
0.703794
-0.117095
0.187899
0.014680
0.919112
-0.852692
0.126131
0.844966
-0.413657
0.864072
-0.411283
0.078908
0.015883
-0.188346
0.777952
-0.119103
0.194736
-0.106177
-0.748408
0.124059
0.855134
-0.826404
-0.917108
-0.952018
-0.428055
0.537964
-0.117842
0.879258
0.807691
0.620216
0.676615
-0.109027
0.268702
-1.003782
-0.960924
0.770161
-0.541543
0.255274
-0.961775
-0.894271
-0.546895
0.347745
0.156349
0.477861
0.585666
0.215405
0.539847
-0.506973
0.592658
-0.004239
-0.571657
-0.544715
0.745443
0.122070
0.039381
0.946216
-0.348332
-0.663991
-0.894267
0.369364
-0.035728
-0.541877
0.723581
0.074230
-0.331831
0.921610
-0.743578
0.554923
-0.065552
0.267381
0.842104
-0.699388
0.551737
-0.987228
-0.178596
-0.179691
0.562496
-0.898674
0.088113
-0.337265
0.506436
-0.366678
0.859212
0.070561
0.956365
-0.108485
0.814330
-0.241813
-0.642635
0.643446
0.421679
-0.878003
-0.601036
-0.642809
0.942396
0.874083
0.127765
-0.685585
0.221436
-0.391896
-0.478830
-0.433201
-0.745427
-0.375511
0.423121
-0.416205
0.779737
-0.388406
-0.588322
0.378247
0.679040
0.608379
-0.984967
0.286481
0.445966
-0.777745
-0.791943
-0.095296
0.748954
0.156797
0.252362
-0.446403
0.191544
-0.034128
-0.524222
0.378853
-0.112725
-0.602335
-0.898428
-0.042464
-0.271612
0.469063
0.698634
0.333836
-0.533314
-0.282879
-0.855021
0.541023
0.235975
0.354953
0.405856
0.697477
-0.394968
-0.226444
-0.751635
-0.239922
-0.544567
-0.869803
-0.216924
0.831720
0.165640
0.865611
0.183971
0.104913
0.343544
0.438949
-0.767586
0.689048
0.542283
-0.389022
0.409601
0.675842
0.794541
-0.747388
-0.560489
-0.709530
0.236235
-0.835839
0.830041
-0.257343
-0.409148
-0.435192
0.193099
0.699863
-0.524949
0.583616
-0.945735
-0.747518
-0.827542
0.182485
-0.865386
0.190775
-0.023091
-0.596037
0.402293
-0.330695
-0.134613
0.864617
0.015795
-0.354465
-0.224530
0.996129
0.146306
0.304048
0.108224
-0.301744
0.717010
-0.189956
-0.885841
0.119254
0.718473
0.082184
0.563035
0.714011
-0.846131
-0.915121
0.186275
-0.524050
-0.928101
-0.356300
0.186538
-0.337518
0.024640
0.325066
0.567265
-0.400941
-0.816499
-0.108189
0.104401
-0.565388
-0.512824
-0.756194
-0.479992
0.030765
0.746275
0.542126
-0.208957
0.620070
-0.383921
-0.551252
-0.129997
0.689856
-0.737350
-0.890197
-0.230577
0.294162
-0.263760
0.715628
0.505947
0.244935
-0.725763
0.292005
-0.939177
0.997928
0.150309
-0.158157
0.448469
-0.600924
-0.425249
0.013880
0.338368
-0.805853
-0.492476
0.046280
0.729987
-0.907302
-0.517595
-0.296118
0.910951
0.104572
0.090465
-0.692440
0.651877
-0.343584
0.782881
-0.701962
-0.727592
0.197397
0.297962
0.499992
-0.850694
0.031168
0.299027
0.546782
0.777904
-0.709522
0.704529
0.277187
-0.900314
-0.517764
0.848856
-0.447563
0.380778
-0.187344
-0.369776
0.000797
-0.288256
-0.298096
-0.097139
0.657346
-0.905390
0.876255
0.590455
0.171337
-0.529099
0.309899
0.744742
0.186310
-0.885581
-0.070832
0.052514
0.445794
0.588750
-0.694448
0.959021
-0.610367
-0.278584
0.041243
0.111094
-0.116615
-0.383802
0.975359
-0.512501
0.954688
0.523571
-0.091159
-0.647585
0.769505
0.117006
-0.890674
0.463453
-0.610811
0.189121
0.629445
-0.475035
-0.813327
-0.502437
0.714028
-0.353094
-0.509821
-0.245898
-0.404377
0.713855
-0.386035
-0.661465
-0.387767
0.516051
-0.861533
0.297215
-0.957394
-0.555174
0.482856
0.044873
0.022353
0.616574
-0.283623
0.452974
0.747515
0.136412
0.035810
-0.438386
-0.903983
-0.785177
-0.708076
0.433882
0.372209
-0.259160
0.066785
0.282211
-0.136217
0.763663
0.306882
0.577854
-0.137693
-0.551965
-0.872775
-0.778798
0.385451
-0.217145
-0.685189
0.567323
-0.148307
-0.466712
0.518119
0.913021
-0.944732
-0.728184
0.278476
-0.462653
0.023386
-0.668995
0.809763
0.657172
0.751063
0.988852
0.480750
0.937272
0.948584
0.009861
-0.812169
0.700892
-0.184498
-0.010972
0.631575
0.532832
0.812962
0.795228
-0.040353
0.723214
0.100321
-0.758969
-0.125405
0.705531
0.353938
0.217819
-0.113260
-1.007683
-0.032772
-0.292690
0.271249
-0.206654
0.103425
0.445277
0.858820
-0.643304
-0.112532
0.605755
-0.956878
0.908610
0.076211
-0.454195
-0.070940
0.834386
0.355904
-0.850481
0.281015
-0.230446
-0.530999
-0.955055
0.123772
-0.888050
-0.411655
-0.304229
0.891646
0.843889
0.963508
0.085663
0.414682
0.724516
0.008810
-0.186159
0.664784
-0.458910
0.005853
0.430533
-0.898858
-0.764224
0.253748
-0.624142
-0.255108
0.967864
-0.201039
-0.370989
0.353337
0.128620
-0.001790
0.851747
0.823442
0.350083
0.903052
-0.766184
-0.376711
0.098811
-0.147928
-0.763248
0.856791
0.280217
-0.389999
0.286141
-0.850155
-0.502180
-0.313375
0.220443
0.894118
-0.122606
-0.986176
-0.816764
0.489492
-0.507850
0.839635
0.332305
0.625426
-0.448582
-0.018372
0.822200
-0.728089
-0.255031
0.385142
0.237900
0.781455
0.787744
0.527437
0.075568
-0.772947
0.264310
0.912244
0.874530
0.918538
-0.574611
-0.842977
0.465803
0.341999
0.602511
-0.123396
-0.647182
-0.598924
0.120817
-0.164482
0.443658
-0.093182
-0.019364
0.340695
-0.468406
-0.295731
0.133810
0.102725
-0.557570
0.997220
0.418499
-0.487243
0.412140
0.003101
0.988719
-0.340380
-0.427149
-0.435013
-0.929042
0.590435
0.808498
-0.195612
-0.403944
-0.294794
0.123631
0.298303
0.951751
-0.681117
-0.190261
0.246091
-0.452367
0.221051
-0.705687
0.442278
-0.958271
0.041371
-0.492503
0.343799
-0.521998
-0.921073
-0.348123
-0.363648
-0.799918
1.006377
0.702630
0.085902
-0.811979
0.138443
-0.055888
-0.330942
0.765795
0.911134
-0.806903
0.713896
-0.929635
0.111334
-0.467820
-0.111547
0.818499
0.470287
0.536274
0.728691
0.736680
0.901361
-0.269988
-0.356490
0.145412
0.095887
-0.451554
0.095214
0.944833
-0.618020
-0.080529
-0.353878
0.550130
-0.532321
-0.731745
-0.773847
-0.053639
0.624954
-0.883208
0.126367
-0.747203
0.205252
-0.729189
0.227968
0.109409
0.367019
0.204207
0.576566
0.141567
0.486010
0.946948
-0.534357
0.867509
0.027781
0.752477
-0.945099
0.745886
-0.103184
-0.530508
-0.164160
0.069706
-0.870971
-0.369068
0.797928
0.552294
-0.095740
-0.361535
0.386106
-0.098483
-0.119398
0.803051
-0.121922
0.056016
0.355411
0.789573
-0.073599
-0.635236
-0.475705
0.941784
-0.361563
0.459306
0.069216
0.388651
0.671887
0.751147
0.424097
0.370511
-0.612362
0.253977
-0.556185
0.826364
-0.632955
0.384196
0.664221
-0.528324
0.281677
-0.462664
-0.586256
-0.365941
-0.510438
0.789292
-0.239839
0.478732
-0.959506
0.527350
0.164683
-0.308776
0.161688
0.627128
-0.591631
0.123247
0.275226
-0.771491
-0.151568
-0.525293
0.673932
-0.295715
0.252526
-0.546491
-0.299177
0.432788
-0.452123
0.052201
-0.079981
0.095223
-0.479900
0.182418
-0.309874
0.096758
0.451710
0.909432
-0.828489
-0.744892
-0.971905
-0.273954
-0.204396
0.855935
-0.810325
0.912121
0.036826
-0.475691
-0.980148
-0.440545
-0.831032
0.974648
0.132930
0.342818
-0.956667
0.717157
0.566946
0.986448
-0.589677
-0.235059
0.970051
-0.498409
0.854571
0.620766
0.480829
0.325851
-0.613098
0.732426
0.940594
0.430434
0.484080
0.923779
0.909992
-0.218642
0.315391
-0.370008
0.159997
-0.275750
-0.390948
0.780044
0.008142
0.841226
0.607432
0.306084
0.136840
-0.369411
0.649931
0.833033
0.517340
-0.624903
-0.276109
0.643338
-0.032384
0.040677
-0.852564
-0.165476
-0.566288
0.516726
0.030068
0.900730
0.807400
-0.813464
-0.975944
0.785275
-0.216899
-0.529148
0.296355
-0.040720
0.099601
-0.498588
0.683006
-0.484729
0.969011
-0.069934
0.925867
-0.956262
-0.294428
1.028497
0.637015
-0.391855
0.468315
-0.181424
-0.062539
-0.870051
0.546491
0.349368
-0.285792
0.140351
0.641773
0.719622
-0.485802
0.398004
-0.832517
-0.206915
0.638695
-0.443278
0.256572
-0.294056
0.765214
0.116942
-0.299282
0.277311
0.048981
-0.989968
-0.292943
-0.912917
-0.313261
-0.403103
-0.249094
-0.143358
-0.098272
-0.253939
0.927092
0.409144
0.092303
0.467261
0.119007
-0.168329
-0.821827
0.179412
-0.004022
0.887351
-0.481381
0.319650
0.203429
-0.034510
0.124652
0.604934
0.324558
-0.266084
-0.357589
-0.796760
-0.044784
-0.904185
-0.144358
0.281390
-0.049208
-0.489847
-0.122637
0.994488
-0.345850
0.786840
0.171060
-0.237196
-0.822252
0.145927
-0.282556
0.743313
0.944948
0.339265
-0.794269
0.399481
0.538538
-0.954503
-0.462129
-0.045796
0.407633
0.243266
-0.251570
0.564568
0.645102
0.167323
-0.564658
0.355107
-0.039490
0.107321
-0.578121
0.845794
-0.028012
0.097111
0.423429
0.032977
0.505534
-0.090749
-0.204714
-0.198224
0.415827
0.553435
0.002324
0.513173
0.863181
-0.347189
0.001050
-0.686251
-0.575648
-0.790150
-0.682512
0.090175
0.709188
0.878285
0.776963
0.307260
-0.439168
-0.217554
0.576343
-0.547517
0.662092
0.815237
0.379549
0.058249
0.191318
0.567790
0.614928
0.287968
-0.539652
0.250310
0.271537
0.163868
-0.760412
0.944987
-0.930950
-0.571664
-0.868259
0.930117
0.925760
-0.477561
-0.144162
-0.927556
0.832534
0.531702
-0.310419
0.040884
-0.356145
0.475088
0.661820
0.230291
-0.388131
0.330684
0.592066
0.749918
-0.362454
0.649186
0.348654
0.927430
0.369345
0.884392
-0.271091
-0.553402
0.730796
-0.915449
-0.343645
0.707143
-0.442078
0.905483
0.554609
-0.150981
-0.083615
-0.715191
-0.771370
-0.188161
0.557269
-0.300478
-0.334146
0.840012
0.179842
-0.919677
-0.094283
-0.890693
0.337347
-0.620946
0.296015
0.133129
0.377013
-0.772900
0.670257
0.569155
0.962599
-0.332959
0.872918
0.789839
-0.584408
0.579608
0.916810
0.535539
-0.619940
0.085374
-0.606031
0.203972
0.723647
0.556962
0.002813
0.212093
-0.703088
0.441827
-0.405246
-0.163429
0.135381
0.188074
-0.497100
-0.866575
-0.837086
0.573771
0.913830
-0.744399
-0.017485
-0.523152
0.164381
-0.301373
-0.047540
0.069329
-0.982417
0.125549
0.549249
0.310144
-0.554365
0.397673
0.190355
-0.973542
-0.626674
-0.472013
0.922423
0.025291
0.896693
0.425501
-0.562298
0.858883
0.850874
-0.936331
-0.264749
0.361712
-0.660633
-0.651759
0.984172
0.962865
-0.008460
0.246442
-0.016671
0.934836
0.566332
0.592424
-0.742650
0.351000
-0.427900
-0.199938
-0.693915
0.478688
-0.013896
-0.607194
-0.498287
0.447123
0.297401
0.643093
0.860634
0.898162
-0.048310
-0.096642
-0.396834
0.917411
0.120359
0.773677
-0.966204
0.926595
0.317238
0.564731
-0.502966
0.276179
-0.054907
-0.351264
-0.790919
-0.509146
0.384257
-0.871134
-0.271059
0.296230
-0.438984
-0.840965
0.019705
0.148325
0.629355
0.249592
-0.069019
0.745391
0.349215
-0.644879
0.190193
0.331232
-0.477994
0.845283
-0.005468
0.683952
0.404813
-0.211078
-0.034316
-0.638906
0.254421
-0.390207
0.224903
0.198806
-0.140655
0.485965
0.907997
0.014475
0.003786
0.374539
0.693841
0.191690
0.595448
-0.142798
0.621785
0.184248
0.273204
-0.553068
0.554336
-0.431099
-0.813755
-0.834676
-0.985290
-0.327245
-0.833984
-0.362706
0.638910
-0.230245
-0.021444
0.623305
-0.402996
0.918888
-0.003557
-0.190706
0.208453
-0.790334
-0.523680
0.525212
0.221054
-0.503015
-0.967976
-0.610287
-0.593220
-0.999972
-0.842659
0.033545
-0.574057
0.719737
0.650083
-0.667795
-0.324852
0.065929
0.335397
-0.222843
-0.322907
-0.362963
-0.521102
-0.691860
-0.257429
0.460957
-0.750871
0.240103
-0.447710
-0.856831
-0.560157
0.821426
-0.843485
0.087541
0.098830
-0.545298
-0.813290
0.378383
0.527216
-0.127623
0.739902
0.968467
-0.211887
-0.069684
-0.806101
-0.060057
-0.678474
0.003075
-0.351897
-0.643591
0.752851
0.234733
-0.026608
0.075085
-0.781502
0.858317
0.605403
0.178507
0.431679
-0.663590
-0.479283
0.149629
0.761327
-0.165388
-0.585844
0.023501
-0.396020
-0.085579
-0.132645
0.571424
0.981426
0.375604
-0.105678
-1.002894
-0.056569
0.106568
0.005029
-0.587484
0.601488
0.362994
-0.170819
-0.853724
-0.169480
-0.231833
-0.607029
-0.479050
-0.653623
-0.706946
0.458873
-0.153417
0.394596
0.212371
0.907293
0.896771
-0.764875
0.689914
-0.252538
-0.409401
-0.957091
0.224481
-0.490670
-0.076285
-0.690500
0.945500
0.917928
0.538588
-0.679432
-0.061523
0.752663
0.183776
-0.753653
-0.386906
-0.840958
0.277741
0.939746
-0.176892
0.831347
0.429593
-0.098568
-0.219576
-0.722675
-0.259932
0.442821
-0.864275
0.339757
0.023639
-0.203756
-0.480642
-0.201683
-0.345769
-0.534523
-0.317207
-0.042200
-0.598399
0.889775
0.146934
0.984284
-0.952800
-0.634263
-0.455905
-0.782864
0.345108
0.559806
-0.030587
-0.730840
0.653382
0.047244
-0.479261
-0.680428
-0.069928
-0.769871
-0.190644
0.854873
-0.023247
-0.710079
-0.440208
-0.632334
-0.451144
0.685333
-0.178644
0.230340
0.454699
-0.444670
0.683820
0.232852
0.207947
-0.462506
-0.556102
-0.694952
-0.170192
-0.269215
0.771729
-0.692435
0.214714
-0.774155
0.105961
-0.956076
-0.696956
0.005104
-0.793113
-0.198426
0.088169
0.901269
-0.004919
0.535543
0.107144
0.372812
-0.331704
-0.269292
-0.823190
0.043551
-0.845979
-0.285875
-0.186065
-0.278694
-0.906173
-0.392960
0.956193
-0.640805
0.432678
-0.279641
-0.676437
-0.424320
0.261147
-0.464207
-0.901455
0.604413
-0.764111
-0.467858
0.827946
0.169155
-0.760482
-0.318716
-0.211975
-0.479091
0.680571
0.094558
0.282256
-0.111115
-0.294391
0.661956
0.105548
-0.348767
-0.923786
-0.381409
0.815112
-0.060987
-0.455864
-0.764001
-0.728190
0.605557
-0.766246
-0.425797
-0.848949
-0.201868
-0.689714
-0.582590
-0.018407
0.285676
-0.346778
0.413796
-0.275514
-0.701911
0.395756
0.424654
-0.310191
-0.036035
0.225106
0.727380
-0.009310
0.089099
0.891252
-0.393068
-0.766091
0.093231
0.136935
-0.297625
-0.448248
0.623198
-0.092097
-0.444053
-0.323750
-0.201994
0.606888
-0.345937
0.358926
0.035124
0.516873
0.122608
0.035078
0.280414
0.140925
0.439774
0.698473
0.830613
0.185077
-0.868469
-0.883408
-0.180914
0.264324
0.777411
-0.636638
0.633024
-0.672198
-0.903533
-0.191431
0.768090
-0.588307
0.650361
0.728988
-0.054958
-0.765332
-0.589796
0.338747
0.645192
-0.179077
0.559605
-0.804689
0.997059
-0.044780
0.574607
-0.518490
0.783505
-0.271499
-0.255760
0.352724
-0.565420
-0.252076
0.749949
0.323381
0.025084
-0.779529
-0.588108
-0.513219
0.945770
0.872944
-0.869665
0.057391
0.705570
0.190916
-0.873039
0.206913
0.622536
-0.280192
0.767851
-0.853508
0.791301
0.787331
0.538479
-0.644527
0.210418
-0.248794
0.186434
0.977021
0.640007
-0.626748
-0.096645
-0.668280
-0.395862
-0.771782
0.498515
-0.634380
0.921446
-0.280166
0.471276
-0.619110
-0.804381
-0.671130
0.795859
0.692099
0.995347
-0.925686
-0.951233
-0.049443
0.388446
0.917861
-0.238147
0.198662
-0.228694
-0.823542
-0.092940
0.123945
0.123652
0.436777
0.051010
-0.834162
0.090595
0.322405
0.900901
0.972980
0.078978
-1.019718
-0.093600
0.263117
0.911108
0.686024
0.419840
-0.422116
-0.727597
-0.485067
-0.875071
-0.127078
-0.767411
-0.608622
-0.765348
-0.271278
-0.323265
-0.498734
-0.268876
-0.975584
-0.544184
0.268138
-0.947418
0.368426
-0.000003
0.491075
0.401277
0.594866
0.294245
-0.859719
-0.563887
-0.326183
0.787057
-0.926621
-0.421910
0.762856
-0.007704
0.641224
0.614481
0.741790
-0.864972
0.666321
-0.666244
-0.339671
-0.621023
-0.236510
0.196962
-0.798175
-0.514520
0.492750
-0.430301
0.203492
0.213765
0.463258
0.649232
-0.392865
-0.111519
-0.628084
-0.467431
-0.919194
-0.360218
-0.047429
0.442867
-0.917688
0.494611
0.937789
0.165248
0.767287
-0.930200
-0.160871
-0.491714
-0.966376
-0.741422
0.638281
0.675160
0.247228
-0.396005
0.211910
0.712319
-0.047683
0.863433
0.462368
0.843213
-0.839208
-0.429029
-0.307957
0.846459
0.603644
-0.556057
0.521883
-0.486740
-0.058082
0.332838
-0.561096
0.734502
0.781423
-0.190930
-0.615286
-0.142759
0.104144
-0.824449
-0.217975
-0.526671
1.008930
-0.746890
0.099865
0.422420
-0.395035
0.572190
-0.301641
-0.930861
-0.823079
0.475739
-0.298804
-0.218204
-0.297416
-0.881178
0.197148
-0.260938
-0.680796
0.073726
0.837503
0.692540
-0.665663
-0.345051
0.678402
0.162807
0.138075
-0.174086
-0.493398
-0.095327
0.245618
0.832672
0.375908
-0.951022
-0.447298
0.855037
-0.266554
0.037248
0.447487
0.312367
0.608934
-0.643689
0.418251
-0.551282
0.825922
-0.103232
-0.453460
0.218441
-0.913420
-0.622970
0.160290
-0.849887
0.516957
0.198412
-0.289805
-0.968077
-0.384468
0.688595
-0.603665
0.477184
-0.961078
0.483296
0.019089
0.863194
0.424663
0.473132
0.877383
-0.503775
-0.422635
-0.537994
0.680502
-0.011319
-0.871278
-0.820777
-0.929105
0.730591
-0.523347
-0.686356
0.179498
0.900323
-0.119792
-0.585182
0.459773
-0.960695
0.481675
-0.933950
-0.097615
-0.177586
0.435926
0.080953
0.690629
-0.188929
0.657547
0.706140
-1.074175
-0.952416
0.115928
-0.832988
0.594303
-0.171805
0.743288
-1.010477
-0.676536
-0.004726
0.619938
-0.334044
-0.291745
0.743643
-0.845948
0.654627
0.821726
-0.603289
-0.810002
-0.906458
-0.213530
-0.472989
0.140939
-0.968606
0.088188
-0.698200
0.823466
0.749987
0.263176
0.824574
0.729705
-0.568850
-0.583471
-0.820779
-0.285153
0.425433
-0.983500
-0.850964
0.070545
0.699026
0.629264
0.305259
-0.619277
-0.671963
0.139981
-0.701924
0.514403
-0.543485
0.767394
0.727610
0.473032
-0.777520
-0.475469
0.028355
0.911363
0.489557
-0.189896
0.051648
-0.279619
1.000279
-0.211535
0.230387
-0.844805
-0.839823
0.301903
0.872840
0.276194
0.075989
0.857729
0.485772
-0.437648
-0.694723
-0.435085
-0.149338
0.304844
0.739622
0.361088
-0.760475
0.222607
-0.875840
0.268012
0.706116
-0.598653
-0.692499
0.398740
0.945723
-0.696306
0.380423
-0.706432
-0.455441
-0.045308
0.312610
-0.052735
0.293744
-0.297805
-0.012745
0.690722
0.053388
0.595567
0.490704
-0.430202
-0.578313
0.845449
-0.649946
-0.854037
-0.724525
-0.373528
-0.666076
-0.612057
-0.467896
0.162419
0.595539
0.010355
0.115367
0.434080
0.909084
-0.217094
-0.388476
-0.363378
0.400836
-0.764606
0.758687
-0.134758
0.803509
0.260481
0.623217
0.675340
-0.635118
-0.896050
0.638994
0.727091
-0.973741
-0.450980
-0.143025
-0.865546
-0.052513
-0.154582
0.856334
0.928456
0.920441
-0.473484
-0.719397
-0.529956
0.918615
-0.556953
-0.887506
-0.132095
0.500163
-0.303253
0.909682
-0.115863
0.974589
0.349049
-0.639688
-0.625127
-0.417808
0.710194
0.379262
0.548558
0.265414
-0.351606
0.057917
1.022498
-0.696044
0.830764
0.350164
-0.541655
-0.864040
0.040773
-0.466107
-0.553608
0.422901
-0.173241
0.714796
-0.205869
-0.594163
-0.565368
-0.670473
-0.566607
0.769361
-1.026519
-0.966475
0.470406
-0.468832
-0.749225
-0.646891
0.470503
0.870546
1.001076
0.412670
0.476194
0.654285
-0.528771
-0.817358
0.494829
0.242817
0.475724
0.383003
-0.694132
0.743852
0.507347
-0.216013
-0.622459
0.318197
-0.633535
-0.683844
0.884924
0.657230
0.551758
0.298981
0.460651
0.079837
-0.461821
-0.457794
0.381346
-0.320766
0.980075
0.275591
-0.573136
-0.558448
0.680754
-0.717511
0.403786
0.160622
-0.971338
0.101423
-0.885710
-0.935899
-0.122476
0.254462
0.416352
-0.349108
0.923037
-0.009791
0.565640
0.617447
0.249406
-0.858552
-0.272605
-0.341445
0.698083
0.428405
0.985105
0.116640
-0.192510
0.392008
-0.500452
-0.478631
0.302971
0.006790
-0.074333
0.004426
0.259321
-0.019432
-0.608145
0.568225
0.485300
0.818778
-0.640882
-0.366843
0.493219
0.542531
0.776296
-0.971741
-0.340572
0.115765
0.680486
0.052650
-0.935590
0.960173
-0.867347
0.227654
-0.859019
-0.235952
-0.289811
-0.228961
-0.274552
-0.969501
-0.365771
0.389158
-0.517489
0.860086
-0.325151
0.024083
0.169528
0.086638
-0.662729
-0.513434
-0.920731
-0.617187
-0.918164
-0.221805
-0.578761
0.663423
-0.024000
0.406967
0.509368
0.471113
0.405793
-0.167244
0.488697
-0.651238
-0.725544
0.709233
0.307911
-0.701974
0.557976
-0.951216
-0.076825
0.836752
-0.609970
-0.164735
0.451484
0.374430
-0.890503
-0.660248
0.472791
-0.005567
-0.615656
0.269264
0.116410
-0.829450
-0.313549
0.329708
-0.706452
0.928636
-0.441169
0.209607
-0.976940
0.323791
0.565715
-0.816210
-0.768892
-0.980148
0.672590
0.579614
0.790074
-0.712699
-0.555523
-0.125107
-0.831148
-0.221351
0.691177
-0.569127
0.843590
0.493209
-0.919929
-0.594083
-0.331743
-0.987764
0.944161
0.588862
-0.275868
0.359657
0.849345
-0.646462
-0.923266
-0.828547
-0.491585
0.220447
-0.334147
-0.264472
-0.677941
-0.872004
0.706872
-0.452279
-0.465102
-0.590332
0.990357
0.959516
0.228757
-0.594767
-0.219774
0.948624
-0.363514
0.345968
0.185251
0.106333
0.167934
0.477616
-0.799914
0.391158
-0.870060
-0.080306
-0.470345
-0.044915
0.776300
0.708009
-0.190814
0.988420
-0.967178
-0.147473
0.384967
0.380958
0.071389
0.795203
-0.192015
-0.496744
-0.281412
0.047569
0.010868
0.616424
0.252729
0.458497
0.475748
0.512033
-0.667929
-0.570755
-0.341818
-0.207589
-0.040448
-0.188625
0.808530
0.105130
1.010694
-0.659800
-0.063382
0.669135
0.405982
0.090298
0.686546
0.286521
-0.065680
0.464864
0.254285
-0.233342
-0.101065
0.866862
-0.337248
0.935199
-0.071197
-0.796842
0.800777
-0.164186
0.777244
-0.125556
-0.689317
0.472537
-0.102158
0.908436
0.895558
0.113808
-0.466722
0.175545
0.654607
0.398526
0.805833
0.182013
-0.187054
-0.856154
0.970337
-0.489326
0.835174
0.427277
0.634634
-0.452546
-0.636083
-0.426360
0.393801
0.737781
-0.943103
-0.366571
0.130677
0.006854
-0.129914
-0.732663
-0.014706
0.692070
-0.279920
0.357045
0.253045
0.018689
-0.071722
-0.201443
0.189858
-0.273216
0.150189
-0.356794
-0.061742
0.942595
0.162745
0.561081
0.231178
0.331304
-0.729572
-0.245783
0.270572
0.883733
0.760966
-0.181701
-0.357980
-0.640875
0.434012
0.315153
-0.547823
0.556745
0.412426
0.662925
-0.321956
-0.875382
0.868570
-0.001867
-0.896743
-0.126843
0.044426
0.232839
0.521033
-0.795222
-0.342440
0.644685
-0.194410
0.528647
-0.959798
0.103174
-0.571056
-0.117481
0.212231
-0.615203
-0.756152
0.212464
-0.257784
0.818214
-0.264305
-0.942093
0.139573
-0.043345
-0.658845
0.314869
0.409388
0.107727
0.514050
0.093570
0.175337
0.332952
0.479801
1.070050
-0.056590
-0.456451
-0.452228
-0.961817
0.179679
-0.060986
0.573889
-0.434789
-0.485264
0.737943
0.540035
0.601545
-0.728906
-0.526530
0.653438
0.498524
-0.233851
0.798559
-0.683930
0.339772
0.311145
-0.704319
-0.515933
0.658481
-0.829035
0.403607
-0.167058
0.020493
-0.286768
0.345792
0.064495
-0.730909
-0.446494
-0.147213
0.270649
-0.920976
0.611990
0.037230
-0.927477
0.482749
0.192836
-0.326427
-0.915571
0.474786
0.279663
0.324286
-0.886257
-0.435092
0.276175
-0.947691
-0.828866
0.224197
0.384761
-0.677922
0.613977
0.283063
-0.330447
0.212930
-0.587082
0.666696
-0.127909
0.165075
0.678175
-0.073375
-0.675511
-0.142558
0.972819
-0.394385
0.531722
-0.696847
0.367517
0.188777
-0.011328
0.718543
-0.316223
1.000403
-0.792093
0.201372
0.389177
0.954267
0.877667
0.187953
-0.427941
-0.887806
0.979090
-0.729696
-0.084891
0.905168
0.980105
-0.654738
0.549975
0.161706
0.007371
0.220868
0.573730
0.287409
0.055613
0.953312
0.007404
-0.055303
0.871892
0.150230
0.778490
-0.469123
-0.390916
0.006992
1.016003
-0.115471
-0.239653
0.587134
0.331441
0.339105
-0.386593
-0.444261
0.300038
0.352242
-0.235317
0.223996
-0.189493
-0.350339
-0.910234
-0.527028
-0.180737
-0.686542
0.374978
0.354227
0.972876
-0.572534
0.878527
0.114810
-0.191360
0.778441
0.669149
-0.147827
-0.759409
-0.263644
0.709692
-0.194129
0.174385
-0.791662
0.875456
-0.697276
-0.016496
0.536663
0.416935
-0.866497
-0.512646
-0.932784
-0.369962
-0.114916
-0.704131
-0.510093
0.287620
-0.901877
-0.478988
-0.309905
0.487055
0.897193
0.773933
-0.811998
-0.431901
-0.652137
0.308558
-0.036930
-0.907905
0.193721
0.052867
0.253552
-0.939883
0.936148
-0.727975
-0.213209
-0.869915
-0.215481
0.731755
0.638077
0.368221
0.261863
-0.643231
0.795427
0.973787
-0.335016
-0.900333
0.139806
-0.050408
0.491338
-0.119596
-0.076858
-0.775544
-0.399261
-0.666911
-0.463499
-0.717493
-0.455151
-0.192241
0.922865
0.837995
-0.314050
0.971146
-0.644266
0.041593
0.742578
0.393143
-0.034727
0.266943
0.919120
0.899547
0.931565
-0.323061
-0.132782
-0.904393
0.642810
0.313867
0.419626
-0.667637
-0.866281
0.641595
0.574758
-0.236127
-0.302799
0.076555
0.323870
0.080085
0.861340
0.138653
0.430712
-0.518728
0.889861
0.754579
0.608974
0.034068
0.509388
-0.692704
-0.857374
-0.654355
-0.546056
0.826852
0.068785
-0.566495
-0.725678
0.485671
0.234753
-0.232033
0.363116
0.610016
-0.903050
-0.022733
0.988312
0.146739
0.108039
-0.605549
-0.867006
-0.585668
0.417137
0.801529
-0.772418
-0.138625
0.722765
0.015000
-0.529718
-0.298719
0.106399
-0.952317
0.129966
0.840214
-0.048635
-0.388900
0.594688
-0.756740
1.011728
0.129681
-0.778687
0.302307
0.506483
0.030812
-0.176671
0.986346
-0.322946
-0.982851
-0.967175
-0.920306
-0.157262
0.911845
-0.016153
0.222432
-0.298036
0.879976
0.644488
-0.039477
-0.586340
0.721159
0.244143
0.672694
0.836485
-0.279522
0.155802
0.681165
-0.763850
0.686387
-0.066939
-0.680258
0.730597
-0.783658
0.034359
0.573927
0.723596
0.558088
-0.379553
0.899273
0.274601
-0.004728
0.263452
-0.105178
-0.455098
-0.760611
-0.844727
0.332003
0.349438
-0.754109
-0.629758
0.136465
0.845744
0.362005
-0.644544
0.285675
0.457715
-0.447115
-0.326077
0.420919
-0.263800
0.403444
0.528212
0.389310
0.930914
0.393594
0.687022
0.202497
0.764067
-0.789535
-0.874196
0.144040
0.347282
-0.139427
0.280141
0.488898
0.417468
0.553541
-0.740611
-0.082295
-0.851930
0.017673
-0.598583
-0.132822
0.452460
0.589352
0.771464
0.732530
0.637856
-0.307124
0.858460
0.481912
-0.828667
-0.460460
-0.056006
-0.456735
-0.208756
0.617122
-0.256006
0.012153
-0.736610
-0.489432
-0.129612
0.391360
0.170511
0.391192
0.936296
-0.242425
-0.406326
0.642499
0.083937
-0.781872
0.071801
-0.159451
-0.135913
0.869565
-0.650918
-0.685363
-0.821731
0.651768
-0.228124
-0.810488
0.816706
0.442158
0.711262
-0.369473
-0.316480
0.447619
0.232041
-0.825215
-0.245547
0.995260
0.107132
-0.942954
-0.050849
-0.129252
-0.824364
0.309956
-0.067885
0.331968
0.339782
0.638543
-0.280462
-0.143697
-0.636160
0.370141
-0.513076
-0.299475
0.712385
-0.220993
0.730375
0.027337
0.602763
0.908226
-0.978470
0.074008
0.973097
0.735244
0.125512
0.946568
-0.918015
0.182493
0.868034
0.858354
-0.322638
-0.593188
0.346756
0.524447
-0.994016
0.152675
-0.038499
-0.839473
-0.035658
-0.641440
-0.870016
-0.646532
-0.480211
-0.634649
-0.240594
-0.069360
-0.050051
-0.067355
0.668631
0.705743
0.917102
0.233721
-0.009357
-0.511062
-0.100009
-0.407518
-0.727870
0.150393
0.266051
-0.152577
-0.565376
0.087878
0.295534
0.232032
-0.026712
-0.900417
-0.306503
-0.467040
0.983113
0.535290
0.703154
0.023851
-0.173768
0.929843
0.652425
0.936549
0.398724
0.896117
-0.076535
-0.557653
-0.421220
-1.039181
-0.642982
-0.640073
-0.847705
0.631733
-0.530771
0.069960
-0.911438
0.974425
-0.238886
-0.035683
-0.335735
-0.484415
-0.745987
0.826021
-0.209049
-0.544188
0.382578
-0.580619
0.413028
-0.750454
-0.725379
0.218606
0.054975
-0.781328
-0.858745
0.318375
-0.381257
-0.530640
0.511307
0.057478
-0.446494
0.949861
0.016885
-0.143372
0.396671
-0.914824
-0.268688
0.202186
0.514367
0.111593
-0.413905
-0.158937
0.948857
-0.461082
-0.160309
-0.731834
-0.215863
-0.787973
0.388255
-0.109373
-0.604743
0.437610
0.426043
0.061334
-0.578814
0.958846
-0.016787
0.712077
0.103444
0.597493
0.212446
0.995844
0.588592
-0.887507
-0.064816
0.660711
-0.076937
0.112745
-0.785825
-0.237519
-0.151325
-0.765876
0.556564
-0.180837
-0.724567
0.110310
-0.604863
0.440885
-0.939686
-0.518213
-0.389070
-0.443670
-0.201311
-0.067825
-0.473751
0.745989
0.093375
-0.918779
0.397009
-0.282147
-0.768669
0.968604
0.833516
-0.770800
0.639838
0.515146
-0.415996
-0.786774
-0.604164
0.399222
-0.544046
-0.849577
0.631216
-0.657341
0.241190
-0.550407
0.849036
0.359811
-0.225738
0.507851
-0.716805
0.837329
0.137985
0.948444
-0.797659
-0.983088
0.662377
-0.910559
0.221896
-0.670923
-0.813539
-0.498508
-0.242690
-0.653720
0.573544
0.609861
0.258686
0.914360
-0.990683
0.515137
-0.768459
0.893365
0.361298
-0.254131
-0.004883
-0.748773
-0.954794
0.920168
-0.810885
0.570480
-0.404850
0.563908
0.116107
0.940632
1.060948
0.775697
0.071542
-0.821182
-0.125349
-1.034054
0.429031
0.384695
-0.815668
0.476055
-0.351694
0.921826
0.076767
-0.708652
-0.196845
0.301833
-0.971110
0.056606
-0.720032
-0.992201
-0.699599
0.724015
-0.157126
0.308500
0.559555
0.991061
-0.067029
0.118045
-0.196665
0.051007
-0.256801
0.465231
0.651666
0.338446
-0.549088
0.424598
-0.752434
-0.376381
0.627351
0.813560
-0.529679
0.784156
-0.179438
-0.219071
-0.797075
0.493779
-0.124622
-0.654540
-0.158999
0.496254
0.202992
-0.930549
-0.835205
0.420839
0.670539
0.126347
-0.349950
0.948330
0.860030
0.228842
0.453926
0.525759
-0.267947
0.016135
0.303161
0.936638
-0.378529
-0.470011
-0.085047
0.880900
0.712884
0.727466
0.258361
-0.826379
-0.337696
0.044894
-0.977971
-0.200176
0.555575
-0.368203
-0.860327
-0.574213
-0.536611
0.301461
0.192637
0.641537
-0.607348
-0.840028
0.099507
0.272552
-0.625614
-0.528278
0.910360
0.618144
-0.941270
-0.218486
0.846674
1.008423
-0.769232
-0.683059
-0.271962
0.328698
0.329010
0.027519
0.774986
0.096501
-0.557588
0.635256
0.419494
0.513560
-0.827444
-0.369739
0.045734
-0.829899
-0.499238
-0.910555
-0.668796
0.312061
0.172851
-0.565004
-0.887396
-0.312170
0.124939
-0.126527
-0.364954
0.558869
-0.619112
0.116983
-0.268069
0.097771
-0.558023
0.674877
0.002832
0.645854
0.914021
0.633589
0.086473
-0.245990
-0.349804
-0.615448
0.294083
-0.294356
0.982781
-0.519756
-0.075195
-0.658899
-0.729815
0.273984
0.819770
-0.591776
-0.224515
-0.254796
0.332497
1.013276
-0.154438
-0.625878
-0.183565
-0.776464
0.020683
0.351905
-0.098565
-0.057568
-0.780365
0.952211
-0.082285
0.394879
-0.074329
0.569098
0.157176
-0.455675
0.072946
0.275567
-0.185820
0.977516
-0.464141
0.535885
0.606923
-0.150692
0.191754
-0.353737
0.307427
0.863624
-0.624163
0.917611
-0.854183
-0.683472
0.037599
-0.036698
-0.110213
-0.690272
0.673765
0.327808
-0.749284
-0.853761
-0.892977
-0.898618
0.404865
0.171519
0.940424
0.002631
0.632865
0.848982
0.307986
-0.659864
-0.778876
0.368808
0.578132
0.170584
-0.273213
0.716598
0.601390
0.350485
-0.248513
0.826315
0.031878
-0.478462
-0.189405
-0.355428
-0.069063
-0.838509
0.925648
-0.637592
0.110980
0.488684
0.031870
-0.669670
0.260772
0.178781
-0.283986
-0.630963
0.955023
0.734135
0.358762
0.834502
0.203543
-0.830141
-0.806743
0.652328
-0.471650
0.501943
-0.884601
-0.251537
-0.519581
-0.419040
-0.794906
0.960026
0.491488
-0.536474
0.528892
-0.789696
0.291911
-0.890743
-0.331799
0.130664
-0.913953
-0.623286
0.501191
-0.371610
0.728095
0.192240
0.690343
0.724585
0.754878
-0.739033
0.848238
-0.253692
-0.646133
0.804213
0.427206
0.168280
-0.539927
-0.122851
-0.328668
-0.273733
0.917063
0.227873
-0.498980
-0.451224
0.732800
0.892411
0.983309
0.973148
0.504197
-0.130529
-0.791352
0.049521
-0.418745
0.298118
-0.572855
-0.421077
-0.194079
-0.380878
-0.042763
-0.789812
0.701930
-0.149214
0.914670
-0.192540
0.925965
-0.124144
0.993414
-0.079721
0.863538
-0.465961
-0.131465
0.830512
0.370430
0.466364
-0.520962
0.404747
-0.449546
0.655710
0.436378
0.941338
-0.673265
0.678153
0.662433
0.627483
0.630814
0.886602
0.018280
-0.612747
0.814899
-0.667994
-0.745061
0.807467
-0.639015
-0.290168
0.769881
0.070385
0.322912
0.441136
0.666858
-0.790021
-0.357618
-0.544445
-0.202521
0.411111
-0.975931
-0.735471
-0.062944
-0.361910
-0.879988
0.283726
0.391049
0.267668
0.747190
-0.926350
0.206266
0.276874
-0.916900
0.340523
-0.938830
-0.620702
0.563954
0.434633
-0.329185
-0.726211
0.537528
0.663842
-0.597523
-0.098103
-0.031306
0.275650
-0.298771
-0.112084
0.061799
0.605085
-0.379579
-0.111966
0.732190
-0.357900
0.788221
0.948242
0.548982
0.201126
-0.371142
-0.889686
-0.819478
0.725373
-0.031282
-0.665298
0.376544
0.011389
0.396777
0.492763
-0.969873
-0.672316
0.217092
-0.503074
-0.370672
0.837114
-0.708220
0.515217
1.009676
-0.504580
0.478953
-0.049269
0.702396
-0.384700
0.361175
-0.081307
0.202092
-0.037337
-0.814380
0.679012
0.165143
0.910172
0.682043
-0.628550
0.390787
0.205644
-0.249195
-0.937486
-0.504543
-0.174461
-0.179155
-0.486874
0.094552
0.178401
1.053863
0.669261
-0.254844
0.519052
-0.599030
0.698074
-0.453708
0.442214
-0.310872
0.436132
-0.798129
-0.874309
-0.255006
-0.797240
0.479197
0.607944
-0.856075
-0.334627
-0.163331
-0.414102
0.613441
-0.874700
-0.465474
-0.299171
-0.738116
-0.224106
0.157378
0.129836
-0.750580
-0.025853
0.170607
-0.863829
0.749563
0.908398
-0.120167
-0.736205
0.980257
0.811703
0.077255
-0.463687
0.613592
0.872955
-0.014846
0.815998
0.455386
0.067192
0.315246
0.759230
0.612117
0.702574
0.700505
0.763177
-0.814165
-0.359549
-0.195763
0.385218
0.857238
-0.266040
0.919983
-0.154082
0.271633
0.236603
-0.641633
-0.980015
-0.570224
-0.921016
0.536713
0.883198
0.960357
-0.679089
-0.506142
0.746032
0.094573
-0.895644
-0.897101
-0.726128
0.309630
-0.554387
0.960727
0.552208
0.994147
0.632510
0.153840
-0.275864
-0.162473
0.587298
0.711617
-0.085766
0.178572
-0.472883
-0.214211
0.400722
-0.616686
-0.240901
0.026081
-0.783239
0.601725
0.649334
0.851819
0.235807
-0.531000
0.012707
-0.524016
0.912911
0.839352
0.740521
0.135457
-0.224299
-0.113387
0.227428
0.261824
0.931102
-0.254474
-0.470670
-0.528246
0.156449
0.496884
0.214280
-0.133158
-0.484774
0.551852
0.523237
0.824839
0.115298
-0.751160
-0.071526
0.714471
-0.006767
-0.541363
-0.373704
0.241573
0.953367
-0.685368
-0.413541
0.146104
-0.075995
0.476657
0.820891
-0.050302
-0.282630
0.942625
-0.304664
0.417279
0.543804
0.145681
0.591434
-0.845225
-0.767753
-0.437784
0.459250
1.059778
0.147508
0.498817
0.001856
0.738458
0.652012
-0.752837
0.351380
0.948548
0.774127
0.211840
0.194892
0.317497
-0.552151
-0.827141
0.326751
0.201168
-0.257293
0.315265
0.004237
-0.583809
0.032035
-0.244570
-0.119960
-0.393343
0.655634
-0.836060
-0.056643
-0.709332
0.398847
0.976354
-0.921577
-0.453409
0.713050
-0.566843
-0.430184
0.868681
-0.519364
0.519186
0.153259
0.075131
0.191953
-0.305527
0.316361
-0.776866
-0.243404
-0.030817
-0.018828
-0.230512
0.847186
-0.099464
0.875091
-1.016659
0.924302
-0.204074
-0.182355
0.439399
-0.910336
-0.423828
-0.620369
-0.816942
-0.149749
0.892658
0.702133
0.845462
-0.678974
0.302010
-0.602319
0.334839
-0.022856
0.139050
-0.447367
-0.707434
-0.914745
-0.133144
0.952135
0.951031
0.686138
-0.135386
-0.933802
0.410475
0.812481
0.718478
-0.924854
0.479973
0.210028
-0.762328
0.205979
0.427552
0.721322
0.675569
0.011214
0.151628
-0.958995
-0.324916
-0.175741
0.622075
0.000894
-0.981178
-0.271854
-0.623000
-0.665048
-0.185653
0.564409
0.571008
-0.411037
0.843170
0.156508
-0.804968
0.268752
-0.000875
0.207179
0.349423
0.859813
0.256422
0.881629
-0.719924
-0.460786
0.256281
-0.277614
0.980501
0.860236
-0.667994
0.257009
0.903377
0.322063
-0.776406
0.346546
0.110356
-0.387204
0.012289
-0.037686
0.089838
0.042547
0.388607
-0.955409
-0.798381
0.511407
-0.968310
-0.544249
-0.263873
0.665431
-0.000251
0.762691
-0.932018
-0.797541
0.312663
-0.396411
0.169019
-0.408413
0.208054
0.091409
0.388331
-0.512223
-0.187900
-0.620345
0.837501
-0.823023
0.486165
0.619249
-0.919424
-0.133967
0.836175
-0.236235
-0.705135
0.921025
0.905616
-0.736705
0.891613
-0.419469
0.935551
0.587629
0.257430
-0.673144
-0.005211
0.658530
-0.908557
-0.130393
0.940176
-0.264733
-0.909283
0.415098
-0.993569
0.258910
-0.015198
0.086115
-0.046647
0.141558
0.549642
0.901093
0.490000
0.838060
-0.525224
0.376067
0.902426
0.311793
-0.923413
-0.509321
-0.322719
0.671302
0.893648
-0.508256
0.096437
-0.955504
0.270057
-0.152439
0.644116
-0.107901
0.232002
0.257101
-0.465040
0.258010
0.657615
-0.013811
0.835478
0.695870
-0.554896
0.979161
0.668246
-0.957486
-0.284582
-0.228779
-0.901480
0.850364
0.275217
-0.662074
-0.803412
0.318077
0.129425
0.654221
-0.074801
0.056900
0.197565
0.397598
0.474145
-0.763675
0.764970
-0.513683
0.617575
-0.150198
0.029865
-0.289440
0.653036
-0.757480
0.255527
0.714848
0.582460
-0.439362
-0.082394
-0.164361
0.440334
0.010106
-0.464946
-0.863306
-0.964441
-0.938243
-0.982075
-0.646054
-0.342765
-0.364953
-0.856371
0.382065
-0.303150
0.297093
0.620749
0.413018
0.727339
-0.317093
-0.219584
-0.579574
-0.623618
-0.000173
-0.887624
-0.130486
0.156192
0.571733
0.474672
0.674034
-0.030819
-0.336217
0.790109
-0.895917
0.382141
0.134400
0.132319
0.822600
0.458219
-0.928364
-0.848167
0.694595
0.575359
-0.233356
-0.505644
0.386229
-0.978459
0.162023
-0.497836
0.813708
-0.804647
0.225534
-0.779984
-0.734987
-0.952045
0.100646
0.725434
0.776792
-0.872236
-0.274913
0.556247
-0.514677
0.300907
-0.738179
-0.363461
-0.899916
0.191453
0.434583
0.838699
-0.462062
0.195270
0.530815
0.675087
0.238658
0.052773
0.094230
0.612828
0.183028
-0.277458
-0.308641
-0.437601
-0.872008
-0.744943
-0.391344
-0.580383
-0.730260
-0.662340
0.726778
-0.528066
-0.569148
-0.621870
-0.772796
0.684436
-0.198935
0.405381
0.754792
-0.807328
0.834728
-0.475156
0.848849
0.941134
0.921265
0.394141
-0.478939
-0.869292
-0.469866
0.769013
0.203804
0.166668
0.277389
0.962076
0.569192
0.384842
-0.331366
0.226114
-0.820923
-0.493332
0.721545
0.474323
0.963329
0.202584
0.463228
-0.224304
-0.368468
0.548653
-0.620096
-0.725226
0.672285
-0.199538
-0.688174
-0.008925
0.733769
0.532365
-0.050755
0.809837
-0.143110
0.424895
0.561743
-0.953017
-0.942393
0.363215
0.916537
0.174052
-0.985072
-0.768611
0.582070
-0.829856
0.770688
-0.793126
-0.552891
0.211720
-0.530960
0.989843
0.800777
-0.126370
0.550487
-0.803755
0.935126
0.411145
-0.541616
-0.519871
0.569115
-0.546399
-0.075024
0.326115
-0.703345
0.820744
-0.173225
-0.253436
0.912247
-0.370569
0.590489
0.471008
-0.585090
0.645395
-0.142023
-0.085312
0.172947
0.207015
0.499456
0.089302
-0.364757
0.851611
0.918801
-0.685873
-0.918513
-0.180011
-0.081934
-0.481698
0.475150
0.891379
0.409088
0.566593
0.633070
-0.100178
-0.120535
0.911528
-0.109594
0.799532
-0.966675
-0.428991
0.464734
-0.563773
-0.534620
-1.002563
0.166028
-0.438594
0.132855
0.562187
-0.409501
-0.220242
-0.333788
-0.547857
0.419026
-0.783153
0.880144
0.895755
0.702023
0.571026
0.230789
0.410625
0.363048
0.240665
0.734825
-0.643715
-0.185520
-0.843434
-0.452331
0.766154
0.868109
0.988068
0.639140
0.462118
0.258256
-0.110268
-0.102429
0.620089
0.344424
-0.420798
0.481517
-0.064770
-0.680977
-0.684642
0.579138
0.623295
0.035598
-0.027513
-0.325946
0.640660
0.925625
-0.345358
0.392361
-0.070127
-0.696519
0.353030
0.016213
0.595059
0.800176
-0.583098
0.210980
0.691952
0.832249
-0.032041
0.774291
0.546225
-0.175017
-0.592790
0.201825
0.528926
0.038871
0.597145
-0.869789
-0.214357
-0.407977
0.331975
0.738091
0.910776
-0.214448
-0.055959
-0.902815
-0.993071
-0.353352
0.735671
0.961183
0.625300
0.525839
0.398974
-0.850147
0.333857
0.863011
0.181258
0.689838
0.403716
0.191544
0.103312
0.934040
0.418391
0.635096
-0.237717
0.273853
-0.452973
0.920527
0.197649
-0.016531
-0.633526
-0.456697
-0.758827
-0.000060
0.388216
0.221410
-0.550643
0.203708
-0.221606
0.105981
-0.290275
-0.947195
0.124052
0.664784
-0.473879
0.273059
-0.726527
-0.814767
0.967762
-0.588730
-0.111480
0.130301
0.545325
-0.194862
-0.196126
0.102905
-0.108218
0.845864
-0.224012
-0.111449
0.057761
-0.157646
-0.228673
-0.007504
0.206472
0.982416
-0.480436
-0.813397
0.366479
0.185147
0.731581
-0.245429
0.323774
0.198284
-0.502133
-0.642668
0.254351
-0.909819
0.276094
0.803963
0.460318
-0.871982
-0.133281
0.495431
-0.208422
0.440187
-0.833685
-0.539252
0.382587
0.389502
0.813692
-0.843285
-0.879514
0.686880
-0.295755
0.622642
0.624321
0.188489
-0.506911
0.781415
-0.175424
0.491935
0.448336
0.044852
0.484770
0.761970
-0.687810
-0.015489
-0.769497
0.299125
-0.810845
0.184987
-0.403843
0.477828
0.592657
0.699192
-0.605968
0.821136
0.579765
0.746437
0.515426
0.537442
-0.417902
0.458366
0.950972
-0.538051
-0.987497
-0.805347
0.357783
0.124557
-0.552676
0.458113
0.736956
-0.000245
0.346142
0.221558
-0.782912
0.202956
0.183945
-0.173643
-0.218201
-0.794033
-0.339853
0.407981
-0.145697
0.373543
-0.173970
-0.429261
0.706224
0.180805
0.661677
-0.099106
-0.000338
0.205407
0.307689
0.152974
-0.164565
-0.149262
0.098236
0.409753
-0.968653
-0.926648
0.555660
-0.691212
0.281386
-0.602108
-0.112324
0.601096
-0.661190
-0.395867
0.442593
-0.742606
0.429831
-0.284970
0.650390
0.760627
0.560613
0.643272
-0.631997
-0.628498
0.698962
-0.161654
0.351583
0.322854
-0.427398
-0.299341
-0.263897
0.926007
0.690520
0.025688
0.133956
0.734762
0.350604
0.782053
-0.704258
-0.592849
0.004260
0.158472
-0.750179
-0.068736
-0.926775
0.061970
-0.636022
0.883355
-0.577202
0.384915
-0.369979
0.204151
-0.443550
-0.880215
0.334799
-0.168190
0.783419
0.259202
-0.611875
0.674648
0.865978
-1.005428
-0.156473
-0.165114
-0.958708
0.815676
0.341013
0.757309
0.140593
0.327389
0.051101
-0.695802
-0.065342
0.576895
-0.881602
-0.977543
-0.797576
-0.608739
0.014229
0.964306
-0.118016
0.589482
-0.219334
-0.312496
0.852003
-0.222202
0.643698
0.101381
0.401763
0.372466
-0.157874
-0.172988
0.277800
-0.826232
-0.240781
0.445584
-0.395070
-0.051821
-0.887620
-0.211708
0.877376
-0.149617
0.233476
0.558456
-0.910282
0.815732
0.125039
-0.094062
0.120822
-0.630862
-0.640636
0.270648
0.613150
-0.899265
-0.669487
0.573364
0.763744
-0.805583
0.953583
0.699531
-0.506509
-0.746325
0.751053
0.502857
-0.860726
0.774844
0.704269
-0.024780
0.604458
-0.695255
0.722899
-0.110750
1.038545
0.839741
-0.276841
-0.636185
-0.276271
0.196026
0.586751
-0.352515
-0.237711
0.168357
0.550756
-0.650239
-0.961784
0.972357
-0.380171
0.794307
-0.530862
0.066542
0.353543
-0.274598
0.457197
0.403165
0.681169
0.050678
-0.683252
-0.193019
-0.748117
-0.140233
0.966274
-0.340856
0.215462
0.236828
-0.198687
-0.043577
-0.390947
-0.336705
-0.897085
0.310927
0.453036
-0.278389
-0.428033
-0.272939
0.939422
-0.524961
0.647732
0.113889
-0.332478
-0.903168
0.383226
-0.692761
0.422153
0.585101
0.847241
0.283828
0.555241
-0.791749
-0.170245
-0.639649
0.081498
1.072898
-0.749904
0.072680
-0.146138
0.911483
-0.834329
0.160280
0.172079
-0.786493
-0.660587
0.595511
0.562619
0.787796
0.851834
0.578899
0.562801
0.698082
0.697314
-0.837625
-0.602247
-0.697037
-0.097329
0.418439
-0.839362
-0.839701
0.431937
0.133184
0.754348
-0.238126
-0.529718
0.358585
0.470989
-0.067028
-0.413182
-0.058321
0.623352
-0.494358
-0.115153
-0.247581
-0.251391
0.130749
0.341295
-0.189340
-0.937654
0.120128
0.559795
0.881867
-0.924352
0.693773
-0.809579
-0.541987
-0.433758
0.544223
-0.674022
-0.432655
0.795294
-0.405792
-0.591530
0.765110
-0.003043
-0.441081
-0.880350
0.200003
-0.351290
-0.032185
-0.129967
-0.259658
-0.832795
-0.205780
-0.250887
-0.877335
-0.677722
-0.434348
-0.166854
-0.196205
0.778715
0.267480
-0.794513
0.596545
-0.980047
0.839808
0.123407
-0.880406
0.437151
0.969038
-0.570709
0.469685
0.628629
0.922934
0.545379
0.835143
-0.351811
-0.192569
0.600066
-0.055219
-0.443764
0.094713
-0.253340
0.098167
-0.610258
0.929136
0.638730
0.729611
0.560291
0.840491
0.621574
0.604580
-0.041505
0.627675
0.860543
-0.314060
-0.917231
-0.374426
0.451225
0.122611
-0.692750
-0.149238
0.733572
0.789671
0.115693
0.234672
-0.185450
-0.736670
-0.395370
-0.037094
0.804773
-0.434856
0.936464
-0.936425
-0.140882
-0.729112
0.759693
-0.331317
-0.036697
0.770777
-0.388366
0.237753
1.010875
0.051685
-0.542418
-0.265138
-0.190845
-0.691187
0.895171
0.262920
0.934123
0.281202
-0.708671
0.624639
-0.192572
0.202372
0.087701
-0.522626
0.150795
-0.765087
0.151246
-0.310272
-0.648440
-0.403014
-0.859227
-0.353971
-0.111013
-0.409248
0.395346
-0.200731
0.641733
-0.873346
0.404447
0.035675
0.464379
-0.356993
-0.495194
0.761731
-0.620978
-0.143354
0.864995
0.726997
0.895306
-0.579289
-0.967910
0.292830
-0.797825
0.773258
0.257976
0.447578
0.422535
0.504532
-0.565513
-0.629139
0.357464
0.422976
0.215426
0.217620
0.870756
0.156848
-0.985743
-0.393023
0.925544
-0.517357
0.681520
-0.269990
0.736799
0.275826
-0.512751
0.254424
-0.868682
-0.712467
0.623172
0.402539
-0.011647
-0.522180
0.899821
0.923735
-0.519670
0.431744
-0.914189
-0.956639
0.521501
-0.761098
0.213189
-0.357411
0.123358
0.455056
0.306508
0.961567
-0.950384
-0.459605
0.885487
0.086722
0.925807
-0.958132
-0.805553
0.187580
-0.388660
0.656491
-0.380878
-0.236663
-0.525090
-0.626490
0.120077
0.933757
1.066396
0.402669
-0.845326
0.768617
-0.283197
0.832254
-0.740164
-0.154106
-0.468518
0.892648
0.296940
0.890976
0.681273
-0.097864
0.176133
-0.529946
-0.507031
0.184726
0.024344
0.600557
-0.115090
-0.431149
0.599505
-0.238270
-0.287996
0.432289
0.341403
-0.004588
-0.467636
0.955472
1.041090
1.004491
0.459784
-0.150857
-0.954918
-0.605738
-0.811881
0.240520
0.443147
-0.958049
-0.673570
-0.004671
0.280766
-0.782923
-1.006017
-0.354638
-0.224075
0.098700
-0.117677
-0.951691
-0.481469
0.281603
-0.023882
-0.223541
-0.758043
0.185447
-0.530132
-0.001580
-0.269973
0.592403
-0.469579
-0.650377
-0.194243
-0.590128
0.648508
-0.505223
-0.294360
0.129231
-0.637651
0.785646
-0.072600
-0.960195
-0.674865
0.375171
0.056033
0.295052
0.074803
-0.012852
0.052216
0.738907
0.028593
0.598989
0.916942
-0.699508
-0.799790
0.353188
0.052926
-0.613056
0.644311
-0.884399
0.132429
0.952690
0.749444
-0.238429
-0.970246
0.334183
0.345133
-0.965829
0.723479
0.150148
-0.427419
0.141714
-0.361904
0.774675
0.870199
0.397547
-0.115804
0.740656
0.475722
-0.751652
0.416739
-0.496464
0.929750
-0.367296
-0.605865
-0.960839
-0.287161
0.612255
-0.884257
-0.703564
0.706963
-0.850683
-0.109803
0.578073
-0.632173
0.160360
0.419192
-0.134469
-0.533107
-0.651704
0.363944
-0.947105
-0.255614
-0.025045
-0.528603
0.893125
-0.708203
0.672546
0.195310
-0.950559
0.525291
0.879732
-0.605687
-0.132270
0.205053
0.955724
0.652525
-0.258246
-0.696917
0.064134
-0.122922
-0.771135
-0.139020
-0.967316
0.792176
-0.402690
-0.977936
-0.543461
-0.236150
-0.959385
0.420143
-0.632490
-0.243971
0.493617
-0.556037
0.439560
0.656373
0.390989
0.624648
-0.151547
-0.139058
0.754582
0.356930
-0.471088
0.860840
-0.483223
-0.425487
-0.374595
-0.576606
-0.651034
-0.555569
-0.523902
0.821625
0.311188
-0.335538
-0.431990
0.768184
0.848991
0.547241
-0.115179
-0.081613
-0.828307
0.798349
-0.740790
0.762949
-0.678645
-0.808023
0.511132
0.841840
-0.791283
-0.000440
0.520110
-0.781635
0.730111
0.026418
-0.623480
0.137480
-0.634387
-0.069426
-0.423888
0.568242
-0.468167
0.864226
-0.009356
0.760409
0.714209
-0.396026
-0.828437
-0.098653
-0.024972
-0.241584
-0.134489
-0.820981
-0.364071
0.416480
-0.387403
-0.030371
0.193127
0.577922
0.774177
0.662091
0.693679
-0.225342
-0.530548
0.072277
-0.758593
0.430514
-0.309586
0.449893
0.463544
0.535853
0.580634
0.556413
0.156230
-0.921747
-0.298258
-0.526294
-0.276659
0.033427
0.288615
0.515421
0.443146
0.348738
-0.554344
0.098142
-0.470726
0.942625
0.813324
0.031700
-0.711518
-0.852897
0.235325
0.638107
-0.387623
0.481091
0.195283
0.843384
-0.411079
-0.132876
0.372585
-0.928024
0.118926
-0.034590
0.133775
-0.265875
-0.820739
-0.933432
0.293787
0.222042
-0.937701
-0.212085
0.670541
-0.941090
0.829415
-0.751871
-0.951780
-0.589071
0.080577
0.615779
0.956370
0.088510
0.114811
-0.373354
-0.505056
-0.187572
0.894364
-0.699184
0.687218
0.981135
0.855551
0.352403
-0.152726
-0.088168
0.202261
-0.698675
0.400949
0.898853
-0.339499
-0.210023
-0.680688
-0.365187
0.261439
0.243625
-0.633469
0.453835
0.768154
-0.700447
0.873682
-0.522816
0.525931
0.990205
-0.721628
-0.779372
-0.659587
0.660874
0.501022
-0.028215
-0.106465
-0.173599
-0.187041
-0.236603
0.519360
-0.447657
-0.068953
0.009995
-0.638708
0.649024
0.599131
-0.523522
-0.796376
-0.585058
0.421452
0.029500
-0.724316
0.886732
-0.589281
-0.318411
-0.863842
0.938689
-0.283466
-0.738769
-0.904079
0.203829
-0.502667
0.618874
-0.001550
0.065969
0.159460
-0.274011
-0.353508
0.380236
-0.084841
0.127811
-0.779884
0.895115
0.694610
-0.050524
-0.579843
-0.456918
-0.557467
-0.632328
0.621595
0.540710
0.647609
0.568181
0.066315
-0.502892
0.958728
-0.393833
-0.489602
0.486303
0.428759
-0.626076
0.038308
-0.899621
-0.775806
0.405469
-0.078478
-0.743972
-0.309154
-0.901888
0.286470
0.259468
0.748066
0.864287
-0.895458
-0.703235
-0.223638
-0.414964
0.268109
0.260261
-0.841957
0.963934
-0.059164
0.670906
-0.219362
0.749495
-0.205057
-0.001250
0.665829
0.198221
0.437499
0.401206
-0.216813
-0.261876
0.225802
-0.760625
0.122496
0.913911
0.297907
0.132742
-0.175147
-0.588621
-0.108785
0.070181
0.586438
-0.003301
0.137952
0.448878
0.259968
-0.960533
0.680070
-0.975014
-0.598331
0.231503
-0.250704
0.499660
-0.278476
0.064776
-0.420765
0.665190
0.828036
0.669331
-0.284527
-0.155872
-0.380805
-0.443702
0.441021
0.264449
-0.555624
-0.165225
-0.034714
0.083022
-0.090768
0.010955
-0.229756
0.145010
0.100513
-0.831207
-0.335671
-0.214551
0.474899
-0.032047
0.140365
-0.289953
-0.910762
-0.163964
-0.042941
0.440981
-0.300936
-0.473795
0.114988
0.280323
0.222019
-0.390003
-0.325409
-0.743245
-0.069772
-0.803866
-0.527090
0.355312
-0.705980
0.035349
-0.165675
0.244731
0.012780
-0.317338
-0.562251
0.542232
0.672366
-0.166328
-0.195157
-0.064669
0.227506
0.732377
0.137757
-0.476985
0.730833
-0.036829
-0.161322
-0.478044
0.069367
-0.316965
-0.827306
0.598367
0.165444
0.763545
-0.123623
-0.418816
-0.295023
0.757446
-0.618617
0.719355
-0.743811
-0.745255
0.858336
0.347358
-0.832581
-0.790313
-0.058334
0.556325
0.296652
-0.750086
-0.441853
-0.764211
-0.869799
0.365894
-0.702255
-1.018904
-0.681749
0.736693
0.528745
0.243941
-0.420112
0.481624
-0.528666
-0.287515
0.412489
-0.792880
-0.252763
-0.754308
-0.826050
-0.054033
0.295811
0.666311
-0.147757
0.407986
-0.586794
-0.353155
-0.419960
-0.673668
0.901778
0.585804
0.325542
-0.242509
0.125651
0.007747
0.130497
0.486742
0.900773
-0.919644
0.208734
-0.454668
-0.886943
-0.158588
-0.075151
-0.275987
-0.980209
0.138958
-0.651143
0.666231
-0.885846
0.933279
0.567202
-0.913778
-0.281587
0.840267
-0.401710
-0.823607
0.008932
-0.485209
0.439494
-0.410676
-0.294222
-0.368720
0.689783
-0.644461
-0.571907
-0.400343
-0.979538
-0.238022
-0.927890
-0.451021
0.951395
0.658372
-0.037512
-0.778651
-0.228153
-0.805197
0.156763
-0.293586
0.565525
-0.459851
-0.778658
-0.104903
-0.837836
-0.563907
-0.511768
-0.357631
-0.591029
-0.091598
-0.334728
0.510950
-0.875518
0.736124
-0.852343
0.808305
0.212066
0.268493
0.573927
0.872993
-0.198994
-0.011490
0.625189
0.545783
-0.289258
-0.973887
0.246369
-0.802981
0.068768
0.583790
-0.578102
0.554001
-0.984628
-0.510129
-0.981028
-0.451007
-0.144006
0.529650
-0.236724
0.420461
-0.455860
-0.820219
0.186960
-0.774336
-0.345634
0.764592
-0.347206
0.745159
0.844951
-0.510050
-0.682565
0.971470
0.777593
0.896562
0.611659
0.185017
-0.407630
0.774643
-0.195073
-0.214015
0.283709
0.163070
-0.565172
-0.694084
0.763971
0.958859
-0.045284
-0.179971
0.590447
0.395501
0.832481
-0.648611
0.380025
0.670984
0.794800
-0.958846
0.191221
0.886108
-0.284368
-0.059214
-0.195221
-0.968059
-0.272436
0.372981
-0.128276
-0.910150
-0.597278
-0.355985
1.051720
-0.795788
-0.082266
0.188390
-0.484286
0.616535
0.495302
-0.704239
0.843195
-0.989863
-0.900063
-0.714909
-0.808888
0.803586
0.780741
-0.999305
-0.163344
-0.513770
0.122040
-0.320054
0.807213
0.797601
-0.204798
0.453522
0.793883
0.239405
-0.222733
0.101851
0.693110
-0.034436
-0.237675
-0.582403
-0.944030
-0.071189
-0.688500
0.177458
0.734420
0.506779
0.263232
-0.816931
0.648708
-0.359819
-0.128020
0.289035
-0.890521
-0.874596
-0.513032
0.731164
0.016621
-0.095074
0.647432
-0.907547
0.750284
0.440239
0.135173
-0.472126
-0.706761
0.070479
0.008427
-0.308149
0.186115
0.824662
-0.394109
0.799387
0.919783
1.008090
0.805435
-0.962561
-0.693187
-0.215705
-0.027366
-0.265863
-0.506168
-0.855749
0.352986
-0.387582
-0.988344
-0.061871
0.356948
-0.488486
-0.807049
0.239998
0.272874
0.651156
0.897582
-0.173091
-0.195299
-0.605586
-0.935828
-0.007354
-0.596441
0.917611
0.510134
0.935016
0.853015
-0.746947
0.853231
0.919513
-0.933600
-0.834493
-0.387027
0.744099
-0.515564
0.544466
-0.465731
-0.211040
0.427983
-0.670834
0.063701
-0.308669
-0.569689
-0.449494
0.789310
-0.467948
0.791765
0.397523
0.239746
-0.861660
0.220219
0.156488
0.849342
-0.132147
-0.416748
-0.001822
-0.778252
0.500283
-0.042954
-0.386899
0.592341
-0.247076
-0.225702
0.667329
-0.889925
-0.461044
-0.916456
-0.133718
0.202127
-0.936965
0.382677
-0.687625
-0.196958
-0.304308
-0.080398
0.173859
-0.354331
0.952699
0.395942
0.435552
0.811116
0.128441
-0.720956
0.712623
-0.932462
0.417278
0.004003
-0.367501
-0.862101
-0.616646
0.960888
0.083892
-0.576988
0.276516
0.699168
-0.150123
-0.564120
-0.173038
-0.920836
0.148729
0.104438
0.653904
0.122673
-0.176013
-0.370587
-0.350048
-0.108426
0.510681
-0.905231
0.013697
-0.720914
-0.522561
0.203972
-0.018538
0.574484
0.606627
-0.314287
0.105126
-0.291631
-0.691220
-0.739388
0.584683
0.639260
-0.352466
-0.011102
-0.451646
0.345737
0.418244
-0.625331
-0.467218
-0.510688
0.390871
-0.265096
0.752541
-0.475112
-0.481959
-0.642379
0.945322
-0.101154
-0.309586
0.707744
0.560088
-0.889360
0.107431
-0.571387
0.538945
-0.002467
0.509725
0.717045
-0.832809
-0.710398
0.248991
-0.266676
0.752635
-0.764833
-0.097921
-0.316798
-0.338626
0.367555
-0.273855
0.753004
-0.798497
0.231463
-0.325059
0.393583
-0.304561
0.483750
0.131565
0.787053
0.766349
0.884642
-0.938844
-0.713756
0.230035
0.680702
0.745720
-0.103654
-0.406742
0.644328
-0.416743
0.457764
-0.826794
-0.806693
-0.865011
0.887350
0.088848
-0.563045
-0.759307
0.058551
-0.461398
0.107170
0.042654
-0.804315
-0.673077
-0.333302
0.872115
-0.698986
-0.318817
-0.949835
-0.072104
-0.554489
0.456340
0.249948
0.726331
-0.438054
-0.892169
0.305757
-0.377780
0.423714
0.708522
-0.484462
0.576169
-0.354154
-0.926799
0.671670
-0.372247
0.537989
-0.339778
-0.887016
-0.944352
-0.263957
-0.803736
-0.466788
0.030759
-0.764502
-0.881978
0.822937
-0.337226
-0.687910
0.852365
-0.395068
0.198186
0.996845
1.041579
0.508202
0.775503
-0.431673
-0.253767
0.241824
-0.362259
0.853579
0.790242
-0.913542
-0.469051
0.840017
-0.882973
0.610649
-0.671890
-0.116730
-0.744022
0.333769
0.271564
-0.692566
-0.054433
-0.872039
0.668794
0.422610
0.865653
-0.777939
0.357044
0.353683
0.601239
-0.172759
-0.011470
0.956924
0.057471
-0.699354
0.593494
-0.876267
-0.044115
-0.459060
0.808436
-0.966240
0.623169
0.929481
-0.853778
-0.128931
0.580524
0.851101
0.187630
-0.789229
-0.348782
-0.317105
-0.507703
-0.114970
-0.221236
0.261272
-0.223430
-0.188862
-0.806264
0.438134
0.924686
0.244558
0.041249
-0.912098
0.568291
-0.956085
0.779113
-0.242755
0.180413
0.983700
0.002231
-0.848130
-0.976573
0.706160
0.504156
0.913993
0.057753
0.453402
0.175054
-0.286359
-0.125556
-0.466392
-0.099405
-0.347301
-0.101576
0.867865
-0.645220
0.058191
0.343624
0.121058
0.712409
0.817981
-0.175566
-0.498512
-0.719814
0.425450
0.589005
0.464761
-0.962462
-0.534454
0.294507
0.106683
0.405941
0.807764
-0.920281
-0.030058
-0.198631
-0.481926
0.991056
0.191724
0.359449
0.826599
0.730592
-0.407814
-0.555446
0.029514
-0.954194
-0.586983
-0.946471
-0.402061
-0.257794
0.235758
1.019584
0.727233
-0.618087
-0.185540
-0.979504
-0.597544
-0.024925
-0.966082
0.007008
0.797908
-0.580056
-0.007418
-0.825910
-0.022920
0.388686
-0.564220
0.397626
0.517530
0.260633
-0.778448
0.839620
-0.121962
-0.469728
0.837211
-0.656732
-0.651761
-0.696963
0.065050
0.499820
0.566112
-0.682665
0.757275
0.567432
0.063027
-0.141140
-0.582063
0.568930
0.497809
-0.005801
-0.978478
0.887182
-0.562542
0.965484
-0.065605
-0.847249
-0.409657
-0.694474
-0.620206
-0.305906
-0.021658
0.250784
0.025460
0.514188
-0.374794
-0.922247
0.041547
-0.352542
0.059741
-0.268733
-0.739972
-0.315981
0.004891
0.973579
-0.134848
0.078535
-0.962932
-0.796602
0.678500
-0.811404
0.336552
0.297937
-0.392578
0.146568
0.315316
0.892287
-0.497131
-0.596782
-0.579155
-0.042070
-0.820473
-0.027874
0.117264
-0.257553
-0.499343
0.406044
-0.905420
0.276489
-0.272031
-0.396674
0.091668
-0.559683
-0.405429
0.238685
0.061384
-0.821037
0.906926
-0.041083
-0.120960
0.620023
0.729943
-0.881343
-0.768136
0.110937
0.497264
-0.086055
-0.620146
-0.335205
-0.023757
-0.120834
-0.250629
-0.993946
-0.867764
-0.252947
0.597115
-0.152479
-0.443280
0.919299
-0.875163
-0.049048
-0.514089
0.473245
-0.660867
0.517199
0.309840
-0.069975
0.334036
-0.962891
-0.009225
-0.189229
-0.940206
0.276061
0.188228
0.732007
0.039514
-0.621287
0.487930
-0.387353
0.954620
0.199311
0.014363
-0.966459
-0.908603
0.228671
0.813885
0.779045
0.781443
-0.723289
-0.523087
-0.999146
0.758494
0.595461
0.820702
0.491593
0.489037
-0.668351
0.605157
-0.737409
0.227310
-0.594707
-0.358024
-0.741263
0.139400
0.711333
-0.269326
-0.199252
-0.758468
0.848949
0.875573
-0.351247
0.550882
-0.690802
-0.389998
0.154294
-0.230526
-0.383908
-0.952887
0.961426
-0.730448
0.946652
-0.509640
-0.067402
-0.281979
0.488283
0.270686
0.910141
0.455203
0.492999
-0.933622
-0.465140
-0.616952
0.344927
-0.137414
0.289731
0.177048
0.688589
-0.038521
0.470628
-0.948734
0.632929
0.335078
0.727699
-0.107520
-0.277574
0.632870
0.499850
-0.915391
0.098216
0.381918
0.182557
0.961529
-0.743325
0.697817
0.033444
-0.757317
-0.221615
-0.010254
-0.764048
-0.247922
0.219824
-0.235132
0.594435
0.911858
0.101674
-0.584732
-0.505008
-0.502558
-0.560246
-0.635815
0.323180
0.663877
-0.804202
-0.166568
-0.724601
-0.607420
-0.859612
0.408890
-0.964975
0.923867
0.440757
0.461853
-0.695652
0.721054
0.851460
-0.835234
0.850972
-0.789488
0.144585
0.389118
-0.729560
-0.610144
-0.760464
0.669010
0.218059
0.586277
-0.431434
0.517904
0.859085
0.009368
0.658798
-0.153036
0.452571
-0.936894
0.218146
0.053210
0.233068
0.217348
0.971299
0.752890
-0.102080
-0.692909
-0.430861
-0.980397
0.441756
0.520215
-0.063198
0.961886
0.644919
0.616220
-0.939763
-0.295084
0.900663
-0.167446
0.963742
-0.335970
-0.599449
-0.121881
0.947582
-0.471828
-0.074400
-0.764970
0.447865
0.428574
0.206452
-0.590912
0.650895
-0.475097
0.169685
0.893091
-0.713446
-0.147340
0.168810
0.509827
-0.142084
-0.983348
0.675131
-0.329120
-0.732296
0.858959
-0.097436
0.748292
0.235467
0.577590
0.926898
-0.005286
-0.354759
0.677359
0.373854
-0.330155
-0.739719
-0.640427
0.684642
-0.443181
0.550417
-0.475170
-0.797463
0.266109
0.086333
0.504443
0.849381
-0.490219
0.022168
0.406100
0.093389
-0.274377
0.805998
-0.220280
0.423882
-0.380557
-0.391729
0.370996
-0.755976
0.381731
-1.004696
-0.448564
-0.917193
-0.816616
0.545073
0.144542
-0.737896
-0.503483
-0.754367
0.847817
-0.966743
0.333879
-0.995159
0.629020
0.707304
0.631729
0.548691
0.552968
-0.890545
-0.986138
0.939322
0.391813
0.568371
0.075719
0.471936
-0.977095
-0.235177
0.126229
-0.749480
-0.176253
0.061913
-0.451297
0.682347
-0.274094
0.071796
0.124163
0.033412
0.939420
0.477058
-0.105986
-0.601594
0.757953
0.137602
-0.024892
0.041801
0.904184
-0.398744
1.055708
-0.555073
-0.077767
0.090628
0.460459
-0.395445
0.670060
0.084896
0.834998
0.190978
0.412575
-0.366918
-0.000517
-0.512030
-0.334870
-0.705478
0.811408
0.449136
-0.940707
-0.395846
-0.341436
-0.850574
0.209041
-0.459007
0.020270
0.433910
-0.336407
-0.460273
0.932466
0.901708
0.221344
0.735378
-0.104473
-0.111394
0.784126
-0.198885
0.300762
0.919191
0.876035
0.160859
-0.918895
-0.372023
-0.160829
-0.088216
0.736156
-0.286974
0.715954
-0.486600
-0.868897
-0.872127
-0.833673
0.737671
-0.564789
0.190226
0.129612
-0.997478
-0.803995
0.213245
0.563372
-0.910466
-0.215761
-0.357455
0.314138
0.064688
0.521199
0.099555
0.213313
-0.905476
-0.583403
0.743510
-0.947542
0.396504
-0.335846
0.711435
0.584274
-0.270106
-0.658629
-0.822685
-0.133885
-0.398579
0.022029
0.409405
0.323792
-0.507947
0.622531
0.487078
-0.248848
0.246974
-0.664233
-0.508817
0.292520
-0.024810
0.964036
0.297093
-0.320274
0.451004
-0.462689
0.935215
-0.144403
0.099222
-0.291024
0.570231
0.908820
-0.455173
-0.518493
0.788985
0.109933
0.528774
-0.883720
-0.631997
0.584668
-0.732333
0.269905
0.203388
-0.624538
-0.695872
0.347127
-0.761049
-0.272024
-0.532630
1.008749
-0.295905
-0.413421
0.937611
0.964979
0.902342
-0.655878
-0.570541
-0.266813
0.956677
0.289525
-0.498156
-0.909985
0.509382
-0.742591
0.437200
0.823236
-0.241729
0.837947
0.362427
-0.355491
-0.650703
-0.507487
0.589358
0.361701
0.080146
0.730279
-0.615840
-0.326854
-0.866200
1.015181
-0.523807
-0.552667
0.500309
-0.807120
0.612080
0.419895
0.800098
-0.036783
-0.681208
-0.675432
-0.037554
0.474613
0.362879
0.508034
0.100855
-0.282056
-0.342685
0.148609
0.014679
0.770202
-0.671332
0.048686
0.768695
0.489559
-0.070438
-0.459428
0.448649
0.980514
0.042424
-0.701886
-0.872272
-0.456153
-0.454881
-0.457616
-0.177419
-0.585644
0.963814
0.352646
-0.072159
0.290586
0.351080
-0.455563
0.033009
-0.865355
-0.311438
0.108432
-0.462838
-0.335442
0.452681
-0.732504
-0.140566
0.635756
-0.708830
0.135374
-0.650180
-0.285889
-0.702634
0.738526
0.294255
0.170238
1.040359
0.423481
-0.472404
-0.640262
0.694496
-0.196962
0.666638
-0.787770
0.771834
0.809178
0.659770
-0.198054
-0.352454
-0.889802
-0.585812
0.714720
0.603307
-0.208755
0.082752
-0.576806
-0.952590
-0.977048
0.615624
-0.037019
-0.130086
0.005914
0.943357
0.006002
0.846677
-0.843026
-0.364978
-0.667204
-0.686913
0.146596
-0.856312
0.364386
0.103403
0.807207
-0.176798
-0.530672
0.961448
-0.670470
0.438825
0.590453
-0.123892
0.218234
-0.768163
0.209531
0.443000
0.432002
0.843744
-0.034121
-0.594172
0.140568
-0.346477
-0.977465
-0.650197
0.912320
0.117987
0.340295
0.448172
0.377891
0.929979
0.543783
0.928251
-0.750018
0.010176
-0.933329
-0.790130
-0.359979
0.460431
0.798864
0.343174
0.990693
-0.592425
-0.103461
0.596287
0.949527
0.372562
-0.383368
0.646917
-0.675106
-0.241859
0.109906
0.719814
0.585316
-0.295752
-0.868625
0.007462
-0.945672
-0.164983
0.195214
-0.865073
-0.450542
0.882055
-0.658673
-0.997004
0.394213
0.912396
0.907813
0.926758
0.678243
0.407166
0.665924
-0.217293
-0.196530
-0.033149
0.055335
0.677426
-0.087298
-0.117759
-0.511926
0.539282
-0.702600
-0.597542
-0.554799
0.709465
-0.602344
0.262733
-0.398803
-0.296608
-0.726868
0.563681
0.320855
0.255289
-0.063102
0.483120
-0.125472
-0.382100
-0.864998
-0.164387
-0.397361
-0.656189
0.430306
-0.248866
-0.076520
-0.849213
-0.772824
0.319351
-0.292516
0.178452
-0.234840
1.046192
-0.348358
0.632770
0.797752
-0.734917
-0.442945
0.043572
-0.863977
0.686181
-0.262792
0.243559
-0.269902
0.393914
0.605829
0.243718
-0.163045
-0.270870
0.817746
0.693868
-0.988226
0.774709
-0.356027
-0.125844
-0.832710
0.040177
0.573180
0.309039
-0.678794
-0.597047
-0.818564
-0.297168
0.013959
-0.498591
0.194203
-0.087373
0.159442
0.342020
0.319670
0.341638
0.204513
-0.820999
-0.779865
0.125275
-0.641197
-0.212455
0.357096
-0.768834
0.141937
0.731571
0.878315
-0.128800
0.972996
-0.485961
-0.560581
-0.839483
-0.787968
0.673620
-0.084060
0.234808
-1.019084
0.969282
0.573450
0.077966
-0.899451
-0.733975
0.949601
-0.672415
0.958020
-0.081247
-0.141058
0.661483
0.266025
0.673162
0.001601
-0.144252
0.265820
0.673921
0.139956
0.954466
0.728032
-0.009137
0.381545
-0.070162
0.097710
0.441692
-0.288407
-0.756279
0.069813
0.648197
-0.805292
-0.910418
0.334014
-0.767603
0.908814
-0.112621
-0.589684
-0.230843
0.090541
-0.245655
-0.751273
0.284042
-0.813643
-0.282820
-0.518812
0.432966
0.173768
-0.143073
-0.152798
0.234230
-0.781695
0.447955
-0.441772
-0.543680
-0.567719
0.091339
0.826219
0.123448
0.107056
-0.040210
0.567473
0.142112
0.449865
0.421629
0.406773
-0.242365
-0.630945
-0.449045
-0.804723
0.921899
-0.338032
-0.078823
-0.816484
0.970979
0.886028
-0.284695
-0.747210
0.218321
-0.536832
-0.389830
0.442364
0.759353
-0.478098
-0.369209
-0.297754
0.443526
0.881205
-0.321420
0.359995
0.073260
0.829385
-0.153009
-0.114326
-0.419240
0.387194
-0.876206
0.667786
-0.828620
0.810338
0.857459
0.157157
0.964701
0.279264
0.578687
0.272218
-0.972747
0.998642
-0.988731
0.792677
0.708464
-0.503852
0.653150
-0.065600
0.152649
0.097272
-0.400469
0.331410
-0.402939
0.457832
-0.147125
-0.327551
0.121547
-0.193401
0.497894
0.601607
0.769017
0.510379
0.743042
-0.735864
-0.225008
0.448233
-0.624009
-0.448542
-0.580661
0.668748
-0.588442
0.008486
-0.657639
0.491665
-0.726546
0.180181
-0.438474
-0.373665
0.167171
0.226157
0.321966
0.385054
0.792615
0.257052
-0.338510
0.318624
0.963897
-0.712762
-0.891727
0.897957
-0.564802
0.016498
0.177183
0.468202
-0.023438
-0.862430
0.747982
-0.282657
0.958092
0.688907
-0.933646
0.752151
-0.580918
0.252927
0.533484
0.580751
-0.062170
0.610881
-0.469114
-0.642382
-0.111666
-0.237903
0.068299
0.506245
-0.455841
0.879620
0.588946
0.468757
0.326754
0.324112
-0.186951
-0.020940
0.670683
-0.321690
-0.511773
-0.846547
0.799847
0.480898
0.588194
-0.276827
0.308281
0.373597
0.427327
0.591505
0.540792
-0.326464
0.137424
-0.075836
0.837490
-0.633807
0.036011
0.098757
0.235670
-0.607856
-0.657884
-0.865926
-0.680060
-0.197326
-0.620518
0.324642
0.661723
-0.112191
-0.257130
-0.114613
0.741848
-0.289402
0.150263
0.622403
-0.099799
0.456251
-0.942183
0.778425
0.619381
0.231908
0.214089
-0.399053
0.680259
-0.700500
-0.011399
0.136133
0.708602
0.116840
-0.261603
-0.341473
-0.459240
0.181811
0.617454
0.695696
-0.621842
-0.095967
-0.121890
0.183951
-0.526408
-0.572363
-0.253831
0.968626
-0.868008
0.851380
-0.491328
0.755485
-0.292852
-0.238613
0.663482
0.534327
0.604453
0.209100
0.944148
-0.744577
-0.564913
-0.769333
-0.543766
0.238830
0.797496
0.937384
0.485808
0.197523
0.508836
0.936596
-0.240640
-0.083848
-0.774678
-0.557396
-0.524656
1.040815
0.810245
-0.012105
0.113575
0.796958
-0.202908
-0.565887
0.214833
0.788213
0.341972
-0.730354
0.713565
0.027725
0.761979
-0.494599
-0.288178
-0.563617
0.510268
-0.322143
0.706225
0.926203
-0.053784
-0.556600
0.201004
0.093528
0.455537
-0.802086
0.444578
0.482120
0.883479
-0.748807
0.835532
0.343333
-0.585274
-0.144550
0.612001
0.159119
0.756081
0.154026
0.472919
0.715037
0.434824
0.832969
-0.505616
0.740555
-0.826303
-0.625210
-0.657452
0.296166
-0.137904
0.465530
0.649199
0.855971
0.514590
0.477230
0.048607
-0.911203
0.739952
-0.591365
0.350148
-0.176380
-0.544627
0.580220
0.442227
-0.268344
-0.502840
0.924763
-0.183302
0.320946
-0.225336
-0.719567
-0.080254
0.590733
0.766202
-0.065108
0.106143
-0.596006
-0.069632
0.229423
0.231950
0.395058
0.950755
0.021688
0.831527
-0.522706
-0.773695
-0.458031
0.091650
0.134257
-0.671724
-0.205670
-0.487601
-0.101743
0.539086
-0.036271
0.605513
0.914835
-0.571065
-0.165350
-0.596213
0.721068
-0.264903
-0.960766
0.582830
0.043073
-0.561225
-0.293533
-0.234555
0.927285
-0.998271
-0.609807
-0.026839
0.566326
0.634391
-0.309179
-0.583336
0.059252
-0.594140
-0.531224
0.163054
0.890516
-0.552485
-0.417367
0.627278
-0.202476
-0.771657
0.223942
-0.215392
-0.984595
-0.230980
-0.149893
0.465429
-0.460091
0.019223
0.102207
-0.962392
0.713093
0.657312
-0.932546
-0.472000
0.755977
0.040611
0.761014
0.613091
-0.391941
0.486562
0.951237
0.858157
-0.484451
0.104763
0.936682
-0.246328
-0.026839
-0.721853
0.686493
-0.088733
0.781572
-0.581928
-0.300119
-0.212614
0.813215
0.617689
-0.081046
-0.963256
0.743269
-0.356764
0.665588
0.032665
-0.348527
-0.120372
-0.016012
-0.714858
-0.443264
-0.056237
0.030597
-0.097963
0.581328
0.451493
0.913504
0.394042
0.560306
0.236180
0.998906
0.412397
0.645547
0.512963
-0.935283
0.434499
-0.054002
0.222000
0.173210
-0.715450
0.097632
-0.557061
-0.480210
-0.586005
-0.633703
0.145388
0.553824
0.777058
-0.736975
-0.619384
0.261279
0.423918
-0.214456
0.008931
0.018767
-0.102144
-0.132906
-0.583197
1.048193
-0.082369
0.479133
0.314809
0.922812
0.570108
0.132289
0.001050
0.672468
-0.573170
0.124090
-0.543709
-0.620472
-0.495752
-0.624411
-0.641059
-0.397424
-0.062876
0.864871
-0.583219
0.392418
-0.330348
-0.237224
0.832923
0.755084
0.917013
-0.251683
-0.914446
0.802080
-0.092740
0.545656
-0.015141
0.084801
0.017934
0.211125
-0.413421
0.780416
-0.824433
0.687468
0.894679
0.230538
0.669998
-0.281325
0.915667
-0.774964
0.356600
-0.878612
-0.819638
-0.444768
0.671122
-0.351548
-0.400537
-0.945637
-0.984041
0.607371
0.165312
-0.018801
0.787411
0.615528
0.012423
-0.170688
0.552498
0.776706
-0.514077
0.813626
-0.526193
-0.749566
-0.929574
-0.624313
-0.147930
0.004008
-0.811648
-0.207324
-0.498738
-0.495540
-0.394110
0.849098
-0.694973
0.441487
-0.924432
-0.863862
-0.517866
-0.021804
0.742963
0.230200
-0.367050
-0.345479
-0.694856
0.137000
0.813753
0.149235
0.160332
-0.393019
-0.966445
0.162547
0.887328
-0.621943
-0.902446
-0.055362
-0.169683
0.421691
0.470886
0.786376
-0.889015
0.175038
-0.515179
-0.020827
-0.375799
1.032241
0.626494
-0.331300
0.787172
0.238708
0.064160
-0.495235
-0.572854
0.704454
0.373572
-0.935361
-0.254654
0.631346
0.601692
0.453185
-0.811113
-0.704636
-0.065345
-0.334872
0.865671
-0.460365
-0.162810
0.170069
-0.255182
0.649650
0.340682
-0.787698
0.603775
0.727333
-0.332830
0.341334
-0.941049
0.107967
0.929368
-0.065726
-0.111615
0.080542
0.782291
0.325673
-0.144501
-0.228758
0.205746
-0.881261
0.217650
-0.354699
0.933152
-0.008805
0.406863
-0.768957
-0.765111
0.785270
-0.593957
0.502682
-0.730675
0.447455
0.876909
-0.678792
0.051568
-0.156066
-0.966219
-0.282610
-0.116374
-0.588182
-0.753338
0.379545
-0.235159
0.500905
0.407355
0.048832
0.841776
-0.356209
-0.068197
0.237101
0.042436
-0.969549
0.674167
1.002537
-0.775160
0.432974
-0.813531
-0.062890
0.718771
0.042482
0.700092
0.844294
0.928170
-0.928526
0.326685
-0.032084
1.008008
0.590229
0.338211
-0.175856
-0.056523
0.629816
0.476001
0.958970
-0.267560
-0.746387
0.432856
0.116603
0.108382
0.589332
-0.607807
-0.703364
-0.148021
1.013773
-0.085324
0.283187
0.793909
-0.395430
0.305538
-0.522578
-0.640680
0.847505
0.275460
-0.834174
0.546633
-0.300019
0.306163
0.748504
-0.280776
0.568748
-0.637616
0.092766
-0.169668
-0.846839
-0.149988
0.886416
-0.196288
-0.256828
0.007596
-0.220145
-0.424744
-0.914103
-0.908068
0.937375
-0.614942
0.561266
-0.780406
-0.877169
-0.262533
0.558313
0.017217
0.279477
-0.347863
-0.259003
-0.730357
-0.035489
-0.391898
-0.048481
-0.192316
-0.273695
-0.659251
-0.145588
0.164192
0.538274
0.525303
-0.201479
0.904356
-0.025973
-0.873606
-0.001555
0.302918
-0.612875
-0.816436
0.661521
0.531105
-0.800575
0.215035
-0.845527
0.783174
-0.811751
-0.366904
-0.653271
-0.773509
0.299372
-0.698438
0.745654
1.018916
-0.969683
-0.949111
0.625854
0.608293
0.097208
0.636990
0.327536
-0.966266
0.289994
-0.047794
0.668813
0.842914
0.064600
1.043534
-0.170635
0.220921
-0.683414
-0.674481
-0.318467
0.540187
0.929699
0.243437
-0.409010
-0.236607
0.198289
-0.592371
0.445668
0.345695
0.071020
0.415884
-0.308579
-0.311260
0.177506
0.188625
0.367782
0.938897
0.739101
0.655226
0.482444
0.748707
0.680328
-0.973656
-0.663024
-0.098106
0.097894
-0.139510
0.636882
0.672088
0.133751
-0.032762
0.553812
0.351476
-0.849518
0.082136
-0.932530
-0.980319
-0.359783
-0.425454
-0.031230
0.204222
0.202927
-0.307538
0.812626
-0.742622
-0.554270
-0.482089
0.248541
0.300481
0.935603
0.602085
-0.820564
-0.555363
0.375948
-0.857732
0.723900
-0.214357
-0.025325
-0.761590
-0.695259
-0.735847
0.808956
-0.397715
0.993005
-0.941390
-0.139653
-0.243821
0.076838
-0.661218
0.704941
0.922418
-0.751575
-0.870381
-0.489963
-0.886066
-0.623509
-0.932615
-0.776494
-1.005257
0.082128
-0.205440
0.997866
0.529161
-0.788525
0.973523
0.163987
-0.055451
0.294971
-0.637494
0.062074
-0.469584
-0.490620
0.322472
-0.984429
0.718214
-0.368418
0.890776
-0.678911
0.514301
-0.149647
0.212679
-0.034461
0.925944
0.488398
0.904200
-0.946892
-0.506653
0.116154
0.388615
0.972657
0.001668
0.234949
-0.555338
0.194006
-0.759596
-0.365912
-0.931951
0.510071
-0.924009
0.606779
-0.083781
-0.507936
0.321032
0.583050
0.995131
0.240422
0.341083
-0.628753
0.090071
-0.904798
-0.693775
0.359827
-0.388249
0.380478
-0.198949
-0.086612
0.881085
-0.363362
0.263500
-0.115168
-0.779323
0.459101
-0.990147
0.437462
-0.145370
0.835322
0.431822
-0.315486
0.176396
-0.004839
0.162305
-0.682457
0.604624
-0.054661
-0.918991
0.060136
-0.568926
0.594143
0.006310
0.435309
-0.512464
-0.186404
0.265932
0.214743
0.851258
0.911871
-0.859820
0.944175
0.359369
-0.986320
-0.565862
0.927285
0.432005
0.790479
-0.094383
-0.698352
-0.506873
-0.783832
0.502133
-0.712883
-0.195390
0.700830
-0.045366
0.355363
0.844016
-0.976843
-0.395903
0.294029
-0.907659
0.417936
-0.329698
-0.640924
0.139926
-0.686681
0.892686
0.408980
0.454567
0.439046
0.958553
-0.946431
0.600676
-0.962140
-0.143825
-0.252372
-0.756237
0.829552
-0.842493
0.589016
-0.663498
-0.932770
0.865337
-0.624840
0.281975
-0.066877
-0.561617
-0.548798
-0.973874
0.491393
0.437897
-0.162293
0.702953
0.307014
0.572454
-0.746676
0.823940
0.812646
-0.000702
-0.519819
-0.320843
-0.596097
0.027906
0.196407
-1.001196
0.112114
-0.186024
-0.985518
-0.356028
0.989688
0.341980
-0.097192
-0.218534
0.430239
0.858582
-0.055468
-0.270211
-0.128711
-0.401105
-0.479537
-0.088914
-0.544923
-0.893660
0.812964
0.031145
0.448246
-0.318072
0.217772
0.611751
-0.139527
0.684113
0.441361
0.747099
-0.615380
0.340752
0.939302
0.739569
-0.844592
0.131695
0.681001
0.191300
0.297283
0.436148
-0.359934
0.773191
0.611605
0.450633
-0.392387
-0.138384
0.408884
-0.052520
-0.056129
0.500583
-0.294633
-0.061594
0.973247
0.172384
-0.258825
-0.586428
-0.267804
0.835459
-0.138213
0.127453
0.770445
0.641393
0.375398
-0.029257
-0.123461
0.232732
0.651101
0.182463
-0.165448
-0.843310
-0.719096
-0.364828
-0.549235
-0.764364
0.460824
0.834229
0.642397
0.144130
0.710374
1.006951
-0.944464
0.662878
-0.902017
-0.063336
0.789711
-0.903798
0.840522
0.228237
0.828372
0.587409
0.988460
-0.241585
-0.039944
0.158111
-0.827954
0.050850
0.097352
-0.218197
0.476848
0.347244
-0.287724
0.713325
-0.168893
0.414904
0.653152
0.726874
0.237015
-0.299388
0.712122
0.173480
-0.865232
0.858623
0.805313
-0.005527
-0.523145
-0.588554
-0.560415
0.910342
0.976658
-0.907973
-0.396871
-0.611780
0.701690
0.656445
-0.163419
0.544983
0.478598
-0.576495
-0.819164
0.224666
0.743523
-0.107870
-0.377480
-0.046837
0.859096
0.335242
-0.609096
0.064673
-0.949860
0.945336
0.616381
0.068384
-0.896529
0.297184
0.152564
0.102152
0.367435
-0.910401
-0.823784
-0.040133
0.608395
0.343510
-0.268728
-0.240565
0.568400
-0.775197
-0.774987
-0.336783
-0.550221
-0.282847
0.048642
-0.301666
0.337338
0.347156
0.054168
-0.449428
-0.500809
0.979109
0.272482
0.477056
0.795027
0.402601
-0.457841
-0.140755
-0.213033
-0.175060
-0.158409
0.179899
-0.115838
0.792669
0.290020
-0.233184
-0.310221
0.846728
-0.850758
0.031935
0.593652
-0.639777
0.774519
0.661889
0.111325
0.266570
0.753911
-0.468344
-0.888303
0.487034
0.828800
0.616466
-0.614530
0.645345
-0.771025
-0.678747
-0.880577
-0.580935
0.309519
0.333510
0.656262
-0.587946
-0.219489
-0.480368
0.286629
-0.828281
-0.390748
-0.409272
-0.810171
-0.823426
-0.491759
0.783001
0.179793
0.054154
0.230450
0.608525
-0.798228
0.088091
-0.094313
-0.624790
-0.192370
-0.453710
0.407351
-0.545224
-0.711551
0.250986
0.189151
-0.579739
-0.574630
0.942762
0.253714
0.411080
0.418436
0.121825
0.359197
-0.941850
-0.003822
-0.262604
0.548450
-0.015918
-0.307008
0.915330
0.348865
-0.018178
0.192160
-0.501131
0.690147
0.554444
-0.827134
-0.234070
-0.526241
0.406488
0.736730
0.032410
0.146254
-0.104887
