3072 30 10 0.1000 50 50 20
0.165652
-0.225763
-0.149751
-0.246878
-0.164438
-0.386298
-0.163846
0.009971
-0.027463
-0.058985
0.153165
0.108114
0.075876
0.238205
-0.117705
0.032845
1.365951
-0.707402
0.198993
0.432503
0.191767
0.119672
-0.906686
0.218892
-0.010970
0.028424
0.024895
0.214365
0.074926
0.069851
0.136890
0.149550
0.452265
0.116991
0.054929
0.151616
0.087028
0.158262
-0.624731
0.871156
0.458985
-0.729153
-0.250318
-0.135651
0.127239
-0.743062
0.429128
1.067459
-0.456992
-0.922057
0.620425
-0.155096
-0.783240
-0.780811
0.197427
-0.744595
-0.397693
-0.508583
-0.385000
-0.188467
-0.240990
-0.859300
0.085404
-0.421619
0.449972
0.127660
-0.561636
0.274673
0.055381
0.811860
0.426424
0.058192
0.552062
-0.738123
0.065286
-0.178846
0.620207
0.310135
0.976984
0.980302
-0.663154
0.323999
-0.419513
-0.753376
-0.777787
0.603298
0.061618
-0.598610
-0.511740
0.891612
-0.308457
-0.813413
-0.596590
-0.254179
0.883076
-0.063179
-0.695432
-0.789765
0.749085
0.387582
-0.176805
0.143905
-0.866706
0.540255
-0.620785
0.967626
0.824652
-0.657842
0.826600
0.979389
-0.581454
-0.578269
-0.362569
0.176735
0.818308
0.247834
0.573247
-0.328230
-0.687073
0.212142
0.282173
0.646900
-0.461799
0.109446
-0.016341
-0.625141
0.783449
-0.168982
0.995299
-0.536417
0.560645
-0.237269
-0.623192
-0.320004
0.825542
-0.734614
0.087040
-0.730845
0.966375
-0.587018
-0.967961
-0.059275
0.961507
-0.881078
0.711220
0.793801
0.735854
-0.306537
-0.482298
0.586437
0.592728
-0.058297
0.005406
-0.665835
0.254428
-0.491618
0.888898
0.473317
-0.276519
-0.302222
0.573830
0.360757
-0.561707
-0.345619
-0.369670
-0.579782
0.136144
-0.790758
0.478914
0.961695
0.710019
0.235731
-0.476207
-0.845865
0.360989
0.550387
-0.564976
0.976354
-0.311314
-0.406271
-0.765084
0.222394
-0.894115
-0.023509
-0.257328
-0.974260
0.742148
0.784075
0.441236
0.477205
0.252182
0.688400
-0.351766
0.666623
0.602494
0.044317
-0.324616
0.473574
-0.468388
0.155510
-0.746707
-0.017244
0.912871
0.404299
0.167075
0.138863
-0.364943
0.320625
0.257766
0.929560
-0.953732
-0.366280
0.814644
0.658999
0.619397
0.618510
-0.058285
0.649482
0.701549
0.418335
-0.871657
-0.462585
0.025370
-0.519483
-0.758261
-0.006348
-0.689618
-0.212493
-0.470600
0.734273
-0.550145
-0.459836
0.703093
-0.065028
-0.681063
0.012527
-1.025992
-0.560279
-0.304333
-0.229718
0.621219
0.888969
0.152811
-0.963172
0.685407
-0.001088
0.746418
0.336368
0.932816
0.761044
-0.413454
0.326799
-0.663343
-0.037294
-0.578025
0.294241
0.069538
-0.257417
0.082977
-0.287946
0.224330
-0.712463
-0.395444
-0.299659
0.795220
0.287660
-0.131617
0.390582
0.842980
0.536315
0.892298
-0.294895
-0.246381
-0.613399
0.926184
0.963162
0.847111
-0.375421
-0.887306
0.602490
-0.056900
0.073694
-0.176971
0.076136
-0.185733
0.584351
0.478457
-0.197268
-0.542528
-0.165528
-0.394055
0.499086
0.216999
0.985329
0.137321
0.409323
0.428927
0.621201
0.174584
0.746837
0.420505
-0.339247
0.991430
-0.614633
0.852590
-0.817164
-0.003493
-0.215474
0.265386
0.370115
0.311286
-0.601056
0.152768
0.448376
-0.201093
-0.543788
0.026562
0.980244
-0.763248
0.212737
-0.273661
-0.816821
-0.194466
0.089755
-0.738533
0.756660
-0.015859
0.330343
-0.669247
0.395441
-0.048249
-0.931824
-0.408811
0.827975
-0.946982
-0.312485
0.538432
0.500266
0.667550
-0.005650
-0.195122
0.450344
0.908653
0.595368
0.590359
-0.293250
0.309245
0.784975
-0.972119
0.922707
0.831548
-0.577579
-0.043234
0.123808
-0.236765
-0.264419
-0.951747
0.054870
-0.012019
0.098305
0.399842
-0.206967
0.130493
0.989654
0.248270
-0.662873
0.897371
-0.856551
0.552678
0.207565
0.335477
0.575553
-0.241126
-0.161960
0.146167
0.968923
0.323851
-0.306784
-0.230471
-0.529605
0.797824
0.382613
-0.532849
0.102626
-0.513463
-0.270514
-1.052277
-0.961690
0.206545
0.730903
-0.054235
-0.364678
-0.545581
0.854296
-0.132500
0.912885
0.562024
-0.455429
-0.319568
-0.559631
0.787932
0.048721
0.353372
0.909949
0.991990
-0.229328
0.114378
-0.138128
-0.866329
-0.471135
-0.262911
-0.814464
-0.538711
0.647941
0.571620
-0.976939
0.106960
-0.854296
-0.774041
0.565936
0.678795
0.555784
-0.018320
-0.291062
-0.598014
-0.140285
-0.832164
0.488263
-0.102423
0.816182
0.652930
-0.746092
0.967160
-0.465275
0.841209
0.998629
-0.218941
0.617892
-0.681583
0.680592
0.734040
0.764476
0.700021
0.704104
-0.604582
0.058169
-0.768441
0.452209
0.493955
0.310658
-0.978790
0.566954
0.801488
-0.804095
0.676086
0.934696
0.970221
-0.106252
0.796063
0.218159
0.632887
-0.268071
0.895673
0.169736
-0.504239
-0.582036
-0.507744
-0.765785
0.183322
-0.034265
-0.654171
-0.644758
-0.470737
-0.215621
0.976456
0.655572
-0.688600
-0.566541
0.330128
0.065262
-0.610556
-0.201592
-0.777783
-0.143836
0.737243
0.214941
-0.383493
0.789566
0.213309
0.167441
0.303908
0.023352
0.456227
0.964714
0.056481
-0.501099
-0.801877
0.380373
0.731560
-0.626117
0.407530
0.122994
-0.073578
-0.302766
-0.662767
-0.569360
-0.960236
0.445621
-0.429642
0.272822
0.722012
0.738859
0.737422
-0.725704
0.911681
0.998482
-0.994571
0.641588
0.911466
0.624014
-0.592673
0.935728
-0.473769
-0.886727
-0.942080
-0.520687
0.702287
-0.720129
0.356936
0.431643
0.858244
-0.316933
-0.088938
0.707309
-0.929133
-0.396621
0.345895
-0.849069
0.641233
-0.842135
0.022167
0.032534
-0.597048
-0.214472
0.377263
-0.573865
0.398561
0.677629
-0.976370
0.321232
0.242333
0.788098
0.441060
0.403601
0.209243
0.982101
-0.628512
-0.127777
-0.403862
0.927126
-0.950587
-0.767818
-0.193374
0.992661
-0.832317
-0.966774
-0.556791
-0.391504
-0.739019
0.435978
-0.618424
-0.504451
1.063500
0.119744
-0.506693
0.102353
0.549139
-0.024128
-0.139279
0.745804
-0.496128
0.088195
-0.391716
-0.595275
0.560597
0.659605
0.988077
0.901872
0.838576
-0.354771
-0.729626
-0.161250
0.833165
-0.098335
0.412090
-0.891463
0.201040
0.139558
0.136403
-0.599002
0.485925
0.753613
0.421608
-0.123508
0.152091
-0.865140
-0.622557
-0.675211
0.300087
0.057559
0.909083
0.497164
-0.585547
-0.441988
0.399795
0.629791
1.029953
-0.346060
0.150791
0.193511
0.572662
0.181122
-0.702640
-0.810298
0.316223
-0.092863
0.527537
-0.041647
0.021068
-0.278321
-0.326299
0.212590
-0.424585
-0.381577
0.302771
-0.455532
-1.006170
-0.518125
-0.433161
-0.050194
0.898342
-0.904648
0.457576
0.325988
0.342158
-0.305694
-0.647270
-0.831905
-0.136020
-0.628489
0.580807
0.221066
0.267552
0.511452
0.793790
-0.219929
0.286911
0.641644
-0.490860
-0.256323
-0.628555
0.339734
0.203010
0.748675
0.494224
-0.262388
0.459591
0.423455
0.984413
0.209542
-0.040189
0.531908
-0.448855
0.931333
0.793637
-0.066744
0.632152
-0.375501
0.415301
0.364527
-0.940181
-0.805554
0.230221
0.253792
0.053453
-0.962424
-0.306670
-0.828287
0.825832
-0.597881
-0.335802
-0.502518
-0.419068
-0.402655
-0.174414
0.969903
0.743144
-0.404721
-0.554248
0.550964
-0.172494
0.311436
0.671263
0.836782
0.844333
0.616048
-0.002066
0.364133
-0.823809
-0.903336
0.347827
-0.438977
0.667927
0.033227
0.541242
-0.416973
-0.138441
-0.005201
-0.947232
0.287615
0.751198
0.608365
0.718596
-0.922976
-0.744746
-0.287595
-0.365720
0.637120
-0.002464
-0.104668
0.114922
0.280649
-0.560926
-0.248138
0.691437
-0.763009
1.029483
0.275746
-0.608731
-0.401589
-0.207560
0.058058
-0.796446
0.524805
-0.075791
-0.809728
-0.047056
-0.955141
0.617269
0.379618
-0.286432
-0.722613
0.168588
0.946241
0.460026
-0.710392
-0.927660
-0.012681
0.814235
0.697414
-0.495107
0.847989
0.487095
-0.526189
0.067080
-0.027896
-0.313139
-0.414907
0.728919
0.865765
0.647083
-0.306684
-0.537267
0.309535
-0.141412
0.462872
0.861144
-0.044562
-0.936317
0.851964
-0.518121
-0.562401
-0.133810
-0.259504
0.521416
-0.051941
0.629301
-0.654140
-0.500075
-0.197410
0.698651
0.601332
-0.801717
-0.759393
-0.058746
0.801618
-0.876003
-0.827036
0.717532
-0.119571
-0.968519
0.695239
-0.702237
-0.320246
0.772185
-0.297629
-0.077176
-0.144059
-0.180517
0.680817
-0.388007
0.060736
0.064733
0.435482
0.327241
0.142521
-0.104508
-0.566004
0.164361
0.913721
-0.519128
0.043127
-0.692677
-0.494208
0.091233
-0.984762
0.376254
0.516109
-0.493734
-0.225403
-0.934479
0.974932
0.424083
0.178755
0.513056
0.742154
-0.578151
0.858148
0.120855
-0.991743
0.407037
-0.782410
-0.143719
-0.238738
-0.824514
-0.093283
-0.939290
-0.961901
-0.346133
0.302562
-0.749913
0.189154
0.335627
-0.383751
0.084976
0.275750
0.227762
0.484064
0.322770
0.752131
0.761422
-0.174014
0.884697
0.399269
-0.467088
0.326573
-0.792422
-0.327767
-0.732644
-0.186236
-0.956923
-0.257284
0.473283
0.149993
0.034303
0.146630
0.569616
-0.516947
1.028396
0.252941
-0.455702
0.857814
-0.512104
0.695209
-0.865542
-0.919670
0.723926
0.214850
-0.675312
-0.724976
0.400519
-0.985859
1.032958
0.322881
0.674407
0.298497
-0.022243
-0.619488
0.516827
-0.936972
-0.496533
-0.077580
-0.689959
0.598786
-0.421604
-0.751491
-0.969844
-0.143827
-0.704814
0.871272
-0.458095
-0.249586
0.670791
-0.735252
-0.343469
0.306231
0.592663
-0.765684
-0.920862
0.376595
0.001873
-0.740234
-0.893047
0.116923
0.424998
0.511045
-0.386691
0.068646
0.301708
-0.678353
0.675038
-0.802528
-0.233937
-0.844432
0.223637
-0.269204
0.625708
-0.235805
-0.748502
0.386929
-0.104863
0.421643
0.027883
-0.623381
0.134701
-0.328412
0.556929
0.736384
-0.350577
-0.278804
0.734350
0.303943
0.247683
0.507112
-0.849365
-1.001314
0.300294
0.142495
0.870929
-0.177544
0.179881
0.813303
0.779717
-0.303878
0.376433
0.332917
-0.251574
0.948215
0.019950
0.932177
0.350683
0.259585
-0.346355
-0.187515
0.046166
0.461420
0.310267
0.983579
0.546319
0.483415
-0.224444
-0.833657
-0.033421
-0.365346
-0.966386
-0.601083
-0.600349
-0.241868
-0.787730
-0.273597
-0.134679
-0.400711
0.870760
-0.566243
-0.144893
-0.193867
0.353999
-0.728008
0.883650
-0.072091
-0.647713
-0.696190
0.342597
-0.089966
-0.771957
-0.719345
-0.777661
0.653938
0.689322
-0.319966
0.388348
0.641752
-0.168993
0.430630
0.110868
0.213676
-0.850639
0.690040
-0.063511
-0.801730
0.693370
0.249757
-0.607179
0.665349
-0.950650
0.653960
0.613176
-0.027068
-0.443957
0.137653
-0.357954
0.201154
-0.240097
0.674432
0.187439
-0.077435
0.098525
-0.152366
-0.959744
0.209963
-0.487764
0.113076
-0.860981
0.303416
0.587852
0.469906
-0.045901
-0.175872
-0.600169
-0.205085
-0.651513
0.906233
0.286865
0.883436
0.045259
-0.419862
0.186471
-0.569015
0.331146
0.255733
-0.628264
-0.843474
0.469035
0.365847
-0.413914
-0.261384
-0.099553
0.703088
0.728647
0.534385
-0.125983
0.291295
-0.811608
0.262713
-0.369487
-0.276708
0.336779
0.951902
-0.019516
-0.909989
0.509235
0.527816
0.215653
-0.332955
-0.476171
0.981779
-0.519834
0.648497
0.940975
-0.196363
-0.600333
0.527332
-0.742287
0.675424
-0.116306
0.837337
1.212462
0.340242
-0.102288
-0.813774
-0.420813
-0.485040
-0.173943
0.141354
-0.420046
-0.651481
-0.340683
-0.769040
0.302283
-0.297543
0.040278
-0.076485
-0.400108
0.692254
0.112571
-0.051399
-0.683205
0.450885
0.082970
0.138818
-0.031062
0.882400
-0.892724
0.601551
-0.225129
-0.695004
-0.214038
0.477022
-0.373614
0.586065
-0.072325
-0.272136
-0.480007
-0.110703
-0.511269
0.873173
-1.002844
0.735687
0.716261
0.504708
0.369955
0.901939
-0.330898
0.468838
0.118377
-0.320630
0.316937
-0.515751
-0.716072
-0.116349
0.149395
0.107739
0.904899
-0.694595
-0.694851
-0.721228
-0.200103
0.734399
-0.634867
-0.247548
0.171718
-0.899611
1.003459
0.403428
-0.889361
0.750584
0.832513
0.204896
0.453513
0.384785
0.012927
0.346089
0.011410
0.896766
-0.695476
-0.202389
0.342445
0.395358
-0.512815
-0.311583
-0.197671
0.808925
0.685494
-0.273723
-0.854108
-0.801792
-0.144349
-0.711847
0.194445
-0.143897
-0.981522
0.113665
1.071694
0.276729
-0.440406
0.885319
-0.450495
0.933949
-0.363577
0.194581
0.208116
-0.953404
-0.012314
0.970743
-0.328967
-0.686522
0.657024
0.149797
-0.305484
0.765578
0.382053
0.357399
0.176022
0.931303
0.995118
0.663542
0.029176
0.871316
-0.512801
-0.339296
-0.665877
-0.454824
0.128066
0.916455
-0.259098
0.788161
0.722649
0.376432
0.638570
-0.101406
-0.363767
0.841363
-0.294792
0.762787
0.222655
0.588582
-0.229313
0.218480
0.818958
0.348356
-0.885787
-0.227325
0.004950
-0.515801
0.549497
-0.022516
0.781742
-0.111268
-0.635883
1.049545
0.449962
0.365793
-0.596504
0.177293
-0.561589
0.306624
-0.633019
0.589647
-0.457956
-0.368140
-0.516250
-0.210161
-0.426513
-0.856751
-0.834199
-0.245756
-0.758853
-0.196841
0.694269
-0.579835
-0.064184
0.025827
-0.840794
0.872252
0.210476
0.180927
-0.744437
0.173485
-0.690005
-0.726260
0.544353
0.990743
0.675614
0.835588
0.306431
0.631341
-0.960574
0.374058
0.156411
0.437867
-0.767188
0.383375
0.055918
-0.402834
0.942563
0.986134
-0.202123
0.395056
0.612880
0.910739
-0.318112
0.926524
-0.941178
-0.870555
0.318885
-0.401023
0.270520
-0.783068
-0.337884
0.214160
0.686508
-0.304214
0.144776
0.077821
0.042759
0.076601
-0.246667
-0.243263
0.016801
-0.202244
-0.166625
-0.709509
1.033616
-0.579445
-0.353959
-0.347563
0.989955
-0.598324
0.885397
0.039978
0.147197
-0.050842
-0.453022
0.752226
0.949325
-0.343366
0.320285
-0.507607
-0.141751
0.524389
0.587374
0.987074
0.051060
0.418689
0.861747
0.518212
-0.549395
-0.258574
-0.848329
0.368234
0.301239
0.359776
0.203572
0.228847
0.959737
1.001237
-0.423924
0.708170
0.564084
-0.073724
0.565619
0.716362
-0.300468
-0.183447
0.270019
0.793152
0.566117
-0.554596
0.979648
-0.607918
0.613110
0.387251
-0.804693
-0.391563
0.967788
0.687251
0.433557
0.574605
-0.291800
-0.923649
0.476423
-0.818816
-0.512085
0.500831
0.620665
0.637401
0.047795
0.362266
0.781997
0.146224
0.689967
0.194280
-0.220542
-0.260180
0.807137
-0.389251
0.563995
0.327110
-0.328173
-0.032191
-0.834608
0.613399
0.167478
0.773854
-0.686444
0.915341
0.742907
0.575488
-0.781503
0.790860
-0.204965
0.637314
0.809004
0.095390
0.472687
0.024196
0.956505
0.411875
-0.339378
-1.000597
-0.524420
-0.216739
0.547511
0.073283
-0.196390
-0.840875
0.811262
0.201497
0.177582
0.098267
-0.807851
0.567650
0.671273
0.740177
0.427680
-0.462907
0.363356
0.420881
0.491385
0.461913
0.207268
-0.497576
0.307937
0.065431
0.137383
0.054144
-0.159494
0.500878
0.852074
0.571822
-0.781406
-0.275743
-0.847264
0.304512
0.787925
0.753173
-0.778755
0.605719
-0.466103
-0.533623
0.700990
-0.306303
0.934713
0.113737
0.189443
0.247821
-0.279712
0.374533
0.541896
-0.332806
-0.095618
-0.885217
-0.458631
0.884566
0.716356
0.061527
-0.540062
-0.876867
-0.733368
0.164273
-0.914851
-0.496159
-0.292823
0.706005
-0.553049
0.887958
0.605585
0.222739
-0.197252
0.375336
0.841683
0.267953
0.909277
-0.865693
-0.071183
0.802934
-0.454826
0.254835
0.239166
0.337423
0.150206
0.253193
-0.556319
-0.438232
-0.212127
0.620577
0.886384
-0.219079
-0.002288
-0.183632
-0.025791
-0.505407
0.212144
-0.538194
-0.860499
-0.165181
-0.727570
0.806402
-0.105742
-0.689133
-0.723102
-0.557082
-0.644816
0.603072
-0.755587
0.348563
0.773414
-0.680304
0.194534
-0.464058
-0.704206
0.583214
1.002258
-0.962638
-0.513668
0.983509
0.390550
-0.237573
-0.436652
0.656438
0.708570
0.065660
-0.853865
0.452015
-0.108648
0.164679
0.223545
0.542742
-0.052522
-0.629451
-0.684598
0.467734
0.589306
-0.461074
0.858034
0.627580
0.069102
0.561467
-0.717580
-0.213825
0.283457
0.174766
-0.799630
0.479103
0.589912
-0.838924
-0.320782
-0.346470
-0.092994
0.557823
0.829323
0.495497
-0.720205
0.938460
-0.912580
0.679876
-0.123750
0.868850
-0.747574
0.881964
0.090916
0.339642
0.939658
0.811479
-0.575012
-0.302118
0.562900
0.535880
0.049403
0.674076
0.101370
-0.909195
-0.723433
-0.189178
-0.680631
0.813349
0.052005
-0.392354
0.271343
0.073373
0.487280
-0.542844
0.546426
-0.366276
0.785864
-0.606552
0.738440
0.212068
-0.104341
-0.578501
-0.099787
0.736574
0.934146
-0.379191
-0.149346
-0.653120
0.341701
-0.109077
0.084013
0.154930
0.790060
-0.329848
-0.737586
0.281655
0.974378
-0.067626
0.665609
-0.927658
0.075050
0.336744
-0.484901
0.148963
-0.792566
-0.645289
0.162769
0.118725
-0.465863
-0.708056
-0.000279
0.645990
0.631069
-0.549934
-0.789434
-0.680445
0.814759
-0.587746
-0.145045
-0.455247
-0.915885
-0.727930
0.038196
0.911436
0.939965
0.281352
0.982294
-0.335841
-0.207881
0.703857
0.046976
-1.005390
0.189847
-0.565155
0.876709
0.695869
0.636027
-0.781464
0.155586
-0.229911
-0.804495
0.810640
-0.206184
0.577427
0.783049
0.418926
0.160309
0.930147
-0.072385
0.610920
0.165031
0.272278
0.286622
0.201184
0.979041
0.977158
-0.792280
0.863066
-0.361209
-0.961566
0.176206
-0.001194
-0.366018
-0.008564
0.418482
-0.707569
0.994543
-0.923678
0.543654
0.183798
-0.764567
0.229917
0.984089
0.847462
0.899192
0.463958
0.427781
0.426241
0.487636
0.293925
-0.592401
0.558196
-0.876336
0.311824
-0.761259
0.547524
0.088882
-0.139196
-0.348274
-0.505529
0.295239
0.910996
0.455599
-0.657546
-0.029176
-0.177491
0.903915
0.734577
-0.657839
0.195784
-0.811885
0.629396
-0.503110
-0.943272
0.447454
-0.154323
0.949050
-0.574244
-0.431873
0.099505
0.633338
-0.743948
0.009259
-0.300819
0.942841
0.790427
0.579240
-0.160893
-0.901879
-0.554800
-0.540098
0.127320
0.473955
-0.106797
0.543584
0.011494
0.978691
-0.211202
-0.248124
0.927284
0.875045
0.855328
-0.177505
0.804178
-0.114279
-0.098567
0.535610
0.202622
-0.520073
0.198612
0.403454
0.105812
-0.656961
-0.305958
-0.018803
0.631277
0.472783
-0.560361
-0.655181
0.104633
0.305337
-0.343726
0.292609
0.027300
0.449551
0.658720
0.293902
0.017361
-0.342020
-0.752420
0.008224
-0.600234
-0.154646
-0.780778
-0.634668
-0.207307
0.162342
0.527591
0.646040
-0.175266
-0.945797
0.925145
0.671634
0.318810
-0.789836
-0.051164
-0.053118
0.797890
-0.387716
0.446742
0.012263
0.361074
-0.325345
0.890207
-0.564699
-0.625477
-0.265012
-0.433316
0.879122
-0.621403
-0.852160
0.471364
0.598210
0.287193
0.018788
0.966854
-0.442430
0.733452
-0.743578
0.190801
0.692279
-0.970733
-0.982383
0.594881
0.299148
-0.279825
-0.501204
-0.870223
0.492805
0.912897
1.032279
-0.752681
0.963423
-0.986847
-0.318475
-0.499401
-0.394774
0.280380
0.417888
1.042731
0.566429
-0.375365
-0.506759
-0.508694
0.387336
0.018952
-0.266814
0.624251
0.112970
-0.753482
-0.719740
0.670563
0.968517
-0.835447
0.945265
0.367281
0.478088
0.102775
-0.831459
0.549667
0.902034
0.554258
0.503689
-0.110993
-0.393652
-0.572713
0.151371
-0.173674
-0.750620
0.954520
-0.223315
-0.719589
-0.227441
-0.243948
0.618687
-0.651715
-0.122054
0.670900
0.778798
-0.805889
-0.548746
0.780261
0.508174
0.740833
0.035584
-0.757524
-0.958986
0.324689
0.098887
0.958987
0.211991
-0.046809
-0.759304
0.923647
0.550884
0.781340
-0.789876
-0.442234
-0.436633
-0.858594
0.164773
-0.099753
-0.928572
1.000974
-0.101121
0.694744
0.565829
0.638034
0.014001
-0.769536
-0.801591
0.433552
-0.120874
0.686030
-0.800619
-0.046759
-0.919000
0.663519
-0.979334
0.226432
0.258233
-0.427193
0.414302
0.605077
0.099971
-0.534475
-0.094426
0.527361
0.491030
0.450880
0.148058
0.742506
-0.169294
0.046073
0.189070
-0.974418
0.309937
-0.882532
-0.136132
0.875271
-0.541027
-0.034216
-0.325076
-0.692440
-0.338187
-0.572781
0.496624
-0.228464
0.951584
0.133876
0.086385
-0.782483
-0.620522
-0.024252
0.787110
-0.624710
0.682417
0.059157
0.662986
1.006776
0.871435
-0.665053
0.483958
-0.454260
0.595701
-0.104952
0.055248
-0.729120
-0.015752
0.071822
-0.642627
-0.194758
0.770592
-0.321708
0.418247
0.105879
-0.352516
0.454863
-0.884768
0.473868
0.139892
0.415147
0.259269
-0.349473
-0.958750
-0.650882
0.735249
-0.935474
-0.719666
-0.653074
-0.072432
0.310799
-0.336077
-0.391147
-0.169157
0.905796
0.899319
-0.220222
-0.317725
-0.009279
-0.814028
0.894054
-0.720991
0.836807
-0.150812
-0.823250
0.471225
0.319846
0.809411
0.936129
-0.183844
0.355120
0.811662
0.976210
0.875071
0.248864
-0.737860
-0.717098
0.420066
-0.812089
0.214202
1.033528
0.573659
-0.289524
-0.867185
-0.525949
-1.007492
0.203432
0.894945
0.860700
0.693135
0.801416
-0.132855
0.704758
-0.647163
-0.038169
0.714641
-0.917671
0.615691
0.843420
0.152759
0.125143
0.678172
0.667212
0.189690
-0.647903
0.263365
-0.448733
1.142297
0.098614
0.121203
0.278720
0.418610
-0.480243
0.161083
-0.085224
-0.403004
-0.146417
-0.300346
-0.765264
-0.007851
0.907166
-0.143691
-0.194428
0.389020
0.537039
0.175601
0.006975
-0.143399
-0.189105
-0.786344
0.305280
-0.566099
0.787196
-0.685443
-0.552274
-0.212980
-0.551084
0.889226
0.966257
-0.222436
-0.576161
0.485827
0.620218
0.094680
0.645017
-0.347395
-0.888683
-0.741149
0.179706
0.447001
0.403541
-0.953823
-0.895291
-0.390876
-0.370178
0.341455
-0.718158
0.462193
0.042160
-0.019642
0.550121
-0.949192
0.444695
0.672232
0.857551
-0.955920
0.929338
-0.623893
0.168983
0.928174
0.325468
-0.889383
0.417989
-0.468960
0.177610
-0.267743
0.966066
-0.014668
-0.938454
-0.948714
0.168213
0.935582
0.953563
0.017730
0.453980
0.463117
0.886363
0.288331
-0.476285
-0.702594
0.828358
-0.548991
0.697564
-0.500405
0.804211
0.387048
0.924583
-0.620953
-0.501816
-0.044504
0.706868
0.174278
0.793965
-0.286587
0.805247
-0.114924
0.012032
0.795543
-0.187575
0.466100
-0.518350
-0.653139
0.778913
0.868245
0.780728
-0.578908
0.025948
-0.700471
0.316667
0.259798
-0.179617
0.400350
-0.876947
0.380054
-0.250725
-0.516055
0.216562
0.334267
-0.233129
0.776373
0.337074
0.931463
-0.523959
-0.628362
0.923001
0.578421
0.970553
-0.839040
0.823189
0.590966
0.542653
0.232222
0.355738
0.172924
-0.428255
-0.402057
-0.100068
-0.508389
0.213266
-0.611574
0.271357
0.966078
0.826298
0.183983
-0.927831
0.045577
0.920821
-0.742270
0.897838
-0.667625
1.014210
-0.103217
-0.454566
-0.357496
0.781018
-0.176232
-0.921328
-0.568148
-0.339806
-0.534858
-0.685082
0.389426
-0.500328
-0.551517
-0.012042
-0.305565
-0.254426
0.170802
-0.688684
-0.352732
-0.754042
0.032408
0.939665
-0.271554
-0.348122
-0.267087
-0.745416
0.631511
-0.301872
0.996133
-0.187352
0.316929
-0.676887
-0.238845
0.168955
0.148996
0.658441
0.457417
-0.237055
-0.380060
0.392847
0.388551
0.498678
0.951985
-0.556638
0.767046
0.736889
0.756830
0.007207
-0.409574
-0.796800
0.223337
-0.668510
-0.141471
0.410803
-0.373960
-0.009670
-0.156419
-0.468501
0.729167
0.255093
0.532879
0.642789
-0.836143
0.165654
0.004466
0.464462
0.395307
0.118053
0.496005
-0.033602
-0.558692
-0.737809
-0.337446
0.606385
0.457340
0.680928
-0.073026
0.487442
-0.267085
0.894813
0.363630
1.000309
-0.438553
-0.912317
0.214050
0.951731
0.669718
0.929328
0.903219
0.561024
-0.542315
-0.179966
0.777351
-0.911207
-0.105610
-0.274126
-0.290984
-0.528465
-0.819554
-0.059690
-0.156542
0.162655
-0.249455
0.967766
0.793157
0.612116
0.706764
-0.533900
-0.221923
0.126359
0.330843
-0.381304
0.783709
0.984121
-0.450885
0.898776
0.616498
-0.529860
0.643838
-0.811759
0.383832
-0.768790
-0.445483
-0.872546
-0.829544
-0.126520
-0.488367
-0.734534
0.573216
-0.941683
0.753284
-0.355033
-0.437772
0.328286
-0.626629
-0.895065
-0.308073
-0.749775
-0.368686
0.249831
-0.713034
-0.021858
0.787793
0.192614
-0.392890
0.192594
0.988545
-0.145326
0.393804
0.658204
-0.769464
-0.404177
0.926174
0.170577
0.358434
-0.838550
0.037941
-0.501573
1.012627
0.947326
0.609843
-0.336621
0.306225
0.518715
0.299186
0.124246
-0.215188
0.534558
0.033294
0.058866
0.432337
0.349819
0.191932
-0.493118
-0.175781
-0.554266
-0.093097
0.873542
0.959024
-0.321713
-0.621071
0.542589
-0.753382
0.301455
-0.394573
-0.230070
0.768343
-0.140420
-0.536864
-0.257109
0.638487
-0.883618
-0.258861
0.783941
0.060345
0.105004
-0.274392
0.469451
-0.739145
-0.501529
-0.995613
0.418896
-0.904000
-0.203066
-0.304711
0.486942
0.128856
0.110218
-0.798935
-0.573109
-0.284189
0.443191
0.862090
0.463542
-0.242623
0.841656
-0.412544
-1.007466
0.184798
0.207273
-0.717022
0.895097
0.859697
-0.699797
0.020238
-0.522931
0.549177
0.917175
-0.768092
-0.596778
0.276249
0.988619
0.880793
0.147470
0.578359
0.572932
0.839210
0.276243
0.793368
0.218609
-0.788336
-0.422800
-0.916668
-0.588936
-0.153283
-0.119735
-0.938236
-0.529525
-0.422361
-0.422650
0.032262
-0.735119
-0.028695
0.231642
-0.339199
0.571881
-0.014215
0.936572
0.280223
-0.689613
0.017267
-0.734471
0.899569
-0.266064
0.172966
1.013098
0.044369
-0.613041
0.759033
1.007945
-0.803924
0.439083
-0.525010
0.556468
0.579048
0.936192
-0.957653
0.915115
0.947183
-0.638956
-0.215812
-0.746355
0.102966
-0.725440
-0.902091
-0.284358
-0.477938
0.285535
-0.215442
0.175487
-0.267241
0.197607
0.738875
-0.277376
-0.314469
0.103599
0.540265
0.153997
0.389199
-0.487876
-0.351202
0.977355
0.444313
-0.434908
-0.278323
-0.170817
-0.426500
0.708198
-0.476673
0.733248
-0.764508
-0.090439
0.592102
0.469417
-0.021833
-0.549103
-0.938569
0.277724
0.548137
-0.345945
0.617088
-0.884831
0.931356
-0.164829
0.641964
-0.098352
0.834615
0.463513
-0.400973
-0.832249
0.003352
0.896960
-0.768495
0.739594
0.058454
-0.350140
0.914249
-0.756584
-0.028186
-0.115198
0.415625
-0.014044
0.947370
-0.158336
0.548312
-0.407011
-0.986277
-0.798311
0.776744
0.641217
0.944337
0.828602
0.572338
0.276713
0.089431
0.222599
-0.051916
0.739872
0.776688
-0.677832
0.708338
0.662848
-0.279224
0.883856
-0.062610
-0.254218
-1.002690
-0.234246
-0.767874
-0.100320
-0.646227
-0.229055
0.095229
0.911696
0.484136
0.676667
-0.942067
-0.361526
0.426150
-0.148082
0.057454
0.728924
-0.292813
-0.289181
-0.826245
0.223191
1.069174
0.525343
-0.157096
0.925904
-0.514670
0.224993
0.561594
-0.860737
-0.896804
-0.718884
0.397178
0.870395
0.888802
0.882651
0.424607
0.031483
0.539087
-0.341827
0.060467
-0.979938
-0.067095
0.620473
-0.888102
0.778204
0.250335
-0.448541
-0.496360
0.591806
-0.146934
0.213395
0.664470
-0.361343
0.718993
0.150376
0.713375
0.122592
0.410766
-0.020554
-0.451490
-0.147591
0.721879
0.027003
0.269338
-0.114900
0.809102
0.298337
0.458704
0.242641
-0.275110
0.093823
0.401505
-0.505567
-0.527545
0.319382
-0.262767
-0.365913
-0.220223
-0.330592
-0.653590
-0.296370
-0.195252
1.071791
-0.250239
0.352439
-0.535238
-0.454614
-0.145459
-0.524480
0.210575
-0.513156
-0.642563
-0.108607
-0.605582
-0.898150
-0.025950
-0.423563
-0.706125
0.905334
0.534532
-0.356263
0.055417
-0.274061
0.473013
-0.244920
0.725456
-0.030294
0.276173
0.042831
0.678096
-0.752262
-0.311295
0.712467
0.138240
1.085783
0.170955
0.093027
-0.549317
-0.246440
-0.151923
0.299937
-0.594377
0.621733
0.028793
0.051511
0.414124
-0.017147
0.928074
-0.584940
0.901295
-0.795633
0.260023
-0.315100
0.874481
0.510078
0.544406
0.186029
0.035266
0.994618
0.227239
-0.416907
0.238616
0.071574
-0.829344
-0.696821
-0.364980
-0.505614
-0.104918
-0.852972
-0.611209
0.093554
-0.931376
-0.909867
0.966450
0.422562
0.228554
-0.557783
1.027961
0.743514
-0.369403
-0.618285
-0.214806
0.852476
0.267872
-0.989877
-0.508645
0.450493
-0.124547
-0.567079
0.741207
0.835418
0.558988
-0.630475
-0.228843
-0.609820
0.561099
-0.688822
0.232267
-0.172163
-0.199258
-0.227017
-0.749448
0.870063
-0.361274
-0.534560
-0.903999
-0.926356
-0.732619
0.674143
-0.901720
-0.370116
-0.398883
-0.702721
-0.851400
-0.059279
-0.101118
-0.778278
0.293807
-0.866932
0.785561
-0.284566
0.482625
-0.188788
0.488586
-0.258045
0.387569
-0.444280
0.993443
0.381235
0.947529
-0.859163
-0.012286
-0.636568
0.531694
-0.858087
-0.710688
0.937448
-0.147429
0.458953
-0.047842
-0.603032
0.692210
0.517866
-0.051683
0.182407
0.333709
-0.707906
0.665441
0.712645
0.891524
0.509856
1.091222
-0.370393
-0.604195
0.768792
0.346178
-0.529249
-0.731586
0.451587
-0.946996
0.146944
0.534159
0.469029
-0.647667
-0.877088
-0.147758
0.666494
-0.115179
0.056034
-0.010324
0.590435
-0.934066
0.532669
0.026714
0.315700
-0.134928
0.458877
-0.201942
-0.044443
-0.386211
0.979298
0.717976
0.914142
0.295174
0.741789
0.519628
0.326082
0.053869
0.433191
-0.310819
0.346317
-0.999316
-0.426051
0.404233
-0.194204
-0.960805
0.186810
0.386501
-0.596738
-0.369860
-0.864877
0.976004
0.204016
0.244234
-0.207742
-0.873862
0.978137
0.405836
-0.295806
-0.764776
0.064659
-0.038817
1.097864
-0.076654
-0.102941
-0.482194
-0.226264
-0.867493
-0.012776
-0.633181
-0.195544
0.497694
-0.836680
-0.105983
0.728013
0.682828
0.112445
0.293253
-0.644167
-0.586884
-0.958535
-0.266825
-0.410604
0.929339
-0.618646
0.838911
-0.702682
-0.882349
-0.841757
-0.460905
-0.419497
-0.016692
0.012986
0.626125
-0.985737
0.793697
0.737739
-0.610466
-0.977303
-0.190299
0.273520
0.732812
0.068624
-0.488428
0.052051
0.393831
-0.818826
-0.804199
0.438669
-0.426776
-0.216814
-0.178634
-0.837414
-0.322562
0.173284
0.987949
0.228146
0.509174
-0.665320
0.309351
0.062659
-0.332397
0.247814
0.400833
0.194854
-0.520551
-0.728795
0.335318
-0.115442
0.451152
0.174410
-0.397732
0.627634
0.605100
-0.543307
-0.244860
0.515162
0.602596
-0.891697
-0.653019
-0.261175
-0.285767
0.643930
-0.770494
0.317279
-0.831840
-0.493976
-0.827348
-0.800216
-0.649276
-0.662102
-0.258036
0.125259
-0.113729
-0.085490
-0.445741
0.571624
0.816952
0.181765
-0.335112
0.498324
-0.399048
0.113883
-0.876765
0.682573
0.490813
-0.876114
-0.175447
0.023903
-0.101141
-0.869898
-0.392274
0.440790
0.808164
-0.258085
0.597110
-0.080771
-0.848855
-0.816251
0.059401
0.077458
0.257851
-0.505826
0.861831
-0.449362
0.154622
0.457575
-0.811293
0.319883
-0.882859
0.623854
-0.714707
-0.492659
-0.329422
0.434101
0.667297
0.901480
0.191396
0.988440
0.501095
0.438135
-0.286638
0.141974
-0.663151
-0.370548
0.874735
-0.762581
-0.713572
0.803442
-0.463718
-0.956751
-0.322695
0.424069
0.963505
-0.833538
0.350471
-0.635083
-0.320280
-0.530426
0.237820
0.673586
-0.716002
-0.108314
0.557822
0.139106
0.466500
0.789657
-0.177693
0.969018
-0.622770
-0.240350
0.374381
0.440080
0.574862
0.821194
-0.890874
-0.151484
-0.781415
-0.694162
0.882399
0.601085
0.006950
0.685085
-0.624858
-0.822688
-0.281181
-0.211625
-0.228453
-0.658369
0.698386
-0.532526
-0.184046
0.667786
-0.552297
0.242600
0.304147
-0.337412
-0.547696
-0.055643
0.353837
-0.259879
-0.845629
0.088281
0.323038
-0.313939
0.529733
-0.879287
-0.663505
-0.139379
0.794297
-0.598932
0.468249
0.165025
0.370259
-0.700296
-0.654567
0.538327
-0.701192
-0.218070
-0.679055
-0.856104
-0.885791
0.890032
0.752424
0.364405
0.530081
0.527802
-0.124286
-0.794541
0.127398
-0.293758
-0.105113
-0.277998
0.491594
0.671391
0.483043
0.089275
-0.772928
-0.060494
-0.827549
0.995067
-0.571176
0.378154
-0.955801
0.203688
0.795124
-0.215020
0.460319
0.520584
-0.247839
-0.328694
-0.022927
0.180687
-0.555424
-0.415147
0.653989
-0.104640
0.152118
0.007353
-0.597209
0.634115
0.757912
0.123880
-0.600680
-0.459943
-0.832458
-0.100133
0.283228
0.271366
-0.331921
-0.249674
0.427556
-0.044569
0.411901
-0.883986
-0.959052
0.451429
0.728110
0.389173
0.708755
0.076319
-0.928334
-0.717197
-0.213610
-0.495509
0.391648
-0.200799
0.489303
-0.404106
0.339843
0.172351
-0.465750
0.117136
0.083972
-0.498982
0.589259
-0.635866
0.086690
-0.126476
0.873135
-0.861146
-0.546760
0.058279
0.379279
0.984905
0.881575
0.789545
0.559326
-0.124627
-0.556736
0.144876
-0.191605
-0.039409
-0.917418
0.602525
-0.267185
0.759447
-0.078223
0.203998
0.484700
0.771671
0.622219
0.019524
-0.902177
-0.741446
0.483811
-0.515766
-0.929533
0.524852
-0.860973
-0.199049
-0.256226
0.453566
0.316874
1.029527
0.063745
0.709755
-0.937658
-0.972687
0.448835
-0.405535
0.855851
-0.025541
-0.410849
-0.543780
0.846637
0.697640
0.812938
-0.048192
-0.655647
0.692239
0.037377
0.550173
0.536860
-0.752397
-0.511531
0.345322
0.398526
-0.496871
-0.381060
0.329836
-0.711338
-0.892368
-0.869010
-0.522256
-0.673197
0.370483
0.946072
0.253124
0.086831
-0.951238
-0.615848
-0.079529
-0.659058
0.030575
-0.064908
0.783516
-0.307532
-0.986016
-0.614286
-0.879596
-0.773593
0.186707
-0.753797
-0.408710
0.690645
-0.811451
-0.209116
-0.514073
0.685728
0.759147
-0.545498
-0.322935
0.852752
0.618444
-0.040603
0.663804
-0.383229
-0.465505
-0.983985
0.211192
-0.652167
0.320883
0.017304
-0.329455
-0.673632
0.686527
0.083094
0.038381
-0.893122
0.157685
-0.493074
0.215525
0.067191
0.643140
-0.494206
-0.203542
-0.778476
0.570266
0.692801
0.794540
-0.386124
0.590353
-0.535108
0.050912
0.535156
0.956025
0.715640
-0.010085
-0.540203
-0.658745
0.534071
-0.714941
0.969691
0.498986
-0.348570
0.961435
-0.190942
-0.186003
-0.095759
0.481609
-0.162484
0.623489
-0.648465
-0.883858
-0.860708
-0.650190
-1.003292
-0.182264
0.248781
0.251505
-0.301280
-0.457492
-0.516769
-0.446382
-0.227381
-0.262683
-0.826345
0.834721
-0.939970
-0.598421
0.066142
-0.410390
0.869410
0.383181
0.205589
0.974143
-0.838194
-0.834170
-0.868936
-0.437583
-0.405501
-0.216817
0.842340
0.807020
-0.797291
0.380990
0.294828
-0.024436
-0.321866
-0.445490
0.969351
-0.118082
0.091826
0.676053
-0.797286
0.679531
0.437338
0.473767
-0.524592
0.131840
-0.905885
0.434318
-0.472292
0.324746
-0.102397
0.651514
-0.176781
0.056185
-0.934845
-0.234426
-0.131406
-0.166899
0.914854
0.290463
-0.034458
-0.710187
-0.223462
0.091819
0.171385
-0.575967
0.479029
1.020055
-0.061505
0.612395
0.705634
0.020006
0.366074
0.186773
0.741171
0.767927
0.975221
-0.196737
0.622955
0.256438
-0.353906
-0.900034
-0.830714
-0.699989
-0.957840
-0.164889
-0.907071
-0.974039
-0.651798
0.417429
-0.530184
-0.659509
-0.591441
0.355997
0.339112
-0.229708
1.016780
0.807457
1.002663
-0.017138
-0.950092
0.259788
0.782533
-0.161499
0.892791
-0.803281
0.031365
-0.869581
-0.411433
-0.417833
-0.703841
0.788076
-0.480067
-0.659264
-0.565785
0.272110
0.062147
-0.242094
-0.865140
0.220232
-0.641719
-0.921513
-0.184820
0.581387
0.200965
0.138200
-0.537546
-0.257124
-0.984450
0.341521
0.308103
0.277054
0.741423
0.326581
0.923254
0.324564
0.261596
-0.840077
0.664244
-0.807560
-0.500100
-0.063636
-0.971958
0.378390
-0.525050
-0.266172
-0.298951
0.224171
-0.458123
-0.143216
-0.243385
0.700791
-0.230910
-0.068291
-0.628295
-0.661298
-0.314435
0.203395
-0.350928
0.276943
0.981053
0.735475
1.068369
-0.626256
0.100807
0.102703
-0.778142
0.479763
0.309297
-0.549465
-0.426753
-0.769892
-0.110215
-0.948679
0.556572
0.028732
0.926080
0.898786
0.309748
-0.305655
0.579048
-0.663031
0.898168
-0.890085
-0.793946
0.302467
0.193231
0.839432
0.464298
-0.428021
0.505887
-0.562440
0.020327
-0.328957
0.151510
0.971277
0.454542
-0.468338
-0.858315
-0.563815
-0.234522
0.778861
0.645770
0.167994
-0.572065
-0.930383
-0.580568
0.988603
0.262945
0.734536
0.454933
-0.769032
-0.278564
-0.784353
0.144368
0.951931
-0.811485
-0.256777
0.751763
-0.250781
0.357884
0.062107
-0.389937
0.638363
0.598671
0.964879
0.987812
0.939585
0.147275
-0.156471
0.016796
0.854427
0.429154
-0.073932
-0.416791
0.876301
0.748019
-0.965090
0.157679
-0.304493
0.695431
-0.201135
-0.019321
0.788546
-0.277393
0.465622
0.033034
1.100348
-0.990312
-0.551408
-0.304928
0.062365
-0.855322
0.090390
-0.290113
-0.752460
-0.147765
-0.693894
-0.887216
0.360416
-0.797752
-0.942515
0.655116
0.476024
-0.143168
0.366512
0.612536
-0.968690
-0.760222
-0.227693
0.776563
-0.084567
0.688725
-0.896014
-0.736409
0.195471
0.677359
-0.771334
-0.627704
0.818030
-0.650741
-0.568173
0.485268
-0.698503
-0.305230
-0.893158
0.189074
-0.619116
0.148147
0.023799
-0.691886
-0.736145
-0.172184
-0.397966
0.491727
-0.746323
0.853660
0.211933
-0.726820
-0.239774
-0.419752
0.789374
-0.705826
-0.440476
0.776674
-0.599254
-0.621218
-0.094541
-0.261889
-0.858033
0.373374
0.183985
-0.501922
-0.766023
0.054987
0.961229
0.305754
-0.284781
0.281863
0.637733
-0.213278
-0.373767
0.844228
-0.673688
0.167996
0.564762
-0.016724
-0.487774
-0.048662
-0.517053
-0.818672
-0.128629
0.166769
0.374331
0.890994
-0.397192
0.678528
-0.644728
-0.536144
0.080880
0.753468
-0.234862
0.745080
-0.418569
0.416781
0.102587
-0.496375
-0.515353
-0.116166
-0.407798
0.426892
0.682958
0.563860
-0.224383
-0.418218
-0.353560
0.451970
-0.286235
0.525641
-1.016356
0.566941
-0.707450
0.660139
-0.171905
0.278904
-0.098541
0.674588
-0.404981
0.401758
0.151709
-0.159757
-0.974027
-0.442869
0.411713
-0.757868
-0.533288
-0.536008
0.533160
0.168798
-0.966126
-0.234883
-0.180627
-0.709277
-0.820976
0.242226
-0.479038
0.198777
-0.184004
0.350405
0.162196
-0.425935
-0.969964
-0.027014
-0.255216
0.950344
0.564347
-0.256383
0.520549
-0.993661
0.690565
-0.129795
-0.403167
0.288715
0.959435
0.312871
-0.709640
0.227554
-0.312918
-0.631294
0.316881
-0.461843
-0.168802
0.416980
-0.872277
-0.719663
-0.916228
-0.678378
-0.332644
0.738286
-0.682735
0.606248
0.271883
-0.303751
-0.285422
0.823663
0.908389
-0.194747
0.378820
-0.251730
-0.344387
-0.298844
-0.678287
0.498627
-0.332003
-0.937157
0.194262
0.001363
-0.256147
-0.898703
-0.754801
-0.155502
-0.027117
-0.135489
0.817937
-0.813007
0.683801
-0.098512
0.834812
0.703256
-0.031414
-0.796338
-0.442546
-0.548447
-0.385292
-0.258503
0.688372
-0.688779
0.880267
0.341352
-0.343108
0.664373
-0.892559
0.821521
0.595590
-0.188668
-0.144786
0.510708
-0.074805
-0.155624
-0.688986
0.630267
0.838631
-0.512119
0.015260
-0.161683
0.306493
-0.228095
-0.418134
0.026790
0.701219
-0.579012
0.703569
0.345842
0.463991
-0.944770
0.806880
0.378403
1.095913
-0.754071
-0.400164
-0.105777
0.711386
-0.315964
0.315166
0.961621
-0.165736
0.136025
0.037741
0.534128
0.669791
0.406821
0.587874
-0.666604
0.656955
0.927129
0.176927
-0.073043
0.967344
0.902647
-0.618988
-0.767751
0.345502
0.626285
0.825618
0.660966
-0.871447
1.008232
0.229540
-0.191233
-0.645772
0.321231
0.861962
0.749028
0.023159
-0.740001
-0.444629
-1.086151
-0.265593
0.380669
-0.188375
-0.551981
-0.625365
0.082560
0.414171
0.601595
-0.762665
-0.951181
-0.756606
-0.742114
0.097923
-0.719490
-0.307840
0.257712
-0.863409
0.846270
-0.284592
0.975358
-0.777186
-0.555793
-0.239999
-0.295485
0.581527
-0.270683
0.363884
0.484800
-0.499768
0.700194
0.004599
-0.323605
0.556435
0.665989
0.177786
0.033222
0.920937
0.560182
0.698974
-0.887488
-0.517112
-0.655738
0.090668
-0.368408
0.440067
-0.042600
0.680236
0.360506
-1.015578
0.097503
-0.721391
0.372006
-0.319544
-0.592928
-0.613932
-0.652509
0.278206
0.864064
-0.166486
-0.124289
-0.684381
0.049948
-0.578024
0.331482
-0.759421
-0.204724
0.943620
-0.097077
-0.836938
0.235909
-0.726510
-0.453137
0.231188
-0.649285
0.424135
-0.590898
0.435874
0.815538
-0.478591
-0.340965
1.102483
-0.832948
-0.141713
-0.155118
-0.346099
0.068930
-0.585037
-0.247989
-0.171085
-0.281634
-0.187792
0.480321
0.852484
0.022597
-0.311296
0.646528
0.743923
-0.706874
0.206649
-0.641385
-0.433198
-0.948703
0.152436
-0.863943
-0.944564
-0.918929
0.970585
0.384667
-0.883430
0.393719
0.670353
-0.156340
0.479712
0.398823
-0.627204
-0.420655
-0.189577
-0.891891
0.704408
-0.129885
0.844022
0.008116
0.329759
-0.671840
0.098343
0.892359
-0.594652
-0.481198
-0.568646
0.524639
-0.566116
0.067798
-0.694407
0.987086
0.378162
-0.638654
-0.350127
-0.422259
-0.795947
0.331966
-0.559907
0.723906
-0.477605
-0.439202
-0.501978
-0.962598
0.149073
-0.117856
0.683374
-0.583099
-0.254052
0.328418
-0.427498
0.380482
-0.076971
0.029410
0.631085
-0.565175
0.823936
-0.554047
0.461875
-0.135203
0.737523
-0.573908
0.094113
0.154888
0.135421
0.048667
-0.752345
0.034957
0.955571
0.806806
0.426181
0.403365
0.799572
0.510306
0.050059
0.388801
-0.137652
0.648986
-0.211266
0.697468
-0.497353
-0.839318
-0.672067
0.641919
-0.037762
-0.592917
0.401736
-0.374779
0.624291
-0.392153
0.058522
0.365259
-0.552009
-0.145862
0.701435
-0.206848
0.046447
-0.165006
0.769629
-0.156085
-0.838623
0.246461
-0.810738
-0.824963
-0.299564
-0.354809
-0.377699
0.916635
0.095167
0.527899
0.896666
0.866550
0.305646
0.064321
0.181286
-0.314006
0.501493
-0.798786
-0.758854
0.183392
-0.408244
-0.516530
0.212624
0.415709
0.958450
0.310988
-0.533294
-0.423617
-0.513100
-0.325954
0.772468
0.823197
0.619325
0.661536
-0.562949
0.547399
-0.834987
0.534595
0.712374
-0.069642
0.954681
0.960358
0.997251
0.511479
-0.799774
0.318067
0.903347
-0.905292
-0.563647
0.224724
0.065317
0.699389
-0.450795
0.034446
0.795920
-0.065070
0.413633
0.031353
0.868243
0.830695
0.818580
0.372460
-0.266893
0.967810
0.416174
0.833129
0.103929
-0.741495
0.409783
0.557387
0.812809
-0.826184
-0.227790
-0.159363
-0.908241
-0.278417
0.224200
-0.439400
-0.942605
0.700898
-0.849531
0.978181
0.447245
-0.951570
-0.676430
-0.810128
-0.730522
1.081168
0.969959
-0.258245
-0.436156
-0.076002
0.978444
0.446449
0.226392
-0.563540
0.921798
-1.005101
-0.140851
-0.216666
-0.871754
-0.224011
-0.370174
-0.121496
-0.519045
0.435419
-0.564720
-0.722748
-0.295440
0.066322
-0.830558
-0.102998
0.395397
0.725760
0.442949
-0.884450
-0.429054
-0.241761
-0.280042
0.462030
0.126948
0.998864
0.164083
0.443687
-0.711719
-0.451671
-0.003357
-0.546039
-0.262069
-0.143506
-0.204150
0.287679
-0.554731
0.369473
-0.453358
0.486535
0.004394
0.582678
0.231281
-0.182811
-0.454069
-0.978013
0.865731
0.185725
0.398054
-0.070989
1.029248
0.210505
0.895116
-0.277778
-0.221667
-0.134956
0.748244
-0.622088
0.913237
0.721682
-0.097730
-0.597389
0.262553
0.718578
0.926518
-0.812276
-0.015403
0.556723
0.079691
0.574119
0.912106
-0.116288
-0.804222
0.247936
-0.665849
-0.289230
0.897793
0.115367
-0.628469
0.478402
0.497403
0.440769
-0.471395
0.719857
0.911541
-0.555336
0.316006
-0.166833
0.541019
0.495725
-0.113565
0.810776
-0.237370
0.188461
-0.937207
-0.744458
0.456594
0.146224
0.229878
-0.456856
0.845719
-0.947379
-0.615627
-0.757612
0.153267
-0.033691
0.500787
-0.173389
-0.428876
-0.529441
0.008530
0.187564
-0.245552
-0.766839
-0.857379
-0.917567
-0.491482
0.945629
-0.015714
0.662597
-0.320445
0.916168
-0.080913
-0.340476
-0.513079
0.905784
-0.855720
-0.868453
0.649860
0.189219
0.240202
-0.440733
-0.380647
0.599054
0.732721
-0.716550
-0.089113
0.444101
-0.727049
-0.667702
1.010261
-0.381178
-0.210969
0.132003
-0.208370
0.995777
0.973009
0.449605
0.929603
-1.017067
0.789434
0.659350
-0.549624
-0.903510
-0.310189
-0.004395
0.678829
-0.539670
0.283821
-0.221422
-0.967548
0.469268
0.319700
-0.098842
0.781501
0.062498
0.537584
0.199004
-0.831111
0.855106
-0.646922
0.574402
-0.716797
-0.066319
1.003833
-0.784617
0.215312
0.543807
-0.332640
-0.604159
0.771557
0.203742
-0.567970
-0.802670
-0.962770
-0.913320
-0.144049
-0.401170
0.513554
-0.438076
0.572785
0.181085
0.699984
0.792702
-0.784277
-0.023766
-0.794768
-0.154317
0.214274
1.022719
0.405136
-0.830478
0.758827
-0.257137
-0.838716
-0.556229
0.686805
0.975495
0.099913
-0.431433
-0.779949
0.516198
-0.715427
0.175354
-0.093970
-0.890750
0.806111
0.551645
-0.780291
0.542703
0.855637
0.489610
0.406921
-0.382302
0.699025
0.070904
0.566575
-0.272915
-0.743587
0.976856
0.923132
0.524114
-0.834369
0.955335
0.033614
-0.792674
-0.910427
-0.508552
0.127539
-0.013511
-0.229777
-0.972290
-0.952677
-0.088691
0.789386
0.959597
-0.546824
-0.343902
0.525300
0.477930
-0.473452
0.591889
0.369647
0.363069
-0.967412
0.487422
0.323524
-0.325800
-0.372279
1.046845
0.922698
-0.639049
0.093263
-0.504479
-0.056936
0.511211
-0.565660
-0.126963
0.222280
-0.762179
0.374164
0.389150
0.178336
-1.001551
0.610802
0.975835
0.452770
-0.447291
-0.832572
-0.641693
0.239739
-0.237602
-0.695541
0.283985
0.622726
0.798986
0.632478
0.549421
0.431793
0.215207
-0.045281
-0.771948
-0.654140
0.445563
-0.835141
-0.035648
-0.504352
-0.866077
0.332134
-0.289496
-0.928633
0.012045
-0.682736
0.417343
-0.189088
0.829927
0.551350
0.092900
0.790287
0.905707
0.677155
0.731685
0.301333
-0.392111
-0.894167
-0.852483
0.433282
0.325739
0.045418
-0.698431
0.653257
0.005747
-0.619219
-0.523237
0.211925
0.439073
0.610119
-0.698365
0.365105
-0.369266
-0.302050
0.887204
0.140663
-0.155220
-0.662214
0.221003
0.660822
-0.102638
0.987594
0.787752
-0.350283
-0.400270
-0.912227
0.100950
0.661762
-0.145344
0.227551
0.815911
-0.371322
0.878725
-0.801851
-0.323417
-0.810802
0.940292
-0.202303
-0.019558
0.652933
0.310503
-0.497914
0.517290
0.486883
-0.201970
-0.582304
-0.376983
-0.454439
-0.180955
0.744327
-0.736660
0.794467
0.281738
-0.328072
-0.232362
0.124835
-0.879789
-0.819271
-0.291359
-0.441827
-0.079491
-0.363395
-0.846301
-0.630494
-0.509833
1.032575
-0.339511
-0.631786
-0.385645
0.236167
0.889438
0.151282
0.586309
-0.525269
0.189735
-0.994814
-0.331378
-0.601179
0.388657
0.828423
0.239408
-0.901608
0.487725
0.005880
0.985827
0.499445
0.813589
0.641796
-0.783988
-0.234015
-0.884137
0.013958
-0.377273
-0.829579
0.840660
0.250583
-0.147501
-0.229497
0.390026
-0.387839
0.123407
0.826378
0.264878
-0.659153
-0.468534
0.834794
0.721058
0.666768
0.259765
0.800912
0.069169
0.534125
0.661281
0.621424
-0.668492
0.708727
0.015245
0.453150
0.460465
-0.268822
0.724564
-0.093373
-0.563246
0.567772
1.038668
0.210205
-0.257990
-0.758832
0.371981
0.140261
0.404936
0.877762
0.387821
-0.018068
-0.759071
-0.641634
-0.413034
-0.143050
0.265581
-0.467399
0.691752
-0.443335
0.691280
0.958728
-0.791307
-0.939213
0.859631
-0.037590
0.026524
-0.088949
0.967741
0.046969
-0.989054
-0.406419
-0.437128
-0.248848
0.120648
-0.818802
0.968093
-0.423820
-0.517104
-0.705816
0.122967
0.455241
0.623171
0.632054
0.760019
-0.796562
0.106688
-0.243397
0.734412
0.705320
-0.438851
0.631149
-0.728927
-0.987798
0.964252
0.857887
0.589442
0.578907
0.310921
0.210576
0.168773
-0.398353
0.337503
-0.363239
-0.633111
-0.429999
0.616747
-0.892569
0.787432
0.992434
0.224002
0.185797
0.057703
0.640512
0.782522
-0.104729
0.521822
0.195669
-0.660769
-0.589509
-0.049966
0.078712
-0.641983
-0.471836
0.293950
-0.085786
-0.839912
-0.018644
0.062172
-0.275649
-0.091547
-0.987396
0.616948
0.253362
-0.642234
-0.442363
-0.423286
0.360097
0.448323
-0.373637
0.995542
0.885812
-0.579856
-0.212991
0.241177
-0.270816
0.824097
0.656812
0.855035
-0.141956
0.901391
0.580263
-0.130754
-0.066982
-0.892439
-0.159038
-0.645941
0.666142
-0.230234
0.674373
0.930655
0.746593
-0.455281
-0.041181
0.669011
-0.597123
-0.690517
0.931101
-0.785634
0.888210
-0.091422
0.786025
-0.647573
-0.594286
0.501121
-0.020235
-0.466553
0.231783
-0.146012
0.479283
0.454758
-0.749235
-0.297031
0.253956
-0.019586
-0.861012
-0.058847
0.547249
-0.890991
0.150076
0.566606
-0.751757
-0.688403
0.200881
0.959013
0.480927
0.656157
0.077274
0.822250
0.340260
0.031670
0.350319
0.805071
-0.687627
0.522196
-0.258877
0.432217
-0.281300
-0.555300
-0.598859
-0.667811
0.428509
0.724229
-0.854414
0.936903
0.497827
-0.857967
0.911163
0.865616
0.645298
-0.129449
0.541539
0.302052
0.985636
-0.935382
-0.668122
0.963389
0.934027
1.011386
-0.691636
-0.892864
0.585952
0.720851
-0.935955
-0.626787
0.123878
0.814147
0.799018
0.368753
-0.968088
-0.172347
0.729690
0.316910
-1.003001
-0.492019
-1.015161
-0.619681
-0.161497
0.091529
0.074747
-0.662557
-0.321767
-0.723956
0.257595
0.753429
0.432605
-0.276504
0.643435
-0.607396
-0.766484
-0.497982
0.825958
-0.793086
0.910709
-0.790427
-0.452806
0.406654
-0.083250
-0.503436
-0.187191
0.594282
-0.326840
0.515223
0.420622
-0.767065
-0.685942
-0.140678
-0.193617
0.870414
0.891728
-0.937716
-0.614578
0.240367
-0.347244
0.708877
-0.960029
-0.509566
0.040714
0.469243
0.497745
-0.714959
-0.088500
0.866997
0.514276
-0.667784
-0.535226
-0.196554
-0.822725
-0.306707
-0.596661
-0.733432
-0.736261
-0.751582
-0.664912
-0.626627
0.650437
0.609088
-0.733075
-0.406764
-0.650989
-0.090664
0.465373
0.670036
-0.647732
-0.910861
0.094545
-0.375162
-0.693985
0.345861
0.606525
0.848953
0.843322
0.836014
-0.640525
-0.940469
0.568897
-0.879994
-0.181499
0.472900
0.279860
0.804771
0.344121
-0.634180
-0.317664
0.942930
-0.310097
-0.287322
-0.057966
-0.542287
-0.895390
0.873055
0.382934
1.114713
-0.097283
0.056729
0.545617
0.786694
-0.643561
0.079170
0.128374
-0.853972
-0.544397
0.716157
0.699589
-0.747063
-0.676657
0.204545
-0.230609
0.375194
-0.074908
-0.553540
-0.612275
-0.294715
-0.820789
-0.049124
-0.231268
-0.756644
-0.647691
0.629720
0.463016
-0.666542
-0.487986
0.039372
0.011983
0.916746
0.475708
-0.564156
-0.294356
-0.753621
0.682250
0.551148
0.636456
-0.578976
-0.252564
0.797391
0.020682
-0.665169
0.147036
0.103585
-0.879526
0.851144
-0.261975
-0.804003
0.114442
-0.149455
0.084434
-0.875050
-0.686501
0.993000
-0.708704
-0.503543
0.075988
0.332174
1.036707
-0.049285
0.633704
0.638084
0.256931
0.986153
0.166261
0.644487
0.819818
0.081846
-0.960698
0.608872
-0.917484
0.424649
-0.107677
1.101243
0.286275
0.551163
0.227176
-0.967731
0.810575
-0.149025
0.611905
-0.837606
-0.488195
-0.379630
0.016261
-0.483709
0.267750
1.076751
-0.270250
0.358381
0.442301
-0.212490
0.960715
0.339740
0.935154
0.273330
-0.280455
-0.863636
0.760147
-0.919168
-0.125795
-0.108194
0.313283
-0.690822
-0.604838
-0.949530
-0.644676
-0.329775
-0.729263
0.130563
-0.825764
0.613698
0.751764
-0.712713
0.239442
0.934392
0.369713
-0.691111
-0.807000
0.406987
0.739939
0.293202
-0.066083
-0.649507
-0.643780
-0.199454
0.301446
0.290843
-0.897999
0.464210
0.809193
-0.104386
-0.032538
0.078815
0.798019
0.075759
0.148464
0.750668
-0.450610
0.174906
-0.237832
0.639391
0.373141
0.003120
-0.129937
0.569783
-0.104143
0.202529
-0.809282
-0.674019
0.905240
0.818468
-0.757311
-0.209548
0.390174
-0.367536
0.562572
-0.933044
-0.756746
0.770703
-0.975658
0.896834
-0.698007
-0.492361
-0.071586
0.521096
0.927928
0.712696
0.515721
-0.580261
-0.639655
0.052833
-0.660815
-0.921005
0.787869
0.187636
-0.845020
-0.673686
-0.207392
-0.681927
0.312133
0.921213
-0.816537
0.547230
0.428855
0.014074
0.720545
0.407690
-0.754503
0.575662
0.180987
-0.382409
0.422244
0.150686
0.492275
-0.359544
0.875694
0.528417
-0.128338
-0.006590
0.730808
0.013308
-0.534920
0.357464
-0.856265
0.218495
0.194834
-0.820752
-0.320651
0.493704
0.546180
-0.021257
0.778063
-0.281579
-0.458523
0.561389
-0.480784
-0.896891
-0.013900
0.187242
0.160566
-0.380408
0.661744
0.085030
-0.461738
-0.216238
-0.852642
-0.752677
-0.974106
-0.886662
-0.452650
-0.847113
0.610320
-0.403994
0.385507
-0.345519
0.212249
0.280686
-0.844812
0.327408
0.397229
-0.759290
0.830835
0.018661
-0.825629
-0.778173
0.080190
-0.789978
-0.157577
0.003369
0.419039
-0.842918
0.671117
0.483069
-0.981997
-0.712106
0.872141
-0.025452
0.866964
0.356990
0.075278
0.464493
0.268955
-0.671012
0.171678
0.318126
-0.324727
-0.718217
-0.015173
-0.922347
-0.435124
-0.562914
-0.591112
-0.771881
-0.872949
-0.389304
0.927487
-0.467951
-0.813947
-0.638299
-0.922998
-0.628707
-0.673982
0.752226
-0.359798
0.969956
0.357116
-0.556681
-0.600767
-0.034977
-0.872089
-0.438501
0.805348
0.739374
0.683309
0.712942
-0.700890
-0.759001
0.930302
0.462358
0.224970
-0.047023
0.763843
0.037372
-0.147664
-0.390710
0.895433
0.333354
-0.167162
0.854065
-0.593473
-0.222860
0.356073
-0.847882
0.466794
0.513493
0.313540
0.480114
1.003807
0.942954
0.680898
0.999265
0.454331
0.159473
-0.144470
0.051766
0.707820
-0.226286
-0.510488
0.437209
-0.748148
0.460875
-0.164869
0.812504
-0.052553
0.456156
-0.499576
-0.388286
-0.033104
-0.145756
0.598648
0.385382
-0.520904
0.834617
0.650307
-0.884105
-0.189345
-0.798937
0.351278
-0.580547
0.319244
0.618242
0.433051
0.495439
0.012807
-0.149650
-0.691999
-0.775735
-0.579078
-0.398353
0.442686
0.856188
-0.193199
0.570353
0.237913
0.412012
-0.523342
0.892855
-0.175494
-0.082203
0.283709
0.862016
-0.324522
0.244495
0.491503
0.840213
-0.563528
0.379110
-0.373848
-0.463255
1.079455
-0.364427
0.936035
-0.777311
0.320687
-0.351269
0.293332
0.114850
-0.425570
0.462638
0.632799
-0.127149
0.289957
1.043787
-0.854821
0.156775
-0.516592
0.528595
0.832467
0.603482
-0.916512
-0.131992
0.474275
-1.035335
-0.709530
0.641252
-0.625887
-0.000882
0.605606
-0.198143
0.781841
0.694818
0.335345
0.280920
0.747949
0.414379
0.295371
-0.058709
-0.608105
0.661624
-0.737720
-0.052157
-0.072273
0.466603
0.754362
-0.697141
0.210501
-0.673005
0.867875
0.774538
0.644325
0.549378
-0.534091
0.140289
-0.670454
-0.664525
0.458255
-0.867120
0.571023
0.932787
-0.031532
0.710641
0.084191
0.328230
0.271550
-0.795163
-0.081640
-0.064318
0.422254
-0.639240
0.333949
-0.258032
-0.552483
0.546453
-0.390044
-0.448952
-0.077015
-0.934501
0.232775
0.356949
0.291488
0.957696
0.498020
-0.807125
0.982597
0.989525
0.730434
-0.693278
0.227365
0.147239
0.734253
-0.046688
-0.088010
0.662946
0.000818
0.482806
-0.732383
0.816492
-0.704628
-0.903677
-0.957761
0.347857
-0.256592
-0.649860
-0.635356
0.410179
0.953969
0.983492
0.110200
-0.481445
-0.263760
0.016844
-0.559554
-0.158083
-0.510242
0.391382
0.398832
-0.646967
0.350278
0.140344
-0.117573
-0.818303
1.026100
0.631806
-0.594622
0.438503
-0.048326
-0.099128
0.333366
-0.981748
0.920050
0.739630
0.853825
-0.580919
-0.144072
-0.258381
-0.588813
-0.691186
0.359108
-0.437331
0.255599
0.906079
0.434433
0.631432
0.442231
0.152775
-0.116969
0.902403
0.863161
0.184471
-0.258210
-0.540597
0.195917
-0.314813
-0.006305
0.964167
-0.176138
0.950946
-0.626455
-0.664045
-0.618541
0.522706
0.856414
0.121726
-0.352672
-0.128195
0.447627
-0.715185
-0.446482
-0.072053
0.464532
-0.114593
-0.789970
0.536695
0.642677
0.300888
-0.659026
0.941855
0.993983
0.436193
0.360010
-0.703783
-0.103645
-0.356731
-0.532846
1.011104
0.855255
0.400279
-0.259830
-0.863857
0.579610
-0.932331
0.317945
-0.728613
-0.451705
-0.305589
0.916162
-0.334470
0.820395
0.296944
-0.310559
0.678203
0.917821
0.370051
0.750539
0.080059
0.878886
-0.634384
0.374535
-0.570267
-0.872872
-0.412926
0.376474
0.462497
-0.529118
0.495265
0.240580
-0.260299
0.997895
-0.217091
0.519635
0.953177
0.481828
0.943060
-0.365564
-0.120402
-0.859653
0.744015
-0.555672
0.956078
-0.409128
-0.779200
-0.626097
0.603678
-0.524581
0.029573
0.043227
-0.503652
0.925939
-0.681911
-0.895392
0.720618
-0.048036
0.912684
-0.417592
-0.164318
0.675976
1.215030
-0.352439
-0.663938
-0.904957
0.663353
0.924907
-0.364300
0.749566
-0.207447
-0.706868
0.561770
0.294819
0.799739
-0.804464
-0.141674
0.134296
-0.743371
-0.160070
-0.499151
-0.406643
0.926038
-0.840478
-0.552052
0.880070
0.442929
0.278844
0.831332
-0.537722
0.744514
0.272658
0.949068
-0.771581
0.424436
0.556687
0.613736
-0.665854
-0.374806
0.091960
-0.971290
-0.928614
-0.641167
0.973612
-0.051633
-0.129902
0.839119
0.214369
-0.077936
0.004108
-0.551581
-0.675525
-0.578429
0.676441
1.003094
-0.484808
0.826160
-0.236180
0.392810
-0.194160
-0.522026
0.236198
0.444361
0.211985
0.304075
-0.278927
-0.030505
-0.678742
0.808151
0.186851
0.076705
0.671876
0.525309
-0.832345
0.201916
-0.033653
0.979910
-0.555775
-0.422594
0.776713
0.434962
0.952353
0.948646
-0.615555
-0.679786
-0.003788
0.186994
0.885079
-0.325743
-0.153741
-0.547972
0.784270
-0.171386
-0.655699
0.881924
-0.250752
0.879299
-0.510204
-0.213480
-0.513017
-0.226516
-0.753162
-0.487258
-0.665218
0.826239
0.299714
0.546374
0.751420
1.136100
-0.825447
-0.785290
0.919711
-0.545134
0.685500
0.652584
-0.522640
0.506453
-0.250278
0.794635
-0.886403
-0.832378
-0.388703
-0.066587
-0.164798
0.972409
-0.854077
-0.469307
-0.392024
-0.176330
-0.765467
-0.478650
0.098007
-0.766204
0.552225
0.333866
-0.137205
0.406385
-0.027190
-0.785538
-0.408204
0.374262
0.332236
-0.278495
-0.775479
0.695711
0.069867
-0.716553
-0.277886
0.088185
0.283766
-0.888347
0.807531
0.569845
-0.240314
0.488405
-0.209384
0.704182
0.901442
0.595868
-0.895441
-0.638109
-0.910506
0.110105
-0.240688
0.628719
0.445132
0.474342
-0.462948
-0.143611
0.905950
-0.985980
0.951010
0.613080
-0.580980
-0.486557
0.258605
-0.256017
0.545991
-0.648954
-0.735586
-0.284384
-0.902383
0.864287
0.253238
0.491791
0.481487
-0.184877
0.370636
-0.541867
-0.501974
-0.122011
-0.766479
0.357940
-0.137772
0.180506
-0.400117
-0.766263
0.481838
0.720854
0.964911
-0.873383
-0.225918
-0.645478
0.935620
-0.239152
-0.923522
-0.389010
-0.369644
-0.771249
0.344298
-0.125605
0.407037
-0.373524
-0.584034
-0.075400
-0.424059
0.536887
-0.876833
0.383298
0.387837
0.811432
-0.097875
0.706352
-0.114336
0.195457
-0.451556
-0.793387
-0.960829
-0.284056
-0.105821
0.682064
-0.266021
-0.954186
0.270953
-0.226308
-0.619948
-0.227591
0.691646
0.618513
-0.714560
-0.782546
0.248157
-0.206911
-0.027503
0.754568
0.408846
0.554125
0.563661
-0.056217
-0.024943
-0.782470
-0.349269
0.208416
-0.701673
-0.186917
0.813221
-0.168536
-0.826986
-0.184520
0.259485
-0.180770
-0.038692
-0.327280
0.443244
0.696584
-0.618781
-0.289536
0.919752
-0.105716
0.755267
-0.093303
0.410470
0.222237
-0.768354
0.464894
0.396471
-0.602841
0.107805
-0.051840
0.177889
-0.552507
0.399870
0.040110
0.140757
0.284236
0.362311
-0.792973
0.892475
-0.732261
0.362524
0.786774
0.305402
-0.313038
0.918922
0.518200
-0.384820
-0.562788
-0.604563
0.458927
-0.908840
0.580186
0.172901
-0.029981
0.185330
0.743699
0.610001
-0.845323
0.424143
0.071768
0.401279
0.801166
-0.621261
-0.851406
-0.974621
-0.385363
-0.153381
1.004867
-0.746966
0.746513
0.780690
0.589614
-0.647671
-0.692870
-0.575191
0.548736
0.880626
-0.994395
0.942678
-0.780458
-0.775679
-0.197835
0.403819
-0.340859
0.067217
-0.670174
0.832567
-0.402539
0.826109
-0.657424
0.918153
0.910185
-0.711345
0.387941
0.582678
-0.985990
0.870923
0.486800
0.884379
1.138458
-0.746856
0.944202
-0.050287
-0.747931
0.673391
0.360677
-0.196014
0.477287
-0.538003
-0.668423
1.002345
0.893121
-0.019825
-0.599316
0.006403
0.926773
0.266881
-0.923118
-0.654555
-0.281996
0.734098
0.080379
-0.173615
0.215108
-0.175010
0.368482
0.831911
0.444002
0.391902
-0.448864
0.202762
-0.480750
0.878511
0.116125
0.658066
-0.671143
0.096189
-0.401042
-0.864863
0.357620
0.539750
-0.089613
-0.245124
0.546301
-0.336731
-0.488302
-0.302989
0.758590
-0.923967
0.760162
-0.081494
-0.188722
0.181363
0.518204
-0.172258
-0.958775
0.084218
-0.164764
0.424110
-0.757701
-0.338427
0.716784
0.245745
-0.897872
0.027360
0.677117
0.627824
-0.685911
-0.571205
-0.281435
-0.601640
0.339901
0.121105
-0.457764
0.526037
0.606221
0.529603
0.885640
-0.093970
-0.223298
-0.071062
0.196244
-0.205200
0.357830
0.221498
-0.804429
-0.960368
-0.272137
0.799466
0.579170
-0.206140
-0.057821
0.806545
0.928773
-0.241203
-0.069263
0.415438
0.638143
0.532573
-0.541876
-0.097077
0.176324
0.109191
-0.225870
0.081357
0.717817
-0.246999
-0.700439
0.976512
0.684891
0.899024
-0.822319
0.481427
0.222107
0.818618
-0.851739
-0.276126
0.460740
-0.018855
0.216056
0.400677
0.877554
0.550854
0.915985
-0.307414
0.553712
0.124438
0.472902
0.608232
0.825780
-0.240424
-0.721117
0.831810
0.992713
0.427613
0.062160
0.594993
0.200575
0.566263
0.456821
-0.276681
0.786514
0.242938
0.828831
0.802265
0.072763
0.390169
0.228423
0.351766
0.765918
-0.157287
0.941098
-0.140627
-0.758831
0.658358
0.162471
-0.355812
0.302982
0.901007
-0.738402
0.833494
-0.872137
0.748139
-0.145582
0.869769
-0.267170
0.903009
0.738531
0.839282
0.674785
0.404625
0.334841
-0.861130
-0.240295
0.791097
0.434574
-0.110550
0.687106
0.177939
-0.076719
0.626563
-0.193380
0.322699
0.203690
-0.710377
-0.282367
0.841162
0.469186
-0.244561
-0.679764
0.617096
0.923329
0.350223
-0.393444
0.038953
-0.054520
-0.145584
0.095782
0.440277
-0.210039
-0.294782
0.320996
0.519788
0.790918
-0.418005
0.054122
0.651263
-0.669616
0.561742
0.026539
0.219233
-0.061587
-0.580176
0.412992
0.787920
0.429284
-0.046286
0.577056
0.989286
-0.213515
0.053651
1.037677
0.563535
0.976788
0.690476
0.906639
-0.768654
0.927013
-0.291317
0.813887
0.395817
0.760386
0.758317
-0.687421
0.166348
0.797416
-0.034013
0.514941
0.912373
0.315130
0.260129
-0.492550
0.589113
-0.220801
0.507689
-0.207755
0.901805
0.829373
0.977966
-0.776282
-0.834804
0.628926
-0.851251
0.717831
-0.107596
-0.404804
0.641964
-0.604698
-0.160489
-0.171205
0.510326
0.230182
-0.815042
-0.401408
0.142868
0.598316
0.043675
0.695153
-0.776435
-0.557824
-0.373253
0.758489
-0.071418
0.943422
0.326883
0.865337
-0.740512
-0.666539
-0.265433
0.880984
0.487851
0.325412
0.543997
0.796003
0.395127
-0.276079
-0.687361
0.631891
0.710857
0.036243
0.644491
-0.085177
0.338286
0.782840
-0.158355
-0.682172
-0.780647
-0.980970
0.932416
0.190212
0.484218
-0.705651
0.154088
0.076769
-0.533640
-0.719552
-0.222999
-0.276297
0.109577
-0.931403
-0.601385
0.773576
-0.053332
1.002654
0.152000
-0.762591
0.477071
0.251853
-0.672528
1.090611
-0.313978
0.256233
-0.615681
0.721583
-0.869497
-0.477374
-0.215349
0.734304
0.855253
-0.655802
0.557079
0.144166
-0.052251
0.611909
-0.736129
0.010884
0.311787
0.618728
-0.237196
0.380148
0.451694
0.457706
-0.174155
-0.473546
-0.494532
-0.912722
-0.464237
-0.566975
0.424117
-0.356861
-0.063751
0.279128
-0.608095
-0.385512
-0.016802
-0.174960
0.852372
-0.310836
0.574827
-0.051295
-0.776535
-0.433691
0.550117
-0.424036
0.147856
0.980426
-0.041242
0.285372
0.453522
0.023531
0.807408
-0.828459
0.074390
-0.079840
-0.224362
0.629636
0.137105
-0.389014
0.076128
-0.619064
0.987642
-0.601138
-0.310239
1.008173
0.387283
-0.772875
0.650788
0.520962
-0.845069
0.586327
-0.003432
-0.555944
0.994320
-0.791467
0.380007
0.020524
-0.268336
0.446250
0.865643
0.040405
-0.495649
-0.084174
0.013511
-0.917423
-0.596555
0.594292
0.951980
-0.252161
-0.700688
0.639146
-0.123760
-0.097642
-0.776768
-0.250177
0.399079
0.868774
-0.381314
-0.208679
0.196689
0.766512
0.552163
0.756185
-0.977792
-0.942609
-0.539832
0.393940
0.141370
-0.277975
1.050857
0.000909
0.200858
-0.336253
0.060484
-0.273558
-0.742824
0.992761
0.444855
0.615865
-0.886955
-0.104485
-0.774623
-0.547081
-0.874150
0.783851
0.401051
-0.613998
0.068992
-0.348898
0.473003
0.802727
0.679000
0.332362
0.842436
-0.651393
0.757102
-0.473195
0.577254
-0.189511
0.627394
0.335104
0.143184
0.318607
-0.905871
-0.791233
0.386563
-0.230991
-0.568343
-0.712423
-0.039842
-0.711027
-0.163625
-0.132830
-0.264225
0.439900
0.138515
-0.962760
0.739495
0.613180
-0.169495
0.462577
-0.570231
-0.366041
0.287533
-0.069514
-0.262979
0.998398
0.332814
0.496205
-0.545381
-0.171955
-0.715948
-0.470148
-0.629776
0.166483
-0.628388
-0.326921
0.134545
-0.083942
-0.101875
-0.463239
0.570468
-0.292147
-0.023367
0.814393
0.240431
0.677861
-0.611028
-0.849219
-0.963845
-0.528748
-0.698347
0.364790
-0.068079
-0.935581
-0.732438
-0.761753
0.807861
-0.833222
0.234775
0.244448
1.012705
-0.606006
-0.470244
0.467067
-0.902909
-0.407057
0.270262
-0.986738
0.905974
0.582883
0.911754
0.929476
-0.976936
-0.478526
0.946786
-0.110593
-0.504514
0.571293
0.291294
-0.078950
0.897304
0.016542
-0.877138
0.488421
-0.298318
0.703500
1.027555
0.995512
0.446496
-0.260871
0.967519
-0.492672
0.589530
0.739303
1.020436
0.558165
-0.990089
-0.921575
-0.499455
0.865006
-0.278142
-0.413120
-0.426335
0.135678
-0.442068
0.738124
-0.707886
-0.744709
-0.181626
0.867660
0.835129
-0.568643
0.120027
0.814870
0.566489
0.937892
1.034656
-0.131559
-0.927585
0.098220
-0.161449
-0.788510
-0.615860
-0.553036
-0.379147
0.580055
0.225359
0.619429
0.190764
0.609566
-0.504441
0.872398
0.708222
-0.774356
0.445309
-0.450062
0.967570
0.024774
-0.617265
-0.540379
0.326618
0.911097
-0.161461
0.241134
-0.329168
0.730016
-0.065181
-0.509338
-0.524161
0.384133
0.368884
-0.700747
0.804772
0.845796
-0.187488
-0.430662
-0.485354
-0.344891
0.258848
-0.808783
0.813382
0.905307
-0.891569
-0.143610
0.805344
0.372654
-0.825506
0.893141
-0.378420
-0.293309
0.749089
0.517861
-0.572021
-0.397129
0.661585
-0.369443
1.118147
-0.360562
-0.918595
-0.396822
-0.170212
-0.176838
0.443718
-0.688841
-0.774568
-0.454242
-0.182431
0.791829
0.396508
1.029514
-0.299124
0.203371
0.422778
0.287014
0.510738
0.741867
0.647696
-0.334752
0.045272
0.432437
0.920013
0.556441
0.413956
-0.496425
0.236848
-0.426191
-0.898040
0.127483
0.042416
0.957954
0.382555
-0.171631
-0.866775
0.629407
-0.915426
0.679294
0.016374
0.845502
-0.941641
0.689917
0.459762
0.848063
0.098529
-0.688455
0.784113
0.385417
0.462454
-0.974128
0.693873
-0.426392
-0.025335
0.533436
-0.672932
0.519403
0.736087
0.515895
-0.088722
-0.219793
-0.302395
0.209447
-0.551262
0.683168
0.241576
0.756582
0.303323
0.948137
-0.729869
0.036149
-0.459143
-0.334463
-0.859633
0.545501
-0.850241
0.362269
-0.396944
0.483234
-0.234229
0.260746
0.172253
-0.692378
0.204605
-0.149012
-0.223463
0.100545
-0.984120
-0.863145
0.318533
0.302843
-0.632472
0.214783
0.278326
0.139516
-0.460813
0.642664
-0.458513
-0.521717
0.827864
0.071266
-0.492851
-0.410027
-0.761924
0.835047
-0.846745
0.838028
-0.566768
-0.843926
0.867813
0.410272
-0.901008
-0.434454
-0.571734
-0.141994
-0.829457
0.771430
-0.021397
-0.179740
0.970241
-0.073252
0.263172
-0.606929
0.486396
0.182109
0.531557
0.413315
0.561980
0.438504
-0.616376
0.344021
0.006969
-0.670660
-0.873179
0.445259
-0.720558
-0.454343
-0.251985
-0.708373
0.372177
0.722410
0.193055
-0.212026
-0.486484
0.337367
0.760726
-0.400177
0.412248
0.264852
0.321189
0.307481
0.405462
-0.751852
0.392989
-0.201526
-0.068824
0.108604
0.715595
-0.758748
-0.329834
0.264683
-0.566076
-0.761646
0.369435
0.924813
0.684190
0.782894
0.909073
0.078143
0.707397
-0.652760
-0.557763
0.753761
0.868350
0.912971
0.801131
0.550531
0.347117
0.124025
0.559492
0.508935
-0.212142
-0.678744
-0.906014
-0.363188
-0.339440
-0.364472
1.000124
0.948302
0.222254
0.258720
0.306984
0.572920
-0.627479
-0.723584
0.200971
0.679842
0.143358
0.188971
-0.821904
-0.344146
0.762598
-0.520477
-0.662746
0.007588
0.878615
-0.148000
-0.594508
-0.496779
-0.380410
-0.628059
-0.124727
0.928851
0.764501
-0.616774
-0.983938
0.677921
-0.822291
0.745976
0.328950
0.811126
-0.634510
-0.377833
0.435450
0.533263
-0.250699
0.440580
0.849048
0.368867
0.623169
-0.685056
0.177686
-0.400100
-0.830033
-0.567467
-0.498360
-0.738185
0.046663
-0.598004
-0.487618
-0.487338
0.023160
0.894062
0.789366
0.857128
0.282346
0.227437
0.239404
0.124204
-0.942574
0.971092
0.263349
-0.406612
0.488691
0.793887
-0.467190
-0.634224
0.371024
0.699851
-0.506691
0.745606
-0.125831
0.663028
0.152352
-0.431951
0.628213
-0.915383
0.007774
0.314126
-0.043349
0.531068
0.223713
0.460142
-0.292432
0.180603
-0.307267
-0.133467
0.096843
0.827123
-0.702305
0.316982
-0.558322
0.675945
0.104506
0.324217
0.070582
-0.662657
0.878669
0.097999
0.656934
-0.405126
-0.002634
0.678696
-0.786099
-0.844212
0.191788
0.097249
-0.889688
-0.881315
0.254284
0.358333
-0.698638
-0.382359
0.745683
-0.419566
-0.638694
-0.547292
0.259939
0.533981
-0.465627
-0.702557
0.582679
0.505520
-0.059902
0.349203
-0.412028
0.145239
-0.264679
0.459426
-0.271304
0.121202
0.634917
1.041908
0.784830
0.812934
-0.597062
-0.631379
0.311653
0.828229
0.653152
-0.508382
0.209190
-0.196596
0.447148
-0.337920
-0.408908
0.074813
-0.366925
0.400810
-0.754570
-0.263644
0.219304
-0.139178
-0.653194
0.873183
-0.537129
-0.076773
-0.471560
0.555607
-0.118144
0.615294
0.361766
0.979997
0.700119
0.315135
-0.078332
-0.550008
-0.828759
0.676240
0.529830
0.983133
-0.721472
-0.264169
0.737492
-0.427217
0.121362
0.565270
0.332267
-0.154421
-0.084619
0.928753
-0.190636
0.771224
0.732237
-0.344932
0.905920
-0.553671
0.154811
-0.331857
0.707418
0.149643
-0.648436
-0.342521
0.776674
-0.415065
-0.671798
-0.329604
-0.704933
0.063523
-0.484797
-0.779453
-0.531553
0.139965
-0.868855
-0.387552
0.398531
-0.660722
-0.497554
0.976801
-0.803862
0.542698
-0.970082
-0.808442
0.764757
-0.314921
0.572714
-0.993791
0.607303
-0.351146
0.722846
0.735843
-0.598865
1.061692
0.663692
0.243717
0.686860
0.070957
-0.039186
0.356244
-0.808180
-0.198563
0.572633
-0.700614
-0.284821
0.306543
-0.870263
1.007195
-0.116938
-0.882429
0.087874
-0.160917
0.309700
-0.004089
-0.473450
0.848805
-0.920996
-0.288675
0.241882
-0.839165
-0.731654
-0.583831
0.231378
-0.473658
-0.350451
-0.942424
0.704171
-0.014537
0.454157
-0.860758
0.912408
-0.068120
0.406460
-0.050390
-0.226006
0.959491
-0.443646
0.887554
-0.368238
-0.982375
0.565258
0.853787
-0.073251
-0.148666
-0.120183
-0.269519
0.146394
0.243589
0.396620
-0.140249
-0.397202
-0.921589
0.246938
-0.559901
0.704950
0.825838
-0.482418
-0.668026
-0.611472
-0.626526
-0.452182
0.557078
0.393974
0.525679
0.067953
-0.212462
-0.962043
0.235199
0.893826
-0.487904
-0.217590
-0.722799
-0.377397
-0.772783
0.528531
0.349109
-0.069946
-0.411648
-0.112497
0.103230
0.006452
0.065312
0.538180
-0.452806
0.113645
-0.752300
0.561375
-0.232718
-0.929919
-0.231394
0.068947
-0.522450
0.060759
-0.492206
-0.791099
-0.207762
0.676976
-0.460538
0.615636
0.596767
0.176688
0.420602
0.868738
0.603001
-0.791652
-0.117883
0.129805
-0.057111
0.710142
-0.027224
-0.412175
-0.154118
0.788946
-0.982469
-0.172334
0.145946
-0.759946
0.011124
-0.595054
0.743901
-0.003460
0.263851
0.640348
-0.294329
0.052757
0.365129
0.388071
0.829708
-0.551536
-0.422474
0.616313
0.977000
-0.161482
0.156955
-0.676890
-0.887109
-0.273778
-0.478796
0.331624
-0.692912
0.733297
0.764374
-0.710408
-0.077298
-0.730542
-0.599756
0.154626
-0.368774
-0.137265
0.365360
0.380217
-0.359616
0.860219
0.170049
0.694932
0.900558
0.382037
-0.840078
-0.379234
0.627607
-0.538820
0.374864
-0.726448
0.877392
0.636198
-0.369783
-0.536849
-0.237239
-0.410446
-0.966507
0.240211
-0.285292
-0.787600
0.289215
0.127809
-0.879374
-0.382459
0.062576
0.747228
-0.652389
1.088651
-0.533736
-0.240049
0.236453
0.979236
0.175439
0.801533
0.170450
-0.663666
-0.870638
-0.621411
-0.495135
0.302824
-0.731663
0.654089
0.117778
-0.143208
0.232982
0.520192
0.277961
-0.504624
-0.011068
0.823049
0.349571
-0.727387
-0.197699
-0.403247
-0.008031
-0.744636
0.770957
1.092979
0.555485
-0.648906
-0.621525
1.016306
-0.489522
-0.366994
0.704889
0.346550
0.962509
-0.268987
0.362395
0.629234
-0.003823
0.257289
-0.847381
0.071831
0.706780
0.088226
0.763801
-0.290459
0.927957
0.775613
-0.138185
-0.092103
-0.783300
0.710112
0.129562
-0.000400
0.131486
-0.336845
-0.916036
-0.511185
-0.689108
-0.155983
-0.651666
-0.481173
-0.728707
0.185650
0.222628
-0.825543
0.387620
0.044707
0.917665
-0.270349
-0.688149
0.050230
-0.089641
-0.621758
-0.060407
0.278302
-0.678230
-0.260248
0.524231
0.945535
-0.539543
0.233802
0.174487
-0.233952
-0.091345
0.969598
0.396702
0.627336
-0.198702
0.623845
-0.252490
0.732839
0.625599
0.078746
0.540627
0.259287
-0.696261
-0.788517
0.033073
0.852435
0.034503
0.825131
-0.272659
0.915452
-0.039765
0.461553
0.074938
-0.346431
-0.887743
-0.808564
0.650878
0.975957
0.579809
-0.513537
-0.212602
-0.482025
0.501702
-0.686474
0.708361
0.600913
0.377481
1.027261
0.052210
0.698520
0.010174
-1.046423
0.642762
-0.643530
-0.388443
0.946332
0.370027
-1.000733
0.947694
-0.295869
0.382919
-0.495612
-0.728855
0.682956
-0.938029
-0.722896
-0.454640
-0.606730
0.476582
0.297062
0.405516
0.358555
0.801053
-0.486239
-0.191258
-0.195736
-0.357817
0.512843
-0.406010
-0.920049
0.658881
0.303378
-0.231058
0.875588
0.786119
-0.960805
-0.874384
-0.297339
-0.779251
-0.490788
-0.601453
-0.453710
-0.839115
0.647221
-0.291345
-0.858972
-0.367319
0.169420
0.243565
-0.007457
0.495520
0.857463
0.079863
-0.216927
-0.813947
-0.409046
-0.845229
-0.660499
-0.326444
0.291235
0.122323
-0.915196
-0.605457
-0.845634
-0.091786
-0.191628
0.636984
-0.979929
0.842838
0.394049
-0.105337
0.682256
0.151497
-0.227388
0.677615
0.685879
-0.312552
0.063530
0.917169
0.373856
-0.519758
-0.732356
-0.261635
-0.366013
-0.701944
0.455195
-0.805007
0.918432
0.646642
-0.802706
-0.634167
-0.678249
0.696039
-0.550166
0.578154
0.193551
0.519205
0.237563
-0.009292
-0.548684
0.628552
-0.686559
-0.829271
-0.816698
0.703212
0.723687
-0.372190
0.699792
-0.344617
0.020232
0.833652
0.640668
-0.259432
-0.684993
0.796564
0.658267
0.478438
0.661246
-0.816661
0.544151
0.974401
0.286055
0.573846
0.868631
0.011999
-0.435578
-0.438427
-0.407249
0.655034
0.698160
-0.592056
-0.389067
0.893067
-0.023217
0.167499
0.396285
-0.174951
-0.802298
0.874302
0.044660
-0.205899
-0.188893
-0.022921
0.064052
0.084212
-0.849537
-0.265057
-0.757054
0.768021
-0.419105
0.766933
0.454013
-0.181117
0.207968
-0.421119
-0.051545
-0.895732
0.634925
-0.016566
0.269468
0.127178
0.471067
0.217808
0.501606
0.598556
0.867834
0.035562
0.562280
0.745364
0.252415
0.203119
-0.611257
-0.628724
0.240398
-0.320864
-0.516894
0.456040
0.145532
-0.538247
0.677508
0.872904
-0.158887
-0.200256
0.529252
0.557186
-0.972653
-0.160725
-0.259629
0.752626
-0.248914
-0.848969
-0.199719
0.274974
-0.144174
-0.301614
-0.948076
0.037701
0.953185
-0.096645
0.975997
0.049734
-0.622935
0.465994
-0.566507
-0.859882
0.612151
-0.301613
-0.777608
-0.646662
0.645754
0.891627
-0.415398
-0.106328
-0.364884
0.094252
-0.748748
-0.515329
-0.077134
1.021403
-0.240315
-0.323223
0.652198
-0.590947
0.887562
0.247882
-0.120030
-0.766094
-0.246579
-0.514027
0.217253
0.231299
-0.735012
-0.635258
-0.435654
0.813797
0.173944
0.441422
0.879014
0.536224
-0.182518
0.573492
0.724946
-0.351652
0.097590
0.722071
0.892345
0.474361
0.423578
0.004379
-0.166860
-0.700286
0.112064
0.088530
0.143380
0.930355
0.358821
-0.622159
-0.226044
0.388615
0.220003
-0.730862
0.291919
-0.791413
-0.071174
0.800773
-0.747897
0.518666
0.218329
-0.103496
-0.131429
-0.769660
-0.693581
0.061646
0.065830
0.163924
-0.239937
0.706209
0.667494
0.599407
-0.929418
0.330310
-0.206131
-0.917342
-0.905559
-0.752537
-0.904937
0.020671
0.880722
-0.959263
-0.820182
0.142397
0.006924
-0.802447
0.693121
0.887245
-0.411056
0.089007
-0.572032
-0.035510
-1.041489
-0.080584
0.162265
-0.654344
0.086856
0.168004
-0.363960
-0.990041
0.015953
-0.794307
0.018331
-0.312931
-0.287235
0.561816
-0.741005
0.929199
0.609862
0.877611
0.717979
-0.250389
-0.256327
-0.670436
0.805234
-0.370995
-0.424530
0.284390
0.964324
-0.921720
-0.209359
-0.009882
0.659953
-0.170868
0.185481
0.348947
0.369905
-0.411139
0.281205
0.003302
-0.732144
0.911159
-0.641587
-0.529211
-0.929625
-0.046804
0.607331
0.394544
-0.946945
-0.627364
-0.453194
0.689441
-0.889501
0.010847
-0.720297
-0.003672
-0.928179
0.217855
-0.488704
-0.334018
0.734374
0.407925
0.320672
0.913207
-0.493645
0.909667
0.971888
0.319255
-0.928032
-0.830793
-0.546798
0.275906
-0.426496
-0.073723
-0.192855
0.233867
-0.989051
0.342636
0.524726
-0.749813
-0.300252
0.689432
-0.645614
0.161317
0.246119
0.971675
-0.377983
-0.927320
0.730250
-0.129700
-0.968243
0.740013
0.930072
-0.878326
0.774851
-0.686858
-0.807144
1.001802
-0.489449
0.726662
-0.791405
-0.119268
-0.964685
0.087745
-0.994416
-0.293630
-0.475587
1.053298
0.375986
0.710411
-0.039476
0.008773
0.611944
0.564264
-0.299429
-0.591258
-0.515969
-0.342901
-0.698983
0.167699
-0.163637
-0.717649
-0.728680
-0.387012
-0.843898
0.552187
-0.209208
0.883769
0.847439
-0.723119
0.158793
0.195717
-0.994548
-0.915309
0.718671
0.655808
-0.186080
0.793601
0.208449
0.602778
0.276034
-0.319410
-0.148894
-0.155702
-0.548037
-0.367762
-0.936572
-0.677413
-0.294386
-0.115634
-0.171144
-0.349693
0.613660
0.688754
0.487454
-0.297606
0.945999
0.473564
-0.335569
0.492397
0.780354
0.372354
-0.297932
-0.853468
0.861727
0.099684
0.308826
0.370313
-0.846309
-0.627028
0.236730
0.921835
0.257224
0.096070
1.109696
-0.348132
0.376324
0.507684
0.328306
-0.927994
0.537256
0.941665
-0.568088
0.380044
-0.824548
-0.817166
-0.352659
-0.011869
0.492507
-0.524171
0.374098
0.330207
0.036691
-0.483333
-0.400469
-0.289271
0.500296
0.650034
-0.581053
-0.537614
-0.779631
-0.092435
-0.255869
0.177078
-0.164988
-0.085773
0.970287
-0.955287
-0.400354
-0.439644
-0.245404
0.209280
0.166493
-0.751383
-0.722153
-0.559311
-0.498562
-0.792905
-0.124180
0.456813
0.202477
-0.246334
-0.385206
-0.746818
-0.902127
-0.980313
0.470502
-0.874804
0.598816
0.285424
0.628501
0.563303
0.210209
-0.848402
0.238490
-0.175366
0.925561
-0.933047
0.729355
0.648816
0.066351
0.328378
-0.596722
-0.690556
-0.710789
-0.658890
0.616121
-0.594184
-0.887286
-0.820513
0.162290
-0.371710
-0.345476
0.293144
-0.374259
-0.874278
-0.430538
-0.676284
0.002246
-0.690602
-0.616328
-0.600667
-0.135721
0.124647
-0.751247
0.915647
-0.025393
-0.469547
0.945194
0.125413
0.849499
0.460215
0.771800
-0.551379
0.847567
0.387860
0.347234
0.185313
0.952031
0.586139
-0.343379
0.553751
-0.753303
0.268936
-0.181416
0.056736
-0.353709
0.784096
-0.803646
0.672451
-0.090178
-0.195574
-0.244162
-0.674646
0.273680
0.809241
-0.467830
0.471781
-0.700740
0.541866
0.454766
0.385012
-0.056685
0.504902
0.203343
-0.062720
-0.659655
-0.936308
0.687910
-0.174458
0.461995
0.132166
0.613653
-0.042317
0.672801
-0.557847
0.711142
0.615113
-0.838063
-0.086713
-0.576877
-0.142063
-0.454411
-0.354846
-0.562189
-0.575806
-0.459107
-0.289591
0.157014
0.083549
0.451047
-0.734487
0.850937
0.573372
0.670361
0.288470
-0.924659
-0.002163
-0.142024
-0.063273
0.286717
0.027385
0.685928
-0.881174
-0.947213
-0.803293
0.744626
0.646656
0.595619
-0.145296
0.195845
0.737744
0.887392
0.628020
0.902779
0.106439
0.458602
0.700959
0.361311
-0.025756
-0.434410
1.012157
-0.430036
-0.794410
0.822541
-0.706994
0.307517
-0.527691
-0.926108
-0.651016
-0.055056
0.534216
-0.728227
-0.585712
0.124338
0.861898
0.452784
0.798575
-0.921803
-0.256679
-0.790699
0.122616
0.866350
0.984527
0.341174
0.938851
0.491699
-0.282124
-0.501587
-0.412350
-0.860823
0.778449
-0.100125
0.865760
-0.017710
-0.353870
0.741743
1.067384
-0.619957
-1.034184
-0.189782
0.217162
0.858079
0.110769
-0.808591
-0.518114
0.436840
-0.460562
-0.863224
-0.291155
0.934179
-0.447715
-0.497806
0.941963
-0.346148
-0.374456
0.472840
-0.463014
0.828387
0.638998
-0.064623
0.294837
-0.559747
-0.594199
0.180407
0.219284
-0.482063
0.640654
-0.421897
0.379039
-0.759173
-0.689859
-0.149902
-0.971871
-0.433140
0.226785
0.618614
-0.295441
0.852232
0.515720
-0.693584
0.245145
0.406494
0.875842
-0.634537
0.827990
-0.390044
-0.525258
0.173884
0.697137
-0.230869
0.143043
0.817368
-0.493687
0.411300
0.072875
0.717035
0.998058
-0.340626
0.180052
0.858785
0.688641
0.910220
-0.638805
0.462967
0.628583
-0.088806
-1.033047
-0.902082
0.356458
0.889253
-0.453934
-0.124711
0.068598
-0.695238
0.323441
-0.517990
-0.306467
0.126716
-0.619115
0.928061
-0.522735
-1.014722
0.009906
-0.985687
-0.928364
-0.685401
0.149575
0.090124
-0.642082
-0.658191
-0.801432
-0.419123
0.776993
0.263090
-0.925717
0.207907
0.381949
-0.672573
-0.596294
-0.767260
-0.922117
-0.968909
0.481822
-0.399448
-0.866453
-0.697126
-0.464259
0.279640
-0.677569
-0.486992
0.779931
0.537301
0.450915
0.896069
-0.234385
0.493993
-0.107139
0.904103
-0.421989
0.615961
0.970319
0.935437
0.581664
-0.762988
0.321376
0.952202
0.840622
0.330460
0.760333
-0.107213
0.476822
-0.629399
-0.805733
0.818818
0.265230
0.883596
-0.249214
-0.238216
0.744208
0.246469
0.128490
0.683622
-0.367715
-0.486410
-0.711606
0.682860
0.133779
-0.208470
-0.926621
0.393908
0.163794
-0.616856
0.655635
0.387361
0.307133
0.607910
-0.598440
-0.175533
0.806238
-0.665478
0.844268
-0.041031
0.808063
0.660223
0.660417
1.007915
-0.358372
-0.687772
-0.560990
-0.414660
0.872115
-0.922286
0.040602
-0.377388
0.910840
-0.711281
0.381837
-0.829411
0.148592
-0.760408
0.013532
0.926769
-0.670676
0.875947
0.549770
-0.198723
0.052844
-0.484589
0.027710
-0.516046
0.493913
0.415505
0.340279
0.180602
-0.404197
0.382330
0.760130
0.559557
0.665575
-0.520977
0.538604
0.629721
0.444617
-0.575251
0.350297
0.123933
0.603657
-0.041079
-0.209740
0.072990
-0.275630
0.518654
-0.238852
-0.737140
-0.226530
-0.321644
-0.890229
-0.469861
-0.137916
0.171459
-0.934018
0.985323
-0.209763
-0.234817
0.601461
-0.489587
-0.055370
-0.237502
0.632945
0.738968
-0.554348
-1.096289
0.107144
0.046259
0.903310
0.258384
0.408539
0.313335
0.466305
-0.801172
0.441002
-0.187782
-0.147086
-0.143195
0.153839
0.208586
0.518851
-0.730662
0.779326
-0.698105
-0.684435
0.604222
-0.201866
0.234273
0.692146
-0.084552
-0.890332
0.078759
-0.396364
0.303715
0.613315
-0.931865
0.930129
0.765791
0.535852
0.870112
-0.484327
-0.802057
-0.655517
-0.506288
-0.863775
0.435615
0.869447
-0.670989
0.092658
0.595082
-0.569024
-0.804056
0.731425
0.204937
-0.586376
-0.210156
-0.123156
0.653454
0.385808
-0.434991
0.689224
0.375458
0.062637
0.510274
0.446074
-0.652722
0.268440
0.841843
-0.300782
0.031283
0.406091
0.564185
0.773605
-0.422339
0.116576
0.299128
-0.921223
0.344878
-0.961361
-0.334933
-0.226329
0.997004
-0.018858
-0.689278
0.605723
-0.769182
0.571265
-0.230465
0.758836
0.974292
-0.461533
0.206098
0.635589
-0.936039
0.484401
-0.345160
-0.692814
-0.703444
0.226911
0.506449
-0.323594
-0.881813
-0.951786
0.837085
1.001631
-0.855558
-0.134950
0.052848
0.721910
0.187483
0.467173
0.766178
0.199875
-0.756959
0.175348
-0.092738
0.107018
-0.043457
-0.076872
-0.458086
-0.871478
-0.426940
0.276980
-0.243456
-0.999635
-0.510842
0.555429
0.462994
0.514013
0.034806
0.772889
-0.138649
0.443493
-0.160900
-0.570147
-0.465223
0.904139
-0.278336
-0.574796
0.333581
-0.062170
0.292414
0.231867
0.661160
-0.296367
-0.461537
-0.256188
-0.162820
0.267524
-0.293853
-0.683179
0.231516
0.207871
-0.191523
0.263962
-0.524077
0.086528
0.133092
0.385738
0.634842
-0.232019
0.060713
0.557503
-0.327591
0.910106
-0.640920
-0.342663
-0.966900
-0.183151
-0.240412
-0.165294
0.467490
0.796920
-0.416672
0.942698
-0.903894
0.626470
0.084277
-0.489357
0.654717
0.297345
-0.428089
-0.745506
0.816579
-1.022872
0.553265
-0.721120
0.812977
-0.731136
0.344285
0.366058
0.923584
-0.880773
-0.875219
-0.227486
-0.902148
-1.015300
-0.547242
-0.520811
-0.660816
0.090893
0.784206
-0.667312
-0.024373
0.254023
-0.245116
-0.687900
-0.580239
0.987115
-0.240755
-0.608869
-0.071553
-0.298865
-0.421933
0.136177
0.415298
0.497731
0.282950
0.300225
-0.147642
0.805436
-0.877546
0.615503
0.551897
0.173530
-0.670931
0.149993
0.686332
0.124206
0.448848
0.443145
0.491547
0.012413
-0.698413
-0.318417
0.071366
0.919687
0.175271
-0.738938
-0.602321
0.370918
0.170381
-0.441563
0.782029
-0.224939
0.748962
-0.679219
-0.068417
-0.541330
0.924275
0.665537
-0.504116
0.424541
-0.603726
-0.728130
0.396539
0.680768
-0.249241
0.859855
-0.699048
-0.116261
-0.256454
0.923700
0.295472
0.574595
-0.003371
0.306818
0.011699
0.248505
1.110978
-0.598080
0.882923
-0.460587
-0.375461
-0.387575
0.253126
-0.752317
0.699054
0.941341
0.330360
-0.507686
0.088544
-0.801732
-0.727163
0.453779
0.320516
0.025561
-0.291516
-0.093396
0.791306
-0.963717
0.217371
0.521304
0.488492
-0.302346
-0.550772
0.481870
-0.533055
0.174414
-0.679296
0.728521
0.403712
-0.832161
0.825195
-0.127288
-0.506583
0.725694
-0.650909
0.959949
-0.670220
0.895530
0.198824
0.346814
0.891561
-0.323278
-0.030467
0.860357
-0.168112
-0.553087
-0.765785
0.477980
0.820912
0.157076
0.353340
0.612403
-0.361745
-0.770294
0.330837
0.012709
0.131075
0.352067
0.452763
0.470508
0.792443
-0.434531
0.399434
0.945686
0.649578
0.299832
0.843810
0.011269
0.903944
0.606518
0.069990
-0.485253
0.691831
-0.160136
-0.084878
0.026364
0.276175
0.626877
-0.689040
0.557717
-0.146178
-0.058624
0.230476
0.527220
-0.542496
0.704855
-0.668439
0.600177
-0.118040
-1.012233
-0.366155
-0.152245
-0.604852
0.677163
0.608182
-0.038463
0.128801
0.382150
-0.379019
0.004776
-0.028330
-0.662332
-0.617182
0.467171
0.488820
0.586457
-0.992219
-0.369474
-0.898095
0.516800
0.616907
-0.378197
0.764501
-0.074250
-0.536483
0.418091
-0.056717
-0.242028
0.943132
0.037625
-0.541779
-0.897479
-0.969400
0.519193
0.327253
0.203696
0.216577
0.928175
-0.006714
0.890725
0.046324
-0.696418
0.095303
0.738603
-0.194067
-0.053935
0.322387
0.274986
0.975788
0.190907
-0.289376
-0.013610
0.438879
-0.522713
-0.401916
-0.044985
0.670521
0.416784
-0.562072
-0.880864
-0.196178
0.084222
0.823665
0.939608
0.446944
0.546435
-0.239494
-0.288347
-0.842098
-0.273513
0.350034
0.545392
0.872542
-1.021159
0.266976
-0.367439
-0.171398
-0.789919
0.378441
-0.568817
0.112056
-0.380395
-0.888423
-0.587446
0.435465
0.113417
0.659631
0.641550
-0.860963
0.957210
-0.652825
-0.094005
0.639807
-0.341125
-0.627373
-0.663588
0.570623
-0.274387
-0.394866
0.530622
0.581834
-0.914640
0.003049
0.569527
-0.385724
0.265841
-0.522720
0.450163
0.798527
-0.272662
-0.482390
0.928432
0.502101
-0.485497
-0.344261
0.430484
-0.542391
-0.207590
-0.104879
-0.254634
0.368455
-0.277892
0.097898
-0.797972
0.147377
-0.757148
-0.346842
-0.630380
0.010489
-0.191203
-0.040158
-0.148657
0.128995
0.045826
-0.737594
0.317737
-0.865959
0.619921
0.222286
-0.937098
-0.330871
-0.656113
-0.608060
0.355121
0.468102
0.441283
-0.442421
0.949310
-0.742922
0.289322
0.705171
0.461671
0.381076
0.182690
-0.982802
0.446349
0.944684
-0.631366
-0.734300
-0.384079
-0.691159
-0.820815
0.855418
0.799127
0.684396
0.691327
-0.016785
-0.860855
0.118910
-0.870617
0.863435
0.580981
0.492041
-0.819910
0.306795
0.501250
-0.528492
0.505793
-0.341113
0.627352
-0.777976
0.226008
0.935271
0.041759
0.261478
-0.816552
0.931799
-0.852064
0.644912
0.899484
-0.949930
0.541827
0.931824
0.695376
0.119498
0.545588
-0.836486
0.753414
0.654087
-0.141317
0.908794
-0.181467
0.528593
0.379310
-0.659414
-0.743525
-0.092528
0.594464
0.627634
0.251174
-0.510576
0.971981
-0.224202
-0.809086
0.795598
0.740708
0.276310
0.573244
-0.303298
-0.691334
0.119365
-0.258000
0.419527
-0.102458
0.170965
-0.262447
0.970746
0.571615
-0.545221
-0.479363
0.101564
-0.158083
-0.125899
-0.843569
0.258615
-0.799986
-0.645570
0.540151
0.759310
-0.594646
0.470981
0.836930
0.093168
-0.432888
-0.579203
-0.702163
0.103569
-0.405634
0.824865
0.953090
-0.481018
-0.629429
-0.662692
-0.764533
-0.940909
-0.023328
0.764402
-0.477688
-0.749387
-0.842174
-0.374822
-0.854132
-0.359277
-0.874786
0.141522
0.192439
-0.512657
-0.937781
0.608258
0.311159
0.686831
-0.746623
0.956439
0.226549
-0.763198
0.290375
-0.215830
-0.096541
0.319023
0.722633
0.076443
-0.411664
0.653730
0.422344
-0.783870
0.317911
-0.315103
0.751089
0.848384
-0.146152
0.646389
0.175135
0.661442
0.292049
-0.010586
0.063629
0.914870
-0.488679
-0.100316
-0.428418
-0.149936
-0.704924
-0.068078
-0.209303
0.462222
0.971565
0.513591
0.169305
0.001674
-0.038191
0.930786
-0.499407
-0.740885
0.863442
-0.202671
0.363678
0.147428
0.151318
-0.469282
0.843012
-0.107026
-0.462246
-0.252848
0.278930
-0.506827
-0.559753
-0.830822
0.518615
-0.929718
-0.604558
0.686377
-0.593241
0.833423
0.234337
-0.364788
0.098382
0.894774
-0.048888
0.738699
0.865570
-0.034776
-0.951531
0.898019
-0.709251
-0.088354
-0.363495
-0.328366
-0.141206
-0.955219
-0.072831
-0.778544
-0.950717
-0.455804
-0.926248
0.499109
0.018549
-0.028026
-0.065485
-0.769313
-0.470139
0.846487
0.401779
0.261387
0.819242
0.661981
-0.648851
-0.238842
-0.663396
-0.752712
-0.725186
-0.171405
-0.878933
-0.250102
-0.497043
-0.005841
-0.202608
0.454780
-0.865322
-0.114637
-0.131397
-0.948276
-0.128412
-0.553668
-0.930073
-0.950564
0.009498
-0.722982
-0.546520
-0.315155
-0.413961
0.045766
0.496442
0.907281
0.660092
0.556790
-0.081545
0.889926
-0.679532
0.948417
0.643570
0.181033
0.422439
0.153936
-0.795904
-0.234665
-0.071547
-0.675429
-0.007240
0.214639
0.686098
0.062500
0.766998
-0.570816
-0.620739
-0.428287
-0.687529
-0.690169
-0.566278
0.107517
0.232343
0.591481
0.239131
-0.426472
-0.287470
0.338577
0.040343
-0.564938
-0.282850
-0.945017
0.642512
-0.870710
0.149154
0.581538
-0.760906
-0.311263
0.476041
0.866492
0.506104
-0.008769
-0.289363
0.004317
0.219305
0.038523
0.415613
-0.538015
0.679937
-0.521990
-0.279311
-0.129957
-0.329380
0.439800
0.565612
0.005998
-0.573969
0.230602
0.094054
-0.049349
-0.387526
-0.175319
0.007505
0.873836
0.198624
-0.013183
0.592955
0.275291
-0.931521
0.981407
0.612224
-0.010313
0.691442
0.901375
0.914232
0.489671
-0.380987
0.247387
0.383512
-0.633931
0.145331
-0.114718
0.330365
-0.198858
-0.807903
0.375691
-0.509758
-1.091329
0.007809
0.017618
0.705620
0.572426
-0.584192
-0.949806
-0.808053
0.580865
0.493620
0.337219
-0.884503
0.396242
-0.064614
-0.768713
0.615612
0.185157
0.073535
0.873577
-0.846338
0.133735
0.411306
-0.734395
-0.098535
-0.265901
-0.698860
0.069306
0.699508
0.333969
-0.171324
0.374825
0.117723
-0.452779
0.852339
-0.433269
0.274920
0.351410
-0.568193
-0.461930
0.606774
0.012612
-0.511897
0.398593
0.386403
-0.706717
0.560910
-0.857135
-0.207595
-0.611607
0.739510
-0.029301
-0.432140
-0.043982
0.962882
-0.121068
-0.873776
0.730127
-0.963832
0.018857
0.215631
-1.094346
0.048623
-0.962929
-0.975938
-0.432287
-0.071003
-0.785586
0.613860
-0.096938
0.720855
0.024061
0.042095
-0.763152
0.119414
0.342770
-0.990927
0.077690
-0.642253
0.748884
0.399501
0.119268
0.975457
-0.751406
0.854170
-0.824229
-0.284492
0.405146
0.451542
-1.134265
-0.133735
0.687769
0.104667
0.652318
-0.126372
-0.705302
-1.104867
0.279141
0.927915
0.758595
-0.697611
0.277014
0.604685
0.696947
-1.022513
0.104250
0.512247
-0.536992
0.740096
0.841549
0.487928
0.549650
0.144599
-0.610612
-0.933091
-0.901251
0.231774
0.764053
-0.475759
-0.039837
-0.811840
0.661761
-0.183711
-0.762825
0.892263
0.126810
0.077203
0.447710
-0.418384
1.015742
-0.513155
0.284621
-0.937732
-0.346552
0.591296
0.249927
-0.773577
-0.582056
-0.879355
0.681403
-0.283326
-0.260913
-0.895151
0.522069
0.935976
0.229369
-0.641760
0.280051
-0.552996
0.244642
0.505436
0.063997
0.987597
-0.629164
-0.860124
0.527961
0.487787
-0.020358
0.987150
-0.369365
0.588944
-0.446180
0.415996
-0.981174
-0.966136
0.681741
0.942024
-0.543782
-0.244965
-0.822876
0.609362
-0.234486
0.197754
-0.260794
-0.496469
0.015101
-0.717279
-0.927517
-0.063723
-0.256304
-0.746696
-0.577981
0.303883
-0.804440
0.866646
-0.166399
-0.130393
0.219664
-0.782397
-0.825338
0.284887
-0.261867
-0.219337
-0.000122
-0.968636
0.986916
-0.578901
-0.223628
0.908469
0.925285
0.744220
-0.578467
-0.228891
-0.848207
-0.539210
0.556925
0.339858
0.366530
-0.238217
-0.932979
0.555760
0.857983
-0.257183
-0.419225
-0.615661
0.714043
0.300820
-0.834494
-0.835556
-0.477548
0.388065
0.860873
-0.182495
-0.096808
-0.276297
0.730650
-0.536258
0.621680
0.550065
0.757673
0.143613
0.211956
-0.962033
0.068308
0.205535
0.015338
-0.275360
0.806121
0.370842
0.195463
0.415044
0.452106
-0.549127
-0.656949
0.692368
0.390970
-0.963983
-0.617261
0.390617
-0.407610
-0.624661
0.348355
-0.228351
-0.664387
-0.592016
0.485143
0.900401
-0.475901
0.263907
-0.067231
0.467544
0.481066
0.900589
0.409599
0.350109
0.204720
0.077580
-0.707678
-0.606016
-1.056244
0.288492
-0.656680
-0.057144
0.341134
0.061703
-0.867946
0.291120
0.614392
0.502366
-0.517304
0.658965
0.625474
-0.147773
-0.381128
-0.824370
-0.201616
-0.854349
-0.909867
0.367214
-0.618256
-0.476792
0.157700
-0.673433
0.885916
0.723509
0.812870
-0.777447
-0.755514
0.815002
-0.779498
-0.972777
-0.162945
-0.358197
-0.353264
0.886245
-0.697532
-1.139332
-0.634757
0.624652
0.094298
-0.008108
-0.080119
-0.743945
0.935948
-0.406152
-0.623597
0.404628
0.896895
-0.764777
-0.058754
0.752159
0.233885
-0.512997
-0.077276
0.372420
-0.211731
0.094479
0.832286
-0.631416
-0.220281
-0.482018
0.304732
-0.474099
0.971189
-0.523097
-0.280065
0.346156
-0.852273
0.832464
-0.637142
0.451788
-0.451608
0.112543
-0.934900
-0.173824
-0.899182
-0.884667
0.185791
0.544863
0.951103
-0.965991
-0.586768
0.621944
0.386569
-0.471136
-0.306973
0.582245
0.802831
0.590365
0.031891
-0.090660
0.497660
-0.858709
-0.349005
-0.375408
0.173153
0.614266
-0.718695
0.698160
0.795575
-0.209715
-0.390489
0.386400
0.023118
0.730427
0.602511
-0.354961
-0.907732
-0.218884
-0.334781
0.165943
0.532424
0.071075
0.525884
-0.313833
-0.856603
0.052774
-0.471572
0.296735
0.648548
-0.789094
0.741113
-0.396825
-0.140549
0.768419
-0.596126
-0.411430
-0.670761
-0.824525
-0.601207
-0.398678
-0.972882
-0.196243
-0.466361
0.699938
0.324069
0.429362
-0.981038
0.044884
-0.622058
-0.703673
-0.527784
-0.888506
-0.069269
-0.982155
-0.703807
0.182624
-0.335734
0.042235
-0.752214
-0.871363
-0.342491
-0.224871
-0.113942
0.901413
-0.314363
-1.089458
-0.291047
-0.528169
0.261410
0.189452
-0.892054
0.489996
0.235379
-0.115032
-0.417623
-0.059929
-0.066419
0.701524
-0.039747
-0.455838
-0.698604
-0.154346
-0.821873
-0.604299
-0.667634
0.170338
0.872659
0.797337
-0.247739
-0.631786
-0.826384
0.055654
0.102579
0.711977
0.718950
-1.104394
-0.017050
-0.239399
-0.898326
0.364869
-0.302231
-0.859416
-0.459041
0.634011
0.268139
0.389971
-0.219561
-0.915619
-0.099733
-0.805805
-0.420900
0.905872
-0.667408
-0.037147
0.280996
-0.327070
0.167877
-0.409591
-0.289530
-0.132830
-0.918367
0.500749
0.927915
0.343724
-0.268151
0.664281
-0.155057
0.892643
-0.857519
-0.360828
0.661601
0.291306
0.685620
-0.464196
0.549244
0.802695
0.162338
-0.490678
-0.924469
-0.479715
-0.014015
-0.815386
-0.673169
-0.623855
0.883137
-0.193985
0.824281
0.182540
0.032740
0.740259
0.248805
0.278969
0.482181
-0.927797
0.297564
-0.992363
-0.568442
0.029705
-0.525686
0.151078
0.258240
-0.169179
-0.479048
0.043598
0.215253
-0.713646
0.014503
0.124647
-0.857260
-0.697340
0.603596
-0.140479
0.794009
-0.704405
0.916389
-0.258211
0.701282
0.749649
0.795936
-0.718675
-0.453169
-0.052000
-0.735762
0.732617
-0.308074
0.878833
-0.792621
-0.703568
0.204426
0.085942
-0.813760
0.876969
0.268709
-0.111511
-0.606893
-0.256878
-0.353398
-0.860194
0.363815
0.501147
-0.692644
0.142092
-0.332847
0.923923
-0.326365
-0.495518
-0.544389
0.201582
0.053491
-0.001916
-0.355302
-0.606310
-0.698503
-0.548104
-0.685573
0.172863
-0.704238
0.235833
0.751812
-0.490226
0.034421
-0.696705
0.718270
0.350732
0.172636
-0.099314
0.589571
0.089684
0.352624
-0.685658
-0.208357
-0.224041
0.103547
-0.433490
0.670086
0.058140
-0.180184
-0.846465
0.280075
0.658362
0.363489
0.700320
-0.907606
0.390964
-0.719906
-0.941378
0.648023
-0.724404
0.662416
-0.870270
0.391045
-0.310996
0.036345
-0.322987
-0.396692
0.039203
-0.138677
0.971487
0.307035
-0.842146
0.296558
0.139455
0.155852
0.066481
0.832623
-0.891661
0.269445
-0.153917
-0.647496
-0.808484
-0.545292
-0.971205
-0.708014
0.867303
-0.077854
-0.297990
0.790311
-0.942276
0.851270
0.183390
0.737745
-0.364629
-0.968348
-0.918608
0.860996
-0.853219
-0.060701
-0.662558
-0.099237
-0.868526
1.130467
-0.189119
-0.160591
-0.114433
0.906875
0.951781
-0.633553
0.732156
-0.290043
0.292882
-0.930963
0.992305
0.666352
0.398926
-0.689257
-0.102090
-0.532193
-0.650827
0.751208
-0.939623
0.723680
-0.330103
-0.680460
-0.232213
-0.284742
0.252021
0.664918
-0.290239
0.375871
-0.379038
0.666825
0.226108
-0.839220
-0.628297
-0.766349
0.922968
0.841514
1.004548
0.338809
0.587155
0.641382
-0.646049
-0.115474
0.450953
0.634628
-0.553631
-0.778240
-0.464789
-0.541004
-0.991787
0.352158
-0.892947
0.295373
-0.881694
0.704945
-0.228950
0.315364
-0.077614
0.932792
0.860732
0.742289
-0.563204
0.559117
0.978468
-0.024175
0.750165
0.483552
0.481066
-0.647545
-0.143058
0.762641
0.296773
-0.253125
0.272221
0.075963
-0.898710
-0.908329
-0.727639
-0.021683
0.674993
0.695090
0.388572
0.393634
0.551354
0.199835
-0.581172
0.972458
0.387205
-0.677127
0.248333
0.478013
-0.946521
0.418187
0.804626
-0.357993
-0.837929
0.882160
0.803596
0.202969
-0.427421
-0.634694
0.296115
-0.493716
0.527437
0.119721
-0.058982
0.930538
-0.733089
-0.850361
0.520368
-0.933867
0.079885
-0.756167
-0.092672
0.056479
0.544064
0.155749
-0.586223
-0.516161
0.965127
0.396225
0.761973
0.303500
-0.773696
0.429476
-0.422273
-0.193180
0.974201
-0.000990
-0.096769
0.750759
-0.216193
-0.250768
0.683733
0.543043
-0.131758
0.345772
0.693000
-0.057351
0.814560
0.800255
0.760417
-0.118387
0.432860
0.566490
-0.166699
-0.361903
0.238300
0.121613
0.037636
-0.775556
-0.312591
0.340719
0.649309
0.662430
-0.085769
0.354965
-0.831559
-0.730740
-0.664330
-0.042229
0.833306
0.407645
0.911048
0.262687
-0.753259
-0.289535
0.174089
-0.122429
-0.714326
0.013392
0.796261
-0.792258
0.638208
0.612181
-0.584414
0.293082
-0.492535
0.670465
0.732480
-0.062244
-0.687054
0.778076
0.013712
0.280874
-0.859089
-0.486706
0.108161
-0.859590
0.990158
0.831337
0.332748
-0.555311
-0.166690
0.123265
0.060434
0.388501
0.778993
0.412300
0.091302
0.187395
-0.580397
0.929455
0.830824
0.315428
0.951038
-0.444513
-0.214200
-0.770680
-0.714415
0.853299
0.024846
-0.656373
-0.847168
0.587146
0.385822
-0.172121
-0.193174
-0.582138
0.442186
-0.901504
-0.926917
-0.168215
0.537653
-0.508203
-0.243965
0.934480
-0.198384
0.996863
-0.030115
-0.639594
-0.459337
0.207777
-0.864153
-0.638176
0.398721
0.768324
0.711239
-0.841900
0.307673
0.638574
-0.837446
0.258887
-0.915763
-0.964437
-0.550604
-0.894058
-0.484784
-0.699352
-0.588195
-0.057281
0.669314
-0.275381
0.958548
0.018840
0.452081
-0.627052
0.712412
-0.673180
-0.161368
0.522806
0.840539
0.507557
-0.908383
-0.042953
-0.328217
0.767081
0.599014
-0.232621
0.153826
0.452395
-0.472950
0.056424
0.265932
-0.317099
0.135028
-0.933227
0.394117
-0.480528
0.200359
0.010860
-0.071038
0.402970
0.369936
0.163398
-0.442827
0.204417
-0.497344
0.044654
0.750241
0.701439
0.917747
0.713709
0.311813
0.041169
0.731289
0.458611
-0.222471
-0.574657
0.799068
0.153186
0.892402
0.520877
-0.092559
-0.453278
-0.035894
-0.768308
-0.991005
0.267716
-0.285376
0.610564
0.594864
0.871629
0.446642
-0.050807
-0.732437
0.772813
-0.327121
-0.228326
-0.765543
-0.847970
0.773882
-0.253177
-0.677750
0.996862
-0.621799
-0.195110
-0.594178
0.270691
0.048521
0.634011
0.512811
-0.052844
0.852911
0.099464
0.336991
-0.490919
0.261060
-0.853794
0.685106
-0.154871
-0.423337
-0.206096
0.669764
-0.345427
0.809201
-0.439542
0.975972
0.941579
-0.957442
0.471541
0.727622
0.606527
-0.756924
0.488201
-0.547403
0.190117
0.956490
0.539325
-0.357941
0.348099
0.591592
-0.015236
0.306537
-0.379540
0.872000
-0.276092
-0.846277
-0.472836
-0.499156
-0.352051
-0.356520
-0.646089
-0.751768
-0.833132
-1.037651
0.260189
-0.310642
0.442695
0.327771
-0.553967
-0.668628
-0.603729
0.318280
0.285832
-0.785669
0.181619
0.294975
0.381180
0.470196
-0.440774
-0.255012
-0.485311
-0.048662
-0.857092
-0.680806
0.816011
0.512824
-0.756303
-0.632111
-1.079182
-0.418074
0.693198
-1.042893
-0.800581
-0.887423
-0.792117
-0.139060
-0.665246
0.416256
-0.817858
0.827329
0.408185
-0.715422
-0.108431
0.092762
-0.644569
0.824478
-0.699220
0.382119
0.672103
0.155583
0.367903
0.532445
-0.080454
-0.161251
0.409541
0.591317
-0.513127
0.579356
-1.019722
0.349633
0.544099
0.409540
-0.336376
-0.342746
-0.955339
-0.928407
0.553995
0.116451
0.506473
0.984364
-0.016751
-1.096866
0.689225
-0.314576
0.391955
0.656058
-0.870680
-0.169025
-0.568465
0.330025
1.119623
0.259198
0.422492
-0.312752
-0.112795
-0.494195
-0.647367
-0.093785
0.504642
0.775020
0.410933
-0.633797
-0.879970
0.701246
-0.501462
-0.353090
-0.841613
0.339107
0.885251
-0.049574
-0.576146
0.619725
-0.367074
0.668860
-0.010031
0.947170
-0.933963
-0.705722
1.010541
0.397458
0.257833
-0.716820
-0.723932
0.076690
0.562841
0.080891
-1.081613
0.207246
-0.570806
0.791293
-0.938752
-0.396302
0.603350
0.019377
-0.471881
-0.290810
-0.716286
-0.123078
0.686393
-0.238695
0.756847
-0.419498
0.651355
-0.039039
-0.745114
0.460747
-0.193173
0.774465
0.813741
0.021737
0.225328
-0.907836
-0.581491
-0.545431
0.828871
-0.212397
-0.094154
-0.474597
0.080572
0.918692
-0.853177
0.283453
-0.317607
-0.367676
-0.903931
0.859772
-0.468457
0.336203
-0.026452
0.130202
-0.141169
-0.651716
-0.457937
0.435072
0.134584
-0.602354
0.298420
0.509450
-0.402596
-0.147465
0.733126
-0.747273
-0.541495
0.338138
0.667088
-0.983602
0.139539
-0.530196
-0.536027
0.812558
0.158465
0.875836
0.924292
-0.440596
0.875108
0.722026
-0.073651
-0.872388
-0.884639
-0.484696
0.722033
-0.968468
0.736302
0.874270
-0.011572
0.019837
0.814941
-0.106867
-0.665585
-0.622367
0.802771
0.973592
-0.819766
0.321849
-0.900505
-0.511394
-0.478572
-0.552787
-0.412410
-0.768844
-0.833942
0.429612
-0.646533
0.304354
-0.313510
-0.529187
0.143394
-0.244768
-0.732432
-0.878920
-0.001320
-0.602666
-0.938224
-0.344549
0.682611
0.371272
0.600940
0.691306
0.240956
0.727409
-0.119141
-0.292279
0.669160
-0.736211
-0.821587
0.537921
0.315903
0.861891
-0.596882
0.746230
0.949124
0.253015
0.537763
-0.190357
0.782425
-0.773904
-0.497478
0.504913
-0.862892
0.019220
0.544236
0.685967
0.587864
-0.133115
0.688491
-0.188097
0.960075
0.444007
-0.060891
0.720194
0.833646
0.671887
0.765044
0.155650
0.553577
-1.004336
-0.276473
-0.888168
0.675349
0.452849
0.175794
-0.143998
0.400471
0.708409
0.090483
-0.160977
0.045876
-0.985253
0.628798
0.648754
0.804265
0.843953
0.384702
0.309528
-0.449074
0.284443
0.021784
-0.446024
0.441484
0.257716
-0.394744
-0.525729
0.205815
0.908948
0.410835
-0.258509
-0.046866
-0.502891
0.044188
0.305272
0.715038
-0.585677
-0.714613
-0.871427
-0.960084
0.613756
-0.826602
0.312999
-0.260004
0.193565
-0.060673
-1.067883
-0.948990
0.955983
-0.383748
0.108298
0.709035
-0.115086
-0.568825
0.041047
-0.517900
0.661217
0.304301
0.043611
0.890483
0.626154
0.822292
0.987101
-0.630584
-0.938550
0.732329
-0.729015
0.898161
-0.000863
0.154964
-0.301875
0.789795
-0.297821
0.267733
-0.157302
0.093896
-0.070095
0.982038
0.117001
-0.423452
-0.809896
0.637699
1.004948
-0.729135
-0.043615
-0.383348
0.960609
-0.531339
0.356226
0.770479
-0.528193
-0.993842
-0.889398
-0.068070
-0.822007
0.573461
-0.008330
1.012122
0.682537
0.069111
-0.293460
-0.306425
0.786283
-0.254034
-0.560645
0.150300
0.533295
-0.981382
0.699828
-0.691594
-0.169395
-0.830619
-0.232139
-0.389989
0.532252
0.996850
0.316938
0.840292
-0.561381
-0.538547
0.704695
0.435215
-0.944817
0.739273
0.238902
-0.440151
0.492094
-0.198253
-0.039867
-0.550335
0.206828
-0.068663
0.236489
0.160858
-0.324574
-0.409545
-0.064049
0.830305
0.981203
0.076929
0.143156
-0.282566
-0.669146
-0.521763
-0.398518
-0.452096
0.735467
-0.293529
0.706764
0.023227
-0.935449
0.499952
-0.802094
-0.176686
0.403191
0.899160
0.875723
0.915751
0.923225
-0.292655
0.082071
0.399694
0.041315
0.424296
-0.318541
0.918997
-0.222813
-0.797674
0.252968
0.842424
-0.886420
0.866620
-0.121886
-0.785861
0.412678
-0.772642
-0.616229
-0.150541
-0.260012
0.235925
0.331869
-0.058786
0.172223
-0.464332
0.163067
-0.964567
0.417905
0.990184
0.338246
0.762523
-0.374292
0.891341
-0.541386
-0.534002
0.653061
-0.876768
0.487549
0.773414
0.632749
0.626684
0.617571
0.521240
-0.342134
0.082908
0.769777
0.818651
-0.449780
-0.544887
-0.412768
-0.974301
0.808276
-0.440797
-0.278805
0.939253
0.220732
0.346807
-0.601426
-0.959626
0.868847
-0.044240
-0.135971
0.267062
-0.218775
-0.511925
0.444352
-0.075494
0.486992
0.664425
-0.815944
0.475892
-0.424082
-0.668851
0.904285
0.104369
-0.048437
-0.421177
0.590292
-0.118960
0.448519
0.837038
1.092166
0.784742
0.182964
0.930987
0.224777
-0.095056
-0.157246
-0.725151
0.610703
0.239036
0.704850
-0.856452
-0.748127
0.271371
0.035133
