3072 30 10 10.0000 200 200 100
-0.092785
-1.326427
-1.140190
-0.813213
-1.175970
-0.801657
-2.228443
-2.492172
0.066513
-1.856412
0.180982
-0.413460
-6.883240
-0.485150
-1.564047
-14.356299
21.136861
0.014498
25.626070
0.217878
0.273642
-7.281290
3.846941
-8.512520
15.221704
0.037407
0.220748
-2.058059
-0.828681
-0.071357
-8.425877
-1.500049
-10.734126
0.140521
0.641243
0.024112
0.075000
-4.564106
2.116824
-0.170703
0.510233
0.338499
-0.433103
0.914243
-0.645389
1.451888
-2.461823
0.229239
-1.064778
-0.151844
0.190827
-0.222011
0.879497
-1.096997
-0.240444
-0.460468
0.276635
-1.313891
1.399923
-1.745924
2.142801
-0.822309
0.852674
0.597466
0.022800
0.920247
0.488614
-1.519716
0.669051
-1.027286
0.993420
-0.881199
-1.956322
0.618619
-0.167890
1.289826
-1.499219
-0.574907
1.037723
0.606902
0.936394
0.678047
-0.119264
-1.475836
2.155763
0.870121
-0.361771
-0.180082
-0.098717
-2.200816
-0.120721
-0.521016
0.152114
0.468631
1.213582
0.516704
0.340486
0.741258
0.639876
-0.230701
0.724110
-0.776593
-1.756272
-0.346556
-0.037715
1.143902
-0.230441
-0.843342
0.954603
0.763252
-0.431770
0.128391
-0.041662
-1.736919
1.412244
0.221441
0.332387
0.056244
1.090411
-0.753808
1.026460
0.882328
-1.882017
0.342265
-0.036566
-0.908925
-0.161657
1.116570
-0.661947
0.922189
0.781491
0.737547
-2.338424
-1.724006
-0.426919
0.696066
0.118837
0.257048
0.032274
-0.118950
-0.937513
-0.246249
-0.439949
-0.076244
1.218225
-0.122409
-0.685226
1.371756
0.129322
-1.132722
0.119902
-0.689366
-2.583885
0.288081
0.688316
-0.156544
-0.832205
-0.062812
0.308338
-0.489915
-0.789918
-0.682612
-0.778985
-0.484880
1.077703
1.154533
-0.285969
-0.180228
-0.059003
0.451798
0.133959
-1.242508
-0.236500
-1.102309
1.951236
-0.299809
-0.739717
0.948327
-0.387794
-0.341901
-0.266723
0.187351
-1.653373
0.806371
-0.193428
0.477849
0.080551
-0.413764
-0.583530
-0.950661
0.734783
0.822191
-1.477624
-0.172401
0.714119
0.299907
1.163234
-0.783516
1.938802
0.232475
0.948592
-0.678064
1.450672
-0.135961
0.900883
-0.324916
-1.125350
1.117540
0.427124
-1.445767
-0.241481
0.683951
-1.677826
0.623588
0.995618
0.192532
0.026757
0.009981
-0.751284
-0.965369
0.760818
-0.143542
-1.326919
-0.020789
1.488777
1.058339
1.000690
-1.122359
0.535130
-0.224310
0.588039
-0.276234
1.032947
-1.277142
0.513002
0.725275
0.144858
1.458976
1.234615
-0.583258
0.712399
0.271520
-0.703249
-0.781409
0.956630
-0.594382
-0.413885
-0.208356
0.667536
-0.324551
-0.758166
0.815948
-1.767719
0.177907
-0.390055
0.238476
0.737497
-0.942179
1.480673
-1.101248
-0.135535
-0.232186
1.718097
-0.677033
0.090108
-0.758298
0.549383
-0.149908
0.385683
-1.787139
0.778986
0.265662
-1.714913
-0.899020
1.189974
0.115552
0.269724
-0.755486
-0.730390
-0.953585
-0.021630
0.898311
0.356471
-0.136096
0.599624
-0.147289
0.228497
-1.047550
0.614845
0.140801
-0.361622
-0.007916
1.450974
-0.116002
-0.739035
-0.619424
-0.829074
1.589025
1.412338
-1.400916
-0.963306
0.533111
-0.067061
-0.739603
0.339199
0.215924
-0.600564
-0.848359
-0.095018
0.848073
0.799801
0.852464
-1.035235
-0.704884
0.290394
1.548049
0.231283
-0.836023
-0.078015
0.658381
0.864696
-0.820092
-1.051342
-1.060196
0.114271
0.198277
0.727041
1.470486
1.141323
0.074068
-0.352174
-0.513169
-0.802623
-0.572052
-0.074494
0.532415
0.894396
-0.742711
0.162739
0.040042
-0.191768
0.387557
-0.118274
-0.057509
0.387462
0.809950
1.029076
-0.728182
0.644044
-0.179362
-0.958506
-1.333687
-0.784372
-1.806920
0.749171
-0.480822
-0.269009
1.175813
0.968017
1.045931
-1.127981
0.454633
-0.455617
0.779297
1.448422
0.582602
0.775179
-0.492709
0.249349
-0.130535
-0.638165
-0.671101
-1.337839
-0.605502
0.845595
1.083585
-0.497833
0.495370
0.841731
-0.350471
0.949110
0.472442
0.322220
-1.207465
-0.932759
-0.188688
0.962825
0.440801
1.162938
-0.130559
-0.452332
-0.767778
-0.893533
0.833199
0.829122
-0.512663
-0.578217
1.053637
-0.166402
0.647855
0.152397
-0.761309
-1.602225
-0.249831
1.062245
0.352638
-0.402871
-1.006092
-0.674281
-0.205180
0.465243
0.326868
-1.006061
-0.630781
-0.759544
-0.109828
-0.733001
-0.140072
-0.183387
-0.377821
-0.840290
0.422990
0.682688
-0.030482
1.480877
0.164334
-0.114642
0.639397
0.458840
-0.954028
-0.281855
-0.249127
-1.420044
-0.700392
0.595891
1.214097
-0.506957
-0.499155
-0.098945
-1.049186
-0.825972
-0.503965
0.542416
-0.010149
0.868693
-0.870735
0.408268
0.595167
-0.541877
-1.536289
0.164700
-0.259073
-0.096840
0.441041
0.294192
0.295383
-0.181108
1.448078
-0.289053
0.246528
-0.273001
-0.398518
0.336444
0.000011
-0.192772
0.058006
-0.228207
0.567722
1.841311
0.666194
-0.810463
-1.537891
-0.022045
-1.165590
-0.848386
-0.817764
-0.195912
-0.359794
-0.220904
0.351848
-0.039411
0.541507
-0.759602
-1.046218
0.768847
-0.581777
0.890234
2.128594
0.798101
0.261458
-0.505893
0.139086
-0.845195
-1.411325
0.483694
-0.094228
0.381568
0.097956
0.104050
-1.443985
0.164756
-1.720512
1.085757
0.090583
-0.363811
-0.206084
0.218917
0.227994
0.280534
-0.480788
-0.004268
-0.311790
0.623850
0.643739
-1.006451
0.497560
0.777878
1.073661
-0.613745
-0.888086
0.133547
0.013447
-1.037891
-0.999256
-0.359070
1.475330
-0.223021
0.763174
0.943801
-0.232745
-0.524483
0.293680
0.452990
-1.366452
-0.587602
-0.918608
-0.429784
1.290385
1.261921
0.314650
-1.283777
-0.881795
-0.437923
-0.822234
-1.402096
0.581881
0.877973
-0.512777
0.725648
-0.310891
0.113067
-0.468781
-0.807773
0.145255
-0.816461
-0.372691
-0.934931
0.854075
0.231242
-0.700142
-0.757264
-0.488259
1.693328
-0.783913
0.341325
0.634499
0.135689
0.305305
-0.193763
-1.226204
-0.279016
-0.054553
0.423696
-0.217095
0.139805
0.385415
-0.204900
-0.785900
-0.286500
0.311218
-0.391252
-0.521262
0.733067
-0.576046
0.584135
0.322143
0.278471
-1.079156
0.873498
-1.411739
-0.901215
-1.862344
0.015831
-1.769296
-0.904209
-0.946163
-0.315841
0.875623
-0.238290
0.057690
-0.392425
0.879128
-0.756306
-0.247707
1.331595
0.657012
-0.906003
-0.319508
0.765118
-0.028453
0.953855
0.391230
-0.296189
0.578092
-0.047386
1.283824
0.123486
0.296709
1.103878
0.128973
-0.486201
-1.568803
1.723346
-0.706003
-0.282584
0.633443
0.683498
1.490923
1.333532
0.138019
-1.461830
-0.727601
-1.751577
-0.937355
0.952560
-0.652368
-0.829732
0.465917
-0.730476
0.385607
-0.737577
0.686364
-0.675371
-0.671131
-0.965042
1.010773
-0.100743
-0.504765
0.441729
-0.429895
-0.767215
-0.512341
0.454762
-1.513769
0.772702
-0.969941
0.821562
1.083844
0.748689
-0.455336
-1.844178
-0.619221
-0.832849
-0.048570
1.134576
0.457885
-0.669429
0.766948
-1.123058
0.145831
0.148326
0.683088
-0.439527
-0.039398
-0.752099
-0.785331
0.279004
-0.565765
0.378972
-1.439606
-0.500057
0.290558
1.384973
-1.053912
0.077550
0.096921
-0.387636
0.715480
0.826149
-0.796339
-0.291405
0.248718
0.497985
-0.325540
0.931931
-0.101738
0.477861
0.302205
-0.502250
0.336185
0.551548
0.856267
-0.644349
-0.784998
-0.881282
-1.334596
0.379475
-1.147167
-0.579608
-0.890950
0.651671
-0.819325
0.174755
0.406194
-0.370747
0.802880
1.172882
0.476803
0.267458
-0.205925
-1.631144
-0.701446
-0.638011
-0.772253
-0.693104
0.002273
0.289661
-0.050365
-0.012300
-0.971592
-0.866692
0.430425
-0.618322
-0.133401
-1.003362
-0.155756
0.271623
0.366819
0.121065
-1.069110
-0.548931
-0.803568
1.522863
0.533528
-0.548726
0.145204
-0.374975
0.612734
0.934254
-0.674885
-1.591396
0.808395
-0.772450
-0.509817
0.599907
0.661984
-0.543438
0.838916
-0.359640
0.231770
0.050253
-0.814251
-1.803614
-0.094467
-0.025475
0.771227
0.363196
-0.382704
0.012049
0.365455
-0.221745
-1.021773
-0.023655
-0.746935
-0.887009
-0.112528
-0.778174
-0.240907
0.038692
-1.228914
-1.124124
-0.709548
0.126981
0.904409
-0.411501
-0.078360
-0.127504
1.934409
-1.157352
-1.082542
-0.623677
-1.008780
-0.684681
0.952813
-0.201929
0.518325
0.289447
-0.375980
-0.313845
-0.348592
-0.735430
-0.580494
0.620514
-0.930695
0.253928
0.855929
1.087733
0.738399
0.014908
-0.650720
0.024470
0.786068
-0.995237
-0.446342
-0.456773
-0.934562
0.697572
0.044005
-0.891358
-0.432154
0.148900
-0.402611
-0.633881
1.467071
-0.003723
-0.157827
-1.444197
0.296164
0.586065
-1.267576
-0.580421
0.014777
-0.421338
0.605765
-0.614621
-0.515568
-0.414724
0.234927
0.741169
0.421134
0.307157
0.802708
-0.974655
-0.749401
0.598250
0.656910
-0.945841
0.164292
-0.065429
0.633985
-0.434076
-0.764684
-1.099701
-0.888534
0.435015
1.724573
-1.229771
0.058983
0.166564
-0.524964
0.631192
-0.935674
-0.009238
0.553760
1.093036
0.262869
-0.226882
0.026877
0.752722
-0.567061
-0.480642
0.517708
0.863933
-1.013798
1.026317
-0.672873
0.799293
0.672380
-0.459354
0.368180
0.886982
-0.889082
-0.702526
0.975290
0.273396
0.933473
0.156792
-0.422803
-0.586295
0.560543
0.429978
-0.271118
0.622386
-0.283135
-1.270219
-0.175686
0.850967
0.744672
1.731516
-1.158255
-0.615580
-0.289582
-0.111592
0.790972
-0.146643
-0.769958
0.133699
1.100301
-0.703314
-0.089547
0.657195
-0.931734
-0.433978
0.734905
0.822974
1.493518
1.009122
-0.234872
-0.930380
-0.066029
-0.143565
-0.326565
0.405665
0.350246
0.721441
-0.259857
0.160661
1.128418
0.356446
-0.778894
1.324466
-0.829783
-0.919596
-0.751570
-0.044924
-0.500181
-0.841809
1.255219
0.770124
0.092141
0.867038
-1.313117
-1.054786
0.701733
0.069973
1.285336
-0.342318
-0.746004
-1.245195
-0.316468
-0.410154
-0.086566
0.796368
-1.228653
-0.386032
-0.234305
1.075574
1.492810
0.595997
-0.862106
0.032725
0.943242
-1.013728
-0.451116
-0.767786
0.811162
0.248552
0.818617
-0.452537
0.716013
0.501469
-0.972290
-1.572749
0.501812
0.851631
-0.125814
-2.692474
0.390649
-0.594865
-1.083590
-0.036921
0.418791
0.952499
-0.357126
0.574904
-0.291139
0.673319
-0.130298
-0.238917
-0.441567
1.863695
0.489212
0.138241
-0.750769
-0.916116
0.929750
-0.454966
0.113341
-0.119105
0.148039
0.421981
-0.821219
-0.343362
-0.357871
-0.756531
1.262058
-1.707274
-0.205154
0.037762
0.414100
-0.519816
-0.823563
1.249561
-0.735134
-0.159872
-0.403978
0.793375
-1.062798
0.159684
-1.963328
0.429747
1.024141
0.714437
-0.433505
0.821836
0.279927
-0.084003
-0.709635
0.049519
-0.672988
-0.479317
-0.933209
-1.427004
0.055976
-0.127489
0.663228
0.439850
-0.604633
1.520653
0.981668
-0.864795
-0.170694
0.710636
-0.473180
0.370990
-0.711262
-1.020047
0.970524
0.757277
-0.768070
-0.944937
-0.791803
-0.679411
0.540314
-0.229437
0.039069
0.246430
0.851399
0.723124
0.776892
0.818902
0.274621
-1.860454
0.008272
0.592390
-0.574419
1.160421
0.884262
0.100115
0.964862
-0.429254
0.028312
0.308416
-0.552715
0.311925
-0.694461
-0.919324
1.212178
-0.479188
-1.743078
-0.781086
0.681323
-0.116655
0.933556
-0.519451
-0.038883
-0.187899
-0.217793
-0.481539
-0.208835
0.076053
-0.754446
0.036210
-0.467671
-0.007974
-0.770474
0.807197
-0.838645
-1.620888
0.724906
-0.971373
-0.319013
1.022807
-1.178539
0.619862
-0.600882
-0.333251
1.805438
0.261334
-0.438658
0.045721
-0.665065
-0.948091
0.487471
0.975389
-0.806486
-0.988831
-0.014058
-1.478507
-0.294358
-0.587314
0.963625
-0.805952
-0.166803
1.287117
0.192083
0.122476
-0.364860
-1.097929
0.144509
0.870664
0.085563
0.101916
-0.314084
0.797651
-0.584953
-1.111345
2.086174
-0.565974
-1.387673
-1.066794
0.686008
-0.995685
0.988377
1.104140
-0.494252
0.079832
0.390896
-0.533765
0.324996
-0.737015
0.938147
-1.331197
-0.700331
0.429089
-0.577408
-0.480153
0.772392
0.634284
0.917560
-0.068464
-0.231830
-0.253427
-0.296168
1.184763
0.941942
0.457860
1.673556
0.939964
-0.385074
1.309598
-0.935359
-0.289150
-0.568836
0.262920
-0.199936
0.762644
0.354284
-0.482780
-0.935124
0.660732
-0.687311
0.149094
-0.012749
1.392490
-0.044198
1.027224
-0.330244
0.545679
0.048720
-0.011401
-0.969288
0.468933
-1.443602
-1.348644
0.195849
-0.391436
1.134516
0.618918
-0.361430
0.478605
0.275044
-0.854094
-0.352041
-0.042402
0.393266
-0.245580
1.288895
0.091222
0.215984
0.663183
0.612614
-0.797734
0.010699
0.619032
1.343308
-0.306380
0.624225
0.159131
-1.237245
-0.205300
-1.235650
1.136318
-0.958495
-1.861834
0.024179
-0.493906
0.299757
0.256580
-1.658872
-0.283833
0.252615
0.212836
-0.474639
0.954861
-0.666877
-0.327892
1.110412
-1.366891
0.487045
0.951291
0.861754
0.993648
0.281611
1.165321
0.369506
0.820984
-0.854243
1.252687
-1.177070
-0.047120
-2.311173
1.486496
0.011565
-0.559686
-0.919065
-0.852488
-0.197615
1.347239
-0.579979
-0.421746
0.050895
-0.575718
-0.482570
0.537643
-0.891551
-0.773437
-1.267638
-0.067592
-0.625612
0.065158
-0.598939
-0.899976
1.082265
0.134267
-0.837273
0.830700
0.410740
-0.102320
-1.407655
-0.506089
-1.038255
0.137949
-1.014697
-0.265492
-0.947492
-0.466904
0.730801
0.444442
-1.422490
0.357778
-0.931514
0.361009
-0.340797
-0.165385
0.699361
0.865406
0.661660
-0.883142
-0.883236
-0.666990
0.600037
-2.070672
-0.353267
-0.171835
0.743587
1.992119
0.294745
0.642804
0.683955
-0.652521
-1.069027
-0.958172
-1.000053
-0.457673
-0.666715
1.223608
1.511012
1.099329
-0.232084
-0.186186
-0.769828
-1.389597
0.520645
1.270781
0.771314
-0.292956
-0.911582
-0.094528
0.116552
0.174224
0.616838
-0.439133
-0.517338
0.466297
0.734047
-0.058040
-0.735448
-0.287952
1.187720
0.613814
-0.722724
-0.489540
0.199054
0.472644
0.770274
1.000298
1.041020
1.287881
-0.346796
-1.800936
0.825170
-1.339350
0.592199
1.247197
-0.488222
0.130821
1.647090
-0.092918
-0.207072
-0.296831
-0.736902
-1.356009
-0.605905
0.568680
-1.450371
1.190336
0.583113
0.140179
0.936493
0.721374
-1.191026
-1.161409
1.212033
-1.187450
-0.119362
-0.110309
1.428715
0.095282
-0.599765
0.671471
-0.776987
0.589896
-0.159331
1.306088
-0.692399
0.963705
1.172259
-1.129672
0.660604
-0.053465
-0.106512
-0.041961
0.132770
0.713787
-0.515109
0.945802
-0.175318
-0.810610
-1.149029
-0.347816
-0.905976
-0.508132
0.788473
-0.416304
0.884650
1.151399
-0.310890
-1.218347
-0.628133
1.496629
-0.107523
-0.021197
0.617206
1.135980
-0.487814
0.888374
1.336029
-0.370037
-0.619430
0.882600
-0.038081
-0.116985
0.601177
0.291376
0.726093
1.018539
0.264992
0.719493
0.609734
-0.153214
-2.006435
0.292520
0.382167
0.202228
0.170833
-0.441628
0.956987
0.099608
-0.695242
0.209767
0.795247
-0.457411
-0.618391
0.646924
0.121469
-0.872126
2.026427
-0.330535
-0.962914
0.563044
0.407845
0.683788
-0.028711
-0.205076
0.574707
-0.019193
-0.421096
0.375105
-0.392723
-0.542538
-1.380536
-0.115373
0.604084
0.755370
0.501940
0.246949
1.132569
-0.646183
-0.538728
-0.875921
0.645067
-0.071049
0.186345
0.658200
-0.354300
-0.255471
0.663026
-0.931387
0.377457
1.008500
0.441657
-0.071752
0.598348
0.218880
0.165277
1.946175
0.425907
-0.963247
-0.422101
0.246676
-1.245627
-0.208570
0.440060
-0.092611
-0.883557
0.416908
0.881159
0.968203
-0.495728
-1.223858
-0.575345
0.822536
-0.562370
-0.254945
0.392752
0.636997
1.384644
-0.884305
-0.189846
0.742358
-0.518422
-0.661561
-0.370742
-0.967380
-0.275222
0.109821
0.536879
-0.424199
-0.838673
-0.792415
-1.006273
0.812407
-1.625208
-0.120874
0.287165
-0.413882
1.834590
0.611572
-0.498285
0.246529
0.074311
0.506136
0.624648
0.318675
0.775296
-0.046317
-1.003275
1.319591
0.669045
-0.405875
1.045690
0.474229
0.371702
-0.715321
1.020835
1.364963
-0.222986
-0.476226
0.571646
0.823739
-0.315679
-0.316074
-0.460188
0.528599
0.136428
1.492044
0.630023
0.412905
-0.024891
-0.470253
0.379839
-0.671244
-0.011721
0.344538
-0.997273
-0.715809
0.292411
-0.059608
0.793923
0.466572
0.242790
0.458335
0.502181
-0.165469
1.110591
1.123809
0.842874
-0.092232
-0.028673
-0.010169
0.323329
0.447712
-0.289164
-0.175229
-0.409608
0.112721
0.214335
-0.285118
0.628090
1.333583
0.883795
-0.251108
-0.488580
0.657763
-0.276944
0.870276
1.244520
0.820082
0.150587
0.424497
-0.213432
-0.810212
-0.733412
0.789840
1.017643
1.360526
-0.113446
-0.975619
0.070032
-0.191976
0.518945
0.033712
-1.026674
1.437318
-0.911895
1.081818
0.355890
1.175373
-0.287432
0.029913
0.424842
0.812352
-0.070029
0.188812
-0.102700
0.903076
-0.143172
-0.891031
0.718673
0.153704
-0.829702
-1.010185
0.223337
-0.181929
0.238258
0.278161
-0.495456
-0.157358
-0.436378
-0.566123
-1.011189
-1.271188
1.012955
-0.312108
-0.462113
-0.722886
0.133252
0.758889
-0.110616
-0.294193
-0.270979
0.143852
-0.569928
-0.333641
0.208493
-0.195319
1.029535
0.915897
0.404831
1.003636
0.272387
-0.485329
0.798212
-0.118291
-0.273383
0.393044
0.066126
-0.069467
-0.522371
-0.948125
-0.825470
-0.816960
0.520002
-1.607163
-0.194980
-0.112656
0.882877
-0.505065
0.311263
0.177763
0.377867
0.733163
0.045202
0.818226
-0.736975
-0.364338
0.661480
0.242933
-0.046136
0.773961
-0.160922
-0.593802
0.667262
-0.969268
-0.198996
-0.990217
-0.775241
0.529881
0.187595
0.835994
-1.852454
0.777877
-0.318482
0.291150
0.530644
0.917533
1.101029
1.535703
0.929210
-1.206993
-0.058021
0.309440
-0.282575
0.139951
0.549036
0.722831
-0.181265
0.780673
-0.852046
-0.672118
-0.034690
-0.916444
0.014785
1.082335
-0.370322
0.342320
-0.390668
-0.767862
0.943389
0.604935
-0.131116
-0.368052
-0.353291
0.436496
0.046983
-0.226834
-0.283719
1.937890
1.197738
-0.034706
0.800655
0.687308
-0.776417
0.819006
-0.029999
0.892029
1.517448
0.256261
0.529484
-0.527762
0.183571
-1.327829
0.729723
0.165629
1.155309
-0.640983
-0.042502
0.851733
0.750967
0.639782
-0.029994
0.110343
1.116500
0.516510
-0.198862
-0.202986
0.096272
1.097819
1.299930
1.098617
-0.642301
-0.369108
0.251847
0.837736
-0.961213
0.408326
0.545208
0.142346
-0.765016
-0.094075
-0.196471
-0.943111
0.498066
0.391139
0.880489
-0.404549
-1.034256
0.347237
-0.299295
-0.345501
-1.872552
0.166717
0.802776
-0.637830
-0.973925
0.377103
0.535094
0.458437
-0.367861
-0.237984
0.057395
0.280374
-0.712622
1.813616
-0.034817
0.419500
0.909029
-0.665434
0.303555
-0.588299
-0.791151
-1.630697
-0.318965
1.064611
-0.038099
0.350777
-0.727405
-0.314202
-0.091146
-0.025837
-1.690101
-0.395428
0.090036
0.787448
-0.379324
0.455905
1.297747
0.360341
-1.437275
0.100176
0.561991
1.260299
-0.759824
0.795855
-0.787732
0.762750
0.332504
-0.215925
-0.458249
0.439536
0.051411
-1.403233
1.284195
0.699401
-0.083693
0.994077
0.356363
0.047766
0.665985
0.040910
-0.109385
-0.251286
0.750046
1.226140
0.616994
0.675879
0.290803
0.384171
-0.044016
1.387776
-0.098216
0.841151
-0.230104
0.203438
-0.847825
-0.318367
1.177610
0.431425
-0.761199
0.423551
-1.196094
0.058761
1.456377
0.441018
-0.025163
-0.440177
0.029036
0.107553
-0.136514
-0.922061
-0.858187
0.550653
-0.473487
1.325587
0.877865
-0.209757
0.026254
1.648058
-1.215992
0.037477
0.028614
-0.594714
-0.905530
1.189776
-0.389303
-0.899962
0.085719
-0.552792
0.826981
0.784149
-0.823281
-1.412978
0.702707
0.742395
1.473165
-0.527978
-0.660840
-0.059413
-0.432389
0.015816
0.161764
1.990756
-0.078756
1.558847
-0.974900
0.597036
0.413407
-0.377133
-0.150712
-0.327911
0.110582
-1.112014
0.855864
0.422860
-0.909333
0.225129
-0.285556
-0.269566
0.024621
0.387329
-1.313721
-2.106326
1.443683
-0.411357
0.690543
-0.539871
-0.862903
-0.849578
-0.442064
-0.579013
-0.978466
1.008784
-0.713537
0.087606
-0.979646
0.505648
0.346408
0.546440
-1.859545
0.117847
0.644048
-0.706125
0.114979
-1.553227
-0.401310
0.325992
-0.331100
0.902716
0.136580
0.039420
0.472287
-1.397697
-1.048103
0.733583
0.837331
0.465887
-0.452505
0.009135
-0.678560
0.661613
0.482528
0.883763
-0.662367
2.241846
0.427075
-0.172519
1.175897
1.146667
-0.315136
1.039742
-0.221119
-2.309967
0.105726
-0.196460
-0.072027
-0.382202
-0.825557
1.023815
0.109507
0.956919
-0.365086
-0.363405
-0.589706
-1.113005
-0.995134
-0.332842
-0.675844
0.808459
-0.676183
-0.700346
1.219420
-0.735317
-0.557521
1.387618
0.287154
0.439935
1.335722
0.823360
-0.659600
-1.893630
-0.511461
-1.659227
0.393264
0.849248
-0.319174
-0.154922
1.432941
0.613745
0.399951
0.522576
-0.328807
-0.231966
-0.765374
-0.702100
0.071239
0.744496
-1.127434
0.014708
1.516541
-0.125772
-0.556597
0.395487
-1.624404
0.000193
0.373571
-0.676223
1.399543
-0.083800
-0.493954
-1.138565
0.498834
-2.203606
-0.028098
-0.317096
0.563527
-0.304654
1.501521
-0.886048
-1.078304
-0.465629
0.167437
0.546589
-0.494499
0.221223
0.278466
0.848486
-0.099795
-1.126465
-0.439431
0.397334
0.963247
-0.321507
-0.995316
0.094535
-1.034862
-0.575275
0.701533
-0.454715
-1.381406
-0.699008
0.781920
-0.624892
-0.344883
-0.037153
-0.362903
0.216747
1.229797
-0.359770
0.000912
0.030125
0.919799
-1.322018
-0.963437
-0.530940
-0.240330
1.134229
0.338765
0.004733
1.097529
-0.814494
-0.543422
-0.984410
-0.066000
-0.634859
-0.386708
0.625708
1.264226
-0.761925
-1.040339
-0.648849
0.717504
0.140363
-0.012247
0.760881
-0.981425
-0.360216
1.440995
-2.316702
0.252962
0.012959
-0.574433
-1.530375
-0.717202
0.419318
-0.079797
-0.853724
-0.825484
0.160626
0.453949
0.272029
-0.710894
-0.153250
0.844413
0.110716
0.553981
-0.420174
-1.520390
-0.685790
-1.089125
0.720911
-0.910608
-0.337383
0.631993
0.466488
-1.000840
-0.222334
0.184251
-1.023726
-0.188559
-0.676555
-1.069812
-0.366384
-0.547100
1.123518
0.483159
-0.771890
-0.517846
0.871149
-0.498539
0.125208
0.627306
0.773347
0.207580
0.331342
-0.791695
0.591695
-1.478766
-0.764172
-1.101391
0.019004
0.693387
-1.096138
-0.844300
-0.249964
0.915549
0.298372
1.051810
-0.110253
0.836912
0.673046
0.573158
-1.659498
-0.610488
0.671570
-0.051296
0.114218
0.161447
-0.646342
-0.226982
0.586211
0.244409
0.924702
0.904758
-0.265267
0.317344
-0.103503
-1.934667
0.903958
-0.349268
-0.108059
0.126769
-1.320337
-0.550920
0.818146
-0.486197
0.347324
2.205124
-1.009509
-0.245720
-0.551259
-0.182441
0.217370
-0.215618
1.477150
-0.138358
0.127905
-0.112491
-0.342238
-0.454875
-0.188185
-0.417685
1.727997
1.031293
-0.217900
0.234699
-0.715535
-0.740631
1.090752
-0.302614
0.312252
0.935880
0.224705
-0.507805
0.686212
0.308422
0.285513
1.260198
-1.019468
-0.051969
-0.823958
0.065523
0.558799
0.385320
-0.696975
0.095681
1.426370
0.655294
0.025700
0.735788
-0.832516
-0.179812
0.646023
0.786907
0.924720
0.722044
0.903156
-0.532723
-0.536197
-2.126478
-1.776225
-0.502197
-0.604090
-0.497236
-0.945271
-0.121146
0.701575
0.137934
0.335445
0.196520
-0.479441
-1.285511
-0.813232
-0.027354
0.444768
0.296173
0.844342
-0.882974
-0.068649
0.416493
0.534699
-0.901424
-0.153505
-0.549216
0.843688
-0.661693
0.135946
1.502831
-0.198995
-0.394129
-0.387945
0.060068
-0.049107
0.177426
0.153258
-0.826716
0.521557
0.666808
-0.264977
-0.953731
-0.720931
-0.720558
-0.383756
-1.031363
-0.191610
-0.148836
1.169357
0.218923
-0.095942
1.236853
0.297466
-1.243126
0.712319
0.804092
-0.333914
-0.522415
1.331001
0.084786
-0.878990
-1.087355
-0.109823
-0.462419
-1.716824
-0.860358
0.229881
-0.975995
0.524311
0.530887
1.680152
-0.431181
-0.804378
-0.223223
-0.750734
0.218989
0.640862
-1.179863
0.446244
0.404777
-0.838123
0.322751
-1.035355
-1.080130
0.264319
0.841309
-0.814640
-0.689893
0.631797
-1.404668
0.433438
-0.556323
-0.083915
0.816362
-0.908680
0.663762
-0.482149
-0.311181
-0.709981
0.914202
0.604164
0.787465
-0.681944
0.827986
-0.014296
-0.290156
0.523689
0.439409
0.961120
0.016520
0.634463
0.372548
-0.454798
-0.157622
0.720587
1.770173
-0.502646
0.060745
0.957115
-1.387030
0.258079
-0.496229
0.695179
-0.126966
0.533752
-0.401758
0.094910
0.901895
0.823906
-0.419471
-0.341562
0.546767
0.647187
-0.184752
1.212510
-0.350918
1.183622
0.173649
0.440906
0.378436
0.021852
0.151621
0.129173
-0.367432
0.548949
1.037050
-0.771690
-1.037841
0.868485
-0.628180
-0.649573
1.046242
0.527941
0.390578
0.074119
0.291829
1.303892
0.195935
0.625692
-0.567564
0.087334
0.142529
0.349106
-0.483459
1.448985
-0.947695
0.738952
-0.828137
1.283256
-0.558044
-0.155482
0.496157
-0.697235
0.348940
0.600195
-0.459389
0.676537
-0.356650
-0.172849
-0.008657
0.074366
0.722558
-0.820607
-0.619250
-0.808218
-0.811725
0.406604
0.651738
0.782559
-0.551613
-0.472365
-0.051794
0.439788
0.470119
0.534347
-1.129939
0.538124
-0.346780
2.496208
-0.869838
0.747276
0.294301
-0.215248
-1.093871
1.370226
1.013094
1.043383
0.744759
1.132102
0.629185
0.344030
0.744293
0.207498
0.321426
1.153484
0.062544
-0.438747
0.675564
-0.524055
-0.009223
-0.123334
-0.695339
-0.282022
1.221488
0.185737
-0.505369
0.601973
0.914069
2.122806
-0.795420
0.058455
0.113807
0.503638
0.403526
1.090619
-0.720969
-0.991980
-0.122011
0.697474
-0.385019
-0.121216
0.171031
0.572079
-0.635896
-0.176296
-0.007382
0.320917
0.687703
0.048850
-0.390301
0.538990
-0.834393
-0.113099
-0.636320
-0.075663
-2.188137
0.326689
-0.266313
0.790399
-0.941526
-0.817994
-0.509008
0.606520
0.518001
0.339695
0.849481
-0.557943
0.530912
-0.090309
-0.957325
-0.223059
1.015637
0.085853
0.040265
0.463940
-0.290298
0.434065
0.122132
0.192684
0.140610
-0.025127
0.572906
-0.076008
-0.618498
0.462471
-1.025376
-0.119315
-0.014333
0.550294
0.751091
-0.253245
1.306402
0.791043
-1.112327
1.187066
0.496532
-0.912040
0.309479
-0.250513
-0.886687
1.721857
-0.792999
0.425560
0.254497
-0.156753
0.235737
0.085659
-0.927656
0.904248
-0.699581
-0.098306
0.013408
-0.823846
-0.266634
-0.610089
-0.283217
-0.206183
-0.342509
1.581471
0.560351
-1.374763
-0.130506
0.097750
-1.422679
-0.391099
-0.879620
-0.410529
-0.105892
0.013711
0.416026
-0.414217
-1.650577
-0.135398
0.912714
-0.051396
0.325113
1.374435
-0.864102
-0.722177
-0.084733
0.688782
0.035853
1.000736
0.548004
-0.241010
0.178345
-0.379552
-0.669152
-0.116114
-0.719426
0.437289
0.122910
0.623537
-1.519804
-1.256819
-0.354853
0.555739
0.597746
-0.603018
0.612618
-0.814176
-1.479607
0.019926
-0.266164
-1.253128
0.101002
-0.981722
-0.244967
0.103999
1.721087
-0.625354
0.884799
-0.912907
0.269115
-0.279801
-0.290600
-0.461803
0.297524
1.099824
-0.625791
-1.097176
0.541113
0.728261
-1.347005
-0.759284
1.041584
-1.006913
-0.608510
0.802322
1.013923
-0.014765
-1.015612
-1.270514
-0.579867
0.062304
-0.949124
0.777651
0.461877
0.315802
1.396185
-0.142104
-0.603067
0.344094
0.365724
-0.945481
0.216198
-0.370678
0.151473
-0.915668
-0.744564
-0.827045
-0.596722
-0.590958
-1.680559
0.778170
0.840987
0.276121
-0.101632
-0.455351
-0.519724
-0.036300
0.066720
-1.830229
0.123663
-0.061655
-0.754948
0.171297
-0.821792
0.476316
1.213765
-0.492136
-0.180379
0.898398
0.072082
-0.714956
-0.479123
0.487899
0.381285
0.645106
0.233522
0.378437
1.189774
-0.402395
0.250347
0.291010
1.419312
0.266235
-0.779075
-0.586700
-1.734444
0.631755
-0.625195
0.255384
0.764400
-0.778218
0.816139
0.589010
-0.899320
0.711077
-0.529022
-1.333200
-0.331216
-0.757954
-1.179598
-0.317025
0.582653
-0.410499
0.425595
-0.698371
-0.578297
0.111519
1.235430
0.814812
-0.770335
0.504832
0.832211
0.936125
-0.054032
-0.966191
-0.483141
-0.477254
0.211612
0.321058
0.767246
-0.760392
-0.815054
-0.640345
-0.551490
-0.131060
1.439744
-0.950823
0.337270
-0.799040
-0.471201
-0.750609
-1.245211
-0.479982
-0.195006
-0.304196
0.166461
-0.839083
0.261976
-0.657672
-1.383748
0.317790
0.238245
0.701658
0.554196
-0.676861
-0.818217
-0.254240
-0.091200
-0.120227
-0.059847
-0.131313
0.743218
0.492684
-0.699837
-0.388296
2.013411
0.755779
-0.493756
0.125587
-0.053264
-1.266370
-1.593502
0.742899
0.163472
-0.218511
-0.574237
-0.016998
1.791080
0.942814
-1.525618
-1.184763
0.631698
1.333322
-0.707000
-0.067678
-0.890386
1.254184
0.101259
-1.500895
0.417465
-0.503835
0.848779
0.074329
0.652692
-0.618097
2.012767
-0.225241
0.377535
0.768266
-0.985880
-0.840490
-0.328714
-0.486594
-0.665555
0.544617
-1.115556
0.549777
-0.174128
-0.874591
-2.306359
-0.359922
-1.010475
0.470594
-0.090443
0.745165
0.906479
1.639471
-0.703921
-1.117788
-0.259023
0.293142
0.120833
0.759220
-0.256721
-0.142103
0.806931
0.855493
0.578313
0.956365
0.226308
-1.588335
-0.482516
0.056949
-0.400934
-0.068416
-0.465372
0.214425
0.996690
0.418162
-0.383658
-0.451515
-1.300269
0.037678
-0.792446
0.566232
1.426182
0.778841
-0.173988
-0.849708
-0.023245
0.799486
0.138420
1.616216
0.668453
-0.478046
1.060907
-0.186577
0.598968
-0.320651
0.179391
-1.708471
-0.206184
-0.531930
-0.257119
-0.498476
0.081596
-0.006240
-0.710821
-0.308851
0.342298
0.876871
1.026156
0.020184
0.787089
0.493623
1.748203
-0.899693
-1.631245
-0.975310
-0.832683
0.914236
-0.095752
0.707375
0.356814
-0.902287
1.290167
-0.215337
0.627916
0.286980
0.088695
-1.632475
-0.146140
0.912330
0.905424
-0.805373
0.201118
-1.726797
-0.420658
-0.652128
0.282599
-0.505241
-0.521703
0.779963
0.604297
-0.853213
-0.826160
0.204164
-1.433448
0.365966
-0.375154
-0.587060
0.459235
-0.954956
0.000345
0.311689
-1.869016
-0.162308
-0.171531
-0.454801
-0.027577
-0.239635
1.089253
1.319513
1.052418
0.652953
-0.968324
-1.092421
0.210080
0.957699
-0.024631
0.140431
-1.797656
1.276933
-0.518437
0.614389
0.549920
-0.439194
1.083385
-0.398536
1.035435
-0.138238
0.447457
-1.076996
0.044301
0.105795
-1.051693
0.708001
-0.456135
-0.851779
0.703117
-1.182213
0.534164
-0.900998
-0.859837
0.977214
-0.488879
0.320237
0.150758
0.897114
0.874672
-0.525490
-0.120242
0.572579
-0.126896
-0.692008
1.002025
-0.009603
-0.777765
0.648712
0.463889
-0.540217
-0.965852
1.069363
-0.352278
0.460758
0.636309
1.028600
0.037606
0.428417
0.507015
-0.452523
-0.101647
-0.804328
-0.370966
1.539382
0.030491
-1.201683
1.593191
0.266907
-0.260998
-0.988127
-0.065419
0.816506
-0.126197
0.279499
1.470721
0.178230
0.524421
0.417098
1.344013
-1.614335
-0.716463
-0.568790
0.906616
-0.128735
1.251261
0.313297
-0.347970
-0.081853
0.310791
-0.641463
0.315720
-0.392255
-1.133785
1.270631
1.018097
-0.087506
1.580157
-0.932225
0.349656
-0.333642
-1.362607
-0.439781
-0.680325
-0.862902
1.509878
-0.502039
0.205888
0.325914
0.293579
-0.271704
-0.342726
-0.292258
-0.521539
-0.009182
-0.333234
0.086607
-0.161399
0.311104
0.788110
-1.102246
0.036432
-0.953755
-0.027211
0.271565
0.861244
-1.004760
0.156696
-0.370265
-0.162285
-0.661601
0.425949
0.617546
0.247962
0.130413
1.792597
-1.656050
-0.396881
0.548886
0.570192
-1.636525
-0.958096
0.927728
-0.537684
0.420246
0.933741
-1.599637
-0.706309
-0.423709
0.309128
-1.172322
-1.335148
0.375153
-1.442102
1.167355
0.699188
0.699579
0.780954
0.463911
0.248626
-0.898819
-0.393279
0.886592
-0.003582
0.818185
0.310984
-0.876117
0.961376
-0.364152
-0.509606
-1.261517
-0.958242
0.528065
0.118789
-0.590786
-0.732944
-1.119903
0.759135
-0.402374
0.207536
-1.716716
-1.526518
0.203574
-0.267457
-0.554631
0.442161
0.214450
0.691926
-0.573934
0.695927
-0.665253
1.085791
0.792989
0.706319
0.025880
-1.329032
0.487745
-0.927790
-0.042985
-0.866239
-0.927881
0.640846
0.944373
0.626587
0.414344
0.619262
-0.007482
-0.433224
0.076605
-0.929661
-0.562353
-0.366337
1.328647
-0.565224
0.660144
-0.918895
0.708573
0.426548
-0.601627
0.325168
-0.493497
1.157389
-0.264535
0.902034
-0.881094
-1.371435
0.440597
-1.157174
-0.190718
-0.854998
0.219515
-0.868080
0.586529
0.877679
0.484234
1.229938
0.359159
-0.502454
0.236142
0.887886
-0.200040
-0.146358
0.671871
-0.715372
0.862205
0.149402
-0.833600
1.003100
0.579864
-0.450504
0.682026
0.057632
0.207485
-0.482913
0.843125
-1.453970
-0.064460
-1.071256
-1.307159
0.370382
0.195456
-0.021314
0.143717
0.293471
-0.937325
-0.167462
-0.548721
-0.114317
0.398933
-0.180979
-1.460084
-1.271690
-0.375931
0.247984
0.513163
-0.815046
-0.523921
0.225049
0.538783
-0.456063
-0.619794
1.279922
-0.502497
0.676941
-0.017421
-1.042145
0.338939
-2.338649
-1.098414
0.754023
-0.530346
-1.087973
0.322531
-0.389848
-0.415281
0.978105
-0.979087
-0.111230
0.562106
0.353175
-0.030816
-0.739347
-1.093376
0.511111
0.876226
-0.305486
0.433718
-1.093340
-0.976501
-1.158169
0.184996
-0.145517
-0.869894
-0.236953
1.257077
-0.274818
-0.614487
-0.995706
-1.646702
-1.060938
-0.172652
-1.056547
0.369353
0.161249
0.252668
-0.378794
-0.216832
-0.744090
0.573214
0.418261
-0.012089
-0.214426
-0.421333
-0.603623
0.226579
0.044222
-0.226692
0.248009
0.056836
-1.315128
1.239097
-0.611579
0.385689
-0.341356
0.946257
-0.406691
0.483608
-1.029354
0.775194
-1.038605
-0.685760
-1.042759
-0.709793
-0.927463
-0.681984
1.257215
0.011289
-0.365112
-0.785104
-0.113278
0.488016
-0.258225
0.786189
-0.003153
1.186375
0.211925
-1.759300
-0.797864
0.668525
-1.125061
-1.003125
0.975474
-0.792665
-0.617902
0.352247
-0.573488
0.357630
-0.219931
-2.267300
-0.806927
0.524538
-0.693364
-0.175142
-0.472152
-0.437339
1.139369
-0.180686
-0.253932
0.899766
-0.558061
-0.490572
-0.387261
0.380036
1.375402
0.974564
0.721692
-1.331049
-0.713882
0.436149
-0.822436
1.141709
-0.059987
0.600371
-0.538177
0.814807
-2.483043
-1.032724
-0.130422
-0.389850
-0.319116
-0.048325
-0.482945
0.837947
0.774224
-0.281126
-1.269101
0.449474
0.764374
-0.217667
-0.913115
0.709525
0.564919
0.388485
0.495237
1.049797
-0.230297
-0.823054
0.807156
-0.296646
0.612878
-0.016245
-0.164541
0.709879
-0.863663
0.799302
-0.911939
-1.657182
-0.421104
0.413836
-0.731825
0.961190
0.519516
0.947454
-0.566148
-0.735050
-0.212978
-0.003295
0.685184
0.679439
0.932923
-0.133913
-1.536939
0.762069
0.394367
1.262172
-0.977907
0.796829
-0.253456
0.234527
0.490675
0.309628
0.694661
0.264535
0.438174
1.024121
-0.805085
0.910046
0.542239
0.298366
0.689220
0.099743
0.294602
0.154304
-0.838643
0.165329
0.858431
-1.298634
-0.862106
-0.155053
0.031391
-0.495466
-1.825971
-0.608269
1.341067
1.436060
-0.928973
-1.074448
0.768331
-0.163535
0.187497
0.726833
1.021354
-0.570164
0.103544
0.356018
-0.786161
-0.277302
0.679872
-0.406367
0.353582
0.382343
0.585724
-1.626908
-0.138350
0.800634
0.471932
-0.335423
-0.957804
-0.829213
1.296718
1.323798
-1.932601
-0.519703
1.624381
0.270977
0.130108
-1.466297
0.676545
-0.649923
0.462230
0.295817
0.118772
-1.124839
0.029338
0.799089
-0.925455
-0.631715
0.893466
-0.099496
-0.682278
0.182650
0.762450
-1.418942
-0.207494
-0.497077
0.367372
-0.212991
-1.075475
0.551421
0.162221
0.158809
-1.422326
-1.072485
0.469452
2.210934
-0.545238
0.146108
-0.157661
0.781850
0.518664
0.644072
-0.457336
0.390739
-0.344690
0.794668
-1.124131
0.505459
-0.782291
-0.683968
-0.013810
-0.474291
-0.262592
0.303033
0.442435
-0.403951
-0.192996
-0.208997
0.136106
-0.009590
1.140935
-0.420021
-0.397749
-0.022189
1.234517
2.053020
0.328648
-0.199076
-0.302153
-0.011644
-0.059018
0.425375
-0.535187
-0.737933
0.771721
-0.345698
-0.797947
0.805739
-0.343709
-0.215773
0.512897
0.727431
-0.842315
0.157595
0.148070
0.410935
0.060946
-0.138121
0.543558
0.460218
0.105850
0.179922
-0.470043
0.320638
-0.523444
1.463483
0.031441
-0.792612
-0.069574
-0.765547
-1.015768
-0.536305
-0.752148
-0.218953
-0.997840
0.027936
-0.188274
-0.557656
0.234237
-1.583176
-0.094626
0.273254
-1.108682
-0.369001
0.698171
0.897174
0.406808
-0.296217
-0.025101
0.914182
0.420511
0.064742
-0.978060
-1.070846
-0.951298
1.430061
0.495294
-0.284194
-0.824131
-0.724913
-0.893023
0.094362
0.947322
-0.455308
0.919961
1.198512
0.848331
-0.462115
-0.756921
-0.100531
-0.758400
-0.156433
-0.176573
-0.798665
-0.827597
0.243213
1.055997
-0.494297
-0.818004
-0.915714
0.345692
-0.363912
-0.331689
-0.336112
0.986313
1.396570
0.301077
0.574598
-0.405431
0.818243
-1.012675
1.269008
2.019607
-0.660966
-0.928808
0.769909
0.510788
-0.358214
-0.307427
0.968369
1.196948
-1.159663
0.282863
1.170316
-0.837912
0.139075
1.058588
0.307166
-0.492468
-0.266820
-0.804298
-0.072239
-0.354192
0.324123
-1.093804
1.209851
0.442025
-0.058269
-0.318506
-0.436585
0.643948
0.328779
0.979386
0.268120
-0.985980
-0.341139
-0.722158
0.450734
-0.979732
1.056484
0.689193
-0.738584
0.902480
0.937377
0.712169
0.744924
0.032478
0.570649
-0.327736
-0.714790
-1.039901
-0.361541
-0.612057
-0.453511
0.221886
-1.216660
-1.038568
0.391991
0.950594
-0.409751
-0.202422
0.452812
-0.020050
1.403048
0.840218
-1.151149
-1.040153
0.679365
0.247669
1.961317
-0.771084
-1.506817
-0.762958
0.865168
-0.590686
-0.744518
-1.246747
0.397321
0.843931
0.114451
-0.246127
1.410284
1.081086
-1.001403
-0.259778
-0.488379
-0.603674
1.328667
0.623996
0.018769
-0.869724
1.262054
0.395528
0.445459
-0.302267
-0.592918
-1.847922
0.214425
1.092687
1.365411
0.146694
0.626064
0.950147
1.017924
-0.792479
-0.251607
0.970893
-0.607060
-0.071151
0.459579
-0.892279
-0.455487
-0.792068
-0.674723
0.172483
-1.216966
-1.244345
0.065436
-0.392644
-0.100046
-0.657520
1.058979
-0.788824
1.069064
0.682529
0.467592
0.779268
1.224730
0.148631
1.508901
-0.634178
-0.336261
-0.411158
0.792073
0.452098
-0.756564
-0.809606
1.015150
0.774486
-0.198727
0.383213
-1.517404
-0.393786
0.696935
1.004271
-0.064874
-0.634813
-0.828801
0.440482
-0.386265
-0.699462
0.529947
-0.285939
0.375082
0.682800
-0.030659
1.266998
1.677020
-0.933187
-0.611009
-0.461881
-0.212457
-0.264632
0.847530
-0.343758
-0.765955
-0.348254
-0.095644
0.640429
-0.037145
-0.431009
1.146315
-0.492213
0.016276
-0.341555
0.534630
-0.447804
-0.029073
1.421560
-0.263554
-0.713641
-0.868968
-0.022824
-0.577516
0.582688
-0.494800
1.649419
0.875654
-0.213306
-2.021844
0.997200
0.403374
-0.468404
-0.115822
-0.918581
0.473561
1.531371
-1.620647
-0.117847
0.208182
0.557404
-0.636704
-0.262553
-1.044109
-0.720609
0.889012
-0.247340
1.209757
-0.045365
-0.165777
-0.200907
0.399169
-0.671359
1.396317
0.685700
-0.769877
-0.010468
0.631022
-1.508008
-0.140511
0.762759
1.248225
0.705971
1.937842
-0.725288
-0.613131
1.569669
-1.301191
0.914701
0.205541
-0.879185
-1.969148
0.407801
0.565361
-1.027731
-0.678679
-0.177953
0.706109
-0.945398
0.596533
0.386423
0.773773
-0.793291
0.378452
0.274213
-0.385187
1.012150
0.567334
-2.632054
1.056314
0.125763
0.404603
-0.359075
0.586612
0.066361
0.243601
1.883344
-0.423516
0.694496
-0.678273
-1.190953
-0.706369
1.196029
0.108903
0.680888
0.052001
0.861096
-0.155882
-1.032684
0.879000
0.964940
0.700834
0.367070
0.859868
-0.559642
0.033228
0.704110
0.192152
-1.811775
0.310677
-0.012056
-1.902966
-0.450996
-0.168190
0.804543
-0.635313
-1.657561
0.599337
-0.595447
0.076703
0.260033
-0.133092
0.262509
1.291319
1.440213
-0.254787
0.739874
0.186021
0.162759
-0.288334
-0.338408
-0.450092
-0.378969
1.496400
-0.264284
1.169107
-0.598342
0.066789
0.646264
0.272841
0.250709
-0.549552
-0.181420
0.506282
0.411749
-0.753235
-0.851186
0.373521
0.216574
-0.050977
-0.372465
-0.370818
0.872932
-0.267611
-1.385991
0.509519
0.459894
1.755444
0.947012
-0.457115
-0.506350
0.032049
-0.992310
-0.119332
-0.564494
-0.559854
1.242949
-1.057382
-0.163369
0.281556
-0.082213
-1.056641
-0.121481
1.172716
-0.601908
-0.276607
0.707157
0.505387
-0.644212
0.876976
0.132076
0.053818
-0.821786
-0.031975
-0.143120
1.215257
-0.164258
0.598202
0.792606
-0.866143
0.434024
0.259474
-0.793253
-0.189512
-0.735266
-0.160719
2.119945
-0.230032
-0.320198
-0.589426
-0.229126
0.294552
-0.717686
0.056172
-0.785133
0.809365
1.215273
-0.975493
-0.230627
-0.019746
0.220378
0.056813
0.481253
0.049316
0.398369
1.175625
0.073830
-0.196058
0.579725
0.533290
1.285817
0.015360
-0.255874
1.189441
-0.905554
-0.339002
-0.445035
-0.485794
-0.543341
0.828991
1.198699
0.087352
-0.197453
1.299402
-0.320184
-0.482410
0.371576
-0.039387
0.613454
-0.526178
0.027429
-0.515383
-0.381351
0.329619
0.465114
-0.129899
0.258934
0.364744
-0.075715
-0.172621
1.249280
0.300716
-1.115373
0.501454
-0.084740
-0.688652
0.993299
-0.538458
0.568098
0.073943
0.383771
0.230681
0.332506
1.586664
-0.035587
-0.405993
-0.689412
-0.239854
-0.322177
0.162859
0.089440
0.012922
-0.956536
0.547910
0.827983
0.336553
0.439091
0.681990
0.453676
0.435191
0.746874
-0.325793
0.089451
0.121036
0.143119
-0.483795
-0.398972
0.072559
-0.123245
-0.352464
-0.249621
-1.300267
0.655519
1.427059
-0.098464
0.320082
-0.948728
0.566589
-0.879859
-0.138936
-0.755231
-0.197383
-0.352745
0.686616
0.913756
-0.682340
0.106278
-0.404848
-1.068928
0.726968
-0.247169
0.373331
0.303748
-0.741138
0.772790
-0.273958
0.211603
-0.089654
0.317072
0.722012
0.717700
-1.350978
0.469820
0.543511
-0.205399
-0.586792
1.648867
-1.023564
-0.245547
0.478176
-0.909741
-0.548958
-1.169610
-0.269792
0.260768
1.109999
0.954768
0.995593
0.634509
0.614286
0.425413
-0.674448
1.129102
-0.618237
0.733489
0.679483
-0.861987
1.336745
-0.689728
1.158668
0.492467
-0.389899
1.036301
0.271801
-0.069087
0.192743
0.508268
-0.168796
0.135430
0.939370
-0.298413
0.826999
-0.030021
-0.520585
0.609960
1.624820
0.380593
-0.066675
-0.618701
-0.500167
0.363548
0.347988
0.809706
0.228075
0.402824
0.575824
-0.264313
1.110131
-0.085850
0.675344
-1.227039
-0.789371
0.386598
1.158396
0.585438
-0.541186
0.042530
0.169851
-0.646725
-0.715174
-0.945564
-1.185420
-0.599397
-0.723754
0.615401
1.169251
-0.727710
-1.387675
-0.458017
0.332193
0.881945
-0.977707
1.619968
-1.977294
-0.884313
-0.673980
-1.315977
-0.664610
-0.066428
-0.481678
-0.699967
0.222474
0.037756
0.269122
0.508936
0.564535
1.216321
-0.092812
-0.285252
0.869992
-0.386225
-0.774413
-1.160400
0.244047
-0.187078
2.054301
-0.468586
0.941063
0.522825
-0.757474
-0.091000
-0.968368
0.830346
-0.615192
-0.652739
1.065806
-0.048858
-0.568750
-0.108610
0.402648
-0.999133
0.369462
-1.056646
0.033835
0.298328
-0.345406
0.309134
-1.475157
0.463535
0.822761
0.347855
0.496243
-0.141473
0.769746
-0.254360
0.233156
0.723669
-0.140102
-0.434276
0.100792
-0.616267
0.328644
1.156937
-0.663528
-0.207557
0.466024
-0.762944
-0.093857
-1.715625
0.236754
-0.196548
0.557622
-0.276202
-0.539208
-0.002291
-0.937656
1.007917
-0.485599
-0.150236
-0.279687
-0.099542
0.499502
-1.047257
0.679798
0.508168
1.841193
-0.702101
0.132029
-1.048435
-0.997608
-1.566322
-0.062177
1.200798
-1.333299
0.704520
1.072380
-0.191805
-0.604921
-0.491225
-1.226321
-0.797871
0.136714
0.424179
0.719056
-0.513255
0.718246
0.216105
-0.315355
0.075506
0.519788
-0.907888
0.779685
-1.195696
0.335219
1.807022
0.814349
0.363248
-1.865312
-1.274722
-0.723328
-0.573209
1.087410
1.261736
1.096331
0.140959
-0.057145
-2.326785
0.398490
-0.440211
-0.335708
-0.023031
0.078557
-0.484848
0.111939
-0.056249
0.441520
-0.190987
0.181639
0.759704
0.472295
-1.144989
0.284804
0.556689
0.916411
0.152671
0.441824
-0.082878
-0.984078
0.708189
0.455027
-0.629384
0.807091
-0.249333
-0.526421
0.580396
0.009221
-1.124650
0.102653
-0.232004
0.246704
0.598179
-0.264064
0.295836
-0.645853
0.737504
-0.801629
-0.164999
0.575166
-0.888601
-0.923807
-0.718503
0.692726
0.415910
-0.047901
1.647507
0.522161
-0.684770
-0.682647
0.964546
-0.209982
-1.466347
-0.328441
1.261099
-0.583670
0.933687
0.081730
0.260733
0.414103
0.428307
1.072488
-0.707094
0.460192
-0.431887
-0.586295
-0.364669
0.986354
0.320547
0.008963
0.819926
0.678506
-0.933751
0.253422
-0.232074
0.334860
1.866724
1.992658
0.448271
-0.292910
0.152253
0.802208
0.128459
-0.653431
0.797750
-1.743481
-0.626017
-0.464641
0.835814
0.505767
0.213520
-0.510475
-0.607580
-0.498681
-0.146295
-1.274518
0.749154
-0.987260
0.291968
-0.080357
-0.885219
-0.170419
0.775097
0.134209
-0.421077
0.529656
0.332981
1.531131
-1.042065
-0.138597
-0.235814
0.867022
-0.203315
-0.827941
1.444960
0.021735
0.229962
1.285067
-1.010093
0.098497
0.085728
1.072250
-0.937102
1.147718
-0.664421
-0.801637
-0.793651
0.899677
0.626808
-0.158498
0.330346
0.763152
1.086478
0.132568
-1.394093
-0.557911
1.069346
2.489755
-0.474885
0.077109
-0.058848
0.945954
0.764643
0.176066
1.330801
0.054080
0.550226
0.946988
-1.780029
-0.203572
0.131504
0.469875
0.198465
1.082773
0.799914
0.391519
0.684331
0.806213
0.314054
-0.422278
0.631145
-0.621355
1.024476
-0.178927
-0.718609
-0.470270
0.667881
1.641945
-0.724698
-0.199415
-0.193689
0.300543
-1.190674
-0.122363
0.642350
0.586076
-1.000844
1.283607
-0.524154
0.065542
0.094173
-0.260578
0.487576
0.376282
-0.896875
-0.338058
0.242800
-0.637029
0.743910
-0.767971
-0.342708
0.605066
0.455040
-0.140913
0.145315
0.158413
0.782333
1.061049
-0.126593
-0.170494
-0.922926
0.399219
-1.539652
-1.247183
1.208264
0.587388
0.914619
-0.020193
-0.938000
-0.645137
-0.016758
1.080178
-0.489429
1.169676
0.758682
-1.009158
0.074031
-0.014262
1.386812
0.172261
0.795099
0.733977
-0.786842
-2.142244
-0.757778
0.363924
0.292878
0.866097
0.325458
0.185222
-0.725470
0.909984
-0.286685
0.342278
0.409598
-0.266100
-0.604842
-0.035401
-0.172217
-0.868842
-1.618993
-0.470589
0.531977
1.125039
0.884060
-0.582453
-0.262100
-0.224263
0.068717
-0.418677
0.461578
-0.417820
-1.251106
-0.486894
1.241896
0.006746
0.675150
-0.241960
0.346243
0.537962
0.629428
0.313206
1.140806
-0.378718
1.004085
-0.527657
-0.714704
0.248130
1.127734
-0.914517
-2.067911
0.391443
0.538455
0.424928
-0.599047
0.777556
-0.356378
0.747928
0.284482
-1.729936
0.038951
0.829481
-0.741036
1.130138
0.737391
-0.853802
-0.641487
0.988553
0.521607
0.586384
0.661642
-0.339167
1.179931
0.172722
0.852293
0.991042
0.413767
0.610176
0.004351
0.095559
-1.459942
0.882054
-0.292933
0.532110
0.239206
1.207331
0.845077
0.095907
0.894001
-0.868270
-0.749840
0.059546
0.586305
1.525659
0.719725
-0.138470
-0.621139
-0.421554
0.450353
0.539805
-0.337217
0.266957
0.512871
0.749639
-0.123668
-0.410500
0.202266
0.308923
0.133089
-0.333903
-0.270258
0.314077
-1.156794
0.398946
0.126277
0.005717
0.146185
-0.448520
-0.271464
-0.532377
-0.095269
0.871136
-0.216447
1.321166
0.400402
-0.807364
0.855030
-0.404544
0.142266
-0.042342
-0.266276
0.271039
-0.475237
1.243310
1.564642
0.095539
-0.156735
-0.956090
-0.493911
-0.940493
0.243192
0.203581
0.535057
0.535022
-0.747089
-0.520013
0.316035
0.572498
-0.292169
0.242285
0.273255
1.023628
0.251792
-0.477055
0.552831
-0.115253
-0.529615
-1.111697
-0.857975
0.176491
0.119871
-0.617520
1.596637
-0.961821
0.241728
-1.201717
0.395987
0.537156
1.151430
1.159226
0.147692
1.299584
-0.058246
-0.193647
-0.497514
0.700882
-0.278422
-0.573478
-0.675599
0.735069
0.434450
-0.958166
0.663283
-0.628014
0.551199
-0.907774
0.831640
-1.120910
0.157956
0.967610
0.299704
0.729086
0.205899
0.424150
0.462887
-0.631154
0.213834
0.193818
0.124405
1.426709
0.535345
-1.095779
1.124008
1.319631
-0.604246
0.601166
0.289385
0.013711
0.182624
-0.501276
-0.055668
-0.434466
0.721148
0.598005
-0.302707
-0.658781
-0.080933
0.741485
-0.901715
1.050177
-0.646311
0.610639
-0.771259
-0.588389
-0.458540
-0.900432
-0.002634
0.651219
1.444183
1.504611
0.794236
-0.414245
0.902080
1.342391
-0.148552
0.234015
0.819552
-0.020576
-0.245443
-1.229028
-1.001304
-0.747855
0.706282
-0.784725
-1.080122
0.259280
-0.066435
1.144418
0.545637
0.893053
0.400163
-0.693600
-0.391890
-0.824106
-0.896444
0.509523
0.624079
-0.854442
0.639112
-0.285045
0.876401
0.608771
-0.704630
1.142666
0.893909
1.845411
-0.557285
0.493148
0.390431
0.295491
0.345218
-0.799449
-0.393800
-0.730553
0.730127
0.524460
-1.043814
0.030856
-0.944889
1.208480
-1.544555
-0.379218
1.009458
1.661039
0.347858
1.191753
-0.500953
-0.017243
0.147850
-1.289460
-1.271837
0.013889
-0.768558
-1.016428
0.647000
0.415490
-0.841622
-0.369285
1.836519
-0.503171
-0.171544
0.108679
-0.782864
-1.223900
-0.683160
0.414759
-0.857607
-1.349347
-0.951644
-0.270416
-0.399206
-1.095052
0.320138
0.313126
0.591171
0.830931
0.546274
-0.146514
0.663661
0.350699
-1.403303
-0.061113
-0.632069
-1.083555
0.295528
-1.356865
0.727121
-1.000842
-0.888220
-0.042596
-0.893684
-0.092155
0.078335
-1.095725
-0.312788
-1.176269
-0.005518
0.410181
-0.866245
0.702221
-1.277690
-0.682372
-0.074727
-0.369323
-1.458784
1.198454
-0.276076
0.370876
0.682096
-0.156689
-0.401373
0.941951
1.192685
-0.745446
0.189831
0.722848
-0.279226
-0.648730
-0.738533
-0.783982
-0.935508
0.317404
0.136214
0.009802
-0.050303
0.095751
0.574750
-0.113939
-0.873648
0.890967
-0.796910
0.502387
-1.304384
0.365693
-0.594310
1.002372
-0.178875
0.401766
0.516135
-1.498092
0.370675
0.006322
-0.401467
0.208786
0.558044
0.600844
0.241275
0.399043
0.837224
-0.319185
0.512276
0.153452
0.338001
-0.954691
-0.941594
-0.984758
-0.362349
-0.501499
0.176276
0.087310
0.581396
0.156546
-0.496955
0.676459
-1.172456
1.174127
0.851526
0.121734
0.233731
-0.083025
0.568807
0.493242
0.193907
0.499069
0.280579
0.833115
-0.042895
0.475095
0.820449
-1.065379
0.720357
0.222948
0.587870
0.274677
-0.289069
-1.052617
-0.457798
-0.753863
-0.331924
0.797580
0.221282
0.516016
1.450368
-0.454896
-0.285709
1.271343
0.231399
-1.105932
0.786078
-0.196674
0.817998
-1.264778
0.640043
0.483448
-0.496232
-0.292174
-0.183090
0.892655
-0.088617
-0.136667
-0.527654
-0.709883
-0.479402
1.150985
-1.167751
0.219785
-0.136923
0.171486
0.268235
0.932552
0.759581
0.787811
1.191135
0.682553
0.797997
0.059012
0.814566
-0.827219
0.342654
-0.220213
-0.891419
-0.173955
0.783964
1.475391
-0.184716
-0.050435
0.435452
0.751971
-1.095218
-0.273963
-0.782467
-0.313611
-0.257306
0.184789
-0.456559
0.689834
0.867374
0.135951
0.973032
-0.059791
0.525566
-0.666150
1.898199
-0.782192
-0.165763
0.344373
-0.564294
-0.006589
-0.298816
-0.780052
0.114588
0.228119
-0.328943
0.203192
-0.589261
1.651284
-0.950774
0.340560
-1.411656
0.432658
0.069587
-0.770147
0.232211
0.498958
0.083418
-0.508460
0.590738
0.342895
-0.172383
-0.910290
0.861706
0.669362
0.666124
0.355043
1.170645
1.168837
0.082380
-0.449578
-0.427865
-0.036044
0.806653
-0.552256
0.809968
0.221380
0.223788
-0.198785
0.558487
-0.302083
0.692960
-0.974873
-0.670911
-0.598707
0.182520
-0.044355
-0.887739
0.660308
-0.337602
0.389007
0.358421
1.078123
0.129930
0.944131
-0.762396
0.357041
0.930153
-0.103935
0.910982
0.449134
0.259585
1.342770
0.026204
0.693790
-0.900079
0.029369
-0.702514
0.165058
0.656656
0.102545
-0.605120
0.584508
-1.079356
0.877050
-1.170016
1.327230
1.590943
-0.272556
0.160584
0.624405
0.707553
0.835832
-0.412091
0.946838
0.231939
-1.177770
1.091156
0.741167
0.137713
0.001904
-0.666859
1.362656
0.239645
0.773256
0.260738
-0.342389
0.042075
0.377564
-0.203962
-0.418973
0.023061
-0.120721
-0.335975
-0.931369
-0.168470
-0.087794
-0.386965
-0.115543
0.258336
1.709068
-0.985132
-1.639790
0.237873
0.897724
-0.015680
-0.562937
0.988425
-0.211840
0.870460
-0.264287
0.323581
0.802483
-0.426012
0.768106
-0.157342
-0.870629
0.616763
0.259328
0.237172
0.170550
-0.317493
-1.375361
0.017216
-0.857578
-0.785160
0.403052
-0.201582
0.676917
0.949882
1.204726
-1.049991
-0.640830
0.021036
0.195385
0.407577
-1.080558
0.096302
-0.753096
-0.200878
-0.196036
0.141790
0.191503
0.287654
0.097846
-0.598075
-0.040315
0.205445
1.093042
0.348566
-0.381404
-0.597411
-1.063189
-0.812904
0.855773
-0.370980
0.958701
0.272507
0.006494
0.003578
1.111487
-0.618972
-0.810658
-0.778787
-0.600501
0.154852
-0.197821
1.283690
1.352939
0.935897
-0.165173
-0.082346
-0.942598
-1.568365
0.300524
-0.242048
1.464847
-0.233575
0.247743
-0.312757
0.992066
0.200938
-1.158328
0.261367
0.940109
-0.200743
1.357885
-0.385136
0.639684
0.371129
1.903149
0.758812
-0.292584
-0.548843
-0.001118
-0.567083
0.166998
2.507068
-0.409622
0.124369
0.497895
-0.587897
0.095899
-0.607985
-0.028149
0.337332
-0.673772
0.519076
1.292178
-0.039098
-0.078763
0.780386
-0.131874
0.175645
0.964205
0.650111
0.165145
-0.314910
0.096118
0.239065
-0.154754
0.702535
-1.560119
0.920718
-0.169135
0.344138
0.254891
0.658274
0.650431
-0.706133
0.596544
-1.228387
-0.189471
-0.456806
-0.292616
0.936895
-0.116011
0.090044
0.274544
0.093258
0.401767
-0.161388
-0.490624
-1.043042
-0.670775
0.030167
0.647295
-0.815904
0.167165
0.460558
0.613539
0.203121
-0.758124
0.665061
-0.313448
0.240279
0.134354
0.840073
-1.402023
0.494555
0.137828
-1.640996
0.216870
1.232423
-0.430531
0.691804
1.029692
-0.737457
-0.660922
0.279621
-0.805774
-1.956055
-0.405723
-0.491551
0.245218
-0.793749
0.409448
-1.182021
-0.036497
2.571108
1.453397
-0.994327
-0.916778
-0.685313
-0.159988
-1.093271
1.592299
0.105467
-0.916927
0.774612
0.227674
-0.404740
0.093368
0.284607
-0.223786
0.357118
1.621251
-0.174228
-0.048747
-0.527095
-0.227891
0.682035
0.567998
0.333232
0.225443
0.153070
0.827907
-0.210255
0.662655
0.155664
0.717687
0.634685
-0.800531
-0.406260
-0.632372
-0.883352
-0.287941
0.995110
-0.818242
0.452090
0.352908
-0.966945
-0.102103
0.111584
-0.261001
0.255799
0.181258
-0.056357
-0.019376
0.245830
0.079939
-0.232971
-0.703988
0.348716
-0.014376
1.163147
-0.341496
-0.629080
0.634623
0.643040
1.944983
0.590099
1.475937
0.156804
-0.622177
-0.173248
-1.286602
1.447736
0.933682
-0.479597
0.790282
-0.357054
-0.150948
-0.984925
-0.074320
0.006009
1.304657
-0.832598
-0.092409
-0.249349
-0.009615
-0.357139
-0.640581
-0.010701
-0.766110
1.114155
-1.106001
-0.229715
-0.015173
0.333913
0.628461
-0.948824
-0.848617
0.836237
-0.011057
-0.709884
-0.643652
1.299326
-0.199074
0.679839
0.488561
0.193791
-0.743216
0.466490
0.570552
0.049045
-0.936033
0.636303
-0.280150
-0.808133
0.331621
0.129138
-0.730682
0.313880
0.051962
0.935796
-1.394748
0.985868
0.253552
0.778847
-0.206389
-0.216719
0.461655
0.415972
0.226338
-1.207659
0.159528
0.182184
-0.163496
0.593672
1.225788
0.487178
-0.828204
-0.074731
-0.107214
0.256399
-0.477517
-0.195369
0.882136
-0.382826
0.822982
1.183186
0.674706
-0.027410
-0.946716
-0.342341
-1.399805
1.538179
1.160814
1.502389
0.201754
0.687271
0.319339
-1.297190
0.550675
-0.495235
0.201959
1.462042
-1.283057
-0.662514
0.386679
0.142673
0.060751
-1.249186
1.143867
-0.453096
0.037820
0.002066
0.130112
-0.454485
-0.431499
-0.419817
-0.736455
-0.682978
-0.532784
-0.216875
-1.556189
0.381924
-1.169799
0.028901
1.268124
0.305569
0.106854
0.295144
0.193955
0.120977
-0.091975
0.131183
-0.006647
0.916830
-0.781904
0.399876
1.094157
-2.095450
1.493134
-0.308961
0.049240
0.607270
1.152244
0.518335
-0.874344
-0.239060
-0.723356
-0.484061
-0.122359
-0.635148
-0.268055
-0.161134
-0.667588
-1.086604
1.129915
-0.501127
0.568854
0.987713
0.714903
-1.032514
-1.035120
0.880839
-0.393668
-0.234671
-0.398557
0.346695
0.920716
-0.469742
-0.193212
-0.302436
-0.330644
-0.727675
0.971836
-0.074887
-0.281570
0.603973
-0.531404
0.783004
-0.459208
-0.259383
0.758679
-0.565221
0.070908
-0.427283
0.672194
-0.241658
-0.025085
-0.308144
-0.167962
0.134102
0.447130
-0.401908
-0.854453
-0.843785
0.691058
-1.764636
1.159081
-0.533600
-1.339897
-1.202238
-1.785144
-0.996267
-0.048531
-0.404565
-0.813978
1.323928
-1.611709
0.371083
0.657420
0.338022
0.454842
0.213381
1.024008
1.058340
0.327203
0.584962
1.004679
0.622209
-0.205925
0.699201
0.968506
0.701993
0.367720
0.797562
-0.984978
0.595914
0.758533
1.243942
-0.906940
0.801783
-1.858222
0.109932
0.463970
-0.070039
0.729757
0.672775
-0.218834
-0.254907
-0.018175
-1.173381
-0.170565
-0.393010
-0.756551
0.634171
1.320807
0.042490
-0.883827
0.265402
0.376487
1.156260
0.326705
1.910937
-0.567752
-0.960489
0.974039
0.634464
0.687842
-0.428683
0.559123
-0.810662
-1.027640
-0.216996
-0.764101
-0.694641
0.570027
-0.826343
-0.439727
0.235946
0.585646
0.000014
-0.565942
-0.900863
0.630483
0.518398
-0.326679
-0.873547
0.785126
-1.025169
-1.003488
1.472018
-0.158597
0.936711
-0.928110
0.027212
-0.896751
1.560721
0.754107
-0.571651
-0.311471
0.826018
-2.175306
-0.673792
0.190213
-0.205119
-0.912871
-1.643245
0.650496
-0.662462
-0.652735
-0.532187
-0.680622
0.920547
-1.215657
0.419254
-0.255384
-0.348819
0.939183
-1.024998
0.916080
0.552792
1.014561
0.573616
-0.344196
0.633273
-0.776170
1.066870
1.750090
0.984847
-0.358283
-0.252090
0.055241
0.591803
0.381152
0.633273
0.114272
0.555983
0.279796
0.047196
0.347008
-0.740017
-0.618709
-0.423278
0.082595
0.625388
0.935837
-0.329624
0.525267
0.364732
-0.894167
0.907813
0.437798
0.378240
-0.871335
-0.607709
0.078033
0.378468
0.894366
-0.796507
-0.031422
-0.725838
-0.898163
0.842104
0.190722
-0.008582
0.822772
0.374036
0.886666
0.207245
-0.790361
0.755923
-0.081199
-0.512078
-0.171630
-0.221293
1.043161
0.166876
1.004969
-0.353982
-0.591662
0.425652
-0.321808
-1.044974
-0.020416
0.683606
-1.135030
1.029082
0.400696
0.594182
-1.460423
-0.372404
-0.108729
0.240332
-0.138789
-0.680394
0.633372
0.132331
-0.447863
-0.602359
-0.608431
0.326175
-0.816949
-0.704137
0.534286
-1.941233
-0.147055
-0.692135
0.724505
-0.413566
0.126202
0.443404
0.264566
0.594602
0.938341
0.649630
0.077020
0.287060
0.130020
-1.144641
-1.508848
0.808690
-1.079156
0.617040
0.033248
0.046213
-0.984322
0.635946
-0.468539
-0.874619
-0.759718
-0.307201
-0.993728
0.645099
-0.610915
0.627079
-0.286608
0.330444
1.123390
-1.386157
-0.701797
0.865003
0.710233
-0.947063
0.969093
0.502797
0.938263
0.789193
0.751949
-1.665956
1.133185
-0.829285
-1.009992
-0.462580
-1.262816
-0.902350
0.677977
0.266889
-0.515253
0.916813
-0.633389
-0.857403
0.479724
0.524262
-0.710251
1.010389
-0.838270
0.402838
-0.090916
-1.716662
-1.032300
-0.409032
0.732426
-1.257172
0.096616
-0.456135
-0.613063
0.220165
0.963456
0.592086
-0.410407
0.680314
-0.671935
-0.463241
1.900012
-0.090074
-0.361345
0.342246
0.871323
0.735621
-0.769159
-0.160632
0.428123
0.547394
0.155908
1.331101
0.460867
-0.881013
-0.661496
-1.203722
0.314871
-0.872254
0.206622
-1.025819
1.031664
-0.802781
0.235218
-0.000850
0.074173
0.584184
-0.224053
1.494477
-0.236299
-0.980621
0.352034
-0.776724
-0.075370
2.054172
-0.574488
-0.722682
-0.686515
0.860555
-0.670894
-0.091004
-1.633305
0.249710
-0.461761
-0.435096
0.074163
-0.159368
-0.058376
-0.896728
0.926841
-0.185355
-0.439279
0.760050
-0.133871
-0.288715
0.409896
1.245025
0.145564
-0.376222
0.844336
0.195854
0.053664
0.111595
0.515535
2.156882
-0.405095
-0.217511
-0.943275
-0.364038
-0.248539
-0.227591
-0.283746
0.543263
0.430226
-0.388907
-0.360819
-0.467320
-0.148873
-0.056429
0.658809
0.956034
-0.404831
-0.529739
-0.842992
-0.321257
-0.869262
-0.501818
0.862571
0.654162
0.582594
0.525543
0.016565
0.233801
-0.559824
0.548451
-1.533946
0.141489
0.177975
-1.011584
0.622593
-0.462914
-0.690918
0.079170
0.446568
-0.030252
-0.526046
-0.491632
-0.169804
0.632431
0.118835
1.044280
-0.991057
-0.421466
-0.911030
0.799457
0.693871
-0.080112
-0.461299
0.851100
0.251010
0.619896
0.319712
0.408100
0.805369
-0.680456
0.642138
0.209322
0.165460
-0.915247
0.224510
0.320231
0.836696
0.297865
0.536913
0.881756
0.647181
-0.852817
0.591356
0.943353
-0.364437
1.213677
0.576039
0.292102
0.370466
0.417081
1.253637
-0.120668
-0.139736
0.251321
0.762257
-0.006412
0.160304
0.581238
0.896112
0.217763
-0.446378
-0.692733
-0.357966
0.363102
0.091879
-0.170019
-1.132255
0.536250
-0.689742
-0.399673
0.214582
0.477799
-0.366633
1.320912
0.000517
0.144163
1.427469
-0.966535
0.915326
-0.234323
-0.466610
-0.051515
1.404000
-0.880503
-0.809246
-0.426758
-0.271978
0.217349
0.465173
0.216867
0.446794
0.756322
0.238649
-0.763058
-0.097753
0.925870
0.359846
0.141886
0.144028
0.298796
0.393874
-0.791024
0.850108
-0.030958
-1.138266
0.024654
-0.274310
0.963126
0.956280
0.700198
0.721994
-0.427084
1.491800
-0.578870
-1.188833
-0.988128
0.187564
-0.093247
0.718369
-0.435127
-0.629202
-0.460059
-0.341896
-1.214566
-0.010741
1.225442
-1.184934
1.100160
0.100211
1.098764
0.175468
0.451533
-0.172280
1.510813
-1.188415
-0.737539
0.967341
0.075851
-0.139518
-1.504042
-1.267385
0.526179
-0.331337
0.362216
-0.913048
0.501652
-0.188898
0.099101
0.577081
0.959731
0.144191
-0.133790
0.548403
-0.499646
1.233047
-0.807248
-0.446470
0.675663
0.606028
-0.454423
-0.822862
-1.097312
-0.196765
0.214848
-1.259773
0.998613
0.593047
-0.678380
0.097717
-0.218967
-0.110671
-1.312375
0.509601
-1.160487
-0.189607
-0.256089
-0.253042
-0.868039
0.594928
1.058161
-0.576647
0.220142
-0.558589
-0.887089
1.155542
-0.120557
-0.456855
0.154842
1.509998
0.683078
-1.206841
-0.652208
-0.014679
0.116812
0.369013
0.292134
0.531346
0.131136
0.224975
0.638935
0.394667
0.652427
0.679881
-0.922398
0.531940
-0.412072
0.668950
-0.150868
0.917426
0.535661
-0.130262
0.229511
-0.085362
-0.530051
1.368697
0.847794
0.448300
-0.515560
0.892645
0.478844
-0.871723
-1.306766
-0.334752
-0.746412
-0.450436
0.521100
-0.872835
-1.017577
1.451178
-1.195380
0.410328
-1.655595
-0.481925
0.133462
-0.202011
0.129373
-0.126168
0.327943
0.913861
0.615247
-0.616831
-0.975125
-0.858216
-0.573536
-0.087662
-0.297129
1.027373
-0.143516
0.035300
0.242539
-1.264122
0.138039
0.127339
-1.277638
0.302097
2.421943
-0.270042
0.116206
1.460147
0.547159
-0.695547
-0.685251
-0.204764
-0.552269
-0.925132
-0.455261
0.533067
-0.553796
-0.865377
-0.084967
-0.680141
-0.210491
-0.593117
0.800017
0.636770
-0.887273
-0.164883
-0.058891
0.976121
-0.925985
-1.883777
-0.132898
0.068014
-0.044417
1.123590
1.176743
0.098550
0.354656
1.020125
0.200145
-0.426287
-1.374175
0.070246
0.718473
-1.614745
0.342351
0.079420
0.458390
0.754598
-1.531953
-0.789352
-0.382303
0.520753
0.626092
-0.596765
-2.025862
0.480119
0.524122
0.788733
-0.463775
-1.751166
0.441765
-0.624802
-0.903052
1.346849
0.597072
-0.668772
0.740229
1.473252
-0.377388
1.120706
0.479551
0.984990
-0.002798
-0.903474
-1.089524
-0.168755
-0.043951
-0.068239
-0.023852
-0.462841
-0.044279
0.218668
-1.054007
1.524636
-1.120629
0.547092
0.703177
1.643432
-0.818366
-0.655841
-1.206476
-0.558023
-0.351685
-0.441612
-1.457104
-0.418786
-0.911546
1.098119
-1.423130
0.076418
1.450635
1.020282
-0.706751
-0.371223
0.284660
0.808908
-0.200619
0.839966
-1.241561
0.709549
-0.233762
-0.960883
1.010581
0.198176
0.763163
-0.640815
-0.861618
1.061685
-0.030201
-2.079037
-0.276909
-0.553242
-0.479456
0.290137
-0.439126
0.453805
-0.700852
0.338947
-1.752568
-0.634220
0.490412
1.280810
-0.056321
-0.620237
0.316730
-0.970299
-0.666210
0.024853
0.122871
-0.377515
-0.847196
0.153997
0.568466
1.148194
0.632312
-0.044806
-0.112279
1.838361
-0.487667
-0.301090
-0.059829
0.725439
-0.671402
-1.073488
-0.368768
-0.195229
-0.100562
0.422904
0.386332
-1.898492
-0.839835
-1.117248
1.022323
0.346757
-0.298320
-0.098739
0.197433
-0.588428
-0.735281
0.218373
-0.092784
-0.666706
-0.354007
0.814396
-0.387835
-0.812631
0.494134
1.470209
-1.054175
-1.789317
0.321850
-1.025362
-0.553812
-1.032490
-0.770536
-0.091123
0.239239
1.120986
-1.170434
-0.881340
0.055609
0.284927
0.484598
-0.214100
0.834971
0.150844
-0.231591
-0.773296
-1.442216
-0.125734
-0.837644
-0.057508
1.098564
0.144665
-0.840032
-0.785812
-0.748475
1.238081
0.383890
-0.290294
-1.008703
-0.056859
-0.016191
1.042274
0.837057
0.042094
-0.983208
-0.060706
0.469003
0.138742
0.130126
-0.114447
0.399445
-0.817751
-0.725566
-0.684232
0.209348
-0.358291
-0.187328
0.813571
0.071243
-0.546552
0.404300
0.048583
1.320092
0.330887
-0.937966
-0.165678
-0.461214
-0.520638
-0.360512
-0.619771
-1.608376
0.564946
-0.014625
-0.122432
-0.935541
1.333511
-0.112725
0.871479
0.106439
0.911926
-0.860821
-0.913013
0.014601
-0.378629
-0.949408
0.248348
-0.456342
0.772714
0.358490
0.061023
-0.498841
-0.437181
-0.011035
-0.078578
0.790114
0.275095
0.520288
-0.032883
-0.959119
-0.062794
0.277150
0.595213
1.087282
-0.224915
-0.733321
0.062663
-0.563678
0.672843
-0.105199
1.578150
-0.436561
-1.011344
-0.121821
0.113228
0.555824
0.074727
-0.045487
0.305142
0.670029
0.344801
0.038948
1.146203
0.478773
-1.537114
-0.629260
-0.057074
-0.368198
0.832239
0.281632
0.362594
-1.472758
0.451386
-0.022551
-0.619210
0.688254
-0.525980
-0.100737
0.722349
-1.133748
0.032367
-0.609315
-0.275399
-0.457296
0.071577
0.805578
-0.710948
1.331899
0.295066
0.331620
0.645978
1.015773
0.950984
-0.617538
-0.176884
-1.053064
1.199981
0.081882
0.785795
0.610475
-0.820151
-1.854261
0.648557
1.039498
0.161470
-0.170657
0.057315
-0.464486
-0.278511
-0.623614
0.035925
-0.471017
-1.687797
-0.512599
0.896145
-0.578056
0.515531
-0.213371
-0.035945
-0.977331
-0.178133
-0.724753
1.992785
-1.020921
0.779510
-0.512319
-0.627513
0.795901
1.155495
0.814962
-0.211749
-0.195384
0.433946
-0.190278
0.110324
-0.568561
0.788302
-1.928534
1.653579
0.798136
0.417946
-0.747182
-0.767482
-1.093991
1.160801
-0.727882
0.863826
-0.472888
-0.954492
-0.934673
-0.161948
0.299247
1.627231
-1.024964
-1.130622
0.259512
0.777366
0.033219
0.989665
-0.884103
0.906597
0.775377
-0.419588
1.516922
0.570499
-0.924757
1.028003
-1.169021
0.267397
1.777311
-1.401724
-0.481593
-0.554246
-1.002594
1.050752
0.536846
0.268493
0.695625
0.858771
0.214109
-0.671867
0.310195
-0.535695
-0.753976
-1.414900
0.719305
-1.111838
0.702859
-0.403937
-0.515139
0.554880
1.391660
0.407398
1.101879
-0.237783
0.233440
0.110864
-0.304714
1.054948
-0.349548
-0.198546
-0.675793
-1.004677
-1.036537
0.805142
-0.275861
0.233750
0.190665
-0.212461
-0.395579
-0.379184
0.736588
0.296142
-0.688314
-0.564649
-0.278680
-1.672001
0.654172
-0.036645
0.732980
-0.945182
0.624534
0.458517
-0.557854
-0.600171
0.244742
0.469467
-0.720510
0.901449
0.143951
-1.563370
1.028269
0.636407
0.142094
0.697153
0.485966
0.871487
1.545691
-0.971902
-0.064044
0.180756
-0.715345
0.414500
0.931196
-1.336245
0.151014
0.601626
0.652829
1.466476
0.442380
0.901374
0.970905
0.690113
0.048581
-1.055414
0.536132
-0.668942
0.437976
0.345524
1.239856
-0.925628
-0.850585
-0.395571
0.171146
0.413743
0.763282
0.663863
0.592818
-0.349209
0.022271
-0.202518
-0.404775
-0.682187
0.528908
0.361556
-1.089963
0.698952
-1.048539
-0.512428
-0.180502
0.646286
-0.662599
-0.255228
0.695863
0.166023
0.257220
0.673810
-0.031470
0.380202
1.441765
0.018984
0.068562
-0.775850
0.594255
-0.187904
0.743619
-0.167850
0.358090
-0.168127
0.704697
0.093179
0.718094
-0.918148
-1.014913
0.738699
-0.321354
-0.776669
0.273240
0.088699
0.112094
-0.139494
0.768035
0.034254
-0.572932
-0.578142
0.309094
0.762021
-0.288485
-0.032894
-0.577122
-0.913821
-0.832257
-0.919271
-0.937224
0.075344
0.692020
-0.647645
0.992156
-1.190442
0.120578
-0.549441
-0.033509
-2.066429
0.083645
-0.985665
0.790171
-0.664288
-0.969382
0.012811
0.189596
-1.021565
-1.142768
-0.222699
-0.726785
0.285482
-0.831422
-0.019480
0.240904
0.036654
-1.843106
1.053943
-0.487343
-1.462133
-0.569860
0.663305
0.090346
0.991054
0.185643
-1.213479
-0.634725
0.000640
0.467291
-0.407878
0.401320
-0.264170
0.863506
0.241954
0.639009
1.181224
-1.064653
0.110837
0.576010
-0.149893
0.667148
-0.191098
0.155999
-0.849019
0.341948
0.673015
-0.482452
0.214309
-0.525549
-0.036708
-0.405072
1.945084
0.046406
0.549717
0.745987
0.828318
-0.948443
0.702477
0.901812
-0.994395
-0.876548
-0.670001
-0.520986
-0.595774
0.006726
0.627092
-1.606430
-0.642725
-0.654676
-0.607140
-0.818324
0.506582
-0.590459
-0.227800
-1.379438
0.436147
-0.043080
0.116979
0.045403
0.195019
0.224093
0.974418
-0.566436
0.398191
0.297469
0.846414
-0.948938
-0.473145
-0.529308
-0.523741
-0.703761
-0.854192
0.862176
1.078658
0.287729
-0.062736
-0.718213
0.855438
-0.832900
-0.628027
0.614989
-1.433694
-0.595465
0.691445
-0.094764
0.503007
0.082926
0.612059
1.101972
0.683534
-1.135712
-0.540588
-0.812753
-0.178804
2.390404
-0.481609
0.536004
0.240557
0.859642
0.059018
-0.170337
0.407452
-0.272014
0.468004
0.331633
0.500644
-0.924267
0.029132
-0.169320
0.978995
-0.031979
1.337579
-0.327689
0.665452
1.486692
0.943302
0.558726
0.240229
0.840828
-0.386444
-0.051688
-0.596853
0.936474
0.243947
-0.061095
-0.635481
-0.553362
0.272836
0.398844
-0.434760
-0.143696
-0.509332
-0.454443
0.334260
-0.457091
-0.173582
0.308408
-0.199846
1.402183
-0.295069
0.473501
-0.005129
0.156869
-0.022894
1.654117
0.413987
0.169247
0.477628
0.378391
0.751732
0.281127
0.363943
-0.787490
-0.286846
-0.091826
-0.024471
-0.008496
-0.139396
-0.568447
0.187231
-0.170520
-0.066358
-0.245153
1.431101
-0.417947
0.258557
-1.086510
0.916536
0.359797
0.152799
0.500500
-0.091888
0.677404
0.982213
1.375811
0.786541
0.043850
1.051660
0.701915
-0.292169
0.997561
0.167696
0.250501
0.107181
-0.441129
-0.805269
0.633425
-0.125894
0.058727
0.286217
0.349463
-0.948060
0.078733
-0.367907
-0.004204
0.700181
-0.313976
-0.266685
1.201628
-0.998479
0.793008
-1.242753
0.154992
0.934607
0.069304
0.156182
0.649764
-0.194112
-0.059913
-0.576500
0.676443
-0.362739
0.886421
-0.169701
0.948591
0.140941
-0.521570
0.681364
-0.858043
0.661698
0.524485
0.517042
0.804074
0.990660
0.064994
-0.758885
-0.042497
0.755363
-0.074446
-0.020199
1.212010
-0.702248
0.292390
0.363172
-0.016103
-1.271754
1.137164
0.624875
0.570584
-0.834172
0.856496
-0.157512
0.113078
0.329951
0.998931
-0.731451
-0.664356
-0.497721
-0.360283
1.761362
1.495450
-0.414585
0.961605
1.637487
-0.355029
-0.332549
0.676927
0.212306
2.355916
-1.132415
-0.590650
-0.572553
-0.795108
0.097277
-1.356049
0.676201
0.267274
0.013755
0.153393
-1.365028
0.420560
-0.775622
0.760046
0.611196
0.018481
-0.763441
0.722611
0.331979
-1.005304
1.034994
0.595661
-0.344785
0.876476
2.066034
-0.637019
-0.396176
-0.774919
0.561860
0.166317
0.123554
-0.154135
0.726817
-0.678979
-0.357816
-0.213068
-0.290977
0.741372
1.203068
0.130989
-2.394448
-1.103869
1.166714
0.194862
0.151688
0.297937
0.839222
0.580945
1.017212
-1.063205
1.155829
-1.262217
0.152674
0.768417
3.483559
0.177333
0.274307
-1.264614
-0.798342
-0.710406
1.907422
0.496102
-0.974565
0.698243
0.878811
-0.624582
1.352594
-0.449193
-0.320269
-0.137469
-1.472637
0.652978
-0.038165
0.134986
-0.668733
0.573289
-0.226580
-0.650524
-0.511246
-0.833256
0.375631
0.187772
0.442016
0.306724
1.774445
0.278076
-1.234838
0.355639
-0.423566
-1.012639
1.126311
1.368016
0.025534
0.590105
1.116257
-0.776091
0.860662
-0.371569
0.415678
0.036133
-0.565106
-0.158756
-0.778635
0.715738
0.032545
-1.175348
0.433940
-0.535618
0.071832
-0.822284
-0.408569
1.323151
-0.542654
-0.097315
0.779510
-0.585345
-1.124775
1.634912
-0.739745
-0.187429
1.111810
1.639804
-1.307879
0.642114
0.740820
-0.832855
-0.213534
-0.022914
1.323833
0.644027
-2.068590
-0.946845
0.502938
-0.945386
0.190234
-0.456765
-0.171895
-0.350092
-0.783906
-1.346686
-0.384245
0.624924
-0.579005
0.025771
1.692523
0.677228
-1.415451
0.562576
0.119136
-0.048484
0.354269
0.748442
-1.633086
0.770998
0.448318
-0.799428
-0.962838
-0.175790
1.549781
-0.797431
-1.784066
0.033817
1.121064
-0.925655
0.954751
-0.153649
-0.084345
-0.496826
0.826774
-0.880310
-1.131305
-0.936276
-0.486446
-1.247852
0.515154
-0.173273
-1.103412
0.504047
-0.540860
-0.074378
-0.620741
0.066845
-1.999287
0.290588
1.397540
-1.528161
-0.144392
-1.422547
-0.441665
-0.576637
-1.596885
-0.248693
-0.564373
-0.551694
0.105034
-1.017908
0.539375
0.608702
0.597552
-0.294514
0.403055
0.292515
0.554121
-0.866566
1.521307
-0.654433
-0.264717
-0.391435
0.299407
-0.278509
-0.718622
-1.203944
-1.693195
0.748819
0.526023
-1.104915
-0.924300
-0.242077
-0.162274
-0.734601
-0.670884
-0.574725
-0.081824
-0.137985
0.060403
-2.060972
0.644225
0.627088
-0.406810
0.402321
-0.200558
1.057670
-1.011783
-0.008628
2.115299
0.156810
-0.353401
0.034000
-0.062186
-0.727661
0.694486
-0.903949
-0.009792
0.162790
0.750167
-1.732820
-0.860103
-0.449990
-0.311724
0.076184
0.034274
-1.089595
-1.272567
-0.281563
-0.312411
-0.502995
-0.348363
0.095907
-0.526848
1.108747
0.750913
0.386550
0.323103
-0.037308
1.561225
-0.369034
-0.870799
-0.820108
0.998917
-1.252678
-0.419534
0.788762
0.389665
-0.646747
1.317984
-1.972007
0.029403
-1.352365
0.231610
0.396293
-0.414864
-0.420069
-0.026796
0.621924
0.847682
0.013600
-0.595571
0.585512
0.282732
1.071201
-0.205452
-0.078463
0.128544
1.218411
2.014371
0.140649
-0.736857
-1.676851
0.761036
-0.912768
-0.011578
0.428443
-0.333281
0.784817
0.026121
-2.069969
-1.119225
-1.122345
-0.578763
-0.364560
-2.537938
-0.591694
-1.162262
-0.510470
-0.786414
0.062686
-0.669658
-1.036717
0.576047
0.298043
0.512159
-0.194183
0.999126
-0.475844
0.330388
0.476304
-0.962396
-0.798185
-0.983496
-0.009340
-0.733313
0.269042
-0.776010
-0.018709
-0.486019
-1.584648
-1.197805
0.096243
0.247396
1.291114
-1.602580
-0.386582
-1.177574
0.225841
0.965530
-1.531102
-0.820434
-0.178741
-0.528692
-0.246670
-0.674063
0.529708
-0.233703
-0.325298
0.919402
0.571829
-2.254132
-1.000369
0.829002
-0.131476
-0.053428
0.337571
-0.446411
0.174027
-0.464430
-1.913776
-1.253962
-0.842548
1.518034
0.092068
0.543323
0.505046
0.380561
0.614317
0.365304
0.327424
0.012584
-0.451510
0.364755
-0.894389
0.890700
0.836955
0.267351
-0.109277
0.729116
-0.534902
0.242546
-0.269113
-0.271778
-0.554429
-0.628119
0.555218
-1.490037
0.829659
0.205057
-1.647163
-1.245470
0.381875
1.115235
0.053759
0.685845
-0.030237
-1.655918
-0.131010
0.596243
-1.334979
-0.598190
-0.912213
0.790414
-0.806141
0.798320
-0.143964
-1.566458
-1.333061
0.969738
0.430213
-0.332902
0.007645
0.488846
0.710726
-0.454715
0.979390
-1.650114
0.779908
1.097951
-0.827350
-1.682615
-0.048657
1.084645
-0.901528
-0.007324
-0.293077
-1.636994
-0.597088
0.994121
-0.389511
-0.594195
0.536267
0.186965
-0.847451
0.959154
-0.152446
0.476041
-0.407020
-0.208035
0.957635
0.752649
0.331257
-0.548380
-0.722395
0.973235
-0.615265
-0.404622
0.133287
-0.808408
-0.585131
0.401777
0.755819
2.791170
0.046796
-1.276887
-0.238464
0.959798
-0.345560
0.967465
1.465996
-0.804635
-0.066528
1.012848
0.822520
0.515904
-0.012151
0.446920
-0.362159
0.172817
-0.000822
1.280371
0.008257
-0.483514
-0.892913
-0.400555
0.650029
-0.489837
0.046931
-0.844285
-2.808955
0.194645
-0.644258
0.606732
-1.152689
-0.525007
-0.051598
-0.885171
-0.817763
0.534414
0.947615
-0.591660
0.409318
0.087124
0.543679
1.157527
1.059267
0.693158
-0.417349
-1.328241
-0.372086
-1.177161
-0.022120
-0.823543
1.278660
-0.023696
0.240980
1.237173
0.011660
0.512375
-2.759805
1.372099
0.948537
-0.223797
0.409010
-0.874416
-0.756411
-0.123862
-0.267750
0.596691
-0.666426
0.224743
-0.013510
-0.848748
-0.178084
-0.210525
0.121303
-1.147531
0.101379
0.541139
-0.779393
-0.214752
-0.238899
-0.938450
0.488096
-0.008731
-0.042623
0.782637
-0.747474
-0.747125
-0.786016
0.998672
0.824021
-2.295996
-0.200877
-1.486547
-0.516599
0.421458
-0.287574
-0.253491
1.387426
0.936571
0.528196
0.822354
-0.457255
-1.165610
-0.029207
-1.444101
-0.295741
-0.175163
0.515149
0.679065
-0.531970
0.074727
0.445379
-0.161464
-0.490127
-0.963174
0.780552
0.782902
-0.112965
0.388958
-0.171561
-0.987076
0.196712
0.349484
-0.132587
0.321435
0.460197
-0.627172
1.182244
0.444607
-0.302746
-0.116476
-1.027877
1.529696
0.281801
-1.196508
0.138368
1.086521
-0.661349
-0.021745
0.533540
-0.179599
0.606758
-0.529169
-0.781153
-0.050458
0.829588
-1.106269
-1.096259
0.771712
-0.001494
-1.843782
-0.424680
-0.349762
0.973090
1.317775
-0.797992
-0.663580
1.257830
-0.143366
-0.796495
-0.860558
-0.638681
1.396285
-1.368527
-1.289612
0.176340
-0.450992
0.324791
-0.447615
-0.540081
0.184425
-1.559638
0.707051
-1.010816
-1.190312
0.351664
-1.262415
0.191727
0.135910
1.191328
-1.870839
-0.049658
-0.512770
-0.983381
0.693014
-0.862380
-0.231348
1.237772
1.587791
0.898896
-0.924220
-0.176522
-1.576443
-0.081721
0.486074
-0.004216
-1.416917
0.155969
1.105516
-0.517284
-0.642037
0.013400
0.620088
0.278214
-0.331866
-0.171281
-0.427627
-1.307875
-0.437151
0.788760
0.211133
0.158739
-0.080471
-0.327686
0.353820
-0.886288
-0.470195
2.247380
0.997246
-0.008254
-0.793680
0.214434
-1.321603
0.918142
0.473368
-0.133357
-0.490418
-0.584012
-0.306707
0.520653
0.646504
0.160365
-0.206606
-0.891586
0.232130
-0.661892
-0.538856
-0.196920
-0.987881
-0.837426
-0.153287
-0.396910
-0.717690
-0.256906
-0.200735
0.863800
0.630312
0.369487
-0.386008
0.396802
-0.399176
0.249781
-1.441363
0.006499
0.006490
1.151010
-0.103731
-0.676877
-0.348620
0.293515
-0.677939
0.206786
0.575911
0.429691
0.453900
0.341602
-0.431190
0.005283
-1.014886
0.106740
0.802081
1.114641
-1.459438
0.316092
0.407556
0.796582
0.185323
-0.336130
0.134585
0.628859
0.091047
0.190156
-0.966255
-0.000062
0.583977
-0.512126
0.077258
-0.135461
0.790038
-1.027238
-0.908155
-0.683188
-0.747128
-1.043856
0.714370
-0.744543
0.347852
1.753536
0.492886
-0.304380
1.168657
-0.562641
-0.127993
-0.517992
-0.230058
0.269802
-0.384910
0.564591
1.169596
0.879874
-0.945292
0.471742
0.306692
-0.514877
-0.978080
0.197648
-0.194377
-0.246561
0.735453
-1.311041
-0.855958
-0.680519
-0.406792
-0.327033
-0.310729
0.423231
-0.206391
1.594275
1.039437
1.087690
0.999352
0.025108
1.372830
0.937147
-0.056407
-0.645559
-0.710694
1.148194
-0.232249
0.032866
0.250095
0.439999
-1.514669
-0.134526
-0.820082
-1.164122
1.003006
0.894650
-0.679838
-0.008332
0.854120
-0.253477
-0.581828
1.041133
-0.030917
-0.485021
0.720646
0.521903
-0.519822
0.702408
0.472811
0.640213
1.442055
-0.791160
1.028198
0.187240
0.187746
1.207597
-0.516629
-0.318840
-0.080729
-0.138495
-1.213791
0.104602
0.659769
0.123484
1.630584
0.935646
0.192227
-0.694363
-0.872318
0.395442
0.809820
0.835665
0.405977
-0.440145
0.599163
-0.138129
0.243605
0.674350
-0.079938
1.184607
0.270695
-0.757489
-0.252134
0.308194
-0.759542
0.622476
0.248116
-0.049949
0.974625
-0.326901
1.179292
-1.223899
-0.294755
0.266554
0.801184
-0.375465
-0.678960
0.534980
-0.065335
0.012952
-0.537846
1.720270
-0.708229
0.813247
1.000200
0.279410
1.047336
0.479872
-0.662482
0.779116
-1.902692
1.048322
0.091457
0.481753
0.050466
-0.154294
-1.000363
-0.275215
-0.713050
0.658154
0.751564
0.300570
-0.243648
-0.561812
0.134784
-0.037476
-0.883033
-0.738534
0.088240
-0.071094
-0.607168
0.392362
-0.880094
-0.371159
0.319012
-0.630855
0.841609
-0.062549
-1.157385
-0.419041
0.008346
-0.817068
-0.853585
0.373150
0.711298
0.263366
-0.156116
-0.860829
0.951781
0.312268
-0.188222
-0.080725
-0.134086
0.031266
0.244568
0.893246
-0.491049
-0.690299
-0.384460
2.379009
0.994727
0.327399
-1.205973
0.816488
1.407302
-1.664415
1.155487
0.951368
-1.117059
-0.976236
-0.575243
-0.272574
-1.256636
0.271160
-0.485247
-1.373070
0.257037
-0.836322
0.514877
-0.405693
0.525347
0.253938
-0.554225
0.292085
0.984899
0.585993
-1.415811
0.817057
0.314933
2.237796
0.186389
1.007983
-0.801458
0.179737
0.871046
-0.829089
1.729905
0.361426
-0.588844
0.167133
-1.727701
0.122605
0.376021
-0.805423
1.067683
-0.825163
0.425436
-0.168522
0.784732
-0.823842
1.795115
0.504288
-1.762944
0.569646
2.112910
-0.215448
-0.331729
-1.148702
0.814197
1.223377
0.222948
-1.458781
0.287291
0.448897
-0.340915
-0.428449
0.333701
0.796839
0.884213
0.010260
-0.796082
-0.115736
1.337857
0.561777
-0.630131
1.729752
0.227190
-0.088117
0.083541
-0.454027
1.730260
0.354189
-1.626906
0.845118
2.033286
-0.603753
-1.043420
-0.377857
0.263329
0.891156
0.858898
0.313436
-0.001619
0.937961
1.173149
-2.514247
1.684611
0.725622
-0.148605
0.133538
-1.304192
-0.774489
0.010814
0.502031
1.037487
-0.717875
-0.279491
0.387260
-0.102503
0.653993
1.802597
0.967443
1.337081
1.274193
1.821843
0.031837
-0.253855
0.984350
-0.637915
-0.102554
-0.478641
-0.525193
0.302771
-0.336519
0.051919
-1.752613
0.141574
-0.519937
2.028735
1.077217
-1.791339
0.576938
-0.527020
-0.050302
-0.248937
-0.726329
0.110587
-0.823874
-0.350422
-1.145404
1.460844
0.702777
1.042541
-0.143820
1.930166
0.990495
-0.579474
0.119459
-0.185875
-0.097080
-0.023372
-0.632820
0.429927
-0.082005
0.567076
-2.652594
0.839452
1.190719
0.173501
-0.148300
-2.268259
-0.428963
-0.750196
-0.269955
0.267151
-1.893420
1.080772
-0.950252
-0.328783
0.581964
1.444589
1.643817
0.204335
1.285805
0.535464
-0.020204
-1.556429
0.565641
0.868567
0.769214
-0.198609
-0.481210
-1.125341
-0.364375
1.199429
-2.512136
-0.370039
2.093832
1.524023
-1.198442
-1.017980
0.315175
0.108165
-0.538162
0.646333
-2.371520
0.093656
-0.052604
-0.459785
0.617099
0.500994
-0.156036
-0.313122
1.548847
1.603810
0.359682
-1.371172
-0.098163
-0.651780
-0.569385
-1.395525
-1.285604
-0.527844
0.332376
0.231999
-2.212605
-0.520763
1.017416
-0.952027
-0.217979
-1.060050
-0.323860
1.161401
0.217309
0.894937
-2.559713
0.755050
-0.973489
-0.185019
-0.076970
2.077595
0.615691
0.142823
-0.272266
1.672582
-0.179928
0.019814
0.913056
0.530246
-0.941799
-1.224326
-1.290733
-1.880689
-0.290839
1.143039
-1.888526
-1.122435
1.869287
-0.021798
-0.132654
-1.963384
0.281961
-0.222721
0.831448
0.083722
-2.538635
-0.118806
-0.365456
-0.790973
0.114272
1.924661
-0.665605
0.211388
-0.499406
2.208387
-0.707107
-1.091441
-0.214730
0.771761
-0.895545
-0.109772
-0.940305
-1.218994
-0.108761
0.444974
-2.063921
-0.578281
1.591249
0.668816
-0.052096
-0.221957
-0.869007
0.356459
-0.055854
-0.611198
-2.366357
0.212037
0.520497
-0.649518
-0.233417
0.003699
0.262507
0.066821
0.717283
0.404475
0.000410
-1.105865
-0.298309
-0.716400
-0.780527
0.412773
-0.845134
-1.070307
0.568567
1.200246
-0.418018
-0.810358
0.170750
1.306507
0.800619
-1.781136
-1.006549
-0.908246
-0.827360
-0.420852
-3.314769
-0.238987
-0.393706
-0.433533
1.076825
-0.382237
-0.161859
-0.636013
1.302170
1.255692
-0.018140
-0.824666
-0.366190
0.063781
-0.033212
-1.204902
-0.073622
0.096369
0.019886
0.908555
-1.166778
0.417666
1.110674
2.255641
-0.861741
-0.631663
-0.565804
0.698781
0.791285
0.933671
-2.379440
-0.271171
-0.870504
-0.942054
0.107017
0.128893
1.478206
0.542615
0.849022
1.677801
0.399371
-0.096667
0.293796
-0.165136
-0.636731
0.234877
0.910613
-1.067546
0.132226
-0.192523
-0.834558
0.014520
-0.051028
0.210186
-0.455895
-0.441874
-0.292353
0.429964
-0.829744
0.767238
-3.102701
1.108099
-0.606842
-0.156539
-0.222917
-1.023561
0.123615
-0.848365
0.793867
1.206723
-0.119024
-0.938009
0.329169
-0.247560
-1.929966
0.443390
0.065927
-1.946896
-0.506131
1.018493
-2.957768
-0.526056
0.618003
0.442544
0.287426
-1.149981
0.446596
-0.854573
0.914152
-0.900349
-0.482024
-0.206852
-0.344851
0.199269
-0.402252
0.851754
-0.235016
0.545791
-0.232491
2.093156
-0.377018
0.272852
-0.308219
-0.194135
0.083391
-0.202006
-0.420283
-1.436445
-0.049182
-0.464007
-1.363072
-1.084620
0.228162
1.539919
0.149455
-0.580203
-0.761266
-1.365337
-0.221067
-0.993210
-1.829636
1.520439
0.193744
0.733433
0.364090
0.164850
-0.141082
-1.197278
0.437927
0.827970
-0.339640
-0.741375
-0.306530
-0.125298
0.670976
1.019259
-1.014847
-1.093780
0.623661
0.407252
-1.071832
-1.564230
-0.074503
0.393415
-0.661707
-0.261725
-0.495406
-1.347097
0.282602
0.925307
-0.935332
0.420940
-0.283899
0.279453
0.314603
1.345291
1.043204
0.189670
-0.762893
0.772555
-0.485202
-0.039994
-0.412101
0.136900
0.702762
0.572151
0.886700
-0.907899
-0.606490
-0.765169
-2.140289
0.596522
0.433780
-0.633264
-0.740524
-0.940325
0.442203
-0.240723
-0.254293
0.570889
0.173623
0.257067
0.708801
0.082780
-0.303159
0.940209
-0.235866
-0.068695
-0.690694
0.985595
0.704358
0.375307
0.300841
0.272218
-1.254194
0.844908
0.379951
-0.504237
-0.745413
-0.225023
-0.528427
0.830129
-0.383765
0.190476
0.604975
0.229529
0.716260
-0.857226
-0.836270
-0.804059
1.322982
0.152682
0.423242
0.489252
0.674770
-0.216033
-0.642228
0.732263
-0.599305
0.695879
0.892811
-0.327919
-0.512533
0.956275
0.611201
-0.026009
0.072898
0.388385
-0.609207
-0.589940
-1.995030
1.375623
-0.676829
-0.712094
-0.118221
-1.598983
-0.696406
0.682395
-0.564838
-0.318928
0.927907
-0.532376
-0.219576
-0.447661
-0.436293
-0.062169
0.651324
0.472650
-0.501268
0.457619
-0.491633
-0.499044
-1.126277
-0.102857
-0.049566
0.075936
-0.308779
-0.323393
-0.778075
0.958759
-0.883973
1.844100
0.340162
-1.158955
0.637338
-1.635009
-0.574483
0.167731
-0.254887
0.143498
0.012927
0.090131
-0.390140
1.028199
0.343686
0.522638
0.281017
-0.615652
-1.257726
-0.285804
0.735164
0.232109
-1.084144
-0.898407
-1.035883
0.746827
0.556790
-0.477547
0.666960
1.048425
0.607575
0.873611
0.666401
0.208199
-0.624569
-0.255341
-0.391582
0.405778
-0.719084
-0.639078
1.105190
0.347897
0.337556
-0.568888
-0.561558
1.264815
0.501672
0.194867
0.193877
-0.215373
0.654268
1.354870
-1.431828
-0.563488
-0.750449
-0.067651
0.539907
0.566590
-0.985579
-0.822905
0.086552
0.802692
0.101160
-0.911327
1.006888
-0.195027
0.707777
-0.668207
0.044002
-0.567959
1.013910
0.617395
-0.236347
0.232574
0.418122
1.640088
-0.809183
-0.817053
0.149329
-0.464027
0.366715
0.840163
-0.519468
0.951877
-0.592371
-0.005733
-0.133573
-0.730719
0.798356
-1.063407
0.525569
0.631580
0.792601
-2.147126
0.529796
0.017953
-0.732094
0.128596
0.210285
0.050278
0.392681
-0.614118
0.100894
0.968104
0.549096
-1.504954
0.337825
0.603669
-1.507681
-1.343534
0.459408
1.390688
0.361807
0.310574
0.365060
-0.378527
0.137252
-0.661553
0.180487
0.664719
1.101797
-1.631363
0.992619
-0.791194
0.251989
1.622266
-0.363941
0.714015
0.403506
-0.220319
2.301450
0.170202
0.531928
-0.720250
-0.491560
-2.887022
0.044663
0.416552
-0.724966
0.610741
0.739752
1.333465
0.836580
-0.610733
1.056906
-0.522578
0.146920
-0.691487
-0.847078
0.153795
-1.032020
-0.667354
-0.977244
-1.002725
0.145681
-0.312658
-0.297115
1.547968
0.711892
-0.627373
2.076586
0.538556
-0.066324
0.336974
-0.779934
-0.789702
-0.765244
0.155879
0.872684
-1.212421
0.392406
-0.867367
0.251032
0.153514
-0.509102
0.900615
-0.149637
0.754672
-0.954916
-1.055428
-0.113509
-0.327571
-0.266596
-0.779012
0.455441
-0.322951
-0.310762
1.890675
0.215301
-0.333193
0.251247
0.949923
-0.192234
0.314442
0.326260
-0.402796
0.788483
-0.258734
-0.002156
0.032734
0.370077
0.530157
-1.420251
0.429110
0.262776
0.239474
-0.432886
0.172725
-0.293015
0.676991
1.160229
-0.420921
-0.230706
0.278496
1.034915
1.829619
-0.783751
1.687338
-0.554495
0.676393
1.601412
1.077589
0.464387
-0.387420
0.140228
0.450244
1.302881
0.176794
-1.000329
-0.739986
-1.013257
1.902990
0.006937
0.166853
0.463806
0.069455
-0.005738
0.254466
0.522889
-0.552331
1.625642
0.413331
-0.323983
0.721796
0.663328
1.265900
0.437060
0.707197
-0.015149
0.163966
2.460053
0.075318
-0.371783
-0.008663
0.366715
-2.525790
0.908961
0.120719
-0.140995
2.286988
0.490608
-0.648187
-0.094989
0.291011
-1.370679
-1.138160
-0.179566
-0.329914
-0.654605
-0.528178
1.198528
1.073951
0.285401
-1.337803
1.181250
0.471449
0.957276
0.326020
-0.244461
0.381770
1.635216
0.523514
-0.537292
-0.006856
0.499769
-1.581802
0.576508
0.076727
-0.964213
1.450949
-0.560022
0.881270
-0.841044
0.499836
-2.133075
-0.498913
0.923563
1.365668
-0.402817
-0.059195
1.528194
-1.155925
-0.890708
0.558003
0.638368
0.875357
-0.835838
-0.991004
-0.502056
0.081403
-0.004251
-0.127505
-0.669295
0.590687
-0.404242
0.637930
-0.545527
-0.963932
-0.532593
0.226955
-0.061353
0.712820
-0.159384
0.695041
-1.643115
-0.780239
-0.334821
0.369766
0.415870
0.828285
-0.321908
-0.026810
0.388315
-0.941028
-0.752119
1.125790
0.234981
0.539101
-0.626193
-0.343162
-0.734963
-0.001912
0.117615
-0.517097
0.793501
0.771700
0.070318
-1.377033
-0.018281
0.201509
0.783559
0.894113
-0.144592
0.662946
-0.429541
-0.738228
1.469850
0.304619
0.962737
0.208508
-1.207372
1.811215
-0.382933
0.214347
0.331868
0.745193
0.039884
-0.657165
0.896342
-0.937791
0.337824
-0.189800
-0.469074
-0.887105
-0.099943
1.511236
0.575016
-1.297760
1.313966
0.001479
-0.532356
-0.748331
-1.261810
0.701314
0.051392
0.869265
0.379426
0.265355
0.323388
-0.233066
-0.661050
0.850810
0.754519
-0.109785
1.197512
-0.735484
-0.545850
-0.682007
-0.771730
-0.870979
-0.705422
1.194756
0.500938
-0.486182
0.153280
1.786940
-1.018792
-0.151921
0.547294
2.072513
-0.753773
-0.773125
-0.607366
-0.541938
0.633409
-0.604589
-0.591385
0.260158
-0.928580
-0.295797
-2.475627
0.147142
1.266313
-0.057988
1.040411
-1.069810
0.099071
-0.233937
0.365982
-0.667523
0.284818
1.016567
-0.172239
-0.245448
-0.313720
-0.113019
-0.912147
-1.123862
0.182415
1.025179
0.960007
-0.714481
-0.132876
0.616295
0.649191
-0.177909
0.199553
0.240791
0.683154
0.094668
-2.195708
-0.019144
0.618921
1.158274
-0.522901
-2.114722
-0.294423
0.193076
-0.918717
0.703383
1.105029
-0.197571
-0.942337
0.921731
-0.301255
0.421550
-1.556658
0.160806
-1.574187
0.812106
0.235634
-0.035609
1.224160
-0.449946
-0.012516
1.172267
0.198366
-0.967227
-0.444588
-0.878064
-1.450558
-0.033993
-0.615743
0.194316
0.890506
-1.398624
0.306892
-0.867414
-0.056505
0.544364
-1.097933
1.173631
0.040506
-0.226906
0.834649
0.156583
0.246516
0.310761
-0.311664
0.785027
-0.338583
0.473847
0.247390
0.211448
0.156050
0.060817
-1.113493
-0.692456
0.392329
0.165937
-0.738870
0.011194
0.006114
1.786929
0.116184
-0.717082
-0.339757
-0.149554
0.202292
-0.896401
-2.070262
0.754948
-0.826538
-0.251114
-0.050181
1.108230
-0.801437
1.141113
1.535840
0.864394
-0.150711
0.172040
-0.682808
-0.299261
0.035652
-0.648468
-0.652917
-0.127050
-0.447041
0.997753
-1.129446
0.018785
1.195393
1.159494
-0.831398
-1.873590
0.117461
0.630359
-0.176109
1.001711
-2.132341
1.674357
0.619899
0.378368
-0.796491
1.121740
-0.293345
0.985821
2.141141
1.043339
0.659203
-0.477879
-0.222445
0.492200
1.523358
-0.953340
0.676878
-0.717239
0.629820
-0.369928
-0.494665
-1.966619
1.109866
1.036597
-0.583103
-1.261957
-0.162855
1.331433
0.814050
-0.585507
-3.347208
1.424017
-0.809347
0.046247
0.846178
0.646284
0.650916
-0.489487
1.222935
0.425386
-0.399380
-0.486505
-0.439801
0.433556
-0.404503
-0.731056
-1.903077
0.309864
0.731706
-0.414734
-2.678916
-0.919465
0.838932
1.445398
0.476727
-1.004546
-0.068243
0.565058
0.678110
-0.808202
-3.555480
1.353945
0.205731
0.121668
0.689585
0.026703
1.172204
-0.741993
0.660848
0.434162
1.001352
0.150574
-0.947212
-0.282179
-0.032588
-1.270248
-2.159427
0.088556
0.161410
1.242983
-2.274130
-0.187258
1.702999
0.741116
-0.527923
-0.592375
0.616648
-1.132110
0.874333
0.089769
-2.641451
0.284638
0.689435
0.839879
-0.493418
1.693633
0.155833
-0.935194
-0.144910
0.779428
-0.416718
1.046498
-1.884815
-0.570849
-1.001066
0.218951
-0.336662
-0.151988
0.881679
-0.331657
-1.815041
0.828098
1.258284
1.378222
-0.833459
-1.530689
0.818059
0.514600
0.015429
0.901570
-1.874971
1.736434
-0.631541
0.219457
0.989187
0.250259
1.038065
-0.207828
-0.318006
0.824122
-0.706535
-0.447416
0.742699
0.284171
-0.211851
-1.042705
-0.595890
0.704366
-0.155132
-0.107146
-0.204275
-0.587911
2.592480
1.945405
0.430959
-2.777350
-0.849969
-0.279981
-0.035974
0.591483
-0.798779
0.916151
-0.298903
0.843359
-0.905390
1.388837
0.449627
-0.851413
1.468433
0.977819
-0.936459
0.353400
0.034482
-0.357529
-0.359526
-0.213735
-1.810307
0.237821
0.743805
0.266671
-2.428327
-0.606438
1.436385
0.981710
0.093815
-2.516988
0.107549
-0.483885
-0.275096
0.683873
-0.978135
0.355375
-0.460019
0.123764
0.419060
-0.021956
0.989616
0.508741
-0.362227
1.245858
-0.602688
1.071910
-0.824871
0.219740
-0.822085
-0.173123
-1.557029
-0.650507
-0.902718
-0.463900
-2.688256
0.104779
2.093246
1.511516
-0.304353
-2.043677
0.838293
-1.824204
0.599453
-0.657708
-2.602404
1.141323
0.016710
-0.250155
-0.413809
-1.333205
0.066262
-0.392793
-0.074330
2.038517
0.085207
0.707803
-1.326775
-0.606410
-0.202163
0.964980
-0.517096
-1.626293
-0.107421
-0.090996
-2.131502
0.549728
0.580342
2.204178
-1.173240
-1.885104
0.009062
-0.135907
0.228597
-0.039364
-1.292879
0.011610
-0.438263
0.068608
0.286134
-0.018893
-0.221745
0.831232
-0.342876
2.560437
-0.406721
0.699322
-0.514895
-0.666940
-0.539295
0.501476
-1.090980
-1.575541
-0.260493
0.165535
-1.501427
-0.981433
2.473222
1.704859
0.103278
-2.443546
-0.241607
-0.158491
-0.867452
-0.973282
-1.637337
1.319772
0.915357
-0.548376
0.188699
0.737985
0.741305
-0.631067
0.793172
1.750784
0.618314
0.336692
-0.598473
-0.917783
0.633082
-0.584238
-2.083554
-1.754584
-0.980231
-0.460998
-2.218243
0.407369
0.945634
-0.161793
-0.004855
-1.741338
0.451241
0.556029
-0.390660
0.124788
-1.410719
1.285122
0.598926
-0.465993
-0.357824
2.355287
0.795439
-0.539843
0.003600
1.710883
0.326575
0.952141
-0.365939
-0.213407
0.425633
0.069031
-0.831761
-2.198044
0.491556
-0.363464
-1.207233
0.820059
1.340993
0.966659
-0.844207
0.545176
0.504324
-0.766868
-0.919742
-0.328817
0.716628
0.137612
-0.166273
-0.927533
1.414980
-0.213163
0.863646
-0.413630
0.750110
0.836067
0.794164
0.755519
-0.601613
0.786428
0.184853
0.278750
0.356481
0.504500
-0.074959
0.789732
0.053142
-0.297071
1.163390
0.356117
-0.730778
-0.005264
0.775082
-0.608500
-0.142961
0.097500
-0.752721
0.409361
0.715129
0.310100
-0.121360
-0.528701
0.603908
-0.046320
-1.016648
0.086944
-0.734199
0.267147
-0.705341
0.116342
0.078069
-0.714479
1.017297
-0.424570
-0.880542
0.336349
-0.432257
0.147713
0.653453
0.345350
-0.465296
-0.104100
0.436323
-0.222462
0.404007
0.828203
-0.003594
1.953756
0.213886
-0.389565
0.064899
-0.108888
1.652908
0.420356
0.071688
0.122000
-0.641242
0.924550
-1.392259
0.443729
-1.038199
-0.100384
2.303664
-0.101533
0.706091
-0.597096
0.952973
1.017184
1.584521
1.070871
-0.266743
0.659271
0.887874
0.916207
0.135675
0.167334
-0.716880
0.589647
-0.506165
0.081548
-0.327754
-0.111857
-0.166359
0.765699
-0.011971
-0.429446
0.883905
-0.297053
0.619807
-0.152225
-2.207452
0.973172
0.031930
1.304035
-0.326423
-0.830320
0.788945
0.180202
0.591948
-0.181293
0.443697
-1.146877
0.076401
0.800423
0.199540
0.474542
0.745938
-0.568565
0.600374
-0.751224
-0.203607
-0.242224
2.145911
0.594421
-0.019687
1.218456
0.367074
1.589407
-0.802132
-1.054773
-0.856836
1.051428
0.521524
0.398045
0.504557
0.034414
2.170685
0.280643
0.028987
1.098301
-0.906578
0.526760
-0.274429
0.036067
0.412352
0.136956
1.613000
-0.393912
0.810993
-0.370323
0.914493
0.801728
-0.002385
0.770281
-0.065618
-0.465052
-0.144926
1.234050
0.326252
0.481337
-0.136348
0.414481
-0.345315
-1.675291
0.160022
0.099816
1.455043
0.707068
-0.923334
-0.143930
-0.097690
1.247544
0.392357
-0.041159
0.792330
0.689341
1.289605
0.631614
0.808955
0.231257
0.939312
-1.415953
-0.453395
1.154193
-0.852713
-0.954842
-0.593619
0.835486
0.167458
-0.206586
-0.026316
0.875714
-1.006747
-0.870899
0.435724
0.487238
0.560738
-1.285925
-0.283057
-2.181024
0.238243
1.526788
-0.820358
1.401282
0.874660
-0.766309
2.406493
-0.052227
0.053981
-0.443193
-0.756794
-1.826543
0.966104
-0.044616
0.995574
-0.265925
0.307438
-0.124543
0.084038
-0.333169
0.127198
0.636870
-0.207877
-0.611818
-0.115948
0.693284
1.090346
-0.529320
-0.256628
-3.225955
-0.421646
0.070684
0.567029
-0.019151
0.839306
0.236944
-0.124792
0.978081
0.547961
-0.642343
-0.628838
-0.451291
-0.012516
-0.062324
0.453408
-0.425897
0.683408
-0.056988
-0.288924
-0.823107
0.792096
0.123619
-0.521414
0.016349
0.006807
-0.211858
-0.603688
-1.217839
0.673525
-1.821483
-0.464043
0.004238
0.597883
2.227189
0.368237
-0.288762
-0.217299
-0.378597
-0.613118
1.007046
0.663549
-0.112977
-0.844015
-0.199949
-0.347718
-0.747837
0.529542
0.677150
-0.702954
-0.458912
-0.087766
0.026253
1.211051
0.674938
-0.256581
0.505513
-0.067597
0.527291
1.012735
-1.087609
0.095628
2.008058
-0.292463
0.815483
-0.317032
0.064149
0.150614
1.035832
-0.492982
-0.157916
-0.820603
0.248519
-0.301787
1.195763
0.872638
-0.150393
-0.404801
0.710679
-0.804269
0.020614
1.111024
-0.002834
-0.116707
0.377338
0.795596
0.676459
-0.000458
-0.125274
1.103617
-1.188964
0.939303
1.367972
1.066554
0.882700
0.784007
-0.227242
2.210639
-0.926359
-0.244085
0.713560
-0.160535
-0.846608
0.832532
-0.363819
0.555585
1.231251
0.419588
-1.250049
-0.381963
-0.154623
0.591562
-0.501656
-0.187874
0.459900
-0.725968
0.529595
0.778108
-0.151151
0.008838
-0.360623
-0.621936
1.064872
0.287832
0.793610
0.487315
0.976436
0.744868
0.177076
-0.789371
0.875143
0.241975
0.473609
1.430054
-0.438052
-1.578791
1.268676
0.163755
-0.299737
-1.030262
-0.507448
-0.589956
-1.603460
0.615676
0.275318
0.298033
0.460909
0.735802
0.765558
-0.064067
0.898099
-0.530110
-0.674621
0.878202
0.681220
-0.879421
-0.629236
-0.458367
-0.038843
0.734991
0.715967
0.400621
0.556347
0.067184
-1.102740
-1.197896
0.223384
0.035614
-0.675837
0.000058
-0.257290
-0.974205
-1.158667
1.950506
0.014826
0.283130
-0.062117
-0.248987
-0.279762
1.395098
1.245002
-0.033060
1.399444
0.352982
0.743505
-0.046165
-0.406566
-1.690062
1.448307
0.589552
0.868491
-0.189684
1.068720
-0.458295
0.121534
0.760822
1.681501
0.871539
-0.438730
-0.279984
0.774174
1.340065
-0.430992
0.328977
1.285454
-0.416390
1.284027
0.650011
0.260470
-0.466092
0.762116
-0.963502
-0.754733
0.981192
-0.049511
-0.490385
-0.477266
-0.718649
2.046752
-0.333716
-0.709755
0.233174
2.107806
-1.501293
0.249898
0.145416
0.197594
-0.576594
-1.513138
0.723914
-0.108905
1.484647
0.185256
1.202231
-0.882290
-0.108501
1.191359
0.782734
0.014479
0.248484
-0.918188
0.004517
-0.526669
0.271167
0.288250
0.472937
-0.756682
-0.674807
0.543163
-0.261833
0.278805
-0.703846
0.686683
-0.204480
-0.765811
0.863104
1.087019
0.842042
-0.860867
-0.211338
0.897871
1.300821
-0.469644
0.672895
-0.136391
-0.104673
1.145475
-1.468413
-0.873833
1.097378
0.897863
-0.564434
0.170797
-0.289862
-0.240049
-0.832870
0.877821
0.112583
0.358407
0.769256
-0.882826
0.746417
0.661861
-1.336996
-1.085029
-0.334472
0.334917
0.056827
-0.992299
-1.336874
-0.181707
2.133672
-0.505263
0.549765
-0.914677
-0.210028
-0.367463
-0.926073
0.240194
1.022528
0.332183
0.609426
-1.158167
0.834715
-1.890935
0.698434
0.024992
-0.255201
0.609045
-0.372112
-0.252273
-0.665601
1.995468
0.799561
-0.573229
-0.835571
0.406728
0.729220
-0.767588
0.427803
-0.736139
1.315278
-0.201407
0.118354
-0.799486
0.595204
-0.561126
-1.562361
-1.368538
1.339632
0.202340
-0.442759
-0.744284
0.577022
-0.424917
0.515958
-0.725794
-1.907063
1.821410
0.683222
0.230432
-0.462879
0.879400
1.248902
0.602103
0.755013
0.817838
0.419167
-0.381239
-0.649007
0.283841
0.068913
-0.107642
0.611282
-1.072520
-0.807406
1.172449
-0.545854
-0.151167
1.053670
0.714206
0.163114
-1.136965
-0.372742
-1.706636
-0.670183
-0.442310
-1.992070
1.031407
-0.529117
-0.329949
0.011260
0.380596
-0.084881
0.777391
-0.192063
1.001506
0.349270
1.520360
-1.383326
0.904046
-0.260503
0.090230
0.191863
-0.941353
-0.161858
-0.551192
-2.387256
-1.259666
0.057583
0.072219
0.067102
-1.727528
0.424217
-0.444915
0.402055
-0.700801
-2.980917
0.903690
-0.123594
-0.184150
-1.111275
0.908788
-0.249921
-0.357107
-0.797547
1.283491
0.724926
1.532795
0.465182
0.974491
0.431670
-0.095297
-1.030044
-0.330221
-0.268944
0.840326
-1.304947
-0.106526
-0.435830
0.853381
0.966696
-0.507351
-0.169698
0.620277
0.134666
-0.502203
-1.357833
0.283725
0.547415
0.861901
0.442509
0.705933
0.186251
1.023229
0.345914
0.840603
0.692114
0.468143
0.493114
0.774985
0.919796
0.396079
-1.632468
-0.507976
-0.361355
0.940173
-2.356902
0.356079
0.734587
-0.196220
-0.909917
-2.324401
-0.527899
-0.064055
-0.464670
0.406604
-1.535740
0.602963
0.275989
0.502967
0.614624
1.097832
0.177472
-0.275348
-1.351022
1.022879
-0.760900
-0.252805
-0.014421
-0.174140
1.502055
-0.616526
-1.675579
-0.225329
-0.652020
-0.415012
-0.275142
-1.238452
1.838764
-0.262872
-0.687618
-1.345854
-0.082993
-0.526446
0.180561
0.339596
-1.614931
2.116669
0.545669
0.815600
0.245420
1.679387
1.141942
-0.575419
-2.137361
0.495097
-0.685674
-0.155374
0.643281
0.971219
0.312015
-0.607710
0.241808
0.012492
0.810396
0.681323
-1.154231
-0.155152
2.055864
0.830547
-0.655671
-3.413870
-0.740152
-0.403105
-0.456689
0.045105
-2.174257
0.245244
0.099338
-0.652627
0.707957
0.425799
0.442004
-0.719042
-0.707648
1.494381
0.452785
0.279471
0.358647
0.441647
-0.099669
0.428085
-0.375168
1.479768
0.481631
0.805379
-0.700593
0.081839
1.685221
0.150599
0.422037
-1.721480
-0.379770
-0.746145
-0.954717
0.920744
-1.161587
1.666182
-0.308444
0.779351
-0.411026
0.535035
-0.235469
-0.290443
-1.358758
1.964128
0.111166
-0.235107
-0.034966
-0.430962
0.825942
0.089396
-0.919085
-0.132729
0.253376
-0.173387
-1.377353
-0.550836
0.811918
-0.180314
0.369291
-1.390317
-0.796809
-0.040602
0.935944
0.242260
-1.379889
1.076536
0.436615
0.451908
0.774034
0.331731
1.119913
-1.087267
0.663403
1.300312
0.553354
0.989860
0.375683
0.483584
0.959001
1.140879
-2.810409
-1.851690
0.063328
0.606549
-1.860802
0.610442
0.907883
0.875554
0.107480
-0.426698
0.178069
-2.257006
0.414966
-0.598400
-2.337176
0.212997
0.369672
-0.589784
0.078501
-0.261563
-1.530914
0.477837
1.423144
0.938465
-0.086410
-0.754059
-1.169108
-0.199646
0.554306
0.815643
-2.203420
0.136876
-0.894279
-0.744927
-0.480741
-0.372956
2.142573
0.400555
-0.014115
-2.577200
-0.227061
-1.233599
-0.495296
0.657449
-2.609071
1.159353
0.275826
0.714452
0.733000
1.272455
-0.687636
-0.179640
-0.612308
2.370669
1.078542
-0.651344
0.380451
0.694154
0.294903
-1.024025
-0.820315
-1.140706
0.427863
1.017189
-0.337123
-0.371360
1.912751
2.285783
0.497144
-1.575106
0.918597
-0.598520
0.363114
0.642935
-2.475470
1.250736
0.421120
-0.395269
-0.778511
0.979381
1.081725
-1.018600
-0.052710
0.493775
-0.086390
-0.667726
-0.469816
0.127314
0.799342
-0.237172
-0.179826
-0.611257
-0.412045
0.421046
-0.048343
-0.065092
1.239955
1.687601
0.497408
-1.518403
0.239796
-0.437961
-0.472851
0.774088
-3.028303
1.323943
0.278081
0.616343
0.526209
1.635470
-0.646860
0.333999
-0.189286
1.042633
0.055557
-0.164527
0.847176
0.316930
1.666145
-1.446093
-0.363705
-1.144505
-0.170957
-0.356752
-0.370248
0.133953
-0.073149
1.513144
-0.076190
-0.744810
-0.341242
-0.312311
-0.122105
-0.589001
-0.271270
0.120197
-0.402556
0.406256
0.790953
1.292160
0.448483
-0.922889
0.810713
1.710744
-0.670352
-0.490845
-0.865427
-0.179052
-0.286141
0.149757
0.633802
-0.013000
-0.060631
-0.417553
0.258646
1.059920
1.242967
2.387538
0.851152
0.296636
-0.797902
-0.811497
0.053964
0.107344
-0.612467
0.099629
-0.333693
-0.697210
1.020910
-1.180558
-0.434505
-0.836555
-0.987221
-0.830645
0.113442
0.353010
-0.119553
0.186544
-1.684517
-1.722106
1.025531
-1.063488
0.551225
-0.216132
-0.322808
0.758333
0.809019
1.116474
-1.040725
-0.312320
-0.227575
-0.049957
-0.732236
0.346863
-0.671794
0.818402
-0.280872
0.709132
-0.047414
-0.704081
0.238200
-0.389654
-0.652785
-0.217980
-0.256765
-1.186912
-0.600306
-0.585381
-0.171034
-0.258182
2.016288
-0.036807
0.782370
-0.198749
-1.404593
1.028142
0.565803
-1.189906
0.596640
0.972232
-0.485934
-1.009080
0.773751
0.319696
1.290635
0.495155
0.161448
0.413098
0.750673
-0.446984
-1.036040
-0.676464
-0.421123
0.130924
0.606413
-0.770820
0.410524
0.072985
-1.454953
-1.565023
0.909746
-1.307313
0.803968
0.556896
-0.696522
-0.714289
1.360129
0.337079
-0.064909
0.872837
0.566779
0.941814
-0.546351
-0.104760
0.345702
-0.007671
0.676586
0.090143
0.069196
0.845206
0.572069
0.717249
0.602041
0.278742
0.357455
0.444960
-0.904672
0.088939
-2.061739
-0.206420
-1.181425
-0.309090
-0.914879
0.326266
0.680805
1.059976
0.133081
0.443676
0.916870
1.790895
0.383748
0.595190
-1.035943
0.616068
0.464496
0.352154
-0.141173
0.133721
0.687867
-0.695230
-0.163298
0.982821
-0.912208
0.091544
0.506020
-0.044556
0.232256
0.491281
0.027658
