3072 30 10 10.0000 50 50 100
-0.278535
-1.039019
-0.150964
-0.314946
-0.170174
-0.422347
-0.297004
-0.874810
-0.284774
-1.036182
-0.955122
0.033706
-0.496875
-1.242975
-6.605530
1.153943
1.347005
-0.189650
0.549263
0.137221
0.065331
0.164451
0.034868
0.440213
-3.191947
-7.165752
0.314456
-2.990669
0.500955
-2.966552
0.198593
0.053772
1.318040
0.147433
-7.814982
-3.727510
-2.561188
5.728397
-0.807366
-0.796400
-0.520079
-0.021052
0.306637
-0.622222
0.658767
-0.707529
0.491731
-0.031498
0.712305
0.298944
0.577788
-0.807321
0.575688
0.325575
-0.315161
-0.851041
0.451943
0.687435
0.216060
1.086894
-0.109683
-0.292708
0.323024
-1.151947
0.431245
0.196273
0.830365
-0.197319
0.705846
-0.713947
0.399382
0.303182
-0.819078
-0.887222
-0.526272
-0.777938
-0.152064
-1.088960
0.335292
-0.226728
-0.839223
0.419353
-0.620042
0.668822
-1.351801
-0.905657
0.594179
-0.673129
-0.601349
0.318428
-0.738480
-0.743611
0.929592
-1.067668
-0.948918
-0.993293
0.129067
0.878182
0.403605
-0.513558
0.368190
0.924390
-0.935363
-0.069149
-0.099930
0.543838
0.719996
0.550585
0.140142
0.767029
-0.812555
0.457508
0.694846
-0.382763
-0.058256
-0.660797
-0.073157
1.067097
0.630558
0.699545
0.332751
-0.295012
-0.197259
0.679946
0.657069
-0.706887
0.194267
0.407716
0.347443
0.735911
-0.189007
-0.833579
-0.881097
-0.532540
-1.064559
-0.924018
0.214800
0.073526
-0.551827
-0.229011
0.375306
0.155996
-0.093217
-0.607449
0.068558
-1.009783
-0.549539
0.250692
-0.032988
0.538427
-0.925326
0.346246
-0.210539
0.384542
-0.342332
0.794378
-0.057911
-0.808120
0.952069
0.606208
0.875230
-0.009518
0.840314
-0.204351
-0.543292
-0.659518
0.053324
0.075720
-0.012969
0.519539
0.826152
-0.490262
0.698579
0.624995
0.401099
-0.207238
0.723586
-0.394904
-0.510766
-0.335623
0.394078
-0.249908
1.035631
-0.381179
0.059709
-0.944021
0.193576
0.219008
-0.513296
0.843751
-0.119821
0.739834
0.429516
0.856573
-0.448233
0.543599
0.807839
0.622384
-0.342868
0.945697
0.628115
-0.724328
-0.276399
-0.972185
0.192253
0.064691
0.437258
0.291399
-0.243768
-0.243370
0.448561
0.165366
1.153383
0.172890
-1.107601
-0.659657
-0.092346
0.201984
0.468647
-0.077602
-0.388102
-0.650163
0.691086
0.218629
-0.006401
-0.010635
0.330527
-0.067520
-0.716893
-0.721619
-0.036365
0.242293
0.773625
-0.785473
0.010817
-0.062953
-0.980689
0.291561
0.734970
0.161748
0.619697
0.805975
-0.489747
0.521677
0.513057
-0.858795
-0.561156
-1.022196
0.671872
-0.111682
0.112502
0.496519
-0.564930
-0.709729
-0.465079
-0.671572
0.143634
0.030298
-0.358864
0.852446
0.465055
0.937972
0.293124
0.297981
0.235551
-0.631363
0.871976
0.429102
-0.383533
-0.017286
-0.228924
0.628235
0.228426
-0.186123
-0.532811
-0.431693
0.336015
-1.534686
0.334859
-0.052042
-0.605827
-0.183101
0.301400
0.587389
-1.051969
0.011378
-0.184502
0.044950
0.219468
-0.039845
0.644668
-0.246704
0.833609
-0.947566
-1.003940
-0.331405
0.424011
0.470404
1.173425
-0.416248
-0.046589
0.070284
-0.126223
0.581625
0.024012
-1.024499
-0.482106
0.542733
-0.042805
0.938355
0.681287
0.908531
0.686824
0.445135
0.207233
0.260476
-0.545053
0.030099
-0.951760
-0.537824
0.898797
-0.639570
-0.762054
-0.248820
-0.421063
-1.191189
0.309427
-0.713275
-0.333499
-0.437127
-0.285064
-0.188527
1.005822
-1.002969
0.531167
-1.254823
0.380093
-0.442755
-0.442831
0.537178
-0.806121
0.798934
-0.413569
-0.714037
-0.639553
-0.217715
-1.028692
0.348312
-0.509504
-0.230598
-0.571789
-0.016050
-0.760044
-0.962908
-0.557908
-0.094522
0.304559
0.177762
-0.561282
-0.576093
-0.504055
0.876049
0.100062
-0.082254
0.376422
0.159907
-0.397747
0.461376
-0.060792
-0.557920
-0.166087
-0.235348
-1.086680
0.060990
-0.319636
0.224664
0.573360
0.574281
-0.461107
0.407570
-0.670159
-0.682555
0.577422
0.467576
-1.539469
-1.276584
0.075609
-0.582288
-0.390560
0.854731
0.102985
-0.399740
1.396441
0.206800
-0.013996
0.410247
0.812565
-0.729160
0.097114
-0.803430
-0.422517
0.909941
-1.061412
0.571929
0.786329
0.673246
0.338210
-0.168844
-0.235001
-0.039297
-0.117389
-0.875905
0.616888
0.214283
-0.321223
0.763166
0.359626
-0.634268
0.986221
0.008771
0.973616
-0.858248
0.381174
-0.324467
-0.516467
0.211211
0.855120
0.369346
0.475483
-0.217715
-0.560717
0.190897
-0.356434
-0.556733
0.048570
0.852182
-0.610189
-0.760006
-0.369942
-0.264878
0.294878
0.946011
-0.539325
-0.727862
-0.848391
0.828713
0.362552
0.706938
0.115231
-0.185686
-0.192966
0.807985
0.410334
-0.486175
-0.879729
0.034615
0.690116
-0.867600
-0.567234
-0.319670
-0.270065
0.814733
0.811282
-0.116063
1.078290
-0.687778
0.101939
-0.446238
-1.057796
-0.649788
-0.141805
1.001949
-0.963425
0.354929
-0.124699
0.258637
-0.885976
0.390803
0.726433
-0.932607
0.800933
-0.906427
-0.396852
0.864492
0.155176
0.284747
-0.666503
0.691956
-0.227053
-0.311628
0.890215
-0.086973
0.642465
0.791833
-0.394415
0.448624
-0.700706
-0.273524
0.688796
-0.519541
-0.125148
-0.684624
0.734764
0.835411
0.066704
0.832750
-0.619030
0.710085
0.650819
-0.613568
0.902332
-0.075521
0.930910
0.770273
-0.431995
-0.905128
0.959734
0.111776
-0.690319
0.836982
0.601742
-0.658896
0.327442
0.706067
-0.059750
-0.508063
0.196399
-0.135989
-0.128029
0.438708
0.880075
0.775376
-0.655690
-0.108888
-0.374671
0.524667
0.114448
0.007719
0.258587
-0.660923
0.925692
0.281189
0.564168
0.231805
-0.494737
-0.925576
0.041932
0.697839
0.086359
-0.188425
-0.100384
-0.259879
-0.680234
0.451451
0.272760
0.775703
0.347625
-0.239904
-0.106303
-0.636794
0.454046
0.479337
0.473965
-0.598510
-0.876645
0.590746
-0.504412
-0.195642
0.522932
0.897683
-0.374261
0.848086
0.106224
0.531995
0.041858
-1.209645
-1.003698
-0.355647
-0.237548
-0.163304
-0.778521
0.567466
0.232622
-0.479835
-0.607905
-0.125723
0.257431
0.369533
-0.075111
0.529465
0.339672
0.076336
-0.834236
0.074654
0.129755
-0.408494
0.597059
0.564864
0.301197
-0.160191
0.221857
-0.551821
0.121915
0.477129
0.366333
-0.247547
-1.166823
-0.433415
0.703834
0.477289
-0.552617
-0.755208
0.460627
0.188631
0.145874
0.457168
0.258187
0.323328
-1.075103
-0.449947
-0.863953
-0.734636
0.346432
0.236310
-1.314071
-0.263338
-0.620196
-0.989541
0.127885
0.027848
0.040542
0.517930
0.407958
1.007111
-0.797235
-0.816382
-0.726190
-0.608347
-0.287569
0.278872
0.296761
0.737411
0.757833
-0.825731
-0.363722
-0.547048
-0.982563
0.720683
-0.947316
0.078262
0.356383
-0.257901
0.373206
0.011005
-0.759797
1.002343
0.127162
0.466466
-0.509807
0.914076
0.782644
0.952072
-0.290882
-0.725698
0.650111
0.364812
-0.873979
-0.084450
0.850969
0.302345
-0.542600
-0.410910
-0.433708
0.727592
-0.140169
-0.399613
-0.225878
-0.617742
-0.120658
-0.510124
0.217683
0.027838
-0.553037
0.786468
-0.564623
0.038586
-0.022037
-0.480896
-0.090467
-0.779157
-0.807451
-0.987077
1.358355
0.468496
-0.883221
-0.825452
1.063004
-0.865550
-0.743292
0.243408
0.996129
-0.259911
-0.946420
-0.672615
-1.286142
0.456037
0.190341
-0.583525
0.170669
0.194975
-0.406132
-0.170125
0.699450
-0.500701
0.842603
-0.825111
0.434842
-0.392039
1.370972
-0.124524
0.186017
-0.394334
-0.241770
0.950105
0.026760
-0.058553
-0.548100
-0.760740
0.322566
-0.250271
0.873153
0.398946
-0.137931
0.572544
-0.376959
0.391158
0.671974
-0.207427
-0.625530
-0.245025
-0.136058
-0.356295
-0.526715
0.077716
0.656963
-0.145168
-0.512310
0.327809
-0.019536
-0.114395
0.229169
-0.800269
0.268866
1.152007
-0.651038
-0.618150
0.644103
-0.000811
-0.310981
0.766119
0.580582
0.729675
-1.059959
-0.548899
-0.541311
0.182536
0.383485
-0.426930
-0.353635
0.990779
-0.158288
-0.345637
-0.502927
-0.830802
-0.143602
-0.758972
-0.045262
0.940699
1.020179
-0.093264
-0.252729
0.123389
-0.495670
0.996077
0.299242
0.218272
0.159194
0.051723
0.042590
0.606085
-0.039041
0.039796
-0.655203
0.407128
-0.582015
0.538888
-0.524553
-0.063408
-0.165716
0.882516
-0.404412
-0.169134
0.237165
-0.561442
-0.058819
-0.149729
-0.200131
-0.515068
0.189036
-0.298390
-0.262658
0.546705
-0.038703
0.091063
-0.000004
0.343811
1.041584
-0.658154
0.848266
0.556441
-0.464963
-0.245704
0.284080
0.888359
0.048556
0.829917
0.897144
-0.020377
0.445623
0.245259
0.866612
0.101722
0.889150
0.273864
-1.273897
0.636202
-0.782069
0.093720
-0.089057
-0.361088
0.410438
-0.305176
0.422240
0.558960
-0.089267
0.654313
0.061161
-0.332165
0.254010
-1.251551
0.068600
0.919871
0.449792
0.739426
-0.729268
0.087449
0.909281
-1.020313
-0.239869
0.722698
0.328433
0.961901
0.144690
-0.339350
-1.739130
0.241709
-0.763337
0.501723
-0.632133
0.838233
-0.364274
0.682752
0.519194
-0.724785
0.731212
0.763357
-0.051951
-0.470097
-0.861079
0.548250
0.853318
-0.093576
0.299607
0.876748
-1.255448
0.041815
0.502288
0.700350
0.329463
0.386111
0.804261
-0.763188
0.336091
-0.733369
-0.868613
-0.752033
-0.317013
-0.129811
0.483193
-0.640911
-0.747393
-1.029925
1.283490
0.722380
-0.677318
-0.030612
-0.243121
-0.024149
0.332569
-0.176132
0.223702
0.286170
0.403827
0.303730
-0.524692
-0.665569
-0.528620
-0.801772
0.395227
-0.533405
-0.526559
-0.494410
0.069398
0.832251
-1.174970
0.957181
-0.025930
0.081726
0.050772
-0.228747
-0.101632
-0.647156
-0.053256
0.426096
-0.374379
-1.022959
-0.811882
-0.444661
0.694463
0.053261
-0.517014
0.254101
0.857080
-0.398136
0.025004
0.917489
0.553843
0.911483
-0.803006
-0.011506
-0.075856
-0.279596
0.080838
0.832082
-1.102999
-0.519419
-0.506187
-0.342477
0.836299
0.351741
0.499350
-0.373623
-0.374483
0.041761
0.268492
0.175856
0.636769
-0.580338
0.650505
-0.548433
1.098217
0.273521
0.071680
-0.494708
-0.003957
-0.339577
0.497254
0.306736
-0.871959
0.593589
0.403947
0.624802
0.329804
-0.473588
0.211992
0.076655
-0.515707
-0.724684
-0.235679
0.507483
-0.341684
0.849946
-0.680663
0.232175
1.584578
-0.328353
0.260552
-0.324989
-0.384826
0.394281
0.689901
0.296329
0.135820
-0.307309
0.694488
0.500766
-0.330716
-1.017848
-0.818239
-0.554466
0.015682
-0.241595
-0.894432
-0.254289
-0.890289
-0.748157
-0.965244
-0.293047
0.726492
-0.336927
-0.231209
-0.920793
0.128481
-0.021476
-0.636018
-0.882257
0.200737
0.008753
1.093824
-0.775814
-0.227060
-0.240512
0.258626
-0.138638
-1.100193
-0.689396
-0.879368
-1.065634
0.730543
0.776706
0.469212
0.767764
-0.816187
0.711776
-0.256008
0.032149
0.511884
0.951863
0.442879
-0.323848
-0.633199
-0.564031
0.876029
-0.965311
0.400689
0.007031
-0.461906
-0.392035
0.273224
-0.161933
-0.153708
-0.000082
-1.000332
0.225212
-1.054905
0.236482
0.135224
0.093082
0.287404
0.563726
-0.013490
0.984303
0.356897
-0.967817
0.153396
-0.153694
-0.560671
-0.753646
-0.424184
0.658765
0.074382
-0.446180
0.011415
-0.209264
0.239296
-0.550786
-0.299718
-0.630696
0.372922
0.784688
-0.114379
0.122600
-0.041424
0.088060
0.436238
0.541579
0.438423
0.290201
-0.451145
0.177060
-0.052094
-0.643525
0.831194
0.856259
-0.875858
0.610602
-0.488038
0.033340
-0.224868
-0.180517
-0.820950
0.203858
0.041046
0.910386
-0.501370
0.115076
0.678478
0.299697
-0.978387
-0.557493
-0.142571
0.156784
-0.549087
-1.076389
0.409858
0.096785
-0.858375
0.418237
-0.443202
-0.049239
-1.008544
-0.147894
0.105053
0.160471
0.187789
0.043248
-0.616595
-0.421621
-0.385039
-0.489784
0.426426
-0.864509
1.181574
1.048053
-0.881617
0.563555
0.701763
-0.439894
0.395955
0.849436
1.038327
-0.468596
-0.081014
-0.213821
-0.712836
0.376372
0.223304
-0.211694
-0.834529
1.022638
0.639177
0.967197
-0.004938
0.845565
-0.572079
-0.126647
0.471882
-0.227778
-0.290656
-0.516164
-0.383666
-0.316687
-0.535180
-0.177979
-0.475132
-0.740849
0.381203
0.312588
-0.979195
-0.810890
-0.001161
0.021073
0.145892
0.320176
-0.859573
-0.148646
-0.905978
0.650654
0.661346
-0.781310
-0.719525
-0.096744
-0.338111
0.533116
-0.389547
0.355963
-0.925421
0.388340
0.562938
0.127902
-0.345597
0.371345
1.429822
0.302325
-1.153036
0.507502
-0.042740
-1.598109
-0.622972
0.907266
-0.362802
-0.559616
0.697935
-0.344591
-0.707078
0.227944
-0.700593
-0.872908
-0.134365
1.037832
0.671326
-0.525284
0.398369
-1.035780
-0.626982
-0.028177
0.248873
1.278025
-0.816774
-0.470540
0.141191
-0.415018
0.031679
-0.863368
-0.684037
0.207569
0.736473
-0.917165
0.223618
0.166709
0.404063
-0.307693
0.387802
-0.376665
-0.645441
-0.397626
0.503538
-0.941428
-0.423797
-0.570547
0.264780
0.625902
-0.703222
-0.132805
-0.335520
0.157995
-0.180141
0.970192
-0.597241
-0.686952
0.918765
-0.337956
0.702973
-0.054971
0.117373
-0.244122
-0.394676
-1.256453
-0.577355
1.007381
-0.901599
-0.153484
0.678101
0.653042
-0.432632
0.011242
0.653492
-0.767952
-0.789814
-0.193688
0.103482
0.905210
-0.700936
0.963800
-1.325958
-0.478308
0.006440
-0.492860
-0.192806
-0.077159
-0.862221
-0.665734
0.102259
0.054853
-0.966088
-0.130393
-0.157863
-0.397192
0.611002
0.068054
0.668904
-0.594063
-0.761901
-0.450283
0.069676
0.611876
0.691660
0.458726
-0.488704
-0.418201
0.455708
-0.564951
-0.080351
-0.143032
-0.932188
-0.373965
0.016348
0.258764
-0.314190
-0.888335
-0.337746
0.786816
0.399567
0.601302
-1.032524
-0.903134
-0.105393
-0.009299
-0.378709
0.028940
0.698512
0.901403
0.571174
-0.539291
-0.157171
-0.381225
-0.643011
0.252110
0.186441
-0.326918
-0.413408
-0.484427
-0.716018
0.487987
-0.530486
0.099779
-1.057325
0.263207
0.123807
0.786654
0.238305
0.760523
1.504310
0.517191
0.341719
-1.033908
0.227736
-0.289726
-0.415454
0.245861
-0.912810
0.055870
-0.693815
-0.182454
-0.761382
0.158955
-0.508732
-0.758768
-0.499541
0.468970
-0.247072
0.788770
-0.870050
-0.034515
-1.012282
0.986247
0.854273
0.383668
0.270806
-0.554170
-0.976002
0.283084
1.122866
0.662276
-1.198292
-1.115816
0.313727
-1.281507
-0.304539
0.034735
-0.521252
-1.014127
-0.999227
-0.226615
0.127889
-0.031273
0.359438
-1.468065
-0.525821
-0.400818
-0.283453
0.967884
-0.038159
0.265132
-1.115453
-0.369161
0.073024
-0.584272
0.265192
0.178814
0.484822
-0.513694
1.022996
-0.868333
0.370915
-1.164728
-0.471576
-0.372840
-0.409960
0.600468
-0.639281
0.951677
-0.330815
-0.042836
-0.386906
-0.549813
-0.847952
-0.252911
0.007170
-0.410669
0.887322
-0.828014
0.796547
0.411366
0.150232
0.247058
0.125483
-0.723244
-0.789787
0.721099
0.916472
-0.562158
1.279440
-0.790856
-0.761987
-0.933542
-0.393193
-1.106623
0.055681
-0.000855
-0.115053
-0.601588
-0.236026
0.625712
-0.282719
-0.234617
0.102760
-0.924361
-0.527970
0.836115
0.957155
-0.516887
-0.334742
-0.456307
-0.856016
-0.131417
0.633339
-0.634889
0.418577
0.751381
0.239923
0.784280
-0.530265
0.594857
-1.092599
-1.049738
0.685148
-0.082038
0.396665
0.114882
0.591626
0.355220
-0.272342
-0.959811
-0.278439
-0.436292
0.880688
-1.008276
0.529682
-0.744049
-0.809415
-0.368550
0.546566
-0.354372
0.457199
-0.752255
0.250578
-0.092461
0.145355
0.562373
0.033625
-0.821164
0.276528
-0.640234
-0.971773
-0.884756
-1.074425
-0.589913
-0.607637
-0.135280
-0.281809
-0.609312
-0.630715
-0.999677
0.103004
-0.361094
0.358217
-0.694354
-0.549755
-0.508055
0.061127
0.538672
0.828279
-0.269706
-0.710871
-0.255383
-0.579206
0.808880
-0.646809
0.672264
0.073126
0.057894
0.042960
0.772474
-1.325196
0.171441
-0.732557
-0.523223
0.776489
-0.215984
0.209361
0.550982
0.903292
-0.297421
-0.709879
-0.006347
-0.819080
-0.338323
0.448899
0.557953
-0.696962
0.223269
-0.962031
0.799513
-0.964219
0.241641
-0.732722
0.962822
-0.851237
0.166209
-0.524104
-0.846819
-0.030206
-0.703844
-0.030898
0.072334
0.238239
-0.410870
-0.620511
-1.095675
-0.057297
0.055911
0.407624
-0.175662
0.170129
-0.336872
0.007809
-0.047836
0.214321
0.297815
-0.355677
-0.494612
0.937205
-1.005724
0.498835
1.406666
-1.015765
0.679725
0.086643
0.984107
-0.631834
0.671565
-0.740015
0.911378
-0.701126
-0.946985
-1.022633
-1.117559
0.592355
0.547571
-0.345110
-0.880048
-1.012275
-0.122422
-1.088760
-0.909812
-0.390120
-0.032911
-0.256592
-0.850743
-0.599014
0.018340
0.604433
-0.540495
-0.567083
1.509461
0.151943
-0.726520
-0.789199
0.736633
-0.102516
0.427262
1.144842
0.514504
0.078870
-0.567560
0.651777
0.120070
0.386276
-0.288359
1.065357
-0.563958
-0.848683
-0.329592
-0.474417
0.337620
0.262557
0.741532
-0.125085
0.262683
-0.368824
-0.723005
0.916191
-0.071437
-1.392271
0.529153
0.886032
0.772302
-0.196767
0.183832
0.000582
0.955057
0.770101
0.120858
0.129517
0.578209
-0.067233
0.318800
-0.614669
0.704352
-0.049276
-0.191706
-0.648387
-0.035274
0.104312
-0.101894
-0.482075
0.135281
0.541661
0.187310
-0.618340
0.136494
0.811198
-0.536911
-1.253302
0.747044
-0.320231
0.406948
-0.260239
0.225204
0.342799
0.572012
0.145558
0.186425
-1.148742
0.805652
1.251251
-1.295451
0.658834
0.094250
-0.526994
0.259550
0.263294
-0.073103
0.331229
-0.629943
0.135914
-0.351730
-0.911678
0.473259
0.961525
0.956286
-0.626053
-0.736109
-0.908568
-0.379356
0.507713
0.563115
-0.569446
-0.304503
-0.083232
0.183364
0.125773
0.705897
-1.116510
0.385652
1.043680
0.515627
0.329524
-0.052427
0.867300
-0.559095
0.489775
-0.770283
0.376922
-0.711572
-0.637387
-0.104593
-0.756011
0.338379
-0.399182
0.484374
-0.975352
0.748790
-0.664880
0.361151
-0.521237
0.869378
0.248221
-0.734237
-0.639557
-0.677031
-0.254505
-0.269163
-0.960682
-0.499513
0.852560
-1.473542
-0.392491
-0.297393
-0.108947
-0.259246
-0.399661
0.067091
0.062437
0.729074
0.982468
-0.482761
0.040509
-0.328687
0.286664
-0.597274
-0.133444
1.033236
-1.247998
0.415949
-0.260280
-0.821400
-0.409839
-0.594493
0.064039
0.320531
-0.065663
0.579073
0.290097
-0.554040
-0.444475
-0.949327
-0.159068
-0.739095
0.302986
-0.226825
0.511079
0.725192
-0.931175
-0.335524
0.606833
-0.518459
-0.567744
0.022584
-0.317010
-0.201511
0.637563
0.045054
-0.456536
0.189088
-0.735045
-0.757172
0.329969
-0.649401
-0.499105
-0.538732
0.367521
-0.144555
-1.570263
0.095352
0.271763
-0.663744
0.969387
-0.760917
0.159577
0.940238
-0.895539
0.073507
-0.915203
-0.194147
0.196115
0.405628
0.110628
0.539945
0.874158
-0.504573
-0.179160
0.982935
-1.507296
-1.417858
0.283526
0.676084
0.022715
-0.514308
0.992430
0.423031
1.584977
0.504462
-0.284574
-1.004533
-0.465801
-0.236200
-0.333730
-1.126492
-0.088169
-0.515956
-0.238699
-0.761723
-0.350712
-0.852710
0.270491
0.909455
-1.031151
1.003494
0.133869
-0.605054
0.000228
-0.821318
-0.065130
0.263556
0.351307
0.231988
0.219113
0.387741
0.922053
0.453706
1.257817
1.236120
0.621131
0.361408
0.467765
-0.972264
-0.216059
-0.333156
1.147508
0.653231
0.294443
0.260238
0.355893
-0.908799
-0.861803
-0.718809
0.959823
0.909965
0.250928
0.889216
0.801650
-0.227287
0.486859
0.912065
0.053928
0.863605
-0.148704
-0.709069
-0.857961
0.470385
0.995620
0.402661
-0.820377
-0.547776
-0.493697
-1.094048
0.237555
0.430539
0.477386
0.491069
-0.006376
0.213377
-0.838305
0.043104
-0.442447
-0.855568
-0.741777
0.559413
0.746917
0.842289
-0.658773
0.245500
-1.007681
-0.457353
-0.242888
-0.432723
0.831177
1.063119
-0.977565
-0.332944
-0.404889
-0.854070
1.074678
-0.226962
0.274975
-1.588348
-0.448560
-0.297856
0.625502
-0.146949
-0.761580
-0.106155
0.542049
-0.132414
-0.591883
0.398582
-0.123487
-0.247124
0.292087
0.117825
-0.386998
0.096474
-0.871835
0.383486
0.684250
0.022150
0.947000
-0.044285
0.240569
-0.277594
-0.702452
1.013997
1.041634
-0.724667
-0.716509
-0.454143
-0.867358
0.084175
-0.341829
-0.352890
-0.482039
0.286555
-1.349570
0.004684
1.049027
0.449513
-0.971555
-0.046837
0.734726
-0.539145
-0.214258
-1.023175
-0.778528
0.006520
0.089528
-0.275042
-1.025413
-0.263857
-0.212331
-0.059503
-0.563994
-0.902299
0.496971
-0.465201
0.207729
-0.484012
1.161709
-0.688622
0.748373
0.318670
0.294682
0.532688
0.299395
0.606411
-0.568026
0.479318
-0.650922
-0.590289
0.307247
-0.027993
0.241225
0.811543
0.516728
0.433201
0.013479
-0.790748
-0.076416
-0.536756
0.232121
0.511458
0.701329
0.448257
-0.603865
0.136403
-0.917216
-0.092435
-0.210778
0.505412
0.998893
0.927565
0.117569
0.090874
-0.646210
0.646075
-0.242078
-0.148899
0.901096
-0.544065
0.935809
-0.000240
-0.550145
0.267609
0.325358
-0.480286
0.695125
0.088039
0.196011
0.780089
-0.959011
0.415122
0.923522
0.508206
-1.282922
-0.045830
0.707175
-1.049417
0.758509
0.709348
0.700628
-0.698347
0.550492
0.545470
-1.241688
-0.549271
-1.110787
-0.523632
-0.226179
-0.035967
-0.129743
0.888406
-0.466398
0.587195
-0.869187
-0.147672
-0.957097
-0.698781
0.925325
-0.906665
0.063888
-0.092886
-0.286415
0.085857
-1.107764
-0.624275
0.680086
-1.010584
0.820115
0.698131
0.812080
0.227992
-0.191498
-0.579383
-0.319145
0.726575
-0.034600
-0.180658
0.302624
0.140677
0.108925
-0.612227
0.033992
-0.998196
0.078873
-0.097395
-0.954786
0.528112
0.252087
0.508129
0.697552
-0.680354
-0.144069
-0.137123
-0.553424
-0.586804
1.076893
-0.678548
-0.114514
-0.477498
0.345763
0.192613
0.341585
-0.423725
-0.801837
0.694734
0.611823
-0.595920
-0.249403
0.557189
0.526498
0.234087
-0.258089
-0.256786
-0.491184
-0.431100
-0.949622
-0.177860
0.623255
-0.239195
0.968906
0.242751
0.755032
-0.541671
-1.250411
0.395274
0.141428
-0.694321
-0.646885
-0.884416
0.739342
0.117157
-0.175754
-0.398090
-1.211496
0.735555
0.950126
-0.275040
0.178005
-0.837432
-0.313047
0.241087
-0.228234
0.106684
-0.074246
-0.197495
0.429238
0.486025
0.895036
-0.787548
0.656361
-0.297570
-0.258073
1.047837
-0.847698
-0.665451
-0.635204
0.093458
0.696465
0.790648
0.489045
0.601910
-0.388694
-0.614647
-0.763231
-0.565599
-0.700822
-0.208117
0.183594
-0.574652
0.345195
0.214742
-1.000617
0.849903
-0.914003
0.978043
-0.321737
0.798192
-0.343331
0.912886
0.806372
0.264858
1.267114
0.704389
-0.529029
0.166357
-0.321154
-0.377198
-0.655136
0.710926
-0.494858
0.856484
-0.651269
0.958927
-0.174087
-0.652427
-1.052591
-0.378969
-0.024008
-0.044871
-0.856212
-0.486984
0.748146
0.674738
-0.568266
-0.634328
0.076918
0.940374
0.974349
-0.606818
0.999285
0.584344
0.351655
-0.149335
-0.963409
0.100274
1.106750
-1.513692
0.340269
-0.951801
-0.522579
-0.617511
-0.868896
-0.354106
0.666532
-0.114302
0.713736
-1.088089
-0.174704
0.557452
0.817467
-0.850867
-0.295731
-0.233700
-1.012234
-0.437063
-0.616750
0.074365
0.081169
-0.699968
-0.830313
0.735994
-0.112778
0.102440
-0.323498
0.926003
-0.682247
-0.984365
-0.928474
0.388502
0.529031
-0.055541
0.444653
-1.169920
0.063018
-0.371150
-0.884085
-0.315372
-0.493279
0.669167
-0.953104
0.758757
0.872346
0.028341
-1.052665
-0.339361
-0.082978
0.412568
-0.738434
0.425467
-0.484943
-0.314258
0.882136
-1.107309
-1.615591
-0.058609
0.483545
0.290111
-1.033190
0.020714
-0.846844
0.032162
-0.824112
-0.688816
-1.112552
-0.886593
-0.973592
-0.173305
-0.454657
0.246021
-0.889589
0.000001
0.073426
-0.599974
-0.328546
0.359600
0.104664
0.583530
0.455434
0.538685
0.535341
0.560231
-0.170475
0.854777
-1.192276
-0.056769
-0.315302
0.328577
-0.490335
-0.368539
0.990708
0.367055
-0.011556
0.354101
0.099046
-0.025987
-0.635018
0.073774
0.257587
-0.010787
-0.726115
-0.676554
-0.694526
0.550662
0.324592
-0.621672
-0.652244
-0.089372
-0.839171
0.306390
0.795873
-0.662142
0.561896
0.580696
-0.984523
-0.385946
-0.242335
0.282537
0.444712
0.145666
0.500167
-0.367083
0.360066
0.486177
-1.160290
-0.098161
0.744698
-0.454244
-0.453034
0.949151
-0.647058
0.482595
-0.881183
-0.374034
-0.086687
-0.643890
-0.076318
-0.289225
0.088720
0.533371
0.487703
-0.520277
-0.125136
0.612106
0.229677
0.133560
-0.559706
-0.033459
0.519233
0.889599
0.430700
0.324147
0.769983
-0.720265
-0.420893
0.526781
-0.502739
-0.573224
0.427803
0.494720
-1.004417
0.809471
0.087913
0.742542
-0.995749
0.711777
-0.568539
-0.496486
-1.310122
-0.601715
-0.225466
0.902156
-0.283965
-0.817560
-1.253889
0.057842
-0.963672
0.245688
0.427918
0.414560
-0.424689
0.393044
-0.159094
-0.306341
-0.337982
-0.329490
-0.986247
0.237019
-0.395723
0.913530
0.553998
0.569474
-0.422738
-0.866755
-0.149079
1.138775
-0.503087
-0.084443
-0.784348
-0.101030
-0.010648
0.331792
-0.317846
0.780749
-1.634525
0.497949
0.561870
-1.148123
-0.284303
-0.973128
0.498460
0.046012
0.167786
-0.092773
0.146836
0.593087
0.794059
0.051267
0.001232
0.139228
-0.580892
0.296695
0.868131
-0.268456
-0.303807
0.681445
0.541046
0.066131
-0.098081
0.392028
0.292782
0.253473
-0.982614
0.221269
-0.103796
0.252423
0.139414
-0.156566
0.374264
0.619753
0.571950
-0.617353
-0.432778
-0.239969
0.202078
-0.409441
0.510554
-0.032006
-0.600972
-0.054386
0.182925
0.362697
-0.688618
0.684768
-0.636164
0.017793
-0.575534
0.404112
-0.115466
-0.972955
-0.788323
-0.801589
-0.341876
0.882032
-0.915033
-0.057765
-1.200532
-1.737895
0.607565
0.708119
0.123560
0.384598
0.200061
0.968617
-0.041787
-0.835171
-1.127725
-0.825656
-0.802883
0.319907
0.136424
-0.371120
0.637564
0.392176
-0.330885
-0.265523
0.505110
-0.935294
0.058873
0.746396
0.504825
0.572654
-0.030395
-0.416722
-0.560317
-0.913120
-0.785450
-1.814005
-0.527922
-0.257659
0.167431
-0.275378
-0.352396
-0.478820
-0.811790
0.683387
0.328746
0.457899
0.195503
-0.464559
-0.094037
0.113871
-0.438456
0.359704
-0.308430
0.949665
-0.998399
-0.845138
0.029736
0.510770
-0.646574
0.405252
0.625152
0.040359
-0.752359
-0.222203
-0.287378
-1.072319
0.585994
0.368783
0.198640
-0.863910
-1.017370
-0.451376
-1.076268
0.377225
-0.758898
-0.023946
-0.251426
-0.195584
0.344235
0.504206
0.016627
-0.882929
-0.841581
0.355408
0.833322
-0.525273
-0.550502
-0.665909
-0.784031
-0.646820
0.566322
-0.747905
-1.426829
-0.820707
0.729753
-1.291659
-0.665650
-0.801478
1.022904
-0.063402
-0.779406
-0.516086
-0.213260
-0.527592
-0.182560
-1.164804
0.613331
0.820629
-0.398005
0.450771
-0.521401
0.124748
0.124288
-0.368042
-0.902640
0.838932
-0.041069
-0.287406
0.024838
-0.506694
-0.269991
0.447712
-0.493054
0.567838
0.960542
-1.264960
0.588648
-0.404226
0.900992
-0.862729
0.844256
-0.799877
0.677034
-0.929590
0.610683
0.314445
0.197184
-0.442350
0.853865
0.639694
0.851005
0.177998
-1.209528
0.324286
-0.768973
1.078313
-0.023662
-0.530279
-0.646880
0.583780
1.336114
0.073029
-0.467771
0.988474
0.368520
-0.941636
-0.318005
-0.791098
0.101944
-0.390500
-0.218768
-0.153053
0.913034
-0.895193
-0.660501
-0.204620
-0.992576
-0.846917
-0.811977
-0.263307
-0.843649
-0.426156
-0.550650
0.413949
-0.306695
-0.008560
0.118019
-1.060770
-0.664585
-1.036932
0.517812
-0.409135
0.401095
0.875739
0.754523
-0.194808
0.139531
0.850022
-0.154407
-0.184241
0.512893
0.422447
-0.897991
0.430600
0.128350
0.184637
0.860760
0.008345
-0.036973
0.508926
0.208204
1.026867
0.448996
-0.970397
-0.262704
0.001613
-0.791112
-0.072775
-0.428101
-0.038569
0.977840
0.802337
0.321807
-0.298029
-0.183820
0.234400
0.712108
0.534281
0.692175
-0.783102
-0.842081
0.184534
-1.039067
0.635003
0.091494
-0.609764
0.860134
0.273611
-0.023610
-0.747590
-0.252202
-0.180280
-1.315537
-1.115204
0.222026
-0.215583
-0.349633
-0.564105
-0.730209
0.166067
-0.196457
0.732552
-0.079434
0.640924
0.037178
0.465606
-0.399981
-0.552475
-0.848934
-0.423303
-1.137591
-0.143511
0.437933
0.076871
0.139600
-0.788241
0.742571
0.950922
-0.558972
0.023297
-0.503338
0.086191
-0.745536
0.218847
0.666237
0.478343
0.227499
0.559779
0.099890
0.846276
0.197104
1.162021
-0.899936
-0.623696
0.629561
-1.446613
-0.795547
-0.170040
0.070605
0.777839
-0.865988
-0.308631
-0.688859
-0.095704
-0.468557
-0.866144
0.123762
0.195161
-0.777896
-0.140609
-0.618016
-0.668923
-0.639082
-0.645539
0.802275
-0.013068
-0.811183
0.671293
-0.251744
-0.346004
0.319982
0.339723
0.178716
1.082545
-0.469902
0.044549
-0.459904
0.341710
-0.570550
0.552736
0.133959
-0.599025
-0.158107
-0.461443
0.604682
0.385130
0.767271
0.587469
0.281747
-0.460519
-0.748672
0.275708
-0.364573
-0.215591
0.208888
0.400805
-0.377719
-0.512007
-0.877243
-0.972993
1.182575
-0.291006
-0.979381
-0.703633
0.964314
-0.539238
-0.312334
-0.992070
1.144016
-0.333849
0.123705
-0.282828
-0.852881
-0.261914
0.949655
0.417418
-0.662530
0.408110
-0.111453
0.081117
-0.576473
-0.495066
-0.794909
-0.332389
-0.931737
0.733799
-0.923746
-0.032201
0.889666
-0.044928
0.417927
-0.720749
-0.106677
-0.082583
1.146842
0.116933
-0.224218
0.354392
0.582141
0.355658
-0.707075
-0.846146
-0.089231
-0.314171
-0.400565
-0.438011
0.813353
0.986215
0.403307
0.444836
0.251331
0.507506
0.127132
-0.531150
-0.186178
0.649321
-0.908330
0.504776
-0.625696
-0.718427
0.187799
-0.403354
0.596986
0.352233
-0.030128
0.080545
-0.846585
0.179704
0.180452
-0.997969
-0.927177
0.820149
-1.008525
-0.230868
0.172187
-1.047550
-0.509262
0.421260
-0.669656
-0.830506
0.355959
0.331272
0.756481
0.633003
-0.811341
-0.190940
-0.720695
-0.038861
-0.084502
0.076478
0.320949
0.690048
0.344829
-0.407283
-0.209183
0.358726
-0.162086
-1.004456
-0.539944
0.599266
-0.487843
0.806504
-0.304003
-0.674749
1.171217
0.527845
-0.054662
0.047127
-0.448009
-0.942565
0.515495
0.786670
0.405552
0.462888
-0.088263
-0.923468
-0.013297
1.005220
0.502423
0.138187
-0.473922
-0.799620
-0.522479
-0.834675
0.222832
0.064456
0.606925
0.700390
-0.427458
0.349675
-0.526909
-0.424226
-1.261948
-0.266622
-0.690225
-0.193395
-0.851214
0.011837
0.714788
-0.638486
-0.549760
0.518811
-0.753299
-1.255677
-0.800468
-0.747794
-0.403424
0.481222
-0.468330
0.357804
-0.243111
0.101567
-0.687252
-0.523405
0.581871
-0.927815
0.117647
-0.627819
0.252073
0.530007
0.803182
-0.205432
0.415067
-0.325903
0.844698
0.558870
0.788042
0.300609
0.614770
0.253114
0.253255
0.793333
-0.519451
0.322259
-0.885373
0.521297
0.862783
0.082456
-0.005700
0.838222
1.423827
0.714664
-0.243022
0.830928
0.478243
-0.328907
-0.112103
-0.648112
1.135575
-0.399110
0.742110
0.128596
0.362768
-0.352671
1.162677
-0.755547
-0.856584
-0.168918
0.665884
-0.171858
0.455340
0.631082
-0.484511
-1.239357
0.495837
0.280321
0.923627
0.269587
0.070015
-0.175784
0.959226
1.142497
-0.279025
0.070406
0.020796
0.002175
0.572895
0.498155
0.274845
-0.788665
0.347923
0.737069
-0.946888
-0.233680
0.109542
0.089722
-0.878014
-0.850172
-0.221146
0.047993
0.905524
0.740705
-0.418561
-0.727109
0.186290
0.380797
-0.358128
0.982091
-0.194330
-0.602303
0.019919
0.078877
-0.318052
-0.707577
-0.597494
0.382720
-0.971624
0.488637
0.948182
-0.924296
-0.060383
-0.019665
-0.679876
-0.471022
1.054078
0.151081
0.642902
-0.021568
-0.312896
-0.320353
-0.242532
-0.637361
-0.721851
-1.126330
-0.361393
-0.507909
-0.958871
-0.405833
-0.467666
-0.136627
0.219596
1.246236
-1.143370
-0.075278
-0.084121
-0.339218
-0.046328
-0.164892
0.829925
0.029195
0.663864
-0.160953
-0.702760
-0.151888
-0.613073
-0.158089
-0.091321
0.266799
-0.795246
-0.228979
-0.562418
0.577898
0.047246
-0.425919
0.702731
0.079626
-0.163719
0.649212
0.566716
0.864020
-0.520452
1.054727
-0.814891
0.928237
0.559472
-0.919386
0.767872
-1.283794
-0.666236
-0.052992
-0.887946
-0.545628
-0.224462
-0.309137
0.606427
-0.979857
-0.981344
-0.386386
-0.796897
-0.770093
-0.551920
-0.677952
0.157449
0.160457
0.825132
0.486432
-0.445990
-0.119673
0.000511
-0.186027
0.973074
-0.424901
-1.310673
0.180427
0.511250
-1.099863
-1.084023
0.458154
-0.341066
0.280226
0.389140
-0.302971
-0.034492
0.635350
-0.865740
-0.288853
-0.160511
0.617198
-0.385906
0.599612
-1.049479
0.243264
-0.166256
0.448769
0.617383
0.958070
0.485170
-1.136710
-0.968209
0.839406
0.157755
-0.445743
-1.669028
0.092160
-0.532248
0.372663
-0.641838
-0.065592
-0.079631
0.812935
0.175152
0.733362
-0.611962
-0.211781
-0.161203
-0.008596
0.473609
0.032270
0.280756
0.886427
-0.253298
0.080386
-0.285452
-0.568292
1.043902
0.178911
-0.112837
0.337538
0.076604
-0.100875
0.308573
-0.440475
-1.320463
0.100510
0.780560
-1.133599
0.413023
0.044845
1.063230
-0.510088
0.290842
0.073156
-0.181290
-0.741265
0.364015
-1.105045
-0.676962
-0.758792
-0.282204
-0.508750
-0.758649
-0.855386
0.531447
-0.453910
1.002442
0.481963
0.666407
0.257144
0.736052
0.219652
0.823412
-0.529139
-0.164827
0.670967
0.014420
0.772686
-0.496560
0.353894
1.038768
0.864764
-0.032055
0.935205
0.533497
0.156682
0.171054
-1.250192
-0.346810
0.497631
0.379379
0.241736
-0.501268
-1.076967
0.422048
-0.791083
-0.228699
0.378240
-0.623589
-1.053446
0.310988
-0.666958
1.044583
-0.584493
-0.948528
-0.559681
0.268313
-0.512596
-0.600139
-1.225756
0.392429
0.901751
0.115812
-0.065218
0.690732
0.515812
0.243972
0.129589
0.367279
0.316888
-0.103736
-0.952613
-0.459262
-0.042466
-0.395838
0.714979
-0.827218
-0.203748
0.601310
0.075468
-0.308340
-0.304325
0.347761
-0.131759
0.270394
0.398970
-1.065228
-1.131447
0.149454
-0.477278
0.038735
0.891455
-0.386587
-0.503395
0.428199
0.644274
0.658746
0.036826
0.794490
-0.174837
0.551554
-0.492064
0.646468
-0.640583
-0.936403
1.014153
-0.205956
-0.561670
-0.789647
-0.166538
-0.782571
-0.886312
0.338434
0.808787
-0.561992
0.199036
-0.146563
0.147992
-0.361834
-0.303997
0.183143
-0.342338
-0.774479
0.829039
-0.029943
1.038609
0.508428
-0.735542
0.578538
-0.270684
-0.534948
0.589226
-0.612364
-0.294624
-0.754086
-0.384481
-0.205590
0.104550
0.421017
0.817846
0.294365
-0.810471
-0.075284
-0.865875
0.437231
-0.989776
0.422675
0.422814
-0.918163
0.282734
0.924111
-0.775812
0.369723
-0.418782
0.730723
-0.750177
-0.823211
-0.749784
0.845502
-0.112853
0.415360
-0.559668
0.874784
-0.095928
-0.140513
-0.537415
0.154621
-0.735483
-0.740830
-0.422333
0.345559
1.019604
-0.084496
0.691089
-0.087955
-0.993849
0.555222
-0.692715
0.099080
-0.937388
-0.063056
-0.489760
-0.279540
-0.523962
-0.094525
0.786384
-0.987614
-0.655673
-0.681474
-0.588645
-0.156352
-0.139403
0.387898
-0.559727
-0.031642
1.019069
1.071455
0.687761
0.265772
-0.589068
-0.687063
-0.436433
-0.801086
0.522400
-0.851305
-0.338119
-0.069350
-0.274883
-0.542712
0.041399
-0.452885
0.071707
0.350260
-0.596513
0.309617
-0.441956
0.411238
-0.281646
0.542404
0.631629
-0.401485
-0.162976
0.716106
0.261253
-0.169229
0.548378
-0.384891
0.249682
0.843101
0.455129
-0.196396
0.119909
-0.447104
-0.567387
-0.671351
-0.687428
0.538579
-0.970410
-0.327407
0.075239
-0.163095
-0.736730
0.064976
0.948076
-1.189371
0.396507
-1.042107
0.906167
0.481312
0.054956
0.173856
0.278772
-0.458240
0.470473
0.212414
1.233319
0.525686
1.054164
0.688330
0.642192
0.850072
-0.032915
-0.899187
-0.775828
-0.739579
-1.017418
0.475969
-0.011571
-0.107092
0.508266
-0.702237
0.093545
-0.729745
-0.314131
-0.214451
0.090278
-0.214059
-0.251474
-0.927989
0.130204
-0.722113
0.984229
0.062619
-0.406155
0.057583
0.981117
-0.462408
1.072075
0.025757
0.187045
0.047249
0.418987
0.542069
1.050755
-0.638019
-0.922378
-0.459263
-0.770552
0.778379
-1.249752
0.647349
-0.580299
0.575384
-0.607204
-0.616676
-0.046090
0.601974
-0.601555
0.265253
-0.257357
-0.999503
1.011298
-0.232236
-0.275745
-0.714852
-0.476029
-0.354187
-0.508607
1.029227
-0.524176
0.863617
0.211143
-0.405978
-0.006097
-1.006424
0.587134
0.097010
0.082185
-0.307923
-1.092405
0.820707
0.547592
-0.758570
-0.722679
-0.672516
0.563926
-1.221776
-0.579576
0.145291
0.599283
-0.168257
-0.706606
0.569430
-0.199856
0.880008
-0.481209
-0.000713
0.395488
0.108180
0.344646
0.282761
0.526762
-0.828431
0.541157
-1.575047
0.730527
-0.408589
-0.273960
0.600219
0.371832
1.132047
0.677958
-1.033132
1.052467
-0.185376
-0.120699
-1.181136
0.509620
-0.192808
-0.803463
-0.084801
0.375856
-0.136535
0.056240
-0.799871
0.731113
-0.827054
0.315843
0.239071
-0.461596
-0.862954
0.830804
0.992934
0.625435
-1.137301
0.984470
1.054189
-0.346113
-0.597924
0.628357
-0.127694
-0.253605
-0.407017
-0.524426
0.567208
-0.015358
0.222026
-0.805545
-0.761905
0.812385
0.745189
0.091223
0.415454
0.032148
0.201092
0.101575
0.140901
-0.309661
1.049348
-0.569316
0.802210
-0.800028
1.135101
0.359738
-0.955908
-0.329096
0.235075
0.487769
-0.084551
-0.995912
0.334984
0.653319
-0.129724
1.049720
-0.864495
0.464963
0.163340
-0.049770
-0.364610
0.833072
0.789767
-0.519910
-0.398244
1.083083
-0.133826
-0.680052
0.627624
-1.063254
-0.353212
-0.797314
0.332126
-0.206564
0.415279
0.109300
-0.840447
-0.379784
-0.725945
0.473208
0.203531
-0.635524
1.068474
-0.832577
0.432587
-0.590938
1.037394
0.815723
-0.143822
0.695139
-0.482904
0.073185
-0.709628
-0.508617
-0.425060
-0.409363
-1.548738
0.377517
0.699476
0.298063
0.545515
0.436917
0.533629
-1.041430
1.251477
0.344644
0.087407
0.751235
0.136886
-0.812004
-0.129613
-1.393166
-0.637124
-0.051612
0.257284
-0.168789
-0.652939
-0.327543
0.247236
-0.713676
0.195784
-0.434226
-0.904598
0.106019
-0.898678
-0.352594
-0.988552
-1.663880
-0.026580
1.029549
-0.574607
0.271515
-0.132824
-0.802092
0.424641
-0.127304
-0.015355
0.436133
0.790285
-0.590082
0.229938
-1.298155
-0.359664
0.767494
0.730227
1.091856
-0.518097
0.499772
-0.130208
-0.740974
-0.700217
-0.332886
-0.727176
0.393777
-0.981333
0.713876
-0.292343
-1.310676
0.027970
-0.830158
0.953634
-0.150623
-0.286552
-0.110878
0.543290
1.325942
-0.394303
0.301673
-0.038909
-1.489195
-0.323473
0.120716
-0.005265
-0.026669
0.842484
-0.217512
-0.141983
-0.473705
0.599442
0.247356
0.905323
0.886650
-0.380581
-0.851445
0.061895
-0.529925
-1.368677
-0.625043
-0.671375
-0.296930
-0.979230
0.033750
0.655861
0.389676
0.388210
-0.646747
-0.724123
-0.341024
0.520528
0.192607
-0.536279
-0.837787
0.456485
0.108922
0.130242
0.433268
-0.717905
0.176795
-0.775430
0.053396
0.844005
-0.512052
0.572526
0.092063
0.388763
0.893621
-0.549496
0.111488
-0.137254
-0.408288
0.734871
-0.787798
0.017113
-0.278295
1.282060
1.057371
-1.026258
-0.034513
-0.287404
-1.004457
-0.426320
-0.790052
0.541585
-0.651813
-0.560830
-0.396433
-0.219080
-0.625981
0.350613
-0.634400
0.112458
0.278160
-0.190960
-0.457287
0.495259
-0.040397
-0.313234
0.447972
-0.803063
0.092867
0.479557
0.854093
-0.834267
0.408089
1.425476
0.623119
0.427237
-0.915242
0.878698
-0.543540
0.167056
0.766978
-0.035587
0.915415
0.879852
-0.509140
0.825534
-0.138059
1.131172
-0.561329
-0.661851
0.658356
-0.124602
-0.008265
-0.971291
-0.317709
-0.548804
-0.299444
-0.764556
-0.468613
0.645283
-0.585772
-0.104845
0.490147
-0.236976
0.324730
-0.042078
-0.922878
-0.444128
0.111447
0.126662
-1.053791
0.825734
0.051566
0.690759
0.179038
0.348788
-0.151796
1.093169
-0.792056
-0.594852
0.770538
0.454093
0.877666
0.029403
-0.985558
0.204157
-0.546037
0.401698
-0.393450
-0.724821
0.144966
-0.241929
0.933477
-0.825899
0.190779
0.537291
1.034536
-0.440968
-0.552904
-0.076737
0.219391
0.009849
-0.760357
0.768652
0.999455
0.081993
0.596456
0.067196
-0.610838
-0.670247
0.751354
0.034589
0.113745
0.687938
0.790982
-0.228249
0.460642
0.444842
0.524498
0.402806
-0.065064
-0.237715
0.797321
0.377385
-0.459986
-1.248769
1.122164
-0.345808
0.888536
0.763105
-0.093922
0.244978
-0.413973
-0.308314
-0.238452
-0.576183
-0.309092
-0.941271
0.992228
-0.539920
0.513871
0.844131
-0.885504
0.040797
0.888291
0.351623
-0.175106
-0.615298
-0.711657
-0.518224
0.271534
0.645212
-0.390447
0.838049
0.602851
-1.066754
0.923167
-0.168701
0.941311
0.748842
-0.213418
0.601579
-0.975727
-0.180800
-0.951402
0.488561
0.868413
0.726430
0.651818
0.398047
0.854989
0.150803
-0.762937
-0.504654
-0.702474
-0.946183
0.183572
-0.770336
0.074836
0.304398
-0.611139
0.229499
-0.710043
-0.031456
0.189600
-0.599569
0.097338
-0.594081
-0.235764
-0.034799
0.808492
0.400977
-0.467010
-0.151286
0.121196
0.701190
0.301890
0.641791
0.704023
-0.133526
-0.640412
0.724346
0.516951
-0.407244
-0.474705
-0.067084
0.090185
-0.405000
0.349522
0.167238
-0.979256
-0.235155
0.967280
0.344092
-0.450498
-0.002771
0.736305
-0.203478
0.298094
0.843690
-0.243092
0.274951
0.624446
-1.035670
0.154050
-0.388329
0.021375
0.760611
0.400233
0.366965
0.443719
-0.146780
0.506197
-0.313304
-0.640839
0.903655
0.074858
0.427222
0.539396
-0.995842
0.789482
0.283296
-0.151287
0.576668
0.796133
-1.171903
0.856735
0.401802
-0.381603
0.473510
-1.097669
-0.681439
-0.593755
-1.008725
0.211342
0.991445
0.296042
0.920154
-0.314462
-0.629789
0.074361
0.253940
-0.915537
-0.548653
-0.644366
-0.694638
-0.767977
-0.690600
0.656702
0.085882
-0.529776
-0.303421
0.372830
0.341324
0.850381
-0.971821
0.771604
0.370193
0.465962
0.180928
-1.081093
1.012256
-0.226703
-0.816297
-0.212875
0.616990
0.282415
0.007554
0.485135
-0.430650
-0.888959
0.708772
0.043527
-0.770562
-0.472726
-0.561171
-0.421778
-0.067867
-0.238776
0.344519
0.895185
0.661931
-0.493723
0.871937
0.809274
0.051717
0.180536
0.304090
-1.040383
0.736425
-0.307150
0.297517
0.497018
0.064614
0.865925
0.437180
-0.131747
0.533750
-0.506772
-0.307273
0.775153
0.421388
-0.110485
0.337117
-0.112149
0.187138
-0.697721
0.781308
0.187911
0.841398
0.900121
0.076601
-0.469726
0.521048
-0.391099
-0.256181
0.080076
-0.171530
-0.894595
-0.326877
-1.012168
-0.435273
-0.134005
-0.065128
0.484778
-0.568578
0.354670
-0.712598
-0.776322
-0.608447
0.396856
0.758633
0.039584
0.791348
0.446987
-0.178384
0.810495
0.178155
0.857439
0.400800
-0.838326
-0.885701
0.886177
-0.451880
-0.087861
-0.658449
-0.443120
0.228387
-0.234555
-0.757344
0.580616
0.538963
0.869311
-1.039599
0.547895
0.270293
-0.991298
0.845212
-0.371354
0.246755
0.493872
0.188541
-0.891442
0.760288
0.925751
0.347734
0.863942
0.812276
-0.748239
0.191907
0.759011
0.642308
0.745753
0.653293
-0.890674
-0.443111
0.231368
0.926371
-0.918182
-0.230712
0.202778
-0.410118
0.593896
0.205042
0.753417
-0.577077
-0.476959
-0.163066
-0.932342
0.748017
-0.759105
-0.845378
0.345210
0.203122
0.958727
0.163043
1.023748
-0.482477
0.087090
-0.837762
-0.019476
-0.654464
0.339539
-0.540999
-0.416701
-0.446240
-0.475359
0.722101
0.076108
-0.084584
-0.060086
0.019883
0.837923
-0.546809
0.036063
0.498852
0.824857
-0.870883
-0.119056
-0.297552
0.582412
-0.346075
-0.734493
0.431489
-0.473317
0.107823
1.622947
-0.186311
-0.506266
-0.463836
-0.649573
0.937358
-0.248974
0.095854
0.598346
-0.786125
-0.745410
-0.853697
-0.505016
0.982075
-0.266160
-0.550770
0.830755
0.804125
0.758304
0.498379
-0.545437
0.070823
-1.074731
-0.691365
0.110734
0.022449
0.627012
0.114848
-0.011800
-0.875382
-0.374277
-0.818207
0.815567
-1.040407
0.646437
0.224235
-0.961015
-1.063793
0.001381
0.301880
0.823085
-0.592315
-1.406012
0.168745
0.617345
0.767420
0.596607
0.662610
-0.252778
0.356853
0.981337
-1.438852
-0.573426
-0.838361
0.813916
0.232490
-0.086778
-0.448201
-0.220499
-0.442913
1.273264
-0.149732
-0.452454
0.612980
0.192442
-0.362145
-0.656404
-0.396919
-0.804718
-0.057619
0.480599
-0.486193
-0.404774
0.029925
-1.050092
-0.897490
0.588916
-0.067764
-0.393030
0.497677
0.317648
-0.223306
-0.165124
0.764778
0.376854
-0.776400
-0.012452
-0.376878
0.102343
-0.279372
1.179016
-0.458443
-0.666464
-0.050172
-0.372631
-0.297551
0.221351
0.144364
-0.477899
-0.002808
0.736655
-1.047660
-1.018946
0.726488
-0.384000
-0.194143
-0.642113
-0.474057
1.086108
-0.544621
0.826600
-0.021446
0.809801
-0.325349
-0.937601
0.845760
-0.523192
0.382948
0.165399
-1.218250
-0.216995
0.876643
-0.452424
-0.031109
0.688500
-0.306107
0.612825
-0.353611
-0.984299
-0.395289
-0.409573
0.695082
0.157414
0.773691
0.345203
0.464205
0.380707
0.719867
-0.486430
0.548917
-0.415571
-1.247212
0.048060
0.485395
0.614473
-0.990665
0.784311
0.220924
0.596621
0.069740
-0.267181
0.979786
-0.053641
-0.218449
0.749148
-0.845819
0.394187
-0.440195
0.518723
0.096233
0.462196
-0.011673
-0.814239
0.037819
-0.881723
-0.232005
0.748783
-0.515819
0.130841
-1.189951
0.828976
-0.055113
0.757153
-0.832807
0.981196
0.811888
0.680359
0.684395
-0.976216
-0.500128
-0.179937
0.581410
-0.668315
-0.596554
0.665214
0.867193
-0.577521
-0.196943
-0.804039
-0.240985
0.178659
-0.573482
-0.373695
0.732140
-0.765718
-0.084063
0.270654
-0.035267
0.445415
-0.430958
0.855779
0.540498
-0.031139
-0.627199
0.583260
-0.628276
0.817248
-0.792893
0.395364
-1.181228
-0.137961
0.876745
0.474338
-0.607691
0.495810
0.217020
-0.825042
0.938661
0.844820
-0.487436
0.742891
0.239721
-1.211495
-0.238161
-1.000949
-1.000369
-0.394405
-0.379703
-0.400191
0.465053
0.724010
0.284077
-0.173205
-0.247546
0.373973
-0.153613
-0.664937
-0.922453
0.909822
-0.511357
0.031411
-1.182293
0.646103
0.295972
0.310634
-0.147432
0.811231
0.047929
0.748641
-1.771187
0.488534
0.225950
-0.345849
0.113170
-0.271137
0.761916
0.672046
-0.604936
0.195061
-0.142043
0.147823
0.631355
0.317282
0.603303
-0.879323
-0.693977
-0.901831
-0.877622
0.227045
-0.752137
0.982647
0.414058
-0.242557
-0.477659
-0.240419
0.807058
-0.770747
0.783639
0.130497
-0.194498
0.685150
0.930889
0.366796
0.476385
-0.281365
0.634609
-0.175740
-0.726482
0.199752
0.512106
0.693816
-0.079898
-0.588399
0.857700
-0.873299
-0.969182
1.016609
0.635635
-0.442871
-1.125435
0.197662
-0.591916
-0.051672
0.260557
0.897420
-0.875100
0.756199
0.615486
0.780837
-0.529614
1.028288
-0.347862
-0.838187
-0.317459
0.679817
-0.772170
0.202416
0.190675
0.683045
0.823665
-0.867565
0.251477
-0.956006
-0.737930
-0.035875
-0.487645
0.026016
-0.780911
0.281505
0.268578
0.406695
0.041103
0.290004
0.449921
0.907561
0.520071
-0.298336
0.330571
0.241286
-0.670113
0.031471
-0.462104
-1.139514
-0.454749
-0.831256
0.887277
-0.299500
-0.093808
0.992891
-0.728115
0.868614
0.733437
-0.222276
0.626237
0.371615
-0.901470
-0.737191
0.536788
-0.261000
-1.001264
-0.375809
-0.783261
0.924490
0.314271
-0.400819
0.539829
0.288000
-0.535770
0.071166
0.204187
0.594696
-0.121857
-0.740649
0.728144
0.145003
0.323034
0.114297
0.217095
0.927401
0.110529
-0.142676
-0.017373
0.723044
-0.790141
-0.229094
-0.531193
-0.359087
0.832975
-0.161965
-0.272743
-1.063438
-0.388336
-0.589175
-0.284487
-0.365854
-0.560437
-0.965304
0.689459
-0.064714
-0.954153
0.042197
0.516342
-0.823535
0.337829
-0.392076
0.582264
0.900665
0.521809
-0.255743
0.702209
0.408657
0.674922
0.286316
0.126139
-0.472778
0.477146
0.551710
-0.426545
0.955734
0.261787
-0.634056
-0.196076
-0.368110
-1.003190
-0.321293
-0.710783
0.007134
-0.654805
0.720673
0.225550
1.129476
-0.232889
-0.228923
0.504502
0.083452
0.731316
-0.113059
-0.998122
0.708082
0.714279
0.760510
-0.688317
0.006310
-0.395027
-0.388715
-0.756184
-0.833318
-0.949260
0.737776
0.437979
-1.628088
0.536199
-0.200372
0.297957
-0.731586
0.602938
-0.031858
0.419576
0.973255
0.396446
0.648112
-0.252334
-1.392822
0.765301
0.132880
-0.829269
-0.729381
-0.549079
1.117569
-0.141032
0.457185
-0.628982
0.773743
-0.830436
-0.415103
0.738041
0.452895
0.482800
-0.447489
0.461000
-0.305610
0.840998
-0.579776
0.746825
-1.104207
-0.268448
-0.799156
1.513175
0.605999
-0.798438
-0.414049
0.437509
-0.189866
-0.083142
0.545563
-0.471256
0.767217
-0.268089
0.462250
0.357608
0.805057
-0.072129
0.668051
-0.277161
0.545728
-0.211061
-0.136332
-0.708398
-0.760329
0.568783
-1.278041
0.286251
1.174597
-0.916358
0.058001
0.753869
0.584472
0.420587
0.856348
-0.722904
-0.715237
0.110574
0.148394
0.222576
0.811606
-1.003827
0.656291
-0.676562
0.419214
0.387870
0.802775
0.314736
0.011580
0.458635
-0.256317
0.766891
-0.496733
0.580353
-0.321417
-0.639045
-0.184439
-1.114476
0.284927
-0.547789
-0.295911
-0.417610
-0.148910
1.495046
-0.513333
-0.882624
-0.614036
0.068649
-0.154429
0.955305
-0.751188
-0.762793
0.842635
-0.171751
0.019704
0.051873
-0.515276
0.835180
0.107625
0.289578
-0.891430
0.526630
0.079048
-0.594768
0.292052
0.403069
-0.201099
-0.164364
-0.286918
-0.843814
-0.395378
-0.100034
-0.058523
-0.118787
-0.568174
0.767429
0.500533
-1.151189
-0.870402
0.902275
0.121607
0.634058
-0.629695
0.644375
0.643427
0.338138
0.122432
-0.045595
0.303124
0.364046
-0.625861
-0.301573
-0.909191
-0.640472
0.844444
-0.233735
-0.537457
0.933779
0.437553
-0.271408
0.781835
-0.667284
0.269220
-0.656556
-0.732228
-0.424475
0.861204
-1.074601
-0.125690
-0.183352
-0.267965
0.492289
0.790177
-0.963397
0.657431
0.532350
-0.268352
-0.892279
0.537061
-0.416373
0.704523
-0.648245
0.755963
-0.141289
0.689157
-0.432739
-1.185273
-0.905931
-0.236958
0.906262
-0.466407
-0.079149
-0.127172
0.143410
0.679269
0.298666
-0.460366
0.104160
-0.788573
0.051101
-0.815100
0.407953
-0.645614
-0.917925
-0.718171
0.014635
-0.232503
0.473137
-0.539477
-0.391325
-0.888637
-0.360577
-0.348746
-0.476373
-0.283263
0.380959
0.020307
0.191642
-0.457551
-0.204342
-0.038029
-0.057121
0.090466
0.266864
-0.571847
0.207200
0.219885
-0.074709
0.710669
-0.344426
-0.380978
0.972168
0.479698
-0.948062
0.589673
-0.248832
0.846910
-0.192626
0.141122
0.117969
-0.780913
0.483009
-0.376214
-0.316463
0.446580
-0.043721
-0.564680
-0.085439
-0.036790
0.434587
-1.037515
0.922626
-0.178732
0.945514
0.395558
0.198170
1.235220
-0.308829
-0.338285
0.024531
0.396193
0.692963
-0.760403
-0.320801
0.888700
0.700621
-0.566212
-0.035028
-0.428411
0.253474
0.603624
0.575058
-0.472562
0.123776
0.775201
0.597330
0.255407
0.484423
0.485514
0.218642
-0.630667
-0.521177
0.229943
-0.488100
0.647841
-0.765749
-0.172513
0.058523
-0.657480
0.057042
-0.217079
0.012792
0.517008
-0.393705
0.018259
-0.884343
-0.110327
0.316669
0.144768
-0.475334
0.995850
0.588347
0.620333
0.182322
-0.149833
-0.472143
0.005108
-0.213703
0.766098
-0.636778
0.537731
-0.155118
-0.850033
-0.037414
0.238937
0.214223
1.129518
0.977890
-0.438051
-1.076563
-1.084463
0.147484
-0.987380
-0.591696
0.925074
-0.082106
0.685147
0.463109
0.800956
0.486537
-0.212340
-0.314389
-0.353677
-0.789419
0.050301
0.260455
0.052275
0.542817
-0.605603
0.894508
0.017024
0.601797
-0.342639
0.695929
-0.343691
-0.030991
-0.556956
-0.560894
0.289851
0.475530
0.382522
1.066989
-0.755386
-0.278050
-0.768680
-0.142519
-0.193689
-0.078487
0.440563
0.705189
0.049015
0.825670
-0.334653
-0.958590
-0.612539
-0.077753
-0.989917
0.652930
-0.220348
-0.196450
-0.789732
-0.397189
1.079925
0.866781
0.283808
-0.987096
1.094358
0.095902
-0.234101
-0.534290
-1.032129
-0.089696
0.219323
0.840747
0.474548
-0.414336
-0.081542
0.109444
-0.585296
0.264091
0.358261
-0.374455
0.310228
0.227649
0.379788
0.986890
0.746544
-0.119046
0.585551
-0.943500
0.619487
-0.514149
-0.000004
-0.509000
0.456161
-0.293460
-0.199779
0.957880
0.798885
-0.551547
0.565358
-0.509674
-0.212397
-0.456741
0.962689
-0.898629
-0.860065
0.342333
-0.647844
-0.428010
0.864538
0.545393
0.958427
-0.212938
0.030174
-0.400700
-0.435191
0.609105
0.514095
0.360820
0.410240
-0.039505
-0.953197
0.273737
1.205059
-0.225956
1.258944
0.634221
0.242689
0.040769
-0.432445
-0.569463
-0.736197
-0.515433
0.058661
-0.653360
-0.090190
0.547718
-0.272550
-0.130572
-0.529820
-0.467644
0.616208
0.252305
-0.994719
-0.676849
1.703305
-0.463250
-0.233657
0.566224
-0.959050
0.160821
0.681969
0.339523
0.094081
-0.418688
-0.111375
0.160679
0.460687
0.848359
-0.488902
0.394612
0.340132
-0.661169
0.349930
-0.042122
0.285063
-0.698130
-0.662611
0.735413
0.990649
0.220389
-0.719617
0.113470
0.813125
0.320449
1.008063
0.718220
0.607574
-0.427875
-0.711806
-0.754026
0.645817
0.022101
0.508476
-0.911008
-0.055689
-0.459934
0.966549
-0.020725
-0.701421
-0.875635
-0.013424
-0.265466
-0.366500
-0.343816
-0.669055
0.816821
-0.936897
0.910414
-0.206803
-0.298472
0.640375
-0.446657
0.580589
0.738354
1.035668
0.903711
0.008770
0.231764
0.120648
-0.346618
0.886637
0.200099
-0.910527
0.310932
0.261557
0.740051
-0.018865
0.255505
0.305420
0.297718
-0.046870
0.263210
-0.043176
-1.243671
0.829773
-0.537957
-1.000479
-0.459587
0.154001
-0.335445
0.038618
-0.377482
0.124122
-0.255199
0.032135
-0.427403
-0.173604
-0.145673
0.979455
0.231134
0.753765
-1.126853
0.271542
0.853109
-0.039379
-0.102689
0.490163
0.333428
0.492598
-0.977188
-0.772256
0.785556
-0.636715
0.456976
0.091914
-1.021077
-0.477037
-0.417433
0.467595
1.003196
-0.792163
0.878580
-0.850755
-0.863810
1.439382
0.422227
-0.920262
-0.361031
-0.135635
-0.874466
-0.890490
-0.355205
0.527290
-0.820203
-0.647665
0.319985
-0.855544
-0.887416
-1.147674
-0.367294
-0.924632
-1.006004
0.360958
-0.189196
-0.001641
-0.303144
0.943030
0.761314
0.227528
0.990349
-0.246638
0.036271
0.907022
-0.144562
0.615535
-0.721739
-0.412530
0.371213
1.021819
0.185144
-0.266107
-0.059598
-0.806741
-0.198292
0.430411
0.141433
0.703523
1.047590
0.153432
-1.271722
-0.917988
-0.468075
0.733959
0.110311
-0.256338
0.031864
-0.630287
0.711205
-0.784111
-0.195740
0.830750
0.849760
0.532193
-0.459328
1.731385
0.527169
0.004115
0.405143
0.875801
0.803384
-0.436886
-0.193426
-1.001035
-1.137745
0.941772
-1.095479
-1.017129
-0.532309
0.648585
-1.148216
-0.612437
0.410671
-0.892712
-0.133003
-0.554229
-1.300847
-0.480630
0.118646
-0.284891
-0.038045
0.153888
-0.990470
-0.113144
0.674830
0.070292
-0.737095
0.099476
1.055209
-0.034635
0.059811
0.703112
-1.176746
0.121018
0.102748
0.031360
-0.792940
-0.606307
-0.537646
-1.159632
-1.129644
-0.908534
-0.945943
-0.691272
0.263692
-0.072443
-0.205692
0.639421
0.095826
0.304281
0.702722
0.141642
-0.634730
0.623354
-1.092572
-0.314572
0.864150
-0.209305
-0.792869
-0.531657
-0.905153
0.928493
-0.631470
-0.400651
-0.179333
0.602498
-1.033405
0.456846
-0.362167
-0.464468
-1.018989
0.363601
0.636978
0.335814
-0.267231
-0.778325
0.296114
-0.761059
-0.132126
0.667257
-0.065888
-0.022974
-0.994276
-0.806562
0.112333
0.753021
-0.265994
0.634890
-0.620445
0.062535
-0.277434
-0.363404
0.548944
0.088186
-1.391615
0.975616
0.773560
-0.589880
-0.895830
-1.191501
0.722947
-0.653463
-0.865927
-1.287865
0.106895
-0.404252
-0.620235
-1.259798
-0.735443
-0.017820
0.135187
-0.189326
-0.332630
-0.343718
-0.793555
1.695922
0.161301
0.592849
0.599000
0.231045
-0.476881
-0.149290
-0.464282
-0.652683
-1.051699
-0.143155
-0.585529
0.503302
-0.425394
-0.854701
0.697628
-0.360202
0.141289
-0.363727
0.041560
0.034154
0.906596
0.071651
0.060907
0.336851
0.001541
-0.858623
-0.411868
0.380113
-0.633538
0.040706
0.322818
1.021785
0.127594
0.276445
-0.262687
0.907697
0.615652
0.259702
-1.360429
-0.213342
0.412844
0.053039
-0.802523
-0.443493
0.081171
-0.055238
-0.523253
0.650631
0.452402
-0.628802
-0.013659
-0.931673
-0.298645
-0.914756
-0.934941
0.079622
0.675609
0.935669
-1.071021
-0.585703
0.223600
1.005339
0.115443
-0.603757
0.947332
-0.212960
-0.749168
1.086841
0.030851
0.169407
-0.006106
-0.189716
0.257990
-0.997428
0.840104
-0.820638
-0.709151
0.572408
-0.906941
-1.082227
-0.281941
0.179099
0.643878
-0.434460
0.278004
0.014865
0.411193
0.116286
0.963126
-0.178156
0.443198
0.282570
-0.727428
0.571850
0.475622
-0.180377
0.255870
-0.725176
-0.968218
-0.173157
0.045594
0.066605
-0.047983
0.465598
0.396215
-0.096934
-0.610322
0.986679
0.417268
0.518983
-0.584356
0.046805
0.544631
-0.915670
0.915727
-0.503961
-0.171973
0.691534
0.041140
-0.725627
-0.884748
-1.033648
0.657577
0.314710
0.713195
-0.806313
0.286904
0.352340
-1.049250
-0.431854
-0.458794
-0.103237
-0.752776
0.698790
-0.197744
0.596507
-0.514683
0.640297
-1.409112
-0.178817
0.063032
0.896398
0.505016
0.347639
-0.585917
0.298380
-0.411049
-0.663215
0.810549
-0.750345
-0.295940
0.012873
-0.936431
-0.561508
0.020476
0.790204
0.403092
-0.434699
-1.169003
0.775464
-0.290738
-0.332568
0.238497
0.620153
0.037224
-1.009887
0.796949
0.574435
-1.038708
0.621914
-0.114202
-0.600501
-0.872341
0.049612
0.523867
0.138040
-0.758157
0.860467
0.857765
0.370663
0.425904
-0.623288
-0.498936
0.486468
0.730575
0.622056
-0.739591
0.717794
-0.979210
-0.035129
0.168835
0.165408
0.767186
0.054177
0.203806
-0.124079
0.797435
-0.604557
0.133504
0.451759
0.014345
0.134889
0.099880
0.163074
-0.144729
0.945668
0.608567
-0.665699
0.948761
-1.215467
-0.417991
-0.290218
0.098622
-0.960229
-0.371381
0.273221
1.256593
0.487698
-0.390580
1.078659
0.569475
-0.650816
0.759036
0.590644
0.467019
-0.590622
0.715274
-0.233789
-0.466216
0.571542
-0.982228
0.918671
0.076067
-0.964973
0.218030
-0.499885
0.855313
0.858983
-0.250423
-0.288686
-0.003865
-0.403955
-0.143150
-0.147941
0.416337
0.086254
0.606338
1.005614
-0.028209
0.097811
-0.073435
0.361329
0.292962
-0.189730
0.391113
-0.493384
-0.856739
0.521138
-0.646299
-0.366666
-0.212431
0.027834
-0.293957
0.427052
-0.340347
-0.098235
-1.035867
0.785491
-0.571386
0.068490
0.173593
0.911241
0.202976
-0.491179
-0.129543
-0.493786
0.155958
1.058930
0.182419
0.049112
1.061967
-0.675474
-0.893088
0.548072
0.784186
-0.966376
-0.850900
-0.931960
-1.265759
0.594132
-0.451546
0.356595
0.574370
0.944529
-0.275797
0.577597
-0.909712
-0.803487
-0.033020
-0.073907
-0.442801
-0.304680
-0.186670
0.206439
0.428288
0.373513
1.000167
0.878619
-0.844204
0.305022
-0.389681
0.401717
-0.505797
0.365802
0.043884
0.058821
0.186339
-0.327100
-0.453868
0.914608
-0.649280
-0.783370
0.255600
0.394764
0.253251
0.605724
0.516372
-0.685740
1.377956
0.008012
0.286971
-0.833045
0.246221
0.395441
-0.313807
0.710651
-0.434997
0.137889
0.184287
0.015546
-0.667905
0.562134
0.202015
0.076785
0.585893
0.115850
-0.823436
0.058859
0.194560
0.358091
0.393230
0.656682
-0.181006
0.241713
0.555489
0.203920
0.733781
0.873594
-0.812579
0.259753
-0.727893
0.017008
0.358105
-0.244366
0.181356
0.714099
0.216542
0.294240
-1.032134
0.992036
-0.777472
0.039462
0.567755
0.188550
0.493886
-0.406394
0.195554
0.523913
-0.897448
-0.907542
0.949440
1.189987
0.579979
0.502954
0.098434
-0.800731
0.697112
-0.124017
-0.716353
0.580888
-0.338046
-0.153304
0.436817
0.538448
0.919988
-0.970560
0.415891
0.621196
-0.761774
0.279361
0.294131
-0.383148
0.702757
0.353104
0.253330
0.513665
-1.014286
0.390192
-0.068620
-0.164872
-0.150432
0.745598
-0.330003
-0.597269
-0.688339
-0.106541
-0.856196
-0.164842
-0.215655
0.488287
0.830274
0.348015
0.072390
0.429645
-0.509844
0.635133
0.385265
-0.184850
-0.487415
0.030783
0.967431
-0.067144
0.416584
-0.297906
0.264829
0.044049
-0.401317
-0.702644
0.541556
0.441584
0.267145
-0.283860
-0.257131
0.165490
-0.459639
0.983544
-0.640518
-0.489339
-0.206007
0.318703
0.109652
0.071599
-0.319188
-0.199881
0.637069
0.758265
0.356729
0.692163
-0.728898
1.127521
-0.219770
-0.228684
-0.724042
-0.071517
0.642563
0.357194
0.601089
-0.479107
-0.986145
-0.823331
-0.985946
-0.316597
0.313684
0.255967
-0.183149
-0.779180
0.125819
0.522910
-0.270533
-0.214679
0.669144
-0.185663
0.125426
0.131211
-0.049519
-0.769872
0.638814
1.062831
0.241230
1.305697
0.777601
0.661203
0.692951
-0.888300
0.080387
0.948698
-0.185916
-0.207267
-0.814498
0.626256
0.117625
-0.287043
0.528524
1.004337
-0.057012
0.980847
0.602122
0.689009
-0.884722
-0.227505
-0.294871
0.383404
-0.281238
-0.306560
-0.160615
-0.893505
-0.195244
0.835551
-0.935130
0.351991
-0.299707
-0.671907
0.570869
0.090151
0.430969
0.639383
-0.018355
0.410722
-0.519451
-0.782604
-0.415721
0.262450
-0.006577
-0.459089
-0.711122
0.823330
-0.335958
0.574219
0.346381
-0.501209
-0.482074
0.535228
-0.562033
-0.345991
0.034466
-0.219857
0.461855
-0.436069
0.490976
0.046027
-0.531438
-0.300898
-0.578600
-0.266199
0.358149
-0.145662
0.578722
0.035134
0.152393
0.440417
0.878213
-0.152627
-0.838163
-0.576135
-0.287174
-0.575002
0.322880
0.447222
0.591958
-0.257667
0.396236
-0.791227
-0.152142
-0.883168
0.772997
0.061482
0.151410
0.283562
-0.543392
0.026089
0.362400
1.030370
-0.344708
-0.027477
0.229833
-0.160783
0.664396
0.958738
0.256838
-0.378029
-0.223829
0.220810
0.809878
0.284035
-0.824029
0.201003
0.122737
0.074239
0.778260
-0.607903
-0.094168
0.501090
0.123948
0.386887
0.735423
0.063736
-0.801756
0.349556
-0.569607
0.881365
0.089617
0.697088
-0.973488
0.279908
0.501656
-0.845707
0.597500
0.647272
-1.377313
-0.078817
0.120298
0.048204
0.970558
-0.486533
0.826836
0.543312
-0.389189
0.310005
0.429485
-0.450978
0.731181
0.505264
-0.404226
0.788174
0.765508
-0.882323
0.459369
0.812960
-0.173997
-0.075028
-0.591840
-0.492072
-0.208532
-1.001054
0.902821
-0.574464
-0.117875
0.042463
-0.823644
0.631400
0.405150
0.325133
-0.435743
0.222219
-0.833175
0.816748
-0.344363
0.276348
1.282249
0.694661
-0.238277
-0.087829
0.990221
-0.204452
0.700394
-0.937949
0.666481
0.987252
-0.006524
-0.436661
-0.196718
0.730790
-0.314642
0.461365
1.047076
-0.910729
-0.377159
0.412676
-1.014635
0.057868
0.255457
0.418888
0.584642
-0.248017
-0.019703
0.134657
0.441992
0.560529
-0.282986
1.120065
0.643184
0.108965
-1.036280
1.095773
0.716275
-0.723761
-0.574437
0.326886
-0.397234
1.250560
-0.200618
0.299412
0.912700
-0.168481
0.700863
0.954313
-0.892550
0.346526
0.111842
-0.089532
-0.526191
0.080355
0.615606
0.664716
-0.186293
-0.753835
0.503950
0.735251
-0.824494
1.612245
0.555304
0.075866
-0.230172
-0.447238
-0.589953
-0.627045
-0.560705
-0.515361
-0.664916
0.925168
-0.269023
-1.590901
0.035298
0.398663
0.417433
0.355553
-0.069067
0.173356
-0.231082
-0.377899
-0.431822
-0.550537
-0.973868
0.921657
-0.079504
-0.105783
-0.039611
0.433248
-0.667921
0.234691
-0.775601
-0.938971
-0.295169
0.038572
0.888947
-0.639671
0.085722
-0.285868
0.579455
-0.553887
-1.306642
-0.973624
0.125947
0.055090
0.242992
0.503329
-0.181820
-0.121592
0.095575
-0.224180
-0.353400
0.267374
0.134903
-0.591374
0.417465
0.285566
0.475163
-0.583611
-0.239963
0.365865
0.856032
-0.778302
-0.230579
-0.112981
-0.462582
-0.779141
-1.418516
0.679790
-0.032570
-0.929871
0.603038
0.165082
-0.156153
0.475247
-0.810977
-0.008527
0.224320
-1.069919
-0.623841
-0.627472
0.453785
0.211346
0.414173
0.096143
0.272410
-0.721110
-0.084590
0.021761
-1.063565
1.358692
-0.330306
0.280852
0.536379
-0.063977
0.791791
-0.815590
0.073531
-0.726677
-0.847209
-0.837370
-1.417539
0.742023
-0.326278
-1.012455
-0.642184
0.236921
0.839668
-0.679326
0.239843
-0.150084
0.106225
-0.485963
-0.734871
-0.764996
0.257963
-0.831366
0.337585
0.183652
-0.833662
0.086357
-0.785569
0.081320
-0.700377
-0.561528
-0.194425
0.685762
-0.036870
0.550225
0.257467
0.793640
-1.521037
-0.358923
-0.536126
-1.153071
0.125016
-0.334957
0.495558
-1.018187
0.386721
0.736403
0.081624
0.785241
-0.467141
0.635056
0.430300
0.489783
0.906624
0.715354
0.718373
-0.075280
0.889681
-0.649831
-0.925510
-0.695456
0.340138
-0.213286
-1.236367
0.663818
-0.076570
-0.478559
-0.701154
0.323284
-0.611398
-1.167354
-1.322735
0.885289
0.002712
0.286149
-0.761311
-0.446237
0.841921
0.030697
0.450435
-0.699880
-0.741317
-0.831206
-0.665170
0.658729
1.044726
0.937785
0.783670
0.416202
-0.110194
0.677880
-0.429685
-0.679970
-0.769927
-0.205928
-1.020549
-0.756134
-0.693791
-0.226331
-0.271427
-0.825473
-0.588929
0.914448
0.840367
0.294614
-0.111123
0.285299
-0.525999
-0.773804
-0.898876
0.139154
0.511190
0.908372
-0.388170
0.922366
-0.570223
1.632101
-0.899992
-0.489809
0.083171
1.006334
0.748582
-0.784304
0.199890
0.164782
-0.583678
-0.182650
-1.095604
0.400063
0.135604
-0.266428
-0.151562
-1.004999
-1.058360
-0.181306
-0.067969
0.640079
-0.130944
-0.443090
-0.040487
-0.956843
-0.899789
0.497613
-0.388037
-0.188136
-1.311174
1.634638
0.424712
-0.940071
-0.265596
-0.257336
0.146177
0.782745
-0.720914
-0.805644
-0.509923
0.603178
0.456853
-0.783810
-0.125461
-0.212232
0.163758
0.712996
-0.030670
-0.043040
-0.676312
0.473438
0.741833
0.407723
0.523960
-0.639324
-0.240252
0.669710
-0.181381
-0.466218
-0.164821
0.412405
-0.909508
0.153727
0.263661
0.814608
-0.680119
-0.087628
-0.130913
-0.100365
0.073469
1.219779
-0.121500
-0.847442
0.087406
0.283419
0.312431
-0.082972
0.656975
1.143239
-0.075113
-1.016658
-0.756750
-0.628741
0.980690
0.922948
-0.073120
-0.700490
-1.037902
0.195699
0.711872
0.442780
0.080046
-0.643680
0.585322
-0.012999
1.011053
-0.077042
0.020358
-0.468598
0.594430
-0.030184
0.976220
0.963405
-0.467757
0.358798
-0.670350
-0.126226
-0.105090
-0.252187
-0.258427
0.083622
-0.000106
0.101703
0.615886
0.865682
-0.576314
-0.637694
0.059121
-0.925877
-0.488394
-0.649579
-0.599550
-0.448971
-0.785489
0.832235
0.854837
-0.920703
0.295028
0.029025
-0.660594
-0.610420
0.159195
1.141325
-0.006637
-1.191053
0.429761
0.260440
-0.316670
-0.386775
-1.192849
-0.417650
0.681017
0.417233
-0.013357
0.678455
0.428641
0.484553
-0.795783
1.045851
0.901843
0.581532
-0.416085
0.709409
0.934551
0.636358
0.918361
-0.975070
-0.766772
-0.581920
-0.907702
0.248682
0.887520
-0.453230
0.399820
-0.400462
0.192850
0.400345
0.427854
0.375790
-0.984567
-0.639588
0.263386
0.969906
-0.825784
-0.090006
-0.657781
0.108156
0.906177
0.298772
-0.766158
0.390324
-0.142036
-0.168167
-0.228482
-0.391109
0.201196
-0.564329
-0.616580
0.933974
-0.049484
-0.130280
-0.238300
-0.473607
-0.825020
-0.390272
0.542963
-1.029754
0.252565
-0.196395
-1.231436
0.518370
-0.117229
1.358856
-0.493061
-0.209784
-0.153133
1.012160
0.018893
-0.431004
0.208841
-0.416409
-0.218400
0.665464
-0.626511
0.104934
-0.160018
-0.784426
-0.052967
-0.709292
-0.799818
1.514191
-0.696158
-0.349296
0.413543
0.723633
-0.012931
0.232026
-0.566213
-0.342987
-0.638512
0.510259
-0.237500
-0.074732
-0.533612
0.991677
-0.284568
-0.873230
-0.997907
0.109503
0.141931
-0.132787
0.748923
0.056985
0.546373
-0.834507
0.138694
-0.917526
1.016323
1.024470
-0.674248
0.475766
-0.252354
-0.385117
0.435900
0.154670
0.446154
-0.197346
-0.521691
0.877709
-0.024128
0.427789
-0.952144
1.041474
-0.208463
0.730401
-0.345859
0.216796
0.930543
0.693509
0.677658
-1.239541
0.810765
0.773265
-0.150939
0.215799
0.099965
0.721472
0.531253
0.279348
-0.784933
-0.405624
-0.622298
0.100665
-0.810975
-0.523974
0.048450
-0.748187
0.056594
-0.679161
-0.923855
-0.852646
0.450728
1.143091
-0.110811
0.244471
0.501275
-0.783725
0.127446
-0.188203
-0.268770
-0.812646
-0.250570
0.062532
-0.225145
0.078547
0.746451
-0.161052
0.291061
-0.263074
-1.051491
0.486312
-0.127803
0.162775
0.132776
0.968828
-0.755031
-1.039238
0.652614
0.185167
-0.893129
0.264573
0.623763
1.183961
-0.157997
0.807575
0.225065
-0.522728
0.568466
-0.410731
-0.359212
-1.260591
-0.597088
0.028902
0.768745
-0.172647
0.209499
-0.294522
0.094737
-0.872976
-0.871374
0.807110
-0.078688
-0.465264
0.396289
-0.293888
-0.425112
-0.347687
-0.213533
-0.053975
-1.042979
0.246403
0.767149
-0.231856
-0.569356
-0.412454
0.482671
0.945713
0.479081
-0.888386
-0.490196
-0.794328
0.319117
-0.802810
0.247449
0.463136
-0.043397
-0.384684
0.139324
-0.047771
0.403507
0.150817
0.578630
-0.785667
0.859296
-0.745986
0.139997
-0.787859
0.358283
0.507665
-0.919837
-0.285777
1.019057
0.595846
-0.538188
0.927585
0.198785
-0.512562
-0.727987
-0.755981
0.671460
-0.817609
0.177066
0.864575
0.234663
-0.436710
-0.794276
0.316099
-0.385653
-0.349738
0.139353
0.244451
0.042847
0.030730
-0.095012
-0.198988
0.940780
-0.041432
0.286752
-0.244351
0.780882
-0.968027
-0.672700
0.014746
0.253587
0.899982
0.638562
-0.538333
0.487849
0.533154
-0.075717
0.170540
-0.013379
-0.500594
0.221656
-0.627430
0.613203
0.491406
0.199494
-0.180646
-1.452712
0.676366
0.466015
-0.372704
-0.142280
-0.349822
0.885383
0.650428
0.606373
0.178782
0.981085
-0.144792
-0.473480
1.605534
-0.480495
-0.203030
0.232538
-0.444340
0.954821
0.279019
0.336551
-0.232808
-0.508664
0.216940
0.662973
-0.907668
-0.844246
0.828104
0.435714
0.164441
0.050757
-0.009946
-0.684650
-0.183996
0.000603
-0.826041
-0.581324
0.268233
0.256093
-0.768783
0.435883
0.070236
-0.107409
-0.046356
0.036171
0.764705
0.910145
-0.452497
-0.093129
0.670179
-0.667230
-0.474203
0.833257
1.441802
-0.260551
0.360000
0.694448
-0.103011
1.676269
-0.081811
-0.417227
0.324158
-0.532747
-1.270560
0.265333
-0.462543
-0.499827
-0.482810
-0.223342
0.782804
0.594775
0.604704
0.140867
0.220157
-0.453199
0.178589
0.561255
-0.726143
-0.403708
0.602956
0.623777
0.251782
-0.302244
0.405375
-0.173882
-1.003834
-0.093547
0.027645
-0.348947
0.309027
-0.711231
0.663915
0.199864
0.384221
-0.860865
1.010031
-0.831334
0.129282
0.803715
0.600798
-1.106169
-0.951729
-0.600882
0.542418
-0.611874
-0.917408
-0.096549
0.896131
0.878459
-0.280563
0.319285
-0.728974
-0.432200
-0.740141
0.793112
0.841120
0.049029
0.351919
0.436409
-0.645423
-0.914995
0.816098
0.053067
0.535100
-0.252702
-0.215393
0.198971
0.272960
-0.355996
0.472916
0.180465
-0.505723
0.241622
-0.513257
-0.334572
-0.692058
-0.772858
-0.086938
-0.540758
-0.578627
0.608043
-0.735698
0.335022
-0.354175
0.583335
0.565368
0.056443
-0.384417
0.619488
0.316796
-1.182400
1.032127
0.300125
0.137714
0.353020
0.649747
1.249651
0.046351
0.123482
0.772503
0.115517
0.134863
0.633638
0.497298
0.902277
-0.092034
-0.284094
0.204018
0.165209
0.408149
1.077110
-0.510870
-0.515260
-0.498959
-0.394156
0.090959
-0.385893
0.543853
0.431699
0.569808
-1.060127
0.159340
0.520726
-0.933729
0.397324
0.136252
0.416170
0.455896
0.098555
0.864453
-0.624258
-0.136187
0.384833
-0.521418
0.654273
0.749532
-0.593962
0.638920
0.055047
-0.368077
0.622741
-0.234531
0.172983
0.612154
-0.539077
0.853234
0.762075
0.785932
-1.112404
0.908557
-0.839104
0.972343
-0.170113
-0.132744
-0.514942
0.078681
1.161491
-0.929004
0.063118
0.863840
0.395090
0.689696
-0.232033
0.365541
-0.441395
-0.526073
0.799233
0.024646
-0.880661
-0.629806
0.178732
1.339400
0.109164
-1.200051
0.551770
0.882534
0.566158
-0.387738
-0.073676
1.103981
-1.687800
0.177660
-1.114202
-0.372453
-0.926197
-1.320720
-0.431441
0.190527
-0.035789
1.198706
-1.513538
0.094275
-0.775305
-0.589387
0.091679
-0.365435
-0.077406
0.679005
0.907913
0.710165
-0.135715
0.272959
-0.761571
-0.982705
0.639549
-0.484992
0.996767
-0.403182
-0.348400
-0.111031
-1.181601
-0.323222
-0.525735
0.927724
-0.157239
-1.278127
0.293725
0.383321
0.640161
-0.476002
-0.548144
-0.467991
0.138926
0.228952
0.332381
0.650254
0.701649
-0.892304
0.740914
0.631365
-0.808717
0.619019
0.152968
-0.425263
0.846864
0.942263
-0.706394
0.240375
0.203377
0.942616
-0.825057
0.193372
-1.110637
0.327097
0.404175
0.221848
-0.637109
-0.410458
0.168177
-0.109629
-1.442955
0.142125
-0.783171
0.954376
-0.671708
-0.035755
0.243975
-0.303959
-0.549026
0.822891
-0.530055
1.288228
0.259361
-0.591144
0.150398
-0.554448
-0.566870
-0.550587
-0.899620
-0.337406
-1.202646
0.412915
-1.074274
0.066790
-0.536308
0.133646
0.983826
-0.480614
-0.090529
0.367492
-0.440291
-0.067770
0.590251
0.195249
0.380037
-0.715680
-0.294890
-0.661391
-0.337002
0.866592
-0.182859
0.820067
0.791215
-0.561323
0.209406
0.887681
-0.059721
-0.480688
-1.489794
-0.211562
-0.188884
-0.036038
-1.233915
-1.018593
-0.383020
-1.450431
0.190375
0.125393
-0.744562
0.299024
-1.432924
0.470756
1.201072
-0.019931
0.309820
-0.009722
0.903504
0.346335
0.408906
-0.485693
0.498970
0.121740
-0.814946
0.074995
-0.805092
-0.994960
0.362498
0.303254
-1.001072
0.354560
0.416050
-0.018029
-1.126325
-0.396384
0.778680
0.181822
0.620485
-0.989913
-0.960265
-0.009837
0.015630
-0.856433
0.191047
-0.232144
-0.810870
0.399278
0.427481
-0.678551
-0.877944
-0.752939
-0.610404
0.251833
0.041933
-0.477836
-0.064908
-0.903850
-0.285327
0.106843
-0.101196
0.573436
-0.282703
0.112296
-1.275587
0.266229
-0.383510
-0.252790
0.470360
0.061124
0.674047
-0.478081
-0.746518
-0.094825
0.233561
-0.113158
0.286387
-0.683202
0.063224
0.088764
0.730648
0.004248
0.223954
0.292274
0.236233
0.387004
-0.785236
0.460597
0.282588
0.302338
-0.363689
0.700843
0.869279
-0.127715
-0.408342
0.413495
-0.815224
-1.263787
-0.239887
-0.709099
-0.484201
-0.694754
-0.135859
0.138939
-0.413591
-0.822419
-0.964452
-0.745597
-0.156501
-0.420451
0.366597
0.218525
0.157333
1.338746
-0.764212
-0.652568
-0.836368
0.369138
0.465738
-0.748520
-0.959265
-0.627463
-0.757352
-0.372401
-1.359567
-0.683611
-0.219795
-0.231573
0.230153
-0.086796
0.204098
0.588861
-0.564593
-0.445420
0.352881
0.225779
0.361301
-0.201403
0.737481
-0.133761
-0.621773
0.829991
0.535130
-0.052842
-0.721353
-0.098512
-0.952064
-0.678908
0.201128
0.380292
-0.418084
-0.630175
-0.202692
0.479456
-1.468541
-0.441785
-0.825433
-0.677946
0.509941
0.390804
-0.993451
0.099642
-0.380528
0.342121
1.011579
0.067748
0.694160
0.911414
-0.982297
0.786372
0.715183
0.565733
-0.346661
-0.220952
-0.428947
-0.459452
-0.602019
0.566137
0.167646
0.254329
-0.756277
-0.610393
0.112171
1.127415
-1.427923
1.179304
-0.719979
-1.150227
0.548399
0.554292
0.094825
0.465339
-0.235893
-0.036161
0.948253
0.298573
-0.013587
0.714900
-0.202711
-0.555813
-0.835363
-0.610920
-0.089633
1.196778
-0.203009
-0.734387
0.735214
0.665708
0.119556
-0.757653
-0.425500
1.032715
0.428880
-0.367250
-1.076772
-0.496331
0.512518
-0.665129
0.209362
0.409914
0.418792
-0.482819
-0.937363
-0.711736
0.783155
0.214805
0.001934
-0.946513
-0.640580
0.826310
-0.860527
0.244229
-0.259157
0.915520
0.283981
1.124000
-1.129667
-0.460563
-0.466445
0.748479
-0.491850
-0.294086
-1.071430
0.820047
-0.037528
-0.963014
0.662487
-1.195398
-0.014094
-0.778451
-0.305558
-0.248480
-0.937087
0.572184
0.783561
-0.786200
0.024119
0.692081
-0.786634
-0.227766
-0.339801
-0.735088
-0.348805
1.341665
0.184414
0.089862
0.437118
0.142928
-0.852627
0.713783
-0.361494
0.725451
0.591207
0.698816
0.137722
-0.242132
0.838463
-0.208104
-0.488414
-0.517953
-0.369559
1.091465
0.603589
-0.477525
-0.029865
0.384970
0.589241
0.353112
0.553910
-0.594285
-0.773546
0.735599
-0.913921
0.786233
-1.133819
-0.420376
0.848556
0.553082
0.575222
0.433299
-0.945613
-0.004035
-0.891549
0.512955
0.372446
0.230763
0.114880
0.352482
0.961662
-0.711384
-0.614553
-0.330274
0.323516
0.707602
-0.825583
-0.663184
0.467691
-0.850987
0.559909
-0.239856
0.321112
0.244860
-0.284780
-0.666465
0.254220
0.118765
-0.843133
0.647509
-0.196108
0.770909
-0.705234
-0.757502
0.418887
0.757932
-0.560445
0.150454
0.122241
0.225369
0.249340
-0.747506
0.325349
1.240579
0.327791
0.840872
0.210001
-0.182474
-1.067283
0.091579
0.034473
0.006016
-0.518136
-0.219535
0.104306
-0.310041
0.646434
-0.909085
0.122443
-0.089882
0.095925
-0.329884
-0.458879
1.046422
-0.318187
-0.586934
-0.709306
-0.948174
0.679935
-0.311530
-0.948057
-0.300909
-0.705830
0.485614
0.168139
-0.830234
-0.326818
-0.442030
0.289199
-0.587640
-0.026765
-0.419726
-0.721936
-0.894694
-0.962932
0.588921
-1.039221
-0.316360
-0.424973
0.463307
-0.615922
-0.263217
-0.487900
-0.020167
0.050136
0.175221
0.791534
0.251703
0.671572
0.301964
-0.697693
0.199410
0.589535
0.637920
-0.657772
-0.085771
-0.054776
-0.334570
-0.506318
-0.013399
-0.383903
-0.946334
0.831285
0.105355
-0.414702
-0.708033
-0.869668
-0.223109
0.397588
-0.432147
-0.054634
0.606975
1.020442
-0.317204
-0.223275
-0.332369
1.179131
-0.053575
0.196132
-0.510281
-0.335011
0.155932
-0.979444
0.895297
0.874835
-0.982175
0.479955
1.106100
-0.811746
-0.915122
-0.674538
0.596173
0.291262
-0.357066
0.394783
-0.821126
-0.325002
-0.544154
0.491809
-0.254167
0.156774
-0.305222
0.176799
0.316819
-0.759868
0.669446
-0.362025
-1.069305
-0.399056
-0.775289
0.079891
0.669444
0.454951
0.160191
-0.620519
-0.591943
0.468806
0.223648
-0.115661
0.021128
-0.762720
-0.911441
-0.116010
1.053766
0.776942
-0.394697
-0.237594
0.905787
-0.688795
0.130467
0.297348
-0.041642
0.126347
-0.238663
-1.043270
0.844384
-0.540909
-0.715046
0.669692
0.376521
0.066849
0.904466
-0.789919
0.494662
-0.030224
-0.883893
0.197959
0.335028
-0.042568
-0.841359
-0.468073
-0.710747
-0.138500
0.296092
-0.467642
-0.836661
-0.694778
0.395789
-1.324828
0.366501
0.197414
0.292094
-0.054882
-0.481459
0.668310
0.240897
0.011113
0.202138
0.039631
-0.231006
0.506235
0.554367
0.681351
-0.684486
-0.186334
-0.461662
-0.510491
0.635511
0.925868
0.403006
0.159314
-0.481794
0.308714
1.002757
1.304668
-0.982045
-0.419974
-0.207493
-1.514685
0.160562
-0.562272
0.075240
1.289134
-0.035582
0.385600
0.453854
-0.482957
-0.871076
-0.360691
-0.315724
0.310858
-0.546858
0.101720
-0.604892
-0.566107
-0.559597
-0.772558
-0.114269
-0.549957
0.285671
0.028255
-0.914941
-0.479223
-0.497430
0.149431
-1.249631
-0.463911
0.555311
-0.566261
1.062930
0.722882
-0.610271
0.341739
-0.654839
0.383070
1.356906
0.019039
0.596190
0.086122
-0.118743
0.120714
0.332132
-0.402159
0.242027
0.755010
-0.634319
-0.540760
0.890655
-0.902168
0.989621
0.395202
-0.265502
-0.505985
0.823767
-0.232769
-0.020453
0.851243
-0.639025
-1.330736
0.568917
-0.823413
-0.573969
0.435029
0.669646
-1.240276
0.520251
0.756110
0.242278
0.437548
0.703340
0.069906
-0.026265
-0.199430
-0.694703
-0.414669
-0.687468
-0.149372
1.002476
0.711624
-0.780297
0.282533
0.989641
0.671741
-0.311461
-0.315282
0.073657
0.365790
-0.219917
-0.785904
-0.643813
0.518350
0.043890
0.353638
-0.510518
-0.466989
1.176130
0.599161
-0.396599
1.097489
0.525173
-0.310972
0.117406
0.712490
-0.100138
-0.309478
-0.881365
-0.738561
-0.192392
-0.015393
0.906776
0.833354
-0.299842
0.870121
0.547516
-0.637470
-0.451022
-0.244969
-0.216170
-0.542070
0.015479
-0.120420
0.739209
-0.203915
-0.650767
-0.803047
-0.578766
0.583438
-0.258547
0.419490
-0.514028
0.564148
-0.095127
0.276246
-0.352499
0.495869
-0.613142
0.160929
0.390239
-0.936201
0.668997
-0.849577
0.650549
-0.200076
0.232684
0.913037
-0.346720
-0.460953
0.598980
-0.045550
-0.076874
0.377648
-0.926314
0.191940
0.940234
0.030130
1.419909
0.154902
-0.570442
0.214462
-0.130783
-0.600819
0.043273
0.947851
0.596529
-1.169657
0.365615
0.815030
0.017462
-0.310419
0.724337
-0.076494
0.047998
0.455285
0.493977
-0.238015
-0.320944
0.260533
1.224395
0.806405
-1.161566
-0.811954
0.300263
0.223491
0.810758
-0.884603
-0.026464
-0.693448
0.471411
-0.742666
0.848574
0.699754
-0.528621
0.332901
-0.492931
-0.493770
0.444313
0.523041
-0.070846
-0.104033
0.934083
-0.292667
0.318783
0.298929
0.720469
0.795927
-0.356342
-0.837217
-0.051526
-0.406049
0.802572
-0.321287
0.319347
-0.349212
-0.066524
-1.178513
-0.282820
-0.670380
-0.265083
-0.940118
0.977814
-0.436036
-0.640301
0.753601
-0.048683
-1.249300
-0.416604
0.518931
-0.983752
0.239023
-0.526892
0.661365
0.555344
-0.642823
0.598001
-0.492654
-0.974583
-0.164214
0.194603
-0.653490
0.162528
0.744832
0.525888
-0.845929
-0.607645
-1.216594
0.427171
0.260483
0.072594
-0.023569
-0.125335
1.301000
-0.664809
-0.963036
1.246000
-0.779833
-0.893112
-0.898204
-0.079769
0.005636
-0.046168
0.543964
-0.298242
0.810025
-0.111396
-0.278595
-0.598286
0.351074
0.397814
-0.578844
-0.624622
-0.399919
-0.286553
-0.164177
-0.077899
-1.373566
0.570869
-0.716973
0.887234
0.700259
-0.223472
0.475058
0.578582
-0.425046
1.355340
-1.130507
-0.632943
-0.278124
-0.660826
-0.659126
-0.466169
-0.684244
-0.937758
0.859126
0.196017
0.195690
0.713117
-0.035250
-0.046124
-0.911762
0.394580
0.399528
0.017761
-0.438508
0.641886
-0.468485
-0.483612
0.224044
1.012499
1.010065
0.354731
0.686789
-0.106878
-0.687058
-0.006858
-0.293791
-0.354401
-0.851937
0.248695
-0.034030
-0.083818
0.434095
-0.183040
-0.182120
0.586281
0.410398
0.978974
-0.663956
0.567919
0.283911
0.385398
-0.071729
0.180513
-0.646211
0.030551
0.653911
-0.260647
0.424113
-0.680619
-0.535826
-0.571255
-0.330260
0.630367
-0.331429
0.516880
-0.839242
0.351634
-0.152069
0.629878
0.935958
0.231525
-0.042430
0.035786
-0.003602
1.109383
1.104640
0.368835
-0.023871
-0.020771
-0.471476
0.286822
-0.804505
-0.214486
0.148345
0.547494
-0.426811
-0.481824
-0.557025
0.370528
0.692623
-1.011150
0.606815
-0.522441
0.850488
1.028742
-1.986948
0.092610
-0.715231
0.605751
-0.449543
0.399423
-0.967994
-0.069671
-0.800431
-0.321197
0.000552
1.365745
-0.622263
-1.079662
0.300664
-0.772669
0.505234
0.119495
-1.900303
-0.322193
-0.391586
-0.568405
-0.923296
0.780561
0.686879
0.227630
0.166758
0.891930
-0.649643
0.877396
-0.834251
-0.970438
-0.103131
-0.121362
-0.779399
-0.346400
-0.021028
0.761250
-0.809905
0.087846
0.998050
0.846393
0.594743
-0.624363
-1.195369
0.202618
-0.589122
0.532162
-1.689710
0.470135
0.362596
-1.052017
-0.044713
0.975955
0.318926
-1.611217
-0.049238
0.242110
0.728533
-0.053522
-1.390814
-0.483770
-0.653533
0.455805
-0.762266
0.974215
0.043269
0.940928
0.602944
0.267549
-0.271332
1.039252
-0.315632
-0.277555
-0.317704
-0.113082
0.319668
-0.379205
-2.130284
-0.021781
0.398090
-1.197162
-1.255351
1.291155
-0.053042
-1.405291
0.163100
0.523310
0.205732
-0.503196
0.251025
-0.092824
0.042321
0.835237
0.064801
0.708661
-0.571474
0.916194
-0.742901
-0.933121
0.675181
0.732585
-0.120501
-0.096789
-1.352401
-0.988694
-0.064588
0.880419
-1.295856
0.720092
0.032903
0.390270
-1.418134
-0.361336
-0.699298
0.210957
-1.184626
0.853801
0.159993
-0.774975
-1.053509
0.845815
0.912935
0.012142
-0.731272
-0.683065
0.949522
-0.697944
-0.714395
0.356533
-0.366699
1.435180
0.900025
-0.352743
-0.028786
0.110191
-0.420397
0.300427
-1.567741
-0.475147
-0.507751
-0.797253
-0.080444
1.354476
0.446216
-0.440604
-0.436460
-0.890106
0.740211
0.768948
-0.174304
0.320010
-0.351864
-0.188058
-0.602206
-0.679340
0.638162
0.838704
0.888411
0.680125
-1.152539
0.800940
-0.544673
-0.671986
0.074286
-0.716477
0.870411
0.526747
-1.274866
-0.524538
-0.628623
0.358246
-1.314089
0.073876
0.491804
0.775896
-1.011760
-0.529515
0.650934
0.547025
-0.414632
0.199416
1.345643
0.944349
-0.940054
0.229113
-0.819939
-0.887886
0.806799
-0.258593
-0.556890
1.062144
0.659553
-0.726522
0.214448
0.812430
0.968818
-0.260251
-0.542361
0.468195
-0.035557
-1.078022
-0.193900
0.568883
-0.139866
-0.411622
-0.957993
-0.991983
0.293772
-0.935953
-0.556955
-0.405482
0.034337
0.430250
0.825447
0.805259
0.379438
-0.471125
0.547376
-0.897521
0.978325
0.902215
0.272887
0.077151
-1.049374
-0.391405
0.219337
0.746300
-1.522801
-0.121489
0.404504
-0.658234
-0.192314
-0.033503
0.498769
0.216335
0.602047
-0.793559
-0.262637
0.807362
-0.399362
-0.963270
-0.309173
0.339995
0.556873
0.287441
-0.922588
0.156208
-0.719014
0.094093
-0.417329
-0.160518
-0.780137
0.377285
0.319659
-0.211409
0.426961
0.672312
-1.197679
-0.712545
-0.598394
0.618889
-0.908567
0.238008
1.089088
-0.663850
-0.459767
-0.307685
0.520439
0.641436
0.046722
0.006150
0.545517
0.511074
0.583156
-0.626856
-0.606477
-0.901978
-0.281803
0.552123
-0.066206
0.655137
-0.935122
-0.487064
-1.401814
0.548662
-0.829084
0.660353
-0.362861
0.122190
-1.282270
0.160212
-0.503544
0.344669
0.628308
-1.134858
-0.533256
-0.767961
0.171753
0.225625
-0.639074
0.617181
0.742343
0.994241
-0.011227
-0.192722
-0.849168
-0.846297
-0.439436
0.498022
-0.083469
-0.615765
-1.102831
-0.524794
-0.650931
-0.378349
-0.468413
-0.236820
0.415982
-0.115077
-0.625568
-1.010040
-0.717376
0.167882
0.425328
-1.103054
0.495662
-0.532945
0.756380
0.430516
-0.344420
-0.074336
-0.648987
0.714405
-0.405925
0.686265
-0.511671
-0.922785
0.589692
-0.111738
0.073945
0.078253
0.136689
-0.794915
-0.985546
0.629069
-0.176037
-0.476740
-1.078372
-0.043249
0.352054
0.459145
-0.898127
0.846965
-0.723937
-0.349910
0.654778
0.689256
0.474675
-0.034709
0.439722
-0.536163
-0.629108
-1.295174
-0.992678
0.711475
-0.005021
0.968225
-0.155595
0.946541
-0.111349
0.403485
0.709230
0.506892
0.712505
-0.129058
-0.634078
0.963905
-0.671159
0.803614
0.305509
-0.371945
-0.558820
0.311414
-0.303250
-1.149382
-0.583875
0.692767
0.120161
1.082872
-0.384901
0.649431
0.076042
-0.866200
-0.870584
0.911968
-0.472462
0.256729
-0.867281
0.947415
-0.038340
0.255042
0.033313
0.611606
-0.597409
0.386660
0.654502
0.870149
-0.876501
-0.129644
-0.260742
0.786761
-1.105546
-0.785137
-0.539786
-1.081726
-0.925238
-0.978995
-0.184006
-0.509422
-0.851248
0.465234
0.059759
-0.194947
-0.141615
-0.303859
0.640590
0.464386
0.144718
-0.618010
0.394651
0.508409
-0.906509
0.049056
0.262943
-0.891367
-0.959662
-0.502689
-0.037153
-0.006462
-0.271897
-0.037469
0.563094
-0.157399
0.251197
-0.388186
-0.257249
-0.938525
-0.396659
0.553489
-0.457224
-0.834305
0.631213
0.309238
-0.276289
-0.159087
-0.845830
0.723582
-0.133608
-0.045782
-0.001295
0.022221
-0.549638
-0.573446
0.261420
-0.793520
-0.689945
-0.508728
0.193962
0.514178
0.385067
0.583401
-0.347968
-0.838166
0.182214
-0.618350
-0.228882
-0.918269
0.543393
0.067140
-0.445055
-0.861178
0.060813
0.985995
0.239749
0.738142
0.695998
-0.612091
0.490779
0.574376
-0.460498
-0.424236
-0.293318
-0.497457
-0.041793
0.020548
-0.597602
0.275909
-0.005523
-0.459511
0.757661
-0.017866
0.454203
-0.062356
-0.077716
-0.442468
-0.393472
0.359975
0.205217
-0.266176
1.304318
-0.049737
-0.789288
0.501333
-1.037775
0.758775
0.363831
0.707717
0.872409
0.261937
-0.617763
-1.099556
-0.524991
1.196655
0.231087
-0.044361
-0.158740
0.829875
-0.103218
-0.190248
-0.758067
0.993172
0.120589
-0.438951
0.237887
-0.675307
0.292248
0.236074
-0.866517
-1.149244
0.262323
-0.893336
-0.733511
-0.369210
-0.629545
0.041812
-0.320616
-0.459106
-0.593378
0.779640
-0.449072
0.201693
-0.083272
0.284234
-1.628171
0.069380
0.319368
0.231069
0.250824
-0.083881
-0.048639
-0.622666
-0.142726
0.273991
0.794353
-0.644123
0.260423
0.455741
-0.362703
-0.582818
-0.133593
-0.098511
-0.861915
-0.839617
0.598127
0.082148
-0.939870
-0.219271
-0.442158
0.694162
-0.535018
0.036444
-1.089124
0.893129
-1.741086
0.939439
0.244326
-0.518965
0.096492
-1.026170
0.277798
0.399322
0.397161
-0.515371
0.318744
-0.380301
0.084101
-0.815344
0.480281
0.921461
0.845579
0.839971
0.925321
0.110873
-0.142248
0.581570
-0.220310
-0.745570
0.195506
-0.365353
-1.215259
-0.400879
0.500483
-0.597201
0.310672
-0.418011
-0.591422
0.995782
-0.265656
0.730216
0.250683
1.056707
-0.709999
-1.010405
-0.382729
0.747631
0.943148
0.761918
0.483903
-0.546877
0.503407
-0.964374
0.838045
0.983310
0.096085
-0.764411
-0.396684
-0.213640
-0.715923
-0.089708
0.555671
0.277687
0.262166
0.104623
-0.087211
-0.858976
0.299429
-0.892696
1.133981
-0.325000
-0.692502
0.150965
-0.523967
-0.081713
0.146681
-0.376770
0.668027
0.673093
0.183570
0.056280
0.774871
0.504665
0.844915
-0.331690
0.053488
0.944338
-0.805815
-0.774720
-0.224296
0.812943
0.170535
0.290832
0.542694
-0.042008
-0.004223
0.118291
0.629621
0.579395
0.975950
0.963731
0.381754
-0.694447
-0.537437
0.306904
-0.842679
0.783771
0.893511
0.174088
0.684640
-0.012923
0.955853
-0.643248
0.462918
0.692160
-0.325852
0.852949
-0.267916
0.849968
-0.449621
0.558104
-0.817264
-1.385962
0.331548
0.127805
-0.938605
-0.030021
-0.944240
0.870690
0.045044
-0.440224
-0.167512
-0.355065
0.901260
0.435311
-0.187463
-0.537117
-0.219715
0.357905
-0.162615
0.304023
-0.573944
-0.126989
-0.250350
0.659123
0.577430
-0.595632
0.096239
-0.729872
0.437069
0.861589
0.379688
0.065795
-0.968099
0.838234
-1.258051
0.251291
-0.243808
-0.394832
0.359052
-0.585559
0.540368
1.163311
-0.616437
-0.111676
-0.563566
-0.874114
-0.836353
-0.757737
-0.530867
-0.411841
-0.031591
-0.137473
-0.161673
1.042451
0.345674
0.104703
-0.569359
0.407505
0.410739
-0.393011
0.543543
-0.803668
0.222327
0.584259
-0.339974
-0.634507
0.880603
0.798203
-0.717054
-1.006488
-0.034363
0.307333
0.661651
-0.467563
0.571410
1.013498
-0.069112
0.351146
-0.777015
-0.116830
0.436923
-0.595208
1.079521
-0.669170
0.574602
0.183918
0.328499
-0.682772
0.332311
-0.648503
-0.307137
0.635665
-0.468423
-0.730372
-0.742736
0.186662
-0.929681
-0.211208
0.881296
0.719557
0.113220
-0.214489
-0.712404
-0.427870
-0.855506
-0.712017
1.301005
0.101957
0.351088
0.630690
0.109981
-0.624173
-0.727762
0.417189
-0.792290
0.954839
-0.631961
0.927918
0.119367
0.943630
-0.034779
0.444683
0.183227
0.705218
0.455788
0.939254
-0.814183
0.788212
0.302903
0.547379
-0.842184
0.729355
-1.327123
-0.616453
-0.075168
-0.416695
0.974192
0.435173
-0.249240
0.652169
-1.152656
-0.490590
0.087054
0.826802
0.413071
0.230923
-0.067775
0.144702
-0.309163
-0.066055
-0.426590
0.381789
0.978067
-0.554313
-0.364276
0.073635
-0.196246
-0.108780
-1.300881
0.927546
-1.161990
0.311296
-0.176788
0.782917
0.730212
-0.304307
1.195614
0.890067
0.455323
-0.773689
-0.712845
-0.134440
-0.892173
-0.571839
-0.200628
-0.680882
-0.219244
0.625423
0.021035
0.771477
1.100231
0.387825
-0.468529
-0.285137
-1.061840
-0.158678
0.325659
-0.325146
-0.304284
-0.288699
-0.626825
1.181875
-1.289547
-0.193894
-0.816856
-0.023800
-0.511494
0.898857
-0.826820
0.035588
-0.164212
0.004498
-0.694465
0.932409
-0.851560
-0.849712
0.193903
0.437407
0.204473
-0.793715
0.073288
-0.027800
0.904784
-1.029429
-0.300497
-0.089646
-0.773044
0.391554
-1.469733
-0.083166
-0.393181
0.042053
-1.132901
-0.678268
0.614194
0.045669
0.922217
-0.337993
-0.970826
0.234320
-1.062113
-0.257311
1.098936
0.605119
0.654941
-0.370852
-0.735217
-0.849390
-0.387377
1.147150
0.687059
0.049424
0.792156
-0.621978
0.574053
-0.160367
-0.561455
0.037277
-1.095133
0.846777
1.197797
0.538903
-0.581627
-0.277110
0.050892
-0.710433
0.667760
-0.461171
-0.744661
-0.216049
-1.589593
0.799878
-0.460454
0.825154
-0.458308
0.999561
0.005753
0.016225
0.200553
0.939168
-0.376499
-0.536810
-0.558787
-1.286852
-0.248708
-0.484603
0.048011
0.334544
-1.275635
0.987325
1.115431
0.711678
-1.109073
0.156010
-0.949266
-0.300827
0.674322
0.603651
0.727223
-0.745379
0.015179
0.678249
1.247711
1.161571
-0.406835
-0.133475
-0.056960
-0.632232
0.203572
-0.650583
0.739597
0.105489
-0.040710
-0.272471
-0.839099
0.703718
0.706327
-0.165206
-0.574668
0.689827
0.306297
-0.169590
-0.853584
0.286760
0.587417
-0.048381
-0.373030
0.412385
-0.543359
0.696959
-1.488024
0.333029
0.649078
1.347492
-0.947082
0.393906
0.999847
-0.159056
-0.074227
0.614239
0.331699
-0.587780
0.968965
-1.406544
0.042831
0.968368
0.706209
-0.370470
-1.718969
1.003046
1.028613
-0.682726
-0.553359
1.133654
0.841434
0.191786
0.729264
-0.190407
-0.205322
0.605893
-0.801180
-0.207112
1.095092
-0.675002
-0.429421
0.441342
-0.264710
0.117681
-0.487328
0.462446
1.053231
0.717124
0.348025
-0.122847
-0.226895
0.950566
0.720598
-0.816906
-2.356092
-0.417388
-0.240866
-0.418717
-0.050002
-0.182878
0.819372
-0.313609
0.782363
-0.915789
0.331166
0.595333
-0.821481
0.222768
0.380400
0.140353
-0.940153
0.073359
-0.666507
-0.235129
-0.170663
0.864143
0.161601
0.947698
-0.647334
0.014498
-1.712074
-0.502927
0.993704
0.749394
-0.666928
0.083892
-0.367484
-1.139464
-0.835979
1.046922
0.868855
0.476349
0.529396
-0.073680
0.268110
-1.046431
-1.777027
-0.474322
1.057011
-0.065078
0.294357
-0.512629
0.441766
-0.319781
0.120947
-0.851338
-0.796651
0.686149
-0.157394
-1.180196
-0.297458
-0.793014
0.292276
-0.807597
-0.754050
0.679543
0.955250
-0.404389
-0.673332
1.244501
0.585074
0.202755
-0.341456
0.945160
-0.637487
0.581357
-0.442440
-0.071716
0.578307
0.400019
0.314026
-0.697541
0.307019
-0.887057
0.282018
0.906495
0.744316
0.135496
0.752524
-0.314776
-0.785739
-0.122861
-0.256314
0.564746
-0.987681
0.089830
0.673781
0.302606
-0.893836
-0.412564
0.465161
0.419787
-0.664110
0.174051
-0.147254
0.752428
-0.772844
-0.823021
0.675146
1.078986
-0.332469
0.548831
-0.223515
-0.250231
-0.463957
-0.425424
-0.068860
0.265209
0.547351
-0.777175
-0.877332
0.720216
-0.943225
-0.212743
-1.190219
0.644869
-0.656750
-1.045885
0.849439
0.505806
-0.443519
-0.759290
-0.903146
0.017944
0.547825
-0.875583
-1.701537
-0.435068
1.233222
0.830538
0.648141
-0.065518
0.882942
0.786087
-0.747292
0.814305
1.077307
0.397563
0.597626
-1.050588
-0.425775
0.663608
0.328506
-0.611199
-1.418596
-1.101599
-0.317649
0.152118
-0.776908
-0.262582
1.115298
-0.595862
-0.777454
-0.078192
-0.466434
1.144522
-1.117201
0.534135
-0.337668
0.091483
0.804869
-0.495967
-0.871292
0.467092
0.168925
-0.574817
-0.444467
0.884386
-0.650216
-0.131982
-0.729981
0.065199
-0.531321
0.782137
-1.623085
-0.063334
-0.171805
0.148955
0.618660
0.486272
0.265030
0.155590
0.310019
-0.963414
-0.774203
0.536187
-0.888631
-0.328587
-0.304877
0.677505
-0.292259
0.135465
0.189494
0.766765
0.220510
0.725200
1.012227
-0.700099
0.535682
0.138454
-0.226787
-0.493859
0.219719
-0.082425
-0.913378
-0.856057
-0.964387
-0.071852
-0.046553
-0.166353
0.386090
-0.300982
-0.176644
-0.941020
-0.355886
0.567948
-0.606833
-0.294319
-0.500113
0.857646
0.599757
0.793563
0.612883
0.259118
-0.646758
-0.691028
0.528635
0.435524
-0.090110
-0.980900
-1.335881
0.470835
-0.787711
-0.542375
-0.704453
0.260522
-1.000417
-0.402964
-0.059999
1.087366
-0.794928
-0.310854
0.672750
-0.827205
-0.219628
1.136029
-0.614700
-0.747658
-0.472717
-0.332583
0.307348
-0.012370
-0.810938
-0.321351
-0.141662
-0.102723
0.256305
-0.256038
0.579155
-0.891330
0.383848
-0.652399
-0.214333
-0.337838
-0.406664
-0.314523
0.770708
-0.007780
0.810398
-0.638601
0.463853
0.069984
0.644942
-0.978136
-0.643265
0.692664
-0.008957
-0.764470
-0.006354
0.167766
-0.018646
-0.050320
-0.612853
0.307156
0.854593
-0.256984
-0.359062
-0.307562
0.843971
-1.236066
-1.129205
0.750723
-0.572880
-0.114263
-0.761453
0.604144
-0.898917
0.642411
0.600053
0.371669
-0.854721
-0.020446
-0.070439
-0.575729
0.101979
-0.525477
-0.606959
0.666689
0.815956
0.901364
0.578871
-0.846742
0.872472
-0.470154
0.504539
-0.219822
-0.034625
0.905670
0.721129
0.138607
-1.107649
-0.165756
0.020544
-0.092962
0.906238
-0.053202
-0.893975
0.143146
-0.828039
-0.161111
-0.271008
0.532149
-0.426321
-0.861238
-0.282027
-0.802901
-0.570522
-0.096228
-0.035486
0.972088
0.466267
-0.622340
0.160055
-0.038162
-0.630145
-0.047452
-0.551351
0.820434
-0.405115
0.953560
0.713851
0.482242
-0.039024
-0.321243
1.158485
0.709045
0.818580
0.859605
0.074998
0.026230
-0.245279
-0.610052
-0.837475
-0.569305
0.268606
-0.579572
0.735185
0.302623
-0.143070
0.540429
-0.118858
-0.934571
-0.233053
-0.709283
-0.575932
-0.928241
-1.064132
0.487627
0.306215
0.406641
-0.022170
-0.652618
-0.007828
0.662124
1.750026
-0.956707
-1.054977
0.155471
-0.725894
0.410563
0.312218
0.608418
0.507465
0.732717
0.681264
0.754942
-0.322655
0.465308
1.161754
0.971385
0.604808
1.025060
0.102592
0.460019
0.512329
-0.895656
0.845368
0.560923
-0.423412
0.408564
0.163628
0.693496
-0.366723
0.221480
1.253866
-0.919825
-0.168884
0.722432
-0.149447
0.408211
0.597368
0.545350
-0.633048
0.242528
0.442609
-1.236533
0.970212
-0.122947
0.752272
0.685560
-0.060214
-0.076551
0.932663
0.651845
-1.012036
-0.815527
0.237598
-0.568102
-1.001043
0.307318
-0.385147
-0.184873
0.112650
0.300465
-0.025238
-0.897086
0.071325
-0.610082
-0.468580
0.521495
0.086168
0.509905
0.303872
-0.391539
-0.742342
-0.418380
0.796165
-0.475035
0.623531
0.691250
0.717627
-0.610196
-0.236190
-0.825143
0.847371
-0.141260
-0.135198
-0.336583
-0.008209
0.819508
-1.306906
0.380236
-0.177989
0.683871
1.178204
0.921449
0.227854
1.163077
-0.051972
-1.532114
0.037453
0.497424
0.348727
-0.256595
0.515553
0.152342
-1.044732
0.124552
-0.968374
0.099859
0.530101
0.061797
-0.053590
0.309285
-0.402158
-0.769454
0.760697
-0.115038
0.152662
-0.066040
-0.724747
0.263113
0.034131
0.763417
0.093874
0.773087
-1.413744
0.939034
-0.797419
-0.469882
0.557948
0.236161
-0.056185
0.303217
-0.011327
0.803222
0.300606
0.447113
-0.476118
0.154612
-0.143363
-0.316910
-0.542491
-0.515914
0.088788
-0.103440
0.675587
-0.163752
-0.474092
1.000630
-1.406872
0.836021
-0.473428
0.975114
0.937360
-0.347393
-1.280481
0.566304
0.693491
0.379469
0.700664
-0.488136
-0.327889
-0.808815
-1.057021
-0.201482
-0.870022
0.806085
-0.030957
1.397625
-0.662761
-0.764275
-0.255021
0.563621
0.809319
0.691383
-1.150207
0.067974
-0.935669
-0.087697
0.396056
-0.884857
-0.177177
0.941339
1.189034
-0.619820
-0.913337
0.288264
-0.873312
0.634183
0.518478
0.122763
1.095002
0.438384
-0.388182
-0.847549
0.372633
-0.810230
-0.308807
0.073292
-0.623685
-0.307403
0.433726
-0.830065
0.546990
-0.962698
0.580937
0.654928
0.282604
0.804044
-1.276094
-0.087756
-0.780321
0.656924
1.090387
0.538295
-0.666148
-0.097333
0.362195
-1.020887
0.283829
0.641164
1.055402
0.356718
0.127065
0.324405
0.436014
-0.688772
0.157483
-0.542775
-0.533665
-0.456696
0.392827
-0.187388
0.785415
-0.355933
-0.554658
0.647851
0.110532
0.386338
-0.240956
-0.712480
-0.424095
0.275288
-0.560548
0.229049
-0.394088
-0.048894
-1.097983
-0.504494
0.742828
0.791739
0.932123
-0.494456
0.897756
-0.627396
-0.349916
-0.154546
0.077960
-0.013298
0.371487
0.952995
-0.880433
0.682108
-0.463910
-0.691288
-0.698859
0.410821
-0.476946
-0.769120
0.333577
-0.074674
0.363994
0.302310
0.234158
0.036387
-1.075035
0.443328
-0.696050
-0.561279
0.185314
-0.550053
-0.087447
0.351771
-0.123153
0.729205
-0.359483
-0.120656
0.946398
0.455705
0.152576
0.047754
0.487262
-0.201520
0.014781
0.063303
1.310794
-0.959552
-0.447463
0.099805
-1.365495
0.605951
-0.395104
-0.919833
-0.075707
-0.703139
0.553133
0.997543
-0.695581
-0.044290
0.622764
-0.436949
-0.050599
-0.474380
-0.162639
0.465310
-0.712218
0.582227
-0.539027
-0.475364
0.669599
-0.027190
-0.954394
0.851271
0.949107
-0.058654
0.285915
0.265255
-0.538172
0.211554
-1.188049
-0.893131
-0.811888
-0.734340
0.526492
0.560534
0.010943
0.337790
0.433474
0.618228
0.576405
0.874093
0.929276
-0.443595
-0.976381
0.481050
-0.499606
-0.586478
-0.001683
0.530958
-0.793829
-0.801255
-0.686890
0.263681
-0.054167
-0.612572
-0.542108
-0.064344
-0.715622
-0.916855
-0.192703
-0.726194
-0.848154
-0.316486
-0.384561
0.464831
-1.130950
0.291835
0.400729
-0.485947
-0.334351
0.643437
0.613789
0.423675
-0.436483
-0.555407
-0.943706
0.043142
-0.819034
0.406456
0.514743
0.746942
-0.226554
-0.582857
-0.843789
-0.361714
0.419413
-0.379983
-0.212804
-1.274241
0.514250
-0.858521
-0.507536
1.060340
-1.511625
0.250357
-0.752801
-0.127518
-1.282205
0.759665
-0.453483
-0.418955
-0.498180
-0.716947
-0.700462
0.357145
-1.472856
-0.003078
-0.155196
1.027868
0.043245
-0.946109
-0.391957
0.307786
-0.274301
-0.515836
0.834227
-0.330482
-0.011705
0.064967
0.437630
0.768479
0.108250
-0.771355
-1.432455
1.145030
-0.401362
-0.624548
0.005811
0.776154
-0.760536
0.307700
-0.183944
0.108277
0.310172
-0.043768
-0.377136
-0.342795
0.500684
-0.245992
-0.069680
-0.340040
-0.450977
-0.348540
0.942284
0.710929
-0.085230
-0.142944
-0.022973
-0.432583
0.170138
0.512623
-0.054941
0.114305
-0.916128
-0.142395
0.366168
0.234355
0.188694
0.827515
0.210458
-1.081722
0.774758
0.941483
-0.972608
0.470930
-1.637831
0.136869
-0.063718
0.539351
-0.812399
0.010825
-0.935119
-0.782179
0.601224
-0.491247
0.968802
-0.273872
-0.334597
-0.022346
-1.307048
0.733750
-0.319429
-0.633618
-0.984516
-0.794387
0.918299
-1.161308
0.181788
-0.523381
0.496936
-0.755186
0.815109
0.249119
-0.702291
0.827326
-1.105427
-0.582812
0.917191
1.136686
-0.057455
-0.951749
-0.717949
0.436851
-0.615682
0.338329
1.119904
-0.740454
-0.585458
0.035362
-0.620723
-0.434948
0.182913
-0.296187
-0.712563
0.569049
-0.470185
-1.275179
-0.504532
1.077281
0.795245
-0.034311
0.517349
-0.317172
0.751218
-0.561441
-0.955159
1.210889
0.677606
-0.101273
0.190543
-0.458571
-0.702836
0.636917
0.590375
0.991906
-0.388225
0.342147
-0.154161
-0.587949
-0.387741
-0.007021
1.028058
0.255092
-2.279653
-0.636144
-0.311688
0.504384
-1.077157
0.287109
-0.331763
0.043037
-0.848415
-0.966073
-0.065399
-0.742598
-1.255433
-0.008314
0.271777
0.772561
-0.305782
0.593283
0.099114
-0.702467
0.299962
0.514626
0.932364
-0.976573
0.774066
0.295598
0.063148
-0.802139
-0.235610
-0.172406
-2.203738
0.289067
0.589968
-0.907558
-0.805125
0.937878
0.465553
-0.204703
-0.705309
-1.023753
0.209251
-0.693560
-2.007255
0.379410
-0.234927
0.262747
0.426786
0.298180
0.705174
-0.209797
0.793917
0.620554
0.413140
0.257074
0.378401
-0.824881
-0.664101
0.616219
-0.679991
0.651112
-1.112937
-0.373924
-0.460559
0.318945
-0.899353
0.349562
-0.576996
0.491194
0.199652
0.849196
0.557978
-0.727005
-1.818760
0.726610
0.552892
0.484162
0.229432
1.007810
0.705092
0.818684
-0.379303
0.792193
0.993722
-0.759176
-0.534141
-1.024771
-1.189759
-0.134853
-0.132741
-0.605719
-0.918097
-0.380114
-0.403582
-0.384337
-0.947036
1.160308
0.783561
-0.631574
-0.247258
0.221789
-1.161573
-1.037066
-0.915784
-0.310888
0.335927
-0.405561
-0.232252
-0.454305
-0.837102
-0.391847
-0.502444
-0.880106
1.164728
0.490237
0.674203
-0.930842
-0.338337
-0.849739
-0.874758
1.064538
-1.398748
0.589877
0.110565
-0.422322
0.407813
-0.007321
-0.054250
-0.494615
-0.815443
0.262902
-1.042989
-0.001098
-0.984141
0.642195
0.445057
1.134593
0.659837
-0.657624
-0.943432
-0.775275
-0.303318
-0.232936
-0.247836
-0.818457
-0.212540
-1.087282
-0.187296
1.063651
0.594804
0.841593
-1.901734
-0.825402
0.209888
-1.162528
0.235328
-0.605808
0.760414
0.402574
-0.757668
-0.320661
0.103235
0.726602
-0.338353
0.667403
0.907380
-0.513477
-0.758756
0.916511
-0.780574
-0.613092
-0.490775
0.745342
1.032736
0.451214
0.495846
-0.600874
-1.350990
-0.018286
-0.785253
0.008102
-1.479969
-0.606825
0.144497
-1.077754
-0.293285
0.283145
0.356037
0.113274
0.056465
-0.437069
-0.747425
0.005474
-0.909529
-0.034929
0.068881
-0.405770
-0.243789
1.008027
-0.039069
-0.725486
0.851895
-0.508033
-0.461729
0.019940
-0.126166
0.341260
-1.666090
-0.647041
-0.419432
0.147169
-1.375277
0.093541
0.519744
0.414845
-0.895844
-0.254981
-0.518111
-0.877266
-0.389233
0.868078
-0.222877
-0.372077
-1.532987
0.500507
-0.117506
0.753738
0.115600
0.672315
-0.124196
-0.144456
0.476712
0.097073
-0.713080
-0.438277
-0.786079
0.075481
0.252884
0.633601
0.977350
0.301124
-0.550026
-0.225472
0.663913
0.723073
-0.619625
0.756649
0.412771
0.131914
0.767096
-0.252471
-0.746734
1.349236
-0.884624
-0.539145
0.554113
-0.246737
-0.325520
0.703834
0.034612
0.606741
-0.202733
-0.043199
0.887943
0.355014
-0.197890
-0.865317
-0.321149
0.246093
-0.723597
0.826985
0.164214
-0.111961
-0.270354
0.084847
0.595235
1.170862
-0.079012
-0.548994
-0.263587
0.773519
-1.005324
-0.409185
-0.134962
0.472518
0.552288
-0.270146
-0.467867
0.985513
-0.953228
-0.587239
-0.091378
0.359011
0.151624
0.161604
0.622308
-0.994170
-0.450801
0.343694
0.942725
-0.352778
-0.082918
0.957109
0.425481
-0.090064
-0.587131
-0.379526
-0.729942
-0.634218
-0.308599
0.019670
0.272859
0.045742
0.365892
-0.799526
-0.248170
0.525269
-0.857528
-0.642238
0.353956
0.342706
0.283111
-0.772026
-0.028209
0.013297
0.986001
0.558044
0.311795
-0.382629
0.291543
-0.841706
0.657410
-0.013375
0.514811
0.536415
-0.617973
-0.569285
0.662338
0.573838
0.632383
0.138020
-0.365818
0.940649
0.149243
-0.679635
-0.895205
-0.140119
0.524056
0.460912
-0.125825
0.564551
-0.074322
-0.183005
-0.992707
-0.041596
-0.932119
-0.561840
-0.154923
-0.802962
0.638653
0.832217
0.168860
0.646478
0.439527
0.636903
-0.222855
-0.835287
0.580456
-0.252160
0.691014
-0.992571
0.008228
0.384989
0.959229
-0.381784
-0.023827
0.881634
0.278498
-0.619375
0.355872
-0.804233
-0.606755
-0.012205
0.177143
-0.711374
0.789171
0.332375
-1.269462
-0.431038
-0.807519
0.801052
1.066836
0.491921
-1.126029
1.177814
0.140792
-0.655529
0.248750
0.795013
-0.419347
-0.659016
0.279150
-0.592219
1.157182
-0.224591
-0.442959
-0.033373
-1.070247
0.104484
-0.962577
0.957292
0.315863
-0.058841
-0.199783
-0.804562
-0.876686
0.457129
-0.343814
-0.153776
0.600329
0.306561
